svm_type c_svc
kernel_type rbf
gamma 2
nr_class 8
total_sv 4134
rho -1.03325 -2.19966 -0.838877 -1.0633 -0.990225 -0.879702 -3.1279 -0.688213 -0.0724062 0.0179871 -0.0820345 0.499372 -1.15154 0.495273 0.811196 0.292954 0.921101 -1.60373 -0.1384 -0.339198 0.0304205 -0.626932 -0.797998 0.173051 -1.88604 0.285854 -0.898682 -2.89403
label 1 3 2 5 4 7 6 8
probA -2.8152 -2.6093 -4.28314 -3.25427 -5.1096 -3.06665 -3.00205 -3.46373 -4.24588 -3.05288 -4.53579 -3.10982 -3.29895 -4.694 -3.65426 -4.74017 -2.53928 -2.05539 -4.44597 -5.52516 -4.40456 -4.72078 -2.96313 -2.78385 -3.00263 -4.29178 -3.74729 -2.44849
probB -0.109001 -0.238418 -0.0193407 -0.0157811 0.110808 -0.00559859 -0.069704 -0.244677 -0.254722 0.0509687 0.0121636 -0.154935 -0.241998 -0.0087719 0.16874 0.114112 0.140166 0.0162294 0.175302 0.601271 0.0533968 -0.282832 -0.0645734 -0.0782475 -0.327554 -0.0876036 -0.183127 -0.182913
nr_sv 1025 329 327 461 654 292 540 506
SV
0.018772983648553 0 0 0.2692608054984846 0 0.2022268593255554 0 1:-0.875942 2:0.358819 3:-0.685279 4:-0.133765 5:-0.207972 6:-0.624159 7:0.0421915 8:-0.563192 9:-0.454634 10:-0.11837 11:0.206158 12:-0.317259 13:0.0609436 14:-0.89299 15:-0.0834969 16:0.185656 17:0.410221 18:0.362773 
0 0 0 0 0.04339100088351987 0.6494079455628393 0 1:-0.680374 2:0.262575 3:-0.512254 4:0.0515928 5:0.126374 6:-0.452206 7:-0.151918 8:-0.515572 9:-0.440633 10:0.0498124 11:0.182504 12:-0.204825 13:0.150075 14:-0.0732585 15:-0.283773 16:-0.041436 17:0.47003 18:0.49604 
0 0 0 0 0 14.93026419046487 0 1:-0.631641 2:0.0876026 3:-0.34346 4:-0.0325471 5:0.076542 6:-0.439851 7:-0.151477 8:0.140949 9:0.0877643 10:-0.0178745 11:0.0322334 12:-0.134494 13:0.191609 14:-0.520279 15:-0.0862647 16:0.0335846 17:0.459502 18:0.45404 
0.6731029953779671 14.20529333445483 0 0 0 0 15.21888486696584 1:-0.584796 2:0.0692126 3:-0.288556 4:-0.0118531 5:-0.0605294 6:-0.343654 7:-0.158065 8:0.176204 9:0.096718 10:0.0378533 11:-0.0159658 12:-0.109818 13:0.156623 14:-0.485634 15:-0.0406866 16:0.0522687 17:0.502198 18:0.504954 
0 0 0 4.129950506375378 0 0 9.589149078494167 1:-0.748721 2:-0.160594 3:-0.217003 4:-0.167643 5:0.00535752 6:-0.53839 7:-0.224318 8:0.141856 9:-0.0363702 10:0.198844 11:-0.203728 12:-0.147441 13:0.0294774 14:-0.159803 15:-0.206245 16:0.0975454 17:0.448488 18:0.349203 
5.751477785750772 0 0 6.308625370200271 0 0 0 1:-0.73206 2:-0.148273 3:-0.25929 4:-0.172367 5:-0.042831 6:-0.493864 7:-0.23061 8:0.0964601 9:-0.046715 10:0.12035 11:-0.192684 12:0.0120592 13:-0.118621 14:-0.372755 15:-0.0953944 16:0.158515 17:0.485138 18:0.422429 
0.2676607108808123 0 0 0 0 0 0 1:-0.4797 2:-0.383779 3:-0.196554 4:0.207637 5:-0.160468 6:-0.800576 7:-0.19274 8:-0.143403 9:0.0194773 10:0.0542094 11:0.384638 12:-0.546782 13:0.479799 14:-0.362626 15:0.335882 16:0.113636 17:0.49192 18:0.551067 
0 0 0 0.195963515056546 0 0 0 1:-0.435627 2:-0.358574 3:-0.0503516 4:0.391169 5:0.065635 6:-0.744134 7:-0.358123 8:-0.168923 9:0.0415959 10:0.0382277 11:0.487872 12:-0.594739 13:0.170584 14:-0.0670561 15:0.302622 16:-0.0604231 17:0.444748 18:0.623994 
0 0 0 0.5556737887046412 7.166302956847558 0 0 1:-0.333591 2:0.316399 3:-0.634825 4:-0.108544 5:-0.0177238 6:-0.342938 7:-0.148286 8:0.351518 9:-0.063634 10:0.243451 11:-0.00758985 12:-0.32128 13:0.150845 14:-0.127742 15:-0.0148628 16:-0.0316944 17:0.589778 18:0.491121 
6.940305700078408 0 0 0 2.063605874587299 3.734794123292398 0 1:-0.367252 2:0.355669 3:-0.572771 4:-0.0335184 5:0.0748904 6:-0.407499 7:-0.184664 8:0.336007 9:-0.00224982 10:0.199955 11:-0.0113363 12:-0.305682 13:0.0527055 14:-0.203362 15:-0.0326119 16:0.02011 17:0.579162 18:0.508895 
3.194467597828861 0 0.2997783548746129 0 0 1.389706573609397 0 1:-0.57093 2:0.599219 3:-0.318828 4:-0.497644 5:-0.0495452 6:-0.448305 7:-0.156533 8:-0.286863 9:-0.326528 10:0.0577323 11:0.0891397 12:-0.482306 13:0.30343 14:-0.404994 15:-0.170653 16:-0.375008 17:0.470252 18:0.444339 
0 0 0.5616035361295677 1.245888295811193 0 0 0 1:-0.421496 2:0.499053 3:-0.346515 4:-0.640423 5:0.0456885 6:-0.39178 7:-0.118735 8:-0.206867 9:-0.353906 10:0.0731708 11:0.221575 12:-0.574515 13:0.0521771 14:-0.435225 15:-0.0450322 16:-0.301613 17:0.399084 18:0.437349 
0 0 0 0 0 26.25087034376279 32 1:-0.658024 2:0.23351 3:-0.37982 4:-0.014559 5:-0.135117 6:-0.347626 7:-0.184244 8:0.165481 9:-0.0754957 10:0.232459 11:0.0244032 12:-0.321256 13:0.109306 14:-0.297357 15:-0.116436 16:-0.0123313 17:0.495519 18:0.430983 
24.23741852492702 0 3.8148057678776 0 0 6.174227532276809 32 1:-0.612645 2:0.182203 3:-0.344834 4:-0.0402224 5:0.114111 6:-0.349349 7:-0.231074 8:0.229988 9:-0.0337537 10:0.237998 11:-0.0190268 12:-0.248452 13:0.0877796 14:-0.188313 15:-0.164461 16:0.0108496 17:0.561173 18:0.499081 
5.91238647152546 0 0 0 0 2.125323740839559 0 1:-0.665191 2:-0.0258067 3:-0.0877212 4:0.276462 5:-0.23318 6:-0.550699 7:-0.195632 8:-0.0431309 9:0.245605 10:0.130579 11:0.146706 12:-0.528572 13:0.159586 14:-0.331605 15:-0.177571 16:-0.287694 17:0.514118 18:0.479204 
6.611139024462275 0 0 0 0 2.389272944278992 0 1:-0.605112 2:-0.0899196 3:-0.0588793 4:0.238085 5:0.162438 6:-0.625104 7:-0.157395 8:0.00578984 9:0.33218 10:0.118411 11:0.116433 12:-0.471769 13:0.192325 14:-0.365739 15:-0.204674 16:-0.321376 17:0.518081 18:0.518834 
0 0 0.7956761096794402 0 0 2.873346261852945 0 1:-0.747916 2:0.143063 3:-0.263751 4:-0.032239 5:0.0320976 6:-0.497096 7:-0.0534961 8:0.0141772 9:-0.153565 10:0.0188378 11:-0.0252415 12:-0.266717 13:0.233213 14:0.11569 15:-0.139819 16:-0.100204 17:0.571558 18:0.446156 
2.610191694258448 1.079464692560502 0 0 0 0 2.22180948349718 1:-0.625139 2:0.0301568 3:-0.264157 4:-0.11424 5:-0.0766024 6:-0.352774 7:-0.114457 8:0.0983222 9:-0.170009 10:0.0725037 11:0.0203343 12:-0.201951 13:0.107721 14:0.0763913 15:-0.0155984 16:-0.00738627 17:0.625653 18:0.380639 
0.8729638594183443 0 0 0 0 0 0 1:-0.847803 2:0.297688 3:-0.262576 4:0.20777 5:-0.0533033 6:-0.591952 7:-0.425278 8:0.207317 9:-0.347966 10:0.288602 11:-0.135775 12:-0.331407 13:0.155977 14:-0.0137987 15:-0.156902 16:-0.028964 17:0.464149 18:0.441791 
21.43146097010673 1.692342293269529 4.12509263845121 0 0 5.163904865417818 10.58273581267506 1:-0.782476 2:0.254798 3:-0.241359 4:0.105544 5:-0.0077084 6:-0.516644 7:-0.364249 8:0.249058 9:-0.312651 10:0.336995 11:-0.21192 12:-0.325265 13:0.0925436 14:-0.186512 15:-0.081756 16:0.0560853 17:0.49095 18:0.463609 
7.913070380259736 0 0.4227707044676506 13.75642111646904 0 0 0 1:-0.585675 2:0.359201 3:-0.118467 4:-0.0669661 5:0.0580075 6:-0.627809 7:-0.366984 8:0.0497745 9:-0.224459 10:0.0736111 11:-0.0545287 12:-0.0239433 13:0.0379633 14:-0.464202 15:-0.0245024 16:-0.0495183 17:0.47791 18:0.451746 
0 0 26.78088177890852 18.40780437589767 0 0 0 1:-0.513135 2:0.32243 3:-0.0977681 4:-0.094468 5:-0.0723838 6:-0.495611 7:-0.369141 8:0.0658209 9:-0.192195 10:0.162787 11:-0.045087 12:0.000587366 13:0.138263 14:-0.41811 15:-0.0332224 16:-0.0174116 17:0.444541 18:0.447006 
0 0.2530387098487889 0 0 0 0 0 1:-0.712569 2:-0.0513133 3:-0.204208 4:-0.142013 5:-0.0418737 6:-0.524661 7:-0.298597 8:0.00180738 9:0.0539033 10:0.339574 11:0.106003 12:-0.139621 13:0.0987865 14:-0.543737 15:-0.132133 16:0.04552 17:0.512603 18:0.532452 
0 2.145305786155578 0 0.2739386080157156 0 3.474544691546751 2.064969207645066 1:-0.461197 2:0.303418 3:-0.269524 4:0.416265 5:0.0897078 6:-0.581301 7:-0.0410152 8:-0.0333001 9:0.0549126 10:0.128074 11:0.12337 12:-0.581013 13:0.319613 14:-0.160721 15:-0.0516351 16:-0.0895922 17:0.504943 18:0.466348 
0 0 0 0 0 0.840734596588064 0 1:-0.497819 2:0.341633 3:-0.267336 4:0.43655 5:-0.0890772 6:-0.563153 7:-0.0336953 8:-0.0818831 9:0.0876239 10:0.0551407 11:0.118001 12:-0.613558 13:0.101683 14:-0.178617 15:0.00167515 16:-0.0138331 17:0.530365 18:0.447738 
1.001771666221231 0 1.15877477913187 4.919852499561483 0 0 0 1:-0.550369 2:0.00664741 3:-0.166995 4:-0.147587 5:-0.148698 6:-0.313762 7:-0.204345 8:-0.215034 9:-0.0745481 10:0.215227 11:0.0259597 12:-0.597085 13:0.0788926 14:-0.0741817 15:0.0878936 16:-0.159555 17:0.582319 18:0.498973 
0 0 0 3.311591154040018 0 0 0 1:-0.522131 2:-0.0144858 3:-0.229623 4:-0.265613 5:0.180067 6:-0.400573 7:-0.130978 8:-0.223224 9:-0.02839 10:0.191734 11:0.0931882 12:-0.55763 13:0.256438 14:-0.120709 15:0.102234 16:-0.159379 17:0.54963 18:0.597557 
1.179658399961651 0 0.5945560952072754 0.5819942271662061 0.6078867469386 0 0 1:-0.5293 2:0.432129 3:-0.516396 4:-0.274436 5:0.187476 6:-0.458153 7:-0.166152 8:-0.0840347 9:-0.168314 10:0.088493 11:-0.209092 12:-0.255743 13:-0.00657126 14:-0.646566 15:-0.457612 16:-0.36285 17:0.677428 18:0.482687 
0 0 0 0 0 0.3365591035381115 0 1:-0.278881 2:-0.120732 3:-0.121883 4:0.417701 5:0.0932008 6:-0.435532 7:-0.302112 8:-0.361977 9:0.0526298 10:0.234259 11:-0.13735 12:0.0941774 13:0.133565 14:-0.372154 15:0.0215628 16:0.0683032 17:0.495081 18:0.509198 
0 0 0 0 0 0 3.569796677345145 1:-0.63619 2:-0.332269 3:-0.156497 4:0.0332562 5:0.0432938 6:-0.676786 7:-0.182479 8:-0.215771 9:-0.173714 10:0.184242 11:0.0744264 12:-0.14465 13:0.137318 14:-0.0982748 15:-0.309573 16:-0.0552703 17:0.444714 18:0.43614 
0 0 0.1886082103187181 0 2.757929705584791 0 1.185773599226593 1:-0.566588 2:-0.452703 3:-0.19492 4:-0.0190853 5:-0.111817 6:-0.59558 7:-0.194202 8:-0.186461 9:-0.0473148 10:0.159155 11:0.245465 12:-0.239685 13:0.0805348 14:-0.183589 15:-0.124959 16:0.0150129 17:0.486905 18:0.48873 
0.6569865787622614 0 0 0 0 0 0 1:-0.750288 2:0.185609 3:-0.219931 4:0.00789102 5:0.00245895 6:-0.388688 7:-0.291644 8:-0.295231 9:-0.104875 10:-0.195519 11:-0.34241 12:-0.151277 13:0.255903 14:-0.0753663 15:0.318029 16:0.274762 17:0.522992 18:0.461289 
1.35970270974715 1.314360946130831 0 0 0 1.05506518922975 0 1:-0.697802 2:0.151495 3:-0.21776 4:-0.00850646 5:0.0460542 6:-0.336795 7:-0.346059 8:-0.277987 9:-0.1184 10:-0.123178 11:-0.285881 12:-0.210164 13:0.250286 14:0.246476 15:0.194421 16:0.230658 17:0.549241 18:0.465242 
0 0 0 0 0 4.619674135288265 0 1:-0.610128 2:-0.135986 3:-0.363611 4:-0.164662 5:0.0106053 6:-0.356242 7:-0.296009 8:0.0700925 9:0.054567 10:0.22323 11:0.0479331 12:-0.184488 13:0.137846 14:0.10137 15:-0.105242 16:-0.0548798 17:0.406482 18:0.445556 
0 0 0 0 0 0.002371159197578917 0 1:-0.847699 2:-0.174744 3:-0.243412 4:0.0143119 5:-0.0173289 6:-0.576058 7:-0.370216 8:-0.135631 9:-0.126654 10:0.192782 11:-0.0170472 12:0.213626 13:0.137933 14:-0.203043 15:-0.293545 16:-0.0950745 17:0.296391 18:0.29362 
16.44296893179353 0 0 0 0 0 0 1:-0.752513 2:0.0782534 3:-0.217932 4:-0.100216 5:-0.0808753 6:-0.538652 7:-0.449847 8:0.12423 9:0.0121319 10:0.132947 11:-0.022904 12:-0.158569 13:0.0340195 14:-0.00406771 15:0.131674 16:-0.000647711 17:0.541117 18:0.512595 
0.8276135313635308 0.3032255674867705 0 0.6110016412239455 2.329003185682304 0 0 1:-0.644696 2:-0.0124523 3:-0.18714 4:-0.134484 5:0.054915 6:-0.478459 7:-0.469486 8:0.184495 9:0.0832793 10:0.160611 11:0.0426302 12:-0.150107 13:0.0154767 14:0.142632 15:0.146731 16:-0.00462328 17:0.490061 18:0.557535 
1.12327447762226 0 0 0 0 0.3485633242625685 0 1:-0.87218 2:0.335244 3:-0.300746 4:0.144455 5:0.0522607 6:-0.506502 7:-0.146574 8:-0.467758 9:-0.20494 10:0.124702 11:0.259155 12:-0.342762 13:0.125918 14:0.231849 15:0.149621 16:0.338942 17:0.370938 18:0.494273 
0 0 0 0 0 4.079506050433087 0 1:-0.717053 2:0.180238 3:-0.369538 4:-0.0918515 5:-0.0699562 6:-0.333137 7:-0.0643254 8:-0.382968 9:-0.175093 10:0.179278 11:0.206083 12:-0.320143 13:0.112301 14:0.0503648 15:0.247954 16:0.51492 17:0.443717 18:0.437263 
0 0 0 0 0 1.775917356486275 0 1:-0.520002 2:-0.0451231 3:-0.115575 4:0.291846 5:-0.00954143 6:-0.49264 7:-0.142195 8:-0.250573 9:-0.0886534 10:0.082766 11:0.278047 12:-0.386613 13:0.258835 14:-0.307485 15:-0.0664643 16:-0.102765 17:0.511753 18:0.424272 
0 0 0 0 0 2.344895446102299 0 1:-0.38174 2:-0.348002 3:-0.0851081 4:0.137164 5:-0.0880171 6:-0.494851 7:0.0808851 8:-0.0979411 9:-0.102577 10:0.153445 11:0.484816 12:-0.340201 13:0.340513 14:-0.149705 15:0.01848 16:0.256206 17:0.327109 18:0.553938 
0 0 7.650412799524553 4.309470143119775 0 0 0 1:-0.447093 2:-0.18193 3:0.0805947 4:0.177195 5:-0.118942 6:-0.658913 7:-0.113839 8:-0.0352372 9:-0.0234782 10:0.36341 11:-0.203877 12:-0.363367 13:0.250081 14:-0.211511 15:-0.127237 16:0.0962324 17:0.496229 18:0.459791 
2.40802871517395 0 0 4.817420523628048 0 0 0 1:-0.422232 2:-0.139029 3:0.0710299 4:0.123519 5:0.0554284 6:-0.750062 7:-0.0379065 8:-0.11383 9:-0.0343916 10:0.317606 11:-0.152511 12:-0.450858 13:0.23168 14:-0.269468 15:-0.15857 16:0.110391 17:0.447955 18:0.444992 
10.97056703330352 0 0 32 4.190276817391044 0.3972272901520189 3.572752476704797 1:-0.420926 2:0.256075 3:-0.338807 4:-0.166502 5:-0.00850179 6:-0.486888 7:-0.250989 8:0.0735848 9:-0.283287 10:0.31519 11:0.016764 12:-0.175333 13:0.120244 14:-0.299947 15:-0.003068 16:0.148746 17:0.472892 18:0.50116 
0 5.693922421996498 0 2.3970875168272 0 2.19962309570418 3.619465046190684 1:-0.631327 2:0.320866 3:-0.439961 4:-0.0151297 5:0.0655477 6:-0.608619 7:0.151457 8:-0.0690855 9:-0.347568 10:0.106992 11:-0.27308 12:-0.112252 13:0.314037 14:-0.217799 15:-0.157731 16:0.173206 17:0.542972 18:0.496873 
5.084677941587151 0 2.86074096613596 1.685773716539275 1.252041577960961 0.2529232231405567 0 1:-0.385318 2:0.35928 3:-0.0503753 4:-0.4382 5:-0.110489 6:-0.429914 7:-0.396342 8:-0.0370564 9:-0.0413445 10:0.129511 11:0.0427396 12:-0.186515 13:0.250248 14:-0.0842467 15:0.125424 16:0.212713 17:0.608524 18:0.48287 
10.3392786580338 0 3.005703698951768 11.94681548932635 1.029052205219093 0 0 1:-0.404293 2:0.4084 3:-0.0477505 4:-0.414912 5:0.0519777 6:-0.484959 7:-0.42284 8:-0.0284544 9:-0.0515989 10:0.0851194 11:0.105743 12:-0.250204 13:0.0663922 14:-0.110201 15:0.0230562 16:0.048555 17:0.585244 18:0.456078 
0 0 0 0 0 0.23923368515025 26.65195628291652 1:-0.657333 2:0.0533106 3:-0.183459 4:0.199444 5:0.0377936 6:-0.408271 7:-0.378836 8:0.127866 9:0.0293348 10:0.278959 11:0.0320893 12:-0.0647758 13:0.140882 14:-0.0380793 15:-0.127755 16:0.0158273 17:0.387441 18:0.469698 
0 25.03174026419823 0 2.147038512847251 0 12.99118180332988 20.48901818898986 1:-0.620276 2:0.0345632 3:-0.196824 4:0.138806 5:0.0904936 6:-0.352366 7:-0.309713 8:0.152242 9:0.0748486 10:0.248783 11:0.227947 12:-0.132293 13:0.139002 14:-0.156532 15:-0.124435 16:0.085966 17:0.419504 18:0.481737 
1.606641159580393 0 0 0 0 3.508218035333956 0 1:-0.812204 2:0.440791 3:-0.22935 4:0.0189519 5:0.0296921 6:-0.659299 7:-0.332678 8:-0.268501 9:-0.143345 10:0.215224 11:0.0336305 12:-0.415126 13:0.242278 14:-0.0459655 15:-0.0182988 16:0.0480026 17:0.514373 18:0.492589 
0 0 0 0 0 7.04519683075515 0 1:-0.802326 2:0.346103 3:-0.371643 4:0.102435 5:0.018376 6:-0.599175 7:-0.106624 8:-0.107903 9:-0.0844188 10:0.0925374 11:0.0161317 12:-0.286556 13:0.0510899 14:-0.297363 15:-0.0543933 16:0.0689253 17:0.520766 18:0.510234 
0 0 1.366426926517682 0.7417934858505116 0.2530902655885995 0 0 1:-0.126826 2:-0.35747 3:0.321138 4:0.219421 5:-0.0491497 6:-0.307184 7:-0.566963 8:-0.0129109 9:0.0616805 10:0.281352 11:-0.270205 12:0.0141752 13:0.00760339 14:0.114857 15:-0.045124 16:0.193152 17:0.612273 18:0.534326 
0.287918908768617 0 0 0.5296564913767643 1.281247846686168 0 0 1:-0.161794 2:-0.299578 3:0.274875 4:0.258573 5:0.089432 6:-0.409054 7:-0.508946 8:-0.0617872 9:0.103976 10:0.210385 11:-0.0802381 12:-0.156615 13:-0.0924151 14:0.312207 15:-0.0103345 16:0.14559 17:0.567082 18:0.596853 
3.121162531825673 0 0 9.216138736639881 0 0 0 1:-0.771602 2:0.165545 3:-0.402344 4:-0.156748 5:-0.21643 6:-0.509297 7:-0.138948 8:0.172023 9:-0.100728 10:0.190396 11:-0.194608 12:-0.175508 13:0.0482442 14:-0.470322 15:0.0137426 16:0.13473 17:0.571511 18:0.452294 
0 4.738653800931692 0 0 0 5.919820256322274 0.2026372289866921 1:-0.717185 2:0.15143 3:-0.375511 4:-0.132 5:0.128352 6:-0.530852 7:-0.150932 8:0.168915 9:-0.102716 10:0.208284 11:-0.0407475 12:-0.405732 13:-0.0607976 14:-0.0238568 15:-0.0469918 16:-0.0144963 17:0.552068 18:0.426726 
0 0 0 0 0 0 24.21510721879287 1:-0.595476 2:0.0133141 3:-0.370199 4:-0.127924 5:-0.0459075 6:-0.339242 7:-0.395518 8:0.0834186 9:-0.0105807 10:0.257379 11:-0.126067 12:-0.313628 13:0.163742 14:-0.291562 15:-0.0188725 16:0.0313295 17:0.546331 18:0.527181 
0 3.674492876851686 0 0 0 1.463151528314387 0 1:-0.660383 2:0.0901 3:-0.267295 4:0.00266849 5:0.0932545 6:-0.376676 7:-0.441565 8:0.0113389 9:0.0365134 10:0.216775 11:-0.111542 12:-0.332138 13:0.0633673 14:-0.225139 15:-0.0657958 16:-0.0434444 17:0.544039 18:0.553623 
0 0 0 0 0 0.2313816702750537 0 1:-0.913526 2:-0.0332417 3:-0.199477 4:-0.280505 5:-0.0449506 6:-0.458934 7:-0.0090134 8:-0.102532 9:-0.159929 10:0.153478 11:0.195025 12:-0.381192 13:0.0343265 14:-0.134516 15:-0.0354996 16:-0.04422 17:0.55053 18:0.142339 
1.731536367540932 0 0 0 0 0.5091409664005893 0 1:-0.817538 2:-0.144338 3:-0.0749542 4:-0.189827 5:0.0384678 6:-0.44788 7:-0.0430507 8:-0.12307 9:-0.162737 10:0.253735 11:0.199869 12:-0.374381 13:0.226637 14:0.0641824 15:0.124919 16:0.154416 17:0.623662 18:0.312654 
0 0 0 0 0 1.422040213066325 0 1:-0.521186 2:-0.376303 3:0.213793 4:0.113668 5:-0.190954 6:-0.49269 7:0.0405462 8:-0.303221 9:0.0450665 10:0.424266 11:-0.049389 12:-0.570806 13:0.247025 14:-0.215342 15:-0.0790709 16:-0.0520049 17:0.612846 18:0.380869 
1.053211913516213 0 0 0 0 1.068671846266272 0 1:-0.526506 2:-0.328907 3:0.190045 4:0.132408 5:0.151563 6:-0.587202 7:0.113003 8:-0.284476 9:-0.0715113 10:0.39939 11:-0.110878 12:-0.383133 13:0.347699 14:-0.228227 15:-0.033192 16:-0.0139775 17:0.592175 18:0.336566 
0 0 0 8.40333630744111 3.150835226591933 0 0 1:-0.415045 2:-0.0906043 3:-0.260397 4:0.264272 5:0.040523 6:-0.741432 7:-0.145968 8:-0.0711657 9:-0.0510919 10:0.349736 11:-0.022571 12:-0.277074 13:0.183416 14:-0.238169 15:0.139055 16:0.248755 17:0.489922 18:0.490217 
0 0 0 0 0.4559256700411879 0 3.594168491052906 1:-0.549042 2:-0.162375 3:-0.2636 4:-0.228599 5:-0.0132253 6:-0.271017 7:-0.235639 8:0.251999 9:-0.0179495 10:0.311653 11:-0.061883 12:-0.143936 13:-0.0360389 14:0.112839 15:-0.000506591 16:0.0728508 17:0.533635 18:0.5214 
11.14240987893499 3.297105756931892 0 0 0 0 0 1:-0.622134 2:-0.0765735 3:-0.181197 4:-0.0692252 5:0.0469912 6:-0.319796 7:-0.272897 8:0.148994 9:0.102646 10:0.278634 11:-0.11574 12:-0.129206 13:-0.157348 14:0.00370118 15:-0.0409582 16:0.0325123 17:0.473521 18:0.576077 
1.081713523592172 0 0 0 0 3.261614109950234 0 1:-0.618025 2:-0.277112 3:-0.186433 4:0.0882341 5:-0.0906489 6:-0.666593 7:-0.304079 8:-0.0593319 9:-0.213995 10:0.315512 11:-0.0240835 12:-0.275512 13:0.183144 14:-0.382879 15:-0.103575 16:0.147789 17:0.433772 18:0.414558 
0 0 0 0 0 3.330016313463857 7.102552925138124 1:-0.617668 2:-0.271788 3:-0.201611 4:0.0454763 5:0.0985053 6:-0.704887 7:-0.245197 8:-0.095056 9:-0.264109 10:0.276508 11:0.0694312 12:-0.322506 13:0.0757197 14:-0.30092 15:-0.0876106 16:0.109827 17:0.41614 18:0.479009 
0 0 0 0 0.5654777169859919 0 0 1:-0.536295 2:-0.575114 3:-0.0325176 4:0.000284445 5:0.0551088 6:-0.679658 7:-0.0583062 8:-0.183155 9:0.0783779 10:0.112382 11:0.131039 12:-0.12067 13:0.227988 14:-0.331371 15:0.023647 16:0.161233 17:0.385682 18:0.373851 
0.8490857027219402 0 0.4774604381090053 1.306980597633307 0.1800066852289067 0 0 1:-0.40341 2:0.0866016 3:0.19539 4:-0.0285175 5:-0.216347 6:-0.714843 7:-0.0385364 8:-0.414694 9:-0.180383 10:-0.0930858 11:0.0901187 12:-0.126979 13:-0.103185 14:-0.172541 15:0.123144 16:0.167183 17:0.57796 18:0.412134 
0 0 0 2.375957759484476 0 0 0 1:-0.39161 2:0.081303 3:0.154698 4:0.0715537 5:0.169249 6:-0.772965 7:-0.0415171 8:-0.448113 9:-0.222642 10:-0.0394834 11:-0.0100042 12:-0.202318 13:0.102845 14:-0.0941288 15:-0.0360029 16:0.128487 17:0.520426 18:0.491034 
0 0 0 0 0 0.3841075497628579 0 1:-0.315556 2:-0.0151759 3:0.102089 4:0.288438 5:-0.106001 6:-0.401121 7:-0.0509026 8:-0.414206 9:0.0806106 10:0.175727 11:-0.2401 12:-0.284993 13:0.16907 14:-0.168291 15:0.204774 16:0.0667009 17:0.563425 18:0.41635 
4.44261194170859 0 0 0.281982819437637 0 0 0 1:-0.311124 2:-0.102776 3:0.118217 4:0.20997 5:-0.0420991 6:-0.465368 7:-0.0422681 8:-0.314393 9:0.145229 10:0.206303 11:-0.316894 12:-0.273942 13:0.116387 14:-0.121787 15:0.199478 16:0.116664 17:0.552307 18:0.39814 
0 0 1.724989545211946 0 1.659847024924262 1.840646992782343 0 1:-0.340637 2:-0.288244 3:0.191394 4:0.251334 5:-0.0700625 6:-0.423252 7:-0.290806 8:-0.230153 9:-0.0213547 10:0.367313 11:-0.238144 12:-0.122347 13:-0.0194591 14:0.0748318 15:-0.0526741 16:-0.0150584 17:0.540661 18:0.518362 
2.620789631570615 0 0.3652378690809605 4.64989749440785 0.4649331648246105 0 0 1:-0.268653 2:-0.377735 3:0.208062 4:0.261163 5:0.078193 6:-0.436413 7:-0.4011 8:-0.183194 9:0.0567442 10:0.345367 11:-0.243035 12:-0.0724716 13:-0.0713126 14:0.0625586 15:-0.0820175 16:0.0669017 17:0.512172 18:0.493198 
0 0 0.686544921655144 0 0 0 0 1:-0.54164 2:0.318631 3:-0.268599 4:-0.431665 5:-0.0437326 6:-0.152165 7:-0.373738 8:-0.493352 9:0.0541606 10:0.137255 11:0.140969 12:-0.314289 13:-0.160029 14:-0.63624 15:-0.0817039 16:-0.234589 17:0.51405 18:0.479966 
0 0 0.3698967911917424 0 2.837246221644203 0 0 1:-0.519892 2:0.276638 3:-0.261448 4:-0.48009 5:0.0877789 6:-0.186559 7:-0.366454 8:-0.463561 9:0.0579616 10:0.155635 11:0.105821 12:-0.211629 13:0.182467 14:-0.471334 15:-0.227398 16:-0.30182 17:0.571972 18:0.464075 
0 0 0 24.14839188537535 0 5.038190900525304 7.451592802993257 1:-0.406561 2:0.0307804 3:-0.429581 4:-0.183626 5:-0.0535687 6:-0.307568 7:-0.120291 8:-0.259056 9:-0.0961684 10:0.265288 11:-0.116622 12:-0.358946 13:-0.0328723 14:-0.210464 15:-0.0830697 16:0.063634 17:0.504109 18:0.505753 
0 0 0 5.50279478602343 0 0 0 1:-0.451458 2:0.0924669 3:-0.390676 4:-0.200255 5:0.00669788 6:-0.407781 7:-0.229094 8:-0.237508 9:-0.0275977 10:0.195177 11:-0.117697 12:-0.299946 13:0.189004 14:-0.129404 15:-0.326745 16:0.0613736 17:0.554158 18:0.613221 
6.730565147737146 0 0 0 0 0 0 1:-0.570068 2:0.509032 3:-0.178876 4:-0.00959414 5:-0.060147 6:-0.481337 7:-0.453533 8:0.077503 9:-0.216058 10:0.146322 11:-0.121789 12:0.0507414 13:0.270787 14:-0.14992 15:0.0790737 16:0.0784199 17:0.528924 18:0.546479 
12.7629128863923 0 3.69605436695434 0 0.9076722978768628 0 0 1:-0.556505 2:0.594573 3:-0.0972207 4:-0.13865 5:0.0726632 6:-0.559728 7:-0.376476 8:0.0842658 9:-0.177989 10:0.0861056 11:-0.027243 12:0.0664233 13:0.098397 14:-0.207926 15:0.0951071 16:0.0877408 17:0.560765 18:0.440132 
0.524993205612342 1.168947065796167 0 0 0 0 0 1:-0.473677 2:-0.240799 3:0.0840091 4:0.220593 5:0.230108 6:-0.418522 7:-0.265621 8:-0.252398 9:-0.00794832 10:0.123719 11:-0.00865244 12:-0.328925 13:0.297974 14:-0.103396 15:0.00526923 16:-0.129788 17:0.487135 18:0.604552 
1.844868299881375 0 0 0 0 0 0 1:-0.452453 2:-0.347835 3:0.0488875 4:0.0768648 5:-0.14266 6:-0.316339 7:-0.318584 8:-0.209268 9:0.146556 10:0.107698 11:0.0844874 12:-0.464819 13:0.0661981 14:-0.165218 15:0.166569 16:-0.0527762 17:0.498236 18:0.566129 
0 0 0 0 0 0.9197057855032789 0 1:-0.510802 2:0.0295338 3:-0.0230529 4:0.408173 5:0.142448 6:-0.71635 7:-0.202894 8:-0.219822 9:-0.0610738 10:0.0725278 11:0.0459313 12:-0.428545 13:0.15275 14:-0.0692565 15:-0.109261 16:-0.163817 17:0.545528 18:0.540019 
5.299717031303392 0 0 5.293182815400952 0.7391362795426514 3.464786369551582 0 1:-0.275893 2:-0.125104 3:0.0315253 4:0.306444 5:-0.127891 6:-0.42041 7:-0.240212 8:-0.144559 9:0.0570103 10:0.20572 11:-0.0762086 12:-0.257239 13:0.183236 14:-0.216196 15:0.0323498 16:0.0424788 17:0.546689 18:0.509932 
0 0 0 3.648441522102682 0 1.756078037615736 0 1:-0.326741 2:-0.147162 3:-0.106058 4:-0.0370993 5:0.0096454 6:-0.560727 7:-0.219438 8:0.472069 9:-0.350851 10:0.183207 11:0.047127 12:-0.149851 13:0.441573 14:-0.318875 15:0.121111 16:0.147588 17:0.423161 18:0.394806 
2.286915321405386 0 5.660773004994953 8.427660737531596 7.02735936003893 0 0.5457935504957161 1:-0.353367 2:-0.123935 3:-0.0372217 4:0.0315949 5:0.0133637 6:-0.553745 7:-0.284276 8:0.440151 9:-0.249059 10:0.10237 11:0.0224554 12:-0.154618 13:0.0812583 14:-0.29978 15:0.203112 16:0.185317 17:0.414798 18:0.450038 
0 0 0 0.01062196316630694 0.1624529610932389 0.3935824238744771 0 1:-0.461131 2:0.122647 3:-0.591391 4:-0.27076 5:-0.100218 6:-0.251519 7:-0.210029 8:-0.446044 9:-0.223263 10:0.18005 11:-0.264762 12:-0.308485 13:-0.0161288 14:-0.45715 15:-0.353976 16:-0.351476 17:0.561338 18:0.378515 
0 0 0 0 0 8.187362902206159 1.954187112933571 1:-0.476933 2:-0.0260229 3:-0.149133 4:0.255767 5:-0.130434 6:-0.459392 7:-0.12894 8:0.0386657 9:-0.0932659 10:-0.100624 11:-0.00822361 12:-0.266316 13:0.214512 14:-0.395092 15:0.0603264 16:0.0232757 17:0.441011 18:0.43215 
0 0.6415871065143101 0 0 0 0 5.241970762983854 1:-0.422505 2:-0.0336951 3:-0.161793 4:0.235768 5:0.0644239 6:-0.471126 7:-0.152138 8:0.114247 9:-0.154458 10:-0.0812964 11:-0.0192207 12:-0.162049 13:0.22954 14:-0.33427 15:0.0954998 16:0.0631055 17:0.435405 18:0.521798 
0 0 0 0 0 13.76283490375086 0 1:-0.451025 2:0.0342633 3:-0.450638 4:-0.0837978 5:0.0529891 6:-0.479587 7:-0.193003 8:-0.0463104 9:0.10674 10:0.165296 11:-0.416488 12:-0.0904628 13:-0.0696989 14:-0.265594 15:-0.120714 16:-0.115708 17:0.539216 18:0.467654 
0 0 0 3.491057782170842 0 0 0 1:-0.471913 2:0.0986301 3:-0.539459 4:-0.181706 5:-0.0495578 6:-0.495396 7:-0.0428779 8:-0.114522 9:0.10233 10:0.134299 11:-0.501061 12:-0.100119 13:0.0235763 14:-0.407851 15:-0.174611 16:-0.00409689 17:0.534734 18:0.464613 
0 0 0.4585288591215413 0.5901358584908523 0 0 0 1:-0.67908 2:-0.103445 3:-0.231046 4:-0.117882 5:-0.0453956 6:-0.424341 7:-0.269638 8:-0.166532 9:-0.0860985 10:0.117694 11:0.0458315 12:-0.366747 13:-0.0663152 14:-0.435179 15:0.0828938 16:-0.131158 17:0.553884 18:0.458508 
0 0 0 0 0 0.6109191210544378 0 1:-0.487369 2:-0.479387 3:0.208836 4:0.224689 5:0.0120935 6:-0.410983 7:-0.440261 8:0.0250765 9:-0.076351 10:0.43428 11:-0.0854328 12:-0.257453 13:0.183664 14:0.44331 15:-0.120301 16:-0.0506138 17:0.568748 18:0.423856 
0 0.05717883924398842 0 0 3.949851638232376 2.055451680729397 6.936656751048278 1:-0.506811 2:-0.528383 3:0.0696437 4:0.0469493 5:-0.0311808 6:-0.438312 7:-0.464365 8:0.0728553 9:-0.00717286 10:0.339392 11:-0.0247461 12:-0.171037 13:0.186382 14:-0.14752 15:-0.00250159 16:0.245585 17:0.588042 18:0.512909 
0 0 0 3.155312288653225 0 0 4.76948861730506 1:-0.495428 2:0.229131 3:-0.305969 4:-0.126094 5:0.0240181 6:-0.31926 7:-0.235659 8:-0.0405737 9:0.105498 10:0.207679 11:-0.06721 12:-0.337406 13:-0.0876807 14:-0.397237 15:-0.0601104 16:-0.189241 17:0.521137 18:0.519508 
0 0 0 32 3.192751137171889 0.1236104700721005 0 1:-0.411213 2:0.190143 3:-0.273337 4:-0.189279 5:0.0211335 6:-0.263657 7:-0.279834 8:0.0217093 9:0.179087 10:0.296209 11:-0.113765 12:-0.38348 13:-0.0414211 14:-0.392984 15:-0.0893008 16:-0.0815016 17:0.506109 18:0.468665 
6.157193185229611 0 0 3.051133465959729 0.3009300392649956 0.1857647104874202 0 1:-0.482973 2:0.213729 3:0.128314 4:0.370166 5:0.0775457 6:-0.742514 7:-0.603698 8:0.0450023 9:-0.379108 10:0.346388 11:0.107995 12:-0.145123 13:0.0146205 14:-0.185158 15:0.0699904 16:0.113578 17:0.455298 18:0.424262 
6.728911314213566 0 0 0 0 0 0 1:-0.551865 2:0.237357 3:0.122661 4:0.473722 5:-0.131647 6:-0.743282 7:-0.56902 8:-0.0177033 9:-0.348433 10:0.406221 11:-0.0572346 12:-0.0929042 13:0.248001 14:-0.075556 15:0.111288 16:0.109208 17:0.532029 18:0.465552 
0.228280644708993 0 0 0 2.164616848234571 0 0 1:-0.62381 2:0.106596 3:-0.346965 4:0.446698 5:-0.242403 6:-0.67464 7:-0.747877 8:-0.189117 9:-0.447424 10:0.203039 11:0.0389485 12:-0.168445 13:-0.0565401 14:-0.24876 15:-0.023739 16:0.145721 17:0.52714 18:0.456247 
0 0 0 0.7344167673319738 0.3161284251609005 0 0 1:-0.652764 2:0.061413 3:-0.402997 4:0.296595 5:0.024123 6:-0.813871 7:-0.655367 8:-0.106715 9:-0.414201 10:0.241915 11:-0.00957866 12:-0.180885 13:0.0199658 14:-0.322604 15:-0.0455834 16:0.0843673 17:0.493009 18:0.510527 
0 0 0.3209967828928756 0 0 4.757861212020527 0 1:-0.743221 2:-0.151172 3:-0.175866 4:-0.108126 5:0.227761 6:-0.378137 7:-0.324256 8:-0.0752165 9:0.0726863 10:-0.12396 11:0.353589 12:-0.247046 13:0.0615145 14:-0.249226 15:-0.261347 16:-0.0713733 17:0.576008 18:0.488402 
0 0 0 0.2180383263254936 0 1.310658605369708 0 1:-0.409326 2:0.366168 3:-0.160954 4:0.403457 5:0.0261012 6:-0.726894 7:-0.301374 8:-0.0498523 9:-0.104403 10:0.202701 11:0.107308 12:-0.184303 13:0.217343 14:-0.444554 15:-0.0899805 16:0.0882934 17:0.438216 18:0.442304 
0 0 0 16.92287853167363 2.727224398214234 1.279958711306442 0 1:-0.379545 2:0.292241 3:-0.216323 4:0.285146 5:-0.0211196 6:-0.686897 7:-0.308397 8:-6.69769e-05 9:-0.118713 10:0.162366 11:0.20905 12:-0.247924 13:0.0481924 14:-0.495881 15:-0.038473 16:0.139404 17:0.44544 18:0.479847 
0 0 0.1562290608531607 1.814183198769952 0 0 0 1:-0.569354 2:-0.48366 3:-0.214774 4:-0.0508243 5:0.0800564 6:-0.682673 7:-0.206667 8:-0.187398 9:-0.273266 10:0.266355 11:0.310775 12:-0.396736 13:0.185358 14:-0.22218 15:-0.109413 16:-0.00415441 17:0.381519 18:0.398905 
0.1632403185854159 0 0.4855399522986918 0 2.331353917005358 0 0 1:-0.536932 2:-0.522933 3:-0.311545 4:-0.154026 5:-0.119168 6:-0.602936 7:-0.184448 8:-0.205579 9:-0.160903 10:0.206654 11:0.385803 12:-0.399711 13:0.229187 14:-0.655576 15:-0.0110702 16:0.077528 17:0.42926 18:0.511546 
0 0 0 0 0 9.707246673757032 0.4993888844225032 1:-0.494319 2:-0.0584874 3:-0.224274 4:-0.169534 5:-0.0234197 6:-0.283299 7:0.000492468 8:0.274784 9:0.00419204 10:0.264894 11:-0.111532 12:-0.140894 13:-0.00527927 14:-0.321365 15:-0.278781 16:-0.124887 17:0.581138 18:0.530263 
1.371386747852504 0 0 1.764631353226299 0 0 0 1:-0.482619 2:-0.0416892 3:-0.450716 4:-0.454965 5:0.0150215 6:-0.258724 7:0.0850146 8:0.245251 9:-0.226934 10:0.263326 11:-0.0771922 12:-0.0972121 13:-0.0546914 14:-0.565249 15:-0.262214 16:-0.0682938 17:0.556344 18:0.411415 
1.817485366120787 0 0 0.7861916187415283 0 0 0 1:-0.58086 2:0.190484 3:-0.447947 4:-0.0895982 5:-0.0797214 6:-0.399748 7:0.0214036 8:-0.151701 9:-0.0567205 10:0.19349 11:0.239001 12:-0.56992 13:0.181958 14:0.031733 15:0.406791 16:0.385646 17:0.427149 18:0.575396 
0.121660085199156 0 0 0.6510230244124031 0 4.074994706868471 0 1:-0.5306 2:0.168696 3:-0.460241 4:-0.159194 5:0.113151 6:-0.36399 7:-0.000938699 8:-0.145483 9:-0.101332 10:0.221372 11:0.180225 12:-0.48641 13:0.209328 14:0.0917436 15:0.289474 16:0.411843 17:0.482014 18:0.597174 
0 17.63844193113427 0 0 0 3.371194656123298 5.780756154955192 1:-0.741176 2:-0.0300898 3:-0.274915 4:-0.0748377 5:-0.032869 6:-0.429087 7:-0.37612 8:0.21686 9:-0.075834 10:0.229606 11:-0.0282512 12:0.0198194 13:0.110861 14:-0.410056 15:-0.0199754 16:0.133161 17:0.416591 18:0.404 
0.6026842980886323 0 0 0 0 0 0 1:-0.68973 2:-0.16385 3:-0.359269 4:-0.345737 5:-0.0673755 6:-0.380053 7:0.118701 8:-0.390602 9:-0.0233693 10:0.0434454 11:0.379362 12:-0.264934 13:0.0663993 14:-0.0662641 15:0.303806 16:0.504532 17:0.424403 18:0.582382 
0 0 0 0 0.1182260442639869 0 0 1:-0.670899 2:-0.169516 3:-0.421652 4:-0.38128 5:0.0385166 6:-0.412254 7:0.10624 8:-0.347944 9:-0.00602047 10:0.0579509 11:0.394451 12:-0.222999 13:0.285703 14:-0.114882 15:0.267706 16:0.388227 17:0.453291 18:0.693459 
0 0 0 0 0 2.010632276750373 0 1:-0.819365 2:0.254768 3:-0.533035 4:0.0341082 5:-0.158214 6:-0.633053 7:-0.00190398 8:-0.523268 9:-0.117715 10:-0.000857268 11:0.0713357 12:-0.168435 13:0.0542397 14:-0.374206 15:0.0245236 16:0.18948 17:0.38142 18:0.414827 
0 0 0 0 0 2.140669012992612 0 1:-0.672883 2:0.173976 3:-0.430739 4:0.0753054 5:0.0873313 6:-0.506414 7:-0.0556754 8:-0.483396 9:-0.196119 10:0.157774 11:0.119828 12:-0.0639094 13:0.240007 14:-0.0769177 15:-0.0181785 16:0.107628 17:0.420799 18:0.588312 
0 0 0 2.262135207007412 0 13.06328461741241 0.2821708485677732 1:-0.503955 2:0.0633482 3:-0.49877 4:-0.0862862 5:0.0694401 6:-0.381533 7:-0.194152 8:0.221543 9:0.0524101 10:0.050415 11:0.143492 12:-0.143066 13:0.234501 14:-0.511816 15:-0.0112631 16:0.0592201 17:0.439125 18:0.50038 
0 0 0 0 0 0 32 1:-0.507246 2:0.140344 3:-0.397806 4:0.0601379 5:-0.0341832 6:-0.32571 7:-0.264148 8:0.201984 9:0.0403399 10:0.15402 11:0.0862546 12:-0.142922 13:0.233654 14:-0.297103 15:-0.0324968 16:-0.0601863 17:0.485605 18:0.530285 
0 0 0 0 0 6.028142056347687 0 1:-0.761523 2:-0.156626 3:-0.1865 4:-0.144208 5:0.0358727 6:-0.539268 7:-0.214689 8:0.15529 9:-0.00904546 10:0.179794 11:-0.166429 12:-0.165552 13:0.0462656 14:-0.135787 15:-0.222059 16:0.0907198 17:0.440138 18:0.349522 
6.635823828784413 0 0 0 0 0 0 1:-0.727674 2:-0.14715 3:-0.181071 4:-0.176622 5:-0.0570579 6:-0.453002 7:-0.140375 8:0.100223 9:0.0229023 10:0.193535 11:-0.155131 12:-0.160713 13:-0.0592059 14:-0.221781 15:-0.110514 16:0.0941132 17:0.470033 18:0.335254 
0 0 0 0 0.09122027852856915 0 0 1:-0.622941 2:-0.145342 3:-0.240307 4:0.277262 5:-0.114838 6:-0.833572 7:-0.21735 8:-0.284069 9:-0.111456 10:-0.0664361 11:0.267145 12:-0.574046 13:0.461828 14:-0.204817 15:0.0398599 16:0.0296606 17:0.513837 18:0.49132 
0 0.7795548587247464 2.309140863038169 32 3.253777506350403 0 30.00716137064229 1:-0.413557 2:0.413502 3:-0.538899 4:0.0045013 5:-0.0180639 6:-0.421239 7:-0.189223 8:0.210958 9:-0.000417922 10:0.249866 11:-0.134528 12:-0.287586 13:0.144304 14:-0.287237 15:-0.0161881 16:-0.0121747 17:0.580015 18:0.524311 
0 0 0 8.766970055446974 0 12.64564837364782 19.51172980239322 1:-0.42704 2:0.409541 3:-0.540608 4:-0.0012802 5:0.0869441 6:-0.454903 7:-0.20523 8:0.238556 9:-0.0158996 10:0.233051 11:-0.108816 12:-0.322633 13:0.0397376 14:-0.257511 15:-0.0144156 16:-0.000516836 17:0.586406 18:0.514477 
0 0 0.4701582328921858 0 0 0 0 1:-0.664665 2:0.308354 3:-0.445676 4:-0.301327 5:-0.0608003 6:-0.403214 7:-0.126423 8:-0.216437 9:-0.329209 10:0.0751069 11:0.0725649 12:-0.444234 13:0.333578 14:-0.479232 15:-0.211116 16:-0.256715 17:0.543687 18:0.474529 
0 0 0.3589188698547518 2.541380137827134 0 0 0 1:-0.556018 2:0.194636 3:-0.546192 4:-0.490912 5:0.0694254 6:-0.433886 7:-0.0991166 8:-0.0833468 9:-0.362734 10:0.104365 11:0.178039 12:-0.557814 13:0.160269 14:-0.395169 15:-0.166587 16:-0.292236 17:0.485087 18:0.463438 
0 0 0 0 0 8.319905710413071 0 1:-0.711386 2:0.185222 3:-0.321161 4:-0.046058 5:-0.086995 6:-0.358497 7:-0.161744 8:0.255298 9:-0.106976 10:0.181025 11:0.00905634 12:-0.237665 13:0.134817 14:-0.238464 15:-0.0603112 16:-0.0167717 17:0.390999 18:0.29654 
0 2.12365961328986 0 0 0 19.88503466499618 0 1:-0.789425 2:0.320575 3:-0.269967 4:0.0661299 5:0.0696772 6:-0.459702 7:-0.146987 8:0.156766 9:-0.094287 10:0.184053 11:-0.00914336 12:-0.296547 13:0.057182 14:-0.167337 15:-0.0688971 16:-0.0993219 17:0.429158 18:0.314734 
6.888856995810463 0 0.3052820331456148 8.252518757351234 1.810264193380088 0 0 1:-0.392842 2:0.180868 3:-0.332913 4:-0.150141 5:0.0572148 6:-0.365566 7:0.0849646 8:0.164236 9:0.0371929 10:-0.00514669 11:0.0516547 12:-0.364863 13:0.114773 14:-0.129883 15:-0.0670722 16:0.0133457 17:0.670213 18:0.487484 
0 0 0.2741256277427936 0 0 0 10.52270263587808 1:-0.391728 2:0.150546 3:-0.331054 4:-0.175128 5:-0.0236097 6:-0.34199 7:0.0367489 8:0.197018 9:0.080196 10:-0.0156318 11:0.00140231 12:-0.32024 13:0.195901 14:-0.0946068 15:-0.120591 16:0.0501507 17:0.611656 18:0.501427 
32 0 0 0 0 0 0 1:-0.718318 2:0.15936 3:-0.263418 4:-0.031483 5:0.0358818 6:-0.471556 7:-0.0929788 8:-0.0267772 9:-0.142127 10:0.00662678 11:0.0160561 12:-0.20944 13:0.151401 14:-0.0102443 15:-0.0665995 16:-0.0598296 17:0.606632 18:0.402289 
0 0 0 0 0 0 16.7217917735942 1:-0.755166 2:0.243974 3:-0.287451 4:0.170869 5:-0.0389807 6:-0.522164 7:-0.377354 8:0.0911682 9:-0.208861 10:0.363584 11:-0.140537 12:-0.257299 13:0.0145067 14:-0.0441818 15:-0.08768 16:-0.0583814 17:0.437682 18:0.478538 
0 0 0 0 0 2.961754097696513 0 1:-0.569018 2:0.405654 3:-0.0943054 4:-0.128538 5:0.0271979 6:-0.623478 7:-0.368014 8:0.0729021 9:-0.147277 10:0.0843628 11:0.0525943 12:-0.00867467 13:0.0126845 14:-0.539388 15:0.0295018 16:-0.0355974 17:0.458251 18:0.463461 
19.49516102247434 0 0.6442172172150634 0 1.021940327553809 2.53003542380777 0 1:-0.520923 2:0.383803 3:-0.0996261 4:-0.136795 5:-0.074908 6:-0.529828 7:-0.368401 8:0.0933483 9:-0.16073 10:0.146699 11:0.0288809 12:0.00896068 13:0.176188 14:-0.429224 15:-0.0321865 16:-0.0273969 17:0.484124 18:0.449556 
7.419459599800233 2.248703629266171 0 0.6828170485230954 1.89160352041803 27.08623162904791 13.26698904966588 1:-0.4136 2:0.39243 3:-0.372902 4:0.240908 5:-0.0433197 6:-0.239188 7:-0.104566 8:0.116398 9:0.0394973 10:0.131303 11:0.045349 12:-0.172698 13:0.0656564 14:-0.376381 15:-0.0934901 16:-0.110971 17:0.549374 18:0.448545 
0 0 0 0 3.06700231795412 3.812659968080035 8.903058595008483 1:-0.380506 2:0.359831 3:-0.34293 4:0.225498 5:0.112475 6:-0.246866 7:-0.144363 8:0.159456 9:0.0776765 10:0.119117 11:0.0544462 12:-0.108985 13:0.0306097 14:-0.36388 15:-0.0965068 16:-0.0810667 17:0.525187 18:0.459204 
8.681276330731707 0 0 0 0 0 0 1:-0.8405 2:0.0927176 3:-0.249517 4:-0.162894 5:-0.0249701 6:-0.555943 7:-0.258081 8:0.123459 9:0.0228904 10:0.12485 11:0.0028133 12:-0.114792 13:0.103764 14:-0.313555 15:-0.0816699 16:-0.094087 17:0.737719 18:0.523121 
0 0 0 0 0 3.30378290406522 0 1:-0.495564 2:0.181672 3:-0.257767 4:0.280689 5:0.0391846 6:-0.561359 7:-0.00295998 8:-0.127099 9:0.0542507 10:0.0685373 11:0.0775146 12:-0.531398 13:0.35257 14:-0.214069 15:-0.0338361 16:-0.00469952 17:0.496679 18:0.49954 
0 0 0 0 0 8.319781828051232 0 1:-0.509772 2:0.200536 3:-0.27561 4:0.278367 5:-0.031365 6:-0.571386 7:0.0354631 8:-0.161434 9:-0.0325567 10:0.0105847 11:0.18664 12:-0.578576 13:0.135238 14:-0.18425 15:0.0274148 16:0.00930005 17:0.470934 18:0.430171 
0 0 0 2.52469372913869 0 0 0 1:-0.544371 2:-0.0436944 3:-0.17168 4:-0.0522952 5:0.169293 6:-0.383893 7:-0.373072 8:-0.290942 9:0.0437779 10:0.219352 11:-0.0344967 12:-0.204949 13:0.148689 14:-0.0163318 15:-0.031216 16:-0.155693 17:0.572274 18:0.575328 
0 0 0 3.697778438777052 0 0 0 1:-0.470124 2:0.220248 3:-0.473084 4:-0.341731 5:-0.22387 6:-0.331259 7:-0.104558 8:-0.101965 9:-0.132279 10:0.199631 11:-0.118626 12:-0.303109 13:0.248949 14:-0.58103 15:-0.412756 16:-0.280647 17:0.635098 18:0.460491 
0 0 0 2.353303996943613 0 0 0 1:-0.53378 2:0.311285 3:-0.427036 4:-0.225152 5:0.154044 6:-0.448083 7:-0.136566 8:-0.127907 9:-0.107364 10:0.133836 11:-0.108571 12:-0.26969 13:0.0177005 14:-0.631988 15:-0.441229 16:-0.474774 17:0.585858 18:0.481356 
0 0 0 0.2786957292139955 0 3.818978608042804 0 1:-0.686882 2:-0.181683 3:-0.112091 4:0.115919 5:0.00463258 6:-0.638476 7:-0.229689 8:-0.0742284 9:-0.0589611 10:-0.00198946 11:0.0247586 12:-0.191941 13:0.310445 14:-0.120172 15:-0.282556 16:-0.0541025 17:0.55738 18:0.392907 
0 0 5.686225676590793 0.007539943990415271 0 0 0 1:-0.657888 2:-0.225426 3:-0.160587 4:0.0689691 5:-0.107313 6:-0.625439 7:-0.175168 8:-0.0465619 9:-0.0334507 10:-0.0169717 11:0.163869 12:-0.238963 13:0.196411 14:-0.212703 15:-0.120801 16:-0.0167024 17:0.549305 18:0.446908 
0 0.6499457280454889 0.8693874494093597 2.136433290444301 1.294736525506885 1.634429815266678 1.215283504323337 1:-0.450477 2:-0.237585 3:-0.237495 4:0.17106 5:0.104926 6:-0.880626 7:-0.226407 8:0.278269 9:-0.227094 10:0.114621 11:-0.472914 12:-0.0162148 13:0.351096 14:-0.20792 15:-0.320018 16:0.00965457 17:0.622612 18:0.289227 
2.081422090356178 0 2.932310590874739 7.783216479955373 3.988877172209698 4.445862115381095 5.607187402705338 1:-0.403705 2:-0.119732 3:-0.207261 4:0.233152 5:-0.106251 6:-0.709558 7:-0.28717 8:0.158681 9:-0.390302 10:0.085469 11:-0.478268 12:-0.0906103 13:-0.0749364 14:-0.151519 15:-0.250641 16:0.000578696 17:0.60276 18:0.364888 
0 0 0 8.865573560398378 0 0 0 1:-0.556146 2:-0.0244959 3:-0.340859 4:-0.296606 5:0.0162497 6:-0.425594 7:-0.245492 8:0.0308766 9:0.0709276 10:0.17012 11:0.00156809 12:-0.248054 13:0.0934791 14:-0.0261471 15:-0.0167111 16:0.0718108 17:0.451922 18:0.472382 
1.707482158365427 8.765138231944796 1.362004770398844 0 0 1.644288763510472 1.125952358733831 1:-0.624781 2:-0.119928 3:0.0556667 4:0.120521 5:-0.192908 6:-0.178548 7:-0.366306 8:0.15525 9:0.256546 10:0.199856 11:0.182911 12:-0.0276095 13:0.06887 14:-0.530137 15:0.127995 16:-0.14013 17:0.496511 18:0.613783 
0 1.413651209789886 1.25823654369705 0 0 0.3340757523384461 0.3237637028625742 1:-0.654612 2:-0.202442 3:0.0324308 4:0.0299586 5:0.125764 6:-0.288431 7:-0.383444 8:0.181147 9:0.336458 10:0.0622402 11:0.398418 12:-0.00603351 13:-0.202777 14:-0.37672 15:0.155027 16:-0.15783 17:0.456407 18:0.684389 
3.37252133216998 0 0 0 0 0 0 1:-0.589744 2:0.103917 3:-0.113104 4:0.514146 5:0.0678396 6:-0.715213 7:-0.218264 8:-0.211932 9:-0.261478 10:0.125006 11:0.115192 12:-0.221091 13:0.206191 14:-0.0773856 15:-0.068646 16:0.095262 17:0.463291 18:0.500305 
2.172304723148208 0.5739423246146775 0 0 2.527148923487748 0 2.077267296024357 1:-0.488316 2:0.316553 3:-0.119092 4:0.269248 5:-0.047504 6:-0.695267 7:-0.468535 8:-0.252086 9:0.0206919 10:0.174234 11:7.86469e-05 12:-0.471323 13:0.338931 14:-0.0960681 15:-0.075303 16:-0.212515 17:0.452026 18:0.548065 
0 0 0 4.709910574620948 1.852639309228108 0.008132722182881073 0 1:-0.449306 2:0.306992 3:-0.0980596 4:0.231056 5:0.00368508 6:-0.680004 7:-0.448104 8:-0.243417 9:0.114903 10:0.141564 11:-0.0175019 12:-0.445563 13:0.14456 14:-0.152568 15:-0.0781267 16:-0.099141 17:0.470952 18:0.525935 
2.642182202527808 1.093506820771456 0.6241191367124891 0 0 1.417886605208837 0 1:-0.679172 2:0.00614196 3:-0.332318 4:-0.153052 5:0.0743094 6:-0.390365 7:-0.190855 8:0.311149 9:-0.199272 10:0.332859 11:0.182825 12:-0.187942 13:0.106228 14:-0.00249329 15:-0.0729456 16:0.0168793 17:0.441253 18:0.55773 
20.1381352472621 0 8.966742218922729 7.908647793431408 0 0 0 1:-0.610243 2:0.307711 3:-0.322733 4:0.0104802 5:-0.000268941 6:-0.527107 7:-0.341721 8:0.074165 9:-0.253786 10:0.270701 11:0.02113 12:-0.235295 13:0.0754729 14:-0.328925 15:-0.0527 16:0.071698 17:0.513797 18:0.534961 
6.231140445538217 15.87520121604129 6.750168304766057 0 0 12.21666244665243 13.71052109775682 1:-0.560157 2:0.246672 3:-0.330785 4:0.0521072 5:-0.195061 6:-0.413271 7:-0.103262 8:0.073252 9:-0.437146 10:0.143261 11:-0.185769 12:-0.172397 13:-0.156332 14:-0.18944 15:0.0122138 16:0.194618 17:0.541028 18:0.475502 
0 0.1241177810696323 0 0 0 6.843118291654796 2.342134506550115 1:-0.574341 2:0.379063 3:-0.349152 4:0.095528 5:0.0369486 6:-0.518153 7:-0.0902191 8:-0.103535 9:-0.550008 10:0.0453417 11:0.0116297 12:-0.272298 13:0.273395 14:-0.511198 15:-0.220538 16:0.102926 17:0.511344 18:0.535729 
1.715205521914348 0 0 0 0 5.015044573237502 0 1:-0.478558 2:-0.117393 3:-0.358303 4:-0.314545 5:-0.0716431 6:-0.207656 7:-0.0132997 8:-0.0221609 9:0.0144337 10:0.105464 11:0.0675924 12:-0.352751 13:0.0967595 14:-0.0624114 15:-0.00263985 16:0.127196 17:0.54213 18:0.30981 
0 0 0 12.75947342714125 1.249452829768431 0 0 1:-0.43611 2:-0.105503 3:-0.392521 4:-0.404373 5:0.116841 6:-0.195014 7:-0.0404306 8:0.0422757 9:-0.0629383 10:0.137166 11:0.0476906 12:-0.372726 13:0.164979 14:-0.204924 15:-0.0760234 16:0.0606706 17:0.580561 18:0.386819 
14.67161451933893 4.062928098995974 0 0 0 0 0 1:-0.637634 2:0.162914 3:-0.20255 4:0.214285 5:-0.117908 6:-0.307874 7:-0.334784 8:0.100882 9:0.111359 10:0.23755 11:0.112955 12:-0.227323 13:0.0692973 14:-0.152967 15:-0.122602 16:0.0280874 17:0.448301 18:0.467591 
14.35768170379323 3.74408317287871 0 0 0 0 0 1:-0.618347 2:0.162271 3:-0.223043 4:0.178368 5:0.163015 6:-0.35178 7:-0.290575 8:0.0621033 9:0.104301 10:0.216095 11:0.199689 12:-0.215281 13:0.20968 14:-0.178854 15:-0.0794086 16:0.0255284 17:0.476361 18:0.562178 
16.25497217923034 0 0 0 0.8732815220335374 0 0 1:-0.837389 2:0.439388 3:-0.19424 4:0.121054 5:-0.0371646 6:-0.632728 7:-0.434908 8:-0.155006 9:-0.12289 10:0.241514 11:-0.0986151 12:-0.369128 13:0.0749772 14:-0.072743 15:-0.0941466 16:0.0616001 17:0.605051 18:0.498484 
16.21584318698229 0 0 0 0 0 0 1:-0.799106 2:0.422818 3:-0.222375 4:0.0374051 5:0.0262432 6:-0.600285 7:-0.393323 8:-0.166339 9:-0.108816 10:0.216996 11:-0.0507037 12:-0.33949 13:0.0559296 14:-0.154448 15:-0.0696912 16:0.0876093 17:0.574986 18:0.539186 
32 2.385902892304815 13.64035390807642 0 0 0 9.450973471127828 1:-0.657305 2:0.40374 3:-0.22213 4:0.0462095 5:-0.0324862 6:-0.3677 7:-0.243115 8:0.159271 9:0.0403583 10:0.162121 11:-0.145508 12:-0.212455 13:0.00723634 14:-0.3315 15:-0.0989311 16:0.00968356 17:0.546559 18:0.512176 
19.10642493093138 0 0 2.617291979069934 0 0 0 1:-0.879197 2:0.401539 3:-0.168839 4:0.200076 5:-0.100784 6:-0.516274 7:-0.56854 8:-0.123744 9:-0.0776567 10:0.177786 11:-0.148744 12:-0.125097 13:0.105395 14:-0.222019 15:-0.181691 16:-0.160449 17:0.56689 18:0.488991 
1.043408501132393 0 0 0 0 0 0 1:-0.876339 2:0.393853 3:-0.171158 4:0.143243 5:0.0843176 6:-0.555489 7:-0.525451 8:-0.16563 9:-0.0145134 10:0.126334 11:-0.0200105 12:-0.202028 13:-0.0864 14:-0.230863 15:-0.122338 16:-0.162132 17:0.540565 18:0.517179 
4.029097730624861 0 0.9458260078436953 0.9614400956403789 0 0 0 1:-0.495379 2:-0.162715 3:-0.0938112 4:0.151515 5:-0.199385 6:-0.62288 7:0.0140825 8:-0.0126795 9:-0.0619736 10:0.166933 11:-0.0189302 12:-0.312579 13:0.134726 14:-0.451864 15:0.113375 16:0.164434 17:0.577248 18:0.483477 
3.432528045920785 0 0 0 0 0 0 1:-0.556503 2:-0.0100804 3:-0.0399483 4:0.34253 5:0.102232 6:-0.764406 7:-0.0062705 8:-0.126159 9:-0.148033 10:0.141691 11:0.10711 12:-0.423285 13:0.102326 14:-0.1806 15:0.0640423 16:0.196705 17:0.563355 18:0.545798 
5.384927367342433 0 0 0 0 0.1492846667765523 0 1:-0.721794 2:0.119702 3:-0.147587 4:0.12097 5:0.00256892 6:-0.216815 7:-0.601448 8:-0.174605 9:0.0513286 10:0.106684 11:0.0275174 12:-0.197099 13:0.0571176 14:-0.204269 15:-0.00814148 16:0.0483557 17:0.56939 18:0.534088 
1.563603195601277 0 0 0 0 0.1121594388946818 0 1:-0.762168 2:0.134736 3:-0.149508 4:0.108657 5:-0.000543221 6:-0.238889 7:-0.562175 8:-0.254232 9:0.0749712 10:0.0382099 11:0.181452 12:-0.300423 13:-0.00223129 14:-0.17977 15:-0.0680725 16:-0.0558812 17:0.540279 18:0.593928 
6.821554539593436 0 0 0 0 0 0 1:-0.894864 2:0.0498343 3:-0.155777 4:-0.114534 5:0.00922477 6:-0.43776 7:-0.113081 8:-0.092565 9:-0.109095 10:0.0815963 11:0.155375 12:-0.185491 13:0.0723505 14:-0.243624 15:-0.0347713 16:-0.0845261 17:0.538348 18:0.250331 
0 0 0 0 0 4.061997819029988 0 1:-0.836618 2:-0.0304793 3:-0.24189 4:-0.274389 5:-0.0524045 6:-0.39995 7:-0.0853863 8:-0.0643075 9:-0.104397 10:0.138318 11:0.0918319 12:-0.345011 13:0.148018 14:-0.184659 15:-0.133532 16:0.043549 17:0.606962 18:0.329775 
0 0 0 3.395155568083261 0 0 0.1546512639914312 1:-0.452962 2:-0.281773 3:-0.103139 4:0.132714 5:-0.191453 6:-0.493885 7:-0.388901 8:-0.100542 9:-0.0955184 10:0.383241 11:-0.104062 12:-0.303213 13:0.219637 14:-0.419904 15:-0.00765515 16:0.200899 17:0.538027 18:0.501186 
2.680593119910934 0 0 0 0 0 0 1:-0.553568 2:-0.176296 3:-0.0918362 4:0.274889 5:0.153457 6:-0.672277 7:-0.412873 8:-0.170684 9:-0.16579 10:0.242284 11:0.0215651 12:-0.242012 13:0.0515342 14:-0.261003 15:-0.00871294 16:0.114418 17:0.471963 18:0.573647 
0 0 0 10.38454209019768 0 0 5.389021240586513 1:-0.566231 2:-0.037268 3:-0.356771 4:-0.171755 5:0.0984123 6:-0.619879 7:-0.238516 8:-0.00117143 9:-0.0395138 10:0.230959 11:-0.326683 12:-0.130578 13:-0.0535291 14:-0.232124 15:-0.044042 16:-0.0706202 17:0.455717 18:0.514349 
0 0 0 7.077740242954195 11.43202555947906 2.37978632650591 0 1:-0.524294 2:-0.137098 3:-0.414719 4:-0.218438 5:-0.103569 6:-0.567672 7:-0.293563 8:0.0521154 9:-0.0401826 10:0.232462 11:-0.27024 12:-0.0522113 13:0.0869398 14:-0.202571 15:-0.0214382 16:0.00361862 17:0.459029 18:0.532142 
0 0 0 8.657924561016733 0 0 7.175305102156499 1:-0.588376 2:-0.0895429 3:-0.324201 4:-0.145213 5:0.0372031 6:-0.401504 7:-0.366508 8:0.0733382 9:-0.0817347 10:0.213884 11:-0.104752 12:-0.229834 13:0.144299 14:-0.149617 15:-0.0192412 16:-0.0753885 17:0.566186 18:0.517831 
0 0 1.914390454216153 0 0 0 0 1:-0.432478 2:-0.0861532 3:0.162923 4:0.0384491 5:-0.193495 6:-0.652939 7:-0.0605728 8:-0.410343 9:-0.194805 10:-0.133793 11:0.143105 12:-0.200518 13:-0.119601 14:-0.116515 15:0.062935 16:0.0194052 17:0.555814 18:0.458338 
0 0 1.387367574628508 0.6169481649626651 1.705266846972592 0 0 1:-0.443793 2:-0.101108 3:0.173355 4:0.130182 5:0.178484 6:-0.753197 7:-0.203548 8:-0.315892 9:-0.192779 10:-0.0722524 11:0.0164347 12:-0.142966 13:0.108291 14:0.0957124 15:-0.127344 16:0.0289389 17:0.537865 18:0.543893 
0 0 0 0.2317567229974771 1.81853883762919 0 0 1:-0.404554 2:-0.0858611 3:-0.208766 4:0.352683 5:-0.00532169 6:-0.601135 7:-0.39771 8:-0.41245 9:-0.250378 10:0.196356 11:-0.0356078 12:-0.270586 13:0.0469904 14:-0.391449 15:0.118649 16:0.0479641 17:0.499303 18:0.367191 
0.645180486198513 0 0 0 0 0 0 1:-0.399014 2:-0.0912365 3:-0.227583 4:0.380273 5:0.0013047 6:-0.602075 7:-0.486543 8:-0.373264 9:-0.267786 10:0.223177 11:-0.0535362 12:-0.21793 13:0.222846 14:-0.424856 15:0.0424255 16:0.0740175 17:0.50054 18:0.387732 
3.668744940529601 0 0 0.9759498591608746 0 2.945593813011169 0 1:-0.423305 2:0.00468974 3:-0.0684019 4:0.236988 5:0.0498791 6:-0.574953 7:-0.152854 8:-0.355985 9:-0.0201197 10:0.267583 11:-0.300875 12:-0.323934 13:0.0989091 14:-0.251692 15:0.0282406 16:0.020021 17:0.530316 18:0.417387 
3.925536127332435 0 1.152364124558546 0.2303859834494226 0 1.704378693796351 0 1:-0.499077 2:-0.109108 3:0.431059 4:0.114746 5:-0.0698364 6:-0.63152 7:-0.38995 8:-0.154251 9:-0.0391771 10:0.360288 11:0.194335 12:-0.331633 13:0.144419 14:-0.180584 15:0.0184195 16:-0.0204202 17:0.543168 18:0.416282 
0.8547170895504248 0 3.599078791797043 1.194304335640134 0.1315258673503433 0.5951357424084368 0 1:-0.436873 2:-0.198984 3:0.341394 4:-0.0855108 5:0.0732014 6:-0.617601 7:-0.440656 8:-0.0539034 9:-0.149472 10:0.359752 11:0.305244 12:-0.345181 13:0.301639 14:-0.342283 15:-0.034085 16:0.0149454 17:0.566845 18:0.322146 
0.3825530957928412 0 0 0 0 0 0 1:-0.577082 2:-0.0479642 3:-0.0769076 4:0.207363 5:-0.109263 6:-0.685397 7:0.15484 8:-0.202979 9:-0.141921 10:0.106499 11:-0.0151944 12:-0.432272 13:0.317704 14:-0.432926 15:0.0830552 16:0.161165 17:0.491401 18:0.514846 
0 0 0 0 0 0.3902074422466281 0 1:-0.532072 2:-0.120464 3:-0.13064 4:0.144694 5:0.0192844 6:-0.737835 7:0.157516 8:-0.102614 9:-0.161422 10:0.0980346 11:0.0837987 12:-0.48277 13:0.0340348 14:-0.409241 15:0.205909 16:0.167311 17:0.440072 18:0.51139 
0 0 0.1225124896640274 0 0 0 0 1:-0.566123 2:0.148534 3:-0.285409 4:-0.153045 5:-0.00919725 6:-0.285905 7:-0.0584681 8:0.0353074 9:-0.131677 10:0.0110616 11:-0.128682 12:-0.232553 13:0.159832 14:-0.343854 15:-0.0135266 16:0.0275724 17:0.568232 18:0.567528 
2.196136208308586 1.806979313151968 0 0 0.7181990156285459 0 0 1:-0.640821 2:0.218797 3:-0.0835334 4:0.247477 5:-0.184254 6:-0.406525 7:-0.573637 8:0.00755469 9:-0.270405 10:0.189816 11:-0.172971 12:-0.0475298 13:0.162713 14:0.137318 15:0.0345762 16:0.0839471 17:0.468248 18:0.664172 
3.274245980172703 0 1.257600602378514 0 0 0 0 1:-0.564796 2:0.243214 3:-0.00759025 4:0.243031 5:0.145494 6:-0.36064 7:-0.527622 8:-0.0322115 9:-0.226776 10:0.204934 11:-0.0998946 12:0.0446277 13:0.0233665 14:0.310586 15:0.112127 16:0.017258 17:0.523758 18:0.635371 
3.613164430599842 0 0 0.6030087923624766 0 0 0 1:-0.82513 2:0.211812 3:-0.164938 4:-0.131166 5:-0.102111 6:-0.415782 7:-0.309697 8:-0.268629 9:-0.299693 10:0.0357017 11:-0.310956 12:-0.106022 13:0.0305401 14:-0.158343 15:-0.0617626 16:-0.185425 17:0.689331 18:0.407284 
2.186986321437943 0 0 0 0.06249518543025748 0.4082456789155282 0 1:-0.822552 2:0.207218 3:-0.115813 4:-0.0841377 5:0.0928664 6:-0.413127 7:-0.30877 8:-0.289015 9:-0.367167 10:0.0701318 11:-0.208293 12:-0.0992472 13:-0.117529 14:0.025058 15:-0.111874 16:-0.249678 17:0.715364 18:0.313882 
0 0 0 1.297529191496461 1.408785757554831 0 0 1:-0.315148 2:-0.185436 3:-0.0332139 4:0.0231125 5:0.166663 6:-0.477919 7:-0.313618 8:-0.419154 9:0.192607 10:0.128457 11:0.311938 12:-0.354485 13:0.345957 14:-0.48873 15:0.00227195 16:0.00187648 17:0.461249 18:0.537384 
0 0 0 0 4.086969443223562 0 0 1:-0.261093 2:-0.233308 3:-0.0704541 4:0.00963949 5:-0.146531 6:-0.416656 7:-0.317105 8:-0.38101 9:0.283167 10:0.184823 11:0.243411 12:-0.347764 13:0.0969729 14:-0.425588 15:0.126998 16:0.0229547 17:0.460017 18:0.524692 
0.5939277164006957 3.374434537244928 1.212743238206983 3.814021278168509 0.4721950131447505 5.91656680988064 2.465350698979894 1:-0.235903 2:-0.168379 3:0.00817778 4:0.329272 5:0.19457 6:-0.431919 7:-0.255407 8:-0.0751811 9:0.081803 10:0.200951 11:-0.000247836 12:-0.0467405 13:0.0112157 14:-0.342036 15:-0.00987412 16:-0.0071753 17:0.507717 18:0.517055 
0.1800914909468895 0 0 3.986022081366556 0.6882211848078248 1.232177114209789 0 1:-0.193407 2:-0.182846 3:-0.0391415 4:0.287414 5:-0.115707 6:-0.406953 7:-0.176866 8:-0.0759517 9:0.220981 10:0.245058 11:-0.119027 12:-0.120797 13:0.159971 14:-0.243695 15:-0.00732124 16:0.0850487 17:0.478945 18:0.496451 
0 9.404145452531353 5.630758356640582 1.537964560926145 0 0 0.1478841512089954 1:-0.436858 2:-0.0411535 3:-0.0563311 4:0.141824 5:-0.061066 6:-0.457889 7:-0.134311 8:0.315211 9:-0.185183 10:0.0585793 11:-0.0979226 12:-0.0633132 13:0.446014 14:-0.207163 15:0.172957 16:0.0559259 17:0.571721 18:0.510889 
4.452025095466377 4.365561684427374 9.05179322778635 0.8646153584788612 0 0 8.369156578276778 1:-0.505821 2:-0.0779242 3:-0.0434504 4:0.221992 5:0.0205384 6:-0.540617 7:-0.236375 8:0.294802 9:-0.0896969 10:-0.015324 11:-0.0961425 12:-0.113634 13:0.148358 14:-0.252142 15:0.150948 16:0.0797917 17:0.509975 18:0.495667 
0 0 0 0 0 8.276309532690167 0 1:-0.746099 2:0.361525 3:-0.398944 4:-0.0580071 5:-0.0671261 6:-0.366681 7:0.0602541 8:-0.313021 9:-0.042693 10:-0.0598883 11:0.1869 12:-0.416262 13:0.116167 14:-0.237301 15:0.405149 16:0.279567 17:0.488365 18:0.502273 
0 0 0 0.1206812778970195 0 0.3913726297383625 0 1:-0.706829 2:0.304308 3:-0.447837 4:-0.0485383 5:-0.014859 6:-0.387803 7:-0.0489753 8:-0.345713 9:0.00321503 10:-0.118078 11:0.270215 12:-0.218378 13:0.393726 14:-0.179819 15:0.337139 16:0.386829 17:0.531304 18:0.478271 
3.415144698335433 0 2.356016280140562 0 0.2855654308928641 0 0 1:-0.397449 2:0.682137 3:-0.0533013 4:-0.466729 5:0.0718259 6:-0.627997 7:-0.37548 8:-0.0317392 9:-0.154709 10:0.369746 11:-0.168195 12:-0.0839638 13:0.0656297 14:-0.144245 15:-0.0263598 16:-0.130939 17:0.457919 18:0.28951 
0 0 0.8290830306006134 2.050671090194083 0 0 0 1:-0.363115 2:0.711872 3:-0.048315 4:-0.508486 5:-0.074866 6:-0.559183 7:-0.282108 8:-0.0946942 9:-0.134771 10:0.375797 11:-0.183725 12:-0.0132368 13:0.14527 14:-0.148915 15:0.00409145 16:-0.143953 17:0.45246 18:0.269924 
0.8158993699260544 0 0 0 0 8.029527786153841 0 1:-0.579821 2:0.0367067 3:-0.229919 4:-0.224156 5:-0.0851324 6:-0.409147 7:-0.189146 8:-0.182976 9:-0.0700704 10:0.30411 11:-0.0127274 12:-0.468195 13:-0.0962522 14:-0.550717 15:0.091313 16:-0.00976001 17:0.506978 18:0.388653 
11.22131130702875 0 0 17.63826869440117 0 0 0 1:-0.533494 2:0.00305502 3:-0.183344 4:-0.198725 5:0.0961937 6:-0.391077 7:-0.239368 8:-0.18693 9:0.000295387 10:0.349728 11:-0.0478826 12:-0.337094 13:0.102143 14:-0.323799 15:0.00433553 16:-0.0153922 17:0.511049 18:0.423606 
0 0 0 0 1.729512269227527 0 0 1:-0.537364 2:-0.539716 3:0.136361 4:0.0977006 5:0.0835875 6:-0.514447 7:-0.419112 8:0.15382 9:-0.101073 10:0.380552 11:-0.11652 12:-0.234213 13:0.111096 14:0.310328 15:-0.0910582 16:0.0825308 17:0.47587 18:0.399943 
0 2.230046154980748 0 0 0 3.035972366459536 0 1:-0.514539 2:-0.568934 3:0.185168 4:0.124894 5:-0.0777199 6:-0.382966 7:-0.464536 8:0.147073 9:-0.00601355 10:0.37995 11:-0.0776101 12:-0.180763 13:0.179238 14:0.00194953 15:-0.0734698 16:0.163312 17:0.433876 18:0.435894 
9.264671843561844 0 0 1.439699418942427 0 0 4.343425096027484 1:-0.560579 2:-0.0604904 3:-0.151864 4:0.249714 5:0.0415817 6:-0.702057 7:-0.365581 8:-0.165613 9:-0.281099 10:0.235199 11:-0.0795119 12:-0.332639 13:0.0371113 14:-0.194461 15:-0.11254 16:0.0176922 17:0.544887 18:0.489252 
4.067827677989166 0 0 0 0 0 0 1:-0.504227 2:-0.137748 3:-0.0590994 4:0.266194 5:0.00658535 6:-0.597664 7:-0.508942 8:-0.124193 9:-0.236558 10:0.300953 11:-0.0560536 12:-0.176759 13:0.331235 14:-0.282988 15:-0.115874 16:0.0553486 17:0.53818 18:0.500829 
0.544783197456758 5.024286703176283 0 5.244956314707576 2.747076737697024 0.852865310287877 1.548371771827111 1:-0.465053 2:-0.133898 3:-0.175453 4:0.0857563 5:0.153266 6:-0.745142 7:-0.133082 8:0.140266 9:-0.182466 10:0.289495 11:0.161401 12:-0.383127 13:0.143275 14:-0.251296 15:0.310381 16:-0.081824 17:0.496825 18:0.489206 
3.42303989773182 0.3824165888557379 0 2.317535169937616 2.256058043478947 2.095942924649298 2.767669176540355 1:-0.459568 2:-0.133606 3:-0.087005 4:0.180898 5:-0.162818 6:-0.560777 7:-0.222478 8:0.0845438 9:-0.155877 10:0.390841 11:0.0462484 12:-0.288998 13:0.34551 14:-0.103838 15:0.259613 16:0.00138646 17:0.56194 18:0.448054 
0 0 0 0.5588216274773857 1.617345351589485 0.5592921674897838 0 1:-0.384473 2:0.161072 3:-0.457807 4:-0.183927 5:-0.124693 6:-0.0931801 7:-0.691362 8:-0.259051 9:-0.176317 10:0.442572 11:-0.113648 12:0.090004 13:0.0810671 14:0.22026 15:-0.0584467 16:0.054063 17:0.511231 18:0.498449 
0 0 0 0.111471052328784 1.893350751111943 0 0 1:-0.445887 2:0.229414 3:-0.519381 4:-0.299854 5:0.204632 6:-0.240483 7:-0.554964 8:-0.379263 9:-0.131706 10:0.34904 11:-0.0550292 12:-0.0726134 13:-0.0922144 14:-0.0786273 15:-0.037844 16:0.10472 17:0.456976 18:0.541095 
16.55406117407488 5.600940831078748 5.775036873350454 0 0 3.471288761623011 0 1:-0.574138 2:-0.0057071 3:-0.152424 4:-0.0374489 5:-0.215041 6:-0.321385 7:-0.186875 8:0.0103343 9:0.0482291 10:-0.0232116 11:-0.0322376 12:-0.180317 13:0.00428068 14:-0.139514 15:-0.148229 16:-0.0388968 17:0.623984 18:0.476919 
0 0 0.114977729984882 3.464337330253238 0 0 0 1:-0.602597 2:0.0483841 3:-0.189994 4:-0.106796 5:0.191039 6:-0.491531 7:-0.164126 8:-0.0152861 9:-0.0651673 10:-0.111723 11:0.136992 12:-0.129 13:-0.0667195 14:-0.147609 15:-0.190592 16:-0.148453 17:0.522621 18:0.413426 
0 5.047733224687054 0 0 0 13.55760395096204 8.656876320022699 1:-0.503851 2:0.0838026 3:-0.229988 4:0.342737 5:0.0194048 6:-0.649001 7:-0.160464 8:0.160995 9:-0.184112 10:0.103354 11:0.0565308 12:-0.257784 13:0.289543 14:-0.336518 15:-0.0212359 16:0.0297927 17:0.468858 18:0.478303 
9.873582743168068 1.540971159334336 0 0 0 0 11.3852213732446 1:-0.53012 2:0.10753 3:-0.202142 4:0.375191 5:-0.000459971 6:-0.591283 7:-0.240658 8:0.152099 9:-0.186077 10:0.0461958 11:0.130558 12:-0.261085 13:0.0445038 14:-0.361391 15:0.0335676 16:0.104832 17:0.46293 18:0.490641 
0.2958383026260054 0 0 0 0 0 0 1:-0.84195 2:0.236629 3:-0.213033 4:0.116816 5:-0.202941 6:-0.387452 7:-0.194652 8:-0.413933 9:-0.378863 10:-0.321921 11:-0.139665 12:-0.248553 13:0.332765 14:0.324612 15:0.331239 16:0.51587 17:0.417701 18:0.194741 
15.7210301730857 0 7.95953117743922 32 0 32 26.67752046628283 1:-0.477161 2:-0.062593 3:-0.217996 4:-0.131708 5:-0.0400823 6:-0.36375 7:-0.117303 8:0.237821 9:0.000475833 10:0.291844 11:-0.117012 12:-0.130008 13:0.0315285 14:-0.323411 15:-0.305463 16:-0.100679 17:0.568382 18:0.438232 
0 0 0 5.398556490070075 0 0 0 1:-0.484948 2:-0.0710926 3:-0.396398 4:-0.268455 5:-0.0172276 6:-0.336581 7:-0.134071 8:0.154827 9:-0.144833 10:0.277426 11:0.0149626 12:-0.221038 13:0.149026 14:-0.246811 15:-0.438248 16:-0.130047 17:0.563398 18:0.440777 
0 0 0 0.08747272761064584 0.517630797706194 0 3.078402475952208 1:-0.310021 2:-0.129747 3:-0.264462 4:0.198974 5:0.00087474 6:-0.547443 7:-0.148386 8:0.0764105 9:-0.183673 10:0.286652 11:0.343544 12:-0.58378 13:0.246708 14:-0.349888 15:0.11639 16:0.0423186 17:0.488141 18:0.560628 
0 5.038065169933881 0 29.06338208295268 6.781436039654777 5.681375682888902 10.16787703217588 1:-0.320154 2:-0.105911 3:-0.275217 4:0.195436 5:0.0745638 6:-0.577647 7:-0.200902 8:0.0949581 9:-0.135125 10:0.238071 11:0.0863461 12:-0.368757 13:0.23723 14:-0.515584 15:-0.0191832 16:0.12794 17:0.527596 18:0.54129 
0 32 4.33235731721838 1.101151154147985 1.009847762809887 0 14.02845631363826 1:-0.608998 2:0.0441362 3:-0.161905 4:0.000272305 5:-0.0829151 6:-0.328168 7:-0.288958 8:0.366076 9:-0.0931915 10:0.249732 11:-0.232525 12:-0.253548 13:0.151188 14:0.037442 15:0.146053 16:-0.014722 17:0.50637 18:0.416534 
11.10424973594176 18.63164049027936 7.295777458996724 4.762776789155957 0.8193381892807511 11.37951679009291 4.737451250133396 1:-0.58889 2:0.087502 3:-0.125965 4:-0.0343728 5:0.0900349 6:-0.374633 7:-0.184891 8:0.365332 9:-0.00889898 10:0.302722 11:-0.314857 12:-0.356629 13:0.0110273 14:-0.126037 15:0.208419 16:0.0822268 17:0.528498 18:0.405238 
14.0974068744381 0 4.385693037015761 0 0 28.76650451109344 6.453892705660945 1:-0.493636 2:-0.223577 3:-0.129575 4:-0.0337195 5:-0.0143273 6:-0.47225 7:-0.0593245 8:-0.0367988 9:0.0815348 10:0.144234 11:-0.202825 12:-0.146734 13:0.0956919 14:-0.297834 15:-0.123609 16:0.0896049 17:0.562581 18:0.530728 
0.05648813270740054 0 0.2689417395793982 0.03624856145979696 0.07217488619134588 0.06004441858403247 0 1:-0.561636 2:-0.0774856 3:0.358795 4:-0.559464 5:0.295532 6:-0.802017 7:-0.142192 8:-0.030267 9:0.0600261 10:-0.364671 11:0.701587 12:0.494451 13:0.291353 14:-0.249649 15:0.0609947 16:-0.157584 17:0.709814 18:0.576813 
20.60359121833113 3.644737458356615 1.670941185520242 5.120597888354562 0 8.787437760175223 3.078665459712112 1:-0.435756 2:-0.225994 3:-0.155566 4:-0.0533402 5:0.353753 6:-0.572537 7:0.00211364 8:-0.0202467 9:-0.0151685 10:0.0771884 11:-0.00960497 12:-0.300174 13:0.0294794 14:-0.320691 15:-0.131773 16:0.0438204 17:0.528253 18:0.587874 
0 3.380553535728752 1.835705759820961 0.06425415663971101 0.7909032605221483 0.4104735242565991 1.214210249676769 1:-0.488563 2:-0.277349 3:0.0674021 4:0.0736175 5:0.0910974 6:-0.464365 7:-0.0725629 8:0.170127 9:0.288771 10:0.437591 11:-0.0491854 12:-0.333803 13:0.122752 14:-0.150184 15:-0.091302 16:-0.0130936 17:0.583388 18:0.493121 
7.263281626220157 6.179571430205796 2.316407682444431 1.32479380504295 0 18.63712427740368 0 1:-0.516838 2:-0.224792 3:0.051964 4:0.0299859 5:0.0984576 6:-0.483838 7:0.0263688 8:0.165751 9:0.248248 10:0.429235 11:-0.123812 12:-0.298413 13:0.157807 14:-0.179844 15:-0.042234 16:0.0119421 17:0.565364 18:0.490997 
0 9.784241450876838 0 9.206726731412003 2.350884556187636 18.94911140291754 22.35679174938645 1:-0.504862 2:-0.268615 3:-0.0148407 4:0.151309 5:0.0981838 6:-0.516028 7:-0.145247 8:0.120883 9:0.262268 10:0.227603 11:0.0197541 12:-0.175281 13:0.0785362 14:-0.141695 15:-0.105122 16:0.00336309 17:0.485871 18:0.376942 
0 0 0 2.144211442906461 18.68722244978175 13.16266709642581 0 1:-0.431515 2:-0.079104 3:-0.30687 4:0.07836 5:-0.0404938 6:-0.520677 7:-0.356844 8:-0.0667294 9:0.0484404 10:0.312076 11:0.0201892 12:-0.228474 13:0.0558257 14:-0.324847 15:-0.139923 16:-0.0785874 17:0.594436 18:0.487983 
0 2.356399865039112 0 25.54425399728555 0 32 32 1:-0.481101 2:-0.0667143 3:-0.210714 4:0.0898428 5:-0.0333423 6:-0.506389 7:-0.330892 8:-0.00262714 9:0.078241 10:0.248751 11:-0.0590019 12:-0.229897 13:0.0709101 14:-0.29346 15:-0.128923 16:-0.0645776 17:0.588392 18:0.504433 
25.35532010592285 32 0 32 3.423032097570394 32 32 1:-0.506212 2:-0.0635415 3:-0.214592 4:0.0812624 5:0.00479751 6:-0.518596 7:-0.259027 8:0.0784749 9:0.0452873 10:0.210927 11:-0.0884741 12:-0.244495 13:0.0450255 14:-0.249717 15:-0.0757357 16:-0.0892568 17:0.579617 18:0.504903 
0 0 0 6.124490535000139 1.346976691210892 0 7.586383955984309 1:-0.284269 2:-0.407344 3:-0.07418 4:-0.128705 5:0.0583838 6:-0.392077 7:-0.0865638 8:0.0536283 9:0.164382 10:0.173252 11:-0.153528 12:-0.315405 13:0.0169888 14:0.0948059 15:0.0403507 16:0.0832764 17:0.632558 18:0.462792 
13.95546026832788 0 0 0 1.654331034734462 5.534989519147612 0 1:-0.290342 2:-0.36628 3:-0.0191689 4:-0.0770262 5:0.0410452 6:-0.388842 7:-0.119544 8:0.0487123 9:0.204778 10:0.195865 11:-0.0962105 12:-0.395418 13:0.0509868 14:0.149103 15:0.029101 16:0.0406673 17:0.652469 18:0.446803 
0 0 4.454648820285261 0 3.306627299733276 0 0 1:-0.301418 2:-0.397199 3:-0.0914213 4:-0.151352 5:0.00451439 6:-0.367 7:-0.083751 8:0.0933191 9:0.147932 10:0.138218 11:-0.159493 12:-0.327293 13:0.0510879 14:0.0111919 15:0.0729208 16:0.0718164 17:0.621941 18:0.444956 
5.429740218172565 0 15.2925038733215 7.283275878105053 0 0 0 1:-0.69123 2:-0.216053 3:-0.0314031 4:-0.12859 5:0.0308908 6:-0.566909 7:-0.111795 8:0.12226 9:0.0739499 10:0.18536 11:-0.134884 12:-0.245322 13:0.0583576 14:-0.119587 15:0.0221437 16:0.0117259 17:0.671084 18:0.479871 
0 0 0 0 0 11.76363706477987 0 1:-0.679872 2:-0.282544 3:-0.130559 4:-0.15989 5:0.0139715 6:-0.536667 7:-0.169905 8:0.0392223 9:0.0113546 10:0.230269 11:-0.0340699 12:-0.259965 13:0.0669805 14:-0.111318 15:-0.032009 16:-0.0707154 17:0.584752 18:0.480173 
5.897750796785374 0 0 0 0 2.119005792661749 0 1:-0.553569 2:-0.348455 3:-0.0952994 4:-0.0522074 5:-0.297273 6:-0.417669 7:-0.172518 8:-0.106298 9:0.208136 10:0.445256 11:-0.0762568 12:-0.247964 13:0.00541484 14:-0.222092 15:-0.0440513 16:-0.00370196 17:0.592742 18:0.435696 
0 0 0 0 0.3215623179630888 0 0 1:-0.5958 2:-0.422266 3:-0.184566 4:-0.139536 5:-0.225063 6:-0.540863 7:-0.153843 8:-0.0323572 9:0.165306 10:0.403272 11:-0.0488357 12:-0.152308 13:-0.0173662 14:-0.277673 15:-0.0309944 16:0.0659416 17:0.506245 18:0.459651 
0.1755830003176468 0 0.6068240614901165 27.76376733339725 1.898764158522801 24.00010368392226 16.95725422949642 1:-0.323427 2:-0.362298 3:-0.082659 4:-0.0410327 5:0.0235601 6:-0.416965 7:-0.189208 8:-0.0478589 9:0.140044 10:0.120024 11:-0.133044 12:-0.389032 13:0.0347045 14:-0.271552 15:-0.0365258 16:-0.0722193 17:0.549892 18:0.447347 
11.57690062680953 0 0 0 0 1.013073973320597 0 1:-0.282279 2:-0.376078 3:-0.116074 4:-0.0758486 5:-0.0703501 6:-0.377022 7:-0.161014 8:-0.0725431 9:0.171732 10:0.124787 11:-0.159222 12:-0.33515 13:-0.00150124 14:-0.286946 15:-0.0169848 16:-0.0466179 17:0.56241 18:0.452502 
0 0 0 0 0 3.266633389886594 0 1:-0.359522 2:-0.331079 3:-0.127682 4:-0.0442591 5:-0.0266629 6:-0.40061 7:-0.241914 8:-0.0854908 9:0.148421 10:0.100396 11:-0.111796 12:-0.370546 13:0.0476794 14:-0.273949 15:-0.0570517 16:-0.0630917 17:0.571344 18:0.439626 
0 5.15452686826142 0 1.560729938043738 0 0 0 1:-0.600739 2:-0.268094 3:-0.0821261 4:0.0303139 5:0.187328 6:-0.576552 7:-0.179273 8:0.117226 9:0.0959545 10:-0.0583184 11:-0.0376259 12:-0.116509 13:0.232537 14:-0.0360101 15:-0.0879024 16:0.094726 17:0.417577 18:0.42442 
0 0 0 0 0 4.947107687220881 7.971257357272371 1:-0.719059 2:0.0230702 3:-0.231564 4:0.022 5:0.188749 6:-0.514741 7:-0.247083 8:0.10116 9:-0.100535 10:-0.025726 11:0.0549287 12:-0.133535 13:0.306746 14:-0.0764721 15:-0.160755 16:0.00222422 17:0.425013 18:0.414572 
0 12.81745512801536 0 0 0 14.58617243718408 32 1:-0.45447 2:0.270998 3:-0.408582 4:0.103465 5:-0.0753572 6:-0.282247 7:-0.260776 8:0.13112 9:-0.199262 10:0.131568 11:0.074466 12:-0.260416 13:0.203748 14:-0.476038 15:0.0325968 16:0.16214 17:0.525052 18:0.503567 
0 29.13050114067648 0 0 0 2.205632181157515 32 1:-0.457731 2:0.311777 3:-0.325377 4:0.209125 5:0.168538 6:-0.342377 7:-0.343424 8:0.101394 9:-0.235233 10:0.139754 11:0.0878511 12:-0.238758 13:0.21601 14:-0.39273 15:0.0105889 16:0.09436 17:0.508005 18:0.540165 
2.926761936060168 0.09974049793459411 3.959596503346924 2.207907026594224 0 11.73924820108202 0 1:-0.558811 2:0.139053 3:-0.221161 4:0.205307 5:0.0843599 6:-0.278271 7:-0.563623 8:0.0254518 9:-0.221934 10:0.281122 11:0.0627762 12:-0.211595 13:0.0948504 14:-0.454292 15:0.0297713 16:0.0216968 17:0.509599 18:0.540177 
0 3.891785063459629 0 0 0 0 12.35112328245017 1:-0.559816 2:0.141197 3:-0.221697 4:0.217695 5:0.156426 6:-0.32765 7:-0.570295 8:0.0285276 9:-0.153557 10:0.292036 11:-0.0366955 12:-0.123375 13:0.238796 14:-0.353117 15:-0.013026 16:0.042608 17:0.481098 18:0.580156 
0 4.811967245783045 0 0.3301037785136274 0 0 26.98463418221161 1:-0.513847 2:0.17897 3:-0.266863 4:0.187404 5:0.125557 6:-0.283479 7:-0.492301 8:0.0579851 9:-0.204853 10:0.266547 11:0.0707064 12:-0.220843 13:0.163366 14:-0.384211 15:0.0444538 16:0.0216914 17:0.519756 18:0.511603 
8.056734654829222 0 0 0 0 7.932175201680635 0 1:-0.46814 2:-0.0594809 3:-0.154842 4:-0.121151 5:0.127691 6:-0.289192 7:-0.169718 8:0.0418789 9:0.0039641 10:0.143078 11:-0.153357 12:-0.431958 13:-0.0452151 14:-0.251451 15:0.14565 16:-0.107892 17:0.518914 18:0.46168 
0 0 0 0.8833794982505381 0 4.217384962397492 0 1:-0.438754 2:-0.0655845 3:-0.161612 4:-0.149041 5:-0.0246059 6:-0.211585 7:-0.17016 8:0.0471028 9:0.0285917 10:0.247799 11:-0.248192 12:-0.265391 13:0.434567 14:-0.385742 15:0.0549416 16:-0.042145 17:0.562735 18:0.435666 
0 0 0 0 0 10.21373384287277 0 1:-0.539596 2:0.0135063 3:-0.150952 4:-0.0793447 5:0.0958095 6:-0.329484 7:-0.128126 8:-0.0208389 9:-0.0628903 10:0.163282 11:-0.303546 12:-0.356428 13:0.0580196 14:-0.170817 15:0.0919488 16:-0.115819 17:0.561329 18:0.441267 
0 26.43197998390408 0 0 0 0 0 1:-0.470446 2:-0.0439483 3:-0.132116 4:-0.0549941 5:0.182375 6:-0.336903 7:-0.177933 8:0.0422477 9:0.0229114 10:0.128477 11:-0.277331 12:-0.316618 13:0.0317554 14:-0.257118 15:0.134972 16:-0.105061 17:0.51055 18:0.497793 
0 0 0 0 0 1.786379965403194 0 1:-0.367556 2:-0.119404 3:0.0732409 4:0.332064 5:0.0969982 6:-0.593932 7:-0.0533877 8:-0.175859 9:-0.0653959 10:0.230827 11:-0.128252 12:-0.381887 13:0.374196 14:-0.184147 15:0.0439761 16:0.0346313 17:0.534063 18:0.526149 
0 1.922353332490866 0.5263566294900823 0 0 0 0 1:-0.543535 2:0.10065 3:-0.106673 4:0.258001 5:-0.0711747 6:-0.53813 7:-0.0135265 8:0.0703 9:0.0258397 10:-0.0617288 11:-0.372821 12:-0.311164 13:0.086029 14:-0.0408333 15:0.195681 16:0.200233 17:0.370117 18:0.436844 
0 0 0 0 0 2.460386397256051 0 1:-0.465621 2:0.076201 3:-0.000541769 4:0.348966 5:0.229098 6:-0.434061 7:-0.172625 8:0.0618494 9:0.0117813 10:-0.0822457 11:-0.130401 12:-0.302466 13:0.157107 14:0.00859115 15:0.20254 16:-0.000193699 17:0.390079 18:0.332138 
3.746013807954767 0 0 0 1.665172339825346 1.090458136196083 0 1:-0.455505 2:0.0382914 3:0.0073723 4:0.369635 5:-0.10807 6:-0.373478 7:-0.194823 8:0.0776305 9:0.0635394 10:-0.0035414 11:-0.190867 12:-0.263009 13:0.210043 14:0.00967062 15:0.246088 16:-0.00497872 17:0.424032 18:0.327674 
1.541850123335482 0 0 0 0 0 0 1:-0.487584 2:0.00801449 3:0.0250544 4:0.460269 5:-0.0196047 6:-0.493806 7:-0.33037 8:0.164849 9:-0.246804 10:0.0354171 11:-0.0161133 12:-0.175766 13:0.0975981 14:-0.363633 15:0.00278787 16:0.240707 17:0.522192 18:0.500265 
15.63970385322775 0 0 0 0 0 0 1:-0.482326 2:-0.0172194 3:-0.0359919 4:0.405568 5:-0.0329832 6:-0.495012 7:-0.330305 8:0.0121612 9:-0.180595 10:0.0763462 11:-0.0243878 12:-0.226144 13:0.0512464 14:-0.444926 15:0.047432 16:0.242811 17:0.50884 18:0.454142 
0 7.457241067975115 0 0 0 5.222710324518914 3.561864761681891 1:-0.454856 2:-0.0768096 3:-0.0796089 4:0.302429 5:-0.0243383 6:-0.510579 7:-0.234195 8:0.016051 9:-0.131761 10:0.0514743 11:-0.0471322 12:-0.227045 13:0.0288368 14:-0.50202 15:0.0408669 16:0.207431 17:0.497458 18:0.449056 
2.844452470695843 0 0 0 0 0 0 1:-0.495978 2:-0.0693918 3:-0.038017 4:0.385355 5:0.0359621 6:-0.573602 7:-0.323352 8:0.0759896 9:-0.20567 10:0.1116 11:-0.0639986 12:-0.129005 13:0.310506 14:-0.35966 15:-0.00524825 16:0.19103 17:0.546744 18:0.483716 
9.021341971340265 0 2.837489920077757 0 0 0 0 1:-0.34873 2:-0.143518 3:-0.0916309 4:0.214042 5:0.275832 6:-0.470664 7:-0.101609 8:0.134076 9:-0.083444 10:0.157702 11:-0.123239 12:-0.0196286 13:0.0736139 14:-0.452325 15:-0.344422 16:-0.259625 17:0.457363 18:0.341695 
0 0 0.06955078400001725 0 0 0 0 1:-0.346122 2:-0.193641 3:-0.0386794 4:0.256346 5:0.06231 6:-0.393721 7:-0.172362 8:0.196107 9:-0.068582 10:0.287666 11:-0.0809032 12:-0.0679574 13:0.421936 14:-0.221076 15:-0.454486 16:-0.242203 17:0.556553 18:0.39039 
0 0 0 3.609017925401594 0 21.56936397262502 0.3890940311486838 1:-0.399684 2:-0.0523842 3:-0.16852 4:0.191653 5:0.236554 6:-0.442851 7:-0.151095 8:0.12593 9:-0.135293 10:0.137606 11:-0.0180624 12:-0.132844 13:0.0664825 14:-0.502684 15:-0.321459 16:-0.238338 17:0.42128 18:0.303983 
0 0 0 0.7047124754235109 0 0 0 1:-0.355777 2:-0.0743649 3:-0.146612 4:0.211971 5:0.0291071 6:-0.348521 7:-0.213088 8:0.218187 9:-0.151575 10:0.324982 11:-0.163339 12:-0.112713 13:0.279475 14:-0.4063 15:-0.397873 16:-0.247796 17:0.54811 18:0.405507 
0 2.039748548839506 0 1.983278516444049 0 0 0 1:-0.319955 2:-0.123946 3:-0.149805 4:0.211248 5:0.303487 6:-0.42431 7:-0.182484 8:0.173413 9:-0.146557 10:0.127892 11:0.00980129 12:-0.0606108 13:0.0853017 14:-0.541518 15:-0.309641 16:-0.138952 17:0.412578 18:0.316606 
0 6.48554731861045 0 3.154125295405657 0 10.74386454920126 2.451281316993021 1:-0.369946 2:-0.101254 3:-0.109449 4:0.255037 5:0.0589125 6:-0.390869 7:-0.235523 8:0.20203 9:-0.10832 10:0.278934 11:-0.101948 12:-0.103626 13:0.361688 14:-0.306935 15:-0.428503 16:-0.217198 17:0.584047 18:0.380134 
0 0 0 0 0 2.251774279110385 0 1:-0.226593 2:0.315632 3:-0.0309493 4:0.583746 5:-0.0446928 6:-0.414712 7:-0.0113934 8:0.0540941 9:-0.147139 10:0.205275 11:0.00864613 12:-0.329441 13:0.269804 14:-0.196094 15:0.217489 16:0.0787688 17:0.465686 18:0.53419 
0 0 0 0 0 2.543645607929529 5.316006848073082 1:-0.262605 2:0.293625 3:-0.162987 4:0.427151 5:0.152686 6:-0.482229 7:-0.0445133 8:-0.00285768 9:-0.218915 10:0.0553193 11:0.0801569 12:-0.275435 13:0.101261 14:-0.450612 15:0.131666 16:0.129095 17:0.47183 18:0.518606 
0 2.255756304719805 0 2.440590382017247 1.176064706624259 2.098815278475195 2.807062328239262 1:-0.28216 2:0.397247 3:-0.177191 4:0.45596 5:0.0810753 6:-0.293228 7:-0.327309 8:0.0794172 9:-0.164448 10:0.177836 11:0.142629 12:-0.431443 13:0.383068 14:-0.749815 15:0.122099 16:0.0374419 17:0.507014 18:0.461312 
0 0.009782326498453604 0 0 0 0 0 1:-0.397179 2:-0.345538 3:0.189851 4:0.314793 5:0.098531 6:-0.496693 7:-0.151609 8:0.0280063 9:-0.027333 10:0.106247 11:-0.195703 12:-0.114313 13:0.20471 14:-0.179116 15:0.0312871 16:0.182605 17:0.46461 18:0.399268 
0 0 1.444406068209547 0 0 0 0 1:-0.442744 2:-0.323965 3:0.0734301 4:0.222703 5:-0.025087 6:-0.577014 7:-0.0817928 8:0.0758477 9:-0.0990978 10:0.0934643 11:-0.23451 12:-0.172434 13:0.248885 14:-0.333873 15:0.0143387 16:0.315198 17:0.383541 18:0.325955 
0 0 2.680098405585539 0 0 0 0 1:-0.399399 2:-0.319677 3:0.20844 4:0.355661 5:-0.10612 6:-0.424468 7:-0.152272 8:-0.00502128 9:-0.169149 10:0.116693 11:-0.181997 12:-0.0640957 13:0.0994083 14:-0.403958 15:0.162179 16:0.20495 17:0.510291 18:0.403343 
0 0 0 0 0 32 0 1:-0.546648 2:0.197309 3:-0.289396 4:0.0960065 5:0.0216239 6:-0.356008 7:-0.0976138 8:0.0772891 9:0.0192768 10:-0.0311754 11:-0.080763 12:-0.162688 13:0.136626 14:-0.276445 15:0.0212754 16:0.0312529 17:0.4714 18:0.411731 
0 0 0.02071105794499378 0 0 0.02384199536446718 0 1:-0.525309 2:-0.577688 3:0.312261 4:-0.153782 5:0.0243157 6:-0.24134 7:-0.352431 8:0.0927619 9:0.671497 10:-0.00444921 11:-0.266366 12:-0.558322 13:0.0859626 14:0.384422 15:-0.535432 16:0.589541 17:0.820504 18:0.392314 
0 32 0 0 0 25.09296038603238 18.68173643161316 1:-0.551764 2:0.16701 3:-0.242396 4:0.144576 5:0.100216 6:-0.390387 7:-0.148761 8:0.0732558 9:-0.0134941 10:0.00573948 11:-0.0811367 12:-0.119202 13:0.165656 14:-0.227669 15:0.0218455 16:0.008072 17:0.470107 18:0.4581 
1.767534834297877 0 0.6097623280861276 1.417182508159313 0.07321029818524079 0 0 1:-0.595664 2:-0.0364306 3:-0.171897 4:-0.106844 5:0.11554 6:-0.553983 7:-0.0791423 8:0.263306 9:-0.0635672 10:-0.185278 11:0.0130673 12:-0.103616 13:0.657087 14:-0.960417 15:-0.15441 16:0.199346 17:0.560454 18:0.412142 
0 0 0 0 0 9.587609916460433 0.2338801227676783 1:-0.497615 2:-0.120973 3:-0.212611 4:-0.0509398 5:0.12488 6:-0.278043 7:-0.204249 8:-0.0305896 9:0.0846796 10:0.13826 11:0.167292 12:-0.30775 13:0.155726 14:-0.411744 15:0.064034 16:-0.156011 17:0.471903 18:0.486002 
0 8.729169868879325 0 0 0 6.20593823609151 32 1:-0.505658 2:-0.111396 3:-0.180527 4:-0.0497308 5:0.00710041 6:-0.264913 7:-0.169163 8:-0.043751 9:0.0553699 10:0.208128 11:0.0674297 12:-0.398175 13:0.212564 14:-0.310771 15:0.0463013 16:-0.144813 17:0.490423 18:0.487239 
0 2.243763908261017 0 5.190012781688209 2.558098705877043 0 10.65442857927117 1:-0.431864 2:-0.0329333 3:-0.293296 4:0.00277571 5:0.200698 6:-0.344796 7:-0.163119 8:-0.0335615 9:0.0564337 10:0.173205 11:0.187428 12:-0.379664 13:0.155802 14:-0.344016 15:0.140426 16:-0.139568 17:0.4648 18:0.499244 
0 17.4621616354693 0 12.01788220928939 0 6.344771607182804 14.57368540513594 1:-0.435791 2:-0.0666839 3:-0.299007 4:-0.0558345 5:-0.0809306 6:-0.289336 7:-0.128211 8:0.0044826 9:0.0109237 10:0.20093 11:0.117898 12:-0.374324 13:0.115559 14:-0.350198 15:0.216295 16:-0.101339 17:0.487587 18:0.480267 
0 0 0 1.749934443523265 0 0 0 1:-0.273658 2:-0.011548 3:-0.219002 4:0.100273 5:-0.0385913 6:-0.372721 7:0.361331 8:-0.323444 9:-0.0205372 10:-0.149038 11:0.00375718 12:-0.410796 13:0.251449 14:-0.543838 15:-0.0539951 16:-0.0885798 17:0.465007 18:0.477556 
0 0 0 0 0 17.19200228504679 11.08239939422018 1:-0.532053 2:0.262668 3:-0.430744 4:0.0152607 5:0.127877 6:-0.5211 7:-0.12253 8:0.0661044 9:0.0201053 10:0.133703 11:-0.298554 12:-0.101163 13:-0.000141399 14:-0.221722 15:0.0227297 16:-0.00956602 17:0.514763 18:0.482747 
1.099856278429382 0 0 4.233844185896224 0 6.560337561268515 0 1:-0.485938 2:0.264994 3:-0.405581 4:0.0132392 5:-0.0667265 6:-0.420772 7:-0.0792366 8:0.044942 9:0.0698765 10:0.166641 11:-0.34453 12:-0.0613192 13:-0.0463305 14:-0.15699 15:0.0705972 16:-0.035561 17:0.540825 18:0.419239 
0 0 0 13.03503757083722 0 0 0 1:-0.417349 2:0.00585937 3:-0.222019 4:-0.0680231 5:0.00883874 6:-0.44074 7:-0.128085 8:-0.0168297 9:-0.119923 10:0.263576 11:-0.387603 12:-0.239633 13:0.101288 14:-0.404378 15:0.0391019 16:-0.0496933 17:0.497581 18:0.475143 
1.416045379776803 0 0 0 0 32 16.58116364941965 1:-0.423259 2:0.000970085 3:-0.164334 4:-0.0222977 5:0.0455013 6:-0.441653 7:-0.141085 8:-0.0144223 9:-0.109632 10:0.269694 11:-0.384453 12:-0.236862 13:0.146181 14:-0.317349 15:-0.0433629 16:-0.0822052 17:0.509351 18:0.470924 
0 0 0 0 0 0.4424430585207018 9.123149090492234 1:-0.462162 2:0.0780225 3:-0.166192 4:0.0456511 5:0.0899144 6:-0.474487 7:-0.177891 8:-0.101797 9:-0.104347 10:0.237566 11:-0.326283 12:-0.161816 13:0.354242 14:-0.262724 15:-0.144316 16:-0.0833288 17:0.519935 18:0.479482 
0 5.437700167797855 0 0.8980944574564157 0 30.68533601595519 32 1:-0.382882 2:0.0783669 3:-0.2245 4:0.0124987 5:-0.0609815 6:-0.40267 7:-0.170861 8:0.00251811 9:-0.118913 10:0.20969 11:-0.408504 12:-0.165087 13:0.071436 14:-0.420878 15:0.0198629 16:-0.0411002 17:0.476715 18:0.47775 
0 27.58925141863028 7.849050277326828 29.79786940236618 0 32 32 1:-0.395453 2:0.0646077 3:-0.226074 4:0.00386174 5:0.107788 6:-0.50292 7:-0.107911 8:0.01809 9:-0.111711 10:0.21867 11:-0.367156 12:-0.2166 13:0.166777 14:-0.289786 15:-0.0577975 16:-0.134766 17:0.49777 18:0.475788 
0 0 0 0 0 4.267028511430623 0 1:-0.472596 2:-0.0160075 3:-0.319357 4:0.0874192 5:0.157026 6:-0.592086 7:0.00743744 8:-0.117068 9:-0.0699792 10:0.271171 11:-0.133988 12:-0.211245 13:0.137356 14:0.242922 15:0.222912 16:0.0212905 17:0.375855 18:0.486926 
0 0 0 0 0.07938757036919115 0 0 1:-0.463662 2:-0.0352084 3:-0.348128 4:-0.0276038 5:-0.0669955 6:-0.400675 7:-0.0768932 8:-0.037738 9:-0.100371 10:0.375151 11:-0.217185 12:-0.147244 13:0.125459 14:0.333631 15:0.256857 16:0.0657822 17:0.41823 18:0.489726 
0 0 0 0 0 11.16055697317977 0 1:-0.627092 2:0.171249 3:-0.313582 4:-0.0200931 5:0.226885 6:-0.414923 7:-0.106169 8:-0.0708454 9:-0.0148672 10:0.364834 11:-0.0906055 12:-0.277778 13:-0.000679063 14:0.120363 15:0.0728983 16:-0.198346 17:0.466702 18:0.434548 
0 0 0 0.1899798340264771 0 0 0 1:-0.545597 2:0.0311922 3:-0.360594 4:-0.201444 5:-0.0105687 6:-0.318106 7:-0.0141133 8:0.00554841 9:0.015207 10:0.486976 11:-0.144352 12:-0.242871 13:0.338764 14:-0.0396499 15:0.135635 16:-0.0826404 17:0.476785 18:0.456469 
0 0 0 0 1.328650448802733 0 0 1:-0.076643 2:-0.261387 3:-0.0656444 4:0.434234 5:0.233741 6:-0.432752 7:-0.263964 8:0.247322 9:-0.107064 10:0.242136 11:0.18707 12:-0.303684 13:0.196879 14:-0.199658 15:0.357152 16:0.0144421 17:0.426858 18:0.428727 
0 0 0 12.68417294886038 0 0 0 1:-0.275029 2:-0.130636 3:0.00698724 4:0.469803 5:0.144047 6:-0.477912 7:-0.339804 8:0.146729 9:0.00774873 10:0.223648 11:-0.0509365 12:-0.319584 13:0.139163 14:-0.396108 15:0.21289 16:0.110632 17:0.457479 18:0.4481 
0 0 0 0.8953266408830532 0 0 1.419224522452244 1:-0.313029 2:-0.134586 3:-0.1206 4:0.398758 5:0.0727544 6:-0.529104 7:-0.331651 8:0.146214 9:-0.0481835 10:0.23676 11:-0.0460074 12:-0.194356 13:0.463769 14:-0.42761 15:0.156951 16:0.10088 17:0.44144 18:0.505247 
0 0 0 3.237431762859958 1.794883430832143 6.950927729290312 0 1:-0.253793 2:-0.159919 3:-0.10471 4:0.450198 5:0.113785 6:-0.532788 7:-0.319675 8:0.202412 9:-0.146314 10:0.20297 11:0.14394 12:-0.384183 13:0.153815 14:-0.227194 15:0.235708 16:-0.00471527 17:0.43792 18:0.428773 
0 0 0 7.39443756315696 0.1946697345432908 0.2606875737379409 0 1:-0.188297 2:-0.22091 3:-0.0825143 4:0.460111 5:0.103885 6:-0.469523 7:-0.360797 8:0.17885 9:-0.0876156 10:0.236473 11:0.0671478 12:-0.156803 13:0.457268 14:-0.193273 15:0.219193 16:0.0196783 17:0.438739 18:0.476615 
0 0 0 0 0 0 7.096854020955401 1:-0.52855 2:-0.0147088 3:-0.181483 4:0.0360891 5:-0.0771584 6:-0.210576 7:-0.440699 8:-0.0140481 9:0.100536 10:0.16029 11:-0.189438 12:0.0203087 13:-0.110307 14:-0.41782 15:-0.0260734 16:0.00466916 17:0.49655 18:0.571491 
0 0 0 0 0 8.685111522227215 0 1:-0.505013 2:-0.00837463 3:-0.183689 4:0.0094018 5:0.198565 6:-0.27476 7:-0.397659 8:0.0256167 9:0.0571141 10:0.23957 11:-0.194139 12:0.0579282 13:0.208315 14:-0.292721 15:-0.114643 16:-0.111582 17:0.510098 18:0.567142 
0 0 0 0 0 1.576985254601457 7.151156423986074 1:-0.54056 2:-0.0474616 3:-0.212988 4:-0.053528 5:-0.0386294 6:-0.174353 7:-0.392267 8:0.0344885 9:0.110941 10:0.184867 11:-0.132091 12:-0.0726435 13:0.0606911 14:-0.57694 15:-0.00371299 16:0.0331463 17:0.523169 18:0.538135 
0 0 0 0 0 3.544499318817459 25.81195530570764 1:-0.46979 2:-0.0595739 3:-0.205931 4:-0.0600694 5:0.190651 6:-0.214014 7:-0.349585 8:0.123569 9:0.0228023 10:0.268902 11:-0.152634 12:-0.0135532 13:0.229522 14:-0.339574 15:-0.0650944 16:-0.0682876 17:0.498082 18:0.575849 
0 0 0 0.1502900996172258 0 6.189161150323509 0 1:-0.536513 2:-0.05389 3:-0.0722429 4:0.127308 5:-0.0979741 6:-0.0237845 7:-0.579688 8:-0.00955479 9:0.0986886 10:0.257733 11:0.0596614 12:-0.0167485 13:-0.00723701 14:-0.570973 15:-0.0903233 16:-0.0455554 17:0.533081 18:0.517855 
0 2.711488427690333 0 0 0 5.432425873251414 0 1:-0.509362 2:-0.0447543 3:-0.134014 4:0.0665995 5:0.28754 6:-0.192281 7:-0.488861 8:0.0334922 9:0.0547701 10:0.279512 11:-0.0623052 12:0.0426238 13:0.28763 14:-0.380423 15:-0.187415 16:-0.0760579 17:0.521305 18:0.613518 
0 0 0 0 0 10.19002258689294 0 1:-0.497064 2:-0.0270536 3:-0.129422 4:0.139601 5:0.110775 6:-0.237335 7:-0.174165 8:-0.0959414 9:0.133143 10:0.0331684 11:0.0917418 12:-0.164796 13:0.168715 14:-0.357568 15:-0.0669584 16:-0.159038 17:0.295285 18:0.320287 
0 0 0 0 0 2.180421381653593 0 1:-0.506532 2:-0.0758729 3:-0.131388 4:0.160371 5:0.0428323 6:-0.282494 7:-0.216723 8:-0.0775656 9:0.156664 10:0.00640562 11:0.0364484 12:-0.127861 13:0.246587 14:-0.11284 15:-0.115321 16:-0.142543 17:0.297242 18:0.328703 
0 7.377515318900254 0 0 0 0 0 1:-0.526817 2:0.0722086 3:-0.118931 4:0.158978 5:0.0845154 6:-0.238806 7:-0.135026 8:-0.00521523 9:0.150046 10:0.0365736 11:0.0863289 12:-0.218662 13:0.188364 14:-0.389149 15:-0.051298 16:-0.137632 17:0.364478 18:0.387641 
0.2523742919941892 0 0 0 0 0 0 1:-0.536499 2:0.0232518 3:-0.0649501 4:0.204665 5:0.0848668 6:-0.259696 7:-0.196058 8:-0.0261855 9:0.21924 10:-0.0034265 11:0.0327735 12:-0.112175 13:0.370056 14:-0.305603 15:-0.0835958 16:-0.138191 17:0.416552 18:0.470901 
0 0 0 8.862069359929714 0 0 0 1:-0.184692 2:0.0415869 3:-0.0251922 4:0.476626 5:0.0894406 6:-0.548847 7:-0.0155698 8:0.109514 9:0.0880395 10:0.133799 11:-0.0245534 12:-0.263366 13:0.244427 14:-0.260531 15:0.0201504 16:-0.0376237 17:0.485995 18:0.579343 
0 0 0.4575573430966124 2.342052833556654 0 0 0 1:-0.187112 2:0.0789634 3:0.0736107 4:0.525562 5:-0.0874658 6:-0.475199 7:0.032876 8:0.00471521 9:0.162512 10:0.153671 11:-0.0986467 12:-0.269211 13:0.116597 14:-0.281354 15:0.0877247 16:0.0268228 17:0.495026 18:0.479227 
0 3.271353679998785 0 0 0 0 0 1:-0.364849 2:0.119463 3:-0.0568294 4:0.466747 5:0.0413391 6:-0.419791 7:-0.260988 8:0.0244756 9:-0.0681779 10:0.168589 11:-0.0170159 12:-0.157949 13:0.142721 14:-0.170219 15:0.0976995 16:0.151178 17:0.472976 18:0.624858 
0 2.754845414301752 0 0 0 2.538011361220371 4.527077232863285 1:-0.355672 2:-0.0606299 3:-0.0353785 4:0.391733 5:-0.0116448 6:-0.464682 7:-0.185501 8:0.0400308 9:0.083021 10:0.122781 11:-0.0297632 12:-0.150802 13:0.517272 14:-0.249523 15:-0.00213491 16:0.0792849 17:0.540698 18:0.529737 
0 0 0 0 0 0 17.70909461972514 1:-0.484917 2:0.18847 3:-0.360149 4:-0.0383853 5:0.0648593 6:-0.310331 7:-0.195158 8:0.107581 9:-0.0367437 10:0.0844982 11:-0.331631 12:-0.235856 13:0.0319875 14:-0.249811 15:0.0490721 16:-0.110019 17:0.471722 18:0.491977 
0 32 0 0 0 0 32 1:-0.478407 2:0.176187 3:-0.338675 4:-0.0451603 5:0.0630625 6:-0.304321 7:-0.215267 8:0.159931 9:-0.0367586 10:0.116067 11:-0.33988 12:-0.228035 13:0.125417 14:-0.201667 15:0.00383862 16:-0.0669665 17:0.482799 18:0.489619 
0 0 0 0 0 0 1.246516588754763 1:-0.542343 2:0.214092 3:-0.297576 4:0.0674953 5:0.0426459 6:-0.277528 7:-0.304098 8:0.0317952 9:0.0460388 10:0.078624 11:-0.403429 12:-0.11079 13:-0.0985618 14:-0.301064 15:-0.0179681 16:0.0379083 17:0.484148 18:0.497329 
0 0 0 0 0 4.148579806873772 0.8879257887692369 1:-0.306448 2:0.021587 3:-0.0842363 4:0.283059 5:0.0213374 6:-0.407797 7:-0.167081 8:-0.270207 9:0.0938117 10:0.0758008 11:-0.145538 12:-0.48715 13:0.203423 14:-0.427608 15:0.237441 16:0.00610763 17:0.494995 18:0.481136 
0 0 0 0 0.9969299916584109 0 0 1:-0.232068 2:-0.086042 3:-0.121008 4:0.18275 5:0.0449855 6:-0.502928 7:-0.0447368 8:-0.219139 9:0.0802482 10:0.0550532 11:-0.0742665 12:-0.449157 13:0.272984 14:-0.493575 15:0.284277 16:-0.0241144 17:0.463037 18:0.459687 
0 0 0 0 0 0.3118263900929402 0 1:-0.316565 2:0.0175961 3:-0.056297 4:0.240929 5:-0.0446728 6:-0.387377 7:-0.114398 8:-0.23481 9:0.0491675 10:0.117751 11:-0.0762418 12:-0.552672 13:0.281177 14:-0.356564 15:0.226634 16:-0.0270001 17:0.49701 18:0.439501 
0 0 0 0 0 3.028711861557763 0 1:-0.570839 2:-0.168171 3:-0.135995 4:-0.107982 5:0.0715718 6:-0.364077 7:-0.207876 8:0.0729808 9:-0.272053 10:0.299092 11:-0.382887 12:-0.085404 13:0.0836917 14:-0.199737 15:-0.0631126 16:0.239849 17:0.282597 18:0.304169 
0 4.541738242235612 0 0 0 0 1.110269924419671 1:-0.594491 2:-0.0582407 3:-0.0940569 4:-0.0753883 5:0.0677228 6:-0.398012 7:-0.167046 8:0.0461914 9:-0.280586 10:0.331615 11:-0.489029 12:-0.16284 13:0.0645756 14:-0.18481 15:-0.0215934 16:0.281648 17:0.436902 18:0.464976 
0 0 0 0.6843213957581037 0 5.154863821771017 0 1:-0.378483 2:0.1082 3:0.00299669 4:0.322749 5:0.0965378 6:-0.373424 7:-0.0685525 8:-0.105365 9:-0.125151 10:0.072304 11:-0.153926 12:-0.512936 13:0.456313 14:-0.295433 15:-0.0827625 16:-0.199859 17:0.537359 18:0.426165 
0 0 0 1.494785034151623 0 0 0 1:-0.360959 2:0.0877238 3:-0.0546355 4:0.271965 5:0.0191762 6:-0.394245 7:-0.0729603 8:-0.0723658 9:-0.108111 10:0.0401858 11:-0.239616 12:-0.480933 13:0.401796 14:-0.436277 15:-0.102792 16:-0.196403 17:0.51968 18:0.450268 
0 0 0 0 0 0.1640582215447059 0 1:-0.311569 2:0.00717622 3:-0.0363206 4:0.30094 5:0.0607808 6:-0.364813 7:-0.0129474 8:-0.158566 9:-0.154698 10:0.0286538 11:-0.175793 12:-0.36945 13:0.368237 14:-0.236452 15:-0.0111072 16:-0.103443 17:0.486672 18:0.416542 
0 0 0 0 0 7.180543081103393 0 1:-0.35238 2:0.0310627 3:-0.110592 4:0.263454 5:-0.0196442 6:-0.433728 7:0.024012 8:-0.138815 9:-0.121574 10:-0.0127253 11:-0.264763 12:-0.399976 13:0.260311 14:-0.41304 15:-0.00983032 16:-0.00607721 17:0.478904 18:0.461585 
0 1.876783948506596 0 0 0 0 0 1:-0.440514 2:0.367346 3:-0.320879 4:0.109902 5:0.14417 6:-0.163064 7:-0.479945 8:0.281295 9:0.0832363 10:0.182732 11:-0.201739 12:-0.189847 13:0.119995 14:-0.296837 15:0.0684499 16:0.0352219 17:0.456445 18:0.44632 
0 23.3928483788492 0 0 0 0 13.29317269590359 1:-0.444669 2:0.372217 3:-0.321194 4:0.113945 5:0.0605066 6:-0.148485 7:-0.45054 8:0.278682 9:0.0936872 10:0.156733 11:-0.208426 12:-0.197724 13:0.0758891 14:-0.316755 15:0.0497024 16:0.0923831 17:0.481132 18:0.464106 
4.104892947077672 0 0 0 0 0 0 1:-0.486673 2:0.427263 3:-0.337253 4:0.16927 5:0.0212779 6:-0.169381 7:-0.497145 8:0.210706 9:0.0394572 10:0.14974 11:-0.173652 12:-0.215208 13:-0.00245529 14:-0.262267 15:-0.0109406 16:0.0994383 17:0.488875 18:0.442565 
0 0 0 5.149453712295449 1.553788514177237 0 0 1:-0.441143 2:0.358366 3:-0.3498 4:0.140644 5:0.132217 6:-0.164765 7:-0.580992 8:0.313086 9:0.0483038 10:0.176843 11:-0.184001 12:-0.099785 13:0.0794955 14:-0.326316 15:0.0223496 16:0.103916 17:0.46487 18:0.434053 
0 0 0 0 0 1.705310312538248 21.85373514234033 1:-0.589701 2:0.11792 3:-0.26147 4:-0.0384681 5:0.0860529 6:-0.389524 7:-0.291819 8:0.145181 9:0.0491365 10:0.0313634 11:-0.231466 12:-0.137094 13:0.219666 14:-0.440096 15:0.120266 16:-0.10532 17:0.56672 18:0.505361 
0 0 9.127030009327605 0 0 0 0 1:-0.625411 2:0.0397312 3:-0.239358 4:-0.084164 5:-0.0015914 6:-0.297135 7:-0.390009 8:0.119191 9:-0.0581434 10:0.170449 11:-0.0493393 12:-0.267578 13:0.235897 14:-0.374787 15:0.0845808 16:-0.164541 17:0.574312 18:0.545477 
0 32 0 0 0 15.91570915348944 13.64448389720638 1:-0.639409 2:0.124066 3:-0.178197 4:-0.0126462 5:0.0450844 6:-0.347856 7:-0.382365 8:0.0894032 9:0.058455 10:0.104222 11:-0.161964 12:-0.251344 13:0.234405 14:-0.386779 15:0.0699926 16:-0.134451 17:0.56023 18:0.541914 
0 0 0 0 0 0 8.938757193824099 1:-0.635845 2:0.26017 3:-0.371177 4:0.08917 5:0.092844 6:-0.416606 7:-0.599226 8:0.14825 9:-0.0520859 10:0.302649 11:-0.262574 12:-0.199481 13:0.254432 14:-0.259502 15:-0.0400784 16:-0.150305 17:0.486069 18:0.468318 
0.6486272350815521 0 0 1.178083700238667 0 7.473906839730842 1.202161926920101 1:-0.598491 2:0.271195 3:-0.385238 4:0.0820492 5:0.0463074 6:-0.375294 7:-0.603321 8:0.179679 9:-0.00549386 10:0.305103 11:-0.326719 12:-0.131656 13:0.263536 14:-0.37914 15:-0.00473986 16:-0.0879681 17:0.510349 18:0.422958 
0 0 0 0 0 0 12.65967133149131 1:-0.635276 2:0.252062 3:-0.366437 4:0.0420828 5:0.096163 6:-0.398932 7:-0.505961 8:0.11203 9:0.0196548 10:0.285316 11:-0.308588 12:-0.216259 13:0.267604 14:-0.245302 15:-0.0297042 16:-0.137367 17:0.4947 18:0.453029 
0.7870638714686296 0 0.08003457354172236 0 0 1.316879752507091 0 1:-0.450874 2:0.0335343 3:0.253982 4:0.64945 5:-0.182925 6:-0.379038 7:-0.125809 8:-0.178299 9:-0.0348888 10:-0.0742048 11:0.149119 12:-0.447487 13:-0.0956006 14:0.177088 15:0.102283 16:0.0639594 17:0.485688 18:0.602448 
0.6664504293926422 0 0 0 0 0 0 1:-0.516439 2:-0.0586983 3:0.143001 4:0.495056 5:0.117098 6:-0.595103 7:-0.0832792 8:-0.0452558 9:0.0866357 10:-0.0643893 11:0.0261261 12:-0.310738 13:0.224374 14:0.250489 15:-0.0375425 16:0.0815415 17:0.454862 18:0.645786 
4.270539998231032 32 17.24769356040511 0 0 15.58481224706935 32 1:-0.496056 2:-0.0365208 3:-0.0304016 4:0.236133 5:0.106046 6:-0.387689 7:-0.203335 8:0.226968 9:-0.0577884 10:0.136297 11:-0.100697 12:-0.0868702 13:0.0037815 14:-0.0164846 15:-0.071855 16:-0.0240968 17:0.461766 18:0.489931 
3.166919045153688 0 0.7655322653260388 0.03655760846210258 0 4.235664644526375 0 1:-0.4061 2:-0.0804081 3:0.176631 4:0.381921 5:0.104424 6:-0.319496 7:-0.18442 8:0.122777 9:0.100834 10:0.124331 11:-0.160743 12:-0.163197 13:0.168932 14:-0.0606443 15:-0.267252 16:-0.120941 17:0.581579 18:0.511896 
0 0 0 0 0 1.080776626122719 0 1:-0.509117 2:-0.00392824 3:-0.145954 4:0.231838 5:-0.152845 6:-0.630023 7:0.0833132 8:0.0271931 9:-0.00149565 10:-0.061911 11:-0.0345418 12:-0.417612 13:0.310414 14:-0.349419 15:0.169076 16:-0.193656 17:0.475189 18:0.465662 
0 11.28939193894729 0 0 0 0 0 1:-0.631359 2:0.25307 3:-0.382482 4:0.00891099 5:-0.124699 6:-0.37471 7:-0.243364 8:0.135737 9:-0.0791441 10:0.112809 11:-0.166376 12:-0.276922 13:0.196442 14:-0.20541 15:0.0912629 16:-0.00246925 17:0.506476 18:0.45136 
0 32 0 0 0 0 32 1:-0.584205 2:0.227321 3:-0.364144 4:-0.00384004 5:0.178873 6:-0.411095 7:-0.276231 8:0.183641 9:-0.100165 10:0.120671 11:-0.122312 12:-0.259124 13:0.118006 14:-0.154037 15:0.0834398 16:0.00243882 17:0.487349 18:0.480183 
0 12.10754354409433 0 0 0 0 13.12923251613086 1:-0.605814 2:0.203508 3:-0.388119 4:-0.0343247 5:-0.148575 6:-0.356922 7:-0.234663 8:0.133061 9:-0.0588958 10:0.144998 11:-0.17691 12:-0.278519 13:0.195228 14:-0.129768 15:0.0891869 16:0.00854069 17:0.507867 18:0.468764 
0 16.67179754426921 0 0 0 3.574641510780036 21.91634030496382 1:-0.597288 2:0.188267 3:-0.344506 4:0.0403692 5:0.188476 6:-0.426904 7:-0.41312 8:0.197053 9:-0.174329 10:0.121357 11:-0.0841118 12:-0.235855 13:0.151356 14:-0.179851 15:0.0168526 16:0.0196301 17:0.505407 18:0.503155 
0 0 0 5.119614568212986 0.7706156240069054 0 6.151526765935061 1:-0.379321 2:0.263717 3:-0.384159 4:0.0199394 5:0.0583818 6:-0.237802 7:-0.310948 8:-0.00724959 9:-0.0416877 10:0.246464 11:-0.405775 12:-0.199297 13:0.445813 14:-0.260394 15:-0.210089 16:-0.0960912 17:0.57381 18:0.403924 
0 0 0 0 0 3.951674564802039 0 1:-0.411474 2:0.255798 3:-0.30001 4:0.0621808 5:0.264848 6:-0.286931 7:-0.292582 8:-0.116996 9:-0.0613159 10:0.1392 11:-0.413218 12:-0.0697743 13:-0.12078 14:-0.347671 15:-0.00193951 16:-0.146636 17:0.50551 18:0.441767 
0.05154026130282371 0 0 0 0 1.532857647253812 0 1:-0.365953 2:0.154836 3:-0.287353 4:-0.00639308 5:0.00850923 6:-0.164893 7:-0.318575 8:-0.0160216 9:-0.00964623 10:0.220601 11:-0.524913 12:-0.0501659 13:0.272331 14:-0.351299 15:-0.22436 16:-0.00405551 17:0.616783 18:0.370763 
6.247440225063636 8.642048329526148 3.674769226376858 0 1.6689938667273 5.871823862561824 0 1:-0.457665 2:0.184238 3:-0.320839 4:-0.0414826 5:-0.0907746 6:-0.474272 7:-0.24323 8:0.068889 9:-0.053875 10:0.0591968 11:-0.52507 12:-0.13194 13:0.201829 14:-0.192865 15:-0.0525477 16:-0.109689 17:0.543007 18:0.430108 
0 0 0 8.829430878145974 0 5.545291727129947 2.961334113484868 1:-0.403943 2:0.0981925 3:-0.364594 4:-0.0945703 5:0.0188176 6:-0.370537 7:-0.130752 8:0.0355557 9:-0.0329297 10:0.0562926 11:-0.175015 12:-0.267708 13:0.338621 14:-0.349704 15:0.0295138 16:-0.12916 17:0.578548 18:0.499959 
0 0 0 0 0 0.6837896269488088 0 1:-0.437167 2:0.271537 3:-0.35838 4:-0.0111446 5:0.500397 6:-0.521157 7:0.0399099 8:0.113552 9:-0.166154 10:-0.0460351 11:-0.380067 12:-0.0981661 13:0.426257 14:-0.131229 15:-0.0589792 16:-0.0748234 17:0.550192 18:0.487152 
0 5.324459104755212 0 0 0 3.466912452149376 0.8411515484322156 1:-0.408849 2:0.24571 3:-0.309324 4:0.0291637 5:0.436165 6:-0.468186 7:-0.0348339 8:0.169541 9:-0.193514 10:0.0149533 11:-0.467262 12:-0.0704833 13:0.483673 14:-0.0305902 15:-0.158138 16:-0.0167238 17:0.620252 18:0.428716 
0 0 0 0 0 0.8164375624010463 0 1:-0.546987 2:0.263046 3:-0.406847 4:-0.280148 5:0.0369494 6:-0.243382 7:0.0572127 8:0.393248 9:-0.0894037 10:-0.0978205 11:-0.210702 12:-0.389106 13:0.188053 14:-0.144703 15:0.137057 16:-0.0100827 17:0.536429 18:0.385991 
0 0 0 0 0 0.7594972705664718 0 1:-0.331389 2:0.0300587 3:-0.153765 4:0.342846 5:0.191342 6:-0.669419 7:0.153643 8:-0.0548985 9:0.0061238 10:0.0153667 11:-0.00654741 12:-0.314317 13:0.621788 14:-0.295596 15:0.165303 16:0.0176603 17:0.433574 18:0.541799 
0 0 0 0 0 0.2566301684369869 0 1:-0.36632 2:0.0442811 3:-0.0995859 4:0.426108 5:-0.226915 6:-0.592324 7:0.0478103 8:-0.0227745 9:0.0344741 10:0.0660251 11:-0.25807 12:-0.290472 13:0.25684 14:-0.111639 15:0.104385 16:-0.0939185 17:0.408741 18:0.520281 
0 6.562719923352344 0 0 0 5.317383855778607 0 1:-0.534856 2:0.467652 3:-0.24741 4:0.202692 5:0.120652 6:-0.351534 7:-0.343869 8:0.0664639 9:-0.010404 10:0.00976714 11:-0.5391 12:-0.335401 13:0.261374 14:-0.246413 15:0.0828392 16:-0.153563 17:0.507895 18:0.410653 
0 0 0 0 0 14.54256869195488 0 1:-0.545603 2:0.259172 3:-0.324166 4:0.173282 5:0.0795032 6:-0.390824 7:-0.180761 8:-0.0859132 9:0.180675 10:0.0666863 11:-0.196401 12:-0.188946 13:0.0933134 14:-0.277384 15:0.00977231 16:-0.0847527 17:0.472529 18:0.477085 
2.076543351406197 0 0 0 0 11.41719800040322 0 1:-0.559269 2:0.297383 3:-0.262763 4:0.234524 5:0.0245866 6:-0.373525 7:-0.178851 8:-0.105442 9:0.226117 10:0.140586 11:-0.240024 12:-0.213405 13:0.13703 14:-0.0516258 15:-0.0270352 16:-0.142571 17:0.493901 18:0.511733 
15.65288192379941 1.630319486282918 0 0 0 0 0 1:-0.729976 2:0.228986 3:-0.159373 4:0.0543456 5:0.107435 6:-0.200026 7:-0.198509 8:0.014746 9:0.115634 10:0.033602 11:0.101789 12:-0.176528 13:0.130884 14:0.0351412 15:0.0983931 16:0.0983872 17:0.388893 18:0.431186 
0.7558039693372871 1.30000798469705 0 0 0 1.362336763097371 0 1:-0.762017 2:0.359519 3:-0.174364 4:-0.119981 5:0.0640872 6:-0.121273 7:0.0254508 8:-0.0990966 9:0.0489153 10:-0.0117626 11:0.0252324 12:-0.339732 13:-0.166812 14:-0.15664 15:0.428162 16:0.0791147 17:0.472928 18:0.476116 
2.255238240094611 0 0 0 0 2.261521251607884 0 1:-0.75606 2:0.288639 3:-0.115429 4:-0.0674453 5:0.0934646 6:-0.144505 7:-0.00622417 8:-0.0810933 9:0.128579 10:0.0927103 11:-0.0232396 12:-0.234503 13:0.398197 14:0.0706945 15:0.296717 16:0.101397 17:0.498604 18:0.530404 
0 0 0 0 0 4.045863778128129 0 1:-0.713728 2:0.249105 3:-0.210753 4:-0.0361189 5:0.109057 6:-0.119255 7:-0.0696517 8:-0.204603 9:0.214939 10:0.0791344 11:0.268383 12:-0.28726 13:0.14896 14:-0.0696671 15:0.174717 16:0.0404071 17:0.373887 18:0.435135 
0 0.1294823597577913 0 0 0 3.792625803026262 0 1:-0.768911 2:0.405431 3:-0.243003 4:0.0769156 5:-0.171946 6:0.0851821 7:-0.286166 8:-0.253335 9:-0.14241 10:0.131587 11:0.3654 12:-0.0504459 13:0.514676 14:-0.294109 15:0.167125 16:0.209997 17:0.429497 18:0.343208 
0 0 0 0 0 32 0 1:-0.555621 2:0.278916 3:-0.347266 4:0.290095 5:0.0408003 6:-0.426953 7:-0.367189 8:-0.170296 9:-0.108303 10:0.0878424 11:-0.014465 12:-0.208682 13:0.107788 14:-0.245309 15:-0.00447979 16:0.082348 17:0.488771 18:0.417593 
0 0 0 0 0 0 30.06548843433625 1:-0.548087 2:0.248975 3:-0.320282 4:0.293888 5:0.0256267 6:-0.422403 7:-0.426999 8:-0.118622 9:-0.135584 10:0.138869 11:-0.0834772 12:-0.181558 13:0.173307 14:-0.228237 15:-0.0482832 16:0.0922517 17:0.550499 18:0.489429 
11.30509766513829 0 0 0 0 0 0 1:-0.570142 2:0.355323 3:-0.31756 4:0.31271 5:0.00458961 6:-0.409368 7:-0.312404 8:-0.0855574 9:-0.114543 10:0.0778788 11:-0.0653419 12:-0.195417 13:0.191412 14:-0.102604 15:0.0103388 16:0.0700103 17:0.546165 18:0.47832 
0 0 0 0 0 32 14.51587321170097 1:-0.510316 2:0.461604 3:-0.349235 4:0.286109 5:-0.0113413 6:-0.413307 7:-0.213192 8:-0.117457 9:-0.0913857 10:0.139267 11:-0.0856998 12:-0.319354 13:0.0965793 14:-0.253075 15:-6.68387e-05 16:0.100977 17:0.551348 18:0.466454 
0 17.03430346132786 0 0 0 32 32 1:-0.530514 2:0.428693 3:-0.334906 4:0.330761 5:0.0676608 6:-0.437554 7:-0.252164 8:-0.0689359 9:-0.127125 10:0.118909 11:-0.0844566 12:-0.259034 13:0.113635 14:-0.230778 15:-0.0166739 16:0.11533 17:0.548839 18:0.502547 
0 0 0 0 0 2.509530858411119 0 1:-0.532111 2:-0.190257 3:0.0617963 4:0.485631 5:-0.127841 6:-0.46689 7:-0.370448 8:0.0455543 9:0.105481 10:0.169484 11:0.423423 12:-0.241826 13:0.209046 14:-0.344821 15:0.1006 16:0.0309153 17:0.335847 18:0.47781 
1.902352736569429 0 0 0 0 7.922780673083746 0 1:-0.542441 2:-0.219353 3:0.0699568 4:0.469245 5:0.154309 6:-0.602817 7:-0.381635 8:0.116254 9:0.174708 10:0.222145 11:0.325483 12:-0.232473 13:0.165364 14:-0.254806 15:0.0975287 16:-0.00643318 17:0.370543 18:0.47401 
0 0 0.2207067244619899 0.04486744774759197 0 0.04645738934793529 0 1:-0.105584 2:0.815107 3:-0.426862 4:0.541661 5:-0.154119 6:0.101701 7:-0.35561 8:-0.370483 9:-0.0256275 10:0.308512 11:0.425494 12:-0.931106 13:-0.105251 14:-0.152242 15:-0.0247091 16:0.544848 17:0.479858 18:0.440918 
0 0 0.2707398559293583 0 0.001679092978157988 0.07665247446937967 0 1:0.220994 2:0.764883 3:-0.0123793 4:1 5:-0.608758 6:0.461568 7:-0.189035 8:-0.219521 9:0.0582994 10:0.612221 11:0.444651 12:-0.52182 13:-0.115369 14:-0.0521517 15:-0.32581 16:-0.176739 17:0.602803 18:0.488347 
0 0.2960551432664728 0 0 0 0 0.9984861528818425 1:-0.46732 2:-0.346144 3:0.144386 4:0.420403 5:0.214448 6:-0.446575 7:-0.389999 8:0.0433607 9:0.23799 10:0.24491 11:0.377735 12:-0.0861233 13:0.330395 14:-0.145535 15:-0.0125273 16:-0.0808795 17:0.314008 18:0.511786 
