svm_type c_svc
kernel_type rbf
gamma 2
nr_class 8
total_sv 3017
rho -0.0372425 -0.199816 -0.698697 -0.921797 -0.628143 -0.250874 -0.554577 -0.184898 -0.813855 -0.999464 -0.686875 -0.387254 -0.344387 -0.725668 -0.670569 -0.295488 -0.0653657 -0.0849272 -0.212262 0.215876 0.314839 0.332338 0.539539 0.44863 0.785608 -0.165412 0.124582 -0.110604
label 1 8 3 5 2 4 7 6
probA -4.3225 -2.81478 -3.55917 -3.27564 -3.3778 -5.12007 -3.40785 -4.92188 -4.50013 -2.45028 -3.53963 -5.05448 -2.84281 -3.50519 -4.45975 -3.33901 -5.41139 -3.05154 -4.5335 -4.7107 -5.29715 -4.36627 -3.30402 -4.97865 -2.41144 -2.82167 -2.41934 -5.15336
probB -0.624028 -0.0710419 0.0775768 0.0724719 0.13713 -0.0969222 -0.0127892 0.859069 0.931503 -1.28133 0.304695 0.902705 -0.151483 -0.119393 0.491646 0.00477067 -0.151016 0.0224435 0.58295 -0.0606024 -0.169688 -0.135003 -0.0954742 -0.670607 0.409408 0.186932 -0.0136566 0.289055
nr_sv 321 1249 326 228 36 285 277 295
SV
0 0 0 0 0.52534859616907 0.3559676886344363 0 1:-0.366163 2:-0.0107409 3:-0.221746 4:0.00315643 5:0.303069 6:-0.40497 7:-0.338377 8:-0.0932467 9:-0.0712391 10:-0.0757248 11:0.148703 12:0.402733 13:0.169485 14:0.180873 15:0.587901 16:-0.432284 17:0.135844 18:-0.544013 
28.67863654354945 22.69673904337089 6.235752101064763 0 0 0 0 1:-0.432521 2:0.195017 3:-0.103371 4:-0.141815 5:-0.0570393 6:-0.110581 7:0.0555012 8:-0.300991 9:-0.20023 10:-0.265545 11:0.46754 12:0.350157 13:-0.0790143 14:0.384598 15:0.557642 16:-0.263399 17:0.230867 18:-0.460614 
0.8291546515575717 0.3528593987714192 0.1265051296493918 0 0 0 0 1:-0.168615 2:0.121022 3:0.00118907 4:-0.411221 5:-0.0141458 6:-0.542526 7:0.837632 8:0.203952 9:-0.0373229 10:-0.309676 11:-0.140837 12:0.367614 13:0.246921 14:0.558482 15:0.456475 16:-0.410265 17:0.407257 18:-0.562181 
0.5779153921942506 1.172060526414486 1.128749237474257 0 0 0 0 1:-0.0375075 2:-0.33212 3:0.0198627 4:-0.226043 5:-0.0212567 6:-0.329587 7:0.288512 8:-0.416553 9:0.0170986 10:-0.400277 11:-0.0933698 12:0.531732 13:0.0247674 14:0.347826 15:0.579015 16:-0.341799 17:0.50761 18:-0.530121 
0 3.519736687185315 0 0 0 0 0 1:-0.699148 2:0.287591 3:-0.140092 4:0.185506 5:-0.105864 6:-0.477852 7:0.267129 8:-0.251772 9:-0.443437 10:-0.0400804 11:0.494578 12:0.383341 13:0.145462 14:0.181835 15:0.578106 16:-0.412793 17:0.148349 18:-0.485613 
13.5578467749378 0.1024186515196988 0 0 4.755163070158659 0 0 1:-0.417063 2:0.0942237 3:-0.344113 4:0.0310235 5:0.161914 6:-0.338305 7:-0.332588 8:-0.376728 9:-0.242218 10:-0.046673 11:0.468737 12:0.485925 13:0.00440975 14:0.253168 15:0.520689 16:-0.437717 17:0.338161 18:-0.48226 
1.8286010641667 0 0 1.502675485253545 1.318577848128404 0.8687902405329331 3.715057456504633 1:-0.220648 2:-0.263391 3:-0.090193 4:-0.328302 5:0.483661 6:-0.490129 7:-0.239639 8:-0.397458 9:0.0333587 10:0.112025 11:0.471886 12:0.461737 13:-0.0997844 14:0.361257 15:0.511961 16:-0.430801 17:0.515928 18:-0.483956 
0 0 0 0.04584955238184266 0 0 0.604205455460891 1:-0.0727609 2:-0.329048 3:0.245184 4:-0.463446 5:0.318065 6:-0.434962 7:-0.231985 8:-0.175135 9:0.135425 10:0.0508521 11:0.620901 12:0.320984 13:0.340256 14:0.12485 15:0.540503 16:-0.494925 17:0.227076 18:-0.55221 
9.32688927121505 1.689022054255798 0 0 0.3810279810701498 0 3.460080003689875 1:-0.243393 2:0.111297 3:-0.00185674 4:-0.413659 5:-0.224898 6:-0.509635 7:-0.307808 8:-0.371123 9:-0.198064 10:-0.165939 11:0.293833 12:0.416747 13:0.150411 14:0.231058 15:0.424718 16:-0.359811 17:0.330231 18:-0.60931 
0 0 3.873590758794974 0 4.384652361284691 0 0 1:-0.388353 2:0.35619 3:0.0496182 4:0.123939 5:0.278202 6:-0.390388 7:0.010105 8:-0.489456 9:-0.12089 10:-0.259062 11:0.44307 12:0.200059 13:0.0741242 14:0.466952 15:0.50583 16:-0.250124 17:0.206003 18:-0.497658 
0 2.196773729306766 0 0 0 0 0 1:-0.4789 2:-0.0574737 3:-0.327685 4:0.328939 5:-0.129307 6:-0.139254 7:0.362125 8:-0.336046 9:-0.563219 10:0.00358575 11:0.501432 12:0.239791 13:0.2539 14:0.248353 15:0.56235 16:-0.241177 17:0.207397 18:-0.443353 
0.5751731417573637 9.145602987266578 0 0 0 0 0 1:-0.602923 2:0.171252 3:-0.191396 4:-0.13974 5:0.177967 6:-0.41435 7:0.0438676 8:-0.268758 9:-0.112052 10:-0.229272 11:0.228515 12:0.324223 13:0.349456 14:0.156106 15:0.582884 16:-0.534868 17:0.0747962 18:-0.307758 
0 0.1367129662982311 0 0.06000498561889093 0 0 0 1:-0.300107 2:-0.474618 3:0.227912 4:-0.378322 5:0.126694 6:-0.429745 7:-0.349073 8:-0.462004 9:0.194225 10:0.169158 11:0.343746 12:0.452725 13:0.235249 14:-0.116764 15:0.516343 16:-0.642838 17:0.178493 18:-0.515785 
5.382237935303919 2.763267160563019 0.6768502905215558 1.17422097197183 2.877700502290797 1.029198231675688 2.489083659203122 1:0.0918023 2:-0.208771 3:0.224157 4:-0.240597 5:-0.202399 6:-0.551627 7:-0.0736701 8:-0.159176 9:-0.142956 10:-0.119513 11:0.468506 12:0.227937 13:0.0843996 14:0.389761 15:0.551712 16:-0.344004 17:0.321162 18:-0.463047 
0 1.258085080803992 0 0 0 0 0 1:-0.381839 2:0.081986 3:0.124368 4:-0.322333 5:0.0691782 6:-0.867291 7:0.272391 8:-0.283183 9:0.073215 10:0.00122614 11:0.140651 12:0.3055 13:0.0984151 14:0.249287 15:0.531633 16:-0.433028 17:0.346412 18:-0.590647 
0.001883686294317927 0 0 0 0.0372072550727638 0.08726412027275347 0.2960705138088637 1:-0.100972 2:0.0791713 3:-0.0386842 4:-0.490642 5:0.0377163 6:-0.492678 7:0.747367 8:0.199945 9:-0.0557961 10:-0.369812 11:-0.174808 12:0.284369 13:0.0628137 14:0.35776 15:0.420443 16:-0.405224 17:0.414815 18:-0.605496 
1.464081592164731 1.145309451383332 0 0 0.282631440479643 1.761136366418905 0 1:-0.258112 2:0.323455 3:0.150724 4:-0.195093 5:0.352168 6:-0.789072 7:-0.0573337 8:-0.34571 9:-0.452159 10:-0.110752 11:0.113784 12:0.607743 13:0.526255 14:0.371048 15:0.436876 16:-0.431007 17:0.0641563 18:-0.667224 
8.890088313473081 0 0 0 0 0 0 1:-0.473572 2:0.176937 3:-0.297372 4:-0.169104 5:0.121214 6:-0.376347 7:0.077103 8:-0.312375 9:-0.395575 10:-0.246801 11:0.376067 12:0.281199 13:0.0117884 14:0.364703 15:0.500879 16:-0.363838 17:0.282344 18:-0.497261 
3.67492173943153 3.081934261126372 0.6067678523555428 0.8213454269762028 0 0.3008414540421834 0 1:-0.780982 2:0.658883 3:-0.0835265 4:-0.178095 5:0.045477 6:-0.486933 7:0.235568 8:-0.206595 9:0.0846259 10:-0.138277 11:0.0227866 12:0.567153 13:-0.178783 14:0.314544 15:0.559588 16:-0.363029 17:0.252203 18:-0.301946 
1.192309563697965 6.757853107652632 3.672253874911475 0 0 0 0 1:-0.35201 2:0.52668 3:-0.0682654 4:-0.0576136 5:0.320554 6:-0.370835 7:-0.193264 8:-0.548229 9:-0.042782 10:-0.252928 11:0.421797 12:0.194708 13:-0.052751 14:0.120189 15:0.610201 16:-0.380054 17:0.320261 18:-0.585226 
0 0 0 0 0 0 0.0009845007558889464 1:-0.417631 2:0.0146463 3:-0.137732 4:0.16213 5:0.212522 6:-0.424038 7:-0.0550055 8:0.378731 9:0.119606 10:-0.0454354 11:0.142686 12:0.393259 13:0.440889 14:-0.12364 15:0.691959 16:-0.404926 17:0.562304 18:-0.537085 
1.404929645882054 0 0.482229016474319 1.12178703160158 0 0 1.098346031039486 1:-0.260275 2:-0.252985 3:0.255951 4:-0.143405 5:-0.142717 6:-0.515206 7:-0.190756 8:-0.0366614 9:-0.0270548 10:-0.118761 11:0.229937 12:0.474193 13:-0.0899898 14:0.0919253 15:0.549895 16:-0.431128 17:0.2384 18:-0.695442 
1.833538486727917 0 0.05447134419742219 0 0.9445618687046234 1.00829868501127 0.344543773674296 1:-0.0484483 2:-0.148174 3:-0.0342886 4:-0.00868179 5:0.127127 6:-0.2671 7:0.248919 8:-0.728421 9:0.243655 10:-0.25335 11:0.231269 12:0.330649 13:-0.314073 14:0.192529 15:0.498206 16:-0.286046 17:0.468894 18:-0.530708 
5.245215694747085 1.798329148322501 0.1822732251946505 0 1.866338925396227 0.5320169063653042 1.570745697586586 1:-0.233159 2:-0.133286 3:0.0256113 4:0.0969813 5:0.0292608 6:-0.528045 7:0.419554 8:-0.450238 9:-0.153542 10:0.0562669 11:0.21916 12:0.512129 13:0.0875221 14:0.316744 15:0.622173 16:-0.189666 17:0.236681 18:-0.478683 
0 7.154956688781055 0.2267044547389908 0 2.513911610770464 0 0.6706159586427775 1:-0.661621 2:0.229181 3:-0.455049 4:-0.0702025 5:0.445537 6:-0.302908 7:0.157047 8:-0.444735 9:-0.285657 10:-0.0733639 11:0.625235 12:0.36133 13:0.093534 14:0.41938 15:0.563484 16:-0.346892 17:0.340563 18:-0.383705 
0.6665313030123975 1.341454647741871 0.3274541418620494 0 0.09601816582461888 0.1046922325976744 2.027297643222705 1:-0.414013 2:0.614516 3:-0.164035 4:0.53707 5:0.563411 6:-0.151339 7:0.10927 8:0.0127011 9:-0.0690157 10:-0.254144 11:-0.122565 12:0.462256 13:0.138757 14:0.392566 15:0.465622 16:-0.276441 17:0.225699 18:-0.610639 
1.838613804597675 0.1657026512031346 0 0.4085270106021736 0 0.2794589806730971 0 1:-0.0150185 2:-0.0709292 3:-0.0284244 4:-0.232921 5:-0.42006 6:-0.357931 7:0.502317 8:-0.625896 9:-0.327453 10:0.157228 11:0.0467809 12:0.312881 13:0.12267 14:0.441478 15:0.589063 16:-0.211855 17:0.571366 18:-0.457256 
5.167836303276204 0 0.1024278525830982 0 0 0.5689171467120813 1.913291893324784 1:-0.302102 2:-0.0592689 3:-0.0825086 4:-0.138611 5:-0.342651 6:-0.177723 7:-0.140874 8:-0.364166 9:-0.178521 10:-0.419999 11:0.120799 12:0.286639 13:0.081507 14:0.0741601 15:0.421912 16:-0.385411 17:0.370042 18:-0.634055 
0.03584526706467581 4.34890642184618 0 0 0 0 0 1:-0.32307 2:-0.144163 3:0.103816 4:-0.242493 5:0.244468 6:-0.704649 7:-0.316442 8:-0.479781 9:0.0975369 10:0.104355 11:0.222287 12:0.495508 13:-0.237679 14:0.267929 15:0.477027 16:-0.498862 17:0.34216 18:-0.546334 
0.5379180288788961 2.738919036429555 0 0 0 0.1824163891443295 0.7298967228019283 1:-0.589452 2:0.190001 3:-0.103068 4:-0.22132 5:0.0489749 6:-0.474645 7:-0.740361 8:-0.269344 9:-0.185809 10:-0.106702 11:0.230592 12:0.361735 13:0.138638 14:0.292898 15:0.585497 16:-0.412179 17:0.307184 18:-0.438952 
0 4.263087826582919 0.2751433756075894 0.1494960010796199 3.24163979252235 0 4.503205141540373 1:-0.402975 2:0.0715742 3:-0.209659 4:0.0564572 5:0.422078 6:-0.229592 7:-0.133138 8:-0.107683 9:-0.1896 10:0.0730857 11:0.395675 12:0.501229 13:0.313767 14:0.49357 15:0.493506 16:-0.236446 17:0.310015 18:-0.320257 
0.1959914400962027 2.141336650616063 0 0 3.231985249066185 0 0 1:-0.107911 2:0.321572 3:0.108004 4:-0.253678 5:0.167895 6:-0.744214 7:0.253225 8:-0.438726 9:-0.245934 10:-0.0608778 11:0.280204 12:0.294171 13:-0.102225 14:0.429603 15:0.46229 16:-0.371106 17:0.410814 18:-0.496953 
14.65147210745789 0.2148798523205578 0.4643428037692106 1.896998183116523 0 0.2721773195169171 4.157008131259897 1:-0.257721 2:-0.0277302 3:-0.294789 4:0.0575937 5:-0.0428888 6:-0.122173 7:0.145951 8:-0.322273 9:-0.168781 10:-0.00541956 11:0.490288 12:0.322345 13:0.110164 14:0.316929 15:0.469411 16:-0.5715 17:0.0644607 18:-0.461211 
0 0.9207954985576339 0 0 0 0 0 1:-0.293373 2:-0.100026 3:-0.00991585 4:-0.215272 5:0.130895 6:-0.607487 7:0.0734272 8:-0.338036 9:0.140342 10:-0.480058 11:0.245353 12:0.37569 13:0.11639 14:0.471954 15:0.545843 16:-0.0207555 17:0.427739 18:-0.444211 
0 0.6081529757420293 0 0 0 0 0 1:-0.389068 2:-0.0909153 3:-0.00731166 4:-0.335236 5:0.402659 6:-0.512992 7:0.588255 8:-0.0714091 9:-0.0915023 10:-0.0857411 11:0.291096 12:0.495781 13:-0.0525098 14:0.324013 15:0.552646 16:-0.375404 17:0.467641 18:-0.583381 
2.135602600998395 2.273830098584331 0 1.700832811608589 0.6644728191729493 1.397703365110287 1.87579458693642 1:-0.233697 2:-0.262172 3:0.130035 4:0.0936413 5:-0.03931 6:-0.616083 7:-0.0806986 8:-0.309959 9:0.017814 10:0.11351 11:0.433287 12:0.425035 13:0.112617 14:0.381155 15:0.556059 16:-0.353542 17:0.47939 18:-0.593333 
4.080558402976151 2.774461643919696 1.813347959849119 0.9924507918525315 0.6634697108611859 1.311570701142284 1.126248579339293 1:-0.0550619 2:-0.0375013 3:0.159651 4:-0.246161 5:-0.566598 6:-0.427235 7:0.0408638 8:-0.388201 9:-0.117706 10:-0.324768 11:0.295283 12:0.294154 13:0.478194 14:0.369849 15:0.528761 16:-0.411414 17:0.266273 18:-0.477701 
0 2.147626268905694 0.05998704753104321 0 0.15626148044319 0 0.1302696935107228 1:-0.741942 2:0.263814 3:-0.159694 4:-0.027263 5:0.468686 6:-0.348288 7:-0.267812 8:-0.152195 9:0.176697 10:-0.219041 11:0.55592 12:0.300292 13:0.165044 14:0.20429 15:0.578501 16:-0.42775 17:-0.0260998 18:-0.393801 
2.447602192117115 1.050377929444364 0.9610189063106919 0 3.012941696661001 0.4457241980889701 0.124324304159231 1:-0.122817 2:0.352175 3:0.00233645 4:0.191149 5:0.657263 6:0.00387129 7:-0.33712 8:-0.381928 9:-0.280354 10:-0.372558 11:0.245218 12:0.320485 13:0.187875 14:0.0859967 15:0.606467 16:-0.508178 17:0.462606 18:-0.442926 
0 0.2348359641568971 0 0.09957395185078181 0 0 0.8881126035893829 1:-0.345321 2:-0.426771 3:0.15095 4:-0.509042 5:0.572319 6:-0.28505 7:0.163666 8:0.00330226 9:-0.0797762 10:0.230023 11:0.356782 12:0.620694 13:0.038053 14:0.193251 15:0.488528 16:-0.580837 17:0.261988 18:-0.393071 
0 0 0 0 2.282328413861165 0 0 1:-0.283471 2:0.0141418 3:-0.281774 4:0.217182 5:-0.0663569 6:-0.148405 7:-0.0279459 8:0.0363379 9:-0.157708 10:-0.182225 11:0.269772 12:0.369772 13:0.140216 14:0.083909 15:0.544414 16:-0.534929 17:0.295161 18:-0.376167 
0 4.016275444959569 1.278669435688119 0 0 0 4.247788295321605 1:-0.734354 2:0.639382 3:-0.128845 4:-0.10788 5:0.103698 6:-0.503492 7:0.372256 8:-0.150726 9:-0.00311266 10:-0.264636 11:0.265414 12:0.586869 13:-0.0452165 14:0.271701 15:0.536449 16:-0.310087 17:0.213569 18:-0.335974 
4.060225577527905 0 0.1948935450582384 0.2204967200558891 0 0.7254304652391697 3.106751816870692 1:-0.233507 2:-0.135604 3:-0.0206438 4:-0.19679 5:0.0737941 6:-0.62931 7:0.0206449 8:-0.362598 9:-0.170592 10:-0.343688 11:0.534068 12:0.235235 13:-0.199005 14:0.242608 15:0.430364 16:-0.393436 17:0.0386047 18:-0.626892 
0 1.683823157593477 0 0 0 0 0.9892876567684753 1:-0.587042 2:0.552438 3:-0.266466 4:-0.0523777 5:0.548176 6:-0.533227 7:-0.0579213 8:-0.0510398 9:-0.363495 10:-0.180481 11:0.270323 12:0.49957 13:0.198657 14:0.208016 15:0.580019 16:-0.392214 17:0.360407 18:-0.466275 
0 0.4140958224882518 0.2561686770376099 0 0.1053248457778504 0 0 1:-0.601122 2:0.1126 3:-0.0845984 4:-0.128555 5:0.0414079 6:-0.513206 7:-0.690722 8:-0.201963 9:-0.207461 10:-0.0953092 11:-0.0444826 12:0.453149 13:0.0410266 14:0.207612 15:0.616415 16:-0.4257 17:0.537918 18:-0.567893 
16.54467518293604 4.031757503283966 2.874145853006515 0 0 0 1.417439876854837 1:-0.441377 2:0.0932285 3:-0.206333 4:-0.23126 5:0.0787389 6:-0.240245 7:-0.0956592 8:-0.579945 9:-0.0226919 10:-0.123769 11:0.494847 12:0.494801 13:0.180636 14:0.0376407 15:0.53271 16:-0.340358 17:0.232941 18:-0.449543 
10.49530902357752 0 0 0 5.989726087262746 1.768303561591575 5.593429417689956 1:-0.343739 2:-0.0555993 3:-0.323528 4:0.0836117 5:0.410805 6:-0.387143 7:-0.0691151 8:-0.416702 9:-0.276371 10:-0.0897165 11:0.765804 12:0.331884 13:0.111021 14:0.194677 15:0.525268 16:-0.39005 17:0.24897 18:-0.61284 
1.85267900706272 0 0 0 0.01590274212854413 0 0 1:-0.674203 2:0.30716 3:-0.176279 4:-0.0353033 5:0.029056 6:-0.692117 7:-0.0457719 8:-0.636206 9:-0.0135448 10:0.181205 11:0.406059 12:0.364461 13:0.0252623 14:0.288264 15:0.432678 16:-0.359572 17:0.252061 18:-0.560303 
11.7089502836979 1.412454941866632 2.90594615617671 4.397407831833931 0 0.3038020192843919 0.2947764242505239 1:-0.124919 2:0.40617 3:-0.283224 4:-0.348396 5:-0.126792 6:-0.425016 7:0.079055 8:-0.173386 9:-0.239412 10:-0.182696 11:0.321488 12:0.27478 13:0.0386542 14:0.375287 15:0.516432 16:-0.408333 17:0.178119 18:-0.375858 
3.569238332975056 0 0 0 0 0 6.900752904454956 1:-0.214367 2:0.126153 3:-0.124067 4:-0.285941 5:0.0931887 6:-0.557534 7:0.241027 8:-0.148287 9:-0.286317 10:-0.149261 11:0.138064 12:0.601555 13:0.29247 14:0.323889 15:0.482408 16:-0.453435 17:0.404876 18:-0.455904 
15.53309360705685 2.30500811444431 0 0.6578184086930378 0 0.1268236431883678 2.187220960838916 1:-0.108342 2:0.266417 3:-0.177946 4:-0.20493 5:-0.245141 6:-0.294292 7:0.108004 8:-0.378538 9:0.0232109 10:-0.558125 11:0.315766 12:0.355931 13:0.045125 14:0.290939 15:0.555522 16:-0.291297 17:0.399705 18:-0.511292 
1.1980069217279 2.90459933239279 0 0 0 0 0 1:-0.621452 2:0.161779 3:-0.111539 4:0.0915832 5:0.172463 6:-0.445604 7:-0.175611 8:-0.559515 9:-0.47508 10:-0.169068 11:0.374832 12:0.386098 13:0.19363 14:0.00510131 15:0.62795 16:-0.463645 17:0.151811 18:-0.589973 
0.9635409682513174 0.8008030078970526 0.301557746393612 0.07771527427037192 0.3723636318825672 0.7490028579197431 0.4449590345089426 1:0.459978 2:-0.245477 3:0.155669 4:0.352499 5:0.324898 6:0.666431 7:-0.0305627 8:0.704813 9:0.909238 10:-0.0131941 11:-0.299725 12:0.054506 13:0.721558 14:0.266157 15:0.698423 16:0.196865 17:0.211901 18:0.230392 
0.8912212279827348 2.126398853339636 0.3212446152062237 0 0.6640863871306117 0.7416669934266829 0 1:-0.249471 2:-0.0868377 3:-0.0906115 4:-0.360907 5:0.427884 6:-0.506389 7:0.131344 8:-0.532311 9:0.11678 10:0.113718 11:0.142381 12:0.446641 13:-0.112143 14:0.0915371 15:0.62145 16:-0.351122 17:0.200027 18:-0.535865 
1.53408881730059 0 0 0.4552063580328043 0.5275792967200232 0.7532413104274848 0.2995214443151094 1:-0.0712732 2:0.316 3:0.0376804 4:-0.238973 5:0.151656 6:-0.692436 7:0.132037 8:-0.474557 9:-0.0757094 10:-0.0733127 11:0.18767 12:0.25316 13:-0.0724348 14:0.609895 15:0.478775 16:-0.303001 17:0.425748 18:-0.47237 
0 0.0254197375720984 0.8820876207365542 0 0.8432511150528935 0 0 1:-0.220277 2:-0.228636 3:0.247379 4:-0.134251 5:0.239556 6:-0.492228 7:0.391254 8:-0.277922 9:-0.146972 10:0.0429422 11:0.48983 12:0.524859 13:0.135027 14:0.262166 15:0.43977 16:-0.505736 17:0.394924 18:-0.537618 
2.513415386138535 1.993671506124138 0.01783906704966829 0 1.103743573153437 0.4714132836947216 0.1293696907425945 1:0.0244827 2:-0.305702 3:0.0525221 4:-0.800271 5:0.132766 6:-0.423398 7:0.155231 8:-0.442231 9:-0.312949 10:-0.348246 11:0.180648 12:0.392228 13:-0.140134 14:0.185936 15:0.522536 16:-0.479081 17:0.291541 18:-0.620229 
0.6582463125535283 1.049277829188483 0.4935144911955258 0.03364733376985414 0.1360736296770059 0.2030960240733793 0.4244273979782845 1:-0.0419275 2:-0.143126 3:0.301391 4:-0.451922 5:-0.143373 6:-0.44947 7:-0.0601813 8:-0.150903 9:0.113943 10:-0.174202 11:0.100712 12:0.73561 13:0.379904 14:0.0594516 15:0.471917 16:-0.440693 17:0.23658 18:-0.631152 
1.2568775792505 2.185040614828287 0 0 0.05372441458145447 0 0.5408797010750626 1:-0.0451471 2:-0.0841799 3:0.212831 4:-0.479681 5:0.314839 6:-0.455748 7:0.0888604 8:0.0869908 9:-0.0865316 10:-0.184305 11:0.620836 12:0.428542 13:0.137346 14:0.0432477 15:0.609432 16:-0.366212 17:0.42136 18:-0.462425 
15.8776902838688 2.936864261245534 0 0 0 0 0 1:-0.744989 2:0.189546 3:-0.199729 4:0.0807873 5:-0.123642 6:-0.320173 7:2.68402e-05 8:-0.538075 9:-0.460118 10:-0.225211 11:0.285796 12:0.452754 13:0.145393 14:0.120163 15:0.588884 16:-0.252878 17:0.234339 18:-0.55573 
9.764894682880634 11.49240201300027 1.454159297080063 0.473682267573336 7.034317596097019 0 5.748278978629806 1:-0.375485 2:0.28677 3:-0.226736 4:0.0908748 5:0.151607 6:-0.455107 7:-0.0383007 8:-0.5796 9:0.0909699 10:0.0587785 11:0.311044 12:0.32639 13:0.0893672 14:0.443666 15:0.532813 16:-0.345899 17:0.326394 18:-0.487043 
0 0 0.6067948753119041 0.1652391026548447 0 0.1421598578390802 0 1:-0.198988 2:-0.157433 3:0.216766 4:-0.28855 5:0.776107 6:-0.374166 7:0.177173 8:-0.047467 9:0.0872656 10:-0.397419 11:0.117803 12:0.224091 13:0.612861 14:0.450823 15:0.590418 16:-0.4022 17:0.183536 18:-0.472361 
0 0 0 0 0 0 1.425837554254161 1:-0.528331 2:0.074224 3:-0.259312 4:-0.0673988 5:0.193314 6:-0.307437 7:0.0878703 8:-0.317243 9:-0.0381739 10:-0.214442 11:0.149178 12:0.351963 13:0.440566 14:0.0654096 15:0.537079 16:-0.528598 17:0.079586 18:-0.36367 
0 0 0.1071836240470274 0 1.064116437307604 0.05019709316278785 0 1:-0.128912 2:-0.110796 3:0.00406123 4:-0.468209 5:0.396786 6:-0.57193 7:0.0581683 8:-0.262579 9:-0.042874 10:-0.131792 11:0.285999 12:0.481387 13:0.199208 14:0.367032 15:0.525216 16:-0.428851 17:0.341475 18:-0.524386 
0 0.6829321414778793 1.259199087043101 0 1.15708523963313 0 3.0988264973713 1:-0.705606 2:0.321186 3:-0.204811 4:-0.0495233 5:0.104426 6:-0.51247 7:0.120533 8:-0.585055 9:-0.017112 10:0.123009 11:0.419531 12:0.546313 13:0.214329 14:0.258811 15:0.458663 16:-0.385881 17:0.208077 18:-0.530232 
0 2.696612593591134 1.673340302269965 0 2.870157790095737 0 6.318428735207612 1:-0.360396 2:0.0660027 3:-0.0110045 4:0.0980906 5:0.121405 6:-0.316494 7:-0.188344 8:-0.115132 9:-0.107623 10:0.0983538 11:0.430658 12:0.403006 13:-0.0201065 14:0.0152626 15:0.528108 16:-0.48441 17:0.241097 18:-0.490993 
2.737438633294464 0.6139922678678801 0.7498452769940319 0.9444018544926109 0.208272994777656 0 1.995525411782286 1:-0.417931 2:0.239501 3:-0.188631 4:0.0354427 5:0.0234607 6:-0.543375 7:0.284444 8:-0.265784 9:0.16534 10:-0.205216 11:0.423621 12:0.194804 13:-0.303263 14:-0.0896414 15:0.570642 16:-0.562091 17:0.38131 18:-0.662122 
19.77570605909827 5.098037878734528 0.4592860805951489 0 2.506487333342453 0.5327803036184406 2.338054973909989 1:-0.0953067 2:0.421521 3:-0.37248 4:0.0940532 5:-0.17729 6:-0.423619 7:0.129655 8:-0.414537 9:-0.30953 10:-0.174198 11:0.432484 12:0.418724 13:0.249226 14:0.291611 15:0.512647 16:-0.484088 17:0.261863 18:-0.405194 
0 10.80191459847673 0 0 0 0 0.9734996653853744 1:-0.679652 2:0.45674 3:-0.0576542 4:0.027654 5:0.261162 6:-0.53947 7:0.00379323 8:-0.300519 9:-0.361094 10:0.0695173 11:0.389077 12:0.479144 13:0.219407 14:0.136606 15:0.570152 16:-0.474192 17:0.266966 18:-0.491806 
5.337268262037115 5.239923934709147 0 0 0 0.515997563945093 0 1:-0.750772 2:0.356638 3:-0.184185 4:-0.177805 5:0.155273 6:-0.611547 7:0.0293958 8:-0.703505 9:0.0980472 10:0.11302 11:0.361384 12:0.479904 13:0.112516 14:0.206083 15:0.422542 16:-0.455134 17:0.190881 18:-0.555 
16.68875922556752 0.8477819608023621 0.266172697550054 0 0.5342265474608119 0.7605398347373332 6.864836068180039 1:-0.0678707 2:0.106954 3:-0.294848 4:0.104386 5:-0.475598 6:-0.223046 7:0.405362 8:-0.258372 9:-0.653576 10:-0.105837 11:0.0284493 12:0.313619 13:0.27523 14:0.429885 15:0.490751 16:-0.37635 17:0.339906 18:-0.527443 
0 0 0 0 0.219175881411636 0.1511443260473695 0 1:-0.215319 2:0.205441 3:-0.513758 4:0.216644 5:0.403546 6:-0.354401 7:-0.33868 8:0.229559 9:0.0938976 10:-0.103733 11:0.58548 12:0.334246 13:0.0632474 14:0.322984 15:0.380943 16:-0.470922 17:-0.0368747 18:-0.469796 
30.32886905642391 0.3702229028177614 0 1.47922441013129 0 0 4.651570549103647 1:-0.472457 2:0.26878 3:-0.274773 4:-0.118298 5:-0.0458749 6:-0.372761 7:0.226346 8:-0.432342 9:-0.430051 10:-0.00857506 11:0.505002 12:0.292221 13:0.230566 14:0.236219 15:0.5114 16:-0.303992 17:0.3379 18:-0.560284 
3.870103009624015 5.651233044267489 0 0 3.004738057722434 0 0 1:-0.74783 2:0.0515725 3:-0.273081 4:0.13006 5:0.239352 6:-0.307009 7:0.00362003 8:-0.56833 9:-0.43173 10:-0.0776033 11:0.460085 12:0.343168 13:0.0314116 14:0.475109 15:0.592439 16:-0.432015 17:0.208937 18:-0.330323 
7.633095260005637 0.6688887796512476 1.118075118383583 0 0 0 0 1:-0.641915 2:0.0787324 3:-0.0661825 4:-0.00966271 5:-0.287019 6:-0.317322 7:-0.227303 8:-0.534006 9:-0.278328 10:-0.265947 11:0.332964 12:0.306145 13:0.0724189 14:0.42863 15:0.4936 16:-0.38737 17:0.297328 18:-0.661994 
0 2.245761993445568 0 0.6768657959676301 0 0 0 1:-0.623399 2:0.0231368 3:-0.278731 4:-0.399147 5:0.222999 6:-0.225557 7:-0.421675 8:-0.647235 9:-0.110734 10:-0.244599 11:0.175826 12:0.249849 13:-0.165052 14:0.257437 15:0.441353 16:-0.457669 17:0.324447 18:-0.628173 
21.2070593382302 0 11.4327157320175 2.324283811433618 5.579043158315708 0 11.62777679766086 1:-0.411402 2:0.204685 3:-0.141845 4:-0.260397 5:0.0857928 6:-0.091202 7:0.00357916 8:-0.300785 9:-0.159873 10:-0.22038 11:0.515544 12:0.367503 13:0.00435841 14:0.40652 15:0.507204 16:-0.238999 17:0.267298 18:-0.5067 
0 0 0.1680989368971038 0 0 0.6937682567185105 0 1:-0.272447 2:0.369696 3:-0.26271 4:0.486453 5:-0.00511584 6:-0.498138 7:-0.629067 8:0.00399349 9:-0.0775609 10:0.0747871 11:0.452927 12:0.188874 13:0.33265 14:-0.0492688 15:0.589575 16:-0.460957 17:0.346126 18:-0.631632 
0.3661766623579507 1.018739988843691 0.09277659330273266 0.3207583157542129 0.1978070535024962 0 1.279904783246213 1:-0.394467 2:0.12353 3:-0.113766 4:0.0906648 5:0.0909048 6:-0.659136 7:0.677936 8:-0.341548 9:0.130682 10:-0.193586 11:0.528428 12:0.243602 13:0.0173155 14:0.358388 15:0.599844 16:-0.351553 17:0.510125 18:-0.501983 
0 0 0 0.958956613621443 0 0.1216002023640074 2.205876456300376 1:-0.486707 2:0.105096 3:-0.0578254 4:-0.192376 5:-0.179874 6:-0.451586 7:-0.116332 8:-0.334461 9:-0.377479 10:0.0900495 11:0.084065 12:0.271957 13:0.0876697 14:0.173406 15:0.493039 16:-0.469045 17:0.321626 18:-0.513102 
0 0 0 0.1448820038876794 0 0 0 1:-0.400604 2:0.192703 3:-0.403189 4:-0.0653604 5:0.132939 6:-0.245448 7:-0.105527 8:-0.451569 9:-0.0795872 10:-0.714132 11:0.216569 12:0.462986 13:-0.186712 14:0.375453 15:0.557435 16:-0.194797 17:0.358433 18:-0.532766 
0 0.5865146506341832 0 0 0 0.05785089665453964 0.4598013716455385 1:-0.791117 2:0.383363 3:-0.147922 4:-0.040248 5:0.15303 6:-0.635982 7:0.0124355 8:0.0380585 9:-0.130812 10:0.106484 11:-0.11474 12:0.314467 13:0.542292 14:-0.0559989 15:0.654182 16:-0.372404 17:0.553407 18:-0.599294 
0 3.812326670965636 0 0 1.016420005642547 0 1.753219798543451 1:-0.557078 2:0.270339 3:0.092273 4:-0.107949 5:0.355054 6:-0.683247 7:0.268771 8:-0.317769 9:-0.345859 10:-0.0106206 11:0.345639 12:0.577949 13:0.0624009 14:0.369488 15:0.440701 16:-0.46082 17:0.126773 18:-0.494465 
4.097370686439929 5.452382459627247 0.8007665110560781 0 0 0 6.557727363536917 1:-0.49753 2:0.00540489 3:-0.446737 4:-0.090231 5:0.3227 6:-0.0724153 7:0.317147 8:-0.263867 9:-0.465432 10:0.0795515 11:0.327279 12:0.346931 13:0.164729 14:0.222789 15:0.57947 16:-0.316073 17:0.183857 18:-0.385156 
1.754398272556666 0.579426426704605 0 0.4169879373088267 0 0.1222673341323729 3.318082378136865 1:-0.337983 2:-0.0714673 3:-0.241947 4:0.303976 5:-0.245335 6:-0.131523 7:-0.160488 8:-0.401322 9:0.00703058 10:0.0574516 11:0.437588 12:0.295171 13:0.310725 14:0.0430269 15:0.515792 16:-0.426646 17:0.297414 18:-0.482352 
4.271883757008033 4.869941996377075 6.176768205299494 0.1902414459921246 11.52650462061794 1.477485862351178 0.722140186576029 1:-0.159281 2:0.259715 3:-0.222503 4:0.222194 5:0.268648 6:-0.29111 7:-0.00452233 8:-0.427091 9:0.0821806 10:-0.0277172 11:0.357699 12:0.260905 13:0.0462805 14:0.278893 15:0.564038 16:-0.398879 17:0.393011 18:-0.544453 
0.9625877648949903 0.8000178166694315 0.3015806433389279 0.0778604768136438 0.3716817374724429 0.7491272157151875 0.4450521676613027 1:0.949786 2:0.634478 3:-0.279239 4:-0.334148 5:0.392587 6:0.0357937 7:-0.172813 8:0.5039 9:0.597742 10:0.284231 11:0.104938 12:-1 13:0.52476 14:0.387638 15:0.996408 16:0.873871 17:-1 18:-0.550233 
4.327161050479241 1.256589471765614 0 0.3368798704371775 0.7242287888630913 1.768920385223709 1.390390292290498 1:0.0288294 2:-0.196292 3:-0.20143 4:-0.12579 5:-0.325726 6:-0.0803237 7:-0.283676 8:-0.48813 9:-0.573966 10:-0.0762268 11:0.592786 12:0.352963 13:0.397417 14:0.0335545 15:0.560356 16:-0.361899 17:0.154239 18:-0.511171 
0 0.4759944856189436 0.4779946952148279 0 0 0 0 1:-0.505482 2:0.371442 3:-0.382086 4:0.25238 5:0.393277 6:-0.270605 7:0.00120125 8:-0.0323432 9:0.0248822 10:-0.150182 11:0.0986862 12:0.417899 13:-0.217306 14:0.309958 15:0.444758 16:-0.485101 17:0.0709013 18:-0.578841 
7.122994789124629 1.480772203263807 0 0.1970401423582832 0 0 0 1:-0.417025 2:0.435761 3:-0.367827 4:-0.468589 5:0.0614866 6:-0.307403 7:-0.0101793 8:-0.215203 9:-0.28259 10:-0.487558 11:0.457918 12:0.222623 13:-0.0965439 14:0.240645 15:0.543864 16:-0.307104 17:0.313825 18:-0.606787 
0 0 0 0.4992741565721786 0 0 0.08812358200784894 1:-0.408958 2:-0.452927 3:0.133766 4:-0.272182 5:0.173661 6:-0.391615 7:-0.482917 8:-0.490707 9:0.0420618 10:0.233145 11:0.0308158 12:0.613958 13:0.0213239 14:0.141566 15:0.45233 16:-0.66342 17:0.283579 18:-0.537999 
22.02952683987865 4.839228538038957 0 1.567629123220465 4.813142163839136 1.314241030820203 3.85758491325699 1:-0.0487262 2:0.241051 3:-0.165694 4:-0.261165 5:-0.0430264 6:-0.291354 7:-0.270321 8:-0.166242 9:-0.0235408 10:-0.0866568 11:0.589682 12:0.413133 13:0.0812508 14:-0.0041243 15:0.58094 16:-0.243037 17:0.230887 18:-0.520166 
7.387094322679775 0.3297251555761118 0 0 0 0 0 1:-0.500224 2:0.0970669 3:-0.103699 4:-0.223796 5:-0.0565517 6:-0.512149 7:-0.173536 8:-0.465673 9:-0.277354 10:0.0655084 11:0.329641 12:0.236844 13:0.0940286 14:0.135198 15:0.487472 16:-0.41495 17:0.292904 18:-0.570318 
1.14280315015403 0 0 0.04675963745328517 0 0 0 1:-0.232547 2:-0.0235877 3:-0.0232165 4:-0.431758 5:0.259778 6:-0.698783 7:0.165531 8:-0.256138 9:0.123797 10:-0.0415067 11:0.14013 12:0.26652 13:0.412555 14:0.332546 15:0.555459 16:-0.353615 17:0.417711 18:-0.494513 
0 0.006341737421621867 0 0 0 0 0 1:-0.503278 2:0.131549 3:-0.314701 4:-0.273513 5:0.314168 6:-0.207544 7:-0.406942 8:-0.230231 9:-0.326552 10:-0.273166 11:0.283613 12:0.483069 13:0.1736 14:0.374631 15:0.548473 16:-0.471195 17:0.291716 18:-0.410509 
0 3.417618150620495 0 0 0 0 0 1:-0.591601 2:0.195828 3:-0.187119 4:0.0101666 5:0.10084 6:-0.39399 7:0.150191 8:-0.183392 9:-0.147667 10:-0.216928 11:0.242307 12:0.324648 13:0.173105 14:0.130723 15:0.58258 16:-0.505406 17:0.131611 18:-0.39996 
0.6379431274487228 0.7635968545157197 0.3058923839841831 0 0.6119036842871126 0.4328219477977693 0.003367047573768099 1:0.222964 2:-0.408036 3:0.370951 4:-0.483004 5:0.244548 6:-0.322943 7:-0.621381 8:-0.432447 9:0.174652 10:-0.221473 11:0.656507 12:0.275529 13:0.290524 14:0.132853 15:0.554484 16:-0.570797 17:0.424697 18:-0.484086 
3.109089983428154 3.103846178798563 1.191865410528711 0 0.2044566383277806 0.6589047913969152 0 1:-0.172893 2:0.33201 3:-0.121511 4:-0.411463 5:-0.422081 6:-0.296268 7:-0.386595 8:-0.497173 9:-0.030712 10:-0.251344 11:0.193997 12:0.237451 13:-0.000149648 14:0.336795 15:0.541418 16:-0.518581 17:0.330896 18:-0.563271 
0 1.326667175559871 0 0 0 0 0 1:-0.643651 2:-0.0176325 3:-0.239542 4:-0.335876 5:0.431309 6:-0.291253 7:-0.29189 8:-0.225522 9:-0.288527 10:-0.193744 11:0.150834 12:0.236031 13:0.0976175 14:0.372434 15:0.590689 16:-0.523805 17:0.112404 18:-0.339096 
0 0 0 0.7264897582593507 0 0 8.793999057983148 1:-0.613705 2:0.370285 3:-0.206199 4:0.0190741 5:-0.102934 6:-0.497822 7:0.21547 8:-0.322382 9:-0.358516 10:0.0241005 11:0.358096 12:0.403962 13:0.235534 14:0.310699 15:0.474746 16:-0.416149 17:0.156217 18:-0.482376 
2.927901174546492 0.04628410666777174 0.2683293117447764 0.5886437816899006 0 0.3751232938866809 0.7561167955352204 1:-0.158073 2:0.0312215 3:-0.231637 4:-0.635043 5:0.180106 6:-0.419452 7:-0.417817 8:-0.0492546 9:-0.104564 10:-0.0882354 11:0.267099 12:-0.196481 13:-0.0314974 14:0.295377 15:0.451459 16:-0.444546 17:0.143114 18:-0.50157 
5.780234720045395 0 0 0 1.486650001032419 0 3.684211147531361 1:-0.347472 2:0.0406415 3:-0.406078 4:0.0668969 5:0.0333489 6:-0.170001 7:0.0575209 8:-0.44226 9:-0.24025 10:-0.434667 11:0.455401 12:0.455117 13:0.0516998 14:0.219223 15:0.505156 16:-0.320859 17:0.528792 18:-0.53702 
2.713932339707899 0 0 0 0 0 0 1:-0.290193 2:0.198813 3:-0.426578 4:-0.0481401 5:0.0262936 6:-0.395433 7:0.0332771 8:-0.347897 9:-0.382996 10:-0.2256 11:0.286069 12:0.242307 13:0.00918423 14:0.327321 15:0.521207 16:-0.31947 17:0.346603 18:-0.545833 
0.01342383941968252 11.06446566612136 0 1.291200645655918 0 0 1.237616708390051 1:-0.329572 2:0.141281 3:-0.0375382 4:-0.343636 5:0.005785 6:-0.693437 7:0.223875 8:-0.52399 9:0.0367302 10:-0.130546 11:0.182997 12:0.354414 13:0.108375 14:0.462904 15:0.490446 16:-0.296742 17:0.320768 18:-0.489658 
0.6659523094219353 0 0 0 0 0.52274795448906 0 1:-0.533774 2:0.0284164 3:-0.251282 4:0.131505 5:-0.135366 6:-0.341926 7:-0.0377471 8:-0.628014 9:-0.0820242 10:0.0946915 11:0.0611875 12:0.190396 13:0.118154 14:0.029835 15:0.498885 16:-0.466214 17:0.223634 18:-0.628956 
1.520513391788428 0.3746687055431958 0 0 0 0 0 1:-0.00379859 2:-0.126673 3:-0.117021 4:-0.148448 5:0.0777399 6:-0.53808 7:0.247272 8:-0.348451 9:-0.00248229 10:0.0636188 11:-0.0625557 12:0.570859 13:0.000913578 14:0.44293 15:0.529058 16:-0.388398 17:0.403491 18:-0.531483 
0 0 0 0.3108611278476235 0 0.01579433988827908 0 1:-0.672325 2:-0.0349491 3:0.00456848 4:0.134831 5:-0.164574 6:-0.417061 7:-0.185862 8:-0.142347 9:-0.406455 10:-0.208931 11:0.115198 12:0.274703 13:-0.0996512 14:0.251481 15:0.536887 16:-0.626311 17:0.13898 18:-0.51159 
5.151479913635309 2.038284419903173 0.6934066592443565 2.197032302166631 0.2658643589757867 0 2.21323998545444 1:-0.471697 2:-0.0916117 3:-0.078594 4:-0.577889 5:0.191445 6:-0.21443 7:-0.425857 8:-0.431797 9:-0.394539 10:-0.0582758 11:0.236131 12:0.23717 13:-0.0506122 14:0.506907 15:0.612554 16:-0.236339 17:0.149273 18:-0.487044 
10.85315562414334 0 0 0 0 0 0 1:-0.579024 2:0.244345 3:-0.342907 4:-0.12529 5:0.107447 6:-0.280127 7:0.07403 8:-0.429558 9:-0.179504 10:-0.0687061 11:0.271143 12:0.328794 13:0.0994226 14:0.206687 15:0.423299 16:-0.301035 17:0.261557 18:-0.418983 
0 0.2596501007532389 0.1640140783919416 0 1.641802725807918 0 0 1:-0.216436 2:-0.232216 3:0.133093 4:-0.369243 5:0.45065 6:-0.435257 7:0.266816 8:-0.344591 9:-0.134369 10:0.0657926 11:0.5821 12:0.513645 13:0.0093998 14:0.208718 15:0.427486 16:-0.540562 17:0.397654 18:-0.543008 
0.3851985659805228 0 0.5747911713318087 0 0 1.070426999863591 0 1:-0.340162 2:0.372283 3:-0.221108 4:0.242777 5:0.448144 6:-0.0894439 7:-0.696206 8:0.194332 9:-0.341808 10:-0.127067 11:0.217894 12:0.280924 13:0.293635 14:0.527721 15:0.476993 16:-0.300806 17:0.0965606 18:-0.409473 
7.672372288581368 6.061414349605576 0 0.05666584421758514 0 0 0 1:-0.348644 2:0.0700122 3:-0.263218 4:0.11441 5:-0.26877 6:-0.300029 7:-0.0542079 8:-0.436096 9:-0.402999 10:-0.176918 11:0.215059 12:0.280779 13:-0.114193 14:0.300237 15:0.582807 16:-0.295448 17:0.290605 18:-0.590006 
1.48737893120539 0.9001298094442999 0 0 0 0.3248286347752028 0.02772844588502255 1:-0.681528 2:0.0616345 3:0.0335526 4:-0.315192 5:0.34986 6:-0.844992 7:0.826304 8:-0.197381 9:-0.360104 10:0.0493323 11:-0.204273 12:0.310514 13:0.375106 14:0.357113 15:0.587203 16:-0.259477 17:0.406407 18:-0.747175 
0.9887719719672583 0.6561058556250822 0.258444517655482 0.106552890126962 0.3304470557089429 0.6635010014369088 0.370013272651486 1:0.394394 2:-0.252919 3:0.0832011 4:-0.720681 5:-0.246453 6:-0.371987 7:-0.29008 8:0.0547893 9:0.356866 10:0.0801291 11:-0.348699 12:0.120716 13:0.815299 14:0.238059 15:0.54035 16:-0.261602 17:0.044662 18:-0.522455 
1.649538804289542 6.785808305888328 0 0 1.288362359921647 1.499979990869588 6.28915030988437 1:-0.204447 2:0.0773726 3:-0.303126 4:0.133543 5:0.0965862 6:-0.454229 7:-0.0109253 8:-0.127478 9:-0.449154 10:-0.205731 11:0.932474 12:0.337928 13:0.233491 14:0.253171 15:0.508614 16:-0.395631 17:0.16519 18:-0.485482 
0.3767343289664102 0 0 0 0 0 0 1:-0.660314 2:0.0791822 3:-0.203529 4:0.016811 5:0.0433515 6:-0.42596 7:-0.100316 8:-0.483779 9:-0.301388 10:-0.00986481 11:0.357179 12:0.253517 13:0.261746 14:0.20733 15:0.506477 16:-0.297389 17:0.195094 18:-0.454726 
6.166069756336405 0 0 0 0 0 1.377126281503005 1:-0.374399 2:0.0960643 3:-0.337257 4:-0.166355 5:-0.0141156 6:-0.216708 7:-0.439441 8:-0.507041 9:-0.357971 10:-0.0960499 11:0.409556 12:0.31649 13:-0.00980013 14:0.347743 15:0.456381 16:-0.179204 17:0.353242 18:-0.473154 
0 2.934834839151208 0 0 0 0 0 1:-0.651849 2:0.436583 3:-0.27016 4:-0.224362 5:0.147064 6:-0.441726 7:0.0554551 8:-0.408194 9:-0.452135 10:-0.152489 11:0.378174 12:0.392821 13:-0.0521721 14:0.347722 15:0.590731 16:-0.375941 17:0.313344 18:-0.454463 
0 0 0 0.1827402730771986 0 0 0 1:-0.339553 2:0.361126 3:-0.121988 4:-0.405279 5:-0.335069 6:-0.481424 7:-0.348238 8:-0.286379 9:-0.206789 10:-0.235737 11:0.0734602 12:0.101198 13:-0.0927414 14:0.207677 15:0.463892 16:-0.338254 17:0.243037 18:-0.513579 
0.7348686310723109 0 0.6099068657203534 0 0.6051527695419768 0 0 1:-0.597964 2:-0.125152 3:-0.218209 4:0.0416434 5:0.22531 6:-0.280374 7:-0.0351024 8:-0.452952 9:-0.172633 10:-0.0391273 11:0.7427 12:0.245129 13:0.2858 14:0.267148 15:0.467859 16:-0.355328 17:0.332757 18:-0.418112 
5.921411312100742 8.330100871684866 4.308746566225318 1.38935063934706 4.336440130658839 1.499186640084876 7.178305686895348 1:-0.396412 2:0.0873924 3:-0.0710268 4:-0.114098 5:-0.157284 6:-0.224181 7:-0.0571139 8:-0.540321 9:-0.0344437 10:-0.0416182 11:0.606342 12:0.559207 13:0.351519 14:0.0928721 15:0.549667 16:-0.276633 17:0.28189 18:-0.384977 
2.220661074840272 2.978400069029217 1.014083089844612 0 0.6046262024014883 0 0 1:-0.483384 2:0.259957 3:0.0674832 4:0.0166396 5:-0.0811751 6:-0.638407 7:-0.252447 8:-0.554168 9:0.147812 10:-0.160673 11:0.429265 12:0.26468 13:0.367531 14:0.263905 15:0.593621 16:-0.386428 17:0.327623 18:-0.65759 
0.5399856791718675 0 0 0.3587516087997797 0 0 0 1:-0.136483 2:-0.369491 3:-0.0486238 4:-0.29473 5:0.265043 6:-0.39747 7:0.331739 8:-0.113128 9:-0.0353972 10:-0.0172974 11:-0.238459 12:0.268879 13:0.0842905 14:0.213904 15:0.54073 16:-0.439937 17:0.584118 18:-0.713245 
0 0 0 0 0 0 1.636332061987585 1:-0.28121 2:0.129235 3:-0.394858 4:0.125079 5:-0.105805 6:-0.375022 7:0.0247357 8:-0.327148 9:-0.456369 10:-0.255827 11:0.248951 12:0.275644 13:-0.167847 14:0.368985 15:0.540911 16:-0.315729 17:0.405577 18:-0.508332 
0 0 0 0 0 0 2.275561777463984 1:-0.3501 2:-0.624792 3:0.110851 4:-0.118423 5:0.260047 6:-0.370892 7:0.0700505 8:-0.123871 9:-0.291766 10:0.12143 11:0.0687864 12:0.370119 13:-0.0218932 14:0.0666963 15:0.524759 16:-0.366227 17:0.322916 18:-0.562165 
1.520886449402596 0.4721086346399466 1.065073671545929 0 4.209835185759856 3.790601189928871 0 1:-0.164084 2:-0.201712 3:0.252242 4:-0.18335 5:0.206863 6:-0.518095 7:-0.171335 8:-0.335934 9:-0.105305 10:-0.280328 11:0.593293 12:0.367828 13:0.373251 14:0.351703 15:0.561152 16:-0.460237 17:0.389954 18:-0.499082 
0 0.1553871690017709 0 0 0.3297932590410538 0 0 1:-0.415425 2:0.296845 3:-0.404381 4:0.538083 5:0.258036 6:-0.241562 7:0.053592 8:-0.0566011 9:-0.0789566 10:-0.170511 11:-0.0344418 12:0.481689 13:-0.0329921 14:0.384529 15:0.438188 16:-0.426669 17:0.0228888 18:-0.560072 
7.946903526202044 0 0 0 0 0 0 1:-0.481407 2:0.0390196 3:-0.294919 4:0.0842537 5:0.204516 6:-0.384533 7:-0.189325 8:-0.323634 9:-0.11819 10:-0.0628015 11:0.373893 12:0.368083 13:0.0656567 14:0.206951 15:0.590518 16:-0.336059 17:0.178233 18:-0.494442 
0 1.363229412895778 0 0 0.02276990419002095 0.1420494176774253 0 1:-0.300491 2:0.0427052 3:-0.173119 4:-0.267208 5:0.0474369 6:-0.458694 7:0.895068 8:-0.352677 9:-0.655219 10:-0.186401 11:0.234096 12:0.500611 13:-0.0970318 14:0.604313 15:0.461203 16:-0.227721 17:0.487252 18:-0.60069 
2.150053935255104 2.247415234725361 0 0 0 0 3.237342354258233 1:-0.458035 2:-0.244934 3:-0.119219 4:-0.111137 5:0.414936 6:-0.577937 7:0.0376077 8:-0.443116 9:0.00185419 10:0.142555 11:0.389729 12:0.385995 13:-0.0452638 14:0.366134 15:0.45042 16:-0.374704 17:0.446848 18:-0.517026 
0 0.555296431270607 0 0 0 0 0.8007076109775052 1:-0.0152656 2:-0.0810377 3:0.178265 4:-0.545461 5:0.349188 6:-0.43072 7:0.0062992 8:0.137322 9:-0.0635338 10:-0.176817 11:0.517193 12:0.449032 13:0.143989 14:0.0766826 15:0.612293 16:-0.354052 17:0.388267 18:-0.457508 
17.87398338122347 0 0.6883762491685561 0 0.08784782660834844 0 0.4962945220894197 1:-0.484104 2:0.133313 3:-0.210069 4:0.115858 5:-0.0274386 6:-0.420291 7:-0.253197 8:-0.340529 9:-0.32622 10:-0.016011 11:0.31172 12:0.548826 13:0.0397878 14:0.290185 15:0.513615 16:-0.462493 17:0.308733 18:-0.493224 
1.797529517560399 0.8649088237460728 1.226887857615129 0 0.8733325364259005 0.6957901771279323 0.7258610814328509 1:-0.254567 2:-0.253975 3:0.482567 4:-0.0589407 5:0.469603 6:-0.231237 7:-0.248165 8:-0.425049 9:-0.145313 10:0.0544886 11:-0.0141521 12:0.453536 13:0.000596317 14:0.347592 15:0.482334 16:-0.491555 17:0.38633 18:-0.351538 
0.4816087569550854 1.699539270945673 0.8537055262917561 0 1.2093700723785 0.6234602464952248 0.6597036913450064 1:-0.178198 2:0.703754 3:0.101289 4:0.250443 5:0.790054 6:-0.0510374 7:0.0271544 8:-0.398982 9:-0.456813 10:-0.182867 11:0.696645 12:0.211276 13:0.183106 14:0.106644 15:0.476414 16:-0.308459 17:0.209321 18:-0.450587 
0 0 0 0 0 0 0.7320052633413676 1:-0.584822 2:-0.0512124 3:-0.251414 4:0.197648 5:0.274597 6:-0.331138 7:-0.0828593 8:-0.411399 9:-0.497924 10:0.111453 11:0.407842 12:0.274039 13:0.0151742 14:0.566359 15:0.526209 16:-0.362607 17:0.333196 18:-0.430162 
9.99381895751408 2.380506772200603 5.640936179926856 1.670712970481253 2.108974860237915 0 2.973155036010738 1:-0.304857 2:-0.0852728 3:0.0253125 4:-0.190037 5:-0.00587692 6:-0.408496 7:0.182771 8:-0.573717 9:-0.014714 10:-0.348602 11:0.524671 12:0.401518 13:0.0631366 14:0.446273 15:0.549098 16:-0.190646 17:0.380447 18:-0.476956 
0.8018684344625935 0 0.7234809330675895 0 1.739173017833401 0 4.25768345791905 1:-0.546578 2:-0.0457703 3:-0.2073 4:0.0145786 5:0.301851 6:-0.367175 7:-0.205435 8:-0.165059 9:-0.149014 10:-0.0672911 11:0.280129 12:0.450112 13:0.248553 14:0.486862 15:0.554421 16:-0.253264 17:0.143811 18:-0.3907 
0 1.287988656463877 0 0 0 0 0 1:-0.844661 2:-0.0356745 3:-0.194129 4:0.269598 5:0.0132088 6:-0.333482 7:-0.153669 8:-0.32615 9:-0.446333 10:-0.0839383 11:0.294457 12:0.161136 13:0.289829 14:0.0445123 15:0.599746 16:-0.397711 17:0.309538 18:-0.530012 
0 0.3769650762914403 0 0 0 0 0 1:-0.685996 2:0.18776 3:0.0527538 4:0.0428611 5:0.17417 6:-0.45155 7:-0.219526 8:-0.0959116 9:0.364837 10:-0.13951 11:0.32759 12:0.282851 13:0.482757 14:-0.142925 15:0.688002 16:-0.531554 17:0.0942643 18:-0.416906 
0 5.360476515471962 0 0 0 0 1.525504043278168 1:-0.460985 2:0.193104 3:-0.525204 4:-0.241907 5:0.232516 6:-0.0478602 7:0.114045 8:-0.442518 9:-0.214961 10:-0.399379 11:0.19453 12:0.427808 13:-0.0904812 14:0.207299 15:0.449501 16:-0.332364 17:0.375074 18:-0.399379 
0.1120502360595914 1.315251659784027 0.4381549003557862 0.01076660033816384 0.1611566565479249 0.1337129626788252 0.2207286855151364 1:-0.0435276 2:-0.0969415 3:0.216253 4:-0.674121 5:0.118417 6:-0.409012 7:-0.148648 8:-0.161397 9:0.228398 10:-0.164284 11:0.0463413 12:0.732859 13:0.398625 14:0.15341 15:0.443633 16:-0.412456 17:0.303193 18:-0.643556 
5.908339911025646 8.906384843387434 0 0 0 0 0 1:-0.705165 2:0.177476 3:-0.302105 4:-0.17976 5:0.137259 6:-0.255331 7:-0.127076 8:-0.55127 9:-0.466133 10:-0.293021 11:0.262267 12:0.430407 13:0.286214 14:0.266278 15:0.602167 16:-0.228094 17:0.203456 18:-0.546607 
0 0 0 0.6880441802616749 1.424927533698209 0 2.595685173128259 1:-0.149697 2:0.437476 3:-0.323319 4:0.0960266 5:-0.116781 6:-0.456021 7:0.114357 8:-0.385625 9:-0.405479 10:-0.148888 11:0.56246 12:0.480377 13:0.245282 14:0.341923 15:0.510508 16:-0.436182 17:0.254903 18:-0.40636 
0.8611300425452316 0.7793231737668025 0.4606710754007328 0.09499926681906749 0.9881888902460477 0.7380284818566857 4.465005254964542 1:-0.0392691 2:0.141802 3:-0.564047 4:-0.270009 5:0.0835192 6:-0.104096 7:0.406466 8:-0.271693 9:-0.457967 10:-0.0686086 11:-0.0683207 12:0.284665 13:-0.164767 14:0.275732 15:0.540432 16:-0.456741 17:0.30748 18:-0.587225 
1.87172481119221 2.112343110917331 0 0.2436983374961072 0 0 2.001770354495454 1:-0.842951 2:0.046979 3:-0.125722 4:-0.0969627 5:0.285382 6:-0.316414 7:-0.0726715 8:-0.152133 9:-0.0526766 10:0.0202634 11:-0.0831028 12:0.262839 13:0.0966932 14:0.231893 15:0.65374 16:-0.284666 17:0.495956 18:-0.268892 
0 0.9301385523476099 0 0 0 0 0 1:-0.699389 2:0.482424 3:-0.18952 4:-0.072872 5:-0.0665719 6:-0.514215 7:0.168927 8:-0.331272 9:-0.447433 10:-0.157098 11:0.320902 12:0.374612 13:0.0377101 14:0.404677 15:0.602934 16:-0.338946 17:0.232973 18:-0.446501 
0 2.451470484632238 0.05980954831176157 0 0.3984356723283189 0.3968668366924355 0.004524735093135399 1:-0.233457 2:0.176187 3:0.370921 4:-0.208443 5:0.208041 6:-0.682921 7:-0.0840814 8:-0.763331 9:0.246775 10:0.0982002 11:0.228869 12:0.289893 13:0.209899 14:0.425439 15:0.503383 16:-0.268064 17:0.355629 18:-0.450639 
3.641150576962521 0 0.3725353844649039 0.2173124854790042 2.04030292553943 2.218057726011517 2.434293016538799 1:-0.0283822 2:-0.205154 3:0.186893 4:0.0552292 5:0.136047 6:-0.465531 7:-0.280351 8:0.0531762 9:-0.477304 10:-0.125994 11:0.0148765 12:0.392018 13:-0.238157 14:0.296687 15:0.527094 16:-0.407367 17:0.439029 18:-0.563081 
1.859112075119334 0.7701833450388145 0.1118106427109194 0.6076460427965525 0.1985023013799692 0.08817724643616495 1.655121194206763 1:-0.300491 2:-0.285509 3:-0.0155171 4:-0.539853 5:0.442797 6:-0.336132 7:-0.51608 8:-0.124714 9:-0.0585864 10:-0.0705615 11:-0.0395863 12:0.69757 13:0.233211 14:0.484963 15:0.459999 16:-0.39995 17:0.275646 18:-0.484817 
2.803807507220567 15.04595869398593 4.151927511159402 0 5.007004490995732 0 0 1:-0.355782 2:0.381628 3:-0.0201188 4:0.0349063 5:0.471254 6:-0.28633 7:0.033073 8:-0.517608 9:-0.292152 10:-0.247407 11:0.394227 12:0.211656 13:-0.0844575 14:0.372783 15:0.518485 16:-0.300843 17:0.239338 18:-0.517434 
1.760595654303343 0 0.4437445261352374 0 0 0.5601836582639085 0.07347435929727923 1:-0.555105 2:-0.144684 3:-0.116621 4:-0.144028 5:0.401082 6:-0.600405 7:0.174961 8:-0.342312 9:-0.163847 10:-0.164429 11:-0.0883137 12:0.474109 13:0.174865 14:0.422457 15:0.506218 16:-0.479289 17:0.231993 18:-0.456343 
4.306663008203071 5.98382847032178 0 0.5218783291400378 0 0.6064981926370319 0 1:-0.283004 2:0.158383 3:-0.195307 4:-0.584169 5:0.128301 6:-0.261201 7:-0.438638 8:-0.504541 9:-0.118095 10:-0.500855 11:0.36421 12:0.366763 13:0.0766998 14:0.422367 15:0.569643 16:-0.275583 17:0.345738 18:-0.412564 
0 0.6313579008845681 0.242893032839428 0 0 0.4831870864259089 0 1:-0.251246 2:0.409596 3:-0.458503 4:0.103007 5:0.454336 6:-0.226099 7:-0.0103947 8:-0.0116642 9:-0.142659 10:-0.256156 11:0.604723 12:0.328496 13:-0.311904 14:0.444853 15:0.347086 16:-0.632725 17:-0.0511252 18:-0.463453 
2.450822448175594 0 0 0 0 0 0 1:-0.496869 2:-0.309853 3:-0.0329981 4:0.0445164 5:0.300635 6:-0.578772 7:0.119435 8:-0.200397 9:-0.0746155 10:0.0589833 11:0.289979 12:0.215524 13:0.0814511 14:0.225237 15:0.45504 16:-0.525718 17:0.197617 18:-0.603226 
0 0 0 0 1.061322669718264 0 0.5150848605330699 1:-0.271702 2:0.331231 3:-0.0622949 4:0.252447 5:0.0795058 6:-0.523963 7:0.275547 8:0.0644518 9:-0.332335 10:-0.149017 11:0.379975 12:0.45964 13:0.482766 14:0.178336 15:0.590029 16:-0.548178 17:0.300109 18:-0.520206 
0 0 1.051665487928876 0 0 0 0 1:-0.515812 2:0.0386135 3:-0.206143 4:0.0699854 5:0.1125 6:-0.403211 7:-0.300605 8:-0.301426 9:-0.0700249 10:-0.0421391 11:0.342338 12:0.346631 13:-0.0598927 14:0.133732 15:0.564323 16:-0.396733 17:0.16428 18:-0.525663 
0 0.02786273636363071 0 0 0 0 0.7007229678060573 1:-0.492977 2:0.373628 3:-0.249742 4:-0.0164159 5:-0.0572657 6:-0.429975 7:0.174099 8:0.0974803 9:-0.139805 10:-0.408029 11:-0.0738952 12:0.238063 13:0.282801 14:-0.175111 15:0.750432 16:-0.259591 17:0.524495 18:-0.71767 
11.85003897803436 8.090849130087111 1.871550259508832 0.8070586923137396 22.38487448214591 1.162650601124035 19.44781995327801 1:-0.266537 2:-0.0398666 3:-0.218535 4:-0.0513674 5:0.13015 6:-0.185367 7:0.0694347 8:-0.334652 9:-0.206507 10:-0.0402851 11:0.60283 12:0.273771 13:0.0301447 14:0.354955 15:0.437345 16:-0.55662 17:0.14113 18:-0.411133 
3.920421090005078 0 0 0 0 0 0 1:-0.467249 2:0.0152149 3:-0.204188 4:-0.0758251 5:0.0628719 6:-0.393311 7:-0.284228 8:-0.249334 9:-0.343178 10:0.0595803 11:0.108936 12:0.379178 13:0.144208 14:0.294277 15:0.505835 16:-0.38646 17:0.0847565 18:-0.439847 
0 0 0 0 0 1.113490933501911 0.9305007981299949 1:-0.220412 2:-0.341064 3:-0.0311912 4:-0.197968 5:0.490596 6:-0.417428 7:0.284092 8:-0.018388 9:-0.274337 10:-0.045943 11:0.588411 12:0.418395 13:0.0498666 14:0.259124 15:0.528758 16:-0.478424 17:0.352404 18:-0.559859 
0 0 0 0 0 0 5.328157477274179 1:-0.467041 2:0.129672 3:-0.253165 4:0.032415 5:-0.055278 6:-0.388317 7:0.0907689 8:-0.276979 9:-0.499106 10:-0.291779 11:0.352858 12:0.284936 13:-0.121672 14:0.387195 15:0.505429 16:-0.335288 17:0.352492 18:-0.478214 
0 3.442394310147435 0 0 0.2362490395033963 0 0 1:-0.353589 2:0.24256 3:0.26449 4:-0.49226 5:0.534901 6:-0.711821 7:-0.0492783 8:-0.773987 9:0.132165 10:0.0816325 11:0.347317 12:0.262979 13:-0.0453476 14:0.343152 15:0.547738 16:-0.296353 17:0.35025 18:-0.497545 
4.587886476162031 9.874945468224366 1.545301468645765 0 0 0.1741270934720135 0 1:-0.312402 2:0.559684 3:0.0376958 4:0.183102 5:0.219329 6:-0.258858 7:-0.0282523 8:-0.481528 9:-0.220789 10:-0.348936 11:0.420672 12:0.150633 13:0.241579 14:0.326667 15:0.654035 16:-0.288103 17:0.299491 18:-0.402906 
0.2770914475567696 0.5024711577677291 0 0.3856831931096147 0 0.2821351427307641 0 1:-0.583012 2:-0.103336 3:-0.376485 4:0.176623 5:0.40389 6:-0.203575 7:0.052015 8:0.224154 9:-0.330252 10:-0.0737555 11:-0.0764606 12:0.223898 13:0.581254 14:0.127379 15:0.786182 16:-0.333909 17:0.723829 18:-0.551528 
0.5310528067902095 0.7384058453547957 0.02627920910273989 0.0323005232264597 0.06237468008757074 0.4679990343047415 0.4330814271137371 1:-0.807182 2:0.297233 3:-0.172595 4:-0.478697 5:0.531975 6:-0.554554 7:-0.276543 8:-0.149207 9:0.343604 10:-0.564881 11:0.0857112 12:0.41556 13:0.482608 14:-0.278496 15:0.631377 16:-0.400927 17:0.642693 18:-0.560328 
1.746763594081666 2.009892974115541 0 0.6176790725148129 0 0 1.164849713341656 1:-0.41242 2:-0.117439 3:0.144309 4:-0.120986 5:-0.13095 6:-0.588152 7:0.378373 8:-0.0967447 9:-0.83578 10:-0.0697694 11:0.133549 12:0.58932 13:-0.0276653 14:0.368808 15:0.478353 16:-0.437222 17:0.0789714 18:-0.576418 
1.946760718434241 0.9904004778004388 0.959813443513349 0 2.379931286406934 0 0 1:-0.132521 2:0.184303 3:-0.246553 4:0.0701207 5:-0.0253277 6:-0.182406 7:0.312174 8:-0.103054 9:-0.350679 10:-0.384412 11:0.28442 12:0.433349 13:0.26705 14:0.256999 15:0.564402 16:-0.602888 17:0.26239 18:-0.356892 
0 1.601921969130266 0.4686761653065558 0 0 0.06107738619931613 1.299226771959856 1:-0.366909 2:0.623876 3:-0.210833 4:0.419357 5:0.603101 6:-0.0871898 7:-0.0207227 8:-0.0139832 9:-0.0711963 10:-0.267731 11:0.042375 12:0.414689 13:-0.0758354 14:0.227909 15:0.396972 16:-0.432057 17:-0.0209336 18:-0.661238 
1.373127892531235 0.9401880886583196 0 0 0 0 0 1:-0.344285 2:0.189466 3:-0.173874 4:-0.600588 5:0.262164 6:-0.539356 7:0.703311 8:-0.263821 9:-0.168575 10:-0.125503 11:-0.160885 12:0.218472 13:-0.148814 14:0.473222 15:0.601419 16:-0.200444 17:0.332148 18:-0.509388 
0 1.298797475708408 0 0 0 0.5971499511475095 0 1:-0.122275 2:-0.0795283 3:0.0128178 4:-0.210576 5:0.269049 6:-0.818215 7:-0.161919 8:-0.151421 9:0.183042 10:-0.00580136 11:0.337458 12:0.375319 13:0.121789 14:0.402796 15:0.53412 16:-0.222653 17:0.373376 18:-0.394384 
0.07396026650366125 1.588081008706899 0.8201681280029316 0 0.5635180573386813 1.5898029886418 0 1:-0.22471 2:0.299905 3:0.104402 4:-0.218182 5:0.413229 6:-0.703929 7:-0.0865019 8:-0.363039 9:-0.405289 10:-0.102514 11:0.202772 12:0.585246 13:-0.0282777 14:0.169954 15:0.440155 16:-0.493185 17:0.153719 18:-0.725231 
0 0 0.3237486010700141 0 0.3389045863333167 1.473845757771629 1.346139334603916 1:-0.202386 2:-0.442647 3:0.127549 4:-0.258399 5:0.201952 6:-0.524948 7:-0.244278 8:-0.289944 9:-0.00469959 10:-0.285385 11:0.480886 12:0.410572 13:0.123045 14:0.254727 15:0.541111 16:-0.484158 17:0.434917 18:-0.496201 
13.18696371670911 5.355378538599627 3.471509008181546 0.2687117022352321 3.130443182339203 0.7507280419951637 0 1:-0.124931 2:0.198657 3:-0.373582 4:-0.158763 5:0.0563683 6:-0.135762 7:-0.20142 8:-0.577164 9:-0.0872583 10:-0.264428 11:0.332092 12:0.389351 13:0.0244717 14:0.279538 15:0.546415 16:-0.28156 17:0.203483 18:-0.613405 
1.232543166240524 1.644312518108176 3.766973927717944 0.2906209399737186 0.04395380555415024 0 0 1:-0.194132 2:-0.0494683 3:-0.0356092 4:-0.317741 5:0.102308 6:-0.3283 7:0.218472 8:-0.519514 9:0.120807 10:-0.360676 11:0.351105 12:0.32695 13:-0.314143 14:0.104113 15:0.630696 16:-0.359021 17:0.323204 18:-0.557702 
0.5862625724213489 2.188050428198053 0 0.4212941572653409 0 0.2699122710952648 0.857053493383359 1:-0.505812 2:-0.02697 3:-0.101488 4:-0.562026 5:0.419279 6:-0.538684 7:0.111743 8:-0.33204 9:-0.627225 10:-0.0285242 11:0.154504 12:0.591326 13:0.101343 14:0.482753 15:0.398549 16:-0.509799 17:0.0257064 18:-0.487463 
3.251340678726115 0 0 0 0 0 0 1:-0.403162 2:-0.0278004 3:-0.360599 4:-0.106542 5:0.199641 6:-0.107132 7:-0.18213 8:-0.395168 9:-0.12014 10:0.00287716 11:0.532275 12:0.30186 13:0.34494 14:0.0530978 15:0.538655 16:-0.475581 17:0.301426 18:-0.486609 
0.8487503309392996 0.6224622858748964 0.2484582425435081 0.1222455442398737 0.3064638693219301 0.6469502181645782 0.4083082226542225 1:0.330299 2:-0.16122 3:0.286756 4:-0.657143 5:-0.599073 6:-0.505747 7:-0.138583 8:-0.0509703 9:0.25216 10:0.0774291 11:-0.377697 12:0.0285608 13:0.135553 14:-0.237019 15:0.595968 16:-0.553715 17:0.0996692 18:-0.758584 
0 0 0 0 0 0 1.038142615706206 1:-0.430982 2:0.0182816 3:-0.286415 4:0.00146463 5:0.449771 6:-0.277618 7:-0.148998 8:0.30094 9:0.00141793 10:-0.0477269 11:0.412312 12:0.424688 13:0.282749 14:0.0234163 15:0.616269 16:-0.443469 17:0.40477 18:-0.473412 
0 0.4893072620092577 0 0 0 0 0 1:-0.400594 2:0.0611491 3:-0.049026 4:0.282501 5:0.0341153 6:-0.275252 7:-0.121364 8:0.14346 9:-0.315607 10:-0.0434973 11:0.00597965 12:0.664851 13:0.136253 14:0.160874 15:0.571512 16:-0.434419 17:0.11189 18:-0.603395 
3.367860661642494 0 0 0 0 0 3.621031530235427 1:-0.157947 2:0.0962886 3:-0.214706 4:0.0666442 5:-0.133497 6:-0.231916 7:0.263055 8:-0.0624823 9:-0.433676 10:-0.392971 11:0.392186 12:0.402162 13:0.269234 14:0.205458 15:0.534297 16:-0.605072 17:0.261067 18:-0.420055 
3.924813106009187 0 0 0.7074594981641724 6.192649596950213 0.7700045391366073 0.7653676107729758 1:-0.150397 2:0.0777407 3:-0.355318 4:0.101336 5:0.274192 6:-0.304549 7:-0.147241 8:0.0864837 9:-0.0648462 10:-0.0208179 11:0.474455 12:0.392193 13:0.352891 14:0.238511 15:0.513148 16:-0.465887 17:0.355078 18:-0.519578 
0 0.5847710592097365 0 0 0 0.5480132067099356 0 1:-0.199003 2:0.258287 3:-0.0717837 4:-0.150633 5:-0.539508 6:-0.297569 7:0.0407154 8:-0.442956 9:-0.132487 10:-0.578086 11:0.280314 12:0.33818 13:-0.143018 14:0.28191 15:0.569524 16:-0.178318 17:0.223863 18:-0.511275 
0 0 0 0 0 1.134170932445566 0 1:-0.125512 2:-0.101201 3:0.0151773 4:-0.20667 5:0.257856 6:-0.836652 7:-0.240867 8:-0.204731 9:0.078468 10:-0.00492248 11:0.404301 12:0.393585 13:-0.121605 14:0.302751 15:0.492129 16:-0.35434 17:0.368054 18:-0.475235 
0.0687107905772959 0 0 0 0 0 0 1:-0.909656 2:-0.0930075 3:-0.219718 4:0.00077858 5:0.390413 6:-0.523769 7:-0.0511982 8:-0.296694 9:-0.305971 10:0.0468265 11:0.340674 12:0.0121425 13:-0.0723255 14:0.118951 15:0.437998 16:-0.347298 17:0.188056 18:-0.571161 
0 0 1.316081503767613 0 0 0.5292949260618942 0 1:-0.196359 2:-0.185015 3:0.420439 4:0.065034 5:0.288842 6:-0.52108 7:0.123457 8:-0.195781 9:0.0743644 10:-0.353717 11:0.22687 12:0.218062 13:0.0587188 14:0.130223 15:0.565666 16:-0.590498 17:0.26071 18:-0.638109 
0 0 0 0 4.702122580348462 0 2.016251336238266 1:-0.37977 2:0.00813259 3:-0.203832 4:0.282604 5:0.176538 6:-0.436351 7:0.0524387 8:-0.290465 9:-0.348421 10:-0.0796197 11:0.82465 12:0.358838 13:0.28235 14:0.262408 15:0.509239 16:-0.323824 17:0.209087 18:-0.578535 
4.492649719952677 0 3.670282057930865 1.457289829701964 0 0 0.4670312048158952 1:-0.454387 2:0.329359 3:-0.203092 4:0.0585541 5:0.182517 6:-0.47538 7:0.0438862 8:-0.503791 9:-0.00650485 10:0.0325114 11:0.360724 12:0.32692 13:-0.00960003 14:0.424408 15:0.528197 16:-0.343303 17:0.348465 18:-0.503503 
0 1.639097536668124 0 0.3935242887532917 0 0 0 1:-0.75055 2:0.11044 3:-0.116048 4:-0.290335 5:0.0657541 6:-0.122824 7:-0.291234 8:-0.327337 9:-0.39431 10:0.193091 11:0.17467 12:0.494474 13:0.0892483 14:0.103036 15:0.476226 16:-0.544689 17:0.212997 18:-0.418643 
0.7061575342557148 0.2109643942108042 0.3539428152265132 0 0.5958250191206441 0 0.9190506357658466 1:-0.394529 2:-0.575862 3:0.112832 4:-0.332231 5:0.198603 6:-0.359376 7:-0.575503 8:-0.645952 9:0.108628 10:0.123358 11:0.0401802 12:0.447557 13:-0.0238032 14:0.115945 15:0.462091 16:-0.551998 17:0.299952 18:-0.529085 
7.100833661810828 7.892567078305105 3.787214728937338 0 1.746412217705421 0 2.24398231487446 1:-0.42434 2:0.0575776 3:0.0337003 4:0.145613 5:-0.122326 6:-0.396805 7:0.0489572 8:-0.212759 9:-0.260617 10:-0.271929 11:0.28397 12:0.256397 13:0.139835 14:0.235995 15:0.515301 16:-0.584134 17:0.141305 18:-0.482665 
0.5978606323273276 0.560049275862928 0.0858691206521371 0.003078322423708339 0.8157031071729094 0 1.477689450927848 1:-0.387001 2:0.240189 3:-0.395272 4:-0.0109963 5:0.229937 6:-0.341733 7:0.162162 8:-0.0270033 9:-0.296497 10:-0.00571707 11:-0.0324843 12:0.550967 13:0.499869 14:0.0397397 15:0.701549 16:-0.330209 17:0.679842 18:-0.554785 
6.717098866654913 0.05465235961097823 0.337561483971188 0 0 0 0 1:-0.557971 2:-0.165531 3:-0.0208585 4:-0.121275 5:0.24733 6:-0.56963 7:0.0983975 8:-0.319497 9:-0.225306 10:-0.201392 11:0.251731 12:0.331514 13:-0.124373 14:0.190953 15:0.467599 16:-0.590625 17:0.187397 18:-0.500099 
7.381626648704936 7.866175801209338 0.9296430083618057 0 2.285247481034046 0 6.087606372461487 1:-0.664773 2:-0.0902258 3:-0.221633 4:0.00129136 5:0.263878 6:-0.293367 7:0.04529 8:-0.421766 9:-0.259486 10:-0.0332047 11:0.573501 12:0.298546 13:0.319239 14:0.276184 15:0.445418 16:-0.3563 17:0.269058 18:-0.418393 
6.294747591092579 0 0 0 0 0 6.178927996775713 1:-0.431504 2:0.213318 3:-0.327232 4:-0.107629 5:-0.0108375 6:-0.351566 7:0.212975 8:-0.438725 9:-0.431978 10:-0.0307966 11:0.424774 12:0.268657 13:0.117086 14:0.169764 15:0.500481 16:-0.3234 17:0.363601 18:-0.567574 
0 0.5042361181309866 0.0567478318323936 0 1.091565863012249 0.1087211051735915 0.3165828338286586 1:-0.122751 2:0.647269 3:0.157185 4:0.466033 5:0.570274 6:-0.0490216 7:-0.0702554 8:-0.415979 9:-0.319034 10:-0.128605 11:0.595377 12:0.228538 13:0.245636 14:0.0642043 15:0.442936 16:-0.335636 17:0.163378 18:-0.452874 
0.325818303508596 0.4103882833939077 0 0 0.1514746213556829 0.4349657089847808 0.3585215934937222 1:-0.814289 2:0.303722 3:-6.1316e-05 4:-0.071796 5:0.0391084 6:-0.679333 7:-0.00784683 8:-0.027829 9:0.241241 10:-0.598287 11:-0.0994874 12:0.350423 13:0.47086 14:-0.43249 15:0.614682 16:-0.363156 17:0.624593 18:-0.633325 
2.620515579741769 12.76219192916178 0 0.01531313925524457 0 0 0 1:-0.743433 2:0.413358 3:-0.0718266 4:-0.141364 5:-0.0331945 6:-0.401012 7:0.165302 8:-0.564155 9:-0.185488 10:-0.0655012 11:0.134104 12:0.29916 13:-0.0435129 14:0.409121 15:0.479066 16:-0.375417 17:0.360052 18:-0.47084 
0 0.2452775954624731 0.5782616617701769 0 0 0 0 1:-0.414591 2:-0.113789 3:-0.0259031 4:-0.076121 5:0.261786 6:-0.53655 7:0.724842 8:-0.129602 9:-0.203549 10:-0.114468 11:0.305237 12:0.509788 13:0.344356 14:0.549526 15:0.556497 16:-0.204706 17:0.421229 18:-0.53222 
1.803321769247212 2.231600186398106 0 0 0 0 0 1:-0.0420102 2:-0.0299543 3:0.219432 4:-0.411385 5:-0.185696 6:-0.557209 7:0.323738 8:0.0198515 9:-0.304074 10:-0.397126 11:-0.0734242 12:0.618835 13:-0.0675247 14:0.269211 15:0.495791 16:-0.563953 17:0.253969 18:-0.69132 
8.321423763414087 0.2128851405576076 2.775268061717692 0 2.616019044314573 0 0 1:-0.281114 2:0.262664 3:-0.21497 4:0.0605352 5:0.0532104 6:-0.304296 7:-0.225459 8:-0.112755 9:-0.411308 10:-0.0836596 11:0.400149 12:0.428369 13:-0.190661 14:0.145838 15:0.485197 16:-0.475217 17:0.236148 18:-0.541946 
0 0.1718845705292618 0 0 0 0 0 1:-0.250251 2:-0.378437 3:-0.0960962 4:-0.254626 5:0.528454 6:-0.6974 7:0.268563 8:-0.373693 9:-0.417674 10:-0.126592 11:-0.148735 12:0.620097 13:-0.153151 14:0.35669 15:0.634244 16:-0.313754 17:0.470103 18:-0.575583 
3.3095807441193 3.802264910170505 0.5908477362900778 0.1537086313163599 2.362653949063812 0 6.321754090808845 1:-0.266445 2:0.0691041 3:-0.156726 4:-0.457988 5:0.299473 6:-0.433564 7:0.196317 8:-0.33849 9:-0.284543 10:-0.325354 11:0.402066 12:0.565425 13:-0.0372044 14:0.629287 15:0.43446 16:-0.386436 17:0.209401 18:-0.506165 
2.734635107499794 3.150089096901119 1.426762703476981 0.3965840217266582 2.162463435607176 0 0.581857275891062 1:-0.486318 2:0.306339 3:-0.149533 4:0.286729 5:0.0440291 6:-0.321148 7:0.59901 8:-0.511813 9:-0.155212 10:0.0154985 11:0.788134 12:0.313477 13:-0.15396 14:0.206874 15:0.612924 16:-0.301778 17:0.203215 18:-0.253563 
1.910251880407715 0.9782806542193854 0.15193434221707 0.6285491688297444 0.3053791328517549 0.4540241851651646 0.5624121457683475 1:0.0198064 2:-0.154696 3:-0.133249 4:-0.517224 5:-0.18596 6:-0.0942421 7:-0.296924 8:-0.498823 9:-0.674804 10:-0.0317041 11:0.709671 12:0.347714 13:0.179327 14:-0.13431 15:0.526286 16:-0.37985 17:0.220729 18:-0.576363 
0 0 0 0 0 0 3.282801496895387 1:-0.611655 2:0.26786 3:-0.308691 4:0.0858444 5:-0.0282826 6:-0.310956 7:0.294407 8:-0.350471 9:-0.347594 10:-0.0654394 11:0.367525 12:0.363021 13:0.202634 14:0.225288 15:0.434652 16:-0.253176 17:0.21947 18:-0.425833 
11.90715050638405 2.091750008681775 0.1855862760424771 2.207116750723459 0.4039359050218386 1.286912371123811 5.199273544514624 1:-0.222293 2:-0.0362709 3:-0.231108 4:0.00607416 5:0.063205 6:-0.139399 7:-0.0881436 8:-0.3057 9:-0.171412 10:-0.031301 11:0.537465 12:0.216179 13:-0.209776 14:0.338567 15:0.451505 16:-0.489228 17:0.252887 18:-0.436352 
1.174090699876621 0.501771148541057 0.04040076138060437 0.2415961269043136 0.3493740298879812 0.526646986710981 0.6341298366329903 1:-0.286115 2:0.200431 3:-0.201616 4:0.264284 5:-0.135811 6:-0.533867 7:-0.351757 8:0.329019 9:0.559167 10:-0.0123442 11:-0.0557906 12:-0.0239454 13:0.168788 14:0.0380024 15:0.623713 16:-0.438719 17:0.555471 18:-0.5514 
12.12125092831118 7.625118972825005 9.544838159574073 1.898398953591536 0 0 6.333499164588609 1:-0.421389 2:0.219546 3:-0.234702 4:-0.0479644 5:0.059333 6:-0.254083 7:0.0333801 8:-0.0991685 9:0.0086915 10:-0.317174 11:0.357397 12:0.354666 13:0.0548547 14:0.234403 15:0.580552 16:-0.421382 17:0.22999 18:-0.555866 
12.61917293918772 8.738859102381797 0 1.383838071036188 0 0 0.7064776782982761 1:-0.46378 2:0.201647 3:-0.197922 4:-0.416377 5:0.0863605 6:-0.442873 7:-0.205708 8:-0.401321 9:-0.353589 10:0.027628 11:0.21592 12:0.327738 13:0.182137 14:0.285584 15:0.472348 16:-0.454454 17:0.292015 18:-0.470632 
2.871271805742569 3.189726723447355 1.905536256415364 0 0 0 0 1:-0.557801 2:0.478591 3:-0.166095 4:-0.058972 5:0.0135411 6:-0.386549 7:0.125838 8:-0.319453 9:-0.420159 10:-0.139701 11:0.536584 12:0.382702 13:0.00959672 14:0.353039 15:0.519569 16:-0.400174 17:0.226954 18:-0.507121 
7.287439506786455 2.308925627322125 0 0.9814390692164294 3.735641086466688 2.525162444560056 4.946364694565645 1:-0.128426 2:0.103818 3:-0.498195 4:-0.0268355 5:0.097272 6:-0.474863 7:-0.29106 8:-0.524924 9:-0.221483 10:-0.00600426 11:0.273656 12:0.365296 13:0.0287971 14:0.304831 15:0.53615 16:-0.338619 17:0.413115 18:-0.496572 
0 0 0 0 1.133675449868093 0.239235199376223 0.6656297508886589 1:-0.277394 2:0.168029 3:-0.0780327 4:0.379927 5:0.0536505 6:-0.486721 7:0.288224 8:-0.0278714 9:-0.408925 10:-0.111385 11:0.290321 12:0.433369 13:0.47507 14:0.203581 15:0.617432 16:-0.47684 17:0.330823 18:-0.541414 
0 3.506892340908687 0 0 0 0 0 1:-0.859531 2:0.100083 3:-0.157363 4:-0.00249679 5:0.197317 6:-0.304037 7:0.032076 8:-0.166728 9:-0.20887 10:-0.0339525 11:0.131856 12:0.248589 13:0.153355 14:0.257147 15:0.550588 16:-0.327771 17:0.135485 18:-0.273741 
0 3.301721686524991 0 0 0 0.3117986032133647 0 1:-0.639742 2:0.142884 3:-0.193484 4:-0.0118098 5:0.34133 6:-0.389965 7:-0.219837 8:-0.585052 9:-0.411597 10:-0.140823 11:0.37647 12:0.38906 13:0.340035 14:0.208751 15:0.616962 16:-0.359069 17:0.191516 18:-0.465119 
6.280880438745966 0 0 1.627707379235176 6.438419066092409 6.308910341085272 3.455330506807929 1:0.0574735 2:-0.132661 3:-0.115673 4:-0.0691401 5:-0.0265225 6:-0.601013 7:0.282405 8:-0.349623 9:-0.0231872 10:-0.029121 11:0.137355 12:0.45378 13:0.0818217 14:0.432939 15:0.523242 16:-0.382826 17:0.348874 18:-0.473265 
12.25863795166631 7.741376923386233 0 3.634205332847079 0 0 1.060665248692442 1:-0.442652 2:0.207316 3:-0.0561061 4:-0.109137 5:-0.300782 6:-0.509768 7:-0.0854066 8:-0.32045 9:-0.381608 10:0.0347005 11:0.17566 12:0.288946 13:0.0419637 14:0.235443 15:0.519041 16:-0.442745 17:0.319304 18:-0.493823 
1.277741648254989 1.964703931054884 0 0 0 0 1.797320086573025 1:-0.722203 2:0.361696 3:-0.227983 4:-0.172951 5:0.270924 6:-0.527619 7:-0.139145 8:0.00517561 9:-0.0655955 10:0.0934151 11:0.00940402 12:0.277174 13:0.458731 14:-0.0268939 15:0.642336 16:-0.422442 17:0.519654 18:-0.497594 
7.828914960912103 0.8952715466618447 0.8242745543729205 1.358964869026175 1.983598203168519 1.335798304790441 2.543848889695011 1:0.0582963 2:-0.0833775 3:-0.1867 4:-0.523066 5:-0.0657692 6:-0.229134 7:0.45705 8:-0.551379 9:-0.446891 10:0.135935 11:0.145335 12:0.340405 13:0.200491 14:0.33113 15:0.598027 16:-0.263111 17:0.573427 18:-0.46001 
0 0 0.2948244695968905 0 0.5000069216448974 0 0 1:-0.655257 2:0.0264757 3:-0.171972 4:-0.019467 5:0.45108 6:-0.451003 7:-0.279494 8:-0.234245 9:0.102983 10:-0.181226 11:0.499757 12:0.272551 13:0.114509 14:0.219921 15:0.693106 16:-0.393767 17:0.254065 18:-0.388078 
0 0.2892427124171065 0 0 2.057735416022743 0.7827597969945546 1.441864160018045 1:-0.455819 2:0.100844 3:-0.12762 4:0.0720366 5:0.21372 6:-0.9804 7:-0.16681 8:-0.738082 9:0.0453576 10:0.0874326 11:0.501135 12:0.316381 13:0.00333181 14:0.521647 15:0.537178 16:-0.31203 17:0.422113 18:-0.465149 
0 0 0 0 0 0 1.390093225414333 1:-0.686855 2:0.380471 3:-0.235152 4:-0.0324047 5:0.136137 6:-0.581852 7:0.263514 8:-0.19765 9:-0.374221 10:-0.0419767 11:0.338153 12:0.377552 13:0.217326 14:0.373427 15:0.567232 16:-0.399858 17:0.298628 18:-0.48522 
0 0 0 0 1.920543292158956 0.1820365672678479 0 1:-0.232055 2:0.268413 3:-0.484493 4:0.0950725 5:0.564875 6:-0.157888 7:-0.0330365 8:-0.0700291 9:-0.144127 10:-0.147435 11:0.473962 12:0.342805 13:-0.258374 14:0.38968 15:0.383534 16:-0.636622 17:0.0243715 18:-0.482481 
0 0.7693351305545202 0.1308251843073439 0 0 0.2831254355373304 0 1:-0.459635 2:0.255969 3:-0.0618286 4:-0.426684 5:0.355408 6:-0.532737 7:-0.417726 8:-0.594951 9:0.257855 10:-0.111149 11:0.368959 12:0.284921 13:0.182871 14:0.0968469 15:0.590672 16:-0.449563 17:0.280207 18:-0.76352 
5.581271995606365 0.1110564288910388 0 0 0.4188798641180002 0.2043218034188479 0 1:-0.246197 2:0.344903 3:-0.160347 4:0.174253 5:-0.519162 6:-0.19943 7:-0.0217107 8:-0.247 9:-0.621955 10:-0.300043 11:0.509959 12:0.50134 13:0.240735 14:0.148568 15:0.574369 16:-0.225455 17:0.365202 18:-0.495274 
0 0 0 0.1308279960468368 0 0 0 1:-0.327922 2:-0.0975067 3:0.00283259 4:-0.293545 5:0.136942 6:-0.658913 7:0.032818 8:-0.40565 9:0.12466 10:-0.435477 11:0.239071 12:0.354486 13:-0.292135 14:0.184669 15:0.523623 16:-0.189733 17:0.420249 18:-0.589636 
0 0 0 0 0 0 0.09243576180304933 1:-0.89916 2:0.0266484 3:-0.248995 4:0.10616 5:0.351397 6:-0.194266 7:0.133433 8:-0.122496 9:-0.183515 10:0.0606374 11:0.0640252 12:0.363159 13:0.355264 14:0.204816 15:0.512767 16:-0.37088 17:0.161389 18:-0.165686 
0.596415415621868 0 0 0 0 0 0 1:-0.365874 2:-0.171387 3:-0.0502518 4:-0.114424 5:0.14904 6:-0.551906 7:0.547407 8:-0.159095 9:-0.807378 10:-0.0411361 11:0.052318 12:0.604343 13:0.04646 14:0.304422 15:0.556898 16:-0.356839 17:0.258115 18:-0.572124 
7.093019595921886 2.939067486033002 0 4.229510007274873 3.289787729857784 0 7.408030117458847 1:-0.355214 2:0.00782313 3:-0.167786 4:0.0513868 5:-0.205895 6:-0.135471 7:0.131084 8:-0.103211 9:-0.350795 10:0.041041 11:0.379513 12:0.287204 13:-0.0586449 14:0.319539 15:0.541896 16:-0.116655 17:0.27002 18:-0.521713 
1.599634595319818 0 0.6111285096906748 0 0 0.0165056472383847 0 1:-0.321022 2:-0.581979 3:-0.0303523 4:-0.115551 5:0.435761 6:-0.372856 7:0.207194 8:-0.229462 9:-0.0473748 10:0.0818071 11:0.173624 12:0.254724 13:-0.0221119 14:0.213643 15:0.5203 16:-0.24416 17:0.379356 18:-0.528996 
17.12859700024051 3.769085696123431 0 3.231789542518162 4.711523449542044 2.500135189598908 10.80422733751213 1:-0.0957584 2:0.365802 3:-0.203901 4:-0.190476 5:-0.3332 6:-0.431564 7:0.0765329 8:-0.179436 9:-0.270464 10:-0.173558 11:0.389599 12:0.268419 13:0.0888282 14:0.405789 15:0.516537 16:-0.366268 17:0.191014 18:-0.367477 
0 1.716164138691493 0 0.1143091433411314 0 0 0.3622905029769423 1:-0.628103 2:0.235617 3:-0.147911 4:-0.0738225 5:0.202345 6:-0.466811 7:-0.290599 8:-0.0598024 9:-0.0593458 10:-0.525138 11:0.469871 12:0.415287 13:0.132529 14:-0.0579251 15:0.695414 16:-0.243347 17:0.514863 18:-0.534436 
0.4621103422931082 0 0 0 0 0 0 1:-0.315641 2:0.373509 3:-0.16804 4:-0.420192 5:-0.279013 6:-0.447058 7:-0.349778 8:-0.290947 9:-0.224563 10:-0.226443 11:0.137566 12:0.166522 13:0.25875 14:0.400238 15:0.47031 16:-0.280294 17:0.231069 18:-0.471043 
5.219650134054413 2.701949987212655 1.028821825609578 0.1912962148512062 1.86496939022018 0 0 1:-0.278913 2:-0.188338 3:-0.0879191 4:-0.386043 5:0.467205 6:-0.436002 7:0.39764 8:-0.280643 9:-0.144323 10:-0.0882967 11:0.406982 12:0.436222 13:0.0676547 14:0.456944 15:0.588457 16:-0.371099 17:0.421125 18:-0.422488 
0 4.354242587086508 0 0 1.59917501948184 0 5.350395857060162 1:-0.679741 2:-0.1073 3:-0.164037 4:0.0811134 5:0.159146 6:-0.327147 7:0.0383992 8:-0.418284 9:-0.32969 10:-0.0558335 11:0.569276 12:0.331777 13:0.202262 14:0.201726 15:0.423724 16:-0.448284 17:0.32065 18:-0.458247 
4.300483742569826 0 0 0 0 0 0 1:-0.430994 2:0.108312 3:-0.256859 4:0.0379944 5:-0.229587 6:-0.370521 7:-0.332818 8:-0.50575 9:-0.516319 10:-0.0975258 11:0.244525 12:0.2995 13:0.115081 14:0.335471 15:0.426506 16:-0.199292 17:0.272189 18:-0.559066 
13.98055826251133 5.442854925826834 3.916123800225765 0.8971661739255479 0 2.170319501116707 0.7460974585385429 1:-0.395823 2:0.0178491 3:-0.222823 4:-0.314334 5:0.391975 6:-0.254586 7:-0.133316 8:-0.239165 9:-0.213382 10:-0.333589 11:0.343085 12:0.308078 13:0.293324 14:0.345608 15:0.528734 16:-0.571055 17:0.139434 18:-0.404927 
0 0.6222909487573036 0.1399168537209231 0 0.2481716544134027 0.9189512690165206 0 1:-0.178589 2:-0.217666 3:-0.0787758 4:-0.337791 5:0.518536 6:-0.754354 7:0.573605 8:-0.548845 9:0.0959739 10:-0.335536 11:0.684562 12:0.39197 13:0.546535 14:0.38207 15:0.549253 16:-0.35516 17:0.527826 18:-0.475418 
2.957840780236865 14.1721393251201 3.368069728581497 0 0 0 0 1:-0.756078 2:0.383625 3:-0.148578 4:-0.325007 5:0.038623 6:-0.360089 7:0.196773 8:-0.542128 9:-0.139421 10:-0.0409771 11:0.179423 12:0.374871 13:0.108464 14:0.295673 15:0.534087 16:-0.430366 17:0.276846 18:-0.458629 
0.733686102115629 0.01516152058020538 0.8960516318148957 0.4480424739038462 2.246765719097172 1.809193716383966 0.4280791139668867 1:-0.0238146 2:0.212768 3:-0.169105 4:-0.0328902 5:-0.267133 6:-0.379621 7:0.223826 8:-0.470266 9:0.203617 10:-0.598714 11:0.520007 12:0.313285 13:-0.0650483 14:-0.0110068 15:0.587811 16:-0.251931 17:0.340488 18:-0.574444 
2.722660381803565 1.398860309260597 0 0 0.83887826475651 0 2.403521285945506 1:-0.278526 2:-0.059833 3:-0.400176 4:0.0725254 5:0.20134 6:-0.0857173 7:-0.0878104 8:0.00582418 9:-0.202213 10:-0.210245 11:0.20549 12:0.376346 13:0.336734 14:0.0901759 15:0.535722 16:-0.482498 17:0.39291 18:-0.308479 
0 0 0 0 0 0 0.01662228920391298 1:-0.514453 2:-0.0552841 3:-0.129797 4:-0.292696 5:0.369949 6:-0.569201 7:0.451004 8:-0.249314 9:-0.728927 10:-0.0330915 11:0.204761 12:0.551172 13:0.0259566 14:0.46945 15:0.451157 16:-0.403475 17:0.0310223 18:-0.484598 
12.5773157205865 4.472611542859616 1.831987927871875 0.370624390716378 7.767428797611143 0 4.283867976737744 1:-0.122755 2:0.453997 3:-0.398549 4:0.0101389 5:0.0193598 6:-0.412658 7:0.131292 8:-0.356 9:-0.38252 10:-0.132201 11:0.54623 12:0.449553 13:0.0382852 14:0.256827 15:0.52945 16:-0.457521 17:0.289886 18:-0.441003 
33.32846232933019 37.92960556053156 3.45848257389409 0 1.787166536393096 0 1.449418221838329 1:-0.4872 2:0.425632 3:-0.173979 4:-0.186445 5:0.066584 6:-0.324805 7:-0.0323992 8:-0.369939 9:-0.350123 10:-0.143328 11:0.535134 12:0.382758 13:0.166637 14:0.380739 15:0.502818 16:-0.434041 17:0.248873 18:-0.439365 
0 1.855220997317142 0 0 0 0 0 1:-0.792211 2:0.0847314 3:-0.251012 4:0.132924 5:0.215758 6:-0.335366 7:0.118885 8:-0.452847 9:-0.551752 10:-0.0875211 11:0.436828 12:0.333895 13:0.0154339 14:0.351633 15:0.588091 16:-0.427172 17:0.170881 18:-0.376035 
0.1868702656669601 2.895186547393332 0 0 3.196288521513408 1.401274089916072 0 1:-0.128977 2:0.166158 3:-0.284547 4:-0.0225063 5:0.0685276 6:-0.157935 7:0.266374 8:-0.145911 9:-0.395115 10:-0.413155 11:0.330257 12:0.390402 13:0.108917 14:0.155872 15:0.552939 16:-0.640282 17:0.250645 18:-0.402006 
18.28274144845652 6.923274001321901 3.399284694775899 0 0 0 0 1:-0.390029 2:0.340318 3:-0.209056 4:-0.365388 5:-0.268379 6:-0.147836 7:0.105915 8:-0.423393 9:-0.118314 10:-0.142892 11:0.210987 12:0.197331 13:0.155302 14:0.295145 15:0.500716 16:-0.346701 17:0.346137 18:-0.480553 
6.177911594539388 0 0 2.06527307940198 0 0 1.584769977452023 1:-0.403827 2:-0.00389303 3:-0.267341 4:-0.144081 5:0.0951819 6:-0.122513 7:0.106729 8:-0.138472 9:-0.372011 10:0.0260156 11:0.285355 12:0.321051 13:-0.208999 14:0.324294 15:0.534002 16:-0.235069 17:0.239348 18:-0.545015 
0.2601968285841875 0.88788313567634 0 0 0 0 0 1:-0.344235 2:0.175819 3:-0.0269814 4:-0.163291 5:-0.191032 6:-0.618623 7:0.857067 8:-0.254388 9:-0.283986 10:-0.126392 11:-0.163639 12:0.261998 13:0.15008 14:0.587204 15:0.566433 16:-0.167921 17:0.299556 18:-0.4554 
3.269712846018486 0.9423245269237237 0.8051569044812648 0 1.591824884282915 0.8265324606538158 1.254583979718118 1:-0.0273421 2:-0.382683 3:-0.314996 4:0.0242978 5:0.210713 6:-0.177885 7:0.349622 8:-0.550497 9:0.233108 10:-0.374072 11:-0.158934 12:0.474692 13:0.0358087 14:0.318437 15:0.523164 16:-0.245105 17:0.466681 18:-0.462678 
1.369707854474845 0 0 1.706394467705747 0 0 2.677194076864411 1:-0.238775 2:-0.0312663 3:-0.111638 4:-0.427073 5:0.198919 6:-0.497991 7:0.153687 8:-0.288825 9:-0.0231594 10:-0.410686 11:0.220884 12:0.391438 13:0.000623116 14:0.372481 15:0.48327 16:-0.275497 17:0.324545 18:-0.521061 
0 0 0 0.006964183354535908 0 3.310256379850469 0.7719845133095089 1:-0.379135 2:-0.522609 3:0.177795 4:-0.15708 5:0.0800141 6:-0.409375 7:-0.224455 8:-0.567024 9:0.104877 10:0.110713 11:0.434417 12:0.438469 13:0.310283 14:-0.018197 15:0.477204 16:-0.529929 17:0.322068 18:-0.510015 
0.7827222162253334 0.600685271566009 0.2339406919812565 0 0.8400883406734704 0.8749734707004513 0.8109731836766499 1:-0.107613 2:-0.668817 3:-0.283839 4:0.0960334 5:0.415132 6:-0.354293 7:-0.103971 8:-0.273776 9:-0.0720836 10:0.200592 11:-0.370786 12:0.458038 13:0.0708875 14:0.291905 15:0.506125 16:-0.374176 17:0.286178 18:-0.604673 
9.914927954187888 0 2.929206492162368 1.155728308985861 0 0 2.435712674823121 1:-0.309573 2:-0.0372269 3:-0.199223 4:-0.439102 5:-0.000843393 6:-0.104724 7:-0.289903 8:-0.427032 9:-0.0604235 10:-0.367574 11:0.132101 12:0.274561 13:0.269886 14:0.224651 15:0.444813 16:-0.37073 17:0.298327 18:-0.535866 
1.672246414417907 2.367346906438435 0.5139835282029963 0 1.298143993297569 1.686314851372135 0 1:-0.140706 2:0.41973 3:0.134048 4:0.270209 5:0.403792 6:-0.10265 7:-0.364945 8:-0.384082 9:-0.299965 10:-0.36462 11:0.199179 12:0.347867 13:0.3823 14:0.124294 15:0.540067 16:-0.549382 17:0.301753 18:-0.478255 
0 1.001950788230051 0 0 1.490635462957211 1.581123656957398 0 1:-0.157341 2:-0.0967242 3:0.107054 4:-0.211024 5:0.157135 6:-0.359401 7:0.18654 8:-0.788333 9:0.0187288 10:-0.260194 11:0.470124 12:0.370195 13:0.119944 14:0.443611 15:0.510839 16:-0.184542 17:0.546707 18:-0.465578 
0 0.378482586584885 0.102954875597857 0 0.2452720346658677 0 0.2843494831504033 1:-0.361899 2:0.042845 3:-0.191357 4:-0.118967 5:0.44178 6:-0.223506 7:-0.233218 8:-0.0714901 9:-0.0605361 10:-0.0440788 11:0.162881 12:0.623537 13:0.365607 14:0.204387 15:0.53784 16:-0.449125 17:0.13335 18:-0.478516 
6.172936949433775 1.319351944824256 0 0.777136827983263 0 0 0 1:-0.581676 2:0.360999 3:-0.269747 4:-0.292714 5:0.00581132 6:-0.428843 7:-0.0911338 8:-0.320522 9:-0.399045 10:-0.0481766 11:0.337379 12:0.263442 13:0.060857 14:0.236809 15:0.435483 16:-0.206118 17:0.0568459 18:-0.395508 
9.344163770673132 0 0 0 8.539655596152082 0.4862214721656278 0.4661376732307995 1:-0.266917 2:0.263218 3:-0.216813 4:0.044861 5:0.096881 6:-0.271002 7:-0.174921 8:-0.12603 9:-0.425271 10:-0.101787 11:0.478847 12:0.434337 13:0.270443 14:0.419963 15:0.483595 16:-0.366849 17:0.128648 18:-0.460297 
32.56900466845202 0.8432299389677547 1.809273464790713 0 1.824368809351745 0 2.799168776273224 1:-0.21079 2:0.215311 3:-0.140833 4:0.049075 5:-0.421593 6:-0.234387 7:-0.208324 8:-0.43435 9:-0.196414 10:-0.276648 11:0.452818 12:0.397637 13:0.0375913 14:0.270498 15:0.537654 16:-0.314217 17:0.233075 18:-0.559551 
6.239485885962974 0.9353361180946075 0 0 0 0 1.390819368555885 1:-0.244683 2:0.35872 3:-0.477755 4:-0.344863 5:0.166278 6:-0.0891091 7:-0.0525373 8:-0.293977 9:-0.560315 10:-0.36584 11:0.476196 12:0.547061 13:0.241193 14:0.138793 15:0.533151 16:-0.37208 17:0.341338 18:-0.501239 
0 0 0 0.08757221180693896 1.73946390730902 0.1565811342525106 2.055176096451278 1:-0.246995 2:-0.311362 3:0.0491437 4:-0.0333922 5:0.329505 6:-0.475658 7:0.339559 8:-0.00611417 9:-0.338517 10:-0.066912 11:0.595783 12:0.43247 13:0.163783 14:0.33346 15:0.506707 16:-0.461836 17:0.362837 18:-0.549109 
0.2965887758180274 0 0.2059705891494386 0 0.0535999718173035 0.3940631508128587 0 1:-0.0768112 2:-0.501524 3:0.0429176 4:-0.0513972 5:0.153217 6:-0.700977 7:0.128998 8:-0.416507 9:-0.314618 10:-0.099465 11:-0.315264 12:0.664156 13:0.258034 14:0.385419 15:0.617502 16:-0.295492 17:0.330956 18:-0.560193 
0 1.697999509289915 0 0 0 0 0 1:-0.283795 2:0.249893 3:-0.282117 4:0.303542 5:0.291922 6:-0.362111 7:0.0900258 8:-0.519599 9:0.041082 10:-0.0273259 11:0.344423 12:0.305599 13:0.198714 14:0.346089 15:0.557703 16:-0.391392 17:0.322721 18:-0.532629 
0 0 0 0 0 0 1.613948579055638 1:-0.707328 2:0.30661 3:-0.426867 4:-0.0350013 5:0.533109 6:-0.670698 7:0.247245 8:0.12119 9:-0.373822 10:-0.0624003 11:0.25779 12:0.187894 13:0.309788 14:0.312029 15:0.582703 16:-0.256723 17:0.430934 18:-0.519676 
0 0 1.920607905734394 0 0 0 0 1:-0.383832 2:0.375919 3:-0.0421369 4:-0.0201374 5:0.492293 6:-0.356708 7:-0.03706 8:-0.529104 9:-0.0613703 10:-0.224629 11:0.383911 12:0.208991 13:-0.0947383 14:0.397787 15:0.488015 16:-0.2903 17:0.232624 18:-0.542705 
0.5531714494346843 0.4149200113886845 0.03485020917727531 0 1.265638307445391 1.084076933806463 0.3751164822528374 1:-0.212635 2:-0.242171 3:-0.0231164 4:0.0503714 5:0.118465 6:-0.69622 7:0.463454 8:-0.643217 9:-0.0420856 10:-0.286645 11:0.912856 12:0.354286 13:-0.299344 14:0.181352 15:0.420603 16:-0.555634 17:0.262323 18:-0.437473 
1.612204269656163 0.6834883646904041 0.03285401342987912 0 3.012092846639571 1.393372801892723 0.8253396142094376 1:-0.170764 2:0.126553 3:-0.369521 4:0.262173 5:-0.165789 6:-0.496311 7:-0.132883 8:-0.435374 9:-0.258842 10:0.0343955 11:0.237465 12:0.461696 13:-0.00741891 14:0.25465 15:0.50522 16:-0.390504 17:0.396255 18:-0.576441 
1.019716639478635 6.316765515781448 0 0 2.551055980091446 0.3641713245277542 0 1:-0.788028 2:0.450384 3:-0.0913332 4:-0.265521 5:0.33594 6:-0.622475 7:-0.352307 8:-0.484035 9:-0.23995 10:-0.00602026 11:0.459629 12:0.338372 13:0.0191044 14:0.313793 15:0.497134 16:-0.458322 17:0.0548513 18:-0.496931 
0 0 2.234826766751248 3.79921277273499 0.3562101809163366 0 1.275586147611628 1:-0.304458 2:0.331953 3:-0.170419 4:-0.207542 5:-0.478682 6:-0.10138 7:0.157393 8:-0.3809 9:-0.0342159 10:-0.0955712 11:0.268666 12:0.15887 13:0.0423265 14:0.284758 15:0.515619 16:-0.277041 17:0.331188 18:-0.543133 
1.664315370704739 0 0 0 0 0 0.7671884030899081 1:-0.635894 2:0.180726 3:-0.197418 4:0.00609277 5:0.100203 6:-0.392 7:0.235763 8:-0.206227 9:-0.147619 10:-0.200443 11:0.24124 12:0.37792 13:0.13258 14:0.0239914 15:0.547456 16:-0.57888 17:0.0953458 18:-0.5278 
7.772199715722589 5.845651810132929 0 0 0 0 3.019185550924537 1:-0.565025 2:0.146053 3:-0.0218842 4:0.0697859 5:-0.223886 6:-0.348009 7:-0.316964 8:-0.198491 9:-0.410854 10:-0.26361 11:0.358769 12:0.46133 13:0.130228 14:0.300683 15:0.55852 16:-0.443765 17:0.271196 18:-0.435374 
7.177945771846067 0.2989996219303443 0 0.8426747732154419 4.625960667587337 2.445461401939736 1.64767593555019 1:0.0983737 2:-0.16834 3:0.0745373 4:-0.58419 5:0.208788 6:-0.526267 7:-0.134743 8:-0.213726 9:-0.170997 10:-0.117165 11:0.43566 12:0.294096 13:0.159161 14:0.273486 15:0.534876 16:-0.452858 17:0.352063 18:-0.526716 
8.768403588309072 6.709998141141773 0 0 0 0 0 1:-0.420066 2:-0.0644333 3:-0.23161 4:0.0705408 5:-0.0341437 6:-0.193836 7:-0.21534 8:-0.424311 9:-0.157081 10:0.0199544 11:0.56178 12:0.269275 13:0.238402 14:0.105336 15:0.578184 16:-0.419793 17:0.296704 18:-0.451543 
0 0 0 0 3.826424995294077 0 5.788410880030746 1:-0.494842 2:-0.129717 3:-0.167821 4:0.104512 5:0.155887 6:-0.379054 7:-0.292834 8:-0.171395 9:-0.338965 10:-0.0849329 11:0.204597 12:0.473517 13:-0.0224607 14:0.270562 15:0.546738 16:-0.411455 17:0.132926 18:-0.508795 
5.884993049643145 3.570461852858678 0.1387911124147443 0 0 0.3290225433181649 1.541532168497644 1:-0.697473 2:0.0586077 3:-0.0245988 4:-0.20209 5:-0.124124 6:-0.15765 7:-0.376603 8:-0.430407 9:-0.314989 10:0.170179 11:0.219 12:0.460195 13:0.193098 14:0.204779 15:0.495088 16:-0.526334 17:0.251569 18:-0.42192 
1.81052011675592 0 0 0 0.3155093955414734 0 0 1:-0.211859 2:-0.000684924 3:-0.170361 4:-0.425042 5:0.0573346 6:-0.409882 7:0.658554 8:-0.400941 9:-0.527582 10:-0.218238 11:0.284178 12:0.369541 13:-0.252391 14:0.539432 15:0.486631 16:-0.262867 17:0.450373 18:-0.615345 
0.4834918869782773 0.1049835702808423 0.243132404930556 0.1413294416972654 0 0.6769653560410335 0.12339701451271 1:-0.275835 2:-0.117835 3:-0.188366 4:-0.349212 5:0.370953 6:-0.536607 7:-0.0176516 8:-0.365429 9:-0.228699 10:-0.368979 11:0.467301 12:0.228009 13:-0.399745 14:0.429485 15:0.394258 16:-0.442945 17:0.0343007 18:-0.522009 
10.94112426002122 7.394948948989374 0 0 0 0 3.167233722616928 1:-0.542016 2:0.242529 3:-0.146967 4:0.0223974 5:-0.351868 6:-0.248271 7:0.125583 8:-0.335454 9:-0.318586 10:-0.419603 11:0.22478 12:0.378862 13:0.0880633 14:0.211279 15:0.459073 16:-0.325702 17:0.262548 18:-0.386072 
1.736753852474418 0.5834295121399761 0 0 0 0 1.578028617763264 1:-0.364672 2:0.255143 3:-0.34665 4:0.226842 5:-0.0328707 6:-0.320293 7:0.152889 8:0.0274797 9:-0.303167 10:-0.0402717 11:0.178055 12:0.466721 13:0.406216 14:0.0505884 15:0.658138 16:-0.369133 17:0.56893 18:-0.521499 
0 0 0 1.118401801465268 0 0 0 1:-0.547978 2:0.184586 3:-0.345139 4:-0.130589 5:0.157248 6:-0.415906 7:0.0293989 8:-0.296493 9:-0.582972 10:-0.127051 11:0.46525 12:0.132626 13:-0.0919575 14:0.44582 15:0.540736 16:-0.408484 17:0.42221 18:-0.447747 
0.7035156178805042 0.05995101041837718 0.009471694934585835 0 0.3169564186731226 0.9059708793321809 0.2251850540569591 1:-0.104753 2:0.272695 3:-0.400416 4:0.0771417 5:0.340162 6:-0.33877 7:-1 8:-0.219072 9:0.172684 10:0.0749353 11:0.433137 12:0.0827623 13:0.24108 14:-0.140505 15:0.606739 16:-0.510959 17:0.29024 18:-0.560721 
1.025484570434009 0 0 0 0 0 0.5838760784734126 1:-0.565213 2:0.323715 3:-0.23864 4:0.104786 5:0.0887619 6:-0.695405 7:0.0909023 8:0.217305 9:-0.0662494 10:0.0237142 11:0.222165 12:0.0987443 13:0.16866 14:0.0942477 15:0.603525 16:-0.423399 17:0.252061 18:-0.64498 
2.794480936561401 1.690549911862399 0 0 0.5574373915390441 0.4452439820131823 0 1:-0.357034 2:-0.0533666 3:0.0428774 4:-0.0948308 5:0.234064 6:-0.730012 7:0.0253575 8:-0.371569 9:0.113724 10:0.0515001 11:0.41337 12:0.451069 13:0.216066 14:0.398861 15:0.481335 16:-0.447847 17:0.271751 18:-0.495901 
0 0 0 0 1.034971596053799 0 0 1:-0.422459 2:-0.0342777 3:-0.289689 4:0.251819 5:0.266983 6:-0.313893 7:-0.0680393 8:-0.279753 9:-0.320781 10:-0.137548 11:0.755248 12:0.384278 13:0.134673 14:0.175991 15:0.62029 16:-0.36976 17:0.252342 18:-0.57145 
11.02528109372743 0 0 1.596137243015335 0 0.03154786027578697 1.448997368785187 1:-0.157091 2:0.0651381 3:-0.0595065 4:-0.472574 5:-0.170087 6:-0.416652 7:-0.377326 8:-0.369613 9:-0.188207 10:-0.170324 11:0.353416 12:0.395648 13:0.197937 14:0.201343 15:0.435294 16:-0.327626 17:0.335114 18:-0.600844 
9.407255068754546 2.482377969797772 2.605332697883229 1.859056835840233 2.968314447613495 0 4.295177797564581 1:-0.351279 2:0.275521 3:-0.324344 4:-0.218335 5:0.325302 6:-0.377853 7:0.166544 8:-0.325781 9:0.400421 10:-0.139035 11:0.493424 12:0.267638 13:0.456884 14:0.398925 15:0.553773 16:-0.364921 17:0.332043 18:-0.441821 
0.884838675509789 0.1827178324266239 0 0 0.04408279570572761 0.2767567359392666 1.393361013802424 1:-0.41099 2:0.35955 3:-0.307681 4:-0.260722 5:0.352526 6:-0.44662 7:0.397621 8:-0.123626 9:0.259072 10:-0.130224 11:0.511062 12:0.23094 13:0.659932 14:0.281073 15:0.596902 16:-0.34758 17:0.235704 18:-0.502358 
0.08910131755317093 1.186070142125225 0 0 0.4149843940413658 0.4150337295541078 0.3082165200141602 1:-0.0840919 2:-0.0914468 3:0.479209 4:0.150283 5:0.381019 6:-0.419467 7:0.261923 8:-0.0524282 9:-0.173395 10:-0.410528 11:0.290475 12:0.263909 13:0.162334 14:0.0460889 15:0.569864 16:-0.596508 17:0.482033 18:-0.673014 
0.868930508090999 0 0 0 0 0 5.527819085831155 1:-0.453941 2:-0.23743 3:-0.0630818 4:0.168423 5:0.207445 6:-0.561375 7:0.178527 8:-0.313359 9:0.00131323 10:0.161407 11:0.350492 12:0.424692 13:0.104324 14:0.303766 15:0.45675 16:-0.43437 17:0.40209 18:-0.562743 
0 0 0 0 3.243787581609013 2.96601125081921 0 1:-0.0193219 2:0.378372 3:-0.523387 4:0.113122 5:-0.0493747 6:-0.311303 7:0.145061 8:-0.392477 9:-0.278387 10:-0.164895 11:0.382592 12:0.438564 13:0.116247 14:0.18935 15:0.534971 16:-0.508483 17:0.252687 18:-0.40477 
0 0 0 0 0.1926901260806038 0 0 1:-0.139807 2:-0.252197 3:-0.102779 4:-0.134642 5:0.296329 6:-0.410657 7:0.592006 8:-0.0780808 9:-0.0655154 10:-0.152002 11:0.217129 12:0.471964 13:-0.0120472 14:0.240496 15:0.585803 16:-0.37149 17:0.479945 18:-0.536782 
0.2340167599518127 0 0 0 0 0 0 1:-0.91966 2:-0.100132 3:-0.144721 4:0.0694907 5:0.257588 6:-0.522709 7:-0.0883512 8:-0.23284 9:-0.309414 10:0.0545252 11:0.196866 12:0.0428174 13:0.269763 14:0.272167 15:0.450274 16:-0.278889 17:0.119017 18:-0.445585 
1.397191041336656 0.3694854344123167 0.7653671220600895 0.08106146366284787 0.7856942151774903 1.066207476309402 0.5550558283847649 1:0.0848159 2:-0.166517 3:-0.0129975 4:-0.238615 5:0.665714 6:-0.329104 7:-0.450297 8:0.0318111 9:-0.281863 10:-0.122095 11:-0.246778 12:0.354437 13:0.0871921 14:0.704512 15:0.542742 16:-0.174915 17:0.483757 18:-0.422064 
1.112998585279918 0 0 0 0 0.04377297626468907 0 1:-0.30978 2:0.140126 3:-0.283079 4:0.125432 5:-0.211439 6:-0.25799 7:-0.103401 8:-0.444389 9:-0.149803 10:-0.654971 11:0.26733 12:0.507903 13:-0.121453 14:0.274461 15:0.513136 16:-0.255115 17:0.385598 18:-0.547376 
0 1.882520727059817 1.473129942209474 0 0 0 0 1:-0.300549 2:-0.181641 3:0.489302 4:-0.345011 5:0.572224 6:-0.320266 7:-0.138712 8:-0.455408 9:-0.0977637 10:0.109475 11:0.131243 12:0.419971 13:0.161927 14:0.322385 15:0.493366 16:-0.434357 17:0.250979 18:-0.406692 
0 0 0 0 1.369942303766781 0 0.9641711249283869 1:-0.595706 2:-0.0054661 3:-0.173537 4:0.0418462 5:0.331746 6:-0.340638 7:-0.105661 8:-0.381612 9:-0.472031 10:0.161684 11:0.409358 12:0.274374 13:-0.0748223 14:0.476201 15:0.540975 16:-0.404026 17:0.318058 18:-0.473699 
0 4.653268776181803 0 0 0.0329257833498947 0.4476953918067546 0 1:-0.792558 2:0.410497 3:-0.00571407 4:-0.00199611 5:0.059987 6:-0.645075 7:-0.356004 8:-0.43442 9:-0.30309 10:0.0346128 11:0.239751 12:0.387817 13:0.0990679 14:0.423136 15:0.514169 16:-0.391208 17:0.027195 18:-0.521748 
0 3.917568266927006 3.287573795937574 0 0 0 0 1:-0.296771 2:-0.0342696 3:-0.258708 4:-0.0567369 5:0.0359647 6:-0.0957414 7:0.140356 8:-0.24625 9:-0.179528 10:-0.0623943 11:0.596023 12:0.271823 13:0.0912739 14:0.374942 15:0.475595 16:-0.559629 17:0.109635 18:-0.470234 
0 0 0 0 1.258241836181041 0 0.6087376896494636 1:-0.620247 2:0.269661 3:-0.235334 4:-0.145564 5:0.15991 6:-0.59186 7:-0.0736148 8:-0.557635 9:-0.0791442 10:0.168816 11:0.38477 12:0.389789 13:0.297789 14:0.238868 15:0.439982 16:-0.344969 17:0.216336 18:-0.534389 
0 1.255415997686208 0 0.3381252205394603 0 0 1.156228663160119 1:-0.335685 2:-0.476998 3:0.284051 4:-0.0554045 5:0.0711243 6:-0.360112 7:0.315635 8:0.0804106 9:-0.149352 10:0.0881108 11:0.429373 12:0.454519 13:-0.103729 14:0.222777 15:0.562771 16:-0.435001 17:0.334191 18:-0.403279 
0 7.404609073510779 0 0 0 0.4514379475458378 0 1:-0.731141 2:0.469968 3:-0.0595201 4:-0.0937638 5:0.349796 6:-0.601782 7:-0.110131 8:-0.42351 9:-0.274258 10:0.0711127 11:0.399067 12:0.50479 13:0.27231 14:0.256426 15:0.524367 16:-0.533457 17:0.263974 18:-0.43781 
2.426554124854313 0.4224102257925829 0 0.6849079189173946 0 0 2.315242355943234 1:-0.257613 2:0.041704 3:0.0873932 4:-0.128733 5:-0.427786 6:-0.544366 7:-0.162562 8:-0.016125 9:-0.223722 10:-0.0130617 11:0.316958 12:-0.0487791 13:0.337628 14:0.399836 15:0.397802 16:-0.39819 17:0.143377 18:-0.573012 
0 0.1136808127505579 0.2282951043569975 0 0.3086529137691555 2.061750638137681 0 1:-0.280231 2:0.321079 3:-0.124035 4:0.363022 5:0.267308 6:-0.113581 7:-0.675505 8:0.220933 9:-0.380495 10:-0.153381 11:0.31768 12:0.220269 13:-0.0747638 14:0.186584 15:0.536048 16:-0.422628 17:0.202515 18:-0.507971 
4.143116697177523 0.6172783883445441 0 0 0 0 0 1:-0.182075 2:0.291313 3:-0.206686 4:-0.517145 5:-0.109635 6:-0.209913 7:-0.11347 8:-0.402103 9:-0.0943925 10:-0.643481 11:0.265136 12:0.323091 13:0.119169 14:0.450564 15:0.570563 16:-0.163834 17:0.188808 18:-0.469982 
0 0 0 0 0.2659991614538742 0.1638950671952299 0.5899584333676513 1:-0.478029 2:0.307589 3:-0.178892 4:0.337386 5:0.0602919 6:-0.261343 7:0.597996 8:-0.427636 9:-0.282952 10:8.70492e-05 11:0.768374 12:0.300342 13:-0.253653 14:0.236683 15:0.64544 16:-0.193287 17:0.249239 18:-0.261734 
33.6120741381779 0 0 0 0 0 16.77246531989846 1:-0.493786 2:0.291497 3:-0.389462 4:-0.163498 5:0.177237 6:-0.327878 7:0.0217343 8:-0.368519 9:-0.214391 10:-0.00557212 11:0.293542 12:0.394745 13:0.0962489 14:0.32365 15:0.461242 16:-0.432709 17:0.252461 18:-0.433718 
1.324021420275122 2.160203999361793 1.10304649881532 0 0 0 1.11675618841397 1:-0.0425577 2:0.267853 3:-0.0726241 4:-0.232504 5:-0.187161 6:-0.341859 7:-0.277733 8:-0.133393 9:-0.0647718 10:-0.0784227 11:0.582003 12:0.407545 13:0.269847 14:0.0221494 15:0.589997 16:-0.23354 17:0.210397 18:-0.526688 
0.6592124032247649 0.1269864968487647 0 0.07481173278585861 0.2243936888827125 0.4984705944157106 0.2090735398984339 1:-0.78314 2:0.432426 3:-0.595905 4:0.165751 5:0.668499 6:-0.613408 7:0.307752 8:0.163345 9:-0.00237655 10:-0.126039 11:0.0458961 12:0.190009 13:0.086949 14:0.680295 15:0.4828 16:-0.183437 17:0.450852 18:-0.423443 
2.71972056010392 2.887577050207631 0.919083998864706 0 0 0.2613881188571694 1.544080307975858 1:-0.676804 2:-0.272396 3:0.0276875 4:0.00960817 5:0.166266 6:-0.361307 7:-0.0305055 8:-0.360357 9:-0.0460332 10:0.103874 11:-0.110666 12:0.493098 13:0.358766 14:0.337547 15:0.480198 16:-0.407497 17:0.304756 18:-0.317559 
35.33725287145523 8.186280881449674 0 0 0 0 7.091063944279569 1:-0.344606 2:0.11561 3:-0.457188 4:-0.21972 5:0.178986 6:-0.19377 7:-0.0350693 8:-0.386932 9:-0.466629 10:-0.221178 11:0.318135 12:0.305571 13:0.0891507 14:0.364506 15:0.594314 16:-0.317497 17:0.274754 18:-0.537706 
0.3251304512458587 0 0 0 0 0.5020484498123402 0.7604449272084637 1:-0.364784 2:0.396203 3:0.0577573 4:0.130919 5:0.347943 6:-0.31614 7:0.0007247 8:-0.515008 9:-0.268066 10:-0.257219 11:0.373916 12:0.168678 13:0.0862798 14:0.51988 15:0.520118 16:-0.206866 17:0.223076 18:-0.47455 
7.357243615029753 0 0 0 0 0 0 1:-0.43794 2:0.155604 3:-0.332838 4:-0.0451015 5:0.0563736 6:-0.288049 7:0.0447806 8:-0.411654 9:-0.15941 10:-0.40312 11:0.38415 12:0.409679 13:0.0441134 14:0.170599 15:0.525331 16:-0.381539 17:0.373518 18:-0.602984 
0 0.0352441090282643 0 0 0 0 0 1:-0.509103 2:-0.0981684 3:-0.502162 4:0.413333 5:0.281554 6:-0.121354 7:0.0395149 8:0.0216977 9:-0.288797 10:-0.100173 11:0.193401 12:0.22457 13:0.172198 14:0.110365 15:0.664958 16:-0.386691 17:0.537226 18:-0.556333 
1.384603118410521 0.7308163419072879 0 0 0.6162888337564472 1.289870627105556 0.410516429215925 1:-0.409277 2:0.169272 3:-0.199184 4:-0.360383 5:0.532255 6:-0.986901 7:-0.382058 8:-0.683149 9:0.334104 10:0.0635868 11:0.243641 12:0.298334 13:0.279486 14:0.572249 15:0.509629 16:-0.327585 17:0.318375 18:-0.417148 
0 0.2776327385285785 0 0 0 0 0 1:-0.477324 2:-0.090132 3:-0.430039 4:0.294143 5:0.221805 6:-0.127012 7:-0.0221103 8:0.0304234 9:-0.293869 10:-0.0969314 11:0.259408 12:0.190209 13:0.571606 14:0.0919399 15:0.65459 16:-0.396093 17:0.350211 18:-0.504925 
0.6096549357716829 1.166487213199809 0.476046106069762 0.02204424461699471 0.4482010124562051 0.4789183047133049 0.2080569333923414 1:-0.151175 2:-0.0081634 3:0.267431 4:-0.243552 5:0.905705 6:-0.309964 7:0.252789 8:-0.0757976 9:-0.00124482 10:-0.413567 11:0.227735 12:0.175378 13:0.598439 14:0.419004 15:0.615009 16:-0.384338 17:0.316436 18:-0.392353 
0 0 0 0.03781376948657181 1.300424429862477 0.1820769740297312 0 1:-0.237347 2:-0.0778811 3:-0.0298612 4:-0.324883 5:0.266117 6:-0.748964 7:0.347324 8:-0.328272 9:-0.378891 10:0.104957 11:0.543259 12:0.440596 13:0.18369 14:0.162358 15:0.595909 16:-0.3844 17:0.382261 18:-0.613355 
0 0.9201063846491846 0 0 0 0 2.812363129182449 1:-0.614104 2:0.406331 3:-0.353761 4:-0.0655761 5:0.226309 6:-0.362305 7:0.138189 8:0.144075 9:-0.332692 10:-0.228208 11:0.00302003 12:0.433236 13:0.400683 14:0.190887 15:0.743702 16:-0.208959 17:0.538228 18:-0.445234 
0 0 0 0 0 1.296306271713616 0 1:-0.374151 2:-0.0354908 3:-0.096566 4:0.146933 5:0.0786802 6:-0.444111 7:-0.35304 8:-0.0984704 9:-0.169815 10:-0.0687408 11:0.248941 12:0.363083 13:0.303372 14:0.19908 15:0.614721 16:-0.380063 17:0.0910614 18:-0.553667 
0 0 0 0 0.5937040129049788 0.5701270052806101 0 1:-0.223416 2:0.159926 3:-0.404491 4:0.466799 5:0.0963076 6:-0.433896 7:-0.314802 8:0.198896 9:0.0408596 10:-0.100786 11:0.552112 12:0.352412 13:0.028493 14:0.19148 15:0.37934 16:-0.571463 17:-0.0174094 18:-0.522205 
0 0 0 0 3.955231535684795 0 0 1:-0.379975 2:0.183508 3:-0.268332 4:0.00446391 5:0.0880842 6:-0.196441 7:0.0186834 8:-0.10489 9:-0.028494 10:-0.326168 11:0.409886 12:0.361264 13:0.0248915 14:0.272364 15:0.567381 16:-0.427252 17:0.288753 18:-0.539831 
-0 0 0 0 0 1.499077319917294 0 1:0.112918 2:-0.00714664 3:-0.0250323 4:-0.537429 5:-0.0434244 6:-0.492754 7:-0.188882 8:-0.361306 9:-0.101043 10:-0.76236 11:0.193767 12:0.448372 13:-0.0809352 14:0.167738 15:0.539821 16:-0.536627 17:0.449005 18:-0.2777 
-0 0.004672481003647387 0 0 0 0 0 1:0.0417477 2:-0.11275 3:-0.367567 4:0.239242 5:-0.0480414 6:-0.703815 7:-0.590846 8:-0.527608 9:-0.387583 10:0.573937 11:0.328496 12:0.563342 13:0.267634 14:0.304412 15:0.397271 16:-0.453559 17:0.360915 18:-0.32393 
-0 0 0 0 0 0 5.593947699162874 1:-0.310693 2:-0.468869 3:-0.160838 4:-0.0879686 5:0.199442 6:-0.246564 7:-0.0765494 8:-0.366969 9:-0.419893 10:0.159713 11:0.227093 12:0.230212 13:0.0744963 14:0.349677 15:0.461401 16:-0.438086 17:0.285137 18:-0.457382 
-1.844351484822257 0 0 0 0 0 0 1:-0.481985 2:0.418337 3:-0.149353 4:-0.460183 5:-0.12003 6:-0.249205 7:-0.0758728 8:-0.509947 9:-0.0423493 10:-0.40264 11:0.311353 12:0.351948 13:0.0425139 14:0.371045 15:0.535264 16:-0.382547 17:0.217964 18:-0.475564 
-0 0 0 0 3.206043866477006 0 0 1:0.0684919 2:0.0932417 3:-0.24903 4:0.0135204 5:-0.134967 6:-0.347334 7:-0.139566 8:-0.587771 9:-0.156245 10:-0.174758 11:0.598118 12:0.471506 13:0.353006 14:0.333969 15:0.506617 16:-0.446121 17:0.393308 18:-0.472277 
-0 0 0 0 2.143048292558815 0 0 1:-0.369436 2:0.0081436 3:-0.251193 4:-0.141417 5:0.26572 6:-0.21049 7:0.0477741 8:-0.381639 9:-0.440249 10:-0.102862 11:0.586029 12:0.27611 13:0.0678804 14:0.32699 15:0.562052 16:-0.352294 17:0.279718 18:-0.524997 
-0 0 0 0 0.2765625295451842 2.086065373061263 5.642167001261733 1:-0.147203 2:-0.441798 3:-0.0132519 4:0.0740825 5:0.0636104 6:-0.246121 7:-0.181088 8:-0.129098 9:-0.231039 10:-0.0410733 11:0.342792 12:0.450025 13:0.0699763 14:0.295367 15:0.549734 16:-0.40192 17:0.204688 18:-0.469291 
-0 0 2.600563646319798 0 0 0 0 1:-0.0718561 2:-0.183629 3:-0.0397326 4:-0.115456 5:-0.0969328 6:-0.0814566 7:0.0135952 8:-0.521073 9:0.159756 10:0.00976532 11:0.471147 12:0.205699 13:-0.0531624 14:0.126367 15:0.663128 16:-0.231488 17:0.184237 18:-0.451806 
-0 0 0 0 0 0 0.0196996279305277 1:-0.0304422 2:-0.0956334 3:-0.388614 4:0.085696 5:-0.0993179 6:-0.156312 7:0.0828256 8:-0.389319 9:-0.046999 10:-0.0317412 11:0.119738 12:0.151313 13:0.0537609 14:0.225587 15:0.508648 16:-0.400287 17:0.205727 18:-0.536357 
-0 0.9571084615444206 0 0 0 0 1.158460345969909 1:-0.274946 2:-0.100003 3:-0.127631 4:-0.0342171 5:-0.119734 6:-0.0827061 7:-0.243679 8:-0.238637 9:-0.132943 10:-0.324952 11:0.333471 12:0.570025 13:-0.0724342 14:0.263575 15:0.446527 16:-0.284739 17:0.259324 18:-0.284518 
-0 0 0 0 3.592035506148002 0 0 1:-0.351605 2:0.117863 3:-0.217971 4:0.117338 5:-0.0708769 6:-0.455469 7:0.170868 8:-0.424076 9:-0.174615 10:-0.0746241 11:0.573298 12:0.410899 13:0.420455 14:0.377344 15:0.476915 16:-0.350934 17:0.320609 18:-0.493041 
-0 0 0 0 0.4108598040335041 29.45508826327235 0 1:0.251055 2:0.29725 3:-0.192835 4:-0.0161997 5:0.0024331 6:-0.48709 7:0.0464299 8:-0.477164 9:-0.254685 10:-0.341208 11:0.362732 12:0.285128 13:0.151368 14:0.328368 15:0.54474 16:-0.537032 17:0.198126 18:-0.324355 
-0 0 0 0 13.95863825683431 0 0 1:-0.108832 2:0.258489 3:-0.366362 4:-0.179542 5:0.0546769 6:-0.364192 7:0.192598 8:-0.4902 9:-0.25616 10:-0.135687 11:0.429936 12:0.419727 13:-0.0248547 14:0.235 15:0.518093 16:-0.424325 17:0.389586 18:-0.528954 
-0 0 0 0.3372263958291848 0 0 14.42666597037237 1:-0.191015 2:-0.0465749 3:-0.2791 4:-0.187107 5:0.121994 6:-0.295751 7:0.104399 8:-0.248783 9:-0.161569 10:-0.174317 11:0.360497 12:0.223945 13:0.0182045 14:0.365279 15:0.446495 16:-0.442698 17:0.312781 18:-0.52558 
-5.553858028005843 0 0 0 0 0 0 1:-0.398052 2:-0.0853851 3:-0.375563 4:-0.0672274 5:0.237444 6:-0.242278 7:-0.0224862 8:-0.412483 9:-0.462695 10:-0.118629 11:0.525358 12:0.241284 13:0.0514495 14:0.279965 15:0.514618 16:-0.327925 17:0.304633 18:-0.522912 
-0.4085677560895807 0 0 0 0 0 0 1:0.163378 2:0.113979 3:-0.215754 4:-0.0130951 5:-0.394585 6:-0.335159 7:0.21374 8:-0.271401 9:-0.580178 10:-0.163152 11:0.0829558 12:0.308624 13:0.197839 14:0.388812 15:0.576543 16:-0.431986 17:0.334587 18:-0.440519 
-0 12.42808446730372 0 0 0 0 0 1:-0.375393 2:0.353691 3:-0.260018 4:-0.0447632 5:0.00356697 6:-0.30366 7:0.195877 8:-0.525014 9:-0.409494 10:-0.0638503 11:0.494818 12:0.271546 13:0.130196 14:0.282952 15:0.575463 16:-0.318547 17:0.330343 18:-0.479454 
-0 0 5.878820939925833 0 0 0 0 1:-0.282633 2:0.103397 3:-0.326543 4:-0.285087 5:0.19639 6:-0.0916465 7:0.017174 8:-0.392153 9:-0.168869 10:-0.164726 11:0.341284 12:0.354097 13:0.162508 14:0.374331 15:0.589429 16:-0.282286 17:0.320517 18:-0.520029 
-4.423084593602852 0 0.5235643063348894 0 0 0 0 1:-0.280905 2:-0.0870341 3:-0.0677781 4:0.0804717 5:-0.137222 6:-0.535726 7:-0.19108 8:-0.111307 9:-0.241554 10:-0.242031 11:0.197533 12:0.21831 13:-0.226843 14:0.333801 15:0.494611 16:-0.474711 17:0.276089 18:-0.635789 
-0 0 0 0 12.34126167611788 3.95993908252491 0 1:0.0473272 2:-0.115423 3:-0.177853 4:0.0856856 5:-0.05949 6:-0.312363 7:-0.0731551 8:-0.46046 9:0.00255637 10:-0.104512 11:0.344361 12:0.264373 13:-0.127843 14:0.236085 15:0.625953 16:-0.227687 17:0.257001 18:-0.426663 
-4.035548622044535 0 0 0 0 0 4.204652885395943 1:-0.712514 2:-0.0140633 3:-0.14664 4:-0.194179 5:0.129686 6:-0.267002 7:0.102874 8:-0.317234 9:-0.346101 10:-0.151878 11:0.075546 12:0.150229 13:0.0737782 14:0.0465565 15:0.527682 16:-0.465833 17:0.449353 18:-0.47528 
-0 0 0 0 0 0 2.234162513250947 1:-0.127305 2:0.108859 3:-0.121449 4:-0.249695 5:-0.25166 6:-0.21042 7:-0.0547007 8:-0.321936 9:-0.166886 10:-0.193682 11:0.603599 12:0.38548 13:0.0377025 14:0.3145 15:0.47527 16:-0.39472 17:0.258782 18:-0.504425 
-0 0 0 1.658544055582309 0 0 0 1:-0.000798437 2:-0.0723534 3:0.0721605 4:-0.355683 5:-0.545292 6:-0.178107 7:-0.0818472 8:-0.268633 9:-0.535448 10:0.156494 11:0.398138 12:0.280902 13:0.188951 14:0.213503 15:0.503224 16:-0.360768 17:0.318227 18:-0.478419 
-0 0 0 0.1072456381573628 0 0 0 1:-0.111701 2:0.0658088 3:-0.0450856 4:-0.132316 5:-0.00753128 6:-0.342931 7:0.0536623 8:-0.469642 9:-0.193338 10:0.0150786 11:0.446238 12:0.530781 13:0.403334 14:0.153125 15:0.567228 16:-0.486276 17:0.395844 18:-0.444615 
