svm_type c_svc
kernel_type rbf
gamma 0.5
nr_class 7
total_sv 190
rho -0.0999477 -0.383293 -0.508162 -0.43396 -0.299933 0.346425 -0.323101 -0.595527 -0.567348 -0.972502 0.320096 -0.478963 -0.169598 -0.448725 0.338431 -0.124519 -0.679149 0.476614 0.0349159 0.547133 0.800089
label 1 3 2 5 4 7 6
probA -2.70182 -2.65414 -2.81068 -3.70696 -3.83865 -3.92493 -3.83889 -2.4681 -4.13294 -3.66731 -3.02091 -2.84588 -3.98919 -3.77535 -4.27546 -2.83456 -3.34511 -3.302 -3.63495 -4.01707 -3.77079
probB 0.00757123 -0.0956233 0.317003 0.116023 -0.098038 -0.213644 0.101738 -0.235396 0.170509 -0.786478 0.26547 0.509989 -0.366039 0.0232177 0.00170616 0.0862524 -0.576898 -0.316549 -0.109297 0.178155 0.380688
nr_sv 26 26 26 30 28 27 27
SV
1.628484377910023 8 3.92543890871085 1.573985106295412 0.6889066323065547 0.64157771832792 1:0.554819 2:-0.253691 3:0.311728 4:0.0889178 5:0.27707 6:-0.378737 7:-0.299122 8:0.119798 9:0.102066 10:0.0863191 11:-0.297076 12:0.262025 13:0.000473779 14:0.363762 15:-0.095296 16:-0.380834 
0.8581525213431077 0.5941165046905796 0.4691878160278649 0.5420366622826782 0.6362038201086795 1.302234435970433 1:0.787937 2:-0.176439 3:-0.282929 4:0.662209 5:-1 6:0.887139 7:0.579947 8:0.0120833 9:0.527054 10:1 11:0.641094 12:-0.547914 13:-0.273921 14:-0.0189645 15:-0.089237 16:1 
3.654801968370326 4.202507399209031 2.408301972009529 0.6128743467616734 0.9567494495067524 0.6830569235134698 1:0.444116 2:-0.357391 3:-0.383249 4:0.0784222 5:0.0993666 6:-0.348015 7:-0.701691 8:0.3281 9:-0.0721549 10:-0.13628 11:0.123335 12:0.074807 13:0.411569 14:-0.125664 15:0.137254 16:-0.490887 
1.778411380170529 0 2.420314542124663 1.52701128105808 1.213624530632738 0.439777372901046 1:0.602456 2:-0.404348 3:0.196707 4:0.481769 5:0.221616 6:-0.587323 7:0.253757 8:-0.0301043 9:-0.0232391 10:-0.862114 11:-0.0302977 12:-0.549304 13:0.649641 14:0.416774 15:0.164442 16:-0.249895 
0 2.326135654786647 0.7026630156063199 2.31340813884042 1.192321543580512 0.515566048614914 1:0.658998 2:-0.343845 3:0.201763 4:0.501444 5:0.143249 6:-0.50124 7:-0.0968554 8:0.0526564 9:-0.167608 10:-0.755341 11:-0.107764 12:-0.48025 13:0.549126 14:0.611803 15:-0.0218467 16:-0.266729 
0.4501963948556019 0 0.3379978577911526 0 0.005075229941486114 0 1:0.606201 2:-0.357226 3:0.0935051 4:0.396027 5:0.468337 6:-0.471805 7:0.392005 8:0.0203771 9:-0.110577 10:-0.494785 11:0.00422931 12:-0.376596 13:0.122343 14:0.333898 15:0.120859 16:-0.483655 
3.355606957240451 4.925571756040519 1.141134594248373 0 0.1057021103819743 2.192538538876889 1:0.365091 2:0.0722214 3:0.238864 4:-0.165495 5:0.711268 6:-0.355411 7:0.00175865 8:0.124721 9:0.175473 10:-0.429469 11:-0.361193 12:-0.166263 13:0.131936 14:0.0844848 15:0.176743 16:-0.246386 
0 0 4.968960056824263 0.233439433862549 0 0 1:0.486325 2:0.0691383 3:0.247198 4:0.0222546 5:0.636792 6:-0.386844 7:0.121587 8:0.0128123 9:0.127148 10:-0.396765 11:-0.203091 12:0.166429 13:0.144852 14:0.183345 15:0.122235 16:-0.30162 
1.762247989317931 0.9513273274538422 4.076518387844339 1.286971529430114 5.015581855664217 0 1:0.543328 2:0.0586054 3:0.18759 4:0.0451089 5:0.58918 6:-0.359085 7:-0.0718221 8:-0.0400871 9:-0.128247 10:-0.390415 11:-0.00783194 12:0.171264 13:-0.0258448 14:0.0732558 15:0.167217 16:-0.231327 
4.373873470365369 5.670156028556175 0 0 1.19116032832123 1.182665990459468 1:0.165033 2:-0.608053 3:0.269327 4:-0.00536009 5:-0.0634321 6:-0.695405 7:0.0120906 8:-0.038597 9:0.017528 10:-0.201923 11:0.276403 12:-0.125522 13:-0.653289 14:-0.0890205 15:0.115958 16:-0.244348 
0.1881038284718549 1.124116031120804 1.343290369492261 1.590028585869424 2.693669239667798 0.7483146912541503 1:0.178793 2:-0.55027 3:0.292017 4:0.13857 5:0.00730702 6:-0.73547 7:0.17376 8:-0.0441895 9:0.145243 10:-0.319897 11:0.491788 12:-0.178876 13:-0.368478 14:0.0497601 15:0.0909667 16:-0.214177 
0 0 0 0 0.0262153702367441 0 1:0.198266 2:-0.563333 3:0.374623 4:-0.0570064 5:-0.073829 6:-0.669493 7:-0.00863218 8:-0.108301 9:-0.103549 10:-0.113347 11:0.345651 12:-0.0312728 13:-0.43659 14:-0.291849 15:0.107435 16:-0.308341 
0 0.111460919893842 0 1.012274147099352 1.078507394104027 0.763025383969167 1:0.973412 2:-0.183901 3:0.266632 4:0.191551 5:0.105433 6:-0.0115274 7:-0.0987985 8:-0.0442422 9:0.210788 10:-0.412974 11:0.626107 12:0.549526 13:-0.21013 14:0.0852182 15:-0.142386 16:-0.196128 
0 0.1433617732914896 0.1593713087745496 0.2171333342237796 0 0 1:0.946948 2:-0.220342 3:0.289231 4:0.044034 5:0.135379 6:-0.0727639 7:0.0193562 8:0.0828157 9:0.672625 10:-0.413288 11:0.566531 12:-0.0762076 13:0.520044 14:0.0498215 15:0.0445133 16:-0.229622 
0 3.418030477897933 0.5327457840981662 0.7765986472326489 0.03056388480199531 0.247614005661378 1:0.672041 2:-0.307501 3:0.885852 4:-0.00320379 5:0.425274 6:-0.328289 7:0.162731 8:0.0673664 9:0.809073 10:-0.244638 11:-0.254674 12:-0.532524 13:-0.250098 14:-0.327142 15:0.145579 16:-0.35913 
0.6468913845124031 0 0 0 0 0.3289950795488107 1:0.75098 2:-0.411248 3:0.74174 4:-0.211966 5:0.345554 6:0.0256279 7:0.00599027 8:0.103071 9:0.534052 10:-0.31863 11:-0.276328 12:-0.355111 13:-0.439341 14:-0.366433 15:0.201026 16:-0.54662 
2.528985945860252 2.084038373690139 4.027239159108586 1.959597018543216 0.7399668959324247 0.1544993718592729 1:0.217918 2:-0.491736 3:0.262619 4:0.0212068 5:0.190053 6:-0.655181 7:0.15508 8:-0.0120567 9:0.38712 10:-0.0797021 11:0.101 12:0.3572 13:0.332193 14:-0.730075 15:0.334068 16:-0.527762 
0.8669787494319753 1.439644880214826 0 0 0 0.6343935525616562 1:0.1329 2:-0.505566 3:0.455731 4:-0.0599955 5:0.170543 6:-0.687435 7:0.112519 8:0.0226501 9:0.306633 10:0.0824104 11:-0.1079 12:0.227655 13:0.0244378 14:-1 15:0.441209 16:-0.527105 
1.636607731339053 0.9023780609315616 0.5206729683906091 0 0 1.280337941742482 1:0.49571 2:-0.272878 3:0.233774 4:-0.0110878 5:0.487692 6:-0.179494 7:-0.205952 8:-0.0800969 9:-0.154995 10:0.221856 11:-0.397308 12:-0.390822 13:-0.415854 14:-0.368265 15:-0.143261 16:-0.458166 
0 0 0.550177078299639 1.648311018017546 2.272533680223864 0.4893935529099162 1:0.527362 2:-0.233483 3:0.242006 4:0.0384272 5:0.522477 6:-0.205083 7:-0.119769 8:-0.140891 9:-0.0529405 10:0.14428 11:-0.243116 12:-0.336671 13:-0.172633 14:-0.100553 15:-0.240071 16:-0.447177 
0 0 3.326767503174067 0.2732685259040635 0.1445834317688166 0 1:0.546738 2:-0.302882 3:0.340485 4:-0.0251598 5:0.507228 6:-0.20742 7:0.0724256 8:-0.118906 9:0.11929 10:0.281362 11:-0.193118 12:-0.401262 13:0.153597 14:-0.0429142 15:-0.182672 16:-0.447214 
3.315745214455891 2.759228724889331 0.05751265288259789 4.67149650841621 0 0 1:0.623753 2:-0.349414 3:-0.205604 4:0.277483 5:0.50306 6:-0.286988 7:-0.0728159 8:-0.180508 9:0.239251 10:-0.125445 11:-0.00569822 12:-0.512194 13:-0.44129 14:0.139668 15:0.224642 16:-0.606311 
0 0.4761933950094712 0 0 3.255705597173844 1.816315710941579 1:0.569368 2:-0.263122 3:-0.267267 4:0.201697 5:0.575601 6:-0.267791 7:-0.23172 8:-0.142849 9:0.0884279 10:-0.0727149 11:-0.0188861 12:-0.520327 13:-0.520431 14:0.234581 15:0.25116 16:-0.689062 
3.367686681607679 0 8 0 1.826646726720941 0 1:0.62204 2:-0.351273 3:-0.154084 4:0.234908 5:0.54127 6:-0.226451 7:-0.0912819 8:-0.175359 9:0.270687 10:-0.0852333 11:0.0928204 12:-0.606572 13:-0.317575 14:0.0654308 15:0.276016 16:-0.622743 
0.1921139451893599 0 0 0 0 0 1:0.840563 2:-0.460728 3:0.476516 4:-0.260745 5:0.198953 6:-0.0554108 7:0.276439 8:0.206157 9:0.671216 10:-0.290506 11:0.127517 12:-0.826422 13:0.381352 14:-0.538903 15:0.52841 16:-0.540121 
0 0 0 0.1169806195077774 0 0.3781209367081169 1:1 2:-0.318672 3:0.468202 4:-0.0498587 5:0.387963 6:-0.0670004 7:0.566052 8:0.254836 9:0.688547 10:0.0383113 11:0.18998 12:-0.537264 13:0.7237 14:-0.553896 15:0.386288 16:-0.701165 
-0 0 0 0 0 2.157633325166518 1:-0.141708 2:-0.616152 3:-0.163482 4:0.148824 5:0.334345 6:-0.296938 7:-0.762375 8:-0.288579 9:0.0321998 10:-0.069347 11:-0.417455 12:-0.0280053 13:0.146417 14:-0.181602 15:0.339058 16:-0.231187 
-0 2.491367255567405 0 0 0 0 1:0.0340767 2:-0.458598 3:-0.36822 4:0.264767 5:0.331717 6:-0.460421 7:-0.567018 8:-0.139477 9:0.372257 10:-0.164041 11:-0.203912 12:-0.0537772 13:0.295347 14:-0.498195 15:0.0608846 16:-0.313638 
-1.101232810793146 0.8727040283639993 0.491528389890869 0 0 1.909563101973156 1:0.421775 2:0.51098 3:-0.444253 4:-0.911197 5:-0.0755349 6:-0.80308 7:-0.657124 8:-0.664654 9:0.290753 10:-0.271432 11:-0.573367 12:-0.240349 13:-0.224786 14:-0.111125 15:0.877261 16:-0.00128135 
-1.268191639932182 0.7019317360615477 0.5490026472069672 0.4908165388914674 0.2801684139280795 1.518681861935304 1:0.489509 2:0.599244 3:0.0294976 4:-1 5:0.116036 6:-0.596148 7:-0.369162 8:-0.787627 9:0.393088 10:-0.273717 11:0.370852 12:-0.622681 13:0.888221 14:0.544693 15:-0.843687 16:-0.673226 
-0.9267685051572807 2.399821733833605 1.503871010050855 1.228952296021594 1.371404825755653 2.730435912131562 1:0.369586 2:-0.645757 3:0.179201 4:0.393185 5:0.283524 6:-0.511319 7:0.170222 8:-0.253778 9:-0.242684 10:-0.355189 11:-0.514854 12:-0.252626 13:-0.600428 14:0.0984457 15:0.316786 16:-0.302301 
-4.697469645003173 0.9364789103109638 8 4.823805170173296 5.082058729917708 0.7296451215265355 1:0.404539 2:-0.641015 3:0.155213 4:0.340062 5:0.373099 6:-0.42479 7:0.353119 8:-0.198552 9:-0.117183 10:-0.410734 11:-0.192535 12:-0.200452 13:-0.0513124 14:-0.116238 15:0.282453 16:-0.341657 
-0 0 0 1.810079547193859 2.262954196205708 1.718206521764629 1:0.112317 2:-0.030282 3:0.524213 4:0.312413 5:0.403566 6:-0.366255 7:-0.131088 8:-0.459896 9:0.149141 10:-0.213206 11:-0.251222 12:0.0405482 13:0.334894 14:-0.495798 15:0.171445 16:-0.420103 
-0 1.315744948103028 3.852590765764557 1.421576842497459 1.041999081723195 0 1:0.106235 2:0.32398 3:0.480071 4:0.455395 5:0.497744 6:-0.363188 7:-0.367679 8:-0.235527 9:0.212908 10:-0.123984 11:-0.277652 12:-0.0366795 13:0.252313 14:-0.202499 15:0.234411 16:-0.535952 
-1.668845657837031 0 0 0 0 0 1:0.115397 2:0.266561 3:0.500154 4:0.3623 5:0.507416 6:-0.297954 7:-0.450908 8:-0.169164 9:0.0281667 10:-0.141497 11:-0.165249 12:0.069753 13:0.667285 14:-0.379707 15:0.0165804 16:-0.593559 
-0 0 0 0 0 1.912670086852006 1:-0.131779 2:-0.320521 3:0.262633 4:0.0915554 5:-0.109644 6:-0.723073 7:0.160393 8:0.119348 9:0.256914 10:-0.282216 11:-0.230606 12:0.00529999 13:-0.393607 14:-0.0639534 15:0.189721 16:-0.489119 
-4.632243162404859 8 0 0 1.792345776564534 0 1:-0.103245 2:-0.309215 3:0.281157 4:0.0316435 5:-0.0932914 6:-0.686117 7:0.021942 8:0.135049 9:0.2159 10:-0.274363 11:-0.147673 12:0.0658749 13:-0.351148 14:0.013706 15:0.245975 16:-0.435756 
-0.554051812995408 6.265542723596153 3.50100060335928 0 0 0 1:-0.116733 2:-0.214211 3:0.278113 4:0.0655917 5:-0.0793245 6:-0.706636 7:0.146632 8:0.13575 9:0.287873 10:-0.28494 11:-0.241062 12:0.0953106 13:-0.0871767 14:-0.131945 15:0.170208 16:-0.452807 
-0 0 0.3703002337980448 0 0 0 1:0.257281 2:-0.445621 3:0.34971 4:0.236983 5:0.414272 6:-0.273115 7:-0.443928 8:-0.401055 9:0.442698 10:-0.233949 11:-0.25032 12:0.586995 13:0.462258 14:-0.417473 15:0.546337 16:-0.159047 
-0 0 0 1.715983425327037 0 0 1:0.385253 2:-0.291994 3:0.325172 4:0.255444 5:0.367175 6:-0.210821 7:-0.536138 8:-0.434759 9:0.340834 10:-0.353531 11:0.071859 12:0.536943 13:0.487949 14:-0.298752 15:0.510046 16:-0.0841054 
-0.9551393350113799 0.6682423621942765 0.8002786712224179 0.04500268621173649 0 0 1:0.239748 2:-0.372518 3:0.665995 4:0.567201 5:0.630728 6:-0.456468 7:-0.469229 8:-0.417958 9:0.596677 10:0.0151109 11:-0.0881835 12:0.480751 13:0.684786 14:-0.652486 15:0.685502 16:-0.122471 
-0 0 5.766911312402514 1.16881175800161 5.926888601662747 2.375363540111574 1:0.427911 2:-0.238324 3:0.705531 4:-0.00958909 5:0.381613 6:-0.0229157 7:-0.740185 8:0.116152 9:-0.0504627 10:-0.338105 11:-0.056512 12:0.120161 13:0.00568216 14:0.10133 15:0.205903 16:-0.296445 
-3.767439339388303 4.289565403324407 0.3427904914797332 0 0 0 1:0.444523 2:-0.346237 3:0.650474 4:-0.0719502 5:0.315717 6:-0.0462964 7:-0.671275 8:0.173476 9:-0.0609545 10:-0.369442 11:-0.0964693 12:0.145086 13:-0.052892 14:-0.022124 15:0.224401 16:-0.258938 
-0 0 3.184129337460299 1.016219519212451 1.650969017903796 0.6133766056985145 1:-0.256356 2:-0.116399 3:0.275248 4:0.358112 5:0.573088 6:-0.445571 7:-0.387064 8:-0.130472 9:-0.0344985 10:0.0464698 11:0.682109 12:-0.391801 13:-0.336797 14:-0.0414479 15:0.932337 16:-0.342826 
-1.756720307804449 0.4161611469254795 0.121727584050715 0.3505112494497822 1.235894565667734 1.465421702381994 1:-0.200426 2:0.0631924 3:0.0961853 4:0.26619 5:0.493284 6:-0.419173 7:-0.589632 8:-0.0238033 9:-0.257844 10:-0.0331638 11:0.740386 12:-0.526778 13:-0.447317 14:0.157133 15:0.827877 16:-0.401682 
-0 0 0.4591132441543243 5.000550672871511 0 0 1:0.239807 2:0.0468748 3:-0.23644 4:0.562938 5:0.372768 6:-0.251477 7:-0.302152 8:-0.269395 9:0.562244 10:-0.134987 11:-0.255668 12:0.19539 13:0.0641158 14:0.0688932 15:-0.160296 16:-0.505478 
-0.4310318434785851 1.394609675278608 0 2.201148897322224 0 0.4291120881923101 1:0.248296 2:0.113996 3:-0.230225 4:0.628377 5:0.364465 6:-0.321238 7:-0.334609 8:-0.290186 9:0.544202 10:-0.0379898 11:-0.463394 12:0.0619354 13:-0.266263 14:-0.00541987 15:-0.111919 16:-0.523467 
-0 0.9253672253735351 0 0 0 0 1:0.197285 2:0.0340398 3:-0.176268 4:0.59949 5:0.289048 6:-0.202644 7:-0.460753 8:-0.213846 9:0.506565 10:-0.0459949 11:-0.500436 12:0.0438042 13:0.131126 14:0.0410517 15:-0.0237034 16:-0.487132 
-8 2.986230587479857 5.231720539724085 2.896834036902306 1.774406436487859 0 1:0.460569 2:-0.411053 3:-0.388677 4:0.151431 5:0.541856 6:-0.220904 7:-0.279412 8:-0.111894 9:0.307884 10:-0.207008 11:-0.0279977 12:-0.395812 13:-0.0435117 14:-0.123827 15:0.098245 16:-0.469078 
-0.8457544806360084 6.891121738902855 5.166854052494645 7.316243302832351 8 8 1:0.402856 2:-0.337581 3:-0.334943 4:0.187601 5:0.63158 6:-0.266911 7:-0.272592 8:-0.140478 9:0.315471 10:-0.193661 11:-0.16075 12:-0.184557 13:-0.104517 14:-0.101341 15:-0.049748 16:-0.347548 
-0 0 1.299386005634202 0 2.544313703501482 0.2621357993177189 1:0.112205 2:-0.464322 3:0.398111 4:0.1694 5:0.629516 6:-0.0896752 7:-0.504389 8:-0.398686 9:-0.0326096 10:-0.383479 11:0.0117002 12:-0.0885949 13:-0.179715 14:0.0386061 15:0.893215 16:-0.0368257 
-0 0 1.063866382128328 0.5190609686906117 0.5397545206961332 1.479982020678325 1:0.0685122 2:-0.553164 3:0.439074 4:0.25311 5:0.567912 6:-0.202264 7:-0.557732 8:-0.570758 9:-0.0471675 10:-0.368808 11:-0.0937684 12:-0.510975 13:0.258446 14:-0.16781 15:0.767341 16:-0.144124 
-3.497876995419076 -0.7880102633705098 1.46181751621822 1.069805172200144 1.11511558831764 0.8700585282858889 1:0.391562 2:-0.456786 3:-0.243063 4:0.157272 5:0.309286 6:-0.341443 7:-0.560227 8:0.0269927 9:0.460752 10:-0.0604106 11:-0.228767 12:0.16553 13:0.765709 14:0.518851 15:0.0662745 16:-0.306327 
-0.6691149801960062 -2.364168126203255 0.6067811345813153 0 0.4588981616590896 0.487636356231251 1:0.255212 2:-0.427569 3:-0.345785 4:0.17464 5:0.214105 6:-0.528411 7:-0.661771 8:-0.0405567 9:0.13442 10:0.00261916 11:-0.380289 12:-0.288888 13:0.423197 14:0.0086162 15:0.180951 16:-0.320557 
-0 -1.007932533140296 0 0 0 0 1:0.689767 2:-0.21913 3:0.286068 4:0.633347 5:0.163247 6:-0.628878 7:0.0788803 8:-0.163928 9:-0.500303 10:-0.230537 11:-0.216386 12:-0.503419 13:-0.486305 14:0.183159 15:-0.0195839 16:-0.0435044 
-0.8892847283600644 -0 4.166429056431367 0.9879635705665107 0.9746742451958814 0.1406040255048205 1:0.661865 2:-0.242545 3:0.241769 4:0.491877 5:0.187881 6:-0.615287 7:0.0174248 8:-0.264496 9:-0.3671 10:-0.16964 11:-0.376879 12:-0.597903 13:-0.326065 14:0.0468378 15:-0.0323201 16:-0.102908 
-1.398366178379462 -0.1124413634368763 0 0 0.6461622053772083 0.6708166938333578 1:0.706092 2:-0.164744 3:0.325622 4:0.519881 5:0.260362 6:-0.587564 7:0.0379537 8:-0.21662 9:-0.421971 10:-0.135358 11:-0.272227 12:-0.616109 13:-0.594938 14:0.131895 15:-0.0134031 16:-0.0865861 
-1.267180133911296 -0 0 1.495173990564117 0 0 1:0.693538 2:-0.293643 3:0.236789 4:0.528739 5:0.0931922 6:-0.530306 7:-0.124811 8:-0.247728 9:-0.365993 10:-0.0980702 11:-0.253844 12:-0.405842 13:-0.53178 14:-0.0425081 15:0.0225037 16:-0.0644623 
-0.5631323950928799 -0.1879123707835067 0.1252851632344336 0.6713807714748751 0.4765295329622154 0.7248602797730023 1:0.17836 2:0.524589 3:0.622768 4:0.356113 5:0.788357 6:-0.791668 7:0.075617 8:0.0926388 9:-0.166201 10:0.0272828 11:-0.243119 12:-0.113924 13:0.478873 14:0.937695 15:-0.157425 16:-0.203209 
-1.774030362086511 -1.030760182394193 1.040236830530903 0 0.4075165507580619 0.6759191344394684 1:0.102071 2:0.61265 3:0.407794 4:0.330181 5:0.750087 6:-0.581344 7:0.146867 8:0.241035 9:-0.253068 10:0.075679 11:-0.374994 12:-0.0778731 13:0.145805 14:0.747188 15:0.0102266 16:-0.22195 
-0 -3.489028633864554 0 0 0 1.136403671241863 1:0.0748197 2:-0.323226 3:0.317859 4:0.136437 5:0.0588863 6:-0.730683 7:-0.0125808 8:0.231438 9:0.25332 10:-0.0893547 11:-0.301396 12:0.0857276 13:-0.470118 14:-0.0901519 15:-0.0509621 16:-0.392895 
-3.494221059720573 -3.117113651879469 0.009949427721666277 0 0 0 1:0.147096 2:-0.380492 3:0.332833 4:-0.00406888 5:0.0324215 6:-0.689048 7:0.00829403 8:0.277264 9:0.254591 10:-0.19022 11:-0.124551 12:0.14434 13:-0.0328375 14:-0.212915 15:0.0657465 16:-0.394042 
-8 -8 5.046313845070597 0.1643003817934022 2.428956985016108 0.77097970840188 1:0.160543 2:-0.395281 3:0.316448 4:0.020346 5:0.0910075 6:-0.697677 7:-0.0326694 8:0.185036 9:0.213794 10:-0.206903 11:0.00922217 12:0.0645574 13:-0.332888 14:-0.159668 15:0.184106 16:-0.382627 
-2.602908851978661 -1.749734552815283 0 0.9993835374169525 1.614495702484341 1.019277532937239 1:0.712478 2:-0.134325 3:-0.308211 4:0.149587 5:0.24516 6:-0.179283 7:-0.625874 8:0.0150288 9:-0.0821016 10:-0.455053 11:0.240433 12:0.421628 13:-0.720012 14:0.306964 15:0.334684 16:-0.138929 
-0 -0.5169985759111714 2.255141610931223 1.196618678096748 0 0 1:0.628704 2:-0.237133 3:-0.380896 4:0.413044 5:0.451374 6:-0.37331 7:-0.406471 8:-0.0588426 9:0.46798 10:-0.371656 11:-0.144541 12:0.441964 13:-0.124353 14:0.132835 15:0.47695 16:0.0166163 
-0.6816217012615426 -0 0 0 0 0.4944290119026415 1:0.776005 2:-0.0252116 3:-0.632791 4:0.581389 5:0.284741 6:-0.449954 7:-0.380965 8:0.239666 9:0.38546 10:-0.514466 11:0.0942842 12:0.881312 13:0.0968441 14:0.818271 15:0.128307 16:-0.142576 
-4.095420681887637 -0.7147232255644854 5.751010445595674 0.7445384275068183 1.615942913421224 1.164746001424869 1:0.517043 2:-0.158375 3:1 4:0.169824 5:0.526134 6:-0.384591 7:-0.118145 8:0.200306 9:0.521074 10:-0.088094 11:-0.10971 12:-0.450069 13:0.247769 14:0.151112 15:0.142944 16:-0.22418 
-0 -0 0 0.2445754050422914 0.6854671169501579 0.6215993348273493 1:0.600616 2:-0.0661145 3:0.191304 4:0.253481 5:0.397831 6:-0.264913 7:-0.579703 8:0.250016 9:-0.0871005 10:-0.432631 11:-0.0925547 12:0.203757 13:-0.843136 14:-0.0814745 15:0.105429 16:-0.323678 
-0.2883155450822402 -3.635263786449328 3.507882344225832 1.924809914921689 0.7654447064455276 0.8090065428690689 1:0.152399 2:-0.506482 3:-0.383105 4:0.25443 5:0.231092 6:-0.790677 7:0.195321 8:0.00226932 9:0.554344 10:-0.327533 11:-0.0256824 12:0.27325 13:0.0761435 14:0.0469265 15:0.446606 16:-0.533651 
-0.56265861421321 -0.07741079160741396 0 0 0 0.6332482367644577 1:0.0752183 2:-0.693984 3:-1 4:0.336435 5:0.042201 6:-1 7:0.210682 8:0.222856 9:0.646907 10:-0.337942 11:-0.0488542 12:0.169144 13:1 14:0.219178 15:0.0601211 16:-0.577806 
-0 -1.258337547275262 0 0 0 0.5915805380835439 1:0.281788 2:0.124414 3:0.941864 4:0.390897 5:0.22499 6:-0.45677 7:-0.122046 8:-0.150093 9:0.135824 10:0.349831 11:-0.738806 12:-0.35692 13:-0.173312 14:-0.0629756 15:0.267171 16:-0.564452 
-1.721331719874338 -0 3.51757769252282 4.413543693543923 0 0 1:0.454708 2:0.0151307 3:0.490581 4:0.389223 5:0.320148 6:-0.47553 7:-0.142646 8:-0.0510671 9:0.230637 10:0.0903611 11:-0.316952 12:-0.0736528 13:0.0303727 14:0.00108066 15:-0.0658835 16:-0.445902 
-0 -0 0 0 0.4668670521916444 0 1:0.415813 2:-0.0126602 3:0.681621 4:0.336362 5:0.359236 6:-0.493162 7:-0.123261 8:-0.197879 9:0.0771617 10:0.238862 11:-0.550606 12:-0.379024 13:-0.10053 14:0.0243923 15:0.067636 16:-0.316313 
-4.43393459155656 -7.457876639331702 2.906078783414612 3.337310108581648 1.381301375879751 0 1:0.485218 2:-0.234602 3:-0.336731 4:0.247559 5:0.429732 6:-0.445107 7:-0.396983 8:0.0573446 9:0.247402 10:-0.254855 11:-0.213217 12:-0.273101 13:0.00629837 14:-0.0624238 15:-0.0945543 16:-0.43277 
-0.4425357095179415 -0 0 0 0 0 1:0.600175 2:-0.122021 3:-0.506054 4:0.316711 5:0.485165 6:-0.42748 7:-0.553996 8:0.25681 9:0.339778 10:-0.227662 11:0.055032 12:-0.31243 13:-0.0382968 14:-0.00622099 15:0.0666126 16:-0.462269 
-0 -1.265061452387779 0 0.5387312501065034 0.3315670579226659 1.209137169823322 1:0.44645 2:-0.27484 3:-0.584066 4:0.473954 5:0.433074 6:-0.680971 7:-0.441675 8:0.0133094 9:0.333821 10:-0.164103 11:-0.412742 12:-0.895557 13:-0.500328 14:-0.246951 15:-0.00554373 16:-0.43667 
-2.305745392991348 -0 1.05034605116151 0 0 0 1:0.690513 2:-0.0252915 3:0.385135 4:0.15047 5:0.435448 6:-0.314251 7:-0.443301 8:0.183485 9:0.341593 10:-0.364081 11:-0.432458 12:0.0143889 13:-0.353742 14:0.0964983 15:0.291438 16:-0.292082 
-0.4405876661468458 -3.782115778900637 5.529766186704826 0.005563070689449779 0.4404421084276668 0.7153718076022597 1:0.545474 2:-0.0871355 3:0.43535 4:0.230507 5:0.37942 6:-0.399789 7:-0.430345 8:-0.0669275 9:0.134682 10:-0.287614 11:-0.655705 12:0.029358 13:-0.10019 14:-0.259561 15:0.313644 16:-0.264562 
-1.087182621789798 -0.9931624125690964 -0.7845438627920731 1.124365833487239 5.961942901974405 1.653966286547145 1:0.37076 2:-0.782107 3:0.0763417 4:-0.21037 5:0.312218 6:-0.100751 7:-0.192088 8:-0.301936 9:0.623356 10:0.00848343 11:-0.747347 12:-0.458609 13:0.204922 14:0.578041 15:0.178798 16:-0.353183 
-0.9575772688926718 -1.007985426420039 -0.8190153878165821 0.5865040040708095 0.3112566376276873 0.9120904612585895 1:-0.00390736 2:0.625995 3:-0.175423 4:0.292817 5:-0.208972 6:1 7:1 8:-0.149102 9:-0.73089 10:-0.512029 11:-0.321039 12:0.26055 13:0.224747 14:0.0303668 15:1 16:-1 
-0.8880507479625027 -1.018181459833966 -0.7737855088583651 0.3763217286080036 0.1390414451687834 0.9238218992992109 1:-0.0142294 2:0.655619 3:-0.185694 4:0.432387 5:-0.139042 6:0.895243 7:0.72403 8:-0.152477 9:-1 10:-0.123775 11:-0.173349 12:-0.244629 13:0.0832495 14:0.14599 15:0.997756 16:-0.858962 
-0 -0.9115457340266528 -2.005952103776973 0.3429866147027255 0 0 1:0.424175 2:-0.579153 3:0.258495 4:0.315985 5:0.160238 6:-0.466527 7:-0.0154976 8:-0.0657375 9:-0.155195 10:-0.405869 11:-0.893253 12:-0.483078 13:-0.00241715 14:0.0904377 15:0.304762 16:-0.219986 
-0 -2.994239575389282 -0 0 0 0.1511747071939738 1:0.420374 2:-0.59502 3:0.262882 4:0.321162 5:0.156965 6:-0.426028 7:0.0402939 8:0.0386172 9:-0.118005 10:-0.41723 11:-0.821127 12:-0.251201 13:0.227617 14:-0.106494 15:0.289272 16:-0.268329 
-1.957699323288893 -0 -0 0.6805682259955929 0 0 1:0.506003 2:-0.537257 3:0.210663 4:0.372386 5:0.411104 6:-0.487988 7:0.344076 8:0.186782 9:0.152354 10:-0.340044 11:-0.532113 12:-0.11382 13:0.273245 14:1 15:0.387912 16:-0.0939017 
-1.689103030679233 -0 -0 0 0 0 1:0.345606 2:0.0369781 3:0.303741 4:0.305183 5:0.730284 6:-0.573499 7:0.168966 8:0.0153745 9:0.0674519 10:-0.135619 11:-0.442012 12:0.319101 13:0.0188918 14:0.116609 15:0.362442 16:-0.251813 
-3.746295867587092 -0 -0 0 1.051357157965612 0 1:0.501673 2:-0.05685 3:0.274475 4:0.257159 5:0.558951 6:-0.528605 7:0.33108 8:-0.0858515 9:0.259727 10:-0.22971 11:-0.0493337 12:0.422085 13:0.543888 14:-0.219921 15:0.240364 16:-0.231987 
-0 -0 -1.909987585129652 0 0 0 1:0.463332 2:0.0933022 3:0.355546 4:0.27908 5:0.718331 6:-0.462466 7:-0.0525552 8:-0.118869 9:0.120391 10:0.123133 11:-0.179954 12:0.33532 13:0.358388 14:-0.101704 15:0.18946 16:-0.317562 
-0 -0 -0 0 0 0.9081520396392342 1:0.00510798 2:-0.487044 3:0.319555 4:0.106094 5:0.166387 6:-0.809901 7:0.0958796 8:-0.213199 9:0.125864 10:-0.251749 11:-0.196745 12:-0.0858488 13:0.0703423 14:0.207412 15:0.348031 16:-0.117395 
-1.107317147371666 -0.8008515087335516 -1.134418656524945 0 0 0.1508499583051645 1:-0.00637385 2:-0.506529 3:0.376078 4:0.0383301 5:0.0863788 6:-0.810052 7:0.0851187 8:-0.0796384 9:0.0598185 10:-0.175358 11:-0.307934 12:-0.080915 13:0.515869 14:-0.0925737 15:0.211642 16:-0.185999 
-2.914687271637998 -1.73311342869387 -2.528128506664092 8 4.790194792303532 1.643691182480002 1:0.145625 2:-0.446163 3:0.399821 4:0.362921 5:-0.0566057 6:-0.78289 7:-0.16753 8:-0.313541 9:0.127489 10:-0.295443 11:0.273354 12:-0.064694 13:0.210505 14:0.348327 15:0.0142045 16:-0.491994 
-0.8915891794542468 -0 -0 3.119460544836944 0 0 1:0.586273 2:-0.297195 3:0.292116 4:0.435573 5:0.315409 6:-0.613949 7:0.16764 8:-0.24891 9:0.406875 10:-0.306061 11:-0.135229 12:0.731084 13:0.00911833 14:-0.169543 15:0.226612 16:-0.2108 
-0 -0 -5.367572185005697 0 0 0 1:0.503016 2:-0.282642 3:0.205171 4:0.430455 5:0.248573 6:-0.711688 7:0.108527 8:-0.161188 9:0.196933 10:-0.239403 11:-0.390032 12:0.476448 13:-0.220072 14:-0.129503 15:0.268031 16:-0.251948 
-0 -3.428405314839783 -0 0 0 0 1:0.428733 2:-0.373919 3:0.249919 4:0.468077 5:0.193388 6:-0.766791 7:0.382652 8:-0.142017 9:0.152014 10:-0.454569 11:-0.300604 12:0.46623 13:0.112322 14:-0.206804 15:0.310767 16:-0.275788 
-2.030096071994623 -0.7066855657811963 -4.739068816895379 0.4539365003601956 0 0 1:0.449578 2:-0.423756 3:0.728378 4:-0.00440676 5:0.338536 6:-0.15048 7:-0.339601 8:0.122643 9:0.303714 10:-0.337416 11:-0.090032 12:-0.221615 13:0.143246 14:0.0514295 15:0.297128 16:-0.0778517 
-0.8152016835410888 -0 -6.381774316400777 0.986158585769927 0 0 1:0.415699 2:-0.358256 3:0.699158 4:0.274814 5:0.504637 6:-0.405385 7:-0.192315 8:0.135449 9:0.353309 10:-0.272061 11:-0.487524 12:-0.164892 13:-0.314336 14:0.325974 15:0.168378 16:-0.181836 
-2.911222110100632 -6.444651874022559 -0 0 7.93221031975258 2.837318164729627 1:0.415088 2:-0.387078 3:0.658395 4:-0.062078 5:0.385403 6:-0.143605 7:-0.477373 8:0.0716846 9:0.134876 10:-0.354042 11:-0.240141 12:-0.14267 13:-0.200186 14:0.28297 15:0.355618 16:-0.142455 
-0.0484186434573432 -0 -0.4275804938991912 2.898732300176073 1.128245896285153 0.2964017633930316 1:-0.0889086 2:-0.20793 3:0.303606 4:0.420741 5:0.784296 6:-0.528701 7:-0.166769 8:0.0151173 9:0.383772 10:-0.110711 11:0.610486 12:0.179283 13:0.106346 14:0.385955 15:0.556604 16:-0.202403 
-0 -5.216115711321814 -0 0.1249652662639935 7.22967510156318 1.929849260784705 1:-0.217773 2:-0.221833 3:0.326063 4:0.321329 5:0.706119 6:-0.60059 7:-0.29155 8:-0.0840593 9:0.0535309 10:-0.0563055 11:0.28646 12:-0.214583 13:0.043558 14:0.128563 15:0.552076 16:-0.214747 
-0 -0 -0.4678771419914924 0 1.28938468313812 0 1:-0.168034 2:-0.247516 3:0.35056 4:0.33218 5:0.73611 6:-0.596239 7:-0.193026 8:-0.0407988 9:0.41187 10:-0.057061 11:0.420793 12:-0.183804 13:0.106446 14:0.214811 15:0.623197 16:-0.180053 
-0 -0.1845194361559778 -1.044414153922364 0 0 2.215898140750009 1:0.291267 2:-0.241705 3:0.13483 4:0.23242 5:0.579313 6:-0.480771 7:-0.0289648 8:-0.36254 9:-0.319527 10:-0.0121026 11:-0.587598 12:-0.308051 13:-0.07236 14:0.198952 15:0.140102 16:-0.315692 
-2.262020309073616 -0 -0 0 0 0 1:0.419185 2:-0.255336 3:0.253252 4:0.208942 5:0.63062 6:-0.394787 7:0.030369 8:-0.377555 9:-0.0596396 10:0.117577 11:-0.484277 12:-0.167254 13:-0.0710126 14:0.228924 15:-0.0282784 16:-0.296059 
-0 -0 -0 6.621221658251494 6.136730946544581 2.160464582056516 1:0.326765 2:-0.266175 3:0.25297 4:0.186343 5:0.611331 6:-0.467944 7:0.156571 8:-0.461443 9:-0.0814929 10:0.0651966 11:-0.422724 12:-0.227822 13:0.201211 14:0.274243 15:-0.0830842 16:-0.264014 
-8 -6.303811038237111 -0.8237706108096299 7.28119661094205 7.925172803723339 1.36580028611693 1:0.575143 2:-0.239099 3:-0.104084 4:0.225866 5:0.58678 6:-0.238203 7:-0.288792 8:-0.199183 9:0.080889 10:-0.000326691 11:0.057926 12:-0.323994 13:-0.0122686 14:0.00256002 15:0.222348 16:-0.468857 
-0 -0 -0 7.630696467841811 0 0 1:0.558636 2:-0.251011 3:-0.105886 4:0.344205 5:0.506297 6:-0.490225 7:0.00254655 8:-0.199481 9:0.152308 10:-0.128151 11:-0.0132831 12:-0.233352 13:0.273135 14:-0.105382 15:0.0916783 16:-0.355602 
-7.559392275901192 -8 -7.729384062418936 0 1.844564061197435 0 1:0.54475 2:-0.192849 3:-0.147166 4:0.28965 5:0.559255 6:-0.450221 7:-0.0563501 8:-0.0842795 9:0.13837 10:-0.14832 11:-0.0447018 12:-0.187998 13:0.0949511 14:-0.217021 15:0.134742 16:-0.434178 
-0 -0.6195395772389005 -0 0.09719088244144543 0.7619800014669901 0.8894889616006724 1:0.563093 2:-0.226068 3:0.279662 4:0.595406 5:0.889289 6:-0.395965 7:0.240804 8:-0.301529 9:0.599104 10:-0.249419 11:-0.404725 12:0.408202 13:-0.521027 14:-0.124166 15:0.399328 16:-0.11195 
-0.10244042267523 -0 -0 2.209176713176654 0 0.250357477788478 1:0.579789 2:-0.0707685 3:0.229661 4:0.755466 5:1 6:-0.42832 7:0.2295 8:-0.440091 9:0.450716 10:-0.177832 11:-0.221709 12:0.201321 13:-0.624402 14:0.198518 15:0.390425 16:-0.150629 
-0 -1.342263207558036 -0.03734269543884908 0 0 0 1:0.496305 2:-0.149209 3:0.274052 4:0.577403 5:0.897651 6:-0.547658 7:0.197305 8:-0.344078 9:0.330149 10:0.0201848 11:-0.502616 12:0.159541 13:-0.723708 14:-0.184886 15:0.368047 16:-0.243734 
-0 -0.3061017546770616 -0 -0.5438041335925536 0.6822057110155211 1.181243031564221 1:0.0167983 2:-0.484325 3:0.234794 4:0.599842 5:0.180031 6:-0.0406272 7:-0.382681 8:-0.489462 9:0.589524 10:0.0238263 11:-0.674943 12:0.180512 13:-0.171312 14:0.971428 15:0.429424 16:-0.476025 
-0.2108683836370931 -0.7023915788435466 -0 -0 0.07040405906075521 0 1:0.13599 2:-0.539586 3:0.144872 4:0.560044 5:0.0227953 6:0.0813339 7:-0.479995 8:-0.480516 9:0.959824 10:0.00408437 11:-0.598328 12:0.0027118 13:-0.15775 14:0.82078 15:0.210844 16:-0.382816 
-0 -1.300710052641857 -0.01247685519220163 -0 0 1.286871438163363 1:0.208293 2:-0.863075 3:0.292695 4:0.410332 5:0.220653 6:-0.175689 7:-0.4936 8:-0.50437 9:0.68346 10:-0.0312434 11:-0.503818 12:0.325736 13:0.176425 14:0.342039 15:-0.105203 16:-0.163717 
-0.7839924347448326 -0.3161296251740527 -1.098904412956059 -0.994362908534949 1.414430408414356 0.5251395539426069 1:0.316169 2:-0.786353 3:0.376429 4:0.310599 5:0.475171 6:-0.0935237 7:-0.40292 8:-0.306495 9:0.90263 10:0.0907666 11:-0.388446 12:0.618055 13:-0.199393 14:0.732 15:0.0427216 16:-0.300847 
-0.4180438554447492 -1.194299888223806 -0 -0.4067922198454947 0.2690208523456246 0 1:0.551903 2:-0.515766 3:0.263543 4:0.572311 5:0.120881 6:-0.511357 7:-0.047037 8:-0.445814 9:-0.0953035 10:-0.568054 11:-0.011707 12:-0.557603 13:0.309716 14:0.0380042 15:0.264409 16:-0.257581 
-2.64757718042358 -0 -0.09171612096159122 -0 0 0 1:0.623924 2:-0.33416 3:0.250237 4:0.703716 5:0.119308 6:-0.544811 7:-0.273941 8:-0.33204 9:-0.00742496 10:-0.554408 11:0.180979 12:-0.692658 13:0.530072 14:0.386931 15:0.0237937 16:-0.197311 
-0 -0 -0.7536116947212693 -1.103949224329741 0.5710903203509289 0 1:0.623157 2:-0.348996 3:0.290773 4:0.560719 5:0.118393 6:-0.434224 7:-0.351164 8:-0.373362 9:-0.122254 10:-0.533165 11:0.101524 12:-0.616221 13:0.320437 14:0.152976 15:0.17179 16:-0.180111 
-0 -0 -0 -0.1049810845011932 0 0 1:0.351134 2:0.278654 3:0.358243 4:0.760359 5:0.03942 6:-0.405797 7:-0.350358 8:-0.513003 9:0.744505 10:-0.214588 11:-0.199663 12:-0.417596 13:0.280822 14:-0.0128457 15:0.381751 16:-0.484106 
-0 -1.248583910134868 -0 -0 0 0 1:0.341392 2:0.173988 3:0.390154 4:0.721359 5:0.143543 6:-0.418149 7:-0.443342 8:-0.494755 9:0.474963 10:-0.357877 11:-0.0613842 12:-0.440118 13:0.588823 14:-0.263745 15:0.209035 16:-0.556754 
-0.2620900543337171 -0.4856063029447176 -0.4211397530153191 -0.8987998872227517 0.1016034169044685 0.4228626119845889 1:0.284363 2:0.558517 3:0.359511 4:1 5:-0.0173364 6:-0.639658 7:-0.178501 8:-0.658787 9:0.910204 10:-0.332571 11:-0.0575094 12:-0.655869 13:0.145818 14:0.328413 15:0.6124 16:-0.372914 
-1.420320176832752 -0 -0 -5.883665209838139 0 0 1:0.118176 2:-0.477386 3:0.32324 4:0.356328 5:-0.0777215 6:-0.860771 7:-0.133976 8:-0.327283 9:0.0676869 10:-0.302773 11:0.243546 12:-0.1152 13:0.0844577 14:0.301543 15:0.113738 16:-0.504692 
-0 -0 -1.226807362090324 -0 0.2268637814064571 1.379219491011791 1:-0.000498464 2:-0.381007 3:0.339243 4:0.417262 5:-0.249407 6:-0.789584 7:-0.330492 8:-0.392374 9:0.220658 10:-0.286009 11:0.0534971 12:-0.231456 13:-0.21755 14:0.146731 15:0.0572525 16:-0.424619 
-1.048221630598244 -0.469138695053681 -0 -0.1210731264817652 0.9392985164470166 0.8615690561322656 1:0.716093 2:-0.358937 3:0.317735 4:0.225507 5:-0.00382092 6:-0.0244762 7:-0.3568 8:-0.650565 9:-0.14883 10:-0.164135 11:0.37979 12:0.506746 13:0.298301 14:-0.39176 15:-0.173681 16:-0.392093 
-0.8182883625475253 -1.434289411377523 -0.6333033083911813 -0.6126816399215664 0.5077420596816817 1.363981919808638 1:0.556602 2:-0.150103 3:0.3011 4:0.368842 5:-0.227316 6:0.0109259 7:-0.383618 8:-0.610668 9:0.12464 10:-0.234542 11:0.131314 12:0.0385362 13:-0.298022 14:-0.487905 15:0.125959 16:-0.259655 
-0.2947135554309613 -0.3621499891737834 -1.02985459796811 -0 0 0.5844827960195101 1:0.343874 2:0.180437 3:0.708182 4:0.821954 5:-0.0654781 6:-0.388386 7:-0.494892 8:-0.21188 9:0.723735 10:-0.471373 11:-0.376806 12:-0.314675 13:-0.555062 14:0.0996231 15:-0.0190635 16:-0.473123 
-0.6506160417149227 -0.3556740962719355 -0.2104808495477853 -0.2704889450069266 0.5406174379225629 0.3296368808230111 1:0.269279 2:0.38586 3:0.697428 4:0.922468 5:0.116269 6:-0.438479 7:-0.554185 8:-0.17774 9:0.595424 10:-0.487672 11:-0.303469 12:-0.281863 13:-0.482626 14:0.580833 15:-0.124627 16:-0.584443 
-0 -0.3448970038709874 -0.4379831809196101 -0 0 0.6766986272093839 1:0.317386 2:0.358258 3:0.705706 4:0.864793 5:0.0641436 6:-0.401167 7:-0.434857 8:-0.115648 9:0.67475 10:-0.612429 11:-0.162083 12:-0.0181171 13:-0.0397737 14:0.411951 15:-0.164376 16:-0.662738 
-0 -0 -0.2252378737642517 -0.9125431545802196 0 0 1:0.24298 2:-0.132841 3:0.334533 4:0.497254 5:0.661241 6:-0.524096 7:-0.298918 8:-0.281676 9:0.269966 10:0.0234301 11:1 12:0.143185 13:0.439424 14:0.461886 15:0.0630025 16:-0.371784 
-0.3220742931191031 -1.269844881525422 -0.7741089195250993 -0.9168232419782568 0 0.4564986746228385 1:0.0776862 2:-0.391601 3:0.478417 4:0.211404 5:0.287071 6:-0.573866 7:-0.467351 8:-0.266354 9:-0.135141 10:0.0731841 11:0.678906 12:-0.122955 13:0.664031 14:-0.0123038 15:0.178577 16:-0.474412 
-1.030649674079148 -1.051040380895472 -0 -3.509278124678161 6.373255735631199 1.179610257380225 1:0.0643359 2:-0.385644 3:0.511903 4:0.230831 5:0.473617 6:-0.503262 7:-0.198789 8:-0.282483 9:0.390515 10:-0.0745742 11:0.764825 12:-0.19593 13:0.254267 14:0.0247567 15:0.307376 16:-0.327222 
-0 -0 -0 -1.58770106924406 5.242524293464636 0.2988432836083716 1:0.476463 2:-0.336602 3:0.256395 4:0.295621 5:0.4514 6:-0.397659 7:0.0935604 8:-0.422086 9:-0.00983985 10:-0.216648 11:-0.0558583 12:0.0415813 13:0.568739 14:0.40193 15:0.00954766 16:-0.421474 
-0 -3.03682307062771 -1.392489516996019 -0.3707676225314308 0 0 1:0.459095 2:-0.0866955 3:0.237527 4:0.48206 5:0.211507 6:-0.207539 7:-0.176939 8:-0.364648 9:0.325402 10:-0.214637 11:-0.322366 12:-1.136e-05 13:0.157702 14:0.214352 15:0.17884 16:-0.527562 
-1.938946493883324 -0 -1.866820590931534 -8 1.692647218948482 0.4218166457845795 1:0.488955 2:-0.308811 3:0.316144 4:0.338975 5:0.478129 6:-0.424497 7:0.0459555 8:-0.432463 9:-0.0672718 10:-0.0548589 11:-0.235476 12:-0.151745 13:0.320304 14:0.471214 15:-0.044283 16:-0.425377 
-5.793026700841057 -8 -4.392745790549319 -8 8 6.081717982861314 1:0.435516 2:-0.320081 3:-0.206932 4:0.415468 5:0.637786 6:-0.353645 7:-0.236059 8:-0.253801 9:0.0938876 10:-0.213178 11:-0.0895744 12:-0.0787354 13:-0.241839 14:-0.0186761 15:0.0549648 16:-0.477949 
-0 -8 -1.911200080280327 -2.935390351404739 0.2807553968910611 0 1:0.439056 2:-0.316707 3:-0.221908 4:0.45403 5:0.619083 6:-0.419528 7:-0.22243 8:-0.283825 9:0.217885 10:-0.191407 11:-0.0768224 12:-0.103105 13:-0.0714402 14:-0.10606 15:-0.0803441 16:-0.471576 
-0 -0 -0 -1.387793326389537 0 0 1:0.56443 2:-0.362489 3:-0.0132852 4:0.448448 5:0.486657 6:-0.375559 7:-0.110095 8:-0.37051 9:0.285149 10:-0.231673 11:-0.1062 12:-0.0198454 13:0.487676 14:0.0812309 15:-0.120848 16:-0.410537 
-2.715986065713933 -2.127916270162872 -1.03644552805381 -3.972586666843472 0.6470097819081122 0.5301295259462443 1:0.63945 2:-0.470795 3:0.397717 4:0.391742 5:0.559433 6:-0.337863 7:0.408848 8:-0.302492 9:0.735545 10:-0.191684 11:-0.155654 12:-0.0320054 13:-0.0231319 14:-0.273171 15:0.119328 16:-0.488834 
-0 -0 -0.2783715366412599 -0 0 0 1:0.730455 2:-0.2403 3:0.371886 4:0.647938 5:0.259778 6:-0.456493 7:-0.00341911 8:-0.48118 9:0.484846 10:-0.403207 11:0.0362625 12:-0.0352071 13:0.0354162 14:-0.699098 15:-0.137575 16:-0.241993 
-0 -0 -0.04986965592621006 -0.2653196762664244 -1.683152434032302 0.5671906860508186 1:0.368791 2:-0.937848 3:0.271869 4:-0.191274 5:0.295576 6:0.00709411 7:-0.234791 8:-0.278694 9:0.729057 10:0.0159079 11:-0.462111 12:-0.315966 13:-0.0618921 14:0.901174 15:0.235232 16:-0.551971 
-0.9272864174650016 -1.779393775069242 -1.115006541227852 -5.922697850887208 -0 0 1:0.37475 2:-0.939337 3:0.235159 4:-0.267521 5:0.240706 6:0.0362252 7:-0.355122 8:-0.241402 9:0.701715 10:0.00971957 11:-0.445967 12:-0.441287 13:-0.0774957 14:0.861005 15:0.370654 16:-0.570166 
-0 -0 -0 -0 -0 1.266334665882602 1:0.300868 2:-0.922214 3:0.237698 4:-0.215666 5:0.289185 6:0.0134698 7:-0.406082 8:-0.257801 9:0.589665 10:0.00669109 11:-0.370809 12:-0.338013 13:-0.000423492 14:0.799267 15:0.256287 16:-0.484822 
-0 -0.9266752900599703 -0 -0 -0 0 1:0.330246 2:-0.668344 3:0.256585 4:0.188187 5:0.434302 6:-0.166454 7:0.0709148 8:-0.130003 9:-0.232832 10:-0.468743 11:0.165739 12:-0.255124 13:0.638994 14:0.377339 15:0.130263 16:-0.237272 
-2.0127588560704 -0.3002652220883673 -0.7469029929318021 -1.410946507935032 -3.185911032242048 0 1:0.39935 2:-0.58324 3:0.243871 4:0.362358 5:0.509767 6:-0.234953 7:0.139877 8:-0.0591806 9:-0.164351 10:-0.426562 11:-0.0102537 12:-0.0812885 13:0.509979 14:0.564612 15:0.11494 16:-0.224414 
-0 -0 -0 -0 -0 8 1:0.160928 2:-0.404192 3:0.261944 4:0.0406642 5:0.647505 6:-0.217191 7:-0.17128 8:-0.24917 9:0.157876 10:-0.230725 11:-0.251824 12:-0.288658 13:0.320165 14:-0.0110517 15:0.0121186 16:-0.359832 
-0 -0 -0 -2.628485648435118 -0.7785984102857083 0 1:0.263673 2:-0.324021 3:0.284663 4:0.135105 5:0.752771 6:-0.253463 7:-0.0568275 8:-0.262411 9:0.318147 10:-0.246042 11:-0.18787 12:-0.228841 13:0.31803 14:0.327719 15:0.143094 16:-0.310762 
-1.586834604136571 -8 -2.044914978246702 -6.561883490117915 -2.002485089407624 0.3675741345598263 1:0.243842 2:-0.310885 3:0.272761 4:0.13385 5:0.693952 6:-0.307436 7:-0.0837943 8:-0.23865 9:0.227613 10:-0.294981 11:-0.296882 12:-0.092912 13:0.141535 14:-0.00495119 15:0.155347 16:-0.367896 
-0 -0 -0 -2.136709749654482 -0 0 1:-0.0974316 2:-0.464977 3:0.295199 4:0.163866 5:0.267611 6:-0.756048 7:-0.19174 8:-0.205674 9:-0.0212578 10:-0.278475 11:0.2042 12:-0.495765 13:-0.296108 14:0.549565 15:0.189786 16:-0.309491 
-0.5818099796920424 -1.307022696416857 -1.799847143344679 -1.068813076490078 -0 3.774868557633128 1:-0.186109 2:-0.548706 3:0.330835 4:0.102207 5:0.157654 6:-0.810114 7:-0.144197 8:-0.165746 9:-0.0626088 10:-0.243546 11:-0.0748674 12:-0.582441 13:-0.430648 14:0.362708 15:0.118634 16:-0.343313 
-2.469236989123603 -0 -0 -0 -0 0 1:-0.0884755 2:-0.597803 3:0.27734 4:-0.0203454 5:0.113397 6:-0.706127 7:-0.114684 8:-0.111871 9:0.127147 10:-0.310714 11:0.199726 12:-0.528269 13:-0.130256 14:0.438992 15:0.13739 16:-0.279093 
-0 -0.8987211354730127 -1.698630495522296 -0.2467271908194299 -0 1.851299099093202 1:0.457828 2:-0.274851 3:0.168203 4:0.0238864 5:0.308729 6:-0.0720069 7:-0.406172 8:-0.260622 9:-0.348116 10:-0.349371 11:0.326491 12:0.669319 13:-0.145373 14:0.139746 15:0.123404 16:-0.337927 
-0.7190754645544639 -0 -0 -0.2849141790331678 -2.134563720281812 0 1:0.534067 2:-0.21297 3:0.128253 4:0.16489 5:0.455497 6:-0.131569 7:-0.294059 8:-0.337644 9:-0.0797018 10:-0.350065 11:0.407826 12:0.526242 13:-0.200355 14:0.310212 15:0.062174 16:-0.319106 
-3.794463739338741 -2.285576797247279 -0 -0.3475987691645343 -1.950224645698253 0 1:0.464238 2:-0.309012 3:0.196586 4:0.0520701 5:0.316633 6:-0.141638 7:-0.296768 8:-0.332057 9:-0.156045 10:-0.304632 11:0.294596 12:0.430933 13:-0.161905 14:-0.00105098 15:0.0991395 16:-0.320376 
-0.4398228166363933 -0 -0 -0 -0 0 1:0.280832 2:-0.167041 3:0.606689 4:0.145298 5:0.50325 6:-0.2722 7:-0.683105 8:-0.0198126 9:-0.230986 10:-0.317221 11:0.0396433 12:-0.195609 13:-0.466167 14:0.367133 15:-0.028294 16:-0.536317 
-1.227651305824196 -0 -0.4263240692475371 -0 -0 3.437503501826452 1:0.329651 2:-0.220975 3:0.592061 4:0.115679 5:0.483306 6:-0.187239 7:-0.678387 8:-0.0409749 9:-0.0801267 10:-0.293666 11:-0.0152899 12:-0.27206 13:-0.528456 14:0.489225 15:0.00166404 16:-0.468808 
-0 -4.543368951537265 -1.181994732660764 -4.316787341683804 -0 0 1:0.313751 2:-0.2426 3:0.561627 4:0.0520146 5:0.410398 6:-0.197169 7:-0.693853 8:0.0470171 9:-0.23332 10:-0.351906 11:0.067653 12:-0.0643411 13:-0.347277 14:0.338275 15:0.0884982 16:-0.38578 
-0 -0 -0 -4.190104835939398 -2.664309656576039 0 1:-0.11611 2:-0.203942 3:0.283087 4:0.282432 5:0.654219 6:-0.568798 7:-0.261839 8:-0.115556 9:0.358407 10:-0.0816708 11:0.427956 12:-0.195932 13:-0.0714969 14:0.294688 15:0.177656 16:-0.437204 
-0.8190859379318475 -0 -0.596658930925796 -0 -2.294549263176826 1.802041007523717 1:-0.0454234 2:-0.276962 3:0.293621 4:0.243834 5:0.638461 6:-0.490346 7:-0.154731 8:-0.12685 9:0.582203 10:-0.148648 11:0.49805 12:-0.134693 13:-0.180652 14:0.0389232 15:0.297895 16:-0.400981 
-0 -3.45093301774173 -0.6537982304524809 -5.405625560696486 -1.484227937520954 0 1:-0.143356 2:-0.364486 3:0.312585 4:0.160208 5:0.552037 6:-0.558855 7:-0.165095 8:-0.139783 9:0.441657 10:-0.14894 11:0.335959 12:-0.208949 13:-0.0139034 14:-0.112469 15:0.386878 16:-0.386851 
-0 -0 -0 -5.268470429038242 -0 0 1:0.437686 2:-0.381761 3:0.265221 4:0.0177077 5:0.537163 6:-0.101684 7:-0.0616634 8:-0.294495 9:-0.156164 10:-0.118784 11:-0.135346 12:-0.126106 13:0.358475 14:0.280986 15:-0.0219963 16:-0.250927 
-0 -0 -0 -0 -0 2.294761829850452 1:0.429638 2:-0.400659 3:0.256619 4:0.0241943 5:0.536965 6:-0.0817274 7:-0.0612414 8:-0.299852 9:-0.161709 10:-0.140935 11:-0.141686 12:-0.0949676 13:0.332676 14:0.334654 15:-0.0624385 16:-0.256816 
-1.731178543931085 -1.290926921521823 -0.7568034879652149 -1.577825468294596 -3.878727799150833 0.6009113020035086 1:0.367254 2:-0.403985 3:0.312472 4:-0.00972544 5:0.478138 6:-0.170681 7:-0.00119696 8:-0.342453 9:-0.185739 10:-0.144535 11:-0.201792 12:-0.229118 13:0.638617 14:0.12618 15:-0.0991038 16:-0.307506 
-1.93222260281751 -4.446820017704039 -1.109492754997555 -2.095604358109684 -0 8 1:0.320112 2:-0.360747 3:-0.152236 4:0.300457 5:0.725566 6:-0.318761 7:-0.199237 8:-0.297427 9:-0.0771796 10:-0.187347 11:-0.0423684 12:-0.382528 13:-0.520401 14:-0.273758 15:0.221937 16:-0.378915 
-3.63080121546081 -3.528085221726634 -1.155428453276927 -2.756586628894041 -4.821526318061792 0 1:0.342073 2:-0.298894 3:-0.293676 4:0.374811 5:0.766857 6:-0.328745 7:-0.212184 8:-0.21082 9:-0.138181 10:-0.287852 11:0.0542553 12:-0.288194 13:-0.33977 14:-0.161044 15:0.197287 16:-0.464067 
-0 -0.7453688234284115 -0.4737088362833697 -0.0166559872517597 -0.02715127138737449 1.042339710437252 1:0.494519 2:-0.592686 3:0.291268 4:0.338733 5:0.868255 6:-0.0729736 7:0.332643 8:-0.443815 9:0.790637 10:-0.542741 11:0.533328 12:-0.284085 13:-0.587974 14:0.565905 15:0.307607 16:-0.256584 
-1.201489248091937 -0 -0 -0 -0.6540414125712926 0 1:0.485029 2:-0.589365 3:0.316162 4:0.342118 5:0.828732 6:-0.118089 7:0.363727 8:-0.425787 9:0.716445 10:-0.506328 11:0.485719 12:-0.323165 13:-0.555979 14:0.409485 15:0.331404 16:-0.233869 
-0.5145227122978454 -1.750840888672488 -0.4629108272847302 -0.826426742334998 -0.271519810412211 -0.6843867745233611 1:0.507395 2:0.327876 3:-0.127145 4:-0.92389 5:0.3095 6:-0.621055 7:-0.183982 8:-0.946341 9:0.330402 10:-0.333783 11:-0.198709 12:-0.134573 13:0.0258248 14:0.500653 15:0.741432 16:-0.114325 
-0.131101389402953 -0.2133793714241075 -0.04257738777617291 -0.1543732596924811 -0 -0 1:0.527525 2:0.289551 3:-0.0194888 4:-0.931061 5:0.109009 6:-0.636581 7:0.098199 8:-1 9:0.501214 10:-0.261531 11:-0.57793 12:0.075162 13:-0.369754 14:0.301841 15:0.248152 16:-0.186513 
-0.1843591299237804 -0.8665120265601419 -0.5760446707603032 -0.4017160405207557 -0.7268048434802998 -0 1:-0.39004 2:-1 3:0.0518747 4:0.153346 5:0.0946322 6:-0.144406 7:-0.092487 8:-0.275141 9:0.193693 10:-0.140722 11:-0.715003 12:1 13:-0.274333 14:0.305026 15:0.434129 16:-0.184055 
-0.1605723473956855 -0.7062758950461432 -0.06094941143386811 -0 -0 -0 1:-0.120062 2:-0.642037 3:0.0956621 4:0.180637 5:0.325959 6:-0.0529766 7:0.26997 8:-0.121401 9:0.247986 10:-0.480463 11:-0.518552 12:0.435891 13:0.022415 14:-0.10157 15:-0.13833 16:-0.473953 
-0.2172136758451536 -0.06415325700115175 -0.5342083386965557 -0.1257450392268911 -0.5565305868496004 -0 1:-0.392309 2:-0.149736 3:0.115816 4:0.477724 5:0.268032 6:0.268506 7:0.287212 8:0.184087 9:0.603301 10:-0.386758 11:-0.222802 12:0.334231 13:0.127225 14:0.847296 15:0.103133 16:-0.467345 
-0 -0 -0 -0 -0.09742405968095921 -0 1:-0.217311 2:-0.341633 3:0.158479 4:0.278877 5:0.320803 6:0.116217 7:0.159197 8:-0.0484856 9:0.229675 10:-0.348194 11:-0.521491 12:0.557924 13:-0.308803 14:0.782736 15:0.101762 16:-0.541123 
-0.2480541307371297 -0.07687106832895488 -0.2766995764101423 -0 -0 -0 1:-0.809156 2:0.222172 3:0.0699854 4:-0.0148648 5:0.562861 6:-0.196615 7:-0.182942 8:-0.13615 9:-0.164012 10:-0.431367 11:-0.0167541 12:-0.179578 13:-0.00322072 14:-0.676102 15:-1 16:0.363293 
-0.223977230853333 -0.3163230091576436 -0.265441244110199 -0.01543393786363946 -0 -0 1:-1 2:0.70309 3:-0.0466439 4:0.30098 5:0.502402 6:0.237706 7:0.151457 8:0.0382326 9:0.629103 10:-0.599615 11:-0.261548 12:-0.488935 13:-0.0755965 14:-0.5584 15:-0.164328 16:-0.281587 
-0.8077816155372802 -1.872465418709519 -1.648263072692812 -1.178540383478943 -1.898489725706782 -3.557329959905728 1:-0.324911 2:-0.356671 3:0.355103 4:0.177971 5:0.0666151 6:-0.654173 7:0.0540212 8:-0.189436 9:0.277655 10:-0.205295 11:-0.0915637 12:-0.160217 13:-0.600627 14:0.564075 15:0.188839 16:-0.343282 
-0.1201388128607133 -0.3852192889873797 -0.2074920017620644 -0 -0 -0 1:-0.415878 2:-0.356372 3:0.403739 4:0.0609418 5:-0.0802436 6:-0.600283 7:0.148388 8:-0.175425 9:0.282283 10:-0.202427 11:-0.0466204 12:-0.214155 13:-0.256135 14:0.511274 15:0.173522 16:-0.31698 
-0.6995772343863267 -0 -0 -1.384939738674948 -0 -0.9427019009434788 1:-0.417391 2:-0.402661 3:0.394129 4:0.0629873 5:-0.0538638 6:-0.647316 7:0.191858 8:-0.170799 9:0.309715 10:-0.223202 11:-0.0715626 12:-0.258162 13:-0.26731 14:0.544307 15:0.162801 16:-0.351627 
-0.823682560481978 -0.9072857347928226 -0.9314602007269942 -0.7344175013059268 -0.5183155425912618 -0.3306969018159855 1:0.21544 2:0.815869 3:0.0289853 4:0.19638 5:0.444585 6:-0.147643 7:-0.666656 8:1 9:1 10:-0.181216 11:-0.336941 12:-0.708875 13:0.91068 14:0.666042 15:0.805198 16:0.345092 
-0.164736171117615 -0 -0.05784192341189941 -0 -0 -0.1527066555237704 1:-0.25956 2:-0.595154 3:0.0900004 4:0.247748 5:0.582781 6:0.15336 7:0.184655 8:-0.112833 9:0.900707 10:-0.685306 11:-0.175203 12:-0.846541 13:0.233716 14:-0.591243 15:-0.0649618 16:0.0433846 
-0.2902653135100001 -0.8377946953866763 -0.4871228281765011 -0.4082842987579556 -0.02223935321454618 -0.07363254928110929 1:-0.281667 2:-0.66659 3:0.139133 4:0.228939 5:0.328716 6:0.166305 7:-0.468784 8:-0.0873521 9:0.593728 10:-1 11:-1 12:-1 13:0.375142 14:-0.342841 15:0.362137 16:0.0507568 
-0.3523528381865941 -2.027315693537401 -1.011015468972787 -0.5179623431267828 -3.244591050291143 -0.04717042585984345 1:0.337448 2:-0.247065 3:0.46495 4:0.295201 5:-0.131444 6:0.0632882 7:-0.852301 8:-0.259723 9:0.353389 10:-0.669952 11:-0.0943188 12:0.158836 13:-0.0996266 14:-0.0380859 15:-0.295994 16:-0.49755 
-0.668221964664887 -0.2325302695876628 -0.05323625843695681 -0 -0 -0 1:0.221908 2:-0.300068 3:0.655 4:0.00344395 5:0.265804 6:0.0878936 7:-0.65191 8:-0.0446632 9:0.263246 10:-0.400668 11:-0.00620204 12:0.332487 13:-0.249554 14:-0.105939 15:-0.382829 16:-0.571165 
-1.464621324606673 -1.511994841302482 -1.071289471508105 -1.947970999429886 -0 -5.367549316616814 1:0.189332 2:-0.396462 3:0.652821 4:-0.117659 5:0.512567 6:0.0316426 7:-0.774141 8:0.100752 9:0.16755 10:-0.328776 11:-0.152904 12:-0.344469 13:-0.258946 14:0.156913 15:-0.210174 16:-0.493576 
-0.2282516709368387 -1.928246501028151 -0.04858673651511027 -0.6295909939657162 -0.6651631628789406 -1.810459389889807 1:-0.501431 2:-0.0837108 3:0.0642742 4:0.288433 5:0.413382 6:-0.108031 7:-0.320604 8:-0.159751 9:0.40139 10:-0.0598766 11:0.707624 12:-0.522403 13:-0.339609 14:0.0974347 15:0.404321 16:-0.457407 
-0.4494706877107564 -0 -0.2498204858291043 -0.2752933890156296 -0.6460981488265697 -0.260880461300643 1:-0.406636 2:-0.187013 3:0.182523 4:0.331458 5:0.484982 6:-0.115103 7:0.0678167 8:-0.202261 9:0.898728 10:0.0301078 11:0.721525 12:-0.136302 13:-0.550885 14:-0.00240755 15:0.294616 16:-0.458848 
-0 -0 -0 -4.208733470462236 -0 -1.204510613732341 1:-0.0728959 2:-0.289149 3:0.533916 4:0.230687 5:0.489516 6:-0.103623 7:0.0524986 8:-0.496492 9:-0.266781 10:-0.128326 11:-0.343608 12:-0.0795766 13:0.294397 14:0.41081 15:0.1549 16:-0.162435 
-0.5721733821633445 -0.8825298787418181 -0.4816743999859964 -0.1244032241836879 -2.029658568486925 -4.919444289390333 1:0.0199399 2:-0.228155 3:0.476612 4:0.20782 5:0.571568 6:0.064769 7:-0.179403 8:-0.403768 9:-0.205699 10:-0.0536753 11:-0.178586 12:-0.0310806 13:0.492377 14:0.282196 15:-0.0221807 16:-0.184594 
-0.5062406368636264 -1.162589456350572 -0.6612661831481825 -0.2957609258316046 -0 -0 1:-0.0469244 2:-0.313908 3:0.651759 4:0.235027 5:0.545656 6:-0.0806997 7:0.020603 8:-0.51051 9:-0.308069 10:-0.0235088 11:-0.385967 12:-0.116652 13:0.402152 14:0.0731341 15:0.0664548 16:-0.117807 
-2.036359445428618 -8 -0.530741574396606 -4.12135558854522 -1.807956284357048 -8 1:0.183028 2:-0.525846 3:-0.204433 4:0.157605 5:0.693872 6:-0.214845 7:-0.238739 8:-0.394872 9:0.0173506 10:-0.249742 11:-0.235075 12:-0.27723 13:-0.190606 14:-0.170203 15:0.0247569 16:-0.320791 
-1.55783478639785 -2.488141044365108 -1.861871372153341 -0.03042983300679098 -4.199781403297282 -4.015952198319538 1:0.191546 2:-0.455322 3:-0.17828 4:0.234948 5:0.797749 6:-0.274379 7:-0.110412 8:-0.355775 9:0.117606 10:-0.330288 11:-0.220065 12:-0.135633 13:-0.341821 14:-0.254507 15:-0.0412599 16:-0.388587 
-0 -0 -0 -0 -0 -1.015178046378906 1:0.164891 2:-0.616089 3:-0.184867 4:0.11859 5:0.681522 6:-0.179921 7:-0.135392 8:-0.519985 9:0.103588 10:-0.349549 11:-0.165146 12:-0.421748 13:-0.174962 14:-0.267684 15:0.0199775 16:-0.33291 
-0.669161728399755 -0.6494723449574112 -0.4614496949645177 -0.4034155418313396 -0.6715897814179772 -0.5824719260005669 1:0.759019 2:0.773251 3:0.187035 4:-0.579063 5:0.309711 6:-0.600801 7:-0.0326873 8:-0.752851 9:0.684929 10:-0.636627 11:-0.0550147 12:-0.0459784 13:-0.476197 14:0.279547 15:0.541483 16:-0.312458 
-0.7077564661119312 -0.4222870037925123 -0.7537114447933329 -0.5045319206878568 -0.2241594553714067 -0.03975308537873486 1:0.405149 2:1 3:0.0996735 4:-0.491498 5:0.524362 6:-0.767233 7:0.650413 8:-0.294454 9:0.610631 10:-0.392604 11:-0.111579 12:0.314046 13:-0.337053 14:0.651142 15:-0.0744262 16:0.0663668 
