svm_type c_svc
kernel_type rbf
gamma 8
nr_class 8
total_sv 6857
rho -0.632852 -0.867519 -0.459637 -0.491069 -0.47731 -0.375213 -0.900921 -0.45961 0.202398 0.184135 0.185707 0.347981 -0.494313 0.576152 0.601373 0.557605 0.711671 -0.112184 -0.0210371 -0.0357496 0.124579 -0.600069 -0.0336515 0.122385 -0.675619 0.153232 -0.625129 -0.813562
label 1 3 2 5 4 7 6 8
probA -6.61077 -5.33364 -8.32674 -7.14468 -12.1536 -7.36482 -5.63404 -6.25341 -10.494 -8.38453 -11.5728 -8.29938 -6.32957 -7.19343 -6.61497 -8.44527 -5.2477 -4.69621 -7.72733 -13.0328 -10.8256 -6.56093 -6.31457 -7.8184 -5.83949 -11.5325 -6.59554 -4.73862
probB 1.55593 0.497878 1.40058 1.05455 3.41958 0.935052 0.0999192 0.610991 -1.62954 -0.874187 -1.78772 -1.58844 -0.0621964 -1.58364 -1.20241 -2.28911 -0.474108 -0.249726 0.188952 0.295464 -0.931865 -0.0540856 0.205564 -0.495155 -0.0993922 -1.04569 0.214794 -0.179792
nr_sv 1537 407 380 909 1073 682 1275 594
SV
0.08499687756394722 0.01726299570435512 0.2250896511575769 0.05465550024426079 0.2511294095316016 0.2652075501440566 0.03269261189499644 1:0.617659 2:-0.251497 3:0.534995 4:-0.446981 5:0.144886 6:-0.294852 7:-0.00505729 8:0.158916 9:0.0556919 10:0.12691 11:-0.0554542 12:0.109436 13:0.0447548 14:-0.0517002 15:-0.0522185 16:-0.229357 17:-0.467988 18:-0.447006 
0.2656789181538761 0.1159502091472984 0.385625961655671 0.3840101140806363 0.4307839903975391 0.4421656360210828 0.0565723269149625 1:0.645884 2:-0.283136 3:0.6334 4:-0.515878 5:0.175161 6:-0.384906 7:-0.0342721 8:0.16884 9:0.0415315 10:0.00644053 11:-0.0971894 12:0.0755581 13:-0.193307 14:0.27101 15:-0.0773354 16:-0.309068 17:-0.513855 18:-0.532254 
0.3619170159854361 0.1307722256344224 0.5316449254990064 0.5003539818106802 0.5145046265457416 0.6138856353367792 0.09710555706509277 1:0.877956 2:0.286475 3:0.865152 4:-0.390863 5:-0.112511 6:-0.484077 7:-0.0375958 8:0.518943 9:0.652301 10:-0.235091 11:-0.069532 12:0.251218 13:-0.0325308 14:0.839231 15:0.228825 16:-0.19947 17:-0.421941 18:-0.379739 
0.3117127840552334 0.1134045588027597 0.4538052871738976 0.4533063683530785 0.4741037366025229 0.5380520026554617 0.1489186739371669 1:0.676824 2:0.19309 3:0.711504 4:-0.03136 5:0.0962591 6:-0.326617 7:0.160257 8:0.439464 9:0.596639 10:-0.0538075 11:0.000426919 12:0.193341 13:-0.177866 14:0.0335569 15:0.364217 16:-0.0736233 17:-0.495059 18:-0.469499 
0.2688807257255529 0 0 0 0 0.7061862510760699 0.01890558616144513 1:0.62868 2:0.0224905 3:0.530007 4:-0.0956218 5:0.0460619 6:-0.350508 7:0.103618 8:-0.0849588 9:-0.123089 10:-0.112547 11:0.0554812 12:0.110161 13:-0.162971 14:0.454731 15:0.133186 16:-0.0870499 17:-0.473587 18:-0.414674 
0.3782777013260056 0.8229992578871742 0 0 0 0.5507663997690109 0.6001759225462858 1:0.584572 2:0.00943333 3:0.467647 4:-0.171972 5:-0.0871645 6:-0.263672 7:0.123593 8:-0.112026 9:-0.134511 10:-0.039548 11:0.095988 12:0.0784471 13:-0.11873 14:0.433308 15:0.0764238 16:-0.111758 17:-0.51652 18:-0.472529 
0 0 0 0.7641110194149953 0 0.31359647683482 1.348841219721889 1:0.74994 2:-0.221171 3:0.392786 4:-0.195638 5:0.0181255 6:-0.485623 7:0.174239 8:-0.108317 9:-0.00722329 10:0.111481 11:0.307062 12:0.0923136 13:-0.0440271 14:0.11819 15:0.273155 16:-0.151512 17:-0.461535 18:-0.296973 
0.6699761640006864 0 0.3418618757254404 0.6776225298020345 0.05584183928825803 0.2011649264819333 0.3081463320210522 1:0.733131 2:-0.210225 3:0.429262 4:-0.238316 5:-0.0165984 6:-0.441507 7:0.192496 8:-0.0569692 9:0.0109445 10:0.0477448 11:0.259513 12:-0.0607735 13:0.118469 14:0.315455 15:0.234966 16:-0.20324 17:-0.49027 18:-0.386984 
0.2900496528091661 0.09420178665759568 0.4185361237490062 0.4629863744712858 0.4239887066371058 0.4778529788898239 0.06763313769243376 1:0.473844 2:-0.388832 3:0.432274 4:-0.00557531 5:-0.320549 6:-0.710569 7:0.0984091 8:0.169113 9:0.0809555 10:-0.00912847 11:-0.213058 12:0.504874 13:-0.363055 14:0.411517 15:-0.44365 16:-0.190112 17:-0.506285 18:-0.539455 
0.1921998399284754 0.0903712818917925 0.3639395356900644 0.4028281089421646 0.3437496632498671 0.4364811530679124 0.07199031944406266 1:0.425193 2:-0.358644 3:0.316162 4:0.294485 5:-0.199521 6:-0.650017 7:0.250256 8:0.168978 9:0.055414 10:-0.00236003 11:-0.291705 12:0.586416 13:-0.103109 14:0.110603 15:-0.335401 16:-0.0639045 17:-0.48119 18:-0.583911 
0.2100685006585855 0.2416572979130319 0.1360769068988654 1.079485895224503 1.054088621654707 0.2510310016239892 0.5120418151466506 1:0.334261 2:0.242684 3:0.773563 4:-0.296506 5:0.0306985 6:-0.245257 7:0.132124 8:-0.356735 9:0.00461481 10:0.17762 11:0.159836 12:0.280865 13:-0.140413 14:0.119569 15:-0.000808107 16:-0.0838801 17:-0.612998 18:-0.460254 
0.6006969824447961 0 0 0.2084825636146045 0.8510306476219736 0.7265403341809062 0.8733534773111038 1:0.365498 2:0.28617 3:0.732806 4:-0.163234 5:0.0771372 6:-0.298659 7:0.145992 8:-0.334109 9:-0.0592978 10:0.122687 11:0.159371 12:0.282741 13:-0.05514 14:0.183277 15:0.0792299 16:-0.119028 17:-0.599834 18:-0.489827 
0.4282072608522695 0.08192220786192198 0.3674375987941634 0.3183692922207222 0.3284787778861715 0.7399642732802018 0.04548492263329946 1:0.580766 2:0.519524 3:0.430936 4:-0.543762 5:0.168225 6:-0.407087 7:0.181106 8:0.250115 9:0.421668 10:-0.0642252 11:0.0885734 12:0.39299 13:-0.2827 14:0.355012 15:0.0922721 16:0.24095 17:-0.530866 18:-0.399016 
0.2489419809971035 0.0887566385913975 0.3786274465957075 0.401001870384856 0.3536834826830597 0.5527438718870628 0.06253164729696763 1:0.43278 2:0.410471 3:0.425465 4:-0.601524 5:0.313632 6:-0.377101 7:0.153646 8:0.152516 9:0.432602 10:-0.00239502 11:-0.0457295 12:0.485308 13:-0.06243 14:0.390549 15:0.0356254 16:0.176947 17:-0.464202 18:-0.380067 
0 0.4212446277320976 0.3771179298115776 0.3105739845396152 0 1.37314568344197 2.606675947153203 1:0.660694 2:0.169531 3:0.555261 4:-0.241574 5:-0.132156 6:-0.254736 7:0.166271 8:-0.154486 9:0.0623792 10:0.162364 11:0.128409 12:0.267484 13:-0.109964 14:0.275718 15:0.14163 16:-0.0645332 17:-0.51908 18:-0.409194 
1.508799206786234 0.2337610728671308 0.2211474530411353 0.05552562999901926 0 1.646139496355727 5.639925031607571 1:0.612074 2:0.109747 3:0.521172 4:-0.0913081 5:0.0955706 6:-0.265507 7:0.201628 8:-0.222101 9:-0.0221443 10:0.158963 11:0.169354 12:0.214866 13:-0.11647 14:0.151791 15:0.222946 16:-0.103733 17:-0.587108 18:-0.446901 
1.428981719467462 0.1276584880689084 0.3383883419537552 0.2395307929950137 0.2526160685682026 0.6162891830270706 0 1:0.663216 2:-0.043405 3:0.329465 4:-0.0153105 5:-0.393519 6:-0.446827 7:0.107576 8:0.131612 9:-0.179856 10:0.0671888 11:0.00842949 12:0.502788 13:-0.129898 14:0.293076 15:0.14714 16:0.197384 17:-0.552287 18:-0.493271 
1.226986399607328 0.2183817911257769 0.3438060359414498 0.3325836248514226 0.2969659274053068 0.6735566245220762 0.02725902271370185 1:0.59772 2:-0.119316 3:0.307513 4:0.224382 5:-0.0326548 6:-0.521183 7:0.0369921 8:0.0867285 9:-0.308649 10:0.0352464 11:0.0361681 12:0.47109 13:-0.196763 14:0.294473 15:0.220307 16:0.209357 17:-0.574103 18:-0.465152 
0.01426222657622097 0 0.07653267941302187 0 0 0.1576887996320627 0 1:0.424837 2:0.079293 3:0.479399 4:-0.278174 5:-0.050635 6:-0.244062 7:-0.148159 8:-0.00645869 9:-0.123089 10:-0.111677 11:0.116394 12:0.243023 13:-0.148925 14:0.0823948 15:0.0685942 16:-0.0533437 17:-0.635975 18:-0.465432 
0.005752257455659793 0 0 0 0 0.2208608229692164 0 1:0.438599 2:0.0704007 3:0.510992 4:-0.157106 5:0.117719 6:-0.307771 7:-0.175191 8:-0.0241956 9:-0.121678 10:-0.178735 11:0.0944692 12:0.3058 13:-0.12382 14:0.145009 15:0.14591 16:-0.08714 17:-0.615509 18:-0.443794 
0 0.1953365328933814 0.1823554748861244 0.1535245240355022 0.1005665830395298 0.5245287321975971 0.2508073742408193 1:0.748345 2:0.0778535 3:0.461427 4:-0.11201 5:0.0108088 6:-0.391751 7:0.0106673 8:-0.0113787 9:0.172908 10:-0.0997184 11:0.150057 12:0.214339 13:-0.222779 14:-0.127084 15:0.0731707 16:-0.0323161 17:-0.595577 18:-0.382945 
0.9081679919676541 0.6744056768939037 0.5889545874031261 0.2790186457399521 0 0.3559116749209208 0.5856343886167837 1:0.628343 2:-0.0350417 3:0.430458 4:-0.255446 5:-0.0544658 6:-0.282605 7:0.102538 8:-0.096971 9:0.166749 10:0.00121242 11:0.0874993 12:0.140601 13:-0.0911571 14:-0.0756866 15:-0.0308285 16:-0.115275 17:-0.632963 18:-0.322686 
1.412693391086347 0 0.2201363123962719 0 0.4202957378849622 0 0 1:0.846721 2:0.247565 3:0.497344 4:0.0258943 5:-0.160086 6:-0.465405 7:0.373643 8:-0.289108 9:0.319199 10:0.15155 11:0.351622 12:0.254263 13:-0.160089 14:0.0284802 15:0.181038 16:-0.0683816 17:-0.487515 18:-0.423319 
1.391877709413355 0.6838555562473254 0.8610113130684107 0.3591742799453001 0 1.184734393835473 1.539053967967537 1:0.783232 2:0.19639 3:0.454375 4:-0.0259101 5:-0.0773423 6:-0.407669 7:0.320079 8:-0.319568 9:0.265459 10:0.211839 11:0.409721 12:0.240124 13:-0.104685 14:0.195316 15:0.138393 16:-0.143892 17:-0.51812 18:-0.425891 
1.16246434531608 0.2816521802080212 0.4010966626330186 1.067358069809698 0 0.0472121126911114 0.1277770385328202 1:0.586311 2:0.311285 3:0.311832 4:-0.0901887 5:0.0440675 6:-0.551107 7:0.315059 8:-0.086032 9:0.213974 10:-0.0549572 11:0.187756 12:-0.0180694 13:-0.0196915 14:0.415923 15:0.14523 16:-0.0425901 17:-0.500987 18:-0.442079 
0 0 2.333006731378354 1.569617723673042 0 0.7511795106451952 0 1:0.516697 2:0.277036 3:0.272358 4:-0.206808 5:-0.0617318 6:-0.438595 7:0.34136 8:-0.0848062 9:0.180309 10:0.059118 11:0.180989 12:-0.0468106 13:-0.110472 14:0.379183 15:0.111596 16:-0.0636015 17:-0.465846 18:-0.41238 
0 0 0 0.174105112351656 0 0 0.1240571236096473 1:0.615554 2:-0.108973 3:0.485531 4:-0.192713 5:-0.071056 6:-0.273098 7:0.271035 8:0.121584 9:-0.0828854 10:0.18127 11:-0.0532539 12:0.287336 13:-0.138307 14:0.221894 15:0.0728097 16:0.061794 17:-0.492596 18:-0.406078 
0.0702906166560001 0 0 0.2218032077312113 0 0.006679859296215696 0.5438860449831963 1:0.614049 2:-0.0844705 3:0.445338 4:-0.0888186 5:-0.0168896 6:-0.260649 7:0.301879 8:0.122213 9:-0.0683585 10:0.200385 11:-0.0954028 12:0.297484 13:-0.0663055 14:0.103037 15:0.0704187 16:0.104305 17:-0.525515 18:-0.41271 
0.2970807241589804 0.4790885718860818 0.03626917612705656 0.4748988829162676 0 0.6798086515072612 0 1:0.713647 2:-0.101817 3:0.382433 4:-0.20537 5:-0.0327708 6:-0.48309 7:0.257418 8:0.0497386 9:-0.0541727 10:0.292278 11:0.0447004 12:0.112055 13:-0.114653 14:0.484512 15:0.259388 16:-0.102878 17:-0.541993 18:-0.496515 
0 0.1111066703076518 0 0 0 0 0 1:0.659249 2:-0.119092 3:0.389689 4:-0.200697 5:0.0380932 6:-0.447204 7:0.272104 8:0.0781981 9:-0.152038 10:0.270967 11:0.0217785 12:0.116471 13:-0.084263 14:0.382897 15:0.300484 16:-0.117616 17:-0.55275 18:-0.527836 
0.3583525272752336 0.3500341424914922 0.1450216603290234 0.5175894027032262 0.2182181893994295 0.7536282567309852 0.333294820152059 1:0.454441 2:0.272636 3:0.526203 4:0.238364 5:-0.128456 6:-0.409313 7:-0.0583415 8:0.0425036 9:0.0217346 10:0.0170116 11:0.0753672 12:0.572604 13:-0.300735 14:0.164211 15:0.00429396 16:-0.0128669 17:-0.533332 18:-0.450781 
0.3466193719175864 0.009767216777793852 0.2205652701952956 0.1058568490134779 0.2467536638201688 0.3527771136446647 0 1:0.493197 2:0.317187 3:0.523808 4:0.13702 5:-0.293731 6:-0.387391 7:-0.0618632 8:0.109734 9:0.0153614 10:-0.037869 11:0.0540941 12:0.600952 13:-0.0702744 14:0.191359 15:-0.0213224 16:-0.0669696 17:-0.544832 18:-0.449416 
0.4973235511770275 0 0.3418282966111996 0.5430904509629304 0.1369844139588143 0.545036782864121 0.02039733279818796 1:0.555776 2:-0.0457581 3:0.323023 4:-0.313347 5:-0.111937 6:-0.27532 7:0.203879 8:0.231733 9:0.163043 10:0.176947 11:0.13182 12:0.518532 13:-0.0462034 14:0.0923477 15:-0.186594 16:0.0296833 17:-0.619563 18:-0.471566 
0.1179347577355675 0 0.2835921038987405 0.4171322727260446 0.1760386836033022 0.1831857407979839 0 1:0.523614 2:-0.0831228 3:0.37932 4:-0.188833 5:0.231679 6:-0.364681 7:0.114255 8:0.243377 9:0.0949277 10:0.132545 11:0.0703523 12:0.502097 13:-0.238461 14:0.119556 15:-0.196759 16:0.0143982 17:-0.606277 18:-0.530577 
0.1606491939287305 0.07726649399358397 0.2487221670214933 0.1816327373130435 0.2444709721007866 0.2697982555903788 0.06325552401284579 1:0.497793 2:0.292473 3:0.622895 4:-0.486043 5:-0.0305996 6:-0.258897 7:0.119379 8:0.154156 9:0.1891 10:-0.0135704 11:0.368265 12:0.194632 13:-0.206322 14:0.547354 15:0.521678 16:0.244791 17:-0.710329 18:-0.397854 
0.2394537460783673 0.08337322233503498 0.3324958583004798 0.4035754276411667 0.3244153426292825 0.3571356289063053 0.0789170672385399 1:0.529731 2:0.344762 3:0.658085 4:-0.246353 5:0.287621 6:-0.370392 7:0.149486 8:0.0695327 9:0.184501 10:-0.0446158 11:0.348393 12:0.207861 13:-0.0418566 14:0.50477 15:0.595701 16:0.234259 17:-0.738033 18:-0.432351 
0.004173604371833298 0 0.197810282778343 0 0.2580009622160391 0.3664987398806401 0 1:0.269451 2:-0.134867 3:0.364449 4:0.279077 5:-0.153772 6:-0.331115 7:0.240627 8:0.389995 9:0.0495508 10:0.173128 11:0.254925 12:-0.0592342 13:-0.0930432 14:0.330293 15:0.0956778 16:-0.161734 17:-0.502718 18:-0.506423 
0 0.03725369964677491 0.007643658463611739 0.2406423480639696 0.1310533628920063 0 0 1:0.354871 2:-0.104273 3:0.441383 4:0.16194 5:-0.21287 6:-0.41934 7:0.225661 8:0.302732 9:0.0128917 10:0.214051 11:0.246146 12:0.0188973 13:-0.00527326 14:0.448728 15:0.0550072 16:-0.223822 17:-0.432061 18:-0.554423 
0.04602093425016028 0 0.1639793183740104 0.1969122913840441 0.1579828057859013 0.3393690382653661 0.3694183406851823 1:0.63311 2:-0.366896 3:0.369393 4:-0.00173017 5:-0.0479031 6:-0.603583 7:0.118383 8:0.210447 9:0.24918 10:0.107455 11:0.0796024 12:0.123324 13:-0.165159 14:0.0417778 15:0.398698 16:-0.0383151 17:-0.474823 18:-0.363214 
0 0 0.1922460797727402 0 0.5424566862963623 0.1991332940185416 0.2300579921990575 1:0.565095 2:-0.482588 3:0.387741 4:-0.150271 5:-0.170959 6:-0.547337 7:0.145035 8:0.217483 9:0.126162 10:0.133076 11:-0.108316 12:0.219104 13:-0.0755026 14:0.149588 15:0.18397 16:-0.0951569 17:-0.506319 18:-0.442042 
0.4615266920988277 0.1213422339077211 0.3261326112560955 0.3282607093371029 0.3145816632221719 0.4694060128477991 0.05829819986388736 1:0.748286 2:0.123557 3:0.420136 4:-0.0908099 5:-0.0285888 6:-0.301162 7:0.27873 8:0.320051 9:0.160549 10:-0.341042 11:0.390709 12:0.0825627 13:-0.122539 14:0.118366 15:-0.440297 16:-0.347905 17:-0.505951 18:-0.425874 
0.3935906033123778 0.1417912092227421 0.2963476174219779 0.3122495073737647 0.2913276324179216 0.5732131029275588 0.1015211079330629 1:0.696028 2:0.0879155 3:0.409581 4:-0.080833 5:0.0170707 6:-0.262426 7:0.343877 8:0.290252 9:0.167981 10:-0.254281 11:0.362056 12:0.155305 13:-0.147549 14:-0.195329 15:-0.33729 16:-0.321301 17:-0.533066 18:-0.447736 
0 0 0 0 0 0.6511634405424525 0 1:0.609696 2:-0.200954 3:0.518977 4:-0.232729 5:0.0365402 6:-0.318689 7:0.282801 8:-0.021363 9:-0.0808655 10:0.187272 11:0.0741714 12:0.16064 13:-0.131642 14:-0.120705 15:0.0847397 16:-0.0471866 17:-0.43164 18:-0.40655 
0.178236129820346 0.05758120408228976 0.3117485092619019 0.287003366636709 0.2814888987139271 0.4102651676185501 0.08410006617612709 1:0.844049 2:-0.221986 3:0.453748 4:-0.0608419 5:-0.0762435 6:-0.510231 7:0.332377 8:0.154744 9:0.143901 10:0.115344 11:0.131879 12:-0.227438 13:-0.140062 14:0.124101 15:0.415853 16:0.0200062 17:-0.314755 18:-0.27037 
0 0 0.07811395377480132 0.02164747171721043 0 0.1070117405595514 0.02434301307223961 1:0.862109 2:-0.214281 3:0.483601 4:-0.124835 5:0.00989073 6:-0.551186 7:0.151701 8:0.251475 9:0.0954019 10:0.00905202 11:0.06619 12:-0.110099 13:0.0225259 14:0.221933 15:0.328412 16:-0.0280511 17:-0.40098 18:-0.300226 
1.612574349223075 0.2389253485107179 0.1775745781846754 0 0.1561802196602601 0 0 1:0.752525 2:0.0273158 3:0.40353 4:-0.201041 5:-0.0768102 6:-0.488461 7:0.408238 8:-0.0900957 9:-0.0518954 10:0.0588435 11:0.139499 12:0.1081 13:0.0155274 14:0.013579 15:-0.134717 16:-0.106573 17:-0.557275 18:-0.496679 
0.02695605918536451 0.1738564258138782 0.2722582243345245 0.2565063762351267 0.5163678214485046 0.1412739769600907 0.08584465598895327 1:0.643454 2:-0.0668723 3:0.36207 4:-0.140232 5:0.0521642 6:-0.447589 7:0.428287 8:-0.142863 9:-0.150012 10:0.108832 11:0.0741254 12:0.120274 13:0.0187244 14:-0.131452 15:-0.15051 16:-0.115552 17:-0.513928 18:-0.515026 
0.3559436829652671 0.09875054003451933 0.4235444322057479 0.400661746776742 0.4150969262553524 0.6265817705939 0.08455453309008963 1:0.869963 2:0.280337 3:0.532439 4:0.034943 5:-0.0247623 6:-0.377692 7:0.121469 8:0.450342 9:0.35902 10:0.047032 11:-0.0790342 12:0.33299 13:-0.113463 14:-0.160687 15:-0.147477 16:-0.410413 17:-0.370446 18:-0.477405 
0.2431799303827634 0.08184842368037529 0.2514775822797777 0.2865447546176841 0.2389260372745614 0.5746852999059521 0.04657810450418633 1:0.719975 2:0.114538 3:0.54193 4:-0.248456 5:-0.0353882 6:-0.249926 7:0.0778801 8:0.389101 9:0.305657 10:0.143515 11:-0.064022 12:0.289177 13:-0.0831029 14:0.0234414 15:-0.266123 16:-0.551561 17:-0.421278 18:-0.411073 
0 0 0 0.05455494254165973 0 0 0 1:0.582733 2:-0.00331723 3:0.408682 4:0.131436 5:-0.19231 6:-0.465197 7:0.0081784 8:0.27729 9:0.244531 10:-0.0409674 11:-0.106827 12:0.403018 13:-0.187294 14:0.288279 15:0.0727679 16:0.0102704 17:-0.513436 18:-0.369681 
0.235848572673087 0 0 0 0 0.3427732369240611 0.06953046263738272 1:0.515832 2:-0.0719865 3:0.353718 4:0.12176 5:-0.187666 6:-0.381736 7:0.0862737 8:0.248418 9:0.203697 10:0.0112383 11:-0.103238 12:0.36833 13:-0.235781 14:0.285026 15:0.0668425 16:-0.00074527 17:-0.538605 18:-0.384507 
0.1829024161912772 0.08047890449406186 0.280148632408367 0.2840511346149145 0.2662311310634143 0.3788600792012733 0.05087080069337963 1:0.382232 2:-0.371633 3:0.290104 4:-0.0436893 5:-0.213749 6:-0.413763 7:-0.13304 8:0.105605 9:0.202422 10:0.129863 11:-0.321103 12:0.33892 13:-0.327985 14:0.167175 15:-0.0289779 16:-0.302927 17:-0.335372 18:-0.53355 
0.2163043109174907 0.08795516805034315 0.2881495026151125 0.2827904309772649 0.2746338321300099 0.3390502289807005 0.04145515667483932 1:0.417856 2:-0.315275 3:0.360737 4:0.0231004 5:-0.114879 6:-0.503352 7:-0.193847 8:0.102402 9:0.182307 10:0.0591676 11:-0.387866 12:0.357897 13:-0.135613 14:0.247193 15:-0.0654998 16:-0.320439 17:-0.299526 18:-0.592708 
0.2670445102917165 0.2733327911121423 0.9260060973651526 0.5533298845156288 0.2520900019340199 0.6415479994498906 0.4098609948670297 1:0.448435 2:-0.192522 3:0.145065 4:0.00936 5:-0.26819 6:-0.572773 7:0.0170802 8:0.0534256 9:0.0837639 10:0.27062 11:0.374227 12:0.32013 13:-0.24262 14:0.208295 15:0.135158 16:-0.148503 17:-0.510006 18:-0.461909 
0.2641388177104561 0 0.1530063977424017 0.3881590932458075 0.06065807581422143 0 0 1:0.422167 2:-0.155075 3:0.155413 4:0.0843497 5:-0.0880057 6:-0.65661 7:-0.0745763 8:0.121629 9:0.114906 10:0.21066 11:0.334818 12:0.417739 13:-0.247553 14:0.253293 15:0.1978 16:-0.15393 17:-0.468441 18:-0.436569 
0.5492633719156536 0 0 0.004425605489819763 0.384607502438593 0.2569713587813503 0.4571216193036036 1:0.510688 2:0.136938 3:0.57042 4:-0.286643 5:0.0674327 6:-0.523971 7:0.269894 8:-0.232031 9:0.349299 10:0.189259 11:0.141655 12:0.14422 13:-0.0720388 14:0.218126 15:0.0840642 16:-0.18941 17:-0.540321 18:-0.506236 
1.962974027707949 0.2043169404872541 0.7469735722168066 3.49786413754762 0.5045960327926391 0.5590952137933508 0.772452466462041 1:0.424454 2:0.198056 3:0.490032 4:-0.262929 5:0.0415754 6:-0.420599 7:0.236073 8:-0.125303 9:0.286329 10:0.237128 11:0.158934 12:0.12961 13:-0.125335 14:0.292939 15:0.0882444 16:-0.227103 17:-0.491833 18:-0.465232 
0.2603910135104673 0.1838662755929967 0.3583524818268538 0.3566278323769227 0.36192817650403 0.5097887792790564 0.0644692462395445 1:0.611502 2:0.295831 3:0.547962 4:-0.179503 5:-0.220356 6:-0.331611 7:-0.108531 8:0.0414506 9:0.469694 10:0.0105121 11:0.313136 12:0.0920874 13:0.200146 14:0.0349972 15:0.0179252 16:-0.222977 17:-0.517017 18:-0.456592 
0.3097445853957992 0.4674753926567752 0.5065200251442336 0.5685945333827845 0.3882343307532973 0.7739280254682535 0.3513791262582548 1:0.631815 2:0.252101 3:0.635807 4:-0.114957 5:0.05653 6:-0.454874 7:-0.201999 8:0.0271696 9:0.403707 10:-0.0563086 11:0.400081 12:0.0598538 13:-0.310931 14:0.197768 15:0.176152 16:-0.260845 17:-0.550956 18:-0.433783 
0.4718693886083206 0.08238214398410695 0.5398918716979685 0.7321979748178365 0.4396972141801335 0.519640316389562 0.04493528512728058 1:0.394333 2:0.308314 3:0.16581 4:-0.489267 5:0.0452233 6:-0.440094 7:0.399099 8:0.0664185 9:0.0443705 10:0.0477115 11:0.0820907 12:0.137688 13:-0.189776 14:0.101944 15:-0.187466 16:-0.277342 17:-0.604966 18:-0.463471 
1.292065863074417 0 0.7918517443301691 1.160740689538959 0.5974359764410456 0.3228986714720398 0 1:0.410854 2:0.352649 3:0.174203 4:-0.361644 5:0.183611 6:-0.485109 7:0.408774 8:0.0400437 9:0.0477367 10:-0.00167859 11:0.0335412 12:0.212086 13:-0.0468039 14:0.0953574 15:-0.00890435 16:-0.139479 17:-0.605898 18:-0.409808 
0 0.2656321399694774 0 0 0 0.5815310239982746 2.292236715522344 1:0.653472 2:0.00897515 3:0.404046 4:0.0799876 5:-0.0964004 6:-0.32101 7:0.330929 8:-0.105533 9:-0.0602342 10:0.214127 11:0.11989 12:0.0638627 13:-0.144013 14:0.017604 15:0.187566 16:-0.0974362 17:-0.403459 18:-0.464643 
0 1.151474020855089 0 0 0 1.331920165429331 1.387841979391916 1:0.616808 2:-0.0165597 3:0.405088 4:0.0590681 5:-0.023009 6:-0.27374 7:0.268464 8:-0.11869 9:-0.108575 10:0.204911 11:-0.0708387 12:0.138173 13:-0.159641 14:0.126516 15:0.205298 16:-0.151695 17:-0.436152 18:-0.433862 
0 0 0 0 0.1339666683297749 0.001282031619699989 0 1:0.855441 2:0.348008 3:0.476916 4:-0.0790991 5:-0.0839626 6:-0.575141 7:0.250521 8:0.208957 9:0.176508 10:0.0696097 11:0.26419 12:0.323096 13:-0.0951105 14:0.0360514 15:0.0100575 16:-0.138488 17:-0.580387 18:-0.485295 
1.215840596264874 0 0.2759407708461068 0.2190070978375593 0.06420116347675819 0.613879979311663 0.1000375515248619 1:0.811533 2:0.392256 3:0.447874 4:-0.050046 5:-0.00387194 6:-0.555604 7:0.28299 8:0.254467 9:0.229974 10:0.0907626 11:0.172789 12:0.372464 13:-0.22385 14:0.0693858 15:0.00433891 16:-0.141508 17:-0.538859 18:-0.464872 
0.1460448713944491 0 0 0 0 1.079004351503307 0 1:0.799828 2:0.288957 3:0.594879 4:-0.0271798 5:-0.0430595 6:-0.459204 7:0.0444385 8:0.117444 9:0.143977 10:-0.0179283 11:0.129273 12:0.255715 13:-0.0478685 14:0.278983 15:0.126425 16:-0.149385 17:-0.538463 18:-0.475919 
0.2721190637000582 0 0 0.09615633230776396 0 0.188546312571294 0 1:0.793613 2:0.301664 3:0.623962 4:-0.103969 5:-0.0835717 6:-0.427765 7:0.0753035 8:0.0763893 9:0.133051 10:0.0183827 11:0.223999 12:0.204111 13:-0.190954 14:0.217882 15:0.194059 16:-0.0797288 17:-0.581689 18:-0.472657 
0.2510379550361856 0.09723068302745061 0.4526458481683124 0.4087904630158667 0.3924226154017476 0.4308041717942487 0.07458169024527125 1:0.126012 2:-0.358138 3:-0.119781 4:0.0979769 5:-0.242114 6:-0.301256 7:0.520913 8:0.0386197 9:-0.068698 10:0.237033 11:0.37921 12:-0.0190521 13:0.0207393 14:-0.11894 15:0.0983954 16:-0.272165 17:-0.605927 18:-0.485763 
0.3347011440045872 0.07403175741646779 0.3403380962320898 0.3650205778903676 0.4217544693526029 0.3989240182073061 0.08634811457676828 1:0.158187 2:-0.302173 3:-0.0567301 4:0.216837 5:-0.130014 6:-0.380917 7:0.439311 8:0.0852867 9:-0.0873977 10:0.169887 11:0.210493 12:0.174196 13:0.0974432 14:-0.302051 15:0.0741693 16:-0.247755 17:-0.577391 18:-0.549918 
0.5922737233176886 0.1008055269194793 0.3604888663002023 0.8388993790945254 0.1149143249298849 0.9789205772396846 0 1:0.775833 2:0.100464 3:0.569759 4:-0.376452 5:-0.152028 6:-0.422088 7:0.10584 8:-0.146008 9:0.0768396 10:0.0979722 11:0.297132 12:0.0937483 13:-0.0178228 14:0.450248 15:0.0376073 16:-0.193643 17:-0.580838 18:-0.422251 
0.1850530315665471 0.362310095597243 0.1377437468643104 0.2644477849600945 0.02299974976316181 0.9733141863507176 0.5333236617996623 1:0.717292 2:0.0776663 3:0.553649 4:-0.133222 5:0.145283 6:-0.439961 7:0.100068 8:-0.176069 9:0.0755376 10:0.124921 11:0.192761 12:0.347873 13:0.0303339 14:0.0171554 15:0.0890615 16:-0.100518 17:-0.583668 18:-0.360546 
0 0 0 0.09202000020632274 0 0 2.215470084672123 1:0.595924 2:-0.0513672 3:0.526525 4:-0.249126 5:-0.0201159 6:-0.293917 7:0.388522 8:-0.0603173 9:-0.0195253 10:0.191476 11:0.268255 12:0.252137 13:-0.130815 14:0.2729 15:0.0127783 16:-0.10633 17:-0.568 18:-0.502192 
0 0.1148356293507492 0 0 0 0 0 1:0.65773 2:0.0291185 3:0.456046 4:-0.0413482 5:0.046736 6:-0.313856 7:0.413081 8:0.0112454 9:-0.0552336 10:0.136666 11:0.262048 12:0.293381 13:-0.0524738 14:0.197514 15:0.101117 16:-0.0516389 17:-0.577292 18:-0.534668 
0 0 0.3293607841930042 0.2900039006858648 0.3387273753190841 0.3329685934168466 0.02800991657323273 1:0.919273 2:-0.106132 3:0.366177 4:-0.319758 5:0.0366756 6:-0.405854 7:-0.00840341 8:0.120517 9:0.213765 10:0.103582 11:-0.0630286 12:0.301727 13:-0.0544148 14:0.124729 15:0.0214651 16:-0.0522255 17:-0.565556 18:-0.0930968 
0.3435216538636291 0.0199821497909029 0.4631458343035459 0.2639579920503687 0.3058623107523888 0.5746065916341057 0 1:0.821709 2:-0.207272 3:0.255679 4:-0.180937 5:0.0575103 6:-0.400785 7:0.0198732 8:0.131032 9:0.217908 10:0.205609 11:-0.0425571 12:0.303222 13:-0.231557 14:-0.0254059 15:-0.191631 16:-0.256113 17:-0.630781 18:-0.232359 
0.2463241587956964 0.05403483163429266 0.2399893910511249 0.2264921655077732 0.2302680554539364 0.402780342152472 0 1:0.525878 2:-0.388083 3:0.00220819 4:-0.0707992 5:-0.317783 6:-0.434873 7:-0.111452 8:0.35847 9:0.0998241 10:0.388253 11:0.224249 12:0.508163 13:-0.246761 14:0.22005 15:0.0048122 16:-0.0344477 17:-0.636059 18:-0.326567 
0.2135902360883888 0.05767679477434947 0.3234929807452714 0.2581435372527913 0.3158933042976863 0.3800974601571229 0.01924923376950481 1:0.526526 2:-0.354561 3:0.0427289 4:0.1666 5:-0.0142461 6:-0.504242 7:-0.203995 8:0.297748 9:0.190377 10:0.319389 11:0.283263 12:0.337853 13:-0.363699 14:0.223421 15:-0.000280369 16:-0.101924 17:-0.622337 18:-0.261048 
0.3996133949288027 0.02373813684295413 0.0554034705561608 0.2171263467068312 0.1955850596503429 0.02723003251242282 0.2555539678554272 1:0.476645 2:-0.0719163 3:0.455959 4:0.159026 5:-0.265342 6:-0.620331 7:0.0327457 8:0.126299 9:0.0359929 10:0.250107 11:0.271469 12:0.235522 13:-0.114723 14:0.0883858 15:-0.0883507 16:-0.197266 17:-0.471357 18:-0.538428 
0 0.08559283859286418 0 0.7632953259066547 0.5659880835755421 0 0.1696129451927892 1:0.408948 2:-0.109527 3:0.49699 4:0.134321 5:-0.135539 6:-0.616499 7:0.0451023 8:0.0643101 9:0.118619 10:0.274502 11:0.201438 12:0.266658 13:-0.160493 14:0.263835 15:-0.071457 16:-0.317498 17:-0.494142 18:-0.486984 
0.1496490144577452 0.08280893679456477 0 0.3056647129076923 0.4394467458701011 0.4610044833303341 0.6801979714395129 1:0.552694 2:-0.231883 3:0.401568 4:-0.294674 5:0.0387044 6:-0.246809 7:0.228685 8:-0.22157 9:-0.0504092 10:0.290862 11:0.170554 12:0.0984694 13:0.0215647 14:-0.115386 15:0.0201507 16:-0.182834 17:-0.553231 18:-0.459749 
1.561604375831926 0.3511986630764746 0 0 0 0 0.863212999860369 1:0.622561 2:-0.137156 3:0.354633 4:-0.117314 5:0.0224208 6:-0.272407 7:0.238328 8:-0.0944048 9:-0.148351 10:0.248979 11:0.218181 12:0.106903 13:0.135115 14:-0.0274838 15:0.121619 16:-0.129212 17:-0.497438 18:-0.52458 
0.8827329620179872 0 0.05434293419916822 0.03651187987755324 0 0.4501397833706163 0.4550444655916241 1:0.616387 2:-0.306017 3:0.398831 4:-0.0540965 5:-0.187957 6:-0.591925 7:0.244073 8:0.0306757 9:0.257093 10:0.236537 11:0.205379 12:0.218283 13:-0.174214 14:0.367289 15:0.184926 16:-0.190944 17:-0.447724 18:-0.378815 
0.159518004587275 0 0.1928658219101635 0.4432351808724526 0.04408304104864506 0.3422017661454668 0.6452762936801328 1:0.614482 2:-0.310313 3:0.414376 4:0.0363204 5:0.00315166 6:-0.62545 7:0.178128 8:0.0447772 9:0.314327 10:0.198759 11:0.120683 12:0.276592 13:-0.100004 14:0.281884 15:0.208819 16:-0.179354 17:-0.445078 18:-0.426656 
0 0 0 0 0.07495456318818854 0 0 1:0.570709 2:-0.172443 3:0.538163 4:-0.310719 5:0.100209 6:-0.483578 7:0.244401 8:-0.0251394 9:0.0254575 10:0.129286 11:0.382694 12:0.0956425 13:-0.0267467 14:0.0985515 15:-0.00970764 16:-0.0723881 17:-0.586897 18:-0.588686 
0.1221977014472607 0.06194278102308336 0.3550696752481992 0.2390082461456755 0.3668189293558385 0.4169555757026517 0.1918991850697304 1:0.499364 2:-0.611559 3:0.231535 4:-0.118455 5:-0.152011 6:-0.569481 7:-0.0122367 8:0.114714 9:0.185622 10:0.24741 11:-0.0519104 12:0.13928 13:-0.227624 14:0.290109 15:-0.0667178 16:-0.11953 17:-0.375757 18:-0.291809 
0.09622165996238584 0.05901248719136189 0.2320984327706843 0.2512721104644913 0.3192418582456455 0.2563825869432238 0 1:0.532534 2:-0.599663 3:0.242267 4:0.005135 5:-0.0534825 6:-0.629211 7:-0.0285915 8:0.248959 9:-0.0114623 10:0.0649 11:-0.0356803 12:0.10893 13:-0.198646 14:0.298357 15:0.0187523 16:-0.207815 17:-0.392351 18:-0.32298 
0.3172494284893884 0.08455884393635774 0.3544788486367901 0.3346677162432775 0.3183744168679125 0.3894384503867429 0.0564344613709875 1:0.409026 2:0.0793161 3:0.00744514 4:-0.193822 5:-0.254947 6:-0.646109 7:-0.0323378 8:0.426388 9:0.345676 10:-0.178413 11:-0.00370465 12:0.0939301 13:0.146335 14:0.171021 15:-0.049686 16:-0.247703 17:-0.576497 18:-0.357283 
0.2928479904108532 0.08764238144366636 0.3635602598980032 0.3931869553139603 0.3350888775222355 0.3940974144971415 0.06636900653149773 1:0.390628 2:0.0627432 3:0.0738036 4:0.126465 5:0.0494578 6:-0.677638 7:-0.0511639 8:0.420746 9:0.376754 10:-0.172406 11:0.141491 12:0.191649 13:-0.0937524 14:0.0788639 15:0.0972237 16:-0.221893 17:-0.531234 18:-0.434666 
0.5407357305526681 0 0.3926065603338801 0.2872511167004537 0.3956188740667025 0.3138675695440253 0 1:0.508828 2:-0.137335 3:0.364771 4:0.103872 5:-0.153597 6:-0.466528 7:0.189546 8:-0.0101428 9:0.280971 10:-0.304842 11:0.127845 12:0.148533 13:0.0122123 14:0.510478 15:-0.285688 16:-0.181954 17:-0.414483 18:-0.377992 
0 0 0.141656367101002 0.208645689109377 0.2788781863669633 0.09956497305957915 0 1:0.520532 2:-0.136344 3:0.356693 4:0.133748 5:-0.182414 6:-0.467544 7:0.170404 8:0.0217206 9:0.160109 10:-0.331792 11:0.225898 12:0.103712 13:-0.306736 14:0.357119 15:-0.170805 16:-0.0638023 17:-0.390933 18:-0.315159 
0.004615253652835149 0 0.1245708459692139 0.06423159246931848 0.08925413354635353 0.1454108530662893 0 1:0.31506 2:-0.02628 3:0.125119 4:0.0688575 5:-0.284067 6:-0.30458 7:-0.0125917 8:0.469426 9:0.0721692 10:0.107159 11:0.344093 12:0.25807 13:-0.0951029 14:0.19333 15:-0.272061 16:-0.171085 17:-0.569539 18:-0.363005 
0.542603048739369 0.04924853855600118 0.2941338464376483 0.26908728257495 0.1852135703828666 0.2730032351649983 0 1:0.310489 2:-0.115889 3:0.102112 4:0.0645668 5:-0.203911 6:-0.380671 7:-0.0382088 8:0.384285 9:-0.027989 10:0.136597 11:0.407827 12:0.246984 13:-0.0559742 14:0.146544 15:-0.249263 16:-0.215548 17:-0.558657 18:-0.32541 
0.2977976784823977 0.1145314583024788 0.3949164154375022 0.2654465922200517 0.3914430606649527 0.4947074845263001 0.1990378182197136 1:0.340328 2:-0.295535 3:0.0303454 4:0.0996641 5:-0.257369 6:-0.368592 7:0.230935 8:0.248225 9:0.104436 10:0.324294 11:0.374242 12:0.108004 13:0.0217956 14:-0.0792781 15:0.104858 16:-0.103363 17:-0.561741 18:-0.494122 
0.2184255635856025 0.01359057696612834 0.1753614008063112 0.271751273558523 0.1797652379502391 0.1957511961907908 0.007028952928839264 1:0.264951 2:-0.38452 3:0.0154889 4:0.211859 5:-0.138447 6:-0.39469 7:0.330738 8:0.207563 9:-0.00763189 10:0.303922 11:0.372006 12:0.0797377 13:0.06287 14:-0.0809677 15:0.183516 16:-0.163479 17:-0.526522 18:-0.459241 
0 0 0.04384840906714373 0.1647351259312739 0.0535715305096865 0.1710923634919052 0.04028782188141734 1:0.392824 2:-0.2575 3:0.386786 4:-0.0903527 5:-0.13487 6:-0.525243 7:-0.266051 8:0.0737097 9:0.241007 10:0.0339445 11:0.0582868 12:0.365194 13:-0.280231 14:0.341574 15:-0.216161 16:-0.233759 17:-0.511445 18:-0.452003 
0.04565230260146597 0 0.06953273415427488 0 0.1154037799882663 0 0 1:0.437028 2:-0.232694 3:0.395885 4:-0.00928888 5:-0.119285 6:-0.600199 7:-0.204083 8:-0.0096599 9:0.247088 10:0.00479249 11:0.0301314 12:0.432098 13:-0.0941965 14:0.379036 15:-0.180491 16:-0.328267 17:-0.486781 18:-0.480836 
0.2840616970512228 0.1046470783812249 0.4297458709251479 0.3889651387403774 0.4345962769849753 0.4947870008499487 0.05909634687412701 1:0.548005 2:0.242952 3:0.373604 4:-0.480554 5:0.132652 6:-0.162427 7:0.425629 8:0.555763 9:0.0535275 10:0.124141 11:-0.0203792 12:0.282753 13:0.166278 14:0.547045 15:0.174689 16:0.137881 17:-0.565669 18:-0.458331 
0.3157323687035919 0.095185384641326 0.4140161349933656 0.4054298423049285 0.6223075766296091 0.455024653018369 0.03854057226183535 1:0.524393 2:0.196463 3:0.364959 4:-0.427806 5:0.263697 6:-0.203188 7:0.414912 8:0.528406 9:0.0242933 10:0.110138 11:0.0249472 12:0.187186 13:-0.177048 14:0.371705 15:0.234912 16:0.184395 17:-0.621566 18:-0.40226 
0 0 0 1.886626579137804 0.1612787639451592 0.573333731844296 0.8638258650665688 1:0.40959 2:-0.0331612 3:0.565868 4:-0.326434 5:0.00981445 6:-0.249765 7:0.126749 8:0.273466 9:0.184082 10:0.22698 11:0.250441 12:0.31931 13:0.0268569 14:0.187367 15:0.128957 16:-0.148249 17:-0.529638 18:-0.462482 
0.07418909753038103 0 0.1908584078770962 0.7943536242145677 0.3587487217045424 0.1843734767348173 0.2173392421028541 1:0.452682 2:0.0310173 3:0.536299 4:-0.281684 5:0.0635982 6:-0.354451 7:0.221506 8:0.269153 9:0.0888482 10:0.111137 11:0.262234 12:0.279028 13:-0.197156 14:0.0790231 15:0.349488 16:-0.132816 17:-0.580259 18:-0.555161 
0.9638222430438949 0.01355768832894437 0.5952147818219024 0.4357770781155865 0.3787666300803825 0.01887513575725368 0 1:0.571698 2:0.460108 3:0.366711 4:-0.152082 5:-0.0700448 6:-0.402232 7:0.43222 8:-0.108285 9:0.193604 10:0.0168605 11:0.262474 12:-0.0915348 13:-0.206376 14:0.154756 15:-0.0788818 16:-0.176092 17:-0.532205 18:-0.550298 
1.33867821720263 0 1.107864326308578 0.1995298780228331 0.3009807056017663 0.209829398984006 0 1:0.559096 2:0.540846 3:0.276598 4:-0.147013 5:0.100345 6:-0.489997 7:0.337869 8:-0.106784 9:0.151379 10:-0.0407177 11:0.153113 12:-0.0958808 13:-0.0666503 14:0.19593 15:-0.0281774 16:-0.186525 17:-0.564529 18:-0.424325 
0.3753680237321188 0.01085094783854065 0.2800813943086596 0.327730852838727 0.2191459034083111 0.2695243760077627 0.08309573961498641 1:0.75959 2:-0.0852446 3:0.386403 4:-0.189459 5:-0.0908449 6:-0.430174 7:0.34114 8:0.238869 9:0.302256 10:-0.0411656 11:0.292022 12:-0.0312 13:-0.0484572 14:0.181889 15:-0.0911403 16:-0.193646 17:-0.703003 18:-0.463954 
0.3213772161065113 0.03466382809544449 0.3026111874541682 0.2467813617393948 0.3219398625660959 0.2562050553241391 0.06699473496916418 1:0.744216 2:-0.0721499 3:0.327094 4:-0.0988109 5:0.0669392 6:-0.486866 7:0.400393 8:0.246142 9:0.343195 10:-0.0280491 11:0.144824 12:-0.0587601 13:0.0233573 14:-0.0809463 15:-0.0144449 16:-0.157788 17:-0.62338 18:-0.429383 
0.2567404009348674 0.2546263765292923 0.1088972784069393 0.2280630273382552 0.03604113267039891 0.4231407879670522 0.1270884131994722 1:0.467971 2:-0.27334 3:0.147239 4:0.259252 5:0.0341486 6:-0.350523 7:0.207257 8:0.26198 9:0.0782524 10:0.040372 11:0.161255 12:0.309042 13:-0.267517 14:0.085064 15:-0.050372 16:0.00190237 17:-0.527004 18:-0.556999 
0.5266148077227042 0.1238788733563189 0.242135972061589 0.1809021239783343 0.2305444804888228 0.3326783435123033 0.1927543853705842 1:0.452667 2:-0.372152 3:0.14317 4:-0.0954919 5:-0.243744 6:-0.291916 7:0.287481 8:0.276203 9:-0.070456 10:0.0922608 11:0.0311883 12:0.42428 13:-0.000656678 14:0.174993 15:-0.234094 16:-0.0378688 17:-0.520335 18:-0.561537 
0.7805725994318173 0.0601822779577681 0.210200431578015 0.421584713529146 0.2082932979522644 0.4721221194050629 0.1452664967846528 1:0.502981 2:0.0146176 3:0.296888 4:0.337749 5:-0.110491 6:-0.577763 7:0.0915305 8:0.204404 9:0.163427 10:-0.048379 11:0.138371 12:0.420071 13:-0.146394 14:0.0528931 15:0.136932 16:0.0323544 17:-0.584571 18:-0.517869 
0.6502022183222719 0.1218736255546001 0 0.7037379951286037 0 0.007247405228337682 0.2952415426277979 1:0.27397 2:-0.133931 3:0.191016 4:0.0653599 5:-0.317818 6:-0.338496 7:0.178435 8:0.177542 9:0.0199151 10:0.145351 11:0.211829 12:0.242279 13:-0.131875 14:0.213899 15:-0.0379159 16:-0.127295 17:-0.558133 18:-0.49725 
0.2220392811212812 0.137572381636047 0.4965003499417135 0.8331335819757514 0.4580552775656804 0.4655404922354824 0.1703711353408167 1:0.328651 2:-0.188643 3:0.281801 4:-0.111877 5:-0.0444123 6:-0.500717 7:0.168758 8:-0.551492 9:0.261169 10:0.0760432 11:0.11261 12:0.0740327 13:-0.39493 14:0.330744 15:-0.147426 16:-0.215881 17:-0.4277 18:-0.380329 
0.4737195814744993 0.2311366912657957 0.9294569191090509 1.074422337020652 0.7521345943950353 0.4347843862335837 0.2889822028849656 1:0.354153 2:-0.159899 3:0.226059 4:-0.0437651 5:-0.0722369 6:-0.491221 7:0.220111 8:-0.498455 9:0.164408 10:0.0153789 11:0.106697 12:0.0925743 13:-0.0447895 14:0.310497 15:-0.142632 16:-0.245378 17:-0.417383 18:-0.448847 
0.2296811050907194 0.08244780782885298 0.3540340133306162 0.4578260732226624 0.3452960870623789 0.4267984583863387 0.08746520230896677 1:0.464047 2:0.0452768 3:0.708582 4:-0.446743 5:0.0269442 6:-0.197057 7:0.252677 8:0.441037 9:0.341449 10:0.112678 11:0.393623 12:0.242385 13:0.0134466 14:0.356646 15:0.40294 16:0.222649 17:-0.612161 18:-0.317846 
0.2412063034627272 0.08467873528658695 0.3486826223913028 0.3674477570687892 0.3421575140233044 0.413311974369767 0.1133511109469953 1:0.511113 2:0.0359136 3:0.715216 4:-0.253155 5:0.202945 6:-0.307765 7:0.280258 8:0.424784 9:0.295204 10:0.0514996 11:0.418636 12:0.309557 13:-0.112843 14:0.214045 15:0.536514 16:0.137474 17:-0.619349 18:-0.351173 
0.06396452079902512 0.2090819837287593 0 0 0 0.3782238385669296 0.3000428281143793 1:0.474823 2:-0.057989 3:0.37198 4:0.00255994 5:-0.278297 6:-0.344344 7:0.071877 8:-0.0337536 9:0.12733 10:-0.207222 11:0.107456 12:0.219981 13:-0.137554 14:0.381766 15:-0.0843286 16:-0.0929314 17:-0.449437 18:-0.429395 
0 0.134843898988121 0 0 0 0 0.6825659284311112 1:0.418044 2:-0.0739022 3:0.382721 4:0.111386 5:-0.0943241 6:-0.356947 7:0.0910956 8:-0.136839 9:0.154131 10:-0.194817 11:0.124488 12:0.125956 13:-0.166497 14:0.31714 15:-0.0917759 16:-0.144628 17:-0.445985 18:-0.497172 
0.1070171651153052 0 0 0.1562461758494045 0.1730151271469133 1.637476119943852 0.6168390502812788 1:0.447851 2:-0.0245802 3:0.616906 4:-0.163298 5:0.0518466 6:-0.397071 7:0.142811 8:0.106524 9:-0.1018 10:0.081637 11:0.487675 12:0.0675883 13:0.0872035 14:0.198846 15:0.19368 16:0.00518674 17:-0.565764 18:-0.437203 
0.2010181709174617 0 0.2752246117604487 0.7078915068184272 0.2237728178091333 0.116056818464402 0 1:0.471562 2:0.0340517 3:0.689346 4:-0.320081 5:0.0112655 6:-0.404481 7:-0.000170536 8:0.193964 9:-0.0712589 10:0.0334683 11:0.554801 12:0.0649739 13:0.00366998 14:0.334681 15:0.231344 16:-0.0714116 17:-0.554235 18:-0.420519 
0 0 0.2531223902164405 0.3639712853109648 0 0.6305926113395509 0.1456808164374773 1:0.679895 2:-0.160113 3:0.405142 4:-0.205444 5:-0.0368087 6:-0.376835 7:0.250777 8:0.181674 9:0.139069 10:0.0697929 11:0.0796405 12:0.297597 13:0.0917079 14:0.402446 15:-0.0371255 16:0.0185183 17:-0.593339 18:-0.414852 
0.2657510052142554 0.088637511819822 0.3384489235643722 0.3068120154954649 0.2732519353453123 0.3919226018788642 0.07996154134322109 1:0.485939 2:-0.495591 3:0.0160781 4:0.150502 5:-0.186597 6:-0.379624 7:0.386473 8:-0.0354008 9:0.0802538 10:0.39217 11:0.268921 12:0.223937 13:-0.192859 14:-0.413626 15:0.064164 16:-0.0870238 17:-0.585971 18:-0.374676 
0.1074371758086458 0.2409650533118407 0.3947938807573353 0.4879372266280325 0.5858871971100547 0.6555337075983275 0.6319207969231703 1:0.50569 2:-0.55467 3:0.126477 4:-0.0168649 5:-0.147506 6:-0.42813 7:0.420992 8:-0.0511431 9:-0.0200443 10:0.299678 11:0.172359 12:0.126878 13:-0.168298 14:0.147328 15:0.0412825 16:-0.30218 17:-0.59478 18:-0.435025 
0 0 0 0.6439966186574463 0 0 1.126390777713096 1:0.496721 2:0.165499 3:0.462298 4:-0.212671 5:0.0512461 6:-0.259049 7:0.213557 8:0.0912287 9:-0.0882306 10:0.158345 11:0.192378 12:0.305395 13:0.0845108 14:0.341659 15:0.123335 16:0.0794023 17:-0.566911 18:-0.48723 
0.4422978499763754 0.446386191879038 0.6516801215779251 2.605672342645909 0.6087505810798612 1.319385710983996 0.5836123516171458 1:0.413956 2:0.126715 3:0.412238 4:-0.262994 5:0.069579 6:-0.226692 7:0.26378 8:0.0441793 9:-0.186162 10:0.256481 11:0.246335 12:0.350313 13:0.033449 14:0.342173 15:0.14246 16:0.00125556 17:-0.54575 18:-0.422253 
0.8133221292226885 0.1265326267525889 0.5538030734035834 0.5068495466084703 0.4873312725017332 0.4913468282476583 0.1691231518788208 1:0.479035 2:0.208147 3:0.135144 4:0.295445 5:-0.151099 6:-0.643498 7:0.51723 8:-0.164452 9:0.39734 10:0.240014 11:0.134733 12:0.118432 13:-0.0205037 14:0.207891 15:0.0981805 16:-0.205808 17:-0.469785 18:-0.412517 
0.9202998452490857 0.08723153093115672 0.4033442481586599 0.3538946805871606 0.400009752243513 0.4178709426016239 0.0507368811921397 1:0.548944 2:0.242907 3:0.156158 4:0.236697 5:-0.381985 6:-0.625965 7:0.48316 8:-0.076893 9:0.393226 10:0.283508 11:0.293608 12:0.0526499 13:-0.203227 14:0.12753 15:-0.0553682 16:-0.215024 17:-0.537121 18:-0.465745 
0.3085784630206907 0.0996309758197883 0.4201510266615823 0.3905114653920886 0.4713830453420551 0.4587338276476881 0.09822895658971449 1:0.616891 2:0.0948915 3:0.603528 4:0.0884254 5:-0.437567 6:-0.552084 7:0.711781 8:0.0756879 9:0.523305 10:0.10168 11:0.179013 12:0.128428 13:0.10006 14:0.264701 15:0.194953 16:-0.223649 17:-0.531807 18:-0.476882 
0.2920531553579318 0.03389560781652459 0.2454851794411983 0.5404501330605516 0.4170433907147181 0.4907227165618205 0.1665229747919773 1:0.643483 2:0.0341823 3:0.651741 4:0.156757 5:-0.139633 6:-0.692969 7:0.591368 8:-0.00497798 9:0.452503 10:0.120497 11:0.233617 12:0.139205 13:-0.00304703 14:0.315749 15:0.227529 16:-0.176781 17:-0.51719 18:-0.472925 
0.2596921866842645 0 0.1638958866585673 0.07763907986516373 0.1292885236471439 0.2065703283673987 0 1:0.746961 2:-0.116602 3:0.317409 4:-0.257175 5:-0.241197 6:-0.252549 7:0.253227 8:0.174825 9:-0.0455888 10:-0.0381354 11:-0.0708285 12:0.0803177 13:-0.0615513 14:0.204268 15:0.119437 16:-0.0164807 17:-0.655591 18:-0.374561 
0.2464596458675725 0.134964029814101 0.4564951746153668 0.3460826397283028 0.3971280684101202 0.6414468576221287 0.2427933326999255 1:0.738822 2:-0.220249 3:0.36327 4:-0.0101935 5:0.19395 6:-0.338965 7:0.298323 8:0.126354 9:-0.0785759 10:-0.188762 11:-0.241233 12:0.23859 13:-0.0805751 14:0.163283 15:0.335574 16:-0.0165191 17:-0.607377 18:-0.376109 
0.8315798197427833 0.2317936851352337 0.4327428012268133 0.5291693478414897 0.3664475060328372 0.7749579519598174 0.07517366723586044 1:0.403 2:0.353757 3:0.420494 4:0.223913 5:-0.188748 6:-0.577932 7:0.201999 8:0.0178416 9:0.165885 10:0.0827514 11:0.0958206 12:0.191959 13:-0.20207 14:0.420703 15:0.213886 16:-0.14507 17:-0.447981 18:-0.430307 
0 0 0.05253647767475363 1.112341543722056 0.7800417825728412 0.3612376715473628 0.2312743788178691 1:0.37518 2:0.273627 3:0.450287 4:0.096425 5:-0.179324 6:-0.559215 7:0.224565 8:-0.0328015 9:0.169049 10:0.0705245 11:-0.0161781 12:0.247291 13:-0.0413935 14:0.472055 15:0.20165 16:-0.188647 17:-0.459527 18:-0.454299 
0.2022869684048768 0.06386881298913055 0.3667876664642595 0.3619629731599925 0.3421146048385544 0.3366616681159886 0.001579569485184633 1:0.566838 2:-0.521352 3:0.409388 4:-0.0455365 5:0.0163372 6:-0.631778 7:0.156601 8:0.14167 9:0.354513 10:0.223295 11:-0.10746 12:0.353874 13:-0.208345 14:0.201614 15:0.173721 16:-0.0815116 17:-0.41772 18:-0.337052 
0.4978876356764058 0.1012175766059804 0.4466915612317026 0.4374641042418833 0.5637630661161235 0.5109720013865737 0.06862393089361908 1:0.536856 2:-0.561617 3:0.478382 4:-0.269618 5:-0.115937 6:-0.571941 7:0.157471 8:0.206235 9:0.250248 10:0.187681 11:-0.214029 12:0.348926 13:-0.208534 14:0.619132 15:0.0754367 16:-0.123461 17:-0.458748 18:-0.470653 
0.4117159393551873 0.3489814261420111 0.3109994580854581 0.1818763275832987 0.1940820414269159 0.4744956093340237 0.3996189680298259 1:0.499251 2:-0.127012 3:0.371321 4:-0.269005 5:0.00671994 6:-0.22617 7:-0.0282636 8:-0.232422 9:-0.0554512 10:0.215228 11:0.213452 12:0.100857 13:-0.0426941 14:0.240246 15:0.359833 16:0.021767 17:-0.61868 18:-0.484131 
0.2898507391057496 0.09951872748651487 0.3821657655105044 0.5191970386149798 0.4217015131684978 0.5373678051792291 0 1:0.49065 2:-0.136886 3:0.546084 4:-0.4934 5:0.185491 6:-0.219061 7:-0.0714996 8:-0.249706 9:0.177884 10:0.218404 11:0.176461 12:0.0294896 13:-0.0113732 14:0.464171 15:0.401557 16:-0.0217754 17:-0.592947 18:-0.354001 
0.2600204427537792 0.07538958191270417 0.3062275994351036 0.517858634332361 0.2904180320589327 0.6634859325898161 0.05121096226888894 1:0.583522 2:0.127765 3:0.614257 4:-0.272155 5:-0.0474024 6:-0.304129 7:-0.0361829 8:0.170721 9:0.152289 10:0.162014 11:-0.0821812 12:0.527319 13:-0.128082 14:0.0646515 15:-0.503906 16:-0.447988 17:-0.426143 18:-0.568587 
0.3040966787367854 0.07592772123313796 0.2480431025412421 0.4957297869713964 0.25011931419866 0.5934984573560598 0.06816600124244318 1:0.531795 2:0.0937123 3:0.615454 4:-0.204423 5:0.156803 6:-0.279011 7:-0.00620912 8:0.14745 9:0.172367 10:0.178613 11:-0.01835 12:0.454361 13:-0.18851 14:-0.0169763 15:-0.355715 16:-0.479446 17:-0.480903 18:-0.552547 
0.2956220857849548 1.919864539666511 0.005251535620933876 0.1054432602503837 0 1.013105600111041 1.129208935120223 1:0.740981 2:-0.0912187 3:0.454586 4:-0.169222 5:-0.0412642 6:-0.374691 7:0.351406 8:-0.20109 9:0.00570487 10:0.159538 11:0.144049 12:-0.0667137 13:-0.0952395 14:0.374984 15:0.117623 16:-0.184869 17:-0.427664 18:-0.373595 
0.3430814368003012 0.3510654028730951 0 0 0 0.157095118637817 0 1:0.791272 2:-0.0225157 3:0.444693 4:-0.0592416 5:-0.0251736 6:-0.429584 7:0.303908 8:-0.150901 9:0.00324623 10:0.100766 11:0.0869467 12:0.0505715 13:-0.00367349 14:0.132105 15:0.142856 16:-0.0530022 17:-0.486681 18:-0.338004 
0.248021495844691 0.08504052251687866 0.3264083850932162 0.3032779377726723 0.3152191083526018 0.3664112798572862 0.0594174428497516 1:0.694238 2:-0.234111 3:0.498019 4:-0.416819 5:0.0489988 6:-0.339716 7:-0.111265 8:0.45966 9:0.153457 10:0.046692 11:-0.298315 12:0.245793 13:-0.0332185 14:0.110823 15:-0.311746 16:-0.537393 17:-0.411311 18:-0.551228 
0.1952754069401206 0.06749414963595249 0.2854975255402128 0.2673349689342787 0.2712917662034639 0.3317131652273121 0.05217541793059161 1:0.673226 2:-0.245957 3:0.557496 4:-0.380393 5:0.159191 6:-0.372935 7:-0.102181 8:0.41758 9:0.112836 10:0.0439856 11:-0.299686 12:0.208256 13:-0.243944 14:0.141373 15:-0.314168 16:-0.445968 17:-0.455295 18:-0.643388 
0.2625528051047523 0.1070123268896843 0.4166252080987407 0.409037719173463 0.4022169469753136 0.5371251975185011 0.08745658328634283 1:0.817504 2:0.202617 3:0.742928 4:-0.205078 5:-0.163355 6:-0.493593 7:-0.034436 8:0.557379 9:0.293033 10:-0.0896394 11:0.0349174 12:0.152445 13:-0.0114065 14:0.360116 15:0.0562381 16:-0.234979 17:-0.382763 18:-0.433864 
0.1313163430592903 0.06372985444583916 0.2607447717133197 0.2977485348340491 0.249692722207268 0.4785491914900728 0.0602783445285827 1:0.668941 2:0.117041 3:0.639876 4:-0.0169778 5:0.0324184 6:-0.384019 7:0.0337577 8:0.477791 9:0.34489 10:0.0789546 11:0.0275096 12:0.0740783 13:-0.227445 14:0.0702789 15:0.0607296 16:-0.209925 17:-0.433212 18:-0.590191 
0 0 0 0.6116017293446911 0.1470585983706061 1.124220963634216 0.2333499960022627 1:0.50075 2:-0.00693678 3:0.661039 4:-0.17276 5:0.0721952 6:-0.302974 7:0.167224 8:-0.182652 9:-0.106442 10:-0.0172905 11:-0.0372303 12:0.121988 13:-0.200575 14:0.459276 15:0.0501059 16:-0.118267 17:-0.454557 18:-0.456883 
0 0.2507512184647427 0 0 0 0 3.659584478301106 1:0.505003 2:0.0822573 3:0.578932 4:-0.124525 5:-0.0824225 6:-0.238449 7:0.239793 8:-0.170318 9:-0.0802473 10:0.0894029 11:0.0422193 12:0.123526 13:-0.200623 14:0.265644 15:0.0387185 16:-0.0377448 17:-0.508552 18:-0.507531 
0.1271090136953893 0.05356354080767534 0.07029680572576252 0 0 0.4680883938505922 0 1:0.762238 2:-0.216806 3:0.368571 4:-0.154142 5:0.0331208 6:-0.48367 7:0.15894 8:-0.116993 9:-0.0377903 10:0.0904512 11:0.272033 12:0.115542 13:-0.0652486 14:0.0926003 15:0.285267 16:-0.142876 17:-0.453968 18:-0.298937 
0.9671255206088506 0 0 0.6699459239477047 0 0.2725244871510886 0 1:0.730772 2:-0.207351 3:0.350265 4:-0.248428 5:-0.0325466 6:-0.403693 7:0.0981891 8:-0.0444468 9:-0.045165 10:0.13352 11:0.240494 12:0.106691 13:0.0480767 14:0.184218 15:0.178642 16:-0.148521 17:-0.480044 18:-0.296047 
0.2841767092276738 0.06988440539468392 0.3707887021622426 0.3479331516719681 0.3844438954140285 0.3835700422171616 0.05871359152429765 1:0.616075 2:-0.158228 3:0.49622 4:0.0675284 5:-0.287797 6:-0.708356 7:0.126247 8:0.278492 9:0.243242 10:-0.187254 11:-0.0822962 12:0.530553 13:-0.372527 14:0.228197 15:-0.135938 16:-0.10915 17:-0.528563 18:-0.468913 
0.2423449902242589 0.01911176244960583 0.2008497203140328 0.1645035222829915 0.2146675164515804 0.2523028687490496 0.02041767960231498 1:0.463053 2:-0.233821 3:0.318551 4:0.273153 5:-0.263837 6:-0.617433 7:0.235735 8:0.243537 9:0.127395 10:-0.0688076 11:-0.162155 12:0.568076 13:-0.109275 14:0.0356832 15:-0.220479 16:-0.108036 17:-0.505683 18:-0.569371 
0.05200470520390922 0.9397200387229004 0.2854462752069715 2.507103648494235 0.4123008144911599 1.235536887652161 2.996603658796907 1:0.412724 2:0.350674 3:0.707256 4:-0.187689 5:-0.021109 6:-0.306503 7:0.151578 8:-0.199519 9:-0.0272646 10:0.15983 11:0.284534 12:0.2537 13:-0.122915 14:0.269601 15:0.0330218 16:-0.0877432 17:-0.603829 18:-0.507411 
0 0.06952369764413599 0.3535382325820838 0.4367636365143765 0 0.38216771790339 1.264137825630538 1:0.424891 2:0.342694 3:0.712778 4:-0.119632 5:0.0753127 6:-0.338044 7:0.159175 8:-0.240391 9:-0.0230296 10:0.14177 11:0.263476 12:0.293412 13:-0.0389009 14:0.238403 15:0.0691368 16:-0.102549 17:-0.611486 18:-0.502692 
0.3050475180636609 0.04538937994113452 0.202382027244889 0.2892226091932905 0.1794591119038771 0.3524042111607122 0.1041097064739636 1:0.669904 2:0.227557 3:0.584735 4:-0.413414 5:0.0694362 6:-0.334278 7:0.147274 8:0.180133 9:0.40803 10:-0.0373352 11:0.0989 12:0.357166 13:-0.315835 14:0.42424 15:0.161921 16:0.141722 17:-0.591616 18:-0.435298 
0.210228291016213 0.08518473053919415 0.3485808858304172 0.6465247346436989 0.3281589948064233 0.4657259623775314 0.08059512931018295 1:0.561755 2:0.10141 3:0.650861 4:-0.48356 5:0.266025 6:-0.389082 7:0.120746 8:0.026008 9:0.407327 10:0.0226515 11:0.00316551 12:0.467249 13:-0.178263 14:0.340136 15:0.153723 16:0.164301 17:-0.545805 18:-0.408513 
0 0 0 0 0 0.5654817876757614 0 1:0.714298 2:0.117192 3:0.497719 4:-0.220591 5:-0.0820192 6:-0.270741 7:0.139671 8:-0.249458 9:0.0635902 10:0.102743 11:0.122661 12:0.17683 13:-0.127626 14:0.222486 15:0.0657402 16:-0.0575895 17:-0.409524 18:-0.28499 
0.5362397554609725 0.4743181620592374 0.4836948917197212 0 0 0.9156567828163712 0 1:0.78915 2:0.254507 3:0.479932 4:-0.0205846 5:0.0141378 6:-0.341435 7:0.095425 8:-0.1601 9:0.0776527 10:0.0860154 11:0.161473 12:0.247871 13:-0.073112 14:0.150862 15:0.10186 16:-0.0032505 17:-0.458567 18:-0.286585 
0.2847502493806103 0 0.05351749301112544 0.1482020416089272 0.09437066198906703 0.3194843387638704 0 1:0.666379 2:-0.0755671 3:0.432957 4:-0.0203296 5:-0.246698 6:-0.596919 7:-0.0898756 8:0.138184 9:-0.122012 10:0.0338258 11:-0.0189679 12:0.458212 13:-0.154118 14:0.380924 15:0.0759553 16:0.192694 17:-0.539205 18:-0.420152 
0.1048026307481842 0 0.1636570724928372 0.1085477444312223 0.1637899277359703 0.02354616815497921 0 1:0.64693 2:-0.075722 3:0.43233 4:0.0911681 5:-0.122505 6:-0.635996 7:-0.15159 8:0.198529 9:-0.131035 10:-0.00720242 11:-0.0832319 12:0.538128 13:-0.216146 14:0.306046 15:-0.0222751 16:0.0911018 17:-0.53086 18:-0.478809 
0.7402851955672225 0.08776248228086914 0.2392668188898411 0.7418750969401334 0.5756801249671121 0.5669893903770628 0.7161997048544048 1:0.395109 2:0.111867 3:0.48566 4:-0.230606 5:0.0870169 6:-0.276881 7:-0.124067 8:-0.123305 9:-0.0422378 10:-0.0836479 11:0.0463708 12:0.333001 13:-0.110867 14:0.100815 15:0.0319237 16:-0.113901 17:-0.682017 18:-0.445018 
0.3045022754706012 0 0.145354957188693 0.6904902718967107 0 0.3023303965316225 1.32198537480625 1:0.394935 2:0.0835017 3:0.476346 4:-0.300403 5:0.0221027 6:-0.264727 7:-0.0690379 8:-0.137276 9:-0.101981 10:-0.0990158 11:0.0859018 12:0.286304 13:-0.178763 14:0.064404 15:0.0625314 16:-0.13187 17:-0.622632 18:-0.4433 
1.791323552625802 0 0 0 0 0 0 1:0.718276 2:0.0951832 3:0.458617 4:-0.109823 5:0.0156668 6:-0.371789 7:0.056193 8:0.0317006 9:0.168025 10:-0.0983292 11:0.0996331 12:0.163218 13:-0.13642 14:-0.00653436 15:0.0417983 16:-0.0652073 17:-0.623368 18:-0.346882 
0 0 0 0.6311052578763856 0.07209740339058762 0.3529087411457848 0.6265757213597352 1:0.790687 2:0.190044 3:0.565604 4:0.092952 5:-0.0644282 6:-0.487063 7:0.422468 8:-0.202436 9:0.268965 10:0.211161 11:0.292981 12:0.161213 13:-0.133481 14:0.183706 15:0.258817 16:-0.0776733 17:-0.441739 18:-0.460475 
0.7101900648601268 0.2371908632680857 0.02047240080196226 0.200618998783667 0.08312893294839217 0.6375841573103468 1.444921404895372 1:0.753922 2:0.194679 3:0.508167 4:-0.00131701 5:-0.131271 6:-0.408793 7:0.330485 8:-0.133192 9:0.206404 10:0.269731 11:0.333636 12:0.2061 13:-0.0275063 14:0.0477316 15:0.156822 16:-0.0495261 17:-0.469329 18:-0.475221 
0.3260586860480642 0 0.1349179102272042 0 0.3764362241788176 0.3202741801510793 0 1:0.571023 2:0.358951 3:0.277734 4:-0.153233 5:0.0415174 6:-0.559938 7:0.316687 8:-0.0869205 9:0.131523 10:-0.0261435 11:0.0778082 12:-0.0257545 13:0.00628065 14:0.489105 15:0.10788 16:-0.0487983 17:-0.485099 18:-0.449012 
2.186537082927173 0 0.06319564011196392 0 0.2910132019111585 0 0 1:0.524921 2:0.338206 3:0.270931 4:-0.238592 5:-0.0455551 6:-0.475885 7:0.337404 8:-0.103818 9:0.142421 10:0.0410128 11:0.109532 12:-0.0495363 13:-0.146276 14:0.388191 15:0.102842 16:-0.055729 17:-0.504023 18:-0.42582 
0.5981457130069772 1.134095557588366 0.3087682949556343 0.144047340431744 0.2601008635023314 1.461992734967391 0.9405544668201675 1:0.411622 2:0.338296 3:0.572971 4:-0.0246159 5:-0.148475 6:-0.105383 7:0.0737316 8:-0.0893725 9:-0.0300071 10:0.0648502 11:0.0812875 12:0.168635 13:-0.0572756 14:0.329491 15:0.149343 16:0.00349424 17:-0.571031 18:-0.419741 
0.02554028830017004 0 0.04622526071478316 0.6538206474517577 0.4409734088128576 1.511541902512858 1.530657651097025 1:0.376329 2:0.301835 3:0.543896 4:0.0723762 5:-0.00745848 6:-0.120716 7:0.10492 8:-0.131731 9:-0.095972 10:0.052087 11:0.0666353 12:0.120474 13:-0.0372958 14:0.30552 15:0.189365 16:-0.0240622 17:-0.547531 18:-0.414788 
0.3871346492250631 0 0 0.4162009588175759 0 0 0 1:0.851828 2:-0.0418358 3:0.45972 4:-0.213846 5:0.0395778 6:-0.522848 7:0.144673 8:-0.114113 9:-0.0819412 10:0.0299714 11:0.0921815 12:0.0864443 13:-0.110429 14:0.287641 15:0.0976337 16:-0.0577536 17:-0.649062 18:-0.448026 
1.124401449023656 0 0.2498656765174985 0.2845089486112109 0.003099401397868693 0 0 1:0.841036 2:0.029882 3:0.434085 4:-0.216422 5:0.00221288 6:-0.492123 7:0.209677 8:-0.0734838 9:-0.0587999 10:0.0340816 11:0.10842 12:0.0646852 13:-0.0894376 14:0.262567 15:0.118913 16:-0.0220281 17:-0.761475 18:-0.485375 
0 0 0 0 0 0.1373263722377387 0.1965856374261906 1:0.490897 2:0.146372 3:0.494818 4:0.113337 5:-0.122608 6:-0.413752 7:-0.080727 8:0.155457 9:0.0367144 10:-0.0407897 11:0.0896063 12:0.513558 13:-0.316646 14:0.213852 15:-0.0302382 16:-0.0782486 17:-0.518419 18:-0.481189 
0 0 0 0.04119973516790416 0 0.4936116905042934 0.1881038482524423 1:0.506596 2:0.166483 3:0.510609 4:0.0620569 5:-0.178965 6:-0.418062 7:-0.113992 8:0.169843 9:0.150626 10:-0.0777131 11:-0.023536 12:0.556291 13:-0.107475 14:0.193632 15:-0.0501449 16:-0.0919248 17:-0.489168 18:-0.423698 
0 0 0 0.5652702291928355 0.3493907532206779 0 0.21843878650827 1:0.556823 2:-0.124768 3:0.446443 4:-0.205782 5:-0.0504302 6:-0.315063 7:0.323512 8:0.2748 9:0.175966 10:0.105585 11:0.0535294 12:0.279532 13:-0.0997827 14:0.0838532 15:-0.0766829 16:0.0139869 17:-0.590575 18:-0.501416 
0.3858332764813923 0 0.002019889389852682 0.5966012493543775 0.3245668229340163 0.09462341152142506 0.204134544586618 1:0.541001 2:-0.0963538 3:0.354515 4:-0.0169749 5:0.12496 6:-0.34345 7:0.351064 8:0.326525 9:0.012598 10:0.161957 11:0.174833 12:0.192972 13:-0.131886 14:-0.0112685 15:0.0217037 16:0.0120897 17:-0.609673 18:-0.53479 
0.2603916695049134 0.02641133705352242 0.2753079297803004 0.5994552123178361 0.2576986100978425 0.3497098464359739 0.02315868862013245 1:0.477564 2:0.148743 3:0.585759 4:-0.566016 5:-0.0673967 6:-0.280712 7:0.123905 8:0.125428 9:0.180959 10:0.113165 11:0.256736 12:0.233294 13:-0.248574 14:0.480716 15:0.413784 16:0.182939 17:-0.6789 18:-0.426615 
0.1743682850998473 0.03097270921785962 0.2249594664361864 0.3328681132107921 0.2075027308137284 0.3217385138929788 0.0755874518077455 1:0.534229 2:0.233199 3:0.578167 4:-0.214329 5:0.223202 6:-0.3676 7:0.113347 8:0.131036 9:0.143605 10:0.0270838 11:0.253886 12:0.229526 13:-0.0657952 14:0.488985 15:0.56272 16:0.335518 17:-0.657812 18:-0.429124 
0.231283819245109 0.1182341003156021 0.3813837962319181 0.3812925078368427 0.3243743269788493 0.5216314097790717 0.004113040909987192 1:0.724368 2:0.143735 3:0.645886 4:-0.0577575 5:-0.0440908 6:-0.353221 7:0.317164 8:0.428825 9:0.0573052 10:0.126309 11:0.0412199 12:-0.0482693 13:0.0421862 14:0.403848 15:-0.0433156 16:-0.294519 17:-0.4636 18:-0.487303 
0.1964120354602145 0 0.1233124941828382 0.03995187225587671 0.2788949878315301 0.09514120954958002 0 1:0.762623 2:0.191413 3:0.63964 4:-0.124878 5:-0.00879956 6:-0.371199 7:0.243372 8:0.450557 9:-0.0374793 10:0.13796 11:0.188374 12:0.182334 13:0.0319863 14:0.193682 15:0.181779 16:-0.0913935 17:-0.503 18:-0.500559 
0.1484196664208542 0 0.1546377490675142 0.2009809209325138 0.1616317521904334 0.7168497744605031 0.5980480952856954 1:0.682847 2:-0.216517 3:0.340518 4:0.0330414 5:-0.116277 6:-0.550598 7:0.157336 8:0.0966882 9:0.0910253 10:-0.12157 11:0.104554 12:0.15984 13:-0.289126 14:0.0713345 15:0.274198 16:-0.0325667 17:-0.572697 18:-0.32123 
0 0 0.8408368613972328 0.03302828028729057 0 0.2438211834740043 0 1:0.655652 2:-0.258279 3:0.37575 4:-0.0829353 5:-0.196218 6:-0.544469 7:0.10849 8:0.0797354 9:0.0760766 10:-0.0997942 11:-0.0459154 12:0.204791 13:-0.16105 14:0.1785 15:0.123948 16:-0.0644477 17:-0.561497 18:-0.407802 
0.3556296689810356 0.1898497904301996 0.5589618608084388 0.5876114994882266 0.6562613730573332 0.7330856655407783 0.2292307268045772 1:0.443266 2:-0.265404 3:0.470206 4:0.126288 5:-0.0558106 6:-0.75941 7:0.105691 8:-0.322763 9:0.168775 10:-0.0713623 11:0.594462 12:-0.0360615 13:-0.327897 14:0.152574 15:0.353095 16:-0.0931908 17:-0.615416 18:-0.263582 
0.3477624450978498 0.1893966409608253 0.5274769717529328 0.7439788509273189 0.6891630729730246 0.7085657127350483 0.3808483294746483 1:0.400999 2:-0.144016 3:0.429845 4:0.0177465 5:-0.251185 6:-0.587392 7:0.204757 8:-0.239728 9:0.381917 10:-0.0657394 11:0.598619 12:0.0183342 13:0.081637 14:0.111587 15:0.373255 16:-0.0963601 17:-0.61154 18:-0.314873 
0 0 0 0.971981640690789 0 0 0 1:0.557994 2:-0.0909191 3:0.479716 4:-0.324469 5:0.0991889 6:-0.395844 7:0.225833 8:0.0253414 9:-0.0853554 10:0.120887 11:0.109005 12:0.215071 13:-0.0776518 14:0.0122111 15:0.00853825 16:-0.148014 17:-0.469413 18:-0.430941 
0.1218163086991866 0 0.103501639078351 0.06499602158150299 0.08015580527221651 0.01828210726753416 0.02427297626257122 1:0.92864 2:-0.216061 3:0.446547 4:-0.133881 5:-0.0849361 6:-0.532254 7:0.224708 8:0.208866 9:0.115166 10:0.050853 11:0.0747341 12:-0.152748 13:-0.193805 14:0.129076 15:0.372158 16:-0.00544485 17:-0.323806 18:-0.252868 
0.05317810021638965 0.0537401605282761 0.2056890835386424 0.1595561021583424 0.2574129635579919 0.2530597328149334 0.05925182736614786 1:0.894034 2:-0.301974 3:0.407312 4:-0.146415 5:0.0238697 6:-0.513709 7:0.178368 8:0.202865 9:0.101501 10:0.0307341 11:-0.067271 12:-0.0870743 13:0.0267412 14:0.0791475 15:0.321958 16:-0.0249296 17:-0.337863 18:-0.199161 
0.3054935592900092 0.7589856011035967 0.4909817455144601 0.4579856200014638 0.3526251473326854 0.7138272106176186 0.3415959566115235 1:0.62596 2:-0.156212 3:0.142133 4:-0.1033 5:-0.294049 6:-0.147551 7:0.342139 8:-0.0532587 9:-0.293346 10:0.197818 11:-0.0917877 12:0.0102947 13:-0.0187826 14:0.484882 15:-0.086079 16:0.0462905 17:-0.527403 18:-0.625417 
0.353833614038945 0.3020610004838248 0.4878963511989844 0.4707454243566982 0.4692662423219536 0.6342047612760482 0.2349784658728552 1:0.650887 2:-0.250604 3:0.167563 4:0.0525791 5:0.0235237 6:-0.266364 7:0.333103 8:-0.073402 9:-0.401917 10:0.0778147 11:-0.322402 12:0.0257402 13:0.207459 14:0.310929 15:-0.0133818 16:0.0393755 17:-0.503155 18:-0.643496 
0.5857923752270506 0.06407958007249809 0.1261705741918159 0.1101652543198771 0.2121111808775177 0.3286979483231156 0 1:0.581676 2:0.0891981 3:0.400801 4:0.354557 5:-0.207081 6:-0.550963 7:0.123924 8:0.150279 9:0.369122 10:0.00146655 11:0.0834357 12:0.218557 13:-0.196795 14:0.0846983 15:0.146515 16:-0.189802 17:-0.475402 18:-0.49274 
0.3001194771717684 0 0.1140428171936822 0.1893020035683038 0.288212544327882 0.3954347552634608 0.3330720765617679 1:0.502858 2:0.00346003 3:0.428434 4:0.143834 5:-0.327675 6:-0.487575 7:0.110839 8:0.107941 9:0.330357 10:0.0258999 11:0.0598531 12:0.204193 13:-0.0198406 14:0.139084 15:0.0833385 16:-0.324627 17:-0.468916 18:-0.455461 
0.4163354128240658 0.2475665695666659 0.3452071928726527 0.2175545440051299 0.4379850050886526 0.4507449970822686 0.3344197234336822 1:0.483366 2:0.304338 3:0.361534 4:0.0941699 5:-0.204446 6:-0.588769 7:0.387295 8:0.25776 9:0.0743397 10:0.0513965 11:0.210355 12:0.449675 13:-0.279182 14:0.100376 15:0.0123063 16:0.0957298 17:-0.491466 18:-0.516543 
0.5743377129197457 0.01847355526761971 0.1355702868978338 0.5499775289782574 0.452516826126478 0.4055493422500229 0 1:0.444232 2:0.293029 3:0.333971 4:0.100562 5:-0.144963 6:-0.580455 7:0.359493 8:0.272163 9:-0.0284267 10:0.0325592 11:0.201764 12:0.438517 13:-0.104692 14:0.143013 15:0.0867122 16:0.00731054 17:-0.500722 18:-0.491173 
0.2335197217583257 0.348526311000242 0.2746995095808336 0.3422829474873302 0.1896452508031207 0.5511598604496919 0.5927612299199801 1:0.68866 2:-0.117274 3:0.507395 4:-0.370321 5:-0.036624 6:-0.313059 7:0.16081 8:-0.394852 9:0.093985 10:0.251857 11:-0.0224863 12:0.0613747 13:-0.147808 14:0.168136 15:0.121104 16:-0.200662 17:-0.382195 18:-0.385517 
0.7189345552872856 0.3789473555515495 0.313541403421794 0.3839706094827562 0.2225411925235176 0.3738957647438703 0.417590195753742 1:0.6814 2:-0.068797 3:0.494975 4:-0.186493 5:0.0989392 6:-0.328585 7:0.17349 8:-0.338444 9:0.13393 10:0.287728 11:-0.0112662 12:0.145085 13:-0.148182 14:-0.00552306 15:0.122428 16:-0.126812 17:-0.473415 18:-0.509713 
0 0 0 0.1381445943724718 0.2106581339275213 0.05309174804271501 0 1:0.444261 2:-0.336178 3:0.282954 4:-0.116124 5:-0.187531 6:-0.545764 7:-0.116804 8:0.316288 9:0.0567952 10:0.152883 11:0.272451 12:0.25247 13:-0.157935 14:0.297788 15:0.0776284 16:-0.122124 17:-0.545464 18:-0.47584 
0.07697371024401459 0 0.05616725557823596 0 0.0649271844174182 0 0 1:0.489983 2:-0.286025 3:0.288546 4:0.00985887 5:-0.0982322 6:-0.63309 7:-0.102845 8:0.366964 9:0.0566242 10:0.0904211 11:0.258783 12:0.308546 13:-0.125146 14:0.225437 15:0.174587 16:-0.152551 17:-0.518317 18:-0.446696 
0 0.4140022826818905 0 0 0 0.5940794878716315 0 1:0.636349 2:0.231443 3:0.523714 4:-0.108099 5:-0.0252376 6:-0.459127 7:0.291446 8:-0.167323 9:0.290129 10:0.164688 11:0.179085 12:0.150612 13:-0.11885 14:0.408259 15:0.136869 16:-0.167505 17:-0.526264 18:-0.50404 
1.62049830291076 0 1.069715655853914 1.036222055696367 0 0 0.3186004974313828 1:0.61051 2:0.252807 3:0.513531 4:-0.110026 5:-0.024695 6:-0.432785 7:0.309573 8:-0.125506 9:0.254564 10:0.174689 11:0.168465 12:0.188028 13:-0.0821807 14:0.314622 15:0.155114 16:-0.155767 17:-0.538486 18:-0.505307 
0.4476886590435218 0.8155370004484915 0.6784586216802094 0.7602258677297247 0.2073263861502123 1.20832774397313 1.598074081115571 1:0.564904 2:0.189795 3:0.512926 4:-0.229759 5:-0.207458 6:-0.294101 7:0.0886633 8:-0.14747 9:0.466092 10:0.0471676 11:0.312744 12:0.0964045 13:0.156766 14:0.197703 15:0.0964145 16:-0.283765 17:-0.551225 18:-0.428838 
0.4643910082930265 0.2894209734163359 0.598630975720178 0.5716409392527838 0.4321047731528078 1.131849664879576 0.4336159328169633 1:0.575044 2:0.317227 3:0.552583 4:-0.0478106 5:-0.0128099 6:-0.376816 7:0.0704213 8:-0.0117207 9:0.620504 10:-0.115152 11:0.178774 12:0.210821 13:-0.279426 14:0.472921 15:0.306609 16:-0.176209 17:-0.535166 18:-0.496063 
0.1695090281400307 0 0.02566808612477322 0.01280289394641754 0.08478717722519521 0.671258000778284 0 1:0.483797 2:-0.192492 3:0.476468 4:-0.428859 5:0.0344703 6:-0.176608 7:0.0272193 8:0.0792766 9:0.00899257 10:0.0826616 11:0.0195156 12:0.300779 13:-0.0824929 14:0.0557986 15:-0.0584269 16:-0.197567 17:-0.543957 18:-0.251964 
0.2838988063720994 0 0.1575208813538179 1.147052723812334 0.2860621480378847 0.6834156386108281 0.1940305556075658 1:0.440501 2:-0.195691 3:0.496893 4:-0.381508 5:0.2459 6:-0.1733 7:0.0609023 8:-0.0163459 9:0.0514713 10:0.0939323 11:0.0623622 12:0.315536 13:-0.175592 14:0.170891 15:0.0452404 16:-0.149075 17:-0.603836 18:-0.302583 
0.8707741573761426 0.5653199195063847 0 0 0 0 0.4625005496145009 1:0.636427 2:0.120092 3:0.415196 4:-0.029724 5:-0.23248 6:-0.21681 7:0.299902 8:-0.0524235 9:-0.11773 10:0.189832 11:0.037292 12:0.219789 13:-0.0664108 14:0.135433 15:0.172502 16:-0.0967926 17:-0.465952 18:-0.452747 
0.953462666846762 0.6096655512656296 0 0 0 0 0.4153349695723539 1:0.613295 2:0.10814 3:0.440025 4:0.125927 5:0.034435 6:-0.256805 7:0.245635 8:-0.0267743 9:-0.115108 10:0.154311 11:-0.0340787 12:0.223344 13:-0.217794 14:0.152762 15:0.123994 16:-0.110915 17:-0.499873 18:-0.521229 
0.506771465166316 0 0.214642143998689 0.006689309249150146 0.4077528072991172 0.04921462426078378 0 1:0.836371 2:0.396373 3:0.425118 4:-0.0115666 5:-0.109342 6:-0.522885 7:0.378722 8:0.140892 9:0.176738 10:0.115467 11:0.296715 12:0.323377 13:-0.0678253 14:0.0829156 15:0.136919 16:-0.147351 17:-0.622092 18:-0.486591 
1.73038212959993 0 0 0.1138513565868956 0 0 0 1:0.798313 2:0.372071 3:0.437997 4:-0.0404272 5:-0.0146637 6:-0.500881 7:0.344649 8:0.158354 9:0.158594 10:0.0992841 11:0.237469 12:0.299573 13:-0.0557846 14:0.153372 15:0.137962 16:-0.1713 17:-0.599199 18:-0.508523 
3.217201493537093 0.3363691106270167 1.746618369402421 0.3399972514306428 0 0 2.095599683836822 1:0.6586 2:0.343884 3:0.41625 4:-0.108103 5:-0.0693981 6:-0.268115 7:0.201806 8:-0.124175 9:-0.0702161 10:0.0642683 11:0.26871 12:0.175293 13:-0.0046941 14:0.296668 15:0.161325 16:-0.0856038 17:-0.566204 18:-0.481514 
0 0.1754379718057987 0 0 0 0 0.8593837224480858 1:0.674299 2:0.369659 3:0.496356 4:-0.101845 5:0.0362006 6:-0.324826 7:0.117892 8:-0.0635013 9:-0.0427714 10:-0.0269005 11:0.180935 12:0.195694 13:-0.101906 14:0.424993 15:0.160773 16:-0.0684647 17:-0.543638 18:-0.503375 
1.39538455930017 0.05369203632538527 0.202937793814563 0.4562204787801216 0.3019944743856934 0.1807899354089625 0 1:0.876592 2:0.359788 3:0.406321 4:0.00880342 5:-0.201614 6:-0.41512 7:0.528365 8:0.128915 9:0.101865 10:0.0525419 11:0.312497 12:0.0860891 13:-0.0752767 14:0.187053 15:0.233193 16:0.0526836 17:-0.592498 18:-0.476233 
0.6091843578475373 0.04687253145150928 0.2202138839262249 0.4484191036914761 0.2886563195012712 0.2651696445966088 0.01231123577661391 1:0.871822 2:0.344664 3:0.40749 4:0.0915366 5:-0.0120659 6:-0.457053 7:0.471309 8:0.177492 9:0.0443059 10:0.0180998 11:0.181483 12:0.180714 13:0.0857953 14:0.187187 15:0.238945 16:0.0454069 17:-0.579752 18:-0.479397 
0.5448617981337073 0.3012102358750802 0.2863135296722266 0.5653211644192323 0.03882571531426028 0.1013743531255072 0 1:0.496361 2:-0.183917 3:0.311356 4:-0.0913728 5:-0.313362 6:-0.518466 7:-0.0972595 8:0.0349609 9:0.129891 10:0.0938042 11:0.143028 12:0.258087 13:-0.0918676 14:0.454134 15:-0.0868606 16:-0.228908 17:-0.584631 18:-0.443636 
0.2998466094006554 0 0.1404119359205592 0 0 0.0591732399219843 0 1:0.551724 2:-0.029587 3:0.307086 4:0.261728 5:-0.118934 6:-0.616022 7:-0.110789 8:0.0979531 9:0.247522 10:0.0355378 11:0.0740089 12:0.400202 13:-0.106195 14:0.200064 15:0.00694536 16:-0.282886 17:-0.579092 18:-0.499635 
0.9820550312471977 0.1838729927874562 0.1048448683045144 0.1208486929907808 0.05722002517716143 0.3515439692778132 0.4981978228433444 1:0.718434 2:0.0667197 3:0.351297 4:0.000334582 5:-0.0848946 6:-0.166848 7:0.604325 8:0.210101 9:-0.0350293 10:0.0451887 11:0.105982 12:0.172024 13:-0.0152067 14:0.184419 15:0.0390035 16:-0.129637 17:-0.581779 18:-0.492955 
0.3715941022293384 0.1310905943921511 0.2917839953960133 0.2529880478931496 0.4232508141147596 0.3220866702425025 0 1:0.758956 2:0.0816341 3:0.355926 4:-0.00857885 5:-0.0811663 6:-0.186562 7:0.563023 8:0.297888 9:-0.0296341 10:-0.0153547 11:-0.0390272 12:0.283212 13:0.0277341 14:0.149187 15:0.109314 16:-0.0389043 17:-0.570282 18:-0.542594 
0.7515361615960755 0 0.09469678227871428 0.1040784016555265 0 0.4071766031721592 0 1:0.896765 2:-0.0166787 3:0.348395 4:-0.157131 5:0.0155813 6:-0.367975 7:0.0864565 8:0.116825 9:0.144533 10:0.0126575 11:-0.0402122 12:0.13011 13:-0.0724701 14:0.211188 15:0.0547581 16:-0.0213242 17:-0.557181 18:-0.195063 
0.0009806571085555923 0 0 0 0 0.3657213900077028 0 1:0.841565 2:-0.104839 3:0.40023 4:-0.333482 5:0.0292895 6:-0.352385 7:0.0764644 8:0.0959804 9:0.132969 10:0.0719976 11:0.0362422 12:0.271424 13:-0.15661 14:0.158822 15:0.114848 16:-0.119057 17:-0.621048 18:-0.25762 
0.1642273284082632 0.02960641650384081 0.2719226603568538 0.1947966901186273 0.2385352209363371 0.3606757646538345 0.1364169324727715 1:0.462534 2:-0.459405 3:0.129148 4:-0.016187 5:-0.270919 6:-0.500603 7:-0.0327167 8:0.285103 9:0.0993445 10:0.364342 11:0.0984022 12:0.551131 13:-0.194654 14:0.0903177 15:-0.0620878 16:0.00469171 17:-0.592198 18:-0.383108 
0.1920716896997095 0 0.2250125870582574 0.09541870947530891 0.1659639940812504 0.3837082690141685 0 1:0.574745 2:-0.394277 3:0.135566 4:0.162067 5:-0.0822513 6:-0.599012 7:-0.0587951 8:0.345152 9:0.039634 10:0.173714 11:0.129581 12:0.489637 13:-0.156334 14:0.223802 15:0.197445 16:-0.149561 17:-0.560185 18:-0.31012 
0 0 0 0.2137835440380941 0 0 0 1:0.470412 2:-0.00327386 3:0.474806 4:0.169618 5:-0.254888 6:-0.577016 7:0.0187861 8:0.174527 9:0.131572 10:0.149185 11:0.1941 12:0.330759 13:-0.0299237 14:0.138189 15:0.00360057 16:-0.145216 17:-0.479724 18:-0.509645 
0.3955930448298771 0 0.1890384827369655 0 0.02355734179164194 0.2740046189642516 0.1218791737093019 1:0.574534 2:-0.162752 3:0.399961 4:-0.363169 5:-0.0775235 6:-0.201447 7:0.201995 8:-0.220563 9:-0.0472706 10:0.313171 11:0.251819 12:0.0771013 13:-0.0130161 14:-0.0813392 15:0.0493517 16:-0.184995 17:-0.498736 18:-0.400584 
0 0 0 0 0.09723000652466955 0.4693812688449479 0.2903917608032345 1:0.583738 2:-0.206752 3:0.49961 4:-0.260257 5:0.22506 6:-0.330953 7:0.111178 8:-0.253799 9:-0.0480889 10:0.242054 11:0.162356 12:0.176027 13:0.0029006 14:-0.0828041 15:0.11718 16:-0.100702 17:-0.488029 18:-0.39033 
0.09132064513327445 0.1184990156520916 0.1844017113094782 0.4932223902234503 0.60976518675723 0.5988690862807138 0.4440946099884953 1:0.452764 2:-0.301176 3:0.303876 4:-0.094845 5:-0.30133 6:-0.44159 7:0.348946 8:0.0993959 9:0.146055 10:0.32688 11:0.279173 12:0.248865 13:-0.180767 14:0.4204 15:0.0466738 16:-0.240162 17:-0.543985 18:-0.485887 
0.7083696580004617 0 0.06824949988768692 0.1154989384641465 0.06131012591422404 0 0 1:0.546039 2:-0.199609 3:0.339287 4:0.254756 5:-0.0479606 6:-0.578863 7:0.333219 8:0.129098 9:0.223313 10:0.155969 11:0.166609 12:0.225605 13:-0.0522068 14:0.248499 15:0.14512 16:-0.195678 17:-0.496499 18:-0.546372 
0 0 0 0.9326815166274528 0.3638165594788083 0.5877074527797814 0.2741177286832612 1:0.564638 2:-0.095556 3:0.525913 4:-0.162148 5:0.11755 6:-0.553441 7:0.179419 8:0.0202271 9:0.0337138 10:0.142372 11:0.432396 12:0.0892423 13:0.0582917 14:0.185923 15:0.13325 16:-0.0320341 17:-0.487747 18:-0.511233 
0 0 0.03273375704226963 1.161022883969091 1.301498391312995 0.8279930914977435 0.536949139431253 1:0.524787 2:-0.190253 3:0.564554 4:-0.337148 5:-0.0465943 6:-0.521932 7:0.258263 8:-0.0194633 9:0.0223965 10:0.159869 11:0.365878 12:0.00478808 13:-0.0464214 14:0.170053 15:0.0600863 16:-0.089698 17:-0.479527 18:-0.535974 
0 0 0 0.07165641399751005 0 0 0.8664802308161307 1:0.587846 2:-0.153716 3:0.484775 4:-0.1929 5:0.0525675 6:-0.359373 7:0.351164 8:-0.0678059 9:0.0514804 10:0.143646 11:0.239398 12:0.173349 13:-0.118825 14:0.12558 15:0.0121685 16:-0.0399778 17:-0.596315 18:-0.489805 
0.1926211691733109 0.06797203496228783 0.3248003339441243 0.2911152723388191 0.3031236550157266 0.3171590671031417 0.06292618955012318 1:0.435977 2:-0.0959067 3:0.0469899 4:-0.132019 5:-0.267449 6:-0.583864 7:-0.00395364 8:0.41439 9:0.358774 10:-0.206658 11:-0.0530313 12:0.164576 13:0.157902 14:0.10456 15:-0.00841848 16:-0.124166 17:-0.567263 18:-0.395255 
0.3886041756476371 0.0559095700782577 0.4106628469177434 0.3545873853408111 0.4229397051875519 0.2908756537866679 0.03940987551015617 1:0.440248 2:-0.117539 3:0.0646902 4:0.191753 5:0.0196875 6:-0.671775 7:0.110088 8:0.290679 9:0.295306 10:-0.201128 11:0.112521 12:0.137436 13:-0.0995127 14:-0.120268 15:0.177758 16:-0.142319 17:-0.554553 18:-0.484501 
0.1471549753718799 0.002143407935128001 0.1362700993500607 0.3098860786697826 0.4121418100626237 0.3173047616363318 0.05937701100397567 1:0.397181 2:-0.100748 3:0.450157 4:0.174048 5:-0.205176 6:-0.491854 7:0.344097 8:0.354766 9:0.388626 10:0.117533 11:0.21413 12:0.241466 13:0.00195738 14:0.390995 15:-0.0217718 16:-0.14269 17:-0.513269 18:-0.357948 
0.4096278291830779 0 0.2072712007928741 0.1588022079466533 0.3091749469125438 0.1063228279016947 0 1:0.390463 2:-0.105188 3:0.471864 4:0.198353 5:-0.211777 6:-0.494973 7:0.437343 8:0.308659 9:0.384668 10:0.126316 11:0.247837 12:0.189253 13:-0.165606 14:0.417626 15:0.0391681 16:-0.15684 17:-0.513799 18:-0.369216 
0.3262991088374509 0 0.1151543454777497 0 0.2208769207671086 0.217285980468054 0 1:0.409695 2:-0.0383271 3:0.262857 4:0.0837828 5:-0.310942 6:-0.3674 7:0.110819 8:0.473356 9:0.102558 10:0.0895439 11:0.34157 12:0.149793 13:-0.12892 14:0.121916 15:-0.0755523 16:-0.0298286 17:-0.542126 18:-0.424998 
0.1734636887461447 0 0 0.3964970532615406 0.03741823600246087 0.6199765699808435 0.06500702727181749 1:0.419761 2:-0.017597 3:0.299541 4:0.131416 5:-0.113459 6:-0.466758 7:0.0738654 8:0.369956 9:0.142818 10:0.171534 11:0.446643 12:0.295053 13:-0.0725899 14:0.248044 15:0.000221417 16:-0.121985 17:-0.55268 18:-0.372577 
0.6900481942926446 0.06645815750497833 0.6399858913197881 0.4188074399310222 0.3413738456033498 0.4696218983716557 0.008857713088847587 1:0.502409 2:-0.107539 3:-0.201259 4:0.0571849 5:-0.216577 6:-0.605419 7:0.309751 8:0.158353 9:0.113335 10:0.303875 11:0.0104616 12:0.300196 13:-0.144572 14:0.186831 15:0.0221548 16:-0.067778 17:-0.568531 18:-0.423579 
0.3712186429738566 0.1113740815251339 0.845654737678243 0.4246259974885009 0.4681945641478065 0.4989240338442898 0.1083288856866371 1:0.440158 2:-0.214731 3:-0.146067 4:-0.0112181 5:-0.00319948 6:-0.62351 7:0.382647 8:0.0246391 9:0.178601 10:0.298585 11:-0.0801523 12:0.297399 13:-0.312135 14:0.328941 15:0.0707932 16:-0.0894726 17:-0.591732 18:-0.271456 
0.3672146620766293 0 0.05684738617556988 0 0.0316252904356249 0.1957985912063956 0 1:0.577373 2:-0.0722444 3:0.315676 4:0.00965739 5:-0.248523 6:-0.549133 7:-0.246293 8:0.206977 9:0.270973 10:-0.00620427 11:0.161171 12:0.377173 13:-0.272727 14:0.444982 15:-0.108233 16:-0.220778 17:-0.503925 18:-0.500471 
0.1579734581063447 0 0.09519793909945645 0.02981356242954632 0.012281897938703 0.269890954967248 0.009087999668163196 1:0.53112 2:-0.151073 3:0.360307 4:0.0451688 5:-0.107206 6:-0.60688 7:-0.260706 8:0.0872577 9:0.265379 10:0.013173 11:0.0605974 12:0.432376 13:-0.0197199 14:0.424252 15:-0.144441 16:-0.238406 17:-0.463571 18:-0.497512 
0.6883392638126725 0.01185631455985123 0.2683590363271878 0.361015193461466 0.259387322428049 0.5188650827552043 0 1:0.743293 2:0.464605 3:0.576213 4:-0.229734 5:-0.13104 6:-0.435723 7:0.214815 8:0.443939 9:0.210813 10:-0.0859264 11:0.205755 12:0.372228 13:-0.122395 14:0.285681 15:-0.153392 16:-0.167405 17:-0.568185 18:-0.482114 
0.3518319475251962 0.02238879103762534 0.2816599885480855 0.3730542191965594 0.3048214457437881 0.4361420539198029 0.02266994991995808 1:0.658421 2:0.394295 3:0.605741 4:-0.189995 5:0.178094 6:-0.444993 7:0.179905 8:0.416288 9:0.197605 10:-0.18599 11:0.0296624 12:0.438782 13:-0.0354087 14:0.230431 15:-0.0356445 16:0.00272209 17:-0.55684 18:-0.493999 
0.02538447955752147 0.1768860038001709 0 0 0 0 0.2969826343529314 1:0.569719 2:0.0734357 3:0.440203 4:-0.258327 5:0.0330792 6:-0.211231 7:0.0532547 8:-0.0231633 9:0.134882 10:-0.0876447 11:0.219002 12:0.168369 13:-0.12818 14:0.311269 15:-0.00495572 16:-0.11881 17:-0.589954 18:-0.527836 
0.09294588677818971 0 0 0 0 0 0 1:0.526643 2:0.0630109 3:0.439568 4:-0.30429 5:0.0662753 6:-0.170974 7:-0.0220111 8:-0.0399534 9:0.0835266 10:-0.0679282 11:0.214637 12:0.0484757 13:-0.119133 14:0.381716 15:-0.129579 16:-0.143808 17:-0.572024 18:-0.528419 
0.8349196542618161 0.2832772255695882 0.4220402338091853 0.3686036660459983 0.4497197680677874 0.4213950392620576 0.3541528340852395 1:0.640598 2:0.186889 3:0.306444 4:-0.0186253 5:-0.306884 6:-0.321334 7:0.555691 8:-0.0558541 9:0.274323 10:0.0824901 11:0.329905 12:-3.47459e-05 13:-0.10013 14:-0.101677 15:-0.0472926 16:-0.189411 17:-0.47557 18:-0.652079 
0.5913274337002181 0.1280057684009001 0.5606881009921801 0.4283570515671856 0.4523119445023972 0.4803249418789879 0.1125508662577864 1:0.561166 2:0.201285 3:0.234945 4:0.194962 5:-0.00975195 6:-0.277675 7:0.499697 8:-0.0209593 9:0.223587 10:0.114598 11:0.251127 12:-0.0582457 13:-0.00309565 14:-0.280955 15:-0.0768925 16:-0.178403 17:-0.541851 18:-0.584815 
0.6459708797959406 0.06734692709450925 0.257912584112626 0.2631372540976911 0.2063095687921059 0.2754617636851933 0.08289180939669469 1:0.828742 2:0.147533 3:0.345537 4:-0.24905 5:-0.0613027 6:-0.350195 7:0.310719 8:0.250363 9:0.360908 10:-0.0885729 11:0.410208 12:0.0155813 13:0.0125648 14:0.126035 15:0.0498453 16:0.0386877 17:-0.713432 18:-0.363886 
0.3682794101839283 0.1022216841475842 0.4138504335650952 0.3721600669731256 0.3839071355554852 0.4715904034004151 0.09702472260609937 1:0.82377 2:0.138795 3:0.309269 4:-0.0816341 5:0.0936075 6:-0.341247 7:0.303017 8:0.239523 9:0.430204 10:-0.0420643 11:0.329263 12:0.0226724 13:0.108102 14:-0.0599504 15:0.153714 16:0.0637901 17:-0.747315 18:-0.198782 
0.2641112783304237 0.05060084550634578 0.374747399585224 0.4081054906174468 0.6340048062185202 0.5356433521269484 0 1:0.310124 2:-0.21174 3:0.227758 4:0.0589543 5:0.0623869 6:-0.446903 7:0.265786 8:0.485497 9:-0.0823647 10:0.0845812 11:-0.151083 12:0.371881 13:-0.308524 14:0.442324 15:0.0173873 16:-0.0693727 17:-0.497051 18:-0.492033 
0.2045119306628723 0.04112172896701626 0.2619168927787082 0.4162905752020775 0.7974994285566293 0.3330388921066548 0.01915652631004014 1:0.260072 2:-0.246891 3:0.246729 4:-0.164796 5:-0.212777 6:-0.397938 7:0.27959 8:0.482755 9:-0.160837 10:0.192837 11:-0.117391 12:0.356692 13:-0.0373396 14:0.403042 15:-0.105593 16:-0.0790214 17:-0.478862 18:-0.54114 
0.3317950155568959 0.5350207740319111 0.3888340057829222 1.078818009553846 0.4441975339164002 1.068986987102869 0.6291582329473686 1:0.228516 2:-0.188288 3:0.223196 4:0.292404 5:-0.0390881 6:-0.345454 7:0.177008 8:0.0966006 9:-0.0470354 10:0.150134 11:0.12493 12:0.0738285 13:-0.011146 14:0.290614 15:0.147714 16:-0.0928719 17:-0.529444 18:-0.501677 
0.427212810917757 0.3068865719456985 0.2166352617116296 0.7236958362076231 0.6961090781200655 0.9655045901273075 0.5540159201563934 1:0.190352 2:-0.191644 3:0.252489 4:0.0459837 5:-0.301343 6:-0.326265 7:0.104687 8:0.15456 9:-0.167315 10:0.203663 11:0.223947 12:0.134046 13:-0.115835 14:0.22272 15:0.034136 16:-0.152736 17:-0.485446 18:-0.47884 
0.4387180263468102 0.6207706045091494 0.7189011091744295 0.450749019890742 0.1936728874344383 0.5456966597870023 0.05605084110694008 1:0.437101 2:-0.0793577 3:0.262865 4:-0.0265775 5:-0.177158 6:-0.365388 7:0.0787872 8:-0.335723 9:0.134215 10:-0.0617023 11:0.204739 12:0.000231653 13:-0.362117 14:0.221459 15:-0.263611 16:-0.170088 17:-0.578127 18:-0.486294 
0.3901884654371475 0.5164049303099978 0.9179889440786725 0.1405718830607248 0 0 0.6593152710489818 1:0.502341 2:-0.111614 3:0.272178 4:0.106165 5:-0.14385 6:-0.440127 7:0.15441 8:-0.302783 9:0.0349869 10:-0.128541 11:0.191681 12:0.0658332 13:-0.0862766 14:0.250892 15:-0.141195 16:-0.172333 17:-0.516721 18:-0.458536 
0.3975004158285446 0.08095255530467665 0.3431918350921655 0.2178410912321004 0.3255843922833312 0.7053055707833962 0 1:0.6006 2:-0.0878172 3:0.443833 4:-0.338139 5:-0.0383858 6:-0.248934 7:0.0266394 8:0.554961 9:0.269131 10:0.129878 11:0.276358 12:0.309097 13:-0.0938451 14:0.134064 15:-0.116056 16:-0.222126 17:-0.57112 18:-0.373999 
0.0217559122419562 0 0.07183994540918356 0.2234515330583193 0.1484170056500763 0.3600164731638685 0.1161201024794833 1:0.636887 2:-0.0982837 3:0.497578 4:-0.254792 5:0.165546 6:-0.293477 7:0.174781 8:0.421981 9:0.189853 10:0.0118062 11:0.28793 12:0.239801 13:-0.0486395 14:0.182678 15:0.240652 16:-0.0511672 17:-0.642232 18:-0.365071 
0.2516378834756763 0.05893291316029187 0.2434506960722596 0.3613599006837404 0.2204383777950286 1.408993271207667 0.03536574946831023 1:0.747743 2:0.291477 3:0.582876 4:-0.232405 5:-0.0390499 6:-0.252367 7:-0.0716328 8:0.354136 9:0.165489 10:-0.124757 11:-0.0878817 12:0.369988 13:-0.038828 14:0.293393 15:-0.475905 16:-0.350337 17:-0.485218 18:-0.470043 
0.2797771273094014 0.08769223612481718 0.3635245261297269 0.4146848128852469 0.3539392016313762 0.4926798004588918 0.06187184067209859 1:0.704969 2:0.236764 3:0.634058 4:-0.190463 5:-0.00133298 6:-0.283202 7:0.0437637 8:0.40204 9:0.102811 10:-0.199794 11:-0.175701 12:0.20069 13:-0.29088 14:0.225652 15:-0.435261 16:-0.444452 17:-0.513513 18:-0.431395 
0.4993149898757057 0.06812419973557332 0.6444295738679247 0.593824002309413 0.3063845889753584 0.3952121961319359 0.0575111590672697 1:0.406502 2:0.62825 3:0.17843 4:-0.387656 5:0.237058 6:-0.610948 7:0.343739 8:0.0137766 9:0.15708 10:0.260601 11:0.33508 12:0.0420612 13:-0.073208 14:0.121296 15:0.0779574 16:0.012568 17:-0.489628 18:-0.284123 
0.2967385672501325 0.08442795131252094 0.3809221159773412 0.3026357280849122 0.3233890371855146 0.3787825617286321 0.06187801493711765 1:0.375171 2:0.660554 3:0.159523 4:-0.524669 5:0.126749 6:-0.547119 7:0.26632 8:0.100243 9:0.164228 10:0.279539 11:0.329891 12:-0.0334856 13:-0.131181 14:0.131621 15:-0.00207 16:0.0275065 17:-0.476129 18:-0.260421 
0.4325941839837714 0.2087969929727306 0.210187807345574 0.3622864214230743 0.1985228713231186 0.938313104093927 0 1:0.584934 2:-0.0206011 3:0.379932 4:-0.324799 5:-0.0192052 6:-0.369554 7:0.175148 8:0.20055 9:0.141461 10:0.271121 11:0.163153 12:0.394869 13:0.0976693 14:0.529201 15:-0.021164 16:-0.062318 17:-0.53958 18:-0.369193 
0.5661380002895031 0 0 1.494595291250541 0 0.0524353305351321 0.03080160481863958 1:0.535457 2:-0.0561497 3:0.340283 4:-0.181765 5:0.125492 6:-0.358294 7:0.219996 8:0.215818 9:0.0463534 10:0.302186 11:0.204538 12:0.293364 13:-0.108365 14:0.297545 15:0.0311335 16:-0.0771191 17:-0.547376 18:-0.374596 
0.1307365804742686 0.1041546193724733 0.2585018834161009 0.2830142457142013 0.7754720377267045 0.3736570262035772 0.2319677811340176 1:0.535774 2:-0.56585 3:0.076183 4:0.107069 5:-0.070625 6:-0.488272 7:0.353369 8:-0.169764 9:0.0629138 10:0.327519 11:0.281744 12:0.191042 13:-0.127647 14:-0.290391 15:0.0899636 16:-0.176973 17:-0.485772 18:-0.363395 
0.2564256455820635 0.1309993586466482 0.2923168085054538 0.2018049227695062 0.1934863359501391 0.4137391157502164 0.009819467668853782 1:0.514744 2:-0.589133 3:0.0202898 4:0.021259 5:-0.230116 6:-0.373217 7:0.418299 8:-0.127154 9:-0.0337483 10:0.344612 11:0.227399 12:0.134819 13:-0.169952 14:0.00315142 15:0.0865126 16:-0.215686 17:-0.443569 18:-0.38223 
0.688158580023014 0 0.06977109928096979 0.4417369848278269 0.4846557363943897 0.3657123982990681 0.6581554583737572 1:0.555715 2:-0.0848269 3:0.392575 4:0.147501 5:-0.125656 6:-0.594082 7:0.291301 8:0.0987894 9:0.355105 10:0.128133 11:0.278692 12:0.291074 13:-0.0413422 14:0.181919 15:0.215587 16:-0.11072 17:-0.565911 18:-0.480295 
0.7596806975296723 0.1652313693067971 0 0.2546211092592826 0.3229182210541175 0.3365280614238119 0.1580680824212781 1:0.499283 2:-0.156379 3:0.295033 4:0.147268 5:-0.175869 6:-0.519723 7:0.454428 8:0.0711602 9:0.278076 10:0.193848 11:0.260024 12:0.139797 13:-0.303605 14:0.268205 15:0.170514 16:-0.137997 17:-0.55701 18:-0.472917 
0.297178293548062 0.4574501050054028 0.463420107710398 1.060690667205215 0.6450290699632357 0.5427096346922768 0.5355560958616725 1:0.461297 2:-0.167953 3:0.392214 4:0.0901747 5:0.0350065 6:-0.64837 7:0.0364271 8:-0.188229 9:0.195425 10:0.222648 11:0.0286642 12:0.329332 13:-0.124786 14:0.277296 15:-0.287149 16:-0.0678475 17:-0.541252 18:-0.439119 
0.4542937893235391 0.6600544784041782 0.4150339580335226 0.8317006229168165 0.6072908620247809 0.5412862192568205 0.5420855827619618 1:0.459799 2:-0.153093 3:0.301989 4:-0.0470311 5:-0.290478 6:-0.478336 7:0.161995 8:-0.107152 9:0.187174 10:0.333894 11:0.139363 12:0.228185 13:-0.285193 14:0.158976 15:-0.336658 16:-0.131073 17:-0.579176 18:-0.434283 
0.3475325571850597 0.1223747456920852 0.506178860279191 0.4888241438957133 0.5322248542125962 0.5910138801585375 0.09756768472893387 1:0.386383 2:0.0981909 3:0.574579 4:-0.379388 5:-0.0387117 6:-0.0920446 7:0.76939 8:0.245812 9:0.204554 10:0.429077 11:0.268257 12:-0.102572 13:-0.0550379 14:-0.217371 15:0.0849281 16:-0.177319 17:-0.520992 18:-0.483542 
0.3006247306144421 0.09159779403119331 0.4806195534685466 0.486050753376534 0.6298985569343172 0.5235032031410458 0.05318604798377531 1:0.444466 2:0.148886 3:0.63842 4:-0.247378 5:0.311526 6:-0.224616 7:0.601886 8:0.366618 9:0.182511 10:0.32102 11:0.212019 12:0.0694985 13:0.0772276 14:0.0479801 15:0.167259 16:-0.205085 17:-0.48243 18:-0.480856 
1.604620927272393 0.3003629850618865 0.5814846249729941 0.3079781510655701 0.003212428805554357 0.4563829430770721 0.4717063294792985 1:0.577265 2:-0.0537763 3:0.326671 4:-0.270942 5:-0.224806 6:-0.261773 7:0.164882 8:0.0545201 9:-0.0332405 10:-0.0880474 11:0.105009 12:0.139552 13:0.0259941 14:0.0963584 15:0.14902 16:-0.0494439 17:-0.635141 18:-0.42904 
0.5729080002999282 0.04500423732570998 0.2906676136987222 0.3060307031921471 0.09584391206676332 0.7430086896596123 0.01861790382878989 1:0.600496 2:-0.0151386 3:0.374794 4:-0.0490212 5:0.172205 6:-0.420237 7:0.117256 8:0.0312303 9:0.0695223 10:-0.199095 11:-0.0442953 12:0.112396 13:0.0468791 14:0.072526 15:0.279147 16:0.0306176 17:-0.551308 18:-0.324288 
0.1950189624379056 0.9485323421384769 0 0.7120374212791413 0 1.48709690213051 1.152576899929114 1:0.498299 2:0.0540245 3:0.477589 4:0.165205 5:-0.175656 6:-0.502033 7:0.0708682 8:-0.202909 9:0.194216 10:-0.0190239 11:0.114668 12:0.224196 13:-0.257136 14:0.326581 15:0.0511671 16:-0.114203 17:-0.484328 18:-0.452724 
1.363899420149338 0.8696301503485317 0.1361815913432914 0 0 0.4778135169997016 0.9580431183561759 1:0.52464 2:0.0778267 3:0.45211 4:0.179436 5:-0.203647 6:-0.448637 7:0.159555 8:-0.197749 9:0.196037 10:-0.054968 11:0.0308904 12:0.232623 13:-0.0234822 14:0.352691 15:0.0704318 16:-0.173842 17:-0.473834 18:-0.468799 
0.3356138326962838 0.12058613281347 0.4944712133382141 0.4658996090212409 0.4786195819900922 0.5723617065462663 0.09048882706207366 1:0.878137 2:0.210231 3:0.417625 4:0.15228 5:0.00160045 6:-0.382451 7:0.163685 8:0.337357 9:0.485005 10:-0.595159 11:0.157141 12:0.200805 13:-0.263346 14:-0.492706 15:-0.399114 16:-0.501825 17:-0.294307 18:-0.248092 
0.3227327045134876 0.1169188541545034 0.4826446868837734 0.4534484495970878 0.4658714002041648 0.5565401038301565 0.0883181322893855 1:0.843076 2:0.182311 3:0.429684 4:-0.150016 5:-0.248349 6:-0.27109 7:0.204347 8:0.38237 9:0.504445 10:-0.475433 11:0.207666 12:0.163561 13:-0.185272 14:-0.211436 15:-0.529371 16:-0.550882 17:-0.361738 18:-0.181023 
1.32859029715068 0 0.3868756615462436 1.89754219416383 0 2.511087177578741 1.07074377117607 1:0.48066 2:-0.121287 3:0.373833 4:-0.239551 5:-0.029174 6:-0.309218 7:0.0820447 8:-0.201959 9:-0.0472719 10:0.234076 11:0.235055 12:0.0930983 13:-0.0721517 14:0.244924 15:0.39654 16:0.010152 17:-0.60019 18:-0.388302 
0 0 0.09134210871433923 0.4332927576327373 0.2511811071353663 0.433620177986469 0.02740912385607595 1:0.489012 2:-0.144734 3:0.525617 4:-0.354579 5:0.0647149 6:-0.293279 7:0.133272 8:-0.152989 9:0.116859 10:0.218441 11:0.135188 12:0.176153 13:-0.203883 14:0.162918 15:0.499686 16:0.0360467 17:-0.59905 18:-0.377034 
0.1719382765626776 0 0.2514356866545352 0.949731149307945 0.6604843133534152 0.2495286766821411 0.8123318405574732 1:0.307268 2:-0.158995 3:0.47165 4:0.0311376 5:-0.138202 6:-0.446725 7:0.0883198 8:-0.129161 9:0.235521 10:0.242335 11:-0.116452 12:0.543685 13:-0.234305 14:0.372293 15:-0.107793 16:-0.137102 17:-0.520689 18:-0.521597 
0.2184262168116949 0.7165760822323605 0.01524862022003507 2.428740580765874 1.105998393427015 1.098298070490049 0.9625123769413915 1:0.315327 2:-0.138774 3:0.485582 4:0.0812244 5:-0.0710376 6:-0.472944 7:0.130482 8:-0.130412 9:0.152898 10:0.15594 11:0.102601 12:0.336917 13:-0.226672 14:0.4938 15:0.0962302 16:-0.191221 17:-0.549343 18:-0.493217 
0.8203672472452251 2.520678811659071 1.019544009880663 0.3520166503088176 0.2078138490074745 0.2478515260082713 1.412014007247895 1:0.611846 2:-0.0135212 3:0.341448 4:-0.159523 5:-0.117878 6:-0.261566 7:0.259426 8:-0.367925 9:0.0106917 10:0.168889 11:0.356825 12:0.170283 13:-0.108535 14:-0.00498301 15:-0.226284 16:-0.0972827 17:-0.521181 18:-0.406618 
0.8709641086035619 2.711138117636707 1.681725041782984 0.6110114398848674 0.3731209795241371 1.394655160007263 0.7956555973070456 1:0.591163 2:0.0236796 3:0.307558 4:-0.0680145 5:0.0504089 6:-0.300307 7:0.130082 8:-0.355993 9:-0.0759789 10:0.218193 11:0.438059 12:0.277866 13:0.00200823 14:0.153552 15:-0.223414 16:-0.183124 17:-0.550728 18:-0.378712 
1.54106453973632 0.2534342009141695 0.8389321184272331 0.9853661054909377 0 2.29765187762545 1.154138410560247 1:0.49385 2:-0.267538 3:0.313967 4:-0.118129 5:-0.0659754 6:-0.406737 7:-0.000303924 8:0.103535 9:-0.0602072 10:0.0673602 11:0.284198 12:0.117564 13:-0.0856892 14:0.249158 15:0.173421 16:-0.165976 17:-0.584633 18:-0.46379 
0.3669327063462224 0.1319449433187708 0.5394495946442956 0.5083901125905683 0.521714226072693 0.6246586931067388 0.09901685435587818 1:0.564531 2:-0.120748 3:-0.200721 4:-0.19389 5:0.391797 6:-0.837841 7:0.0658205 8:0.113928 9:-0.0834167 10:-0.455006 11:-0.677227 12:-0.455935 13:-0.258979 14:0.133584 15:0.0200288 16:0.0088726 17:-0.739127 18:-0.590193 
2.345016846402803 0.7302167935057429 0.5864059059885788 1.371781422356943 0.3267803924651931 1.05779509682103 0.636078738281272 1:0.43163 2:-0.28258 3:0.347846 4:0.104478 5:0.273354 6:-0.493161 7:-0.0839811 8:0.0340522 9:0.0323809 10:-0.0101745 11:0.129367 12:0.285914 13:-0.0708488 14:0.255293 15:0.244242 16:-0.132581 17:-0.566104 18:-0.51367 
0.1808312011373462 0.2494552517696077 0 0.6103211049197443 0.4182596973535039 0.2777968204692565 0.1244417276050356 1:0.488118 2:-0.310172 3:0.139591 4:0.0585448 5:-0.0397712 6:-0.4068 7:-0.0227082 8:-0.07852 9:-0.308237 10:0.405206 11:0.193226 12:0.318881 13:-0.157828 14:0.125144 15:0.114856 16:-0.0821949 17:-0.616203 18:-0.425937 
0.838416757168878 0.6208076937844083 1.78006511423032 0.2389182651701919 0.1897683262884111 1.702050134184721 0.4893634870143683 1:0.517585 2:-0.263205 3:0.151407 4:0.0265745 5:-0.00945178 6:-0.417301 7:-0.122934 8:-0.0769252 9:-0.263742 10:0.383039 11:0.255639 12:0.274427 13:-0.186592 14:0.160132 15:0.0523685 16:-0.109496 17:-0.598105 18:-0.420451 
0.4194575116163151 0.9831742841146117 0.5747837479841958 1.470352612363388 0.3808481708841735 2.10904781216173 2.716689030529345 1:0.500628 2:-0.298464 3:0.235847 4:0.117338 5:-0.0613871 6:-0.442953 7:0.0479773 8:-0.0334811 9:-0.277505 10:0.182156 11:0.0922367 12:0.179215 13:-0.0906669 14:0.100525 15:0.162321 16:-0.0810951 17:-0.503951 18:-0.320252 
0 0 0 1.368243656345579 1.452785612349853 1.036610407520249 0 1:0.427858 2:-0.112661 3:0.499627 4:-0.0721461 5:-0.120669 6:-0.450834 7:0.306205 8:0.0949953 9:-0.015186 10:0.265505 11:0.142365 12:0.216927 13:-0.0542703 14:0.276559 15:0.234195 16:-0.0203873 17:-0.623892 18:-0.46043 
0 0 0 0 0 0.08541746956626131 0 1:0.478202 2:-0.101235 3:0.410228 4:-0.0461911 5:-0.124881 6:-0.435107 7:0.272185 8:0.0413807 9:-0.0648007 10:0.185215 11:0.202654 12:0.209557 13:-0.0609061 14:0.248613 15:0.195779 16:-0.0285912 17:-0.614781 18:-0.473907 
1.455142102764192 3.294228568342624 0 4.518869585230822 0.3042885904089308 8 8 1:0.503521 2:-0.103571 3:0.415439 4:-0.0299418 5:-0.0856189 6:-0.437693 7:0.193292 8:-0.0488644 9:-0.048229 10:0.139605 11:0.222316 12:0.215018 13:-0.0356538 14:0.211337 15:0.130153 16:-0.0149284 17:-0.607892 18:-0.484086 
0.3586075483064478 0 0 0.3148562042247063 0.2948151072855805 0 1.097468714981484 1:0.285002 2:-0.450012 3:0.231276 4:-0.144146 5:0.0245052 6:-0.364963 7:0.0311412 8:0.0194836 9:-0.166044 10:0.140028 11:0.233501 12:0.283395 13:-0.00499295 14:-0.100316 15:-0.072456 16:-0.187853 17:-0.64747 18:-0.391696 
1.231185188238856 0.01550358137560334 0.7541865171654245 0.4785760482721187 0.4243266415286998 0.699735534533992 0.9349679245869945 1:0.291034 2:-0.403218 3:0.185699 4:-0.110568 5:-0.0156937 6:-0.360526 7:0.0595786 8:0.0292045 9:-0.199859 10:0.165077 11:0.194647 12:0.365389 13:-0.0390947 14:-0.145614 15:-0.0881504 16:-0.151583 17:-0.669454 18:-0.373196 
0.5123707524323142 0.2888217807680651 0.7376151486648667 0.5156247920312597 0.449205044570808 1.118622310606531 0.107335069617555 1:0.303131 2:-0.442275 3:0.242746 4:-0.200834 5:-0.0118907 6:-0.341921 7:0.0357566 8:-0.0205007 9:-0.158272 10:0.101605 11:0.231594 12:0.281545 13:-0.0232192 14:-0.0155946 15:-0.12691 16:-0.170725 17:-0.634803 18:-0.376495 
1.266061454616752 0 2.008218684576029 0.6726730896965419 0.3079949166072882 0 0 1:0.692689 2:-0.265094 3:0.221192 4:-0.124061 5:0.00466823 6:-0.516136 7:0.036583 8:-0.0630587 9:-0.0957693 10:0.11051 11:0.232564 12:0.187633 13:-0.0510156 14:0.104493 15:-0.0264111 16:-0.12052 17:-0.690193 18:-0.423358 
0 0 0 0 0 0.409868300876017 0.1167355369254935 1:0.682681 2:-0.328306 3:0.231986 4:-0.147326 5:-0.00246387 6:-0.477262 7:0.12377 8:0.0639576 9:-0.0586723 10:0.25013 11:0.0643083 12:0.285211 13:-0.12456 14:0.203482 15:0.05764 16:-0.022996 17:-0.658459 18:-0.463244 
0 0 0 0.1157446692555529 0 0.9114582690149844 0.5796647017180402 1:0.680904 2:-0.334212 3:0.309053 4:-0.170707 5:0.00842863 6:-0.496673 7:0.115694 8:0.00371633 9:-0.0129139 10:0.176732 11:0.153441 12:0.205644 13:-0.0672137 14:0.088136 15:0.0364322 16:-0.0447476 17:-0.613877 18:-0.421397 
1.636677494191723 0.1960778187072424 0.3278008449510807 0.3544442098763141 0.1582169536265897 1.067104471584171 0 1:0.557484 2:-0.375256 3:0.269908 4:-0.299592 5:-0.322763 6:-0.388843 7:0.129513 8:0.210799 9:-0.151082 10:0.451699 11:0.193666 12:0.213267 13:0.00518424 14:0.204181 15:0.064566 16:-0.0785695 17:-0.609532 18:-0.422972 
0 0 0.1543981503755892 0.489766990658911 0.3782999946461397 0.4999150263776086 0 1:0.598355 2:-0.455339 3:0.353884 4:-0.313068 5:-0.222885 6:-0.512143 7:0.0987779 8:0.1283 9:-0.135489 10:0.402081 11:0.153964 12:0.119952 13:0.02179 14:0.249618 15:0.100756 16:-0.13395 17:-0.524024 18:-0.431441 
0 0 0 0 0.127364068027492 0 0.6915976999668967 1:0.570469 2:-0.432511 3:0.325884 4:-0.267955 5:-0.208942 6:-0.471939 7:0.126117 8:0.142219 9:-0.133105 10:0.411161 11:0.126378 12:0.18037 13:0.0491245 14:0.236332 15:0.0586393 16:-0.112225 17:-0.547362 18:-0.460553 
0.7396246377514725 0 0.4016577155074467 1.533970694115956 0.2352631660212585 2.205853763046688 1.946229333496568 1:0.322461 2:-0.39904 3:0.255449 4:-0.0970983 5:-0.0418474 6:-0.381605 7:0.1344 8:0.108641 9:-0.115477 10:0.0711649 11:0.229474 12:0.350495 13:-0.00941121 14:0.232264 15:0.0323699 16:-0.0202233 17:-0.577105 18:-0.396627 
1.343334474129598 0 0 0.1749333596505696 0.4283288588097662 0.4974771427106257 0.1033862014622578 1:0.282795 2:-0.411351 3:0.276234 4:-0.193646 5:-0.109064 6:-0.348142 7:0.116119 8:0.150561 9:-0.137623 10:0.0901997 11:0.23599 12:0.29965 13:0.0362357 14:0.247116 15:0.0147189 16:-0.041564 17:-0.58416 18:-0.419281 
0 0 0 0 0.2335480083782627 0 0 1:0.358467 2:-0.36845 3:0.298723 4:-0.136799 5:-0.0804085 6:-0.367119 7:0.197112 8:0.152177 9:-0.118236 10:0.0522139 11:0.206999 12:0.333983 13:-0.0135342 14:0.23288 15:0.0490929 16:-0.024025 17:-0.593766 18:-0.399573 
0 0.2869705726501805 0.1362036084328109 0.02188531632368724 0.2337250504836921 0.3704298242707891 0.2086655226666696 1:0.595562 2:-0.313922 3:0.294249 4:0.085849 5:0.0753279 6:-0.506064 7:0.0955305 8:-0.0633433 9:-0.131665 10:-0.161889 11:0.115473 12:0.10291 13:-0.202989 14:0.0016271 15:0.0763954 16:-0.153701 17:-0.418811 18:-0.392701 
0.2980011940447985 0.005354369214008041 0.2767364996910602 0.2157691989786027 0.2968474374880335 0.1454653368905266 0.05490014710254908 1:0.697307 2:-0.229893 3:0.36972 4:-0.199115 5:-0.135265 6:-0.358604 7:0.288206 8:-0.0751237 9:-0.0647508 10:-0.0469525 11:0.10993 12:-0.103649 13:-0.155776 14:-0.131009 15:-0.073118 16:-0.238671 17:-0.346221 18:-0.331065 
0.1414940680232097 0.6877066928421132 0.0685029693827441 0.2410024105551806 0 0.5381608171017219 1.228127729393498 1:0.714738 2:-0.0396568 3:0.439712 4:0.0475416 5:0.114557 6:-0.425619 7:0.197215 8:-0.100741 9:0.0683206 10:-0.148356 11:0.0694529 12:0.106745 13:-0.290239 14:0.0390453 15:0.153253 16:-0.0821017 17:-0.438552 18:-0.381564 
0.1131964456865265 0 0 0 0 0 0 1:0.693004 2:-0.0619635 3:0.424713 4:-0.133527 5:-0.114156 6:-0.318098 7:0.219648 8:-0.0782063 9:0.0191603 10:-0.0632998 11:0.0659231 12:-0.0255495 13:-0.309436 14:-0.0857542 15:0.00452654 16:-0.070717 17:-0.409342 18:-0.356811 
0.05993582114677944 0 0.08363675382003975 0.02571224551219115 0.1555894342512443 0.09849856098224467 0 1:0.752928 2:-0.0952561 3:0.400776 4:-0.00556595 5:0.131201 6:-0.45507 7:0.0680429 8:0.0550267 9:-0.097388 10:-0.099579 11:0.178602 12:0.0467368 13:-0.25058 14:-0.215575 15:0.0356078 16:-0.108086 17:-0.444248 18:-0.346237 
0.4924107489668256 0 0 0 0 0 0 1:0.753947 2:-0.145284 3:0.439308 4:-0.271638 5:-0.0901354 6:-0.381766 7:0.155085 8:0.022384 9:-0.0789421 10:-0.0785854 11:0.144302 12:-0.0467618 13:-0.171747 14:-0.00577036 15:-0.00414493 16:-0.124316 17:-0.393562 18:-0.319123 
0.2168250432724518 1.378005995224219 0.3437014361031669 0.6854371996589296 0.03674154917032518 1.306287874259461 2.652225307797024 1:0.454277 2:0.211283 3:0.587991 4:-0.137028 5:-0.121914 6:-0.179291 7:0.258339 8:-0.165365 9:0.193208 10:0.0483574 11:0.0814316 12:0.21259 13:-0.167311 14:0.466673 15:0.00444185 16:-0.223981 17:-0.533841 18:-0.464722 
0 3.257638588486853 0.1843897969356986 0.3376278450705622 0.3607555544655027 0.8624046171493341 3.107376327774413 1:0.453108 2:0.252718 3:0.532398 4:0.117992 5:0.0479963 6:-0.227441 7:0.32132 8:-0.166247 9:0.222946 10:0.0356055 11:0.0949069 12:0.210898 13:-0.200427 14:0.37763 15:0.0541179 16:-0.180722 17:-0.526856 18:-0.500465 
0.5519532116219673 0 0.5853804944051286 0.6074284829245238 0.2383774713448906 1.192805170205594 0 1:0.55495 2:0.0867192 3:0.427952 4:0.0939381 5:-0.0397041 6:-0.202708 7:0.559707 8:-0.085312 9:0.210518 10:0.212158 11:0.132288 12:0.171479 13:-0.0825701 14:0.434058 15:0.0751108 16:-0.112603 17:-0.537714 18:-0.514088 
0 0.843125109968664 0 0.1235868067710924 0 0.3055487337210743 1.599258102502676 1:0.554005 2:0.0895457 3:0.435719 4:0.155307 5:0.0156353 6:-0.247747 7:0.552827 8:-0.0708444 9:0.128117 10:0.202336 11:0.224966 12:0.0976625 13:-0.21714 14:0.330781 15:0.0861919 16:-0.130799 17:-0.506112 18:-0.552705 
