svm_type c_svc
kernel_type rbf
gamma 0.5
nr_class 7
total_sv 425
rho 0.241103 -1.09451 -0.972524 -0.777839 -0.358317 -0.710975 -0.581319 -0.855255 -0.697329 -0.176802 -0.308586 -0.50984 -0.000411426 -0.0989431 0.249115 0.00729595 0.28174 0.609137 0.381538 0.335756 -0.0362656
label 1 3 2 5 4 7 6
probA -2.38959 -3.18141 -3.73475 -3.61697 -4.03786 -2.66989 -3.83042 -3.54261 -3.96643 -4.61002 -3.7308 -4.01826 -3.07738 -3.14772 -2.374 -2.89249 -4.42131 -4.28932 -3.81676 -2.60479 -4.48146
probB -0.0210492 0.0552272 0.207009 0.214744 -0.0957268 -0.166775 0.0671991 -0.070573 -0.11389 0.053687 -0.198925 -0.136825 -0.302947 -0.0694552 -0.0281031 0.169163 -0.0927417 -0.592465 -0.0125533 -0.300633 0.355108
nr_sv 77 85 35 60 45 70 53
SV
2.654747617748806 0.8348962640700006 0 0 1.186184689089309 0 1:-0.340204 2:0.608446 3:0.479345 4:0.0675274 5:0.156039 6:-0.52462 7:-0.24808 8:0.0135874 9:-0.16258 10:0.00118994 11:0.07224 12:-0.485507 13:-0.352616 14:-0.413143 15:-0.40994 16:-0.28373 17:-0.745419 18:-0.356728 
0 1.683309235373468 0 0.4662858235433087 0.4024149073894467 6.384403179610255 1:-0.28271 2:0.59831 3:0.314218 4:-0.0546498 5:-0.255291 6:-0.343944 7:-0.289446 8:-0.0401376 9:-0.132093 10:-0.0157691 11:0.288162 12:-0.536612 13:-0.200802 14:-0.425349 15:-0.448493 16:-0.243139 17:-0.712827 18:-0.589496 
0.2077174184412634 0.1023645775480111 0.05026642198835003 0 0.496997474966772 0.4408751335921308 1:0.340858 2:0.235005 3:0.422692 4:-0.545156 5:0.0287844 6:0.945471 7:-0.0640244 8:0.0828198 9:-0.100411 10:-0.757735 11:-0.95698 12:-0.470798 13:-0.752432 14:-0.754665 15:0.120255 16:-0.0382704 17:0.612028 18:-0.495651 
0.1483922605954315 0 0.1491842138033868 0.3617054359447659 0.4189254574466105 0.06914661688785312 1:0.344953 2:0.157632 3:0.611407 4:-0.411807 5:0.671504 6:0.921138 7:-0.0886643 8:0.244575 9:-0.0822461 10:-0.854771 11:-1 12:-0.149409 13:-0.121517 14:-0.53872 15:0.260916 16:-0.115701 17:0.390112 18:-0.453108 
0.5018345264922993 0.3066329340974678 0 0 0.02827077169957667 0 1:-0.0356376 2:0.580576 3:0.0844023 4:-0.080174 5:0.41078 6:0.52716 7:-0.619678 8:0.0241983 9:0.785044 10:0.353329 11:0.491964 12:-0.305405 13:-0.175163 14:-0.759551 15:-0.00348737 16:-0.0475893 17:0.262323 18:-0.59324 
0.6625129123244031 0.8099484306113073 0.119147266715991 0 1.844123333123859 2.199976273451589 1:-0.0131707 2:0.729319 3:-0.210132 4:-0.0525972 5:0.0372901 6:0.572349 7:-0.647715 8:0.0608011 9:0.702825 10:0.430693 11:0.470299 12:-0.146087 13:0.222932 14:-0.69002 15:-0.136798 16:-0.0973183 17:0.171472 18:-0.625772 
2.978151522777485 3.404674550063407 0.6320448476760446 1.938088999507626 0.7234549276660538 1.80145665348846 1:-0.146675 2:-0.0864693 3:0.13249 4:-0.0585903 5:-0.0869096 6:0.23554 7:-0.431848 8:0.415464 9:-0.0750192 10:-0.370466 11:0.499052 12:-0.118187 13:-0.0145881 14:-0.760349 15:-0.226457 16:0.0603339 17:0.529877 18:-0.640406 
2.309515650978172 1.658682939375507 0.5610620954383826 0.7710390726356867 0 0 1:-0.119913 2:-0.0874698 3:0.115295 4:0.0802458 5:-0.0277786 6:0.264658 7:-0.349157 8:0.471497 9:-0.03401 10:-0.317933 11:0.39772 12:-0.0734049 13:0.235088 14:-0.694101 15:-0.355474 16:0.144814 17:0.625317 18:-0.6927 
2.024423597595241 0 0 0 0 0 1:-0.90224 2:0.306924 3:0.0168419 4:0.0548243 5:-0.42109 6:-0.264147 7:-0.5606 8:-0.0637506 9:0.10661 10:0.280902 11:-0.029381 12:0.0209907 13:-0.127137 14:-0.735846 15:-0.208554 16:0.0558062 17:0.377665 18:-0.417361 
8.163616670156577 0 0 0 0 0 1:-0.759348 2:0.362285 3:0.0680846 4:0.184418 5:0.0947953 6:-0.19127 7:-0.601843 8:0.0442498 9:0.190229 10:0.330094 11:-0.012191 12:0.128063 13:0.370086 14:-0.711928 15:-0.28383 16:0.0864604 17:0.518474 18:-0.630992 
3.117903625066605 5.795142147365961 5.163822222362342 0 3.269477902374537 0 1:-0.829129 2:0.437491 3:-0.0395884 4:-0.190805 5:0.0264069 6:-0.023858 7:-0.675057 8:0.180784 9:0.359064 10:-0.190658 11:-0.181102 12:0.293005 13:-0.151526 14:-0.576292 15:-0.179412 16:-0.220021 17:0.141054 18:-0.0622644 
22.13642739380974 0 0 0 0 0 1:-0.835794 2:-0.1377 3:0.353929 4:0.193538 5:-0.121025 6:-0.423066 7:-0.310316 8:0.131924 9:0.161737 10:0.0925022 11:0.0857222 12:-0.0351709 13:-0.0624021 14:-0.651485 15:-0.471078 16:-0.237168 17:0.263021 18:-0.249599 
16.04727261514144 0 0 0 0 0 1:-0.668628 2:-0.0605781 3:0.12598 4:0.0915769 5:-0.367597 6:-0.168175 7:-0.379081 8:0.205306 9:0.193179 10:0.390729 11:-0.169218 12:-0.08659 13:0.241358 14:-0.613962 15:-0.538459 16:-0.198819 17:0.385792 18:-0.181742 
0.6579469829130378 0 0 0.1764408210232777 0 0.5258184738502991 1:-0.407212 2:-0.0615286 3:0.109172 4:0.397107 5:0.374413 6:0.126197 7:-0.361423 8:0.368841 9:0.103195 10:0.575541 11:0.435378 12:0.14697 13:0.11857 14:-0.678422 15:-0.196314 16:-0.159806 17:0.434277 18:-0.584446 
0 1.403804747578121 11.79719067426652 0.5056982239921665 0 0 1:-0.575503 2:0.130818 3:-0.117608 4:0.0017508 5:-0.014812 6:0.0273689 7:-0.263788 8:0.0390904 9:-0.131113 10:0.154673 11:0.220238 12:-0.288154 13:-0.0489021 14:-0.568448 15:-0.63107 16:-0.164519 17:0.0310979 18:-0.305362 
8.769664199576857 5.464592411608658 10.33932882253974 3.47575502119567 0 3.08724535032509 1:-0.562474 2:0.132355 3:0.00292601 4:0.0242943 5:0.195569 6:-0.0455202 7:-0.262962 8:0.0535987 9:-0.0445205 10:0.179463 11:0.341135 12:-0.114023 13:0.0526072 14:-0.570333 15:-0.478713 16:-0.246287 17:0.0569712 18:-0.536023 
2.394536612390564 0.4856825961676708 0.6050421246608443 0.1564584647937487 0 0 1:-1 2:-0.554256 3:0.328805 4:0.0445477 5:-0.3324 6:-0.451992 7:-0.0155436 8:0.126359 9:-0.439038 10:-0.341094 11:-0.109289 12:0.412208 13:-0.372595 14:-0.621498 15:-0.564156 16:-0.0860715 17:0.230483 18:0.154872 
0 0 0.7549457171110352 0.521543847746971 0.1951035127402619 0.8248509094363168 1:-0.918641 2:-0.582234 3:0.313373 4:0.0921428 5:-0.291077 6:-0.487866 7:0.156205 8:0.268121 9:-0.557501 10:-0.22418 11:0.161466 12:0.313502 13:-0.35154 14:-0.685829 15:-0.406943 16:-0.00284004 17:0.211987 18:0.118411 
2.936928625818792 2.182242105470316 2.091081448051663 1.024010161211482 3.091380052138232 0.9615909415426922 1:-0.0125422 2:0.391307 3:0.226334 4:0.082978 5:0.256382 6:0.363979 7:0.110024 8:-0.487283 9:0.619137 10:0.148848 11:-0.230066 12:0.00146039 13:0.065408 14:-0.433095 15:-0.579247 16:-0.185678 17:0.879579 18:-0.442045 
2.432749519270486 0.9811003705818722 0 0 0.627768796153272 0 1:-0.330541 2:0.118078 3:0.385465 4:-0.0212944 5:-0.252075 6:0.0843717 7:0.197173 8:-0.604447 9:0.455153 10:-0.0540084 11:-0.62709 12:0.0163841 13:0.234304 14:-0.341691 15:-0.707348 16:-0.0420098 17:0.818852 18:-0.386895 
2.660142731037367 5.363800135787473 5.358732556528638 0.3807359539761695 5.272247148677311 6.943738425460039 1:-0.106548 2:0.245974 3:0.176273 4:-0.357506 5:-0.375151 6:0.498483 7:-0.328971 8:-0.291878 9:-0.0594551 10:0.0907864 11:-0.157017 12:-0.274367 13:0.292743 14:-0.487957 15:-0.17531 16:-0.29714 17:0.131786 18:-0.497774 
0.9428317528545641 2.462039245573924 0.9352247835369644 1.626463583577665 4.284405273046501 10.30870478275512 1:0.0393897 2:0.705715 3:0.221973 4:-0.0172124 5:0.377691 6:0.285753 7:-0.371911 8:-0.352802 9:0.138777 10:0.308981 11:-0.09458 12:-0.0683849 13:-0.154764 14:-0.532379 15:-0.171698 16:-0.346339 17:-0.264195 18:-0.628479 
0 0.302053230185288 1.768790828703853 0.2825204051363758 2.900643478030586 0 1:-0.0720312 2:0.397113 3:0.307412 4:-0.483857 5:0.0017649 6:0.0653934 7:-0.0718862 8:0.035077 9:-0.316492 10:-0.237418 11:-0.0340951 12:0.604324 13:-0.302859 14:-0.599399 15:-0.0202019 16:-0.0383958 17:0.328701 18:-0.810102 
0 1.736027446125912 1.281889135042871 0.6347162218106273 0.4336302381505221 1.232246957439026 1:-0.0673179 2:0.556102 3:0.254075 4:-0.137308 5:0.24093 6:-0.0951554 7:0.00227931 8:0.0852308 9:-0.502185 10:-0.133187 11:-0.0909256 12:0.548903 13:-0.196457 14:-0.440666 15:-0.37707 16:-0.0818572 17:0.504741 18:-0.79309 
0 3.209049501518078 0 1.733242249513092 4.794540983390994 1.818235588916822 1:-0.220686 2:0.365559 3:0.265588 4:0.370958 5:-0.131193 6:-0.128445 7:-0.756989 8:0.134769 9:0.120301 10:-0.339138 11:-0.0811285 12:0.0989875 13:-0.0672761 14:-0.438505 15:-0.468155 16:-0.230923 17:0.47085 18:-0.514895 
2.915791232080802 2.05505994564325 0 0.608316712448535 0.5402583535798816 0.7167038384367835 1:-0.208561 2:0.314312 3:0.0841254 4:0.304039 5:-0.579307 6:-0.0353305 7:-0.760148 8:0.171093 9:0.0146684 10:-0.323943 11:-0.247279 12:0.0633595 13:0.0441507 14:-0.393806 15:-0.571626 16:-0.19988 17:0.486335 18:-0.45143 
0 0 0 0 0 2.465342606444568 1:-0.623523 2:0.0826964 3:0.178891 4:0.182998 5:-0.260678 6:-0.121365 7:-0.209921 8:-0.0473351 9:0.313974 10:0.0258955 11:0.200933 12:-0.226584 13:0.109177 14:-0.534389 15:-0.128032 16:-0.113256 17:0.37422 18:-0.527127 
0 8.162265147505217 0 0 1.328800012023151 7.461358204654392 1:-0.5876 2:0.132004 3:0.252179 4:0.134562 5:-0.184304 6:-0.0891349 7:-0.323769 8:-0.0563399 9:0.383607 10:0.0111689 11:0.146417 12:-0.178053 13:-0.20028 14:-0.527122 15:-0.172119 16:-0.238796 17:0.311284 18:-0.416129 
5.24558003210544 0 0 0 0 0 1:-0.766416 2:0.380232 3:0.0249108 4:-0.133245 5:-0.360279 6:-0.0288632 7:-0.748243 8:-0.0968784 9:0.0162219 10:0.131902 11:-0.175773 12:-0.236344 13:0.00523814 14:-0.409699 15:-0.397228 16:-0.302965 17:-0.0222024 18:-0.669048 
2.28157897216215 0 0 0 0 0 1:-0.784475 2:0.384148 3:0.277152 4:0.0799626 5:0.395684 6:-0.254393 7:-0.689612 8:-0.032342 9:-0.00250091 10:-0.0667597 11:-0.144652 12:-0.203627 13:-0.248904 14:-0.347038 15:-0.29385 16:-0.262633 17:0.082761 18:-0.376158 
2.070426093397352 0 1.411084914234201 0 0 4.348683073842635 1:-0.328218 2:0.0696541 3:-0.115155 4:-0.00718028 5:-0.373763 6:0.360286 7:-0.726557 8:0.0193257 9:-0.0379027 10:0.0947474 11:0.15634 12:-0.157895 13:-0.0729238 14:-0.569775 15:-0.488758 16:-0.179425 17:0.0336845 18:-0.616065 
7.870710019034315 0 2.615211192729702 1.067050630783288 0.1845667792050872 0.8659630188843299 1:-0.223258 2:0.116651 3:-0.135486 4:0.279223 5:0.189605 6:0.0770381 7:-0.704523 8:-0.121367 9:-0.0275775 10:-0.0667727 11:0.044652 12:-0.201649 13:-0.463592 14:-0.544477 15:-0.519166 16:-0.0395841 17:0.174157 18:-0.657289 
4.636716290746165 1.081315998172963 0.8875242614552672 0.1655791033788018 0 1.269893709161765 1:-0.0911666 2:0.20706 3:0.414833 4:-0.365171 5:-0.206477 6:0.083506 7:0.335901 8:0.221781 9:-0.270407 10:0.382287 11:-0.353259 12:0.316205 13:-0.534551 14:-0.590466 15:-0.372216 16:-0.29991 17:0.0211067 18:-0.72372 
4.916951088645185 0 0 0 1.006778550507538 0.4139281515855898 1:-0.231196 2:0.336389 3:0.589832 4:0.0337684 5:0.282808 6:-0.447228 7:0.702702 8:0.0911167 9:-0.113994 10:0.587097 11:-0.147277 12:0.449341 13:-0.0124295 14:-0.651943 15:-0.349639 16:-0.0953742 17:0.137378 18:-0.818362 
0.5887933498949824 2.526315331861459 0 0 0 0 1:-0.45885 2:-0.284796 3:0.4539 4:-0.0651491 5:-0.0364856 6:0.365586 7:-0.515723 8:0.35562 9:-0.014304 10:-0.196498 11:-0.371261 12:-0.416442 13:-0.100526 14:-0.529519 15:-0.370912 16:-0.0689921 17:0.210404 18:-0.233328 
11.36214386804847 0.3010822532194917 0 0 1.306858698660369 0 1:-0.396725 2:0.133674 3:0.383272 4:0.036443 5:0.510758 6:0.00486776 7:-0.742306 8:-0.0229017 9:-0.201247 10:0.12967 11:0.0956182 12:-0.172613 13:0.181177 14:-0.501772 15:-0.659348 16:-0.256822 17:0.330338 18:-0.34905 
0.4753072149362908 0 0.55993308194114 0.6689293387231307 0.5510497485050323 0.6995280919078098 1:0.274805 2:0.633718 3:-0.487896 4:-0.266414 5:0.799908 6:0.870658 7:-0.658458 8:1 9:-0.355044 10:-0.094165 11:0.817084 12:0.0165101 13:0.321469 14:-0.513775 15:-0.164416 16:-0.37768 17:0.670697 18:-0.35736 
0 0 0 2.630839765037563 0.2185579935521025 0 1:-0.226648 2:-0.113587 3:0.13154 4:0.0807535 5:-0.14351 6:0.32011 7:-0.329628 8:-0.21146 9:-0.452679 10:0.201923 11:0.104766 12:-0.266043 13:-0.0332417 14:-0.491394 15:-0.480539 16:-0.255689 17:0.373547 18:-0.531392 
3.240367928307399 2.588900500567964 0 0 1.279954924376281 1.622091272917589 1:-0.282221 2:-0.0886485 3:0.0466408 4:0.171667 5:-0.495955 6:0.0521896 7:-0.203792 8:-0.391709 9:-0.551428 10:0.183732 11:0.370714 12:-0.454076 13:-0.265998 14:-0.602156 15:-0.425898 16:-0.2321 17:0.413771 18:-0.491745 
0 0 0 0 0 0.9459672754321965 1:-0.426684 2:0.259962 3:-0.0674145 4:0.146665 5:-0.352187 6:0.0917137 7:-0.678952 8:-0.0427926 9:-0.512435 10:0.453845 11:0.0736005 12:-0.00371098 13:-0.245079 14:-0.46856 15:-0.573091 16:-0.179266 17:0.223845 18:-0.542663 
1.553292804916945 0 0 0 0 1.330547864999003 1:-0.309933 2:0.328949 3:0.381726 4:0.0915609 5:-0.00142658 6:-0.0689859 7:0.335075 8:-0.344136 9:0.250751 10:0.487031 11:-0.0680393 12:-0.207266 13:-0.199113 14:-0.294469 15:-0.790382 16:-0.254158 17:0.133917 18:-0.684099 
3.126695944989868 0 0 0.7369098321536131 0.1343348766099264 0 1:-0.295187 2:0.348683 3:0.318162 4:0.0291388 5:-0.140494 6:-0.100557 7:0.51417 8:-0.334648 9:0.366498 10:0.636002 11:0.00410139 12:0.0694404 13:-0.231498 14:-0.405544 15:-0.691292 16:-0.305882 17:0.339695 18:-0.742496 
18.51350511856018 1.222465021270462 0 0 0 0 1:-0.924341 2:-0.170646 3:0.202929 4:0.00132728 5:-0.295022 6:-0.360678 7:-0.314188 8:-0.28949 9:0.0887734 10:-0.1297 11:-0.303243 12:-0.075269 13:-0.163872 14:-0.359632 15:-0.395707 16:-0.232996 17:0.168844 18:-0.166188 
14.65548384016628 0.1377535737306293 2.822144752294994 0 0.08402256145416277 0.7582519596460535 1:-0.899033 2:-0.203874 3:0.269167 4:0.0796224 5:-0.0807141 6:-0.360767 7:-0.220755 8:-0.32456 9:0.0478993 10:-0.219098 11:-0.386295 12:0.101473 13:0.0500654 14:-0.401225 15:-0.301349 16:-0.0989447 17:0.351621 18:-0.31886 
6.546406180895445 1.352162472361344 1.845274301508902 0.3992323469693677 0 0 1:-0.296872 2:-0.226262 3:0.252229 4:-0.0579071 5:0.0423242 6:0.580905 7:-0.811589 8:-0.0724272 9:0.00819991 10:-0.134051 11:-0.26361 12:-0.253701 13:-0.0788174 14:-0.465364 15:-0.497697 16:-0.455538 17:0.141533 18:-0.509163 
0 0 0 0.6779480392951843 0 0 1:-0.375444 2:-0.285559 3:0.134187 4:0.0266771 5:0.0485548 6:0.523719 7:-0.55882 8:0.158035 9:-0.0102334 10:0.243356 11:-0.122701 12:-0.431481 13:0.250194 14:-0.454282 15:-0.677353 16:-0.405627 17:0.291513 18:-0.415319 
0 1.329363116617472 0 0 0.4577805081755489 1.813649579492663 1:-0.232265 2:0.306579 3:0.51074 4:0.0368836 5:0.517274 6:0.103854 7:-0.337891 8:0.605535 9:-0.0646592 10:-0.530449 11:-0.282886 12:-1 13:-0.0523811 14:-0.388568 15:-0.187433 16:-0.309326 17:0.0524863 18:-0.173056 
0 1.598467324704945 0 0 0 1.505376825224946 1:-0.34454 2:0.110905 3:0.343029 4:-0.143605 5:-0.276798 6:0.223737 7:-0.218254 8:0.537942 9:-0.104986 10:-0.613497 11:-0.442563 12:-0.845011 13:0.287582 14:-0.337313 15:-0.15301 16:0.0420666 17:0.0545703 18:-0.570002 
2.008810400253548 0.9703232657343129 1.414447055392135 1.184771065017336 1.728655135925686 0.9720917526470438 1:-0.0585845 2:0.998597 3:-0.123177 4:0.221781 5:0.0417272 6:-0.0949638 7:-0.123014 8:-0.610836 9:-0.64493 10:0.00930973 11:-0.477653 12:0.228356 13:-0.231373 14:-0.334776 15:-0.497494 16:-0.132794 17:0.572355 18:-0.376456 
0 0 0 0 0.7821460948859102 0 1:-0.0553519 2:0.850726 3:0.0488003 4:-0.105077 5:-0.0319502 6:-0.0432953 7:0.159272 8:-0.501808 9:-0.294767 10:0.394009 11:-0.261657 12:0.246519 13:-0.245697 14:-0.469465 15:-0.636393 16:-0.208419 17:0.457186 18:-0.622607 
0 0 2.843574663200281 0 0 0 1:-0.403542 2:0.45672 3:0.106018 4:0.00568283 5:0.441289 6:0.251531 7:-0.585786 8:-0.0339592 9:-0.21512 10:0.0974335 11:-0.231605 12:-0.204966 13:0.0450693 14:-0.384611 15:-0.119352 16:-0.182867 17:0.29001 18:-0.420986 
0 0 0 0 0 0.689400822696286 1:-0.367053 2:0.453176 3:-0.103951 4:-0.152059 5:-0.116912 6:0.464261 7:-0.570793 8:0.0210281 9:-0.251192 10:0.328713 11:-0.199356 12:-0.31226 13:-0.258302 14:-0.450492 15:-0.178288 16:-0.224587 17:0.36422 18:-0.437283 
0 0 0 0 0 1.951379564685817 1:-0.320825 2:-0.104117 3:0.0759463 4:-0.0792057 5:-0.359585 6:0.512636 7:-0.499156 8:-0.250121 9:-0.283865 10:0.372323 11:0.00554651 12:-0.389071 13:-0.18276 14:-0.556077 15:-0.699134 16:-0.0312465 17:0.0791321 18:-0.430594 
4.490581794833474 0 1.069940660534181 0 1.249594696002894 3.424760984135842 1:-0.325645 2:-0.131539 3:0.221972 4:0.0715628 5:0.220235 6:0.222982 7:-0.489341 8:-0.0854682 9:-0.302844 10:0.541772 11:-0.231663 12:-0.129022 13:0.462458 14:-0.340615 15:-0.575529 16:-0.0423992 17:0.0824304 18:-0.480336 
0 0 0.3652033345973262 0 0 2.821278409396142 1:-0.63513 2:0.358721 3:0.147689 4:0.161905 5:0.346842 6:-0.281631 7:-0.563634 8:0.554929 9:-0.156602 10:0.10429 11:0.0175935 12:0.197072 13:0.0656715 14:-0.611199 15:-0.365888 16:-0.350236 17:0.22865 18:-0.200906 
0 0 0.01440150974634449 0 0 0.5489712956136558 1:-0.610562 2:0.383335 3:-0.156275 4:-0.0265066 5:-0.383632 6:-0.0919195 7:-0.598114 8:0.633663 9:-0.160178 10:0.344331 11:0.0181591 12:0.12552 13:0.153743 14:-0.617638 15:-0.312868 16:-0.30549 17:0.221135 18:-0.372823 
0 7.132918763544122 0 0 0 0.005836067915021646 1:-0.687681 2:0.275147 3:0.253915 4:0.229205 5:-0.121891 6:-0.334205 7:-0.270153 8:0.311408 9:0.225043 10:0.136568 11:0.018288 12:-0.511757 13:-0.0166013 14:-0.468437 15:-0.463507 16:-0.462814 17:0.280458 18:-0.132726 
0 0.2392062906031795 0 0 0 3.990653714203473 1:-0.672424 2:0.324137 3:0.0779383 4:0.231794 5:-0.343086 6:-0.287223 7:-0.287794 8:0.415033 9:0.151548 10:0.270326 11:-0.0411669 12:-0.427391 13:0.367685 14:-0.448415 15:-0.433026 16:-0.504368 17:0.155127 18:-0.405316 
0 3.928432502776589 0 0 1.455723068291803 0 1:-0.235417 2:0.2199 3:0.395052 4:-0.144106 5:0.122291 6:0.209322 7:-0.618227 8:0.135644 9:0.0971975 10:-0.124171 11:0.0781528 12:-0.0333588 13:-0.0741199 14:-0.381674 15:-0.229822 16:-0.133278 17:0.294406 18:-0.690904 
3.918820335832093 0 0 0 0 1.118524703711191 1:-0.475026 2:0.360164 3:0.112843 4:0.337332 5:0.209963 6:-0.0394123 7:-0.387543 8:0.191783 9:0.108019 10:0.261062 11:-0.0319466 12:-0.200513 13:0.12555 14:-0.613308 15:-0.478299 16:-0.183815 17:0.309424 18:-0.520941 
17.89349429353504 0.2979776152756564 0 0 0 4.737828108430939 1:-0.498817 2:0.308525 3:0.0116356 4:0.0900789 5:-0.401192 6:0.068304 7:-0.509558 8:0.0995815 9:0.117068 10:0.208889 11:-0.236655 12:-0.195172 13:-0.297958 14:-0.621488 15:-0.539067 16:-0.126058 17:0.127643 18:-0.520884 
6.48536304503429 0 0 0 0 7.567638743858023 1:-0.691295 2:0.0849759 3:-0.0556629 4:-0.000714003 5:-0.432424 6:0.180981 7:-0.357365 8:0.0080358 9:-0.183664 10:0.431993 11:-0.0376186 12:-0.134472 13:-0.129372 14:-0.480179 15:-0.184137 16:-0.0874473 17:0.0545008 18:-0.0020276 
14.1580191856638 2.032160625001481 9.810494278154053 3.109924941047252 0 0 1:-0.550519 2:-0.157375 3:0.0932766 4:0.0834784 5:0.069757 6:0.446032 7:-0.298782 8:-0.170203 9:0.0459602 10:-0.00563071 11:-0.151371 12:-0.336015 13:0.039171 14:-0.426041 15:-0.332205 16:-0.215042 17:0.368594 18:-0.245336 
0 0.8827167120007874 1.784006161740961 1.834233861887902 0.07597798366291118 7.036929617120401 1:-0.171715 2:0.217433 3:-0.167372 4:0.167345 5:-0.504654 6:0.605682 7:-0.0445191 8:0.130031 9:0.314758 10:0.533677 11:-0.450245 12:-0.0617897 13:0.163315 14:-0.39012 15:-0.367608 16:-0.20737 17:0.214106 18:-0.45291 
1.787270769640009 0.5446200961042659 0.2405810677822607 0.7101047040864157 0 8.635808360064653 1:-0.192813 2:0.232093 3:0.101311 4:0.478697 5:0.25166 6:0.375151 7:-0.0186556 8:0.0962775 9:0.188711 10:0.268209 11:-0.560813 12:-0.189534 13:-0.562667 14:-0.593946 15:-0.4439 16:-0.242207 17:0.19905 18:-0.417859 
0.8382226795125406 0.1774865396054454 1.145128803867763 0.4387136147807948 0.9005854490051546 6.18867360396114 1:-0.636115 2:0.606795 3:-0.118147 4:0.360089 5:0.171688 6:-0.217783 7:0.0577207 8:0.199521 9:0.200141 10:0.0946154 11:0.057029 12:-0.0497957 13:0.0417946 14:-0.72046 15:-0.236098 16:-0.0186082 17:0.314181 18:-0.134351 
0 0.1564412165643602 0 0 1.053429180643295 5.542670438002195 1:-0.610399 2:0.683564 3:-0.394486 4:0.194071 5:-0.530622 6:-0.00134993 7:-0.169644 8:0.0906836 9:0.213492 10:0.21068 11:0.0236825 12:-0.210394 13:0.174439 14:-0.505661 15:-0.238129 16:-0.00153683 17:0.279182 18:-0.183815 
0 10.44964311454608 0 0 0 5.599649049879819 1:-0.524044 2:0.524157 3:-0.0899716 4:0.131021 5:0.0923862 6:-0.00302148 7:-0.058335 8:0.374159 9:0.0859828 10:0.0183675 11:-0.0179222 12:-0.191718 13:-0.289686 14:-0.521135 15:-0.666334 16:-0.039948 17:0.171561 18:-0.357514 
0 3.448113408995181 1.566707024206606 1.449445612304299 0 0.547271337853403 1:-0.455042 2:0.46211 3:-0.250517 4:0.0139429 5:-0.218359 6:0.243944 7:-0.141933 8:0.369956 9:0.0592598 10:-0.0417643 11:0.0555816 12:-0.279275 13:-0.127823 14:-0.487114 15:-0.780513 16:0.0292542 17:0.312536 18:-0.335813 
2.1471857504948 0.8459662050807738 0 0 0.03878923189632083 0.1462930351963635 1:-0.473435 2:0.0217488 3:0.63358 4:0.128429 5:0.152491 6:-0.282374 7:0.577394 8:-0.245626 9:-0.0990772 10:-0.0808399 11:-0.593204 12:-0.242144 13:-0.168771 14:-0.46514 15:-0.747628 16:-0.0367765 17:0.556192 18:-0.325015 
0.004803279060788314 0 0 0 0 0 1:-0.38842 2:0.0981297 3:0.252642 4:0.0132089 5:-0.570186 6:-0.0113127 7:0.590046 8:-0.191359 9:-0.228907 10:0.153839 11:-0.699104 12:-0.183623 13:0.0837281 14:-0.414786 15:-0.871504 16:-0.0492508 17:0.526996 18:-0.26562 
0 0 0.7710658888454222 1.413113279150705 0.5190572649551297 2.505478220745847 1:-0.646286 2:0.0306479 3:-0.187272 4:0.183442 5:-0.646549 6:-0.493785 7:0.017645 8:-0.457728 9:0.0665324 10:-0.194567 11:0.614937 12:-0.351846 13:-0.19648 14:-0.789163 15:-0.346007 16:-0.144988 17:-0.0156301 18:0.0941329 
1.166576874958891 1.074187362963286 0 0.4101085944736922 0.5138666667042718 0 1:-0.609421 2:0.0200917 3:-0.242289 4:0.119053 5:-0.740619 6:-0.325114 7:0.00706578 8:-0.434492 9:0.111981 10:-0.168353 11:0.697375 12:-0.40716 13:-0.18752 14:-0.827949 15:-0.375337 16:-0.143802 17:0.0662621 18:0.21212 
0 0 0 0 0 0.5735767919160878 1:-0.746923 2:-0.0407277 3:0.360272 4:0.13297 5:-0.0681447 6:-0.154425 7:-0.392574 8:0.305098 9:0.210038 10:-0.117175 11:0.0493491 12:-0.227094 13:-0.0203277 14:-0.496309 15:-0.224057 16:0.189454 17:-0.0573565 18:-0.0520888 
2.044678892374403 1.026612548289112 3.03119430925967 4.698080763941952 1.277051653787771 5.384487184725619 1:-0.0497653 2:0.107828 3:-0.250671 4:0.234674 5:0.389609 6:0.0286559 7:-0.363497 8:0.283019 9:-0.00216995 10:-0.291119 11:-0.1937 12:-0.739602 13:0.0303048 14:-0.577615 15:-0.795363 16:-0.0491402 17:-0.0590046 18:-0.537236 
0 0 0 0.4411715628406603 0 1.531201559603012 1:-0.185556 2:0.0702786 3:0.452798 4:-0.0401936 5:-0.0104497 6:0.0896547 7:0.866331 8:0.217518 9:-0.596068 10:0.137219 11:-0.469153 12:-0.188379 13:-0.28809 14:-0.289412 15:-0.255865 16:-0.282157 17:0.455232 18:-0.48711 
0 0.4257572467383052 0 0 0.1249493782969423 0 1:-0.270068 2:-0.0133073 3:0.492841 4:-0.125024 5:-0.167427 6:0.011676 7:1 8:0.236516 9:-0.651533 10:0.151229 11:-0.504564 12:-0.211843 13:-0.0147587 14:-0.256683 15:-0.391335 16:-0.320727 17:0.699565 18:-0.515904 
-4.231386378062703 1.661866617351502 0.3283763875474104 0 0 0 1:-0.951702 2:-0.180485 3:0.364558 4:0.00368072 5:-0.307932 6:-0.329714 7:-0.317424 8:-0.0379024 9:-0.0713619 10:-0.374977 11:-0.396221 12:-0.126097 13:-0.362834 14:-0.618662 15:-0.505493 16:-0.199523 17:0.0179459 18:-0.314478 
-8.272362476270166 0 0 0 0 0 1:-0.979009 2:-0.080712 3:0.289835 4:0.163354 5:-0.194365 6:-0.470712 7:-0.276557 8:0.0274426 9:-0.121828 10:-0.127132 11:-0.387902 12:0.124582 13:0.182467 14:-0.378826 15:-0.68762 16:-0.328123 17:0.0332462 18:-0.331567 
-3.27179569745214 0 0 1.973872304759631 0.4548737780060747 2.396793909641972 1:-0.130489 2:0.110757 3:-0.280525 4:0.240184 5:-0.407158 6:-0.0947962 7:-0.0139521 8:-0.0671598 9:-0.0559805 10:0.0865546 11:-0.284817 12:-0.417175 13:-0.425894 14:-0.780489 15:-0.446834 16:-0.375584 17:0.626442 18:-0.576697 
-0 3.322691132161485 3.322793442567111 1.534543687845314 5.643940020571252 7.119185033049753 1:-0.128704 2:0.074173 3:0.0615084 4:0.101453 5:0.078194 6:-0.1097 7:-0.199817 8:-0.155341 9:0.149973 10:-0.0428619 11:-0.234312 12:-0.404819 13:-0.261453 14:-0.825093 15:-0.0842339 16:-0.33453 17:0.306769 18:-0.404774 
-9.956909931145438 2.014942755412829 0 4.272110677980591 2.145491426252165 0 1:-0.287056 2:-0.332123 3:0.195714 4:0.0733298 5:0.0631402 6:-0.0207975 7:-0.552273 8:0.101378 9:-0.086978 10:-0.143165 11:0.374845 12:-0.0131403 13:0.136218 14:-0.575549 15:-0.370031 16:-0.00270752 17:0.465018 18:-0.614566 
-0 1.336922153067416 0.2683505657757875 0 0 1.432554149297783 1:-0.43644 2:-0.568567 3:0.335506 4:-0.0449111 5:-0.122383 6:-0.0752188 7:-0.469578 8:0.134415 9:-0.064115 10:-0.278147 11:0.268321 12:-0.0313573 13:0.403951 14:-0.620338 15:-0.242952 16:0.149947 17:0.30489 18:-0.623741 
-0.6219627496463143 0 0 0.4698967294994798 0 0 1:-0.663146 2:-0.639383 3:0.0362736 4:0.0750633 5:-0.407921 6:0.135423 7:-0.262962 8:0.119915 9:0.0355724 10:0.420443 11:0.309629 12:0.290188 13:0.0363425 14:-0.72337 15:-0.301429 16:-0.0909382 17:0.446111 18:-0.352681 
-2.199062545687385 0 0 0 0 0 1:-0.649752 2:0.158673 3:0.305643 4:-0.229744 5:-0.0318031 6:0.124655 7:-0.698904 8:-0.138339 9:0.0381873 10:0.270787 11:-0.387113 12:-0.263293 13:-0.00276691 14:-0.567779 15:-0.219958 16:-0.106996 17:0.233565 18:-0.458195 
-0 0 0 0 0.6780700296826975 0 1:-0.493786 2:-0.515983 3:0.662108 4:-0.310278 5:-0.536181 6:-0.142507 7:0.0495857 8:-0.176348 9:0.236146 10:0.297764 11:-0.175061 12:0.255814 13:-0.109973 14:-0.541469 15:-0.604057 16:-0.165923 17:0.396717 18:-0.421274 
-0 0 0 0.1085719762244774 0.6955766847434215 0 1:-0.422288 2:-0.442554 3:0.775715 4:0.0464583 5:0.156547 6:-0.264411 7:0.0965446 8:-0.106235 9:0.137388 10:0.0493555 11:-0.00970833 12:0.235047 13:-0.550143 14:-0.653435 15:-0.362687 16:-0.21359 17:0.0853619 18:-0.465235 
-0 0.8179145108924315 0.5662764717339404 0.038897543625174 1.652261356889418 0.210898863551973 1:-0.520518 2:0.357437 3:0.202307 4:0.0477968 5:0.0676434 6:-0.153349 7:-0.500315 8:-0.135899 9:-0.0343565 10:0.466029 11:-0.0545859 12:0.0984342 13:0.158366 14:-0.471539 15:-0.353723 16:-0.188052 17:-0.766288 18:-0.298005 
-0 0 1.320435196335173 0 0.1402136203765107 5.150880130222951 1:-0.414151 2:0.372859 3:0.188659 4:-0.114932 5:-0.139068 6:-0.0610097 7:-0.281583 8:-0.0404369 9:-0.166999 10:0.500748 11:-0.226883 12:0.158393 13:-0.309799 14:-0.639583 15:-0.133304 16:-0.252974 17:-0.261584 18:-0.306171 
-0 0.02273326971846509 0 0 0 0 1:-0.526239 2:-0.139018 3:0.425579 4:-0.120279 5:0.150623 6:0.0459014 7:-0.327354 8:-0.345455 9:-0.396712 10:-0.263621 11:-0.183941 12:-0.0239266 13:0.166281 14:-0.431799 15:-0.140928 16:-0.527986 17:0.335981 18:-0.204525 
-3.35770127705753 1.97980480947612 3.940375645683331 1.470378233585059 1.936551475762943 2.973001714303051 1:-0.321665 2:-0.0869079 3:0.247932 4:-0.324403 5:0.166196 6:0.350784 7:-0.330673 8:-0.408436 9:-0.464719 10:-0.350047 11:0.0368767 12:-0.243441 13:0.830552 14:-0.293056 15:-0.413954 16:-0.40403 17:-0.119912 18:-0.138767 
-1.004440284352591 0.5841695229252093 1.188167164210254 1.160742068976946 0.6322634188063242 0.5747034519096998 1:-0.0397525 2:-0.288619 3:-0.647122 4:-0.363377 5:-0.310637 6:-0.316802 7:-0.26118 8:0.594372 9:0.215292 10:-0.400374 11:0.218181 12:-0.57257 13:-0.649814 14:-0.974951 15:-0.224468 16:0.144972 17:0.642984 18:-0.448142 
-0.5831618975822738 0.324955553709134 0.3743539090834789 0.3678830881578528 0.9881537727208405 1.045189942028805 1:0.0636277 2:-0.418162 3:-0.72237 4:-1 5:-1 6:-0.781011 7:-0.414863 8:0.543118 9:0.379156 10:-0.724745 11:-0.16579 12:-0.0353168 13:-0.0989637 14:-0.763465 15:0.658701 16:-0.192566 17:0.172501 18:-0.601183 
-0 0 0 0 1.079458887356104 0 1:-0.363982 2:-0.307085 3:0.0656051 4:0.0241918 5:-0.163938 6:-0.0946283 7:-0.5086 8:-0.141163 9:0.147688 10:0.374161 11:0.218377 12:-0.297564 13:0.245792 14:-0.595366 15:-0.354513 16:-0.374495 17:0.303205 18:-0.492999 
-0 0 0 0 0.4514806644777181 0 1:-0.589066 2:-0.0477791 3:0.411222 4:-0.0123786 5:0.0923092 6:-0.148349 7:-0.898932 8:-0.27265 9:-0.173954 10:-0.677241 11:-0.67723 12:0.237177 13:0.243321 14:-0.411379 15:-0.690501 16:-0.206962 17:0.187796 18:-0.265844 
-0 0.004991717853857803 0 0 0 0.7012691096968769 1:-0.354022 2:-0.397256 3:0.0696533 4:-0.129458 5:-0.342299 6:0.414457 7:-0.571691 8:-0.259636 9:0.0584465 10:0.00229289 11:-0.143031 12:-0.341939 13:0.0462208 14:-0.602876 15:-0.311016 16:-0.281019 17:0.0358018 18:-0.391986 
-0 0 0 0.1758364886035082 0 0.4862001196151651 1:-0.386625 2:-0.313849 3:0.154001 4:0.0262979 5:0.241416 6:0.261209 7:-0.528519 8:-0.101308 9:0.100017 10:0.0881801 11:-0.0502731 12:-0.336053 13:-0.343986 14:-0.650446 15:-0.420841 16:-0.392315 17:0.153527 18:-0.177037 
-4.668830568382071 1.354490197818665 2.97125395749737 1.06905214013416 0.4767831138046149 1.437463830567839 1:-0.387454 2:0.683849 3:-0.270951 4:-0.195939 5:0.00462986 6:0.228321 7:-0.834023 8:-0.0276265 9:-0.411882 10:-0.0429484 11:-0.240594 12:-0.0291974 13:-0.292111 14:-0.539932 15:-0.707514 16:-0.307216 17:0.372756 18:-0.138962 
-0 0 1.519622405534625 0 0.9483456169253339 0 1:-0.237072 2:0.744464 3:-0.144608 4:-0.166764 5:0.396968 6:0.252616 7:-0.89953 8:-0.296672 9:-0.264089 10:-0.126683 11:-0.408022 12:0.0935388 13:-0.0738007 14:-0.613232 15:-0.630378 16:0.0236048 17:0.353174 18:-0.294493 
-4.700973387742517 0.5416047934584012 0 0 0 1.535558199929916 1:-0.779809 2:0.341867 3:0.279943 4:0.091649 5:0.232609 6:-0.364145 7:-0.298965 8:0.222856 9:-0.00369692 10:0.0797785 11:-0.05324 12:-0.373691 13:0.0486136 14:-0.72451 15:0.0849248 16:-0.19994 17:0.508721 18:-0.23088 
-2.565422071101084 0 0.05787671201582066 0 0.01614256450460131 2.762004743689467 1:-0.875627 2:0.244246 3:0.177564 4:-0.0146329 5:-0.110829 6:-0.32676 7:-0.277814 8:0.294814 9:-0.107362 10:0.136939 11:-0.284359 12:-0.145133 13:0.830715 14:-0.625935 15:-0.0737856 16:-0.185161 17:0.366147 18:-0.258957 
-1.932304744347522 0 0 0 3.383231941751501 0.1019512549676054 1:-0.033873 2:0.0425778 3:0.33972 4:-0.374289 5:-0.0657665 6:0.214545 7:-0.475156 8:-0.195155 9:-0.450322 10:-0.0269066 11:-0.36603 12:0.350619 13:-0.302283 14:-0.647217 15:-0.404934 16:-0.162032 17:0.370825 18:-0.452493 
-0 0 0.4697174549006667 0 0.5100348828615353 0 1:-0.277492 2:-0.211757 3:0.76666 4:-0.310314 5:0.401464 6:-0.268392 7:-0.410902 8:-0.279722 9:-0.397599 10:-0.182433 11:-0.470201 12:0.501007 13:-0.189683 14:-0.541591 15:-0.236918 16:-0.118646 17:0.128108 18:-0.654353 
-0 0 0 0.7060694665338872 0 0 1:-0.462051 2:0.118635 3:-0.133053 4:0.0484215 5:-0.222057 6:-0.213544 7:-0.627934 8:-0.211977 9:0.138915 10:0.156121 11:0.337488 12:-0.223296 13:0.0506733 14:-0.720819 15:-0.536883 16:-0.449741 17:0.331904 18:-0.540717 
-0 0 0.2616842848220321 0 0.9965425841534475 0 1:-0.330518 2:-0.0834274 3:0.270869 4:-0.135007 5:0.415934 6:-0.017078 7:-0.81828 8:-0.28092 9:0.232959 10:-0.205573 11:0.263702 12:-0.0654575 13:0.257388 14:-0.793378 15:-0.187607 16:-0.327884 17:0.33512 18:-0.509695 
-5.484758869824567 0 0 0 0 0.5257120015716741 1:-0.624212 2:-0.320373 3:0.317673 4:0.181969 5:-0.23425 6:0.108091 7:-0.149326 8:-0.128748 9:0.0209829 10:0.148762 11:-0.167531 12:-0.260847 13:-0.0357066 14:-0.540592 15:-0.326511 16:-0.275044 17:0.186634 18:-0.384307 
-0 0 2.971889566013024 0 0 0 1:-0.846577 2:-0.433024 3:0.125108 4:0.0261376 5:-0.162812 6:0.0393295 7:-0.231404 8:-0.13274 9:0.0408188 10:0.144023 11:0.0810147 12:0.0931695 13:-0.0219728 14:-0.765866 15:-0.308216 16:-0.191129 17:0.158886 18:-0.18592 
-0.6466654290910789 0.2741609467964124 1.912631731848532 0.6877759900206708 0.8442078779459793 2.428968193366284 1:-0.377877 2:0.0796159 3:-0.493166 4:-0.200917 5:-0.27259 6:0.956848 7:-0.515033 8:-0.210811 9:0.18163 10:0.797239 11:0.0600925 12:0.399656 13:0.537204 14:-0.433928 15:0.022541 16:-0.674638 17:0.230933 18:0.126721 
-0.2896266352046886 0 0 0 0 0 1:-0.601952 2:-0.1342 3:0.220327 4:0.119632 5:-0.00724068 6:0.00448366 7:-0.375571 8:0.400179 9:-0.12197 10:0.272506 11:-0.177581 12:0.197538 13:0.320085 14:-0.731678 15:0.0187441 16:-0.134822 17:1 18:-0.629168 
-4.624215586745447 0 0 0 0 0 1:-0.66274 2:-0.235034 3:0.205021 4:-0.0252438 5:-0.187092 6:0.103766 7:-0.517943 8:0.572244 9:0.00939809 10:0.263252 11:-0.257772 12:0.139588 13:0.17022 14:-0.789615 15:-0.0102311 16:-0.0447924 17:0.819036 18:-0.60236 
-0 0 0 0 0.254688878486737 0 1:-0.57912 2:-0.38532 3:0.220585 4:0.399904 5:-0.0401832 6:-0.0941531 7:-0.550144 8:-0.289602 9:0.396715 10:-0.000946293 11:-0.248577 12:-0.203908 13:0.0353148 14:-0.427198 15:-0.528959 16:-0.382892 17:0.342171 18:-0.300499 
-0.3658273239533034 0.1411517973314871 0.3932465443063647 0.3430493163803341 0.9480383262591583 0.6143122379702094 1:0.292116 2:-0.765035 3:-0.162129 4:0.389816 5:0.611503 6:-0.380912 7:-0.739214 8:-0.493935 9:0.931806 10:0.559516 11:-0.481055 12:0.418672 13:-0.707207 14:-0.792833 15:0.853571 16:-0.473843 17:0.203251 18:-0.114133 
-7.821685520313817 0 2.377668148715583 0 0 0 1:-0.836647 2:-0.371218 3:0.222864 4:0.161893 5:0.0771036 6:-0.172275 7:-0.245884 8:-0.348089 9:-0.0570157 10:0.0585621 11:0.124386 12:0.0192297 13:-0.0390703 14:-0.486333 15:-0.385952 16:-0.158215 17:0.204584 18:-0.149969 
-2.67803304524368 0 0 0 0 0 1:-0.787365 2:-0.273381 3:0.119042 4:0.0823571 5:-0.268885 6:0.0759492 7:-0.25425 8:-0.358288 9:-0.0217096 10:0.144638 11:0.0476595 12:0.00686189 13:0.240293 14:-0.491601 15:-0.440203 16:-0.149724 17:0.333915 18:-0.256268 
-0.2660500493031457 0 8.283359200853965 0 0 0 1:-0.535722 2:0.0412462 3:-0.0236547 4:0.00899766 5:0.0156791 6:0.187033 7:-0.324491 8:-0.254437 9:-0.102838 10:0.331871 11:0.0919005 12:-0.0113544 13:0.30469 14:-0.570511 15:-0.699056 16:-0.00667231 17:0.141141 18:-0.277729 
-0 0.9194594478500855 1.652317005391478 0 0 0 1:-0.435285 2:-0.378891 3:0.00625457 4:0.033423 5:-0.110619 6:0.425241 7:-0.336328 8:-0.353764 9:-0.242402 10:-0.181699 11:-0.181359 12:0.112345 13:-0.0370649 14:-0.474117 15:-0.83011 16:-0.11841 17:0.0906145 18:-0.23674 
-0 0 2.069906115362531 2.05855619252846 0 0.301032355218704 1:-0.417178 2:-0.298488 3:-0.0247592 4:0.203587 5:0.144479 6:0.302393 7:-0.363267 8:-0.376128 9:-0.312456 10:-0.174929 11:-0.117122 12:0.0884221 13:-0.132968 14:-0.433855 15:-0.935747 16:-0.0969272 17:0.138644 18:-0.183897 
-0 0 0 0 0.9075133269237042 1.083431319631503 1:-0.547312 2:-0.716058 3:0.25135 4:0.248336 5:-0.355255 6:-0.0846845 7:-0.14188 8:-0.0390702 9:-0.248754 10:0.107515 11:0.220695 12:-0.0875588 13:0.201824 14:-0.499707 15:-0.439999 16:-0.196278 17:0.207573 18:-0.501064 
-12.93161898908332 0 0 0 0 0 1:-0.953047 2:-0.313622 3:0.295932 4:0.0690076 5:-0.252096 6:-0.210638 7:-0.429075 8:-0.100225 9:-0.0405036 10:-0.0244669 11:-0.0989958 12:0.117522 13:-0.111495 14:-0.600175 15:-0.418148 16:-0.164101 17:0.130508 18:-0.147765 
-8.378926961668512 1.437907189977151 1.48983035736894 0.6742720899581288 2.816397918469293 3.152888006026296 1:-0.325929 2:0.10131 3:-0.182356 4:0.204223 5:-0.486964 6:0.0642185 7:-0.745037 8:0.0295045 9:0.183339 10:0.0418829 11:-0.0440303 12:-0.0151525 13:0.199298 14:-0.611172 15:-0.485149 16:-0.0273277 17:0.145872 18:-0.743416 
-9.932168102114955 2.773769106537313 0.7635219584195091 0 0 1.445217643843883 1:-0.41804 2:-0.0431235 3:0.0982201 4:0.266653 5:0.0524101 6:-0.154325 7:-0.711629 8:0.0497615 9:0.219378 10:-0.155741 11:0.193805 12:-0.144105 13:-0.211047 14:-0.61575 15:-0.651854 16:-0.138942 17:0.177022 18:-0.75195 
-1.019604054293026 0 0 0 0 0 1:-0.95013 2:0.352909 3:0.280687 4:0.12 5:0.148961 6:-0.538218 7:-0.776137 8:-0.292972 9:0.060125 10:0.299886 11:0.0117822 12:-0.0343473 13:-0.0432581 14:-0.619788 15:-0.592555 16:-0.173789 17:0.331662 18:-0.134764 
-0.8321351847874729 0.534287869516424 2.175426444608904 0 0 0 1:-0.521125 2:0.0979243 3:0.222516 4:-0.0148102 5:0.0349085 6:-0.00631847 7:-0.474827 8:-0.300418 9:-0.252643 10:-0.0252073 11:0.0501913 12:-0.183291 13:-0.0441683 14:-0.593283 15:-0.367388 16:-0.298523 17:0.184454 18:-0.427278 
-0 0.640320934364468 0 0 0 0 1:-0.608471 2:-0.112071 3:0.160081 4:-0.0505893 5:-0.27829 6:0.102028 7:-0.612491 8:-0.195148 9:0.337523 10:-0.0316069 11:-0.38892 12:-0.194054 13:-0.157993 14:-0.507042 15:-0.407358 16:-0.320273 17:0.16118 18:-0.373448 
-11.84097446178553 0.7327656432320648 0.4436350598501717 0 0 0 1:-0.579951 2:-0.166388 3:0.220199 4:0.0858569 5:0.230849 6:0.0852816 7:-0.583197 8:-0.162611 9:0.244075 10:-0.192836 11:-0.35767 12:-0.216334 13:0.0171515 14:-0.344817 15:-0.594972 16:-0.33035 17:0.330911 18:-0.437179 
-3.567663183391127 0.5593664006958045 0.8969692023627343 0.9499322316160201 0.7046320102648513 1.730268126855225 1:0.209695 2:0.47398 3:-0.0991947 4:-0.119772 5:0.693071 6:0.837316 7:-0.58289 8:0.162751 9:0.397581 10:0.280324 11:-0.243439 12:-0.172028 13:0.252295 14:-0.640465 15:-0.90151 16:0.000614009 17:0.731299 18:-0.61201 
-0.3129191177203167 0.5742737598530183 0 0.0377788696660641 0.8262830144641323 0.7608399527473161 1:0.170981 2:0.587736 3:-0.355725 4:-0.239851 5:0.102766 6:1 7:-0.612459 8:0.0355671 9:0.532304 10:0.414763 11:0.103133 12:-0.429845 13:0.24453 14:-0.885795 15:-0.682033 16:0.0312541 17:0.747494 18:-0.357198 
-6.311757566077171 1.490179870944357 0 0 0 2.02942939452164 1:-0.899656 2:0.118995 3:0.155196 4:0.329778 5:-0.357321 6:-0.490932 7:-0.426174 8:0.169901 9:-0.259771 10:0.0722386 11:-0.129233 12:-0.299303 13:-0.134408 14:-0.621801 15:-0.41762 16:-0.139669 17:-0.30722 18:-0.18914 
-1.382604931225588 0 0 0 0 0 1:-0.832083 2:0.0994599 3:0.266072 4:0.248412 5:-0.0847094 6:-0.409284 7:-0.48709 8:0.268276 9:-0.205814 10:0.171809 11:-0.10181 12:-0.294439 13:0.0284585 14:-0.640961 15:-0.36198 16:-0.256594 17:-0.191861 18:-0.182171 
-1.791948930635562 0 0 0 0 0 1:-0.253667 2:0.152555 3:0.329299 4:-0.21754 5:-0.22878 6:-0.0341326 7:0.358808 8:0.0838768 9:-0.304813 10:0.901018 11:-0.379866 12:0.177589 13:-0.427179 14:-0.676152 15:-0.389067 16:-0.225355 17:-0.00457952 18:-0.696497 
-4.256049908442952 0 0 0 0.7764280878644463 0 1:-0.339508 2:0.156234 3:0.602712 4:-0.051894 5:0.294875 6:-0.409574 7:0.659994 8:0.0506903 9:-0.221338 10:0.972876 11:-0.215777 12:0.321169 13:0.133402 14:-0.688693 15:-0.364227 16:-0.0756215 17:0.0798279 18:-0.705209 
-0 0 0.6212785957492812 0 0 0 1:-0.662518 2:-0.0984459 3:0.227077 4:-0.240639 5:0.102358 6:0.181124 7:-0.703821 8:-0.289679 9:0.0531918 10:-0.0419032 11:-0.0484242 12:-0.0279297 13:0.158018 14:-0.68122 15:-0.227865 16:-0.203013 17:0.234217 18:-0.432052 
-0.3572265495001258 0 0 0 0 0 1:-0.92749 2:-0.0547565 3:0.00494239 4:-0.117059 5:-0.27927 6:-0.0252126 7:-0.805615 8:0.0973595 9:0.131873 10:0.315593 11:-0.0197867 12:0.105876 13:-0.151295 14:-0.864618 15:-0.585647 16:0.109695 17:0.151965 18:0.0796163 
-0.8021273837901086 0 0 0 0 0 1:-0.880668 2:-0.141507 3:0.154279 4:0.00490439 5:0.275308 6:-0.0614432 7:-0.777794 8:0.181571 9:0.0472309 10:0.170347 11:-0.0188255 12:0.171076 13:0.360859 14:-0.814705 15:-0.478461 16:0.265125 17:0.156125 18:-0.021191 
-0 0 0 0 0.04114053748691141 0 1:-0.593668 2:-0.719452 3:0.347286 4:0.120258 5:-0.344433 6:-0.0805307 7:-0.320059 8:-0.581982 9:-0.426258 10:-0.128902 11:0.454302 12:-0.203016 13:-0.178858 14:-0.70802 15:-0.499564 16:-0.0997289 17:0.217818 18:-0.324516 
-1.969636364595811 1.649352187484076 1.220018256203478 0.6127210012046943 0.3413551797457802 0.699050898340738 1:-0.352733 2:-0.730327 3:-0.0651048 4:0.186356 5:-0.0702832 6:0.513583 7:-0.0805585 8:-0.0764235 9:-0.0192027 10:-0.384835 11:-0.278906 12:-0.442646 13:-0.739076 14:-0.69434 15:-0.725137 16:0.119074 17:0.0468252 18:-0.583878 
-0 0 0 0.0500683225533177 0.2855711075348658 0.02150790809673872 1:-0.285179 2:0.502661 3:-0.471304 4:0.156173 5:-0.428839 6:0.502105 7:-0.908126 8:-0.220242 9:0.280967 10:0.136282 11:-0.261183 12:-0.00722939 13:0.0500183 14:-0.653152 15:-0.565126 16:-0.138563 17:0.251908 18:-0.456821 
-0 0.3355318650408358 2.569836051390144 0 0 0 1:-0.570198 2:0.0778757 3:0.0427275 4:0.278245 5:-0.12705 6:-0.0144787 7:-0.552069 8:-0.232071 9:0.217567 10:-0.0734296 11:-0.200403 12:0.0361094 13:-0.00143509 14:-0.585061 15:-0.612077 16:-0.163832 17:0.0594377 18:-0.530685 
-3.28686898699085 1.885354559267882 0 0.8542624898639068 1.91945621605756 2.004998498874383 1:-0.402969 2:0.39915 3:0.368472 4:-0.179104 5:0.0248041 6:-0.396814 7:-0.0827601 8:0.0430628 9:-0.0467429 10:0.174419 11:-0.314539 12:0.0535555 13:-0.171337 14:-0.499908 15:-0.442625 16:-0.403829 17:0.668035 18:-0.360545 
-7.430910483567343 0 0.362622722944003 0 0.05556598371746452 0 1:-0.577087 2:0.353779 3:0.505276 4:-0.250999 5:-0.000199912 6:-0.606819 7:-0.158788 8:-0.10469 9:0.0855464 10:0.0305599 11:-0.132451 12:-0.0283734 13:-0.195844 14:-0.521734 15:-0.467471 16:-0.275278 17:0.421643 18:-0.618309 
-6.150401709677602 0 1.042627806225498 1.327682895005961 0.5497202036791621 8.832938814016053 1:-0.400437 2:0.0926671 3:0.356793 4:0.131717 5:0.284853 6:0.0721429 7:-0.254699 8:0.034388 9:0.130524 10:0.534737 11:-0.0142285 12:-0.0180482 13:-0.0662503 14:-0.478466 15:-0.366656 16:-0.412833 17:-0.187794 18:-0.536809 
-11.49251590066839 4.078949839225066 0.02942579658388497 1.33121470381477 0 6.264669605365198 1:-0.462322 2:-0.00306152 3:0.281539 4:-0.0612488 5:-0.281656 6:0.147164 7:-0.18664 8:0.12991 9:0.164871 10:0.494057 11:-0.0568433 12:-0.165522 13:-0.327232 14:-0.538972 15:-0.336448 16:-0.2811 17:-0.228735 18:-0.558963 
-0.9275663189563238 0.2162353691880992 0.05223989379826444 0.3236139084716938 0.5360440721578382 0.7279817005044134 1:-0.585979 2:0.291032 3:-0.00866213 4:0.167926 5:0.239126 6:0.336882 7:-0.358578 8:-0.274908 9:-0.164568 10:0.76044 11:0.355035 12:-0.786672 13:-0.624241 14:0.748772 15:0.856298 16:0.63907 17:0.975468 18:0.692856 
-0.2434416082098836 0.2596717046661377 0.111232560926066 0.09291411189822633 0.4488849786504844 0.243123707489003 1:-0.696762 2:0.196672 3:-0.0894412 4:0.00803641 5:-0.115853 6:0.414933 7:-0.300889 8:-0.333406 9:-0.246739 10:0.698373 11:0.210629 12:-0.847522 13:-0.341901 14:1 15:1 16:1 17:0.980409 18:1 
-13.01676972781964 0 0 0 0 0 1:-0.879306 2:0.0159911 3:0.314546 4:-0.109759 5:-0.388695 6:-0.213389 7:-0.431678 8:-0.150872 9:0.212155 10:0.0285287 11:-0.408856 12:-0.261793 13:0.131986 14:-0.514847 15:-0.557434 16:-0.132302 17:0.503704 18:-0.117756 
-2.175662150175588 0 0 0 0 0.04638018853241616 1:-0.75789 2:0.0273686 3:0.598113 4:-0.100439 5:-0.334655 6:-0.418057 7:0.496632 8:-0.507128 9:0.440934 10:0.490355 11:-0.389131 12:-0.0281523 13:0.0449792 14:-0.526879 15:-0.742163 16:0.0496913 17:0.53097 18:-0.406891 
-3.339710532340516 0.5648891643955558 0 0 0.2141802229403142 0 1:-0.569527 2:0.202263 3:0.482619 4:-0.0538783 5:-0.111527 6:-0.260715 7:0.447184 8:-0.502049 9:0.53669 10:0.595214 11:-0.18786 12:-0.0636182 13:0.052866 14:-0.492048 15:-0.841439 16:-0.1146 17:0.529057 18:-0.45599 
-0 0.229896057515292 0 0 0 0 1:-0.751189 2:0.199053 3:0.241717 4:-0.0234153 5:0.0790143 6:-0.122851 7:-0.655447 8:0.0894498 9:-0.00451272 10:0.0120481 11:-0.354396 12:-0.19842 13:0.0472629 14:-0.531492 15:-0.437821 16:-0.465516 17:0.215429 18:-0.162637 
-0 0 0 0.3572909328051858 0 0 1:-0.409472 2:-0.224624 3:-0.152457 4:0.168589 5:-0.0503183 6:0.380827 7:-0.619461 8:-0.26732 9:0.051128 10:0.139153 11:-0.11816 12:-0.107753 13:-0.147976 14:-0.541157 15:-0.667787 16:-0.293275 17:0.329694 18:-0.285307 
-0 0 0 0 0.7116291700897928 0 1:-0.474867 2:0.603475 3:0.241926 4:-0.371665 5:0.214738 6:-0.195054 7:-0.143935 8:-0.516272 9:-0.0701571 10:0.787888 11:0.306573 12:-0.00426689 13:-0.164857 14:-0.482122 15:-0.889036 16:-0.169217 17:0.496769 18:-0.170404 
-0 0 0 0.2053662917704314 0.3531080513022461 0 1:-0.494997 2:0.643929 3:0.212929 4:-0.34112 5:0.130313 6:-0.268445 7:-0.0680257 8:-0.506073 9:-0.0503358 10:0.954203 11:0.299839 12:0.139555 13:-0.021515 14:-0.438182 15:-0.844597 16:-0.274631 17:0.359918 18:-0.216848 
-0 1.025307516628735 0 0.5342563613422006 1.331088641343742 1.185354383586682 1:-0.103033 2:0.149983 3:-0.15801 4:0.225166 5:-0.0853035 6:0.581644 7:-0.645317 8:-0.729217 9:0.00372404 10:-0.0167955 11:-0.709166 12:0.512629 13:0.0957751 14:-0.598951 15:-0.136806 16:-0.0951705 17:-0.00744523 18:-0.442524 
-0 0 1.873065530786295 0.3246927889353564 0.005556159285135255 0 1:-0.294066 2:0.0338881 3:-0.0973799 4:0.260043 5:-0.110642 6:0.352555 7:-0.475775 8:-0.547708 9:-0.0303876 10:-0.0489313 11:-0.802709 12:0.404179 13:0.228022 14:-0.561954 15:-0.114828 16:-0.0996282 17:-0.103688 18:-0.362463 
-1.830815645119465 0 0 2.391038706819144 0 0.7641803753328171 1:-0.381061 2:-0.00568217 3:-0.0812953 4:0.09421 5:-0.0177831 6:0.374175 7:-0.168133 8:-0.261752 9:-0.13725 10:0.119621 11:0.00220542 12:-0.219582 13:0.0145575 14:-0.711909 15:-0.253648 16:-0.397216 17:0.541907 18:-0.46601 
-1.575889068679508 0.7245444141685257 10.20300893984808 2.129842503568066 0 0 1:-0.391798 2:-0.125379 3:-0.0603473 4:-0.0439158 5:0.0588893 6:0.456943 7:-0.170868 8:-0.179353 9:-0.072299 10:0.104708 11:0.084812 12:-0.280626 13:-0.000204953 14:-0.781368 15:-0.243316 16:-0.350536 17:0.504814 18:-0.350838 
-0 2.623977269698931 4.411990061062181 0 0 0 1:-0.519636 2:0.196639 3:0.40423 4:-0.0304328 5:0.179938 6:-0.202409 7:-0.168977 8:0.104551 9:-0.204186 10:0.0842077 11:-0.101429 12:-0.105323 13:0.143773 14:-0.645103 15:-0.193793 16:-0.310217 17:0.214734 18:-0.404624 
-0 2.304550762203273 0 0 0 0.2384923059936746 1:-0.581578 2:-0.00284083 3:0.428062 4:-0.110541 5:-0.122156 6:-0.153986 7:-0.121041 8:0.120654 9:-0.287396 10:-0.0167337 11:-0.297586 12:-0.196474 13:0.346983 14:-0.622148 15:-0.35072 16:-0.192802 17:0.25449 18:-0.300157 
-6.005564003773985 1.773961861196575 2.340910326713652 0 0 0 1:-0.66401 2:0.375217 3:0.0834087 4:-0.0907984 5:0.151759 6:0.0328789 7:-0.473582 8:-0.214153 9:-0.00806429 10:0.34136 11:0.0349809 12:-0.0943004 13:-0.111071 14:-0.526482 15:-0.399894 16:-0.274083 17:0.231676 18:-0.0283605 
-16.42859425608906 1.882724743024301 0.8152866572571216 0 0 5.075886628766843 1:-0.47851 2:0.287265 3:0.00244177 4:0.372989 5:0.313311 6:-0.0458373 7:-0.31225 8:-0.017564 9:0.0618572 10:0.174991 11:-0.0277093 12:-0.23773 13:0.160022 14:-0.705085 15:-0.515682 16:-0.137209 17:0.388003 18:-0.326273 
-19.55564496538086 0 1.824040572711196 0 0 5.211963154787047 1:-0.47673 2:0.272193 3:-0.128923 4:0.0609268 5:-0.36143 6:0.132935 7:-0.504692 8:-0.136481 9:0.140827 10:0.227408 11:-0.209049 12:-0.0618256 13:-0.111916 14:-0.669514 15:-0.414939 16:-0.158999 17:0.179129 18:-0.305617 
-0 0 0.7774776037609 0 0 0 1:-0.585374 2:0.361764 3:0.200899 4:-0.167759 5:0.215335 6:-0.130235 7:0.242683 8:-0.399923 9:-0.347661 10:0.441155 11:-0.397124 12:-0.133316 13:-0.319829 14:-0.480021 15:-0.991331 16:-0.100191 17:0.200798 18:-0.221841 
-0 0 3.396199724698771 1.918211227855639 0 0 1:-0.57929 2:-0.472208 3:-0.0217444 4:0.057322 5:0.0515531 6:-0.16558 7:-0.504959 8:-0.0183247 9:0.122352 10:-0.0619583 11:-0.0269043 12:-0.247652 13:0.125156 14:-0.539242 15:-0.645202 16:-0.359897 17:0.324545 18:-0.223512 
-0.1023872858725303 -0 0 0 0 0 1:-0.317262 2:0.189896 3:0.0453529 4:-0.0258607 5:-0.0797971 6:0.097048 7:-0.194039 8:-0.0559087 9:-0.224171 10:-0.143462 11:0.389816 12:-0.191179 13:0.0816649 14:-0.498564 15:-0.264943 16:-0.388581 17:0.268415 18:-0.625715 
-0 -0 3.084491721031682 0 0.7936414112545733 8.909159215658311 1:-0.391085 2:0.126032 3:0.117406 4:0.00631124 5:-0.00186346 6:-0.0234427 7:-0.133809 8:-0.119496 9:-0.254858 10:-0.222217 11:0.397889 12:-0.113403 13:0.0220429 14:-0.518711 15:-0.232101 16:-0.359454 17:0.208358 18:-0.487255 
-0.4421161162147716 -0 0 0 2.618698625917576 0.9997888701758401 1:-0.290232 2:0.733119 3:-0.109539 4:-0.355431 5:-0.255713 6:0.0542974 7:-0.60346 8:0.249513 9:0.221777 10:-0.265558 11:0.104374 12:0.164706 13:-0.189112 14:-0.429524 15:-0.593932 16:-0.339649 17:-0.0411389 18:-0.493059 
-3.508569091159448 -0 0 0 4.95132885630442 2.75583358184921 1:-0.304659 2:0.715832 3:0.129712 4:-0.183612 5:0.349368 6:-0.145249 7:-0.534176 8:0.316612 9:0.250758 10:-0.350749 11:0.196233 12:0.19821 13:-0.170538 14:-0.473379 15:-0.505189 16:-0.305795 17:0.0428159 18:-0.504052 
-2.8234527690481 -0 0 0 0 1.30603480457178 1:-0.331176 2:0.446589 3:-0.0875768 4:-0.146447 5:-0.541822 6:0.112634 7:-0.097025 8:0.391225 9:-0.23973 10:-0.127063 11:-0.00579411 12:-0.31155 13:-0.4244 14:-0.554315 15:-0.369116 16:-0.34111 17:0.44961 18:-0.583579 
-3.331380720358973 -2.818713035336215 0 0 1.968855150962365 5.396081636435945 1:-0.359855 2:0.51413 3:0.225798 4:0.172004 5:0.350439 6:-0.221998 7:-0.0395515 8:0.341619 9:-0.22876 10:-0.141088 11:0.0163311 12:-0.180092 13:0.119439 14:-0.516574 15:-0.376536 16:-0.321454 17:0.601996 18:-0.548601 
-0 -0 4.277412010557115 2.979853926780844 0.1283196037717611 0 1:-0.0655419 2:0.258555 3:-0.277503 4:0.149587 5:-0.0546613 6:0.584472 7:-0.165081 8:-0.107706 9:-0.181923 10:-0.296994 11:0.174291 12:0.00477299 13:-0.0511421 14:-0.449727 15:-0.378502 16:-0.393542 17:0.346114 18:-0.530143 
-0 -0 0 13.17651217161927 0 2.257788038998242 1:-0.171348 2:0.157473 3:-0.211945 4:0.180196 5:0.00302684 6:0.489042 7:-0.0992108 8:-0.00479364 9:-0.234801 10:-0.244048 11:0.156356 12:0.0359311 13:-0.274384 14:-0.340222 15:-0.384015 16:-0.616051 17:0.317191 18:-0.361981 
-0.5781396355507391 -0.06345367144729014 0 0 0 0 1:0.132653 2:-0.216345 3:-0.045392 4:-0.119279 5:0.047299 6:0.441334 7:0.233706 8:-0.161795 9:0.0240438 10:-0.599071 11:0.68287 12:-0.0961312 13:0.134933 14:-0.772683 15:-0.242477 16:-0.0665134 17:0.508205 18:-0.989476 
-0 -0 0 1.995897026864437 0 0 1:0.0350314 2:-0.25705 3:-0.110294 4:0.0271801 5:-0.0118508 6:0.286255 7:0.197305 8:-0.175198 9:-0.0993813 10:-0.668884 11:0.450047 12:0.00592359 13:0.0709031 14:-0.642955 15:-0.476017 16:0.0280439 17:0.345467 18:-0.899434 
-4.791094581572928 -2.052600383582195 2.652216331342379 8.766662955795262 2.398322859027469 10.6835569262305 1:-0.217611 2:0.039884 3:-0.0354354 4:0.00517642 5:0.0269456 6:0.199244 7:-0.328288 8:0.149762 9:0.400803 10:0.0180792 11:0.327118 12:0.0750411 13:0.310439 14:-0.410644 15:-0.318187 16:-0.39961 17:0.0613087 18:-0.584826 
-0 -0 5.853910963283288 7.284535858924312 0.550539478923825 0.7873251765478595 1:-0.183283 2:-0.0403895 3:-0.0281152 4:-0.00998081 5:0.0215112 6:0.228036 7:-0.248992 8:0.0752599 9:0.327556 10:-0.179418 11:0.133654 12:0.0800685 13:-0.144634 14:-0.531593 15:-0.236184 16:-0.29103 17:0.052996 18:-0.655028 
-0 -0 3.711440019033804 0.7886944040162539 0 1.941540550152857 1:-0.276593 2:0.266912 3:-0.120524 4:0.194407 5:-0.303296 6:0.232473 7:-0.284821 8:-0.280343 9:-0.222048 10:-0.259717 11:-0.0387641 12:-0.450618 13:0.137755 14:-0.495862 15:-0.540391 16:-0.353233 17:0.247591 18:-0.514018 
-0 -0 0 3.03437204091758 4.632405391430675 0 1:-0.0351074 2:0.193175 3:-0.0896792 4:0.22402 5:-0.181027 6:0.375078 7:-0.583406 8:-0.279274 9:-0.0147443 10:-0.430604 11:0.245712 12:-0.0614451 13:0.213019 14:-0.576542 15:-0.352591 16:0.0915596 17:0.368698 18:-0.783705 
-8.360897543773584 -3.824500291572065 0.624891512479397 0 0 0 1:-0.0908574 2:0.0587064 3:0.0596709 4:0.225392 5:-0.104655 6:0.335328 7:-0.568052 8:-0.208855 9:-0.0693875 10:-0.476363 11:0.0722197 12:-0.0814381 13:0.203702 14:-0.592501 15:-0.364706 16:0.130345 17:0.404709 18:-0.750546 
-0.04438576052118595 -0 0.02817341579482989 1.36906842241289 6.407148200578956 3.982916477479134 1:-0.255965 2:0.643706 3:0.138947 4:-0.215966 5:0.186515 6:0.227831 7:-0.287463 8:-0.546861 9:0.389122 10:-0.0894845 11:-0.284959 12:-0.105926 13:-0.165467 14:-0.368609 15:-0.222104 16:-0.358043 17:0.349619 18:-0.368593 
-4.735597225164173 -4.094887315498198 3.174358857822506 0 9.12831630046421 0 1:-0.307049 2:0.553407 3:0.19419 4:-0.216922 5:0.0521665 6:0.187884 7:-0.261144 8:-0.538147 9:0.304325 10:-0.0522477 11:-0.494342 12:0.160584 13:0.0351864 14:-0.451587 15:-0.151729 16:-0.371788 17:0.264173 18:-0.41628 
-4.817875601489785 -3.631476208963512 0 0 0.2448646366811288 2.436950108996525 1:-0.582102 2:-0.037802 3:0.247172 4:-0.0762189 5:-0.344876 6:-0.0582677 7:-0.260409 8:0.0539312 9:-0.48442 10:-0.237261 11:-0.0275237 12:-0.565183 13:0.138821 14:-0.382947 15:-0.383219 16:-0.258497 17:0.235457 18:-0.324566 
-9.814080700813371 -5.49421882342858 2.507149457783079 1.221583675057752 0 4.006332494026115 1:-0.453413 2:0.191174 3:0.222251 4:0.0504833 5:0.0509163 6:-0.0658341 7:-0.373442 8:0.0712035 9:-0.35537 10:-0.0618512 11:0.181414 12:-0.474397 13:-0.350345 14:-0.529312 15:-0.463998 16:-0.507571 17:0.236794 18:-0.39647 
-4.332343874343956 -0 0.7274841692083411 0 3.304474539421051 0 1:-0.431959 2:0.717888 3:-0.146222 4:0.188226 5:0.117157 6:-0.131302 7:-0.132077 8:0.136532 9:0.0805903 10:0.030879 11:0.142199 12:-0.142035 13:0.0239978 14:-0.290693 15:-0.454371 16:-0.46151 17:0.670847 18:-0.377218 
-5.296318976955352 -0 0 0 1.52259712669149 2.644605843135923 1:-0.528413 2:0.512757 3:-0.0450993 4:-0.0228639 5:-0.318731 6:-0.0877 7:-0.0868065 8:0.213194 9:0.0732274 10:-0.0600258 11:-0.104113 12:-0.104438 13:0.071737 14:-0.329 15:-0.361354 16:-0.326353 17:0.552248 18:-0.420654 
-0.9899318822129046 -0 0 7.717715206570813 7.162961794831909 12.4771901469317 1:-0.0604992 2:0.177753 3:0.344358 4:0.184524 5:-0.104477 6:-0.0726754 7:-0.349306 8:-0.166007 9:-0.0247599 10:-0.162088 11:0.235181 12:-0.0791332 13:0.268326 14:-0.331481 15:-0.487382 16:-0.340559 17:0.024089 18:-0.665306 
-1.758681377116307 -1.139002026660437 0 1.492679411368343 0.9745266959611502 0.8252901430559914 1:0.506206 2:-0.617393 3:0.555358 4:0.168665 5:-0.20288 6:0.626482 7:-0.343348 8:0.721192 9:1 10:-0.561764 11:1 12:1 13:-0.458462 14:0.00411764 15:-0.485792 16:-0.0840644 17:0.455509 18:-0.123435 
-1.14875275954186 -0 0 0.3610045284468724 0 0 1:-0.38561 2:0.464371 3:0.199189 4:-0.11841 5:0.317299 6:0.18533 7:-0.248731 8:0.242692 9:0.352083 10:0.000643024 11:-0.233218 12:0.0555867 13:-0.594823 14:-0.496747 15:-0.429025 16:-0.00363052 17:-0.00093727 18:-0.244386 
-3.717264940755105 -0 3.097593859746198 2.362058512132445 3.172006201477219 4.581718604993878 1:-0.290567 2:0.380908 3:0.0796052 4:-0.157062 5:-0.189745 6:0.379732 7:-0.330205 8:0.268304 9:0.342212 10:0.0309478 11:-0.31387 12:-0.12881 13:-0.400121 14:-0.43106 15:-0.453499 16:0.0676291 17:0.0480784 18:-0.203517 
-2.279935685894352 -1.928558430292809 0.8650535922639645 2.247984609190824 0 0 1:-0.694765 2:-0.061508 3:0.18093 4:0.243437 5:0.178929 6:-0.135055 7:-0.0814834 8:-0.0124343 9:-0.254622 10:-0.580787 11:-0.0935212 12:-0.0708435 13:-0.161269 14:-0.355415 15:-0.867774 16:-0.235426 17:0.461936 18:-0.321836 
-0.9950719729845496 -0 2.526516158960502 3.381655873255475 0 0 1:-0.608104 2:-0.0408293 3:-0.0643523 4:-0.00501315 5:-0.482257 6:0.160162 7:-0.185631 8:-0.101807 9:-0.0640615 10:-0.429971 11:-0.112307 12:-0.085158 13:0.0656557 14:-0.329359 15:-0.838636 16:-0.225937 17:0.444018 18:-0.2393 
-0 -0 0 4.223634176427694 1.722115536425081 2.960098067848439 1:-0.1705 2:0.127881 3:0.0945127 4:-0.0490414 5:-0.362147 6:-0.107278 7:0.356983 8:-0.400734 9:0.472426 10:-0.251913 11:0.73684 12:0.0716297 13:-0.197941 14:-0.691676 15:-0.398882 16:-0.071724 17:0.0161942 18:-0.45567 
-2.435956373639957 -0.04437612822668126 0 0.7015915917518386 0.775297726278377 5.022718287255818 1:-0.210907 2:0.315301 3:-0.0444752 4:0.00383234 5:-0.557706 6:0.012494 7:0.347609 8:-0.284925 9:0.576614 10:-0.0806952 11:0.885997 12:-0.219579 13:-0.198367 14:-0.820296 15:-0.276045 16:0.0712736 17:0.0190238 18:-0.391159 
-13.62122703604896 -5.714965633676694 4.835195464747915 0 1.264150738255336 10.64470149353961 1:-0.529524 2:0.325211 3:0.249151 4:-0.0405888 5:0.0988405 6:0.00366623 7:-0.322157 8:0.27433 9:0.444071 10:0.185952 11:-0.146091 12:-0.279854 13:-0.129546 14:-0.694542 15:-0.448111 16:-0.128872 17:0.0644665 18:-0.158157 
-3.69604976961552 -0.9807474159262556 1.395451624703513 0 0 0 1:-0.577173 2:0.351627 3:-0.0249362 4:-0.124264 5:-0.154942 6:0.223121 7:-0.190016 8:0.162084 9:0.573152 10:0.274502 11:0.0818412 12:-0.1344 13:-0.462634 14:-0.52193 15:-0.388186 16:-0.194185 17:0.094289 18:-0.309259 
-6.18972009439034 -6.498040371854362 1.20641173080136 6.335051145749387 0 8.722158759371586 1:-0.480522 2:-0.18112 3:0.220836 4:0.189675 5:-0.321455 6:0.0664988 7:-0.198759 8:0.0957483 9:0.1767 10:-0.173313 11:0.0210759 12:-0.118685 13:0.00473123 14:-0.662001 15:-0.457774 16:-0.0543693 17:-0.106981 18:-0.44097 
-2.378048639389132 -3.258103129234702 0.9893252977930125 1.619848050392871 1.050561539825462 3.886886172812073 1:-0.614661 2:0.420456 3:0.279121 4:-0.122187 5:-0.33008 6:-0.373338 7:-0.26083 8:-0.497876 9:0.0834004 10:0.573465 11:-0.428217 12:0.209413 13:0.109068 14:-0.483754 15:-0.232994 16:-0.606815 17:-0.399175 18:0.350977 
-0.594233836075715 -0.8745922435955382 0.2248981386410076 4.121753614745652 0.3849101965673509 2.463936911435181 1:-0.0467826 2:-0.718921 3:0.436557 4:-0.10752 5:-0.0260533 6:0.588751 7:-0.118405 8:0.108798 9:-0.0120744 10:-0.434957 11:0.0689202 12:-0.1105 13:-0.0842179 14:-0.514416 15:-0.401621 16:0.0333465 17:-0.144492 18:-0.610163 
-1.390242818076966 -1.181442205351858 0.6376593210182107 0.974907911310151 1.418500845906679 1.279409859050388 1:0.310982 2:-1 3:0.228097 4:-0.234853 5:0.0291944 6:0.856724 7:-0.00444107 8:0.180203 9:0.543896 10:-0.595406 11:-0.155562 12:0.360085 13:-0.383776 14:-0.746235 15:-0.193642 16:0.0864353 17:0.374167 18:-0.164972 
-0 -0 -0.1407150456489243 0 0 0 1:-0.481981 2:0.0831524 3:-0.555163 4:-0.123247 5:-0.150644 6:-0.557652 7:-0.307632 8:-0.2468 9:-0.210413 10:-0.40075 11:0.112396 12:-0.285791 13:0.241765 14:-0.343651 15:-0.458292 16:-0.286946 17:0.277842 18:0.0936242 
-0 -0 -0 1.57248152904516 0 0 1:-0.112375 2:0.548879 3:-0.465416 4:-0.124861 5:0.18522 6:0.461607 7:-0.395726 8:-0.372616 9:0.0522411 10:0.00952936 11:0.362913 12:0.151434 13:-0.16761 14:-0.765887 15:-0.207883 16:-0.224641 17:0.0479842 18:-0.304727 
-0 -0 -0 0 1.326791980630067 1.138333920162311 1:0.0127861 2:0.551679 3:-0.352951 4:-0.193253 5:0.347401 6:0.650538 7:-0.36786 8:-0.467254 9:0.0754834 10:-0.0455088 11:0.0628353 12:0.301298 13:0.367507 14:-0.904022 15:0.0155377 16:0.0958205 17:0.0512959 18:-0.381971 
-0 -0.07877222890737647 -0 0 0 0 1:-0.633171 2:0.192269 3:-0.16041 4:-0.122839 5:0.294827 6:0.00238251 7:-0.19923 8:-0.0788755 9:0.159062 10:0.261729 11:0.202387 12:0.149321 13:0.289312 14:-0.874795 15:-0.411996 16:-0.0382212 17:0.148865 18:-0.00234244 
-0 -0 -0 0 0.2932571174470456 0 1:-0.210712 2:-0.790075 3:-0.273499 4:0.120239 5:0.534445 6:-0.440292 7:-0.215436 8:0.182527 9:0.0246569 10:0.017083 11:0.0555876 12:0.107559 13:0.346239 14:-0.395291 15:-0.325698 16:0.031135 17:0.264741 18:-0.722247 
-4.752431717943818 -4.312612580073865 -0 0 0 0.4244271293754754 1:-0.652947 2:-0.123672 3:0.247321 4:0.0165918 5:0.387228 6:0.0377119 7:-0.00822402 8:-0.0816019 9:-0.418762 10:0.142101 11:-0.0359226 12:-0.105886 13:0.02755 14:-0.555823 15:-0.276397 16:-0.297843 17:-0.0904708 18:-0.316337 
-2.370914343494277 -4.831115073217766 -0 0 0 0 1:-0.523207 2:-0.112993 3:0.0193191 4:-0.142796 5:0.0974449 6:0.431753 7:-0.108242 8:-0.101866 9:-0.453179 10:0.058657 11:-0.0710201 12:-0.327314 13:0.50671 14:-0.577107 15:-0.359365 16:-0.0601927 17:0.0971291 18:-0.320473 
-0 -0.8941815418305553 -0.3535056534699536 0 0 0 1:-0.572192 2:-0.45375 3:-0.122295 4:0.0375756 5:-0.0584692 6:-0.312293 7:-0.165092 8:-0.0389855 9:-0.562178 10:-0.337114 11:0.103487 12:0.289442 13:-0.0826392 14:-0.576693 15:-0.831184 16:-0.257086 17:0.389851 18:-0.28369 
-1.329997609575531 -0.8147093232291466 -1.211604853979342 0.6099603597575731 0.55213466748198 1.915044634302283 1:-0.552913 2:-0.630309 3:-0.351445 4:0.250533 5:0.0227614 6:-0.700612 7:0.138187 8:0.186761 9:-0.69373 10:-0.321199 11:-0.0232616 12:0.0659825 13:-0.39522 14:-0.302851 15:-1 16:-0.0981822 17:0.529576 18:-0.0899986 
-0 -0 -0 4.123926225900668 0 0 1:-0.265841 2:-0.363305 3:-0.599226 4:-0.169205 5:-0.377402 6:0.142949 7:-0.287148 8:0.119775 9:-0.0483498 10:0.183854 11:0.0260799 12:-0.0924385 13:-0.190451 14:-0.573498 15:-0.55497 16:-0.0942463 17:-0.043759 18:-0.354789 
-0 -2.211839235272903 -0 0.306242146216146 0 0 1:-0.177098 2:-0.685734 3:-0.243638 4:0.225416 5:0.264282 6:-0.060561 7:-0.473662 8:-0.0246273 9:0.36839 10:0.149042 11:-0.136732 12:-0.0197521 13:0.0180546 14:-0.520961 15:-0.452108 16:-0.104987 17:0.131936 18:-0.505554 
-0 -1.380303524729304 -0 0 0 0 1:-0.116005 2:-0.792042 3:-0.449374 4:-0.0157443 5:-0.17651 6:0.182476 7:-0.450958 8:-0.0507852 9:0.272384 10:0.0804398 11:-0.331758 12:-0.116293 13:-0.0158334 14:-0.598923 15:-0.386714 16:-0.0551795 17:0.135598 18:-0.32241 
-1.68617661055306 -1.463804386244902 -1.07416219320335 1.242071986262355 0.8564313768263226 1.114410528765059 1:-0.210818 2:0.425832 3:-0.866012 4:0.284649 5:1 6:0.369679 7:-0.188434 8:-0.00265183 9:-0.509488 10:-0.236541 11:0.859376 12:-0.501848 13:-0.250925 14:-0.49533 15:-0.948956 16:-0.206564 17:0.513932 18:0.612391 
-1.887290726084945 -0 -1.042815017174512 0 0 0.8520896830097049 1:-0.650008 2:0.282378 3:-0.121422 4:-0.0721552 5:0.409862 6:-0.317256 7:-0.271833 8:0.0220649 9:-0.032315 10:-0.286545 11:0.172024 12:-0.222271 13:-0.000303397 14:-0.579536 15:-0.019813 16:-0.232808 17:0.221495 18:-0.128585 
-0.4654960024450857 -0 -0.6188439801147527 0 0.2435134567478573 2.22630075048438 1:-0.814657 2:0.13912 3:-0.283482 4:-0.146798 5:-0.129959 6:-0.446143 7:-0.139276 8:0.0328252 9:-0.0907595 10:-0.286392 11:0.00297326 12:0.0190676 13:0.587907 14:-0.482986 15:-0.0172603 16:-0.0905432 17:0.0840438 18:-0.124739 
-0 -0 -0 1.370111874353515 0 0 1:-0.17336 2:-0.0438748 3:-0.522262 4:-0.0176375 5:0.380278 6:-0.478405 7:-0.271224 8:-0.199495 9:0.0711202 10:-0.162733 11:0.525924 12:-0.303393 13:-0.161008 14:-0.554459 15:-0.411287 16:-0.410158 17:0.270342 18:-0.431232 
-0 -0 -0 5.99616200504051 0 0 1:-0.429083 2:0.0166745 3:-0.210375 4:0.00707535 5:-0.0860292 6:0.111152 7:0.000193377 8:-0.352221 9:0.018342 10:0.0870749 11:0.224609 12:-0.110492 13:-0.0764285 14:-0.482276 15:-0.404356 16:-0.277955 17:0.12124 18:-0.424671 
-0.9413424857105809 -0 -0.3008973449704515 0.6705472388479248 0 0 1:-0.450134 2:-0.0821785 3:-0.025381 4:0.0212985 5:0.352822 6:-0.104469 7:0.0369688 8:-0.348983 9:0.0969583 10:0.000559643 11:0.277698 12:-0.31545 13:-0.52543 14:-0.592907 15:-0.315042 16:-0.318698 17:0.11694 18:-0.228864 
-0 -5.473739090572568 -0 0 0 0 1:-0.709595 2:-0.239511 3:-0.0720694 4:0.046697 5:-0.149213 6:-0.0505655 7:-0.21901 8:-0.219496 9:-0.0551584 10:-0.0805702 11:0.0802486 12:0.105657 13:-0.0548868 14:-0.667549 15:-0.330384 16:-0.206383 17:0.0939751 18:-0.185252 
-2.081368118900245 -3.247244523597706 -1.044638681261566 2.838503520537272 0.9947706154324382 3.15232696462146 1:-0.426695 2:-0.247062 3:-0.408965 4:-0.0355561 5:-0.22332 6:0.357193 7:-0.280335 8:-0.043103 9:0.340196 10:0.991682 11:0.248873 12:0.38152 13:0.548145 14:-0.1204 15:-0.200035 16:-0.657166 17:-0.0152402 18:-0.0909439 
-0 -0.189417300820335 -0 0 0 0 1:-0.465594 2:-0.177091 3:0.105234 4:0.193788 5:0.917964 6:0.461427 7:-0.199328 8:-0.234877 9:-0.0911469 10:0.061509 11:-0.0524491 12:-0.14283 13:-0.139777 14:-0.691368 15:-0.332633 16:-0.244039 17:0.0394717 18:-0.19137 
-1.388254608575429 -4.290394371948635 -0 0 0 0.2967162600887385 1:-0.597342 2:-0.322279 3:0.00164074 4:0.356756 5:0.488444 6:0.437199 7:-0.0344994 8:-0.518514 9:-0.0400339 10:0.202398 11:-0.293745 12:-0.241732 13:0.554396 14:-0.813261 15:-0.039268 16:-0.106481 17:0.28975 18:-0.0372345 
-0 -0 -0 0 0.9883784756748215 0 1:-0.201356 2:-0.486176 3:-0.409196 4:-0.165017 5:-0.47792 6:-0.335302 7:-0.451336 8:0.0336644 9:-0.252454 10:0.214988 11:0.129288 12:-0.119195 13:-0.0303731 14:-0.43749 15:-0.372575 16:-0.0554772 17:0.113969 18:-0.637873 
-0.6095164915707008 -0.1138187301735592 -0 0 0.9971474563928369 1.192159699437809 1:-0.223576 2:-0.47473 3:-0.147752 4:0.173341 5:0.405926 6:-0.665196 7:-0.348583 8:0.0971854 9:-0.271705 10:0.0886202 11:0.196409 12:-0.0893305 13:-0.332292 14:-0.511031 15:-0.345106 16:-0.108782 17:0.190731 18:-0.651564 
-1.357612272717626 -1.379875692369823 -0 0 0 0 1:-0.395683 2:-0.0428191 3:-0.201866 4:-0.160586 5:-0.217541 6:0.111353 7:-0.436633 8:-0.257597 9:-0.147485 10:0.00860095 11:0.185882 12:0.28961 13:-0.214818 14:-0.54105 15:-0.240386 16:-0.0278689 17:0.539597 18:-0.681069 
-0.4200339343213947 -1.012037632228159 -3.138594959225121 5.650599595132542 0 0.2194383598697612 1:-0.465522 2:0.261158 3:-0.142305 4:0.130129 5:-0.0785355 6:-0.10337 7:-0.25504 8:-0.222422 9:-0.369705 10:0.0600043 11:0.232354 12:0.2055 13:-0.0375925 14:-0.594898 15:-0.444701 16:-0.345021 17:0.233506 18:-0.420253 
-0 -0 -2.373085261927293 4.024607926716871 0.9282184762339312 0 1:-0.214904 2:0.0168857 3:-0.174687 4:0.151859 5:0.339762 6:-0.0620812 7:-0.286089 8:-0.243575 9:0.231952 10:-0.0883849 11:0.138979 12:-0.00538486 13:0.00129862 14:-0.56614 15:-0.448296 16:-0.286511 17:0.454153 18:-0.553543 
-0 -0 -1.052999277664076 0 1.840853345984635 0 1:-0.255251 2:-0.215576 3:-0.374699 4:-0.0642743 5:-0.301127 6:-0.0646168 7:-0.256613 8:-0.171722 9:0.268588 10:-0.0405941 11:-0.00144684 12:-0.0597829 13:0.189104 14:-0.402264 15:-0.448253 16:-0.180343 17:0.48191 18:-0.579163 
-3.880210670627233 -0.900743400235709 -0 0 0 1.505244752326269 1:-0.475886 2:0.00636159 3:-0.0249913 4:-0.0242165 5:0.00201616 6:0.0668926 7:-0.221414 8:-0.577592 9:0.377032 10:0.0112147 11:0.198119 12:-0.0847625 13:0.000171903 14:-0.661873 15:-0.302645 16:-0.10913 17:0.324531 18:-0.462539 
-0 -3.405247454039364 -1.140198398640115 0 0.5123375065513879 1.74247088582475 1:-0.488195 2:0.00686388 3:0.0324874 4:-0.0882239 5:0.0443962 6:0.0318426 7:-0.273514 8:-0.597819 9:0.446326 10:-0.00717017 11:0.199704 12:-0.0535865 13:-0.208062 14:-0.675268 15:-0.397185 16:-0.227009 17:0.31955 18:-0.244827 
-0 -0 -0 0 0.9785758370415619 0 1:-0.536289 2:0.360961 3:-0.302163 4:-0.144581 5:-0.208696 6:-0.2279 7:-0.637616 8:-0.312253 9:0.0740207 10:-0.0469716 11:0.0128931 12:0.190173 13:-0.224018 14:-0.441138 15:-0.557194 16:-0.177624 17:0.171841 18:-0.234665 
-2.039940448625902 -2.001398508253102 -0 0 0.4262723334304098 0.1393071292958654 1:-0.535753 2:0.359343 3:-0.0822563 4:0.091421 5:0.358571 6:-0.381953 7:-0.566829 8:-0.273049 9:-0.0120692 10:-0.110542 11:-0.0475554 12:0.304976 13:-0.282369 14:-0.462011 15:-0.571192 16:-0.210295 17:0.317747 18:-0.190595 
-15.48389377056065 -4.257597404820558 -16.97061483243532 5.544644790919507 2.452563768654926 11.20921513245105 1:-0.347909 2:0.154637 3:-0.0495137 4:-0.103086 5:-0.136394 6:0.417762 7:-0.332866 8:0.0778142 9:0.103116 10:-0.05945 11:-0.0873125 12:-0.160405 13:-0.0663005 14:-0.634651 15:-0.426102 16:-0.25723 17:0.140769 18:-0.422686 
-10.99465988848162 -5.450162600503189 -2.870292507288587 12.57753997025387 0 5.944749623534419 1:-0.34704 2:0.190609 3:0.0315615 4:0.0273027 5:0.258309 6:0.300185 7:-0.280881 8:0.116 9:0.0509294 10:-0.0188098 11:-0.127444 12:-0.132964 13:0.176082 14:-0.518164 15:-0.546951 16:-0.276494 17:0.242452 18:-0.371044 
-0 -0 -0 0 0.5695764145694008 0.1303881630986088 1:-0.563745 2:0.282006 3:-0.16096 4:-0.308739 5:0.388291 6:-0.636553 7:-0.0799854 8:0.0461407 9:0.314484 10:0.151786 11:-0.11528 12:0.209557 13:0.217847 14:-0.473358 15:-0.640039 16:0.162517 17:-0.000293953 18:0.0603751 
-2.112675200669052 -0.267565601407731 -1.763121109603396 0 0.3334284159599947 1.482961593123967 1:-0.553968 2:0.347817 3:-0.287428 4:-0.308716 5:0.299542 6:-0.622706 7:0.0108044 8:0.150611 9:0.452048 10:0.330771 11:-0.0689106 12:0.0681433 13:-0.455735 14:-0.681534 15:-0.549531 16:0.215964 17:-0.0596137 18:0.0457577 
-0 -0 -0 0.6861389646484602 0 0 1:-0.581277 2:-0.120266 3:-0.422284 4:-0.14909 5:0.232174 6:0.0387249 7:0.0503045 8:-0.0547829 9:-0.0403523 10:-0.0676265 11:0.673133 12:0.400099 13:-0.0186368 14:-0.622391 15:-0.40447 16:-0.10718 17:0.178141 18:0.513925 
-0.2430546618670355 -0 -0 0 0 0 1:-0.695591 2:-0.187263 3:-0.21232 4:-0.0840316 5:0.345024 6:-0.0983773 7:0.08055 8:-0.0558089 9:-0.0550905 10:-0.110891 11:0.594203 12:0.353392 13:-0.15654 14:-0.63448 15:-0.543085 16:-0.0417483 17:0.151839 18:0.563274 
-0 -0.02971908053581571 -0 0 0 0 1:-0.54917 2:-0.154146 3:-0.113479 4:-0.142128 5:0.0843168 6:0.356783 7:-0.14744 8:-0.0914575 9:-0.198399 10:-0.00135836 11:0.434457 12:0.178344 13:-0.00629907 14:-0.804197 15:-0.162478 16:-0.070087 17:0.313664 18:-0.190353 
-0 -0 -0 24.11001104882373 0 0 1:-0.224199 2:-0.238538 3:-0.24786 4:-0.125015 5:-0.0697937 6:0.217292 7:-0.347962 8:-0.227397 9:-0.0315305 10:-0.130367 11:0.15271 12:-0.101579 13:-0.0387374 14:-0.393152 15:-0.349419 16:-0.273358 17:0.142387 18:-0.488323 
-4.190918693043425 -1.452768247886685 -0 0 0 0 1:-0.536864 2:-0.16692 3:-0.00131072 4:-0.214702 5:-0.0385424 6:-0.262643 7:-0.567208 8:0.0354841 9:-0.489549 10:-0.0970134 11:-0.0891015 12:-0.200395 13:-0.222321 14:-0.514795 15:-0.487169 16:-0.108656 17:-0.0791146 18:-0.389123 
-0.4719967481515359 -3.442372062075203 -0 0 0 0 1:-0.486658 2:-0.0943546 3:0.0107119 4:-0.131677 5:0.191472 6:-0.201727 7:-0.574729 8:0.0545664 9:-0.524802 10:0.0174823 11:-0.0905383 12:-0.123285 13:0.276739 14:-0.418385 15:-0.499301 16:-0.0226462 17:0.00551416 18:-0.471934 
-0.3334786775887543 -0 -1.352185955846974 0 1.029911850182697 3.724491834971852 1:-0.311912 2:-0.531589 3:-0.0753358 4:-0.115826 5:-0.151034 6:-0.280036 7:-0.145474 8:-0.269119 9:0.168159 10:0.00895378 11:-0.107984 12:-0.267877 13:-0.0108323 14:-0.394505 15:-0.0826018 16:-0.276753 17:-0.164215 18:-0.606281 
-0 -1.193263320177449 -1.233085187693945 0.6110237157526804 0.3027046760657135 0.6404806254892833 1:-0.291806 2:-0.518865 3:0.0149748 4:-0.0350036 5:0.199708 6:-0.244329 7:-0.0663481 8:-0.178909 9:0.149434 10:-0.125878 11:-0.206954 12:-0.289404 13:-0.627202 14:-0.509415 15:-0.119498 16:-0.324241 17:-0.0664659 18:-0.396629 
-2.418828912080206 -1.447004206936349 -0 1.06881199763216 0 0 1:-0.447966 2:-0.297888 3:-0.462328 4:0.0645226 5:-0.113974 6:-0.175844 7:-0.239736 8:-0.125008 9:0.17569 10:0.0732762 11:0.236742 12:-0.194884 13:0.604206 14:-0.283104 15:-0.943622 16:-0.0258617 17:0.203936 18:-0.399111 
-2.272273313937446 -0 -0 0 0 0 1:-0.435217 2:0.013398 3:-0.373573 4:-0.0269165 5:0.143413 6:-0.440107 7:-0.310154 8:0.0715485 9:-0.0687755 10:0.270899 11:0.254625 12:-0.159246 13:-0.15722 14:-0.475643 15:-0.546093 16:-0.28409 17:0.188405 18:-0.248821 
-0 -0.3480093540551067 -0.3140443621469187 0.5168039034491716 0.5535071078211355 0 1:0.322878 2:-0.390735 3:-0.766918 4:0.112498 5:0.0429723 6:0.450689 7:-0.147405 8:-0.552547 9:-0.0415186 10:-0.0354506 11:-0.642399 12:0.359517 13:-0.0514646 14:-0.472102 15:-0.207942 16:0.0143153 17:0.0377339 18:-0.408444 
-0.4810191108035912 -0.4687285881365743 -0.4026252387470172 0 0.6765812881812227 1.503845988822361 1:0.306636 2:-0.889405 3:-0.25818 4:-0.277086 5:0.523905 6:0.511896 7:-0.101351 8:-0.505137 9:0.431597 10:-0.0479062 11:-0.380019 12:0.0959893 13:-0.204175 14:-0.45989 15:-0.514409 16:-0.0124866 17:0.228098 18:-0.456459 
-0 -0 -0.3190757997728403 6.209832167948531 0 0.9190465156157487 1:-0.465831 2:-0.163139 3:-0.11281 4:-0.0169937 5:0.335211 6:-0.303848 7:-0.0182182 8:0.0927865 9:-0.0204694 10:-0.203197 11:0.154302 12:-0.0373804 13:-0.231858 14:-0.50585 15:-0.140982 16:-0.290744 17:-0.0695295 18:-0.125611 
-0 -0 -0 1.983872300366369 0 0 1:-0.463294 2:-0.0878476 3:-0.35777 4:-0.0709071 5:-0.144452 6:-0.211014 7:0.0338432 8:0.0461079 9:-0.12721 10:-0.129046 11:0.0865048 12:-0.0579141 13:0.110551 14:-0.46099 15:-0.260771 16:-0.272346 17:0.0518026 18:-0.189767 
-0 -0.1156965689069524 -1.474220932601164 0 5.961965526385701 0 1:-0.425477 2:0.39743 3:0.110342 4:-0.207111 5:0.278524 6:0.21015 7:-0.467701 8:-0.263654 9:0.116334 10:-0.0613025 11:-0.223794 12:0.0132387 13:0.0273109 14:-0.622223 15:-0.293693 16:-0.253924 17:0.177269 18:-0.419709 
-3.404000172956594 -10.12055276021836 -0 0 0 0 1:-0.503947 2:0.315696 3:0.0272967 4:-0.219267 5:0.0284101 6:0.153343 7:-0.414044 8:-0.236615 9:0.0973957 10:-0.00280741 11:-0.116869 12:-0.0214713 13:0.0139383 14:-0.531951 15:-0.500969 16:-0.322966 17:0.2314 18:-0.415371 
-1.488920433121226 -3.03815425004395 -0 0 0 0 1:-0.594773 2:0.110718 3:-0.197418 4:-0.0774123 5:-0.317118 6:0.140868 7:-0.26699 8:-0.113752 9:-0.0245316 10:0.00239629 11:0.117224 12:-0.024392 13:-0.121132 14:-0.800169 15:-0.405108 16:-0.138059 17:0.143492 18:-0.193582 
-0 -0 -0 10.32136325734349 0 0 1:-0.146247 2:-0.724366 3:-0.364 4:-0.0273447 5:0.388155 6:0.0998424 7:-0.265331 8:0.20561 9:0.011986 10:0.290618 11:-0.18067 12:0.0980943 13:-0.0984886 14:-0.38547 15:-0.513965 16:-0.31545 17:0.257246 18:-0.2733 
-0 -0.9018285840338285 -0 0 0 0 1:-0.321907 2:-0.235466 3:-0.575808 4:0.027011 5:-0.0583458 6:0.234682 7:-0.157366 8:-0.228356 9:-0.215015 10:-0.00198176 11:-0.219787 12:-0.533837 13:-0.127207 14:-0.493839 15:-0.58359 16:-0.200368 17:0.33051 18:-0.242534 
-1.810617151745223 -0 -0.6519765407168772 1.021871959532669 1.506892517980323 0.9016903028010509 1:-0.205913 2:0.440897 3:-0.39953 4:0.0617626 5:0.156032 6:-0.357723 7:-0.397176 8:0.160975 9:-0.581592 10:0.253042 11:0.149355 12:0.0239959 13:0.413011 14:-0.474079 15:-0.261574 16:-0.24786 17:0.147359 18:-0.889461 
-1.798655762242323 -0.492070094891699 -0.03172118475699135 0 0.7243049812563775 1.823116826884431 1:-0.233117 2:0.409143 3:-0.415342 4:-0.00886041 5:-0.0820233 6:-0.329417 7:-0.548435 8:0.262733 9:-0.491819 10:0.243805 11:-0.0889329 12:0.26689 13:-0.132403 14:-0.4898 15:-0.400965 16:-0.171326 17:0.0976578 18:-0.977824 
-0.1900551188783184 -0 -0 2.96675799478598 0.6072487921462022 1.640786148133268 1:-0.138092 2:0.227402 3:-0.54118 4:-0.0773799 5:-0.11195 6:0.343655 7:0.077033 8:-0.168208 9:0.375213 10:0.657762 11:-0.197372 12:0.00631723 13:-0.0581983 14:-0.391554 15:-0.460979 16:-0.19681 17:0.186979 18:-0.288393 
-0 -0 -1.146739298170663 1.987603511553631 0.7656360040080898 1.582293518150548 1:-0.197952 2:0.547436 3:-0.314948 4:-0.0288402 5:0.0679197 6:0.469079 7:-0.250554 8:-0.567714 9:-0.108739 10:-0.102244 11:0.447366 12:-0.355301 13:-0.0577741 14:-0.698825 15:-0.286304 16:-0.0371496 17:0.346136 18:-0.259207 
-2.900036762645004 -2.64419871109331 -0.3978700299519463 0 0 0.1299615392928095 1:-0.205573 2:0.624457 3:-0.234521 4:0.124775 5:0.267081 6:0.329828 7:-0.29251 8:-0.533624 9:-0.241746 10:-0.0546511 11:0.178635 12:-0.337769 13:-0.295747 14:-0.735295 15:-0.252106 16:-0.132116 17:0.321844 18:-0.330062 
-0.4321302423940322 -0.825373041146872 -4.930202825880647 -0 0 1.383939527288992 1:-0.0431458 2:-0.220734 3:-0.0604623 4:-0.0458324 5:-0.23839 6:0.537248 7:0.0523507 8:0.29498 9:0.0423195 10:-0.261233 11:0.210277 12:-0.472173 13:-0.181862 14:-0.697913 15:-0.309997 16:-0.00420307 17:-0.2131 18:-0.453694 
-2.116207510564738 -0 -0.06470078910460192 -0 0 4.112012665038661 1:-0.0558524 2:-0.171633 3:-0.0111233 4:0.0568606 5:-0.0702586 6:0.363263 7:0.0429788 8:0.298917 9:0.0552106 10:-0.297917 11:0.202295 12:-0.428896 13:0.0725654 14:-0.62282 15:-0.323293 16:0.0956617 17:-0.151457 18:-0.446094 
-0.5425201744378302 -0.4416534310998675 -0 -0 0.4505015846041645 0 1:-0.223677 2:-0.62567 3:-0.35089 4:0.378185 5:0.393564 6:-0.41818 7:-0.0651806 8:0.528584 9:0.198433 10:0.341271 11:0.394653 12:0.227845 13:0.155941 14:-0.436554 15:-0.316126 16:-0.152264 17:0.434171 18:-0.622971 
-0.1487134203090294 -0.9670039577893863 -0 -0.7827540467284833 0.3888414295056308 0 1:-0.279023 2:-0.682108 3:-0.472672 4:0.062193 5:-0.282026 6:-0.314343 7:-0.245837 8:0.394782 9:0.315276 10:0.237162 11:0.339118 12:0.192268 13:0.0963995 14:-0.461527 15:-0.302723 16:-0.132906 17:0.361026 18:-0.585217 
-0 -0 -1.857291744015677 -1.159180877124184 0 0.04423742659849084 1:-0.321806 2:-0.0828361 3:0.0139675 4:-0.00227443 5:0.151952 6:0.112645 7:0.23406 8:-0.117705 9:-0.393036 10:-0.178357 11:0.425639 12:0.126457 13:0.105951 14:-0.533388 15:-0.171689 16:-0.482705 17:0.113901 18:-0.11681 
-0.4035327869994005 -0.9220945688652183 -0.01955411324495111 -0.6610815397619449 0.896268732127129 1.632123711562168 1:-0.43627 2:-0.244964 3:-0.0460636 4:-0.0120684 5:-0.0347402 6:-0.0237975 7:0.273365 8:-0.0752781 9:-0.292787 10:-0.15975 11:0.584124 12:0.201712 13:0.701625 14:-0.406235 15:-0.195826 16:-0.376482 17:0.331418 18:-0.155896 
-0 -0.2172387155813832 -0 -0 1.33998229076107 1.347657425942983 1:0.224931 2:-0.0416506 3:-0.0376331 4:0.157662 5:0.27669 6:0.339023 7:0.0504536 8:-0.235273 9:0.55521 10:0.0847939 11:-0.0759512 12:0.193135 13:0.121368 14:-0.513634 15:-0.443416 16:-0.00066609 17:0.14818 18:-0.574739 
-0 -0 -0 -0.7327101490868222 1.969633657127168 0 1:0.204289 2:-0.158483 3:-0.170794 4:-0.050382 5:-0.249913 6:0.431252 7:0.12029 8:-0.234404 9:0.523689 10:0.159018 11:-0.202798 12:0.149248 13:-0.0297858 14:-0.546118 15:-0.438862 16:0.0146143 17:0.141189 18:-0.441588 
-0 -0 -0 -0 0.3825529132873507 0.805423703567024 1:-0.294641 2:-0.0359396 3:-0.114326 4:0.175978 5:0.202212 6:-0.150726 7:-0.513506 8:0.257875 9:0.279729 10:-0.306941 11:0.434335 12:0.550524 13:0.0399331 14:-0.352092 15:-0.361072 16:-0.353184 17:0.244085 18:-0.414831 
-0 -0 -5.295088358206318 -0 0 0 1:-0.291263 2:-0.124958 3:-0.278174 4:0.00216906 5:-0.310282 6:0.0609141 7:-0.456495 8:0.348999 9:0.227064 10:-0.284658 11:0.344414 12:0.403759 13:0.0730121 14:-0.354211 15:-0.459917 16:-0.20441 17:0.260231 18:-0.540992 
-0 -0 -1.435831386429548 -7.450161176548533 0 0 1:-0.177092 2:-0.0718677 3:-0.316032 4:-0.108029 5:-0.269267 6:0.342497 7:-0.332554 8:-0.212185 9:0.0134218 10:-0.0990388 11:0.411173 12:-0.135379 13:-0.0224438 14:-0.544404 15:-0.309607 16:-0.39387 17:-0.0589199 18:-0.382742 
-0 -0.6222894708827655 -1.375932102784066 -9.214140214689129 0.2760394475918539 5.273055326729184 1:-0.236086 2:-0.151745 3:-0.122482 4:-0.0401093 5:0.262885 6:0.0710865 7:-0.421213 8:-0.183328 9:0.137311 10:-0.238417 11:0.45106 12:-0.227152 13:-0.228762 14:-0.597521 15:-0.0459295 16:-0.405378 17:0.0222335 18:-0.337955 
-3.081187078734261 -3.214099722427157 -0.4319759958721761 -4.088133747666617 0 0 1:-0.519927 2:-0.292091 3:-0.206794 4:0.0873337 5:0.00681629 6:0.0738443 7:-0.00966385 8:0.307 9:-0.139404 10:-0.0828729 11:0.230737 12:0.0753184 13:-0.184478 14:-0.601894 15:-0.275254 16:-0.316266 17:0.879178 18:-0.415527 
-0 -0 -0.8959606527614834 -0.9746513867587676 0 0 1:-0.535691 2:-0.387552 3:-0.159952 4:0.0630671 5:-0.0477071 6:-0.0311916 7:-0.0286991 8:0.292594 9:-0.122054 10:-0.127904 11:0.0714715 12:0.200667 13:-0.512251 14:-0.48102 15:-0.250959 16:-0.410503 17:0.658809 18:-0.317437 
-2.119130283517556 -4.067764948996943 -6.908457204879889 -13.07378202472058 8.457047321977692 14.063746409555 1:-0.336481 2:-0.0289061 3:0.0588474 4:0.0642499 5:-0.131551 6:-0.140166 7:-0.258966 8:-0.226136 9:0.0661375 10:-0.0573691 11:0.108633 12:0.0350734 13:-0.0752194 14:-0.372748 15:-0.392078 16:-0.326964 17:0.206639 18:-0.289218 
-1.674612153428758 -1.466649843597247 -0.8961956168259192 -0.4161666618114407 1.581842239231265 1.212613932445198 1:-0.45375 2:-0.423716 3:0.918565 4:0.35185 5:-0.102716 6:-0.133756 7:-0.542023 8:-0.11837 9:0.854823 10:-0.0509056 11:0.858133 12:0.10836 13:-1 14:0.86423 15:0.203398 16:0.177138 17:0.264938 18:-0.398101 
-1.320190787829305 -1.213476359482254 -0.6673065277363839 -0 5.717774802757452 0.2570146042688512 1:0.209262 2:0.171008 3:-0.0820312 4:-0.0176825 5:-0.123424 6:0.0200623 7:-0.384099 8:-0.159539 9:0.163321 10:-0.129792 11:0.144536 12:-0.00560345 13:-0.0771363 14:-0.511919 15:-0.44311 16:-0.217287 17:0.792076 18:-0.54384 
-0 -0 -0 -0 0.9631197526338026 0 1:0.213928 2:0.190147 3:-0.174674 4:0.0662712 5:-0.304478 6:-0.0709265 7:-0.390901 8:-0.190019 9:-0.0200242 10:-0.124659 11:0.109459 12:0.0673647 13:-0.318309 14:-0.545119 15:-0.246439 16:-0.257616 17:0.632816 18:-0.50921 
-0 -0 -9.536809364178986 -0 0 0.8549883260081977 1:-0.194537 2:-0.103623 3:0.0738577 4:0.142298 5:0.0925829 6:0.335948 7:-0.407473 8:-0.0794037 9:0.141426 10:-0.13413 11:0.218291 12:-0.105932 13:-0.0339978 14:-0.383334 15:-0.530885 16:-0.410811 17:0.343762 18:-0.428849 
-0.09327632404774212 -2.096090436150847 -5.030160226490623 -0.09381762619639158 0 0.4151126366654088 1:-0.225495 2:-0.250917 3:0.105161 4:-0.0112603 5:-0.0732319 6:0.37125 7:-0.481687 8:-0.157406 9:0.195794 10:-0.293464 11:0.153377 12:-0.0565027 13:-0.0653813 14:-0.362229 15:-0.511422 16:-0.414252 17:0.300609 18:-0.397449 
-1.596456160443084 -0.7349969825184943 -0 -0 5.152074781655047 0 1:0.157466 2:0.765542 3:-0.271359 4:0.300581 5:0.0610045 6:-0.0734106 7:-0.433675 8:-0.416788 9:-0.177031 10:-0.0983343 11:-0.145604 12:0.304218 13:0.0671635 14:-0.363165 15:-0.418945 16:-0.291796 17:0.377189 18:-0.390098 
-0 -0 -0 -15.43415293565973 0 0 1:-0.271149 2:0.00995095 3:-0.238016 4:0.0305948 5:-0.114661 6:0.263597 7:-0.0891835 8:0.0522042 9:-0.0486072 10:0.0513688 11:0.0729727 12:0.0789085 13:0.150467 14:-0.383097 15:-0.600933 16:-0.0929979 17:0.101043 18:-0.395466 
-0 -0 -5.234214381692802 -0 0 0 1:0.272758 2:0.539849 3:-0.220245 4:0.120256 5:-0.341224 6:0.330581 7:-0.186788 8:-0.416667 9:-0.179507 10:-0.396968 11:-0.0791073 12:0.0771559 13:-0.0779589 14:-0.348102 15:-0.311615 16:-0.243944 17:0.188634 18:-0.657059 
-0.5374864084680642 -0.5664053500445546 -3.244329942308022 -0.1701821333697698 1.604107223597322 1.363518246422055 1:0.169619 2:0.378727 3:0.160087 4:0.192001 5:0.145342 6:0.120067 7:-0.18469 8:-0.490951 9:-0.238973 10:-0.71915 11:-0.188189 12:0.315963 13:0.0359679 14:-0.410837 15:-0.0299015 16:-0.258522 17:0.0846081 18:-0.692496 
-0 -0 -0 -2.086766679704353 1.971799737170104 1.004848855061626 1:-0.0843926 2:-0.0724029 3:-0.487634 4:0.0533458 5:0.571109 6:-0.524939 7:-0.227471 8:0.316991 9:0.305082 10:0.450111 11:-0.117719 12:0.292411 13:-0.0110146 14:-0.169044 15:-0.362018 16:-0.38212 17:-0.122286 18:-0.306887 
-0.1100739031592351 -0.4143093069558743 -0 -3.244635816339171 0.8726582758692439 0.726630223690227 1:-0.139199 2:-0.332446 3:-0.538518 4:-0.246846 5:-0.130567 6:-0.35722 7:-0.190796 8:0.304692 9:0.365132 10:0.332002 11:-0.243002 12:0.0686503 13:-0.522402 14:-0.349768 15:-0.340473 16:-0.269393 17:-0.234279 18:-0.335979 
-7.931874553164758 -5.129573388814996 -1.7125338418063 -13.91142072267382 2.415969809226194 5.799207542309945 1:-0.122325 2:-0.0135661 3:-0.170466 4:0.117998 5:0.300114 6:0.275414 7:-0.376526 8:0.059586 9:-0.132161 10:0.0554834 11:-0.00905698 12:-0.35992 13:0.174031 14:-0.437108 15:-0.478434 16:-0.360708 17:0.270918 18:-0.378718 
-1.803345164612398 -2.964951165742288 -0 -6.199209087088604 0 0 1:-0.182384 2:-0.149469 3:-0.21783 4:-0.00872832 5:-0.133156 6:0.329878 7:-0.263358 8:0.0951413 9:-0.104456 10:0.0711262 11:-0.0224933 12:-0.287699 13:-0.231218 14:-0.509556 15:-0.45348 16:-0.325938 17:0.242491 18:-0.313456 
-0 -0 -0 -0 1.665769647476977 0 1:0.250065 2:-0.588101 3:-0.101457 4:0.223124 5:0.126957 6:0.461024 7:-0.161708 8:0.250035 9:-0.21579 10:-0.107189 11:-0.0409244 12:-0.000668202 13:0.458541 14:-0.268757 15:-0.351023 16:-0.205605 17:-0.345158 18:-0.471243 
-0.3481714153241866 -0.3620889204476473 -0 -0 0 0.08950553445551306 1:0.439751 2:0.0392105 3:-0.26655 4:0.339044 5:0.13599 6:0.806886 7:0.105976 8:-0.208159 9:-0.16461 10:-0.155586 11:-0.66403 12:0.508221 13:-0.0398051 14:-0.296281 15:-0.12234 16:-0.134388 17:-0.586882 18:-0.679274 
-0.522128453466827 -1.015887638908379 -0.4231074963492021 -0 0.3079480665063218 0.310359618140505 1:0.192458 2:-0.211507 3:-0.148933 4:0.192526 5:-0.291567 6:0.557226 7:0.0297103 8:-0.177625 9:-0.0227828 10:-0.0945709 11:-0.793472 12:0.365485 13:0.121818 14:-0.223847 15:-0.200006 16:-0.113167 17:-0.681916 18:-0.5721 
-0 -0 -0 -1.176621515258337 0 0 1:0.106871 2:0.39449 3:-0.454579 4:0.156619 5:0.0748938 6:0.259955 7:-0.19527 8:-0.774806 9:0.0537586 10:-0.064857 11:0.177907 12:0.00723086 13:0.13312 14:-0.265063 15:-0.485198 16:-0.319756 17:0.276652 18:-0.645982 
-0 -0 -0 -4.827116623060034 0 0 1:0.0340446 2:0.291374 3:-0.36718 4:0.0648786 5:-0.0708611 6:0.232159 7:-0.25033 8:-0.758186 9:0.0766478 10:-0.160526 11:0.113848 12:-0.0410689 13:-0.323969 14:-0.344622 15:-0.482257 16:-0.304536 17:0.145622 18:-0.601355 
-0 -0 -0 -5.1371248925086 0 0 1:-0.134057 2:-0.718488 3:-0.243682 4:0.0586977 5:0.304541 6:0.232538 7:-0.297075 8:0.249612 9:0.129289 10:0.278752 11:-0.0702927 12:0.264056 13:-0.0273334 14:-0.283002 15:-0.528392 16:-0.444659 17:0.102396 18:-0.283165 
-0 -0 -0 -3.807526016806223 0 0 1:-0.128662 2:-0.776184 3:-0.310144 4:-0.130122 5:0.0327346 6:0.368157 7:-0.237062 8:0.298509 9:0.154052 10:0.314252 11:-0.0854932 12:0.238943 13:-0.151111 14:-0.37966 15:-0.357668 16:-0.339447 17:-0.0152255 18:-0.294564 
-1.645229018302079 -0.3655667892841674 -2.417957250519592 -3.196665466293714 0 7.117890038639286 1:-0.283391 2:0.4564 3:-0.106505 4:0.375814 5:0.295533 6:-0.0836383 7:0.160789 8:-0.225413 9:0.0677588 10:-0.159908 11:0.180212 12:0.093333 13:-0.0697 14:-0.603688 15:-0.35131 16:-0.0517009 17:-0.163906 18:-0.470443 
-1.735469889973891 -0.2667380882295058 -2.892606364464195 -0 1.004328899743844 4.548055074115258 1:-0.288801 2:0.500201 3:-0.393689 4:0.167826 5:-0.488354 6:0.167961 7:0.137931 8:-0.227756 9:0.128265 10:0.147364 11:0.309035 12:0.0530589 13:0.074016 14:-0.576906 15:-0.348165 16:-0.112981 17:-0.254479 18:-0.408051 
-3.98591463078629 -0.1334659568659151 -4.08229435343549 -0 1.584811850800202 6.131595594282503 1:-0.136227 2:0.282999 3:0.134896 4:0.11266 5:0.214022 6:0.196734 7:-0.223178 8:0.178134 9:0.107537 10:-0.302142 11:-0.178313 12:-0.139465 13:-0.182496 14:-0.375854 15:-0.85377 16:-0.219252 17:-0.146295 18:-0.352996 
-0.2274303671042125 -0 -0.7333698648311605 -0 1.859980518753826 1.6520285728952 1:-0.0371712 2:0.252308 3:-0.117032 4:-0.0437877 5:-0.26853 6:0.52145 7:-0.144881 8:0.292281 9:0.0949902 10:-0.186332 11:-0.126405 12:-0.283058 13:-0.250058 14:-0.436487 15:-0.842992 16:-0.172641 17:-0.0967831 18:-0.283331 
-1.170173878662665 -0.9732769546890291 -0.8681430502688154 -0 0 0 1:0.0792828 2:0.103874 3:0.344811 4:0.101366 5:-0.541932 6:-0.311024 7:-0.488632 8:-0.273908 9:0.155308 10:-0.716505 11:0.550425 12:-0.0447173 13:-0.925511 14:-0.424615 15:-0.655072 16:-0.106176 17:0.148918 18:-0.523927 
-1.136342530662893 -0 -1.149200242996235 -0 5.849685799972208 5.168654112287424 1:0.132453 2:0.237211 3:0.217818 4:0.254247 5:-0.560542 6:-0.32011 7:-0.392738 8:-0.0575392 9:0.272745 10:-0.488374 11:0.43928 12:-0.229451 13:-0.0897213 14:-0.479963 15:-0.623973 16:-0.169422 17:0.251825 18:-0.357621 
-0 -0 -8.225741413309224 -0 0 1.436266036930504 1:-0.0893905 2:-0.166673 3:0.231127 4:0.275332 5:-0.104084 6:0.21476 7:0.0618333 8:0.115148 9:0.363469 10:-0.147864 11:0.326792 12:-0.0265778 13:0.192776 14:-0.421324 15:-0.611437 16:-0.120219 17:-0.169673 18:-0.577679 
-2.017580917535887 -1.571400303483562 -1.405131848577776 -0.1734886509655428 1.46767008910122 1.722189579667072 1:-0.121183 2:0.42868 3:-0.0873646 4:-0.0262212 5:-0.591417 6:0.137752 7:-0.0026904 8:-0.331318 9:0.501715 10:0.809257 11:-0.164863 12:0.0965579 13:-0.500182 14:-0.110697 15:-0.795599 16:-1 17:0.113395 18:-0.464139 
-0 -0 -2.931174795773219 -0 0 0 1:-0.218635 2:-0.218087 3:-0.413742 4:0.311279 5:0.0163939 6:0.477186 7:0.105553 8:0.279153 9:-0.353213 10:-0.101776 11:0.353459 12:0.153779 13:-0.152145 14:-0.644715 15:-0.183885 16:-0.645514 17:0.584379 18:-0.27504 
-0 -0 -1.491793358987669 -0 0 0 1:-0.164702 2:-0.254301 3:-0.396306 4:0.17688 5:-0.144923 6:0.596124 7:0.0807174 8:0.174213 9:-0.373156 10:-0.153976 11:0.279071 12:0.314013 13:0.0911534 14:-0.628865 15:-0.091625 16:-0.582417 17:0.511702 18:-0.267177 
-1.187160550718421 -0.9888655194462806 -1.569360997865789 -0.7802634861668513 -1.226535576541786 0.3391181986514454 1:0.189454 2:-0.355315 3:0.0491342 4:-0.0490204 5:-0.430126 6:0.423902 7:-0.17504 8:0.259251 9:0.135304 10:-0.535869 11:-0.357555 12:-0.535868 13:-0.382824 14:-0.58046 15:-0.430021 16:-0.334987 17:0.257781 18:0.0840899 
-0 -0 -0.3716711411580175 -0 -0 1.322852320757565 1:0.139456 2:-0.320656 3:0.201962 4:0.177555 5:0.0658761 6:0.164125 7:-0.117755 8:0.245776 9:0.154529 10:-0.47358 11:-0.329654 12:-0.332502 13:0.364196 14:-0.429556 15:-0.260311 16:-0.334661 17:0.311852 18:0.0213526 
-0 -0 -0 -1.010141362517833 -0 0 1:0.20439 2:-0.164511 3:0.0983799 4:-0.185415 5:0.100197 6:-0.439718 7:-0.343885 8:-0.0176079 9:-0.389326 10:0.373307 11:0.410565 12:-0.124084 13:-0.317585 14:-0.492686 15:-0.447909 16:0.0163267 17:0.194719 18:-0.523348 
-0 -0 -0 -0.8520735712751791 -0 0 1:0.210387 2:0.0870199 3:-0.123035 4:0.0522178 5:-0.209576 6:-0.360042 7:-0.329308 8:-0.0728776 9:-0.5989 10:0.450629 11:0.28023 12:0.0202972 13:-0.0510585 14:-0.496234 15:-0.487424 16:0.0406487 17:0.154076 18:-0.471663 
-0 -0 -0.2333722996372919 -0 -0 1.494927791857799 1:0.179405 2:0.472878 3:0.295377 4:0.0629584 5:0.0522298 6:0.266643 7:0.0553569 8:0.105289 9:0.360935 10:-0.495187 11:0.247976 12:-0.354654 13:-0.0956597 14:-0.549411 15:-0.148366 16:-0.0845674 17:0.333998 18:0.080479 
-0.5302828138865024 -0 -0.3152470191819792 -0 -0 0.6030662264884609 1:0.241561 2:0.25087 3:0.26075 4:-0.116825 5:-0.0978286 6:0.40833 7:-0.0214383 8:0.180053 9:0.329007 10:-0.580805 11:0.216558 12:-0.388838 13:0.570592 14:-0.460668 15:-0.415114 16:-0.0520155 17:0.409033 18:0.0704119 
-0 -0.07482381922173356 -0 -0.8175833639650043 -2.027298210159349 0.3492192171835568 1:0.238285 2:-0.097504 3:-0.266819 4:0.434638 5:0.50033 6:-0.263462 7:-0.292062 8:0.34792 9:0.293015 10:0.0786099 11:0.0164025 12:0.180546 13:0.388396 14:-0.5759 15:-0.122141 16:-0.261222 17:0.237379 18:-0.114414 
-0 -0.2094517170781268 -0 -0.9693976567039918 -0 0 1:0.243827 2:-0.0356988 3:-0.521244 4:0.204134 5:-0.172437 6:-0.149 7:-0.501312 8:0.322207 9:0.268105 10:0.179852 11:-0.181294 12:0.0573391 13:0.550603 14:-0.543693 15:-0.335177 16:-0.0341555 17:0.275928 18:-0.25562 
-0.4583493158239303 -0.3736149668151655 -1.371274230594998 -0 -0 0.5715821427436928 1:0.153703 2:-0.394436 3:0.838133 4:0.0311029 5:0.288495 6:0.109193 7:-0.252163 8:-0.0564421 9:-0.582467 10:0.00671213 11:0.244731 12:-0.256379 13:-0.0692356 14:-0.444454 15:-0.466805 16:-0.164174 17:-0.0250478 18:-0.582487 
-1.355779934377449 -0.6897429452691963 -0.8731828140457749 -0.2712247922950318 -0.3655360388226211 1.08190429447446 1:0.188878 2:-0.00540177 3:0.948244 4:-0.000680889 5:0.508803 6:-0.0664625 7:-0.169222 8:-0.432049 9:-0.35828 10:0.177905 11:0.370798 12:-0.394581 13:0.292862 14:-0.354289 15:-0.438085 16:0.143486 17:-1 18:-0.57251 
-0.8210232638565171 -0.1710697323327361 -0 -0 -0 0.3017120873500247 1:0.150404 2:0.173308 3:0.086401 4:-0.0287342 5:-0.228648 6:0.082424 7:-0.730775 8:0.0425114 9:-0.616677 10:0.62097 11:0.26567 12:-0.0571086 13:-0.259075 14:-0.591333 15:-0.6114 16:-0.170258 17:0.115977 18:-0.347423 
-1.032328624930508 -1.040148394806854 -0 -0.4615333665220215 -0 0 1:0.154821 2:0.18655 3:0.13484 4:0.112667 5:0.164626 6:-0.0674808 7:-0.727039 8:-0.0588286 9:-0.60567 10:0.609252 11:0.0846903 12:-0.0105814 13:-0.0422869 14:-0.556872 15:-0.395011 16:-0.00190426 17:0.106785 18:-0.39835 
-0.1102815312087299 -0 -0 -0 -0 0 1:0.344503 2:0.170981 3:0.121335 4:-0.0150633 5:-0.362569 6:-0.0289216 7:-0.581846 8:-0.484484 9:0.0625945 10:0.615319 11:0.90568 12:0.0694795 13:-0.258813 14:-0.73547 15:0.262947 16:-0.0859056 17:0.421594 18:-0.111933 
-1.319989696810242 -1.498853165227923 -0.4526305505434648 -0.4776855878535954 -0 1.299429545949412 1:0.0695706 2:-0.581543 3:0.39223 4:-0.107758 5:-0.0226559 6:0.150417 7:-0.173926 8:-0.162021 9:-0.632797 10:0.289066 11:0.112196 12:-0.402177 13:0.869905 14:-0.434274 15:-0.000623751 16:-0.106269 17:0.273993 18:-0.255022 
-0.493361801732857 -0.9387663755905944 -0.1843622938298134 -0.2874642399868886 -0 0 1:0.567252 2:0.0934846 3:0.0646122 4:-0.199713 5:0.0390143 6:-0.233449 7:-0.0052049 8:-0.12652 9:0.707836 10:1 11:-0.0873149 12:-0.00557231 13:-0.0571812 14:-1 15:-0.20727 16:-0.634289 17:0.652248 18:0.608647 
-0.3955988008997426 -0 -0.9837059160007726 -0.03254466446218265 -0 0.9085213591466911 1:0.592913 2:0.254534 3:-0.0257144 4:-0.0194464 5:-0.30778 6:-0.106086 7:0.618097 8:0.301952 9:0.377358 10:0.234057 11:0.671688 12:-0.230979 13:0.177861 14:-0.583345 15:-0.658772 16:0.164112 17:-0.223623 18:-0.0352605 
-0 -0 -0 -0 -0.140072835476564 0 1:0.746599 2:0.0689923 3:0.129896 4:0.00542497 5:0.146734 6:0.106614 7:0.45667 8:0.264862 9:0.37307 10:-0.0760607 11:0.620115 12:-0.0686573 13:0.32154 14:-0.538361 15:-0.716171 16:0.290432 17:-0.0767674 18:0.0800338 
-0 -0 -0.5025784164961739 -0 -0 1.376689127353904 1:0.0579719 2:0.302763 3:0.0284172 4:0.222331 5:0.298087 6:-0.0520332 7:-0.164309 8:0.227786 9:0.492823 10:-0.387707 11:0.239638 12:0.337027 13:0.196109 14:-0.368987 15:-0.622016 16:-0.548469 17:0.271928 18:0.209958 
-0 -0 -1.496654160527928 -0 -5.436568484171367 2.492274159780071 1:0.0390845 2:0.170833 3:-0.186435 4:-0.0304209 5:-0.366949 6:0.0294193 7:-0.119741 8:0.252801 9:0.416003 10:-0.227721 11:0.0836527 12:0.10065 13:0.169493 14:-0.390368 15:-0.682935 16:-0.395948 17:0.275814 18:-0.0373646 
-0.3551152736628487 -0 -0 -0 -0 0 1:0.715279 2:0.677965 3:0.130585 4:-0.205497 5:0.231738 6:0.110529 7:-0.324903 8:-0.222628 9:-0.591761 10:0.182923 11:0.063554 12:0.30118 13:0.0476363 14:-0.512586 15:-0.574061 16:0.0749332 17:0.0934279 18:-0.499179 
-2.617794556638526 -1.612241929918014 -4.424050705730278 -0.9634773368656149 -0 5.087599517257043 1:-0.0427725 2:0.531308 3:0.171157 4:-0.0572022 5:0.310399 6:-0.395569 7:-0.345885 8:-0.0769311 9:-0.0433573 10:-0.198464 11:0.177958 12:-0.44969 13:0.0882863 14:-0.557284 15:-0.179808 16:-0.44572 17:0.214759 18:-0.682304 
-0 -0 -1.46417339061699 -0.2742132609895497 -0 2.710470839432841 1:-0.0497829 2:0.585479 3:-0.0303694 4:-0.131875 5:-0.0424627 6:-0.343008 7:-0.328965 8:-0.116089 9:-0.115635 10:-0.0547881 11:-0.059434 12:-0.306128 13:0.658415 14:-0.37263 15:-0.391917 16:-0.372348 17:0.257873 18:-0.559552 
-1.497171011671315 -0.270169549127629 -0 -0 -0.1297026227695005 0 1:0.126295 2:-0.116004 3:0.388596 4:0.0504465 5:-0.2319 6:0.0650329 7:-0.392157 8:0.0520788 9:-0.578054 10:-0.337725 11:-0.0899201 12:0.21088 13:0.212625 14:-0.526438 15:-0.154116 16:-0.211742 17:0.29951 18:-0.389258 
-0 -1.123990342311036 -0 -0 -0 0 1:0.145373 2:-0.0963487 3:0.303655 4:0.139247 5:-0.235474 6:-0.133305 7:-0.457714 8:-0.0584526 9:-0.500098 10:-0.149049 11:-0.259577 12:0.170012 13:-0.486879 14:-0.617827 15:-0.0799793 16:-0.445282 17:0.31348 18:-0.0805445 
-0 -0 -0 -0 -6.653773006367757 0 1:0.176136 2:0.272358 3:-0.159572 4:0.0198409 5:-0.241501 6:-0.275014 7:-0.228913 8:-0.215661 9:-0.0343243 10:0.00449083 11:0.146664 12:-0.319459 13:0.0483898 14:-0.454389 15:-0.402641 16:-0.344123 17:0.172228 18:-0.332267 
-0 -0 -0 -0 -0.9870315118761378 0 1:0.0907769 2:-0.0648231 3:0.356002 4:0.089941 5:-0.221411 6:0.25998 7:-0.233253 8:-0.073065 9:-0.0550417 10:0.46039 11:0.494985 12:-0.141866 13:-0.172114 14:-0.51666 15:-0.462185 16:-0.261308 17:0.404203 18:-0.00618191 
-0.6010677568775855 -1.139407901333602 -0.0157202817078678 -0.1137653075059019 -0.8137467822769583 0.4071369295598884 1:0.102439 2:-0.0461525 3:0.341249 4:0.200069 5:-0.0167193 6:0.139713 7:-0.176331 8:-0.167906 9:-0.114282 10:0.482516 11:0.576533 12:-0.310732 13:-0.52295 14:-0.709785 15:-0.484703 16:-0.306327 17:0.373046 18:0.0558941 
-0.8744635340407229 -5.177352428836094 -1.94253430003753 -2.523773590505554 -5.346334940213493 4.696304055990283 1:-0.0737679 2:-0.416423 3:0.184703 4:0.0681436 5:-0.262665 6:-0.307797 7:-0.448056 8:-0.0798278 9:0.0311285 10:-0.0603563 11:-0.12249 12:-0.0341189 13:0.0681224 14:-0.417813 15:-0.365068 16:-0.344002 17:0.242311 18:-0.463564 
-1.306013113512955 -0.8792027842672866 -1.411126898441159 -0.3888614574484218 -1.510762069246737 1.043250626835135 1:-0.0665059 2:-0.753344 3:0.95241 4:0.293559 5:-0.0769036 6:-0.471223 7:-0.802602 8:0.0958124 9:0.972836 10:-0.213294 11:0.871566 12:0.251934 13:-0.72727 14:-0.101114 15:-0.323496 16:-0.443783 17:-0.00935785 18:-0.401393 
-0.3443946883411153 -0.7789515295988183 -0.4776210823785971 -0.6582422874146525 -0.1168223358523868 0.5568132397621203 1:0.514903 2:-0.965386 3:0.0787883 4:0.149831 5:0.147836 6:-0.04345 7:-0.194223 8:-0.193572 9:0.59403 10:-0.245649 11:-0.385777 12:-0.819999 13:-0.126651 14:-0.825596 15:-0.18739 16:-0.0334939 17:-0.296183 18:-0.193955 
-0 -0 -0.7387810020606881 -0 -0.3521873958300001 0.2940105787599386 1:0.427104 2:0.172134 3:0.196503 4:-0.135511 5:-0.532231 6:-0.037283 7:-0.450207 8:0.362433 9:-0.520249 10:-0.226976 11:0.352924 12:0.292283 13:-0.192675 14:-0.419851 15:-0.51638 16:-0.0915435 17:0.000198976 18:-0.415317 
-0.5449925395544641 -0 -0.5710629924398166 -0 -1.624204180541355 3.255849559226635 1:0.310651 2:0.24019 3:0.391169 4:0.206572 5:0.132632 6:-0.439379 7:-0.396533 8:0.282046 9:-0.446878 10:-0.361163 11:0.356999 12:0.30395 13:-0.292766 14:-0.501754 15:-0.394475 16:-0.0830505 17:-0.00964444 18:-0.488017 
-0 -0 -0 -0 -0.1310742776343959 0 1:0.451367 2:0.356793 3:0.474781 4:0.207135 5:0.307796 6:-0.112939 7:-0.479604 8:-0.19049 9:0.231863 10:-0.0666812 11:0.546312 12:0.161262 13:0.022279 14:-0.535646 15:-0.471903 16:-0.0751562 17:0.476139 18:-0.324207 
-0.5798043451520787 -0.7255058322971862 -0.1248008127386508 -0 -0 0.4265331508187324 1:0.0448008 2:0.066999 3:1 4:0.176579 5:0.247052 6:-0.530644 7:-0.256362 8:-0.440876 9:-0.0126627 10:-0.573986 11:-0.456676 12:0.512911 13:-0.0689588 14:-0.731812 15:-0.0131973 16:0.46448 17:-0.0519987 18:-0.323628 
-0.7773699756440862 -0.01579074319390934 -0.7572678480297059 -0 -0 1.626132052356253 1:0.1623 2:0.813045 3:0.701346 4:0.109956 5:0.121318 6:-0.319362 7:0.0254979 8:0.14163 9:0.429599 10:0.327288 11:-0.30341 12:-0.308621 13:-0.136711 14:-0.477136 15:-0.615674 16:-0.0724977 17:0.148821 18:0.0723568 
-0 -0 -0 -0 -0 0.08653060045953725 1:0.149941 2:0.675873 3:0.569939 4:-0.0344335 5:-0.331158 6:-0.272915 7:0.0279884 8:0.134215 9:0.383607 10:0.1686 11:-0.27293 12:-0.257279 13:0.188236 14:-0.47798 15:-0.747704 16:0.031789 17:0.17804 18:0.0901407 
-0.8514904529963978 -0.4110427642109285 -0.6795268032261458 -0.5954013708537819 -0.8445412971489459 1.169466462942457 1:0.3996 2:-0.0712705 3:-0.216876 4:0.175242 5:-0.181056 6:-0.449755 7:0.614942 8:-0.0662482 9:0.19963 10:0.946018 11:-0.184897 12:0.242947 13:0.0606284 14:-0.568201 15:-0.135202 16:-0.116084 17:0.150416 18:-1 
-0.860492467577666 -0.9399680147423148 -0 -0.08260551535363521 -0.4869163777614863 0 1:0.417583 2:-0.158569 3:-0.150295 4:0.151297 5:-0.123517 6:-0.496502 7:0.638182 8:-0.133654 9:0.082625 10:0.742528 11:-0.460055 12:0.29454 13:-0.173984 14:-0.651756 15:-0.294226 16:-0.00502303 17:0.40648 18:-0.897509 
-0 -0 -0 -0 -0.6312660789924347 0 1:0.419607 2:-0.251939 3:0.187367 4:0.20798 5:-0.142531 6:-0.0361318 7:0.0958501 8:-0.391187 9:-0.36 10:0.147865 11:0.361947 12:-0.0422375 13:0.0163542 14:-0.427385 15:-0.309467 16:-0.0660876 17:0.108686 18:-0.269686 
-0 -0 -0 -0.004496781552531319 -0 0 1:0.613945 2:-0.199748 3:-0.351902 4:-0.0953025 5:-0.109704 6:-1 7:-0.70078 8:-0.421005 9:0.174634 10:0.0743447 11:-0.681141 12:-0.079878 13:-0.284091 14:-0.402142 15:-0.175513 16:-0.096794 17:0.18278 18:-0.203758 
-0 -0 -0 -0 -0.7961283192253716 0 1:0.593111 2:0.205448 3:-0.0140599 4:0.12141 5:0.126924 6:-0.603051 7:-0.690692 8:-0.600921 9:0.389836 10:-0.319581 11:-0.23618 12:-0.196295 13:-0.152593 14:-0.556719 15:-0.442785 16:0.0578285 17:0.266763 18:-0.921512 
-0.5536620174221076 -0.7633234716050531 -0 -0 -1.060194345242145 0 1:0.158246 2:0.55992 3:0.248981 4:0.123771 5:-0.335839 6:-0.0929278 7:-0.93872 8:-0.673699 9:-0.320373 10:0.112474 11:-0.0238397 12:0.305217 13:-0.113185 14:-0.568047 15:-0.353575 16:0.139243 17:0.595162 18:-0.308066 
-0 -0.9004696755922552 -0 -0.2756103154464435 -0 0.6039299844561545 1:0.0707737 2:0.277712 3:-0.0913756 4:0.191304 5:0.119357 6:-0.795318 7:-0.327698 8:0.0347467 9:0.167122 10:0.0865797 11:0.256546 12:-0.6638 13:0.155912 14:-0.693556 15:-0.281958 16:-0.188177 17:0.23045 18:-0.704441 
-1.119467572729419 -0.5090472141421459 -0 -0 -0 1.273062188403246 1:0.0413193 2:0.319016 3:-0.20933 4:0.134967 5:-0.450551 6:-0.636424 7:-0.31822 8:-0.0142374 9:0.052122 10:0.104297 11:0.100357 12:-0.575715 13:0.140603 14:-0.690567 15:-0.241123 16:-0.195916 17:0.267664 18:-0.462367 
-0 -1.155610481728266 -0 -0.06653861409983687 -0 0.1994703579487526 1:0.144172 2:-0.155932 3:0.0894678 4:-0.161947 5:-0.34681 6:0.447676 7:-0.307927 8:0.375032 9:-0.61564 10:0.447512 11:-0.274124 12:-0.036382 13:-0.181637 14:-0.617962 15:-0.752996 16:-0.0902922 17:0.282906 18:-0.194253 
