svm_type c_svc
kernel_type rbf
gamma 2
nr_class 4
total_sv 1123
rho -0.722567 -1.13386 -0.747957 -0.594912 0.0162942 -0.106405
label 1 3 2 4
probA -5.02159 -3.97618 -5.79601 -5.46786 -5.92904 -4.75457
probB 0.0234972 -0.126348 0.176116 0.26185 -0.431683 -0.325822
nr_sv 428 202 218 275
SV
1.177348085744723 0 0.02880344071548862 1:-0.254821 2:-0.25654 3:-0.12562 4:0.195756 5:-0.190663 6:-0.146353 7:-0.0754822 8:-0.332099 9:0.199146 10:0.190341 11:-0.0151556 12:-0.278994 13:-0.208995 14:-0.431035 15:-0.0123428 16:-0.00602535 17:-0.534592 18:0.196225 
0 1.410664490525046 0 1:0.193777 2:-0.304188 3:-0.191626 4:0.106535 5:-0.457272 6:-0.208077 7:-0.129088 8:-0.183436 9:0.311311 10:-0.294782 11:0.0365877 12:-0.00791861 13:-0.230453 14:-0.383805 15:0.10594 16:-0.163905 17:-0.519142 18:0.329275 
0.2263830328058633 0 0.3120328695666608 1:-0.441538 2:0.597677 3:-0.235299 4:0.000686833 5:0.0343555 6:0.052603 7:0.372524 8:0.341023 9:0.233154 10:-0.400415 11:0.271263 12:-0.17142 13:-0.420162 14:-0.381468 15:-0.0480968 16:0.871993 17:-0.422812 18:-0.0408659 
0.2134120321970681 0 0 1:0.0517125 2:-0.406166 3:-0.254514 4:0.102888 5:-0.5496 6:-0.179474 7:-0.175324 8:-0.159921 9:0.305202 10:-0.391598 11:0.00180234 12:0.13381 13:-0.217545 14:-0.310671 15:0.0678637 16:-0.167748 17:-0.575846 18:0.454472 
0.2121073548819673 0 0.1634312181128009 1:-0.568568 2:0.42224 3:-0.501205 4:0.0902707 5:-0.308415 6:0.344874 7:0.47451 8:0.17066 9:0.06006 10:-0.568486 11:0.19313 12:-0.380257 13:-0.571938 14:-0.180452 15:0.0798183 16:0.858333 17:-0.598836 18:-0.176266 
0.252082233185494 0 0 1:0.0946018 2:-0.388571 3:-0.158102 4:0.294486 5:-0.398567 6:-0.294028 7:-0.401686 8:-0.192602 9:0.750573 10:0.348394 11:0.352412 12:0.301176 13:-0.0897192 14:0.0739489 15:0.212257 16:-0.474772 17:-0.32393 18:0.239827 
0.2109017246547509 0.3190662282414026 0.1523087513099985 1:0.154702 2:-0.407913 3:-0.371534 4:0.116406 5:-0.666437 6:-0.177499 7:-0.28171 8:-0.0121895 9:0.493391 10:0.175216 11:0.327341 12:0.216294 13:0.105209 14:-0.109173 15:0.290745 16:-0.529267 17:-0.494373 18:0.235477 
0 0.9344184490192358 0.8339043657206863 1:0.0759665 2:-0.271153 3:-0.0977586 4:0.065097 5:-0.628899 6:-0.206201 7:-0.275087 8:-0.163004 9:0.174036 10:-0.479977 11:0.0926321 12:-0.124692 13:-0.26245 14:-0.297311 15:0.0885225 16:-0.0263329 17:-0.518398 18:0.225549 
0.2712424850486056 0 0.2444054741225911 1:-0.555635 2:0.159684 3:-0.481725 4:0.042637 5:-0.690169 6:0.217225 7:0.213538 8:-0.158604 9:-0.421974 10:-0.902395 11:0.39158 12:0.0244432 13:-0.247379 14:0.324585 15:0.174284 16:1 17:-0.575057 18:0.272657 
0.1113492325354 0 0 1:-0.0783316 2:-0.219294 3:-0.0459192 4:0.00306172 5:-0.398612 6:-0.322489 7:-0.344456 8:-0.276736 9:0.268327 10:-0.474262 11:0.108431 12:-0.0459311 13:-0.326279 14:-0.218971 15:0.0407011 16:-0.0308146 17:-0.508318 18:0.328001 
0.135846972667821 0 0.1319168324400155 1:-0.326711 2:0.250895 3:0.221271 4:-0.296615 5:-0.237228 6:-0.268801 7:0.42584 8:-0.0760578 9:0.0688766 10:-0.33143 11:0.765854 12:0.367155 13:0.592872 14:-0.01036 15:-0.126825 16:0.363819 17:-0.552805 18:0.632079 
0.07335718304833998 0 0.337873817899132 1:-0.384164 2:-0.0327365 3:0.0309347 4:-0.339593 5:-0.111805 6:-0.539106 7:0.179827 8:0.109322 9:-0.166175 10:-0.272709 11:0.868901 12:0.310212 13:0.328099 14:-0.227739 15:-0.0815722 16:0.413284 17:-0.445496 18:0.465049 
3.272064302873256 3.248728202053199 1.267688666304571 1:-0.131472 2:-0.209767 3:-0.1308 4:-0.149215 5:-0.132824 6:-0.407372 7:-0.313907 8:-0.308066 9:0.10045 10:-0.172936 11:0.125574 12:-0.28488 13:-0.241366 14:-0.314035 15:0.0452787 16:-0.0180408 17:-0.518118 18:0.188268 
0.1830267550221946 0 0.1155673064392551 1:-0.552553 2:0.324254 3:0.210795 4:-0.454432 5:0.11526 6:-0.389193 7:0.272606 8:0.0164792 9:-0.104167 10:-0.017669 11:0.872653 12:0.431919 13:0.625054 14:0.141411 15:-0.0457926 16:0.456008 17:-0.340868 18:0.68923 
0.02910112564534231 0 0.323264354044706 1:0.123216 2:-0.235557 3:0.194237 4:-0.144819 5:-0.246806 6:-0.69976 7:0.134767 8:0.184035 9:-0.214773 10:-0.155661 11:1 12:-0.143923 13:-0.0268784 14:-0.587541 15:-0.172121 16:0.543005 17:-0.441716 18:0.487081 
0.1577910223536673 0 0.1259687505620351 1:-0.0942117 2:-0.0682386 3:0.248364 4:-0.301972 5:-0.279497 6:-0.569051 7:0.337583 8:0.000499308 9:-0.214166 10:-0.276706 11:0.968246 12:0.217229 13:0.532269 14:-0.253288 15:-0.330528 16:0.517877 17:-0.420421 18:0.281388 
0.4471148290995224 0.1806433377750365 1.007871685443496 1:-0.159155 2:-0.545703 3:-0.284284 4:0.404725 5:-0.0863644 6:-0.125776 7:-0.227453 8:-0.426354 9:-0.0435759 10:0.237522 11:0.291824 12:-0.0348445 13:-0.32712 14:-0.184819 15:0.00568225 16:0.168551 17:-0.427459 18:0.106675 
0.4407904812521202 0 2.540139737975197 1:0.221434 2:-0.12464 3:-0.0877818 4:-0.135324 5:-0.285873 6:-0.364709 7:-0.204816 8:-0.266828 9:0.0843068 10:-0.169123 11:0.0591438 12:-0.309244 13:-0.113307 14:-0.259125 15:0.0356099 16:-0.045923 17:-0.608297 18:0.128313 
0.01324769692342223 0 0 1:-0.013586 2:0.141732 3:0.310548 4:-0.279681 5:-0.197381 6:-0.691354 7:0.160973 8:0.273328 9:-0.0299254 10:-0.00384917 11:0.882268 12:0.073798 13:0.236575 14:-0.186752 15:-0.107995 16:0.39336 17:-0.476755 18:0.713916 
0 0 0.5749138147772473 1:0.397126 2:0.004752 3:0.142164 4:-0.34068 5:-0.229184 6:-0.799777 7:-0.0591601 8:0.566006 9:-0.193398 10:0.247433 11:0.760308 12:-0.200772 13:0.0284407 14:-0.172202 15:-0.0174323 16:0.0315606 17:-0.381693 18:0.426697 
0 5.240207106072767 0 1:0.585564 2:-0.116075 3:-0.0684073 4:-0.149604 5:-0.172951 6:-0.406825 7:-0.180667 8:-0.127942 9:0.0359327 10:-0.128161 11:0.00716072 12:-0.301892 13:-0.157213 14:-0.275061 15:0.0633303 16:-0.0394242 17:-0.641408 18:0.0527483 
0.1410244854035209 0 0.6003491005124956 1:0.643908 2:-0.187423 3:0.223497 4:-0.320594 5:-0.287101 6:-1 7:0.0896826 8:0.450976 9:-0.348373 10:-0.109573 11:0.653442 12:-0.211256 13:-0.0387357 14:-0.201901 15:-0.160073 16:0.208463 17:-0.46922 18:0.294125 
0 0 1.223601404487441 1:0.506479 2:-0.140236 3:-0.080883 4:-0.0237785 5:-0.12023 6:-0.364948 7:-0.176755 8:-0.170974 9:0.0714037 10:-0.0900238 11:0.067109 12:-0.249312 13:-0.112 14:-0.25438 15:0.0506246 16:-0.117141 17:-0.574337 18:0.205759 
0.117412990343847 0.2807923724425071 0.612521995304341 1:0.595421 2:-0.0772536 3:-0.52631 4:0.124065 5:-0.101919 6:-0.418741 7:-0.192579 8:-0.202941 9:0.00955829 10:-0.306265 11:0.576491 12:0.0815438 13:-0.61411 14:0.417934 15:0.183062 16:-0.0331133 17:-0.471084 18:0.328877 
0 0 0.5394622338838392 1:0.458845 2:-0.109559 3:-0.0504624 4:0.0364945 5:-0.068622 6:-0.377065 7:-0.130312 8:-0.141792 9:0.139751 10:-0.0583538 11:0.0576095 12:-0.229941 13:-0.0821605 14:-0.273528 15:0.00385635 16:-0.130039 17:-0.582722 18:0.18768 
0.2264271129555846 0 0.2528909893089096 1:0.609364 2:0.12187 3:0.0160995 4:0.232104 5:-0.0967219 6:-0.761296 7:-0.122155 8:-0.523591 9:0.329816 10:-0.130564 11:0.349732 12:0.0450299 13:-0.756209 14:1 15:-0.0923427 16:0.303537 17:-0.256054 18:0.301386 
0 11.21461161634461 0 1:0.434358 2:-0.131597 3:-0.0933527 4:0.055046 5:-0.00445178 6:-0.355272 7:-0.164043 8:-0.169302 9:0.0829241 10:-0.0907572 11:0.0250041 12:-0.229474 13:-0.0431303 14:-0.322618 15:0.00795257 16:-0.100494 17:-0.525697 18:0.225077 
0 32 26.36104225168494 1:0.434358 2:-0.131597 3:-0.0933527 4:0.055046 5:-0.00445178 6:-0.355272 7:-0.164043 8:-0.169302 9:0.0829241 10:-0.0907572 11:0.0250041 12:-0.229474 13:-0.0431303 14:-0.322618 15:0.00795257 16:-0.100494 17:-0.525697 18:0.225077 
0.5342187351623816 0 0.4240720138484031 1:0.870206 2:-0.0129449 3:0.00255812 4:0.512648 5:0.413127 6:-0.720037 7:0.0413436 8:0.409604 9:0.189457 10:0.314295 11:0.349432 12:-0.618693 13:0.186494 14:-0.348772 15:0.0813728 16:-0.260723 17:-0.372761 18:-0.043131 
0.371370672904955 2.52206710070227 2.115178637954625 1:-0.117742 2:-0.555575 3:-0.270482 4:0.250221 5:-0.1501 6:-0.145382 7:-0.213336 8:-0.404593 9:-0.137743 10:0.124116 11:0.289372 12:-0.204934 13:-0.15457 14:-0.328843 15:-0.0491043 16:0.168474 17:-0.544421 18:-0.0960102 
0.6625040512061986 0 0.1767203295513798 1:-0.235225 2:-0.33312 3:-0.177574 4:0.0806888 5:-0.336285 6:-0.190175 7:-0.231013 8:-0.32115 9:0.11014 10:0.000574635 11:0.00572091 12:-0.300321 13:-0.201403 14:-0.348082 15:0.070735 16:-0.0146626 17:-0.555398 18:0.213076 
0 0.1697808275135426 0 1:-0.125085 2:-0.586163 3:-0.277834 4:0.26969 5:-0.333806 6:-0.0339044 7:-0.286988 8:-0.317394 9:0.0223305 10:0.0670195 11:0.173614 12:-0.321553 13:-0.210157 14:-0.295077 15:0.0793691 16:0.123842 17:-0.625217 18:-0.0680205 
0 0 0.9393620418679972 1:-0.149265 2:-0.281802 3:-0.106831 4:0.169774 5:-0.427365 6:-0.146072 7:-0.151565 8:-0.234354 9:0.285796 10:-0.126717 11:-0.0145692 12:-0.127712 13:-0.202495 14:-0.344719 15:0.0115219 16:0.0323037 17:-0.543654 18:0.33289 
0.004287851194188804 0 0 1:-0.159646 2:-0.546785 3:-0.229271 4:0.34124 5:-0.331936 6:-0.139816 7:-0.29318 8:-0.274361 9:0.170769 10:-0.0195646 11:0.154335 12:-0.0189822 13:-0.359064 14:-0.267107 15:-0.00617773 16:0.281504 17:-0.493858 18:-0.0717057 
0.4122264628919851 0 0.08300305221740338 1:0.00533275 2:-0.240851 3:-0.125404 4:0.217233 5:-0.373698 6:-0.144601 7:-0.0579767 8:-0.147145 9:0.387134 10:-0.113909 11:-0.00190816 12:-0.115537 13:-0.141714 14:-0.250572 15:0.0451876 16:0.0181231 17:-0.511639 18:0.34319 
0 2.342562631333999 0.8044744163956781 1:0.0403763 2:-0.53496 3:-0.266281 4:0.492143 5:-0.259162 6:-0.111037 7:-0.231746 8:-0.217122 9:0.037893 10:-0.0597299 11:0.434476 12:-0.162954 13:-0.470247 14:-0.391188 15:-0.0782971 16:0.277612 17:-0.458093 18:0.133834 
0 0.06323569653355927 1.40290265816813 1:-0.133827 2:-0.31871 3:-0.0813248 4:0.291737 5:-0.457795 6:0.016768 7:-0.214618 8:-0.268614 9:0.154994 10:-0.253635 11:0.0147712 12:-0.280124 13:-0.154516 14:-0.247247 15:0.0357188 16:0.0779338 17:-0.528651 18:0.189358 
0 0 0.1964101807946195 1:-0.206492 2:-0.39529 3:-0.232466 4:0.550221 5:-0.301924 6:0.242696 7:-0.40689 8:-0.227902 9:-0.0549284 10:-0.211069 11:0.461205 12:-0.208216 13:-0.357124 14:-0.281801 15:-0.0933892 16:0.321889 17:-0.489623 18:0.279341 
0.8008017548037075 0 0 1:0.120214 2:-0.323673 3:-0.251958 4:0.221636 5:-0.422519 6:-0.0868462 7:-0.0618235 8:-0.0313786 9:0.319267 10:-0.0859505 11:-0.0293384 12:-0.198317 13:-0.182156 14:-0.410909 15:0.0881063 16:-0.144991 17:-0.558242 18:0.322524 
0.7487714004515178 0.5477813774826272 0 1:0.256753 2:-0.34039 3:-0.338333 4:0.154109 5:-0.532317 6:-0.117303 7:-0.088859 8:-0.110568 9:0.310156 10:-0.180475 11:-0.000260944 12:-0.0571916 13:-0.160732 14:-0.172969 15:0.19448 16:-0.223394 17:-0.565175 18:0.415716 
0.05845967403503744 0.1409856480016353 0.3833952715640124 1:0.271423 2:-0.1789 3:-0.316053 4:0.452146 5:-0.390855 6:-0.242761 7:-0.221886 8:-0.297509 9:0.232689 10:-0.105701 11:0.148798 12:-0.080335 13:-0.523475 14:0.44901 15:0.140704 16:-0.0112737 17:-0.439328 18:-0.0832876 
0.9855609454997992 0.1464431072829515 0 1:-0.278387 2:-0.575694 3:0.0932981 4:-0.0967834 5:0.270915 6:-0.42189 7:-0.811466 8:0.0315667 9:0.217859 10:0.179416 11:-0.127026 12:0.30965 13:-0.0594015 14:-0.253688 15:-0.182224 16:-0.214462 17:-0.580493 18:0.293186 
0.4770405494248375 0 0 1:-0.174468 2:-0.555561 3:0.280646 4:-0.0645093 5:0.316146 6:-0.552618 7:-0.841354 8:0.0234758 9:0.329826 10:0.295984 11:-0.0536434 12:0.253723 13:-0.367547 14:-0.0394315 15:-0.0937828 16:-0.0961575 17:-0.649598 18:-0.00210598 
0 0.3118306665259488 0 1:0.666412 2:-0.133253 3:0.0599291 4:0.141019 5:0.0913957 6:-0.232975 7:-0.487141 8:-0.120732 9:-0.195764 10:-0.0272664 11:-0.0286964 12:-0.00990229 13:-0.234052 14:0.154947 15:0.122567 16:0.0875301 17:-0.642162 18:0.00790603 
0 0.8428802456893131 0 1:0.643236 2:-0.189524 3:0.150418 4:0.00269633 5:0.283325 6:-0.308294 7:-0.362088 8:-0.132248 9:-0.152578 10:-0.116765 11:0.0455902 12:-0.015784 13:-0.0199326 14:-0.194553 15:-0.109143 16:0.014545 17:-0.608435 18:0.0964526 
0 7.600757118178497 0 1:0.495199 2:-0.184825 3:-0.0726644 4:-0.0567963 5:0.381483 6:-0.219524 7:-0.414927 8:-0.077007 9:-0.15054 10:0.0363024 11:-0.0302484 12:-0.0334278 13:-0.133788 14:-0.223717 15:0.0131838 16:0.110351 17:-0.555591 18:-0.0949167 
0 2.756059485641541 0 1:0.599379 2:-0.172659 3:-0.177529 4:-0.0833789 5:0.226093 6:-0.275919 7:-0.351565 8:-0.146329 9:-0.177468 10:0.0277135 11:-0.150636 12:-0.114913 13:-0.142752 14:-0.287858 15:-0.0110104 16:0.118077 17:-0.500874 18:0.23535 
0 3.160046486401054 0 1:0.781707 2:-0.239741 3:0.0988243 4:-0.00442546 5:0.156476 6:-0.278896 7:-0.339918 8:-0.102278 9:-0.177798 10:-0.212319 11:-0.0717588 12:0.0924938 13:-0.0772884 14:-0.280018 15:-0.0619641 16:0.204704 17:-0.464408 18:-0.139803 
0 0.6092547152549489 0 1:0.875866 2:-0.162778 3:-0.147266 4:0.111243 5:0.0686828 6:-0.210516 7:-0.276035 8:0.00982722 9:-0.124829 10:-0.187598 11:-0.172937 12:-0.0625779 13:-0.142988 14:-0.107907 15:0.00880264 16:-0.00235575 17:-0.611468 18:0.386803 
0 0 0.05066349293531417 1:0.216586 2:-0.754744 3:-0.154875 4:0.214586 5:-0.0747118 6:0.123768 7:-0.40131 8:0.371196 9:0.389548 10:-0.251455 11:-0.359253 12:-0.328314 13:-0.0129563 14:-0.199056 15:-0.412167 16:0.217851 17:-0.462153 18:0.106277 
0.7102244921799111 0 2.632220120078325 1:0.62548 2:-0.155788 3:-0.323991 4:-0.0302844 5:-0.237286 6:-0.348725 7:-0.288829 8:0.0685603 9:-0.256251 10:0.0753146 11:-0.111431 12:-0.283707 13:-0.264371 14:-0.255545 15:-0.101463 16:-0.173593 17:-0.605298 18:0.173088 
0.107597625518653 0 0.1050509624954811 1:0.772369 2:-0.222645 3:-0.458884 4:-0.575115 5:0.159156 6:-0.613026 7:-0.200077 8:-0.0162638 9:0.0893366 10:-0.405591 11:0.0962706 12:0.643671 13:0.114814 14:-0.246336 15:-0.00345504 16:-0.609553 17:-0.914541 18:-0.186832 
0.2818246290380688 0 0 1:0.722856 2:-0.284596 3:-0.424301 4:-0.0608047 5:0.600391 6:-0.364402 7:-0.102023 8:-0.0624971 9:0.0394038 10:-0.203806 11:-0.0008027 12:0.674702 13:0.211577 14:-0.128246 15:-0.147953 16:-0.175859 17:-0.771108 18:0.013179 
0.3936661408840132 0 0 1:0.505404 2:-0.456634 3:-0.283514 4:0.216795 5:0.202092 6:-0.14521 7:-0.265553 8:-0.0313154 9:-0.404654 10:-0.280127 11:-0.221376 12:-0.204923 13:-0.0375105 14:-0.361609 15:-0.115707 16:-0.124792 17:-0.481826 18:-0.0544474 
5.00616856547449 0 0 1:0.472894 2:-0.280432 3:-0.329762 4:-0.115631 5:-0.0723107 6:-0.333794 7:-0.270779 8:-0.185923 9:-0.0993158 10:0.06771 11:-0.00669955 12:-0.205694 13:-0.130096 14:-0.293472 15:-0.00922955 16:-0.240553 17:-0.515619 18:0.130732 
3.092266919079729 0 0 1:0.43364 2:-0.298665 3:-0.318286 4:0.236379 5:0.226765 6:-0.181998 7:-0.2896 8:-0.210228 9:-0.050988 10:0.15335 11:-0.145361 12:-0.299436 13:-0.080429 14:-0.208754 15:0.026937 16:-0.20398 17:-0.464089 18:-0.0266387 
0 22.28023663068331 0 1:0.435594 2:-0.19582 3:-0.126392 4:-0.084413 5:-0.0783254 6:-0.322408 7:-0.228459 8:-0.228594 9:-0.0355574 10:-0.058979 11:0.0515263 12:-0.311548 13:-0.0996064 14:-0.309663 15:0.0245675 16:-0.0721791 17:-0.533292 18:0.106051 
1.495895793388553 1.579377695643737 0 1:0.424271 2:-0.320816 3:-0.185778 4:0.274418 5:0.133436 6:-0.185263 7:-0.296034 8:-0.196869 9:-0.136286 10:-0.0469733 11:-0.0759974 12:-0.373148 13:-0.0685035 14:-0.37582 15:-0.00575244 16:-0.116977 17:-0.468689 18:0.0271664 
0 2.097307079406785 4.272785569309144 1:0.58927 2:-0.185692 3:-0.145026 4:0.0025927 5:-0.258951 6:-0.231957 7:-0.180548 8:-0.180054 9:-0.0404166 10:-0.118208 11:0.037332 12:-0.227853 13:0.0341934 14:-0.299385 15:0.00340009 16:-0.188125 17:-0.551847 18:0.0447939 
2.169854265657597 2.302331628168703 3.752955211344912 1:0.499604 2:-0.244527 3:-0.284118 4:0.415162 5:0.00481307 6:0.00326663 7:-0.292953 8:-0.133841 9:-0.131008 10:0.00393117 11:-0.111459 12:-0.337895 13:0.0395431 14:-0.116117 15:0.0840304 16:-0.149147 17:-0.485093 18:0.131476 
0.6211405470652773 0 0.3864612717899584 1:0.532168 2:-0.229913 3:-0.223327 4:0.453929 5:0.0492958 6:-0.0922221 7:-0.394292 8:-0.166909 9:-0.331885 10:-0.174867 11:-0.23572 12:-0.123602 13:-0.0498673 14:-0.200578 15:-0.0207866 16:-0.0927054 17:-0.454895 18:0.065912 
0 0.06059460310612144 0 1:0.535381 2:-0.166668 3:-0.239619 4:0.287373 5:0.254368 6:-0.113784 7:-0.420168 8:-0.0947802 9:-0.131976 10:0.159037 11:-0.100204 12:-0.132359 13:0.00236428 14:-0.00610854 15:-0.00810275 16:-0.0538436 17:-0.518377 18:0.302069 
0 0 0.3436556510448847 1:0.609011 2:0.011132 3:-0.015402 4:-0.163242 5:-0.152475 6:-0.351996 7:-0.500417 8:-0.1254 9:-0.167224 10:-0.199235 11:0.0571257 12:-0.0453551 13:0.0579814 14:-0.474702 15:-0.0526765 16:-0.12831 17:-0.552529 18:0.0914569 
0.5318065060620064 0 0 1:0.55673 2:-0.202642 3:-0.0561158 4:0.362588 5:0.219032 6:-0.20823 7:-0.526231 8:-0.0125593 9:-0.319028 10:-0.246978 11:0.00121122 12:-0.0485034 13:0.0427467 14:-0.431292 15:-0.131535 16:-0.113937 17:-0.491063 18:0.264289 
0.1639536910225232 0.1207718832895097 0.5448616778665247 1:0.595954 2:-0.466057 3:-0.732529 4:-0.0505551 5:-0.458907 6:-0.152476 7:-0.505911 8:-0.0550244 9:-0.526946 10:-0.270751 11:-0.246212 12:-0.0809977 13:-0.119995 14:-0.190203 15:0.303526 16:0.129588 17:-0.564727 18:0.113653 
0 0 0.6439065105085714 1:0.562537 2:-0.0354575 3:-0.232985 4:-0.271812 5:-0.115677 6:-0.4803 7:-0.273194 8:-0.187862 9:-0.146585 10:0.0336648 11:0.0179763 12:-0.0933391 13:-0.162916 14:-0.321136 15:-0.15038 16:0.0434086 17:-0.545811 18:-0.00962752 
0 5.83487130434069 1.403260461854957 1:0.693537 2:-0.118385 3:-0.056076 4:0.112955 5:-0.092846 6:-0.212216 7:-0.425851 8:-0.154384 9:-0.134517 10:-0.159997 11:-0.0673735 12:-0.121427 13:-0.126069 14:-0.0128784 15:0.0364896 16:-0.0358425 17:-0.612777 18:0.271594 
0 7.624656383695861 0 1:0.590326 2:-0.169249 3:0.0215669 4:0.162068 5:0.187137 6:-0.231165 7:-0.461636 8:-0.107217 9:-0.210959 10:0.0122158 11:0.0658086 12:-0.121979 13:-0.200315 14:-0.230945 15:0.038299 16:0.0414222 17:-0.540194 18:0.18946 
0 0 0.184840869675066 1:0.72519 2:-0.0739058 3:-0.041882 4:0.109625 5:-0.0375787 6:-0.232822 7:-0.397414 8:-0.143774 9:-0.0576966 10:-0.0537049 11:-0.119011 12:-0.118235 13:-0.153774 14:-0.0522644 15:0.035516 16:-0.0506371 17:-0.524388 18:0.354081 
0 3.283561990491167 1.154811400717913 1:0.622306 2:-0.143204 3:-0.0884829 4:0.201695 5:0.0651923 6:-0.17864 7:-0.438465 8:-0.112318 9:-0.157383 10:-0.0120022 11:0.0221327 12:0.0268017 13:-0.128565 14:-0.0707513 15:0.0708114 16:-0.00704759 17:-0.442378 18:0.202617 
0.8930900492325361 0 0 1:0.702578 2:-0.289797 3:-0.434538 4:-0.274442 5:0.390175 6:-0.567283 7:-0.0921893 8:0.0865756 9:0.126692 10:-0.415168 11:0.0199127 12:0.525752 13:0.134784 14:-0.228883 15:-0.0678635 16:-0.491454 17:-0.856903 18:0.0593408 
0.2632134490870705 0 0 1:0.794825 2:-0.343186 3:-0.454722 4:-0.0829545 5:0.570667 6:-0.499966 7:-0.0933961 8:0.0652037 9:-0.017814 10:-0.294301 11:0.153489 12:0.553392 13:0.0646742 14:-0.18469 15:-0.013441 16:-0.294092 17:-0.792214 18:0.0220915 
0.6264027961521977 0 0 1:0.252234 2:-0.483793 3:0.0778668 4:0.044794 5:-0.229578 6:-0.131209 7:-0.278517 8:0.143709 9:0.790767 10:0.328699 11:-0.116905 12:-0.355809 13:0.0153325 14:-0.121634 15:-0.317259 16:-0.0428556 17:-0.430207 18:0.204175 
0.3942219207116971 0 0 1:0.300534 2:-0.647346 3:0.180458 4:0.214791 5:-0.0943702 6:-0.146954 7:-0.462752 8:0.228676 9:0.749834 10:0.30139 11:0.127227 12:-0.369455 13:-0.341568 14:-0.154272 15:-0.243108 16:-0.112918 17:-0.418746 18:-0.215153 
0.1541305650452537 0 0 1:0.340992 2:-0.547686 3:0.139151 4:0.12652 5:-0.274874 6:-0.145858 7:-0.54507 8:0.253479 9:0.789205 10:-0.075516 11:0.0329865 12:-0.123234 13:-0.0384649 14:-0.246229 15:-0.362603 16:-0.0745125 17:-0.249145 18:0.332795 
0 0 3.919268016233077 1:0.747713 2:-0.0507059 3:-0.0280869 4:0.0643093 5:-0.02034 6:-0.291378 7:-0.386073 8:-0.0855383 9:-0.127071 10:-0.0396163 11:-0.106989 12:-0.0851181 13:-0.145042 14:-0.209502 15:-0.0473712 16:-0.0331818 17:-0.634243 18:0.195984 
0 0.7024731071359017 0 1:0.694483 2:-0.128808 3:-0.359797 4:0.176668 5:0.155141 6:-0.190987 7:-0.217344 8:-0.266691 9:-0.170514 10:0.201948 11:0.0198296 12:-0.0257887 13:0.0113792 14:-0.204979 15:-0.112041 16:-0.0254113 17:-0.648992 18:-0.417968 
0 2.179425150078114 0 1:0.537092 2:-0.166854 3:-0.0533292 4:0.130011 5:0.302969 6:-0.203631 7:-0.408694 8:-0.139655 9:-0.125384 10:0.00817446 11:0.106822 12:0.0330255 13:-0.0165354 14:-0.0940369 15:-0.0486804 16:0.00274538 17:-0.639706 18:0.272339 
0 0 1.376916831985094 1:0.483899 2:-0.211839 3:-0.335867 4:0.210059 5:0.263261 6:-0.222845 7:-0.430379 8:-0.25618 9:-0.224913 10:0.172202 11:0.177835 12:0.010099 13:-0.107172 14:-0.15852 15:-0.0558295 16:-0.058002 17:-0.578179 18:-0.0492402 
0 1.782141580807612 1.307106205970848 1:0.584332 2:-0.272844 3:-0.351673 4:0.253498 5:0.221207 6:-0.20226 7:-0.357837 8:-0.1143 9:-0.165785 10:0.295475 11:0.236748 12:-0.175497 13:-0.0977826 14:-0.299778 15:-0.0554231 16:-0.0130363 17:-0.562606 18:-0.0823106 
0 0.5838462739169756 0 1:0.570381 2:-0.264748 3:-0.273881 4:0.15447 5:0.320006 6:-0.206265 7:-0.344428 8:-0.123772 9:-0.158863 10:0.246798 11:0.137061 12:0.0141177 13:-0.0488827 14:-0.201654 15:-0.0574409 16:0.0375066 17:-0.55625 18:0.150525 
0 4.068244356745463 0 1:0.497113 2:-0.259262 3:-0.205919 4:0.120335 5:0.331438 6:-0.193082 7:-0.359599 8:-0.166897 9:-0.203886 10:0.182691 11:0.134743 12:-0.114157 13:-0.0361249 14:-0.29094 15:-0.0818961 16:0.0693594 17:-0.519836 18:0.280381 
0 0 1.075667187461841 1:0.496805 2:-0.133043 3:-0.17359 4:0.185067 5:0.287209 6:-0.221014 7:-0.307547 8:-0.0631527 9:-0.0801463 10:0.0875787 11:0.122903 12:-0.0521313 13:-0.0109237 14:-0.100764 15:-0.171216 16:0.00209544 17:-0.61349 18:0.298889 
0 12.53279458612729 0 1:0.587612 2:-0.153395 3:-0.191409 4:-0.0795747 5:0.0728683 6:-0.320869 7:-0.302299 8:-0.186779 9:-0.133847 10:0.0707565 11:-0.0949695 12:-0.201305 13:-0.213071 14:-0.229584 15:-0.0523851 16:0.0500426 17:-0.545367 18:0.124009 
0 11.45303162147758 0 1:0.581883 2:-0.226277 3:-0.124916 4:0.16296 5:0.225366 6:-0.271186 7:-0.302452 8:-0.0910567 9:-0.0903528 10:0.189096 11:0.17139 12:-0.226475 13:-0.176784 14:-0.211294 15:-0.0741082 16:0.0125699 17:-0.634225 18:0.183116 
0 0 1.803773738206052 1:0.704729 2:-0.172873 3:-0.145759 4:0.249632 5:0.176039 6:-0.2025 7:-0.369116 8:-0.0171435 9:-0.127358 10:0.00686167 11:0.121978 12:-0.0622364 13:-0.138237 14:-0.187881 15:0.0094213 16:-0.0203543 17:-0.482648 18:0.172212 
0 3.706671282601131 3.782907035691477 1:0.828057 2:-0.0931239 3:-0.111809 4:0.0711278 5:-0.0139955 6:-0.288964 7:-0.298125 8:-0.0295399 9:-0.0248379 10:-0.0652013 11:-0.0549452 12:-0.157873 13:-0.203956 14:-0.14545 15:0.0496202 16:-0.0624614 17:-0.585524 18:0.340347 
0 3.367906471599922 0 1:0.70236 2:-0.22147 3:-0.0867181 4:0.135721 5:0.230344 6:-0.203199 7:-0.318033 8:0.0420716 9:-0.146106 10:-0.0484923 11:0.107196 12:-0.0344198 13:-0.0892227 14:-0.406932 15:-0.0037802 16:0.0677812 17:-0.322302 18:0.173222 
0 0 0.06837377350906813 1:-0.353696 2:-0.665921 3:0.0978856 4:-0.311069 5:0.135154 6:-0.313815 7:-0.909979 8:0.0969634 9:0.0326792 10:0.24721 11:-0.158316 12:0.158606 13:-0.0722136 14:-0.289479 15:-0.0880299 16:-0.166877 17:-0.776839 18:0.24313 
0.3219438858458152 0 0.01930942646807015 1:-0.270672 2:-0.676347 3:0.237079 4:-0.0381021 5:0.588228 6:-0.402486 7:-0.921745 8:0.162229 9:0.038039 10:0.32192 11:0.0209267 12:0.184046 13:-0.352707 14:-0.28731 15:-0.0708265 16:-0.120777 17:-0.708402 18:-0.0710755 
0 0 0.002898060425864732 1:0.310696 2:-0.529161 3:-0.0179102 4:-0.209334 5:-0.381516 6:0.0392661 7:-0.426527 8:0.282543 9:0.426636 10:0.550296 11:-0.330777 12:-0.608538 13:-0.0618289 14:-0.0773125 15:-0.177725 16:-0.0216507 17:-0.572954 18:0.0150561 
0.02608092713213023 0 0.04907361320219162 1:0.392435 2:-0.537861 3:-0.108096 4:-0.268523 5:-0.340069 6:0.0699791 7:-0.516781 8:0.47303 9:0.399652 10:0.55288 11:-0.418245 12:-0.579939 13:-0.091186 14:-0.306975 15:-0.180521 16:-0.207424 17:-0.563292 18:-0.260253 
0 0 0.0628247313397297 1:0.352308 2:-0.576356 3:-0.0782952 4:-0.293037 5:-0.338863 6:0.0949029 7:-0.413832 8:0.419722 9:0.411147 10:0.631784 11:-0.234675 12:-0.659111 13:-0.0469912 14:-0.403945 15:-0.304364 16:-0.117849 17:-0.600211 18:-0.0719258 
0 0.6845229037808498 0 1:0.588306 2:-0.672385 3:-0.0260813 4:0.122416 5:0.035091 6:0.155939 7:-0.224175 8:0.120273 9:0.249506 10:0.349316 11:-0.0303746 12:-0.34395 13:0.0213844 14:-0.065977 15:-0.304232 16:0.133855 17:-0.628619 18:-0.127302 
0.1705040296120346 0.2745939807374254 0.07941915131015746 1:-0.0816251 2:-0.75779 3:-0.0989355 4:-0.421304 5:-0.027965 6:-0.290436 7:-0.79613 8:0.152457 9:0.0964428 10:0.553644 11:-0.155556 12:-0.2161 13:-0.217691 14:-0.167303 15:-0.00814634 16:-0.0492558 17:-0.407276 18:0.271058 
0.1093694048985122 0.4826525519946447 0 1:0.166133 2:-0.700165 3:-0.118422 4:0.0237232 5:0.431121 6:0.0394588 7:-0.668514 8:0.216075 9:-0.015547 10:0.333689 11:-0.0138401 12:0.0239626 13:-0.00501529 14:-0.0915414 15:-0.0575609 16:0.00177234 17:-0.444845 18:0.422224 
0 2.266489610413008 0 1:0.847306 2:-0.199054 3:-0.240983 4:-0.222906 5:0.117034 6:-0.214014 7:-0.233185 8:0.000494932 9:-0.140256 10:0.0189383 11:-0.218428 12:-0.00947315 13:-0.159876 14:-0.426632 15:-0.161535 16:0.161692 17:-0.575741 18:0.101267 
0 0.01738032827719357 0.1302211478098326 1:-0.173873 2:-0.622748 3:0.00999711 4:-0.512542 5:0.0758981 6:-0.282785 7:-0.729661 8:0.242907 9:-0.00760325 10:0.132361 11:0.0095042 12:0.184463 13:0.145659 14:-0.326027 15:0.0157879 16:-0.354706 17:-0.74298 18:0.399562 
0 0 0.07421234720235331 1:-0.208146 2:-0.641736 3:0.150073 4:-0.434121 5:0.0194161 6:-0.310056 7:-0.77444 8:0.283975 9:0.157822 10:0.243161 11:0.0728606 12:-0.0193697 13:-0.0923246 14:-0.478772 15:-0.0331552 16:-0.489547 17:-0.839354 18:0.346458 
0 0.5480774942829488 0 1:0.869715 2:-0.197311 3:-0.1626 4:-0.1855 5:0.150402 6:-0.291254 7:-0.25869 8:-0.0802788 9:-0.120733 10:0.0240692 11:-0.142584 12:0.0272721 13:-0.212804 14:-0.30328 15:-0.122069 16:0.123722 17:-0.535167 18:0.203928 
0 0 0.2336942760430692 1:-0.0694849 2:-0.737325 3:0.227945 4:0.0242867 5:0.4691 6:-0.117255 7:-0.671329 8:0.197734 9:0.0233228 10:0.141535 11:0.0724125 12:0.0561015 13:0.00517671 14:-0.443786 15:-0.267599 16:0.000677519 17:-0.680407 18:0.0195428 
0 0 0.08031349597802379 1:-0.0018603 2:-0.781655 3:-9.50276e-05 4:0.0544961 5:0.341968 6:-0.00457464 7:-0.70207 8:0.14837 9:-0.00205406 10:0.359818 11:-0.089371 12:-0.146195 13:-0.114803 14:-0.0534227 15:-0.120149 16:0.0879588 17:-0.663715 18:0.277646 
0 0.1571598240132089 0.142762767880267 1:-0.129042 2:-0.741551 3:0.033509 4:-0.346483 5:-0.0694224 6:-0.235484 7:-0.750283 8:0.183427 9:0.0568108 10:0.146052 11:-0.113314 12:-0.0795691 13:-0.134428 14:-0.213568 15:-0.0209021 16:-0.154231 17:-0.782061 18:0.236479 
0.01331438442543232 0 0 1:-0.0188562 2:-0.871669 3:0.168261 4:0.0345407 5:0.377715 6:-0.141007 7:-0.762476 8:0.310715 9:0.0272462 10:0.0841423 11:-0.0356981 12:-0.0256222 13:-0.234837 14:-0.492158 15:-0.0867635 16:-0.299865 17:-0.777254 18:-0.474438 
0.01148701766151625 0 0.02460190898998007 1:0.0648361 2:-0.704163 3:0.0629225 4:-0.559894 5:-0.0516218 6:-0.298839 7:-0.727235 8:0.123839 9:0.0506917 10:-0.260231 11:-0.150034 12:0.0764363 13:-0.157388 14:-0.170533 15:0.0228613 16:-0.33642 17:-0.756364 18:0.736534 
0 0.5043389275121167 0 1:-0.167428 2:-0.632399 3:0.173844 4:-0.391777 5:0.057755 6:-0.358531 7:-0.678446 8:0.144811 9:0.235938 10:0.231918 11:-0.147934 12:-0.100925 13:-0.155889 14:-0.367242 15:-0.134059 16:-0.207285 17:-0.763264 18:0.122915 
0.4798968074995706 0 0 1:-0.198219 2:-0.665117 3:0.0313365 4:-0.308793 5:0.354854 6:-0.433713 7:-0.826146 8:0.169134 9:0.160765 10:0.335296 11:-0.0940043 12:0.149323 13:-0.26177 14:-0.355044 15:-0.118035 16:-0.120068 17:-0.61625 18:0.145863 
0.05202023164864518 0 0.09338040224436359 1:0.468636 2:-0.879023 3:-0.348945 4:-0.321482 5:-0.783144 6:0.140659 7:-0.630342 8:0.0751667 9:0.1964 10:-0.289417 11:-0.407345 12:-0.268981 13:-0.0302298 14:0.123774 15:0.160117 16:-0.320008 17:-0.590041 18:0.261396 
0 0.06727678893211227 0.02862527252893579 1:-0.129419 2:-0.651088 3:0.228846 4:-0.14348 5:0.561321 6:-0.437464 7:-0.748047 8:0.132724 9:0.0888165 10:0.279416 11:0.021477 12:0.257891 13:-0.178302 14:-0.453248 15:-0.253654 16:-0.0106385 17:-0.596604 18:0.140099 
0 0.008278055946680169 0 1:0.89775 2:-0.156543 3:-0.225583 4:-0.176344 5:0.118199 6:-0.216747 7:-0.341844 8:-0.0935841 9:-0.0808567 10:0.0563776 11:-0.253559 12:0.0687603 13:-0.214031 14:-0.0402055 15:0.027713 16:0.117831 17:-0.604933 18:0.144453 
0 1.43285253534874 0 1:0.809517 2:-0.243768 3:-0.157046 4:-0.00638853 5:0.416437 6:-0.214494 7:-0.235321 8:0.0250117 9:-0.205671 10:0.0642724 11:-0.132466 12:0.0405403 13:-0.102915 14:-0.377455 15:-0.0587324 16:0.169949 17:-0.59351 18:-0.24915 
0.07875511804742528 0 0 1:0.756054 2:-0.326903 3:-0.411192 4:-0.20369 5:0.814575 6:-0.265019 7:-0.179119 8:-0.125137 9:-0.088258 10:-0.172513 11:0.03266 12:0.494058 13:0.0487585 14:-0.0208063 15:-0.120677 16:-0.0256954 17:-0.766654 18:-0.315473 
0 0 1.040664772714041 1:-0.176282 2:-0.220304 3:-0.389695 4:0.484843 5:-0.248821 6:-0.331171 7:-0.277109 8:0.17859 9:-0.178474 10:0.195794 11:-0.0491825 12:-0.401183 13:0.0548793 14:-0.220547 15:-0.18385 16:-0.0844516 17:-0.667843 18:0.245366 
0 0 7.713806757892994 1:-0.126409 2:-0.169897 3:-0.140075 4:0.363965 5:-0.158124 6:-0.36538 7:-0.231042 8:0.0187281 9:-0.0885964 10:0.120516 11:0.00686557 12:-0.419572 13:-0.0187142 14:-0.25679 15:-0.10844 16:-0.117926 17:-0.611095 18:0.163611 
0 5.135875035377544 0 1:-0.0762132 2:-0.12896 3:-0.0399185 4:0.130093 5:0.113169 6:-0.534036 7:-0.297389 8:-0.0953593 9:0.012438 10:0.00929171 11:0.195194 12:-0.447266 13:-0.0405355 14:-0.147838 15:-0.103589 16:-0.0945757 17:-0.471874 18:0.227008 
0 2.80136429007691 0 1:-0.359278 2:-0.183171 3:-0.0469127 4:0.0296122 5:0.249296 6:-0.651502 7:-0.427773 8:-0.200879 9:-0.132358 10:-0.0988817 11:0.205278 12:-0.328272 13:-0.0936765 14:-0.113465 15:-0.0572232 16:-0.0599782 17:-0.380683 18:0.305112 
0 2.179438011961301 0 1:-0.281845 2:-0.19004 3:-0.0969112 4:0.0425461 5:0.23992 6:-0.652775 7:-0.420552 8:-0.178185 9:-0.110075 10:-0.114565 11:0.237498 12:-0.258547 13:-0.127838 14:-0.10448 15:-0.0340949 16:-0.052796 17:-0.364922 18:0.271651 
0 0 1.20672540075094 1:-0.287495 2:-0.209165 3:-0.527058 4:0.243117 5:-0.156011 6:-0.422582 7:-0.472133 8:0.240252 9:-0.302008 10:0.0559474 11:-0.00663928 12:-0.383289 13:0.0208019 14:-0.17987 15:-0.125827 16:0.0755762 17:-0.451609 18:0.329769 
0 1.71176252207049 0 1:0.0436007 2:-0.203177 3:0.119936 4:0.262971 5:-0.0837104 6:-0.500931 7:-0.420029 8:-0.0348986 9:-0.0921482 10:-0.52467 11:-0.0604605 12:-0.231199 13:-0.0377079 14:-0.32814 15:-0.101694 16:-0.110252 17:-0.476041 18:-0.177203 
0 22.00573483286859 0 1:-0.074813 2:-0.0961938 3:0.136758 4:0.297922 5:-0.145039 6:-0.424609 7:-0.337187 8:-0.0498535 9:-0.0218033 10:-0.151489 11:0.101856 12:-0.433353 13:-0.128146 14:-0.129617 15:-0.0945984 16:-0.141011 17:-0.485039 18:-0.00652744 
0 32 0 1:0.107562 2:-0.097035 3:0.0612665 4:0.309122 5:-0.193772 6:-0.437687 7:-0.220814 8:-0.0584162 9:-0.000284668 10:0.070319 11:0.0705857 12:-0.354747 13:-0.122026 14:-0.1705 15:-0.0122799 16:-0.153751 17:-0.488752 18:0.149028 
3.70088040877386 32 18.13227603952563 1:0.192253 2:-0.0931056 3:0.0354499 4:0.317186 5:-0.212143 6:-0.464253 7:-0.19227 8:-0.00388729 9:-0.00923703 10:0.111494 11:0.0197311 12:-0.242217 13:-0.0847068 14:-0.187393 15:-0.0524475 16:-0.172146 17:-0.507306 18:0.218658 
0 15.33925116563938 0 1:0.163759 2:-0.250592 3:-0.0217473 4:0.341007 5:-0.127013 6:-0.441005 7:-0.283695 8:-0.0287311 9:-0.0296183 10:-0.236848 11:-0.139935 12:-0.172209 13:-0.109714 14:-0.319383 15:-0.0167196 16:-0.192991 17:-0.408627 18:0.0628634 
11.22553144438464 5.674839131298737 0 1:0.096765 2:-0.225318 3:-0.202842 4:0.292937 5:-0.183419 6:-0.476251 7:-0.253737 8:0.167303 9:-0.150276 10:-0.0104117 11:-0.000795763 12:-0.113529 13:-0.0105682 14:-0.362656 15:-0.0406942 16:-0.209536 17:-0.513504 18:0.330245 
0 14.7758331048585 1.767784484245269 1:0.0521842 2:-0.216261 3:-0.123819 4:0.169041 5:0.0423094 6:-0.583624 7:-0.38004 8:0.0236779 9:-0.246562 10:-0.180162 11:0.0513202 12:0.082845 13:-0.0135535 14:-0.349069 15:-0.0353475 16:-0.130004 17:-0.395331 18:0.354473 
0 0 2.145924958840564 1:0.0652359 2:-0.142118 3:0.00633416 4:0.196176 5:-0.0506484 6:-0.54065 7:-0.496391 8:0.030062 9:-0.487643 10:-0.119962 11:0.065843 12:-0.112662 13:-0.0452671 14:-0.316078 15:0.0119362 16:0.00372434 17:-0.337655 18:0.262327 
0 0.8639295670979501 0 1:0.0474073 2:-0.220574 3:0.0546881 4:0.324385 5:-0.0622009 6:-0.468788 7:-0.547703 8:-0.0278474 9:-0.406277 10:-0.301401 11:-0.275867 12:-0.362602 13:-0.148284 14:-0.376427 15:-0.111854 16:-0.175929 17:-0.64432 18:0.240837 
0 0 0.5258317276866163 1:-0.186194 2:-0.0100355 3:-0.41477 4:0.225434 5:-0.120192 6:-0.482071 7:-0.633325 8:0.410758 9:-0.368393 10:-0.0352642 11:-0.0504751 12:0.0168985 13:-0.0403948 14:-0.252973 15:-0.0532421 16:0.131819 17:-0.323229 18:0.311663 
0 0 2.516034040894432 1:-0.246919 2:0.0353978 3:-0.539724 4:0.261165 5:-0.119716 6:-0.476575 7:-0.444397 8:0.5545 9:-0.123771 10:0.0902446 11:-0.101996 12:0.0419901 13:0.134558 14:-0.166318 15:-0.217371 16:0.0116092 17:-0.483948 18:0.42795 
0 0 0.924543287669468 1:-0.321213 2:-0.0421525 3:-0.559478 4:0.39 5:-0.213063 6:-0.338981 7:-0.55458 8:0.400211 9:-0.174444 10:-0.00782208 11:-0.534752 12:0.0151651 13:0.0253698 14:-0.0221339 15:-0.149573 16:0.0280664 17:-0.372089 18:0.288055 
0 0 12.90222462714217 1:0.0333449 2:-0.185211 3:-0.291678 4:0.408834 5:-0.375334 6:-0.40584 7:-0.272281 8:0.28223 9:-0.122199 10:-0.00205473 11:-0.0641051 12:-0.133157 13:-0.00045316 14:-0.190121 15:-0.080528 16:-0.0767723 17:-0.522719 18:0.347377 
0.2005335445002832 0 1.240462165326511 1:-0.655982 2:-0.202997 3:-0.00499397 4:0.200249 5:0.110383 6:-0.419358 7:-0.590409 8:-0.13787 9:-0.183406 10:-0.408417 11:0.137199 12:0.0205207 13:-0.00767466 14:-0.216647 15:0.0381785 16:0.00467812 17:-0.538731 18:0.133047 
0.261209514716616 0 0.2368141492179963 1:0.893753 2:-0.497162 3:-0.472283 4:0.0162497 5:0.0669194 6:-0.267486 7:1 8:-0.0783104 9:-0.00306783 10:-0.942678 11:0.215861 12:0.386179 13:-0.258765 14:-0.201796 15:-1 16:-0.360756 17:-0.939331 18:-1 
0.2369215781434705 0 0.2609311384334513 1:0.823368 2:-0.350897 3:-0.641145 4:0.0165842 5:-0.260558 6:-0.105122 7:0.608408 8:0.441743 9:0.35483 10:-0.231048 11:-0.141533 12:0.227883 13:-0.329154 14:-0.0582155 15:-0.247886 16:0.199314 17:-0.305682 18:-0.465066 
1.417132020503515 0 0 1:-0.729033 2:-0.255136 3:-0.071345 4:0.11465 5:0.257228 6:-0.523238 7:-0.575431 8:-0.185909 9:-0.125605 10:-0.269944 11:0.196953 12:-0.0831595 13:-0.137004 14:-0.154063 15:0.00461038 16:-0.00966746 17:-0.48438 18:0.221988 
0.1528036376301229 0 0 1:-0.755654 2:-0.320164 3:-0.08194 4:0.0750513 5:0.194662 6:-0.589183 7:-0.624317 8:-0.426197 9:-0.136233 10:-0.53644 11:-0.222084 12:0.00598665 13:-0.194794 14:-0.0339468 15:0.00929311 16:0.115271 17:-0.406217 18:0.0306493 
0.5782848595371952 0 0 1:-0.305589 2:-0.585692 3:-0.108799 4:0.294234 5:-0.235334 6:-0.405075 7:-0.432339 8:-0.189758 9:0.149672 10:-0.638152 11:-0.0451281 12:-0.587567 13:-0.153796 14:-0.111577 15:-0.103752 16:0.0541164 17:-0.720822 18:0.12585 
0.3594736401871142 0 0 1:-0.444593 2:-0.460778 3:-0.207144 4:0.088558 5:-0.474475 6:-0.397284 7:-0.607988 8:-0.0151091 9:0.271433 10:-0.437521 11:0.0260234 12:-0.503366 13:-0.212611 14:-0.132125 15:0.00110028 16:0.104562 17:-0.504587 18:0.500915 
0.9232402165578817 0 0.5371121223570302 1:-0.486718 2:-0.194009 3:0.008517 4:0.270776 5:0.109762 6:-0.368902 7:-0.348113 8:-0.0650917 9:0.152106 10:-0.113221 11:0.181366 12:-0.442546 13:-0.0349281 14:-0.0385451 15:-0.150633 16:-0.219715 17:-0.964159 18:0.404843 
0.003052298136258254 0 0.3891186259510477 1:-0.762188 2:0.090326 3:0.112624 4:0.202102 5:0.581684 6:-0.499225 7:-0.399198 8:0.385839 9:0.152702 10:-0.0921156 11:-0.132523 12:-0.275275 13:-0.113956 14:-0.10307 15:0.246849 16:0.421318 17:-0.436378 18:0.461965 
1.996755036653908 2.91507250007236 0 1:-0.386542 2:-0.267393 3:-0.0699839 4:0.261311 5:0.231561 6:-0.507298 7:-0.279565 8:-0.0312214 9:0.0968443 10:-0.120627 11:0.162758 12:-0.0702322 13:-0.109764 14:-0.20841 15:-0.127581 16:-0.0670094 17:-0.522237 18:0.282225 
1.736593343032253 0.2830899592633699 0 1:-0.213453 2:-0.753654 3:-0.686288 4:0.152634 5:-0.0663888 6:-0.601731 7:-0.372444 8:0.190774 9:0.0430631 10:-0.0567091 11:0.0641239 12:-0.222447 13:-0.291559 14:-0.161738 15:0.41555 16:-0.369744 17:-0.570912 18:0.273031 
0.03950059385733705 0 1.149437265760709 1:-0.193794 2:-0.181653 3:0.05033 4:0.469791 5:0.00722977 6:-0.351282 7:-0.152951 8:-0.0433863 9:0.0915016 10:0.0563856 11:0.0477844 12:-0.162033 13:-0.0447356 14:-0.203727 15:-0.160586 16:-0.160528 17:-0.69338 18:0.116919 
0.3016760014193196 0 0.5239453569707613 1:0.00947749 2:-0.840383 3:-0.206664 4:0.917082 5:3.69063e-05 6:0.1355 7:-0.441502 8:0.021496 9:-0.305729 10:-0.177302 11:-0.0374923 12:-0.34383 13:-0.307949 14:-0.449409 15:0.116859 16:-0.257571 17:-0.600573 18:-0.152819 
0 8.784334097626653 0 1:-0.125702 2:-0.145202 3:0.076992 4:0.556675 5:-0.0692861 6:-0.295308 7:-0.191475 8:-0.0557545 9:0.0718131 10:0.0622467 11:0.0248006 12:-0.230643 13:-0.07634 14:-0.162192 15:-0.148626 16:-0.166614 17:-0.691137 18:0.0623465 
0.5415185631654121 0 0.3257197065205417 1:0.0381515 2:-0.547468 3:-0.227065 4:0.936972 5:-0.227059 6:0.250628 7:-0.161162 8:-0.301744 9:-0.384543 10:-0.0466362 11:-0.0983924 12:-0.0891336 13:0.0224055 14:0.00675984 15:-0.079604 16:-0.566128 17:-0.624208 18:0.276966 
0.2727803953966219 0 0.2459929334795238 1:-0.314814 2:0.682227 3:0.355965 4:0.895402 5:1 6:0.0157815 7:-0.293525 8:-0.147757 9:0.440711 10:-0.113507 11:-0.494137 12:0.514161 13:0.302438 14:0.131835 15:-0.317553 16:-0.2622 17:-0.527865 18:0.107567 
0.2640190594405979 0 0.1947884857261144 1:0.357875 2:-0.0809154 3:-0.0467237 4:1 5:0.230662 6:-0.56178 7:-0.378538 8:-0.18031 9:0.339831 10:-0.332267 11:0.0441968 12:0.432258 13:-0.432662 14:0.769314 15:-0.117315 16:0.123328 17:-0.508428 18:0.119519 
0.4187003960067998 0 0.741632342942295 1:-0.0301965 2:-0.5468 3:-0.266607 4:0.939387 5:-0.20533 6:-0.124049 7:-0.212269 8:-0.1847 9:-0.0981353 10:-0.125616 11:-0.0718948 12:0.402178 13:0.479795 14:0.0985853 15:-0.4962 16:0.13055 17:-0.669502 18:0.418369 
0.249535971947159 0 1.803242880175017 1:0.129565 2:-0.870278 3:-0.583193 4:0.765332 5:-0.363587 6:-0.108875 7:-0.456449 8:0.207667 9:-0.362619 10:-0.359098 11:0.016541 12:-0.116729 13:-0.31603 14:-0.0949731 15:-0.077654 16:-0.0684416 17:-0.4292 18:-0.00848544 
0.2453172745917311 0 0.3135548532909103 1:-0.282217 2:0.120896 3:-0.0669451 4:0.844243 5:0.563815 6:-0.173615 7:-0.315755 8:0.410405 9:0.560271 10:-0.417138 11:-0.21603 12:0.447855 13:-0.159029 14:-0.331467 15:-0.107322 16:-0.341063 17:-0.504044 18:-0.417301 
0 0 2.44214347246134 1:0.0860615 2:-0.127279 3:0.0299804 4:0.740519 5:-0.0322069 6:-0.223323 7:-0.139989 8:-0.059735 9:0.102643 10:0.0766879 11:0.0457118 12:-0.0160458 13:-0.152474 14:0.00826816 15:-0.127826 16:-0.173279 17:-0.567199 18:0.186834 
0.2615383263096341 0 0.3182316242353364 1:-0.515789 2:0.22414 3:0.175472 4:0.991006 5:0.668019 6:0.04437 7:-0.352841 8:0.323034 9:0.533085 10:-0.00334507 11:0.0582925 12:0.186877 13:-0.527213 14:-0.478132 15:0.178521 16:0.336292 17:-0.37419 18:-0.340952 
0 0 0.6266567912146174 1:0.104138 2:-0.140196 3:-0.000186908 4:0.772902 5:-0.0288148 6:-0.204367 7:-0.150994 8:-0.0617426 9:0.049472 10:0.0305914 11:0.0468909 12:-0.0414229 13:-0.174843 14:0.0333639 15:-0.143667 16:-0.169589 17:-0.559654 18:0.176886 
0 0 1.259232238464155 1:-0.403279 2:-0.0819824 3:-0.452889 4:0.325403 5:-0.223212 6:-0.440952 7:-0.221587 8:0.259619 9:0.0176738 10:0.356213 11:-0.0413058 12:-0.374248 13:0.0749244 14:-0.113414 15:-0.286341 16:0.148246 17:-0.495575 18:0.411837 
0 0 1.258359411340962 1:-0.361086 2:-0.250523 3:-0.498632 4:0.338548 5:-0.296658 6:-0.373879 7:-0.28677 8:0.158622 9:0.00233526 10:0.00589364 11:-0.394593 12:-0.33627 13:0.0201664 14:-0.165652 15:-0.243142 16:0.171888 17:-0.337041 18:0.0720038 
16.25319407298004 0 0 1:0.0147011 2:-0.196749 3:-0.210816 4:0.26119 5:-0.106572 6:-0.420552 7:-0.215492 8:-0.0153818 9:-0.0904188 10:0.188812 11:0.0689114 12:-0.526249 13:-0.0306811 14:-0.171613 15:-0.0280177 16:-0.118434 17:-0.492521 18:0.321374 
0 32 0 1:-0.0712757 2:-0.10508 3:0.0777835 4:0.293019 5:-0.0994302 6:-0.560081 7:-0.202575 8:-0.167764 9:0.0709076 10:0.00547793 11:0.0290959 12:-0.046612 13:-0.102022 14:-0.126309 15:-0.0771422 16:-0.0938662 17:-0.482528 18:0.225083 
0 11.5535481234294 0 1:-0.0753231 2:-0.294348 3:-0.0663948 4:0.354998 5:-0.164471 6:-0.436516 7:-0.235966 8:-0.0370048 9:-0.0332695 10:-0.251376 11:-0.0440599 12:-0.061211 13:-0.0774049 14:-0.256087 15:-0.0706209 16:-0.160253 17:-0.473775 18:0.249031 
0 19.82273748776161 0 1:-0.0502595 2:-0.106534 3:0.11226 4:0.320032 5:-0.148499 6:-0.526131 7:-0.151156 8:-0.14215 9:0.120543 10:0.02705 11:0.0146858 12:-0.0874685 13:-0.0741986 14:-0.146237 15:-0.117832 16:-0.0482534 17:-0.535461 18:0.225062 
0.2164348050758451 0 0 1:-0.180232 2:-0.207889 3:0.0101239 4:0.252525 5:-0.353536 6:-0.445439 7:-0.00683198 8:-0.162142 9:0.180386 10:0.0170819 11:0.0204262 12:0.0314899 13:-0.16445 14:-0.196188 15:-0.153714 16:-0.00197385 17:-0.561533 18:0.397906 
0 0 1.550336341461095 1:-0.319683 2:-0.150716 3:0.0573031 4:0.256731 5:-0.419154 6:-0.331763 7:-0.0355926 8:-0.242826 9:0.133708 10:0.053633 11:-0.026451 12:-0.131613 13:-0.0885038 14:-0.213849 15:-0.132662 16:-0.00871793 17:-0.664768 18:0.212563 
0 32 16.2878750737127 1:-0.122714 2:-0.237133 3:0.00944066 4:0.308348 5:-0.091743 6:-0.433529 7:-0.184301 8:-0.0718598 9:0.0405564 10:-0.192842 11:-0.0458176 12:-0.0415287 13:-0.0434778 14:-0.332143 15:-0.0620018 16:-0.119222 17:-0.462401 18:0.136619 
0 1.409555636055256 0 1:-0.0509166 2:-0.355504 3:-0.0525713 4:0.296368 5:0.0879932 6:-0.590527 7:-0.213042 8:-0.00587759 9:0.215049 10:-0.448752 11:-0.10256 12:0.103703 13:-0.221265 14:-0.309027 15:-0.0739869 16:-0.175466 17:-0.471521 18:0.179935 
0.4193436939179133 0 0 1:-0.195949 2:-0.417716 3:-0.286132 4:0.286628 5:0.0556996 6:-0.535246 7:-0.43741 8:-0.0273929 9:0.0175136 10:-0.497991 11:-0.111457 12:0.285173 13:-0.266985 14:-0.088086 15:0.0879268 16:-0.154777 17:-0.341948 18:0.257208 
0 16.56062316703304 0 1:-0.0910698 2:-0.129053 3:0.0921372 4:0.293472 5:-0.209643 6:-0.538374 7:-0.334837 8:-0.00358398 9:-0.0583322 10:-0.126385 11:0.0893981 12:-0.0911701 13:-0.144913 14:-0.223469 15:-0.090073 16:-0.213124 17:-0.669721 18:0.28381 
0 32 0 1:-0.0725844 2:-0.178216 3:-0.0434883 4:0.226121 5:-0.11462 6:-0.599036 7:-0.386746 8:-0.0038813 9:-0.144328 10:-0.0809614 11:0.0648405 12:0.00211535 13:-0.139952 14:-0.263016 15:-0.00112839 16:-0.113558 17:-0.436649 18:0.286341 
0 32 32 1:0.159117 2:-0.0695908 3:0.0598921 4:0.302948 5:-0.2422 6:-0.47936 7:-0.326967 8:0.0316814 9:-0.129756 10:-0.0111988 11:0.0442239 12:-0.187937 13:-0.0518637 14:-0.147228 15:-0.0187409 16:-0.119332 17:-0.526111 18:0.138498 
0 0 3.625014707823623 1:-0.117502 2:-0.280623 3:0.0259447 4:0.384237 5:-0.141072 6:-0.407547 7:-0.151144 8:-0.160459 9:0.0321283 10:-0.183721 11:-0.0486468 12:0.0153414 13:-0.125093 14:-0.192955 15:-0.0761554 16:-0.0423214 17:-0.444547 18:0.150732 
0.6478254231295081 0 0.3984404711981762 1:0.32533 2:-0.0813352 3:-0.00867937 4:0.153098 5:-0.0741765 6:-0.681625 7:-0.167315 8:-0.0491457 9:-0.425312 10:0.880422 11:-0.264241 12:-0.157636 13:-0.229618 14:-0.223884 15:0.0325223 16:-0.0936822 17:-0.723452 18:-0.027896 
0 4.374512052974514 0 1:-0.0856935 2:-0.192568 3:-0.0487977 4:0.167895 5:0.0024314 6:-0.547896 7:-0.218528 8:0.0672084 9:0.0429111 10:0.049972 11:0.137592 12:-0.250228 13:-0.0347071 14:-0.250613 15:-0.07264 16:-0.200149 17:-0.641933 18:0.363983 
0 0 2.574483862593357 1:0.054932 2:-0.517789 3:-0.147904 4:0.179798 5:-0.358511 6:-0.500887 7:-0.219715 8:-0.0374151 9:-0.0469167 10:-0.296455 11:-0.221958 12:-0.347199 13:-0.122155 14:-0.451313 15:-0.0372733 16:-0.094282 17:-0.650295 18:0.490645 
0 4.718634404378268 0 1:-0.0928879 2:-0.182661 3:-0.0383486 4:0.202747 5:-0.066154 6:-0.553707 7:-0.286798 8:-0.0129106 9:-0.124457 10:0.100775 11:0.0700686 12:-0.161678 13:-0.130322 14:-0.203196 15:-0.0188653 16:-0.116838 17:-0.543319 18:0.303424 
0.8719654451901468 0 0 1:0.223524 2:-0.57207 3:-0.11646 4:0.0941869 5:-0.411461 6:-0.73396 7:-0.326203 8:-0.120635 9:-0.104866 10:-0.375994 11:-0.208102 12:-0.209752 13:-0.248095 14:-0.312836 15:0.123005 16:-0.328379 17:-0.605235 18:0.454917 
0 0 15.46645773392193 1:-0.134757 2:-0.190307 3:-0.0102786 4:0.243477 5:-0.0710411 6:-0.509759 7:-0.240368 8:0.0386316 9:-0.0539228 10:0.0332676 11:0.0923341 12:-0.0699649 13:-0.0660365 14:-0.261348 15:-0.10494 16:-0.0838075 17:-0.511518 18:0.339292 
0.1376509057161941 0.3823789461144454 0.9741369076360651 1:0.0244647 2:-0.21165 3:-0.382882 4:0.4561 5:-0.186485 6:-0.107969 7:-0.176812 8:-0.0425028 9:-0.425291 10:-0.424614 11:0.306115 12:-0.13675 13:-0.487297 14:0.0519858 15:0.00664859 16:-0.183998 17:-0.718034 18:0.19215 
0 0 10.01958131958961 1:-0.239722 2:-0.160715 3:-0.00289641 4:0.275973 5:-0.102372 6:-0.501199 7:-0.305723 8:-0.074648 9:-0.125203 10:0.114791 11:0.076816 12:-0.0893743 13:-0.145975 14:-0.192006 15:-0.048621 16:-0.0264022 17:-0.461443 18:0.184158 
0.0905251972205144 0 0.04916460351305357 1:-0.911252 2:0.630619 3:-0.399712 4:0.481428 5:0.489706 6:0.105461 7:-0.0978371 8:0.686261 9:0.0930024 10:0.310739 11:-0.357938 12:-0.0542497 13:0.1466 14:0.123322 15:0.902287 16:0.455679 17:-0.795022 18:0.309867 
0.1020909150225974 0 0.1024741348596743 1:-0.774016 2:0.555416 3:-0.514948 4:0.419973 5:0.460467 6:0.0474368 7:-0.083335 8:1 9:0.0911667 10:0.287716 11:-0.438944 12:-0.28077 13:0.0164928 14:-0.0610963 15:0.735228 16:0.381296 17:-0.63632 18:0.3889 
0.3372033886553372 0 0.2791811656247672 1:-0.457554 2:-0.251369 3:-0.203255 4:-0.0678168 5:0.0904969 6:-0.698437 7:-0.143841 8:0.282832 9:-0.0354679 10:-0.327656 11:-0.384165 12:0.243696 13:-0.368747 14:-0.817243 15:0.425857 16:0.402157 17:-0.419541 18:0.451517 
0 0 18.40237943992795 1:-0.0610414 2:-0.194833 3:-0.029106 4:0.3756 5:-0.163891 6:-0.418003 7:-0.20357 8:0.0468798 9:0.0957833 10:-0.0455005 11:0.117612 12:0.038349 13:-0.0611119 14:-0.174852 15:-0.0855566 16:-0.10155 17:-0.539244 18:0.276342 
0.8167618721085185 0 0 1:-0.71904 2:-0.0928568 3:-0.226648 4:0.167342 5:-0.315346 6:-0.296139 7:-0.577811 8:-0.0839993 9:0.195663 10:0.42874 11:-0.0479206 12:0.00124352 13:-0.242522 14:-0.453686 15:0.264007 16:-0.516172 17:-0.828042 18:0.0597544 
0 0 0.4563083484616095 1:0.0579454 2:-0.171829 3:0.0158587 4:0.559358 5:-0.222906 6:-0.314174 7:-0.142817 8:0.0215451 9:0.160806 10:-0.0105103 11:0.0748193 12:-0.0244787 13:-0.0674443 14:-0.0420956 15:-0.161902 16:-0.071795 17:-0.560171 18:0.163641 
0.1702536368584956 0 0.2456975844283952 1:-0.0815348 2:-0.122992 3:-0.159953 4:0.908994 5:-0.177498 6:0.057134 7:-0.519601 8:0.398112 9:0.31607 10:0.146713 11:-0.246795 12:0.080599 13:-0.625432 14:-0.105168 15:0.183201 16:0.0203466 17:-0.41904 18:-0.246125 
0.06259826816335787 0 0.7477786785327122 1:0.282707 2:-0.31635 3:0.0957867 4:0.978283 5:-0.253712 6:-0.256939 7:-0.366301 8:-0.191314 9:0.0678747 10:0.207605 11:-0.0965761 12:-0.186297 13:-0.35707 14:-0.155447 15:0.407631 16:0.132867 17:-0.27201 18:-0.474632 
0.531627682322751 0 0.4482734960583995 1:-0.0810108 2:-0.513738 3:-0.0887057 4:0.752356 5:-0.147147 6:-0.000110948 7:-0.202619 8:-0.1598 9:0.0518227 10:-0.697501 11:0.0764491 12:0.30838 13:0.217887 14:-0.351682 15:0.0341104 16:0.0453814 17:-0.626717 18:0.243863 
0.06497514070933719 0 0.07548752828451082 1:0.258638 2:-0.327262 3:-0.554476 4:0.728706 5:-0.59362 6:-0.157693 7:-0.522754 8:0.464407 9:0.0891275 10:-0.0907088 11:0.222245 12:-0.0161263 13:-0.572673 14:0.00367141 15:0.0910682 16:-0.126922 17:-0.306817 18:0.530829 
0 0 0.1901748052150888 1:-0.1314 2:-0.257718 3:-0.00835445 4:0.333517 5:-0.0672206 6:-0.45335 7:-0.181355 8:-0.0739384 9:0.0968806 10:-0.169746 11:-0.0789562 12:0.0682394 13:-0.0657996 14:-0.262006 15:-0.0448536 16:-0.0142388 17:-0.392202 18:0.201595 
0.2165160626645569 0 0.4817662305881824 1:0.0907366 2:-0.410854 3:-0.630015 4:0.95508 5:-0.323157 6:0.239557 7:-0.451408 8:0.179127 9:0.363687 10:0.125005 11:0.259042 12:0.426528 13:0.0545569 14:-0.031137 15:-0.0160696 16:-0.355277 17:-0.345168 18:-0.452482 
0.3072313571658887 0.2272155784786586 0.8455943506655306 1:-0.184819 2:-0.485434 3:-0.532841 4:0.769931 5:-0.344816 6:0.310582 7:-0.466738 8:0.142006 9:0.431911 10:0.186929 11:0.133504 12:0.372207 13:0.0589893 14:-0.0421675 15:-0.339567 16:-0.125233 17:-0.50515 18:0.317749 
3.441979365740172 0 0 1:-0.140633 2:-0.317456 3:-0.0703908 4:0.390205 5:-0.123884 6:-0.34003 7:-0.0699782 8:-0.0572506 9:0.0822948 10:-0.146357 11:-0.0930481 12:-0.00895789 13:-0.129892 14:-0.389406 15:-0.0891271 16:-0.0674334 17:-0.394197 18:0.15526 
0 32 0 1:0.0350269 2:-0.105315 3:0.120953 4:0.307023 5:-0.0972914 6:-0.581501 7:-0.237826 8:-0.0704161 9:0.0217176 10:-0.00759309 11:0.129822 12:-0.131836 13:-0.0899313 14:-0.134931 15:-0.0444858 16:-0.113361 17:-0.580761 18:0.195818 
0 12.52348358930384 0 1:0.0136818 2:-0.0916085 3:0.0968364 4:0.286494 5:-0.110108 6:-0.576852 7:-0.262252 8:-0.0567813 9:0.021218 10:0.00396061 11:0.129994 12:-0.115881 13:-0.106775 14:-0.0801819 15:-0.000783586 16:-0.0954431 17:-0.569497 18:0.176148 
0 0.545516762030039 1.508992902093995 1:-0.0288212 2:-0.140355 3:0.110397 4:0.23167 5:-0.149733 6:-0.535129 7:-0.378976 8:-0.0895624 9:0.0574094 10:-0.121341 11:0.205866 12:-0.0860861 13:-0.143947 14:-0.126095 15:0.0322141 16:-0.180175 17:-0.619261 18:0.312826 
0 32 7.880314660785022 1:0.0793332 2:-0.162162 3:0.106297 4:0.216937 5:-0.123643 6:-0.570035 7:-0.251915 8:-0.106406 9:0.0617803 10:-0.0553481 11:0.17181 12:-0.123766 13:-0.127039 14:-0.181517 15:-0.019687 16:-0.108054 17:-0.502224 18:0.309764 
0.690118303042634 0 0 1:0.0211752 2:-0.250112 3:-0.0875578 4:0.366063 5:-0.0926716 6:-0.418133 7:-0.315466 8:-0.0876311 9:0.17143 10:-0.254064 11:-0.194715 12:-0.139279 13:-0.102685 14:-0.207896 15:0.156617 16:-0.217626 17:-0.480633 18:-0.0216568 
0 26.82219595043199 12.99693441784802 1:0.0830762 2:-0.20087 3:0.0169346 4:0.195757 5:-0.0954556 6:-0.551347 7:-0.184575 8:-0.104511 9:0.053291 10:0.0277913 11:0.192603 12:-0.202129 13:-0.0699027 14:-0.228027 15:-0.0673459 16:-0.0985849 17:-0.491034 18:0.350548 
1.938675805276692 0 0 1:0.0871349 2:-0.283115 3:-0.169767 4:0.284232 5:0.012099 6:-0.445801 7:-0.230015 8:0.00708286 9:0.118672 10:-0.168204 11:-0.229711 12:-0.397737 13:-0.0623605 14:-0.331027 15:0.0610652 16:-0.108894 17:-0.424474 18:0.0688975 
4.903953189321721 0 0 1:0.21691 2:-0.222027 3:-0.174848 4:0.119562 5:-0.0482117 6:-0.587964 7:-0.211783 8:0.098848 9:-0.0725167 10:0.0966547 11:0.128822 12:-0.410317 13:-0.0813791 14:-0.214666 15:-0.114274 16:-0.108313 17:-0.562881 18:0.304783 
0 0.9272488469320284 0 1:0.0833633 2:-0.210161 3:-0.130328 4:0.208027 5:0.138744 6:-0.504852 7:-0.299473 8:-0.102011 9:-0.111529 10:-0.234592 11:-0.19956 12:-0.337082 13:-0.0240946 14:-0.0798029 15:-0.175973 16:-0.0254323 17:-0.507408 18:0.19495 
0 0 1.119333929256953 1:0.254927 2:-0.132835 3:-0.00529865 4:0.303896 5:0.0289624 6:-0.490052 7:-0.428761 8:0.0511013 9:-0.121201 10:-0.329691 11:-0.181247 12:-0.355981 13:-0.0091294 14:-0.274548 15:0.00701108 16:-0.0700685 17:-0.471209 18:0.110884 
0.223547742006898 0 0.06113125059055571 1:0.403344 2:-0.081366 3:0.0505635 4:0.246626 5:-0.223165 6:-0.491795 7:-0.40066 8:0.0675945 9:-0.160795 10:-0.128843 11:0.176461 12:-0.374757 13:-0.140288 14:-0.0864984 15:-0.105035 16:-0.00461856 17:-0.51448 18:0.122295 
0 1.292616056713647 0 1:0.0371429 2:-0.247753 3:-0.0417949 4:-0.0423641 5:0.144265 6:-0.645029 7:-0.427779 8:-0.0495425 9:-0.140541 10:-0.110042 11:0.257345 12:-0.213047 13:-0.124609 14:-0.116539 15:-0.121953 16:-0.0312022 17:-0.491877 18:0.346351 
0.4934089438695078 0 0 1:0.310464 2:-0.125832 3:0.0463909 4:0.109326 5:-0.0903108 6:-0.739914 7:-0.19649 8:-0.0636368 9:-0.341786 10:0.612618 11:-0.0670509 12:0.0196634 13:-0.233988 14:-0.0652991 15:0.0743736 16:-0.23484 17:-0.742246 18:0.143144 
0.4922145232714006 0 0 1:0.340749 2:-0.286195 3:-0.227644 4:0.320275 5:0.0133328 6:-0.648861 7:-0.216589 8:-0.0254656 9:-0.351615 10:0.155777 11:-0.539166 12:0.0765511 13:-0.225869 14:-0.506624 15:-0.105153 16:-0.256073 17:-0.653815 18:0.117101 
0 3.364835379244144 0.2988724167375291 1:0.398296 2:-0.17489 3:0.0126461 4:0.116659 5:-0.0282612 6:-0.760691 7:-0.193456 8:0.0459198 9:-0.2695 10:0.363884 11:-0.0193562 12:0.205707 13:-0.172852 14:-0.350513 15:-0.0410092 16:-0.15591 17:-0.596605 18:0.139493 
0 0 1.822506796848568 1:0.437454 2:-0.240146 3:-0.0508151 4:0.311911 5:-0.0276867 6:-0.593845 7:-0.199722 8:-0.121962 9:-0.143085 10:-0.0894283 11:-0.400397 12:0.0339523 13:-0.139611 14:-0.391301 15:-0.0697308 16:-0.254485 17:-0.462343 18:0.295331 
0 1.499778194693192 0 1:0.328178 2:-0.176292 3:0.050072 4:0.117405 5:-0.0331731 6:-0.85449 7:-0.22317 8:0.0144437 9:-0.287711 10:0.264977 11:-0.101828 12:0.354521 13:-0.248843 14:-0.26845 15:0.0763458 16:-0.243047 17:-0.528971 18:0.092652 
0.2693120649141714 0 0 1:0.503943 2:-0.260282 3:-0.205636 4:0.429729 5:0.0734308 6:-0.681073 7:-0.205085 8:0.0806098 9:-0.296906 10:0.134399 11:-0.422117 12:0.0950446 13:-0.52132 14:0.0736575 15:-0.348134 16:-0.46375 17:-0.384514 18:0.0836759 
0 0 0.7409675782979877 1:-0.675166 2:-0.255927 3:-0.0290295 4:-0.0141843 5:0.202234 6:-0.50395 7:-0.530775 8:-0.241185 9:-0.152325 10:-0.221571 11:0.304848 12:-0.23622 13:-0.113794 14:-0.0378394 15:-0.0415089 16:0.144245 17:-0.378241 18:0.284096 
0.3740752435307692 0 0 1:-0.697182 2:-0.449713 3:-0.295082 4:-0.049028 5:-0.169565 6:-0.561046 7:-0.661433 8:-0.405656 9:-0.103401 10:-0.524741 11:-0.108255 12:-0.128117 13:-0.254056 14:0.0855155 15:0.0994958 16:0.149089 17:-0.357598 18:0.38062 
0.6445230522233825 0.9326709158082644 0.08283494827154508 1:0.0389213 2:-0.104237 3:0.131257 4:0.228861 5:-0.0947648 6:-0.651426 7:-0.0713398 8:-0.191909 9:-0.200961 10:0.821932 11:-0.137542 12:-0.0739511 13:-0.198848 14:-0.236054 15:0.131167 16:-0.209973 17:-0.773627 18:0.0209209 
0.7987589179949005 0 0.2850247698160606 1:-0.0912346 2:-0.544908 3:-0.259682 4:0.0959121 5:-0.446211 6:-0.686571 7:-0.338944 8:-0.397284 9:-0.336941 10:0.0693874 11:-0.388658 12:-0.0260853 13:-0.330792 14:-0.000485183 15:0.344675 16:-0.171194 17:-0.638601 18:0.472574 
0.1080361248445903 0.05820458935794756 0.05643003849399629 1:-0.0888243 2:0.112803 3:0.846894 4:-0.156634 5:0.412464 6:-0.816781 7:-0.382545 8:-0.386306 9:0.498878 10:-0.132598 11:0.195584 12:-0.566451 13:-0.282951 14:-0.196469 15:0.331008 16:-0.202385 17:-0.491895 18:0.28458 
0 0.3728604596580941 0 1:0.00816569 2:-0.0873081 3:0.145281 4:0.302239 5:-0.144411 6:-0.406483 7:-0.359751 8:-0.0317252 9:0.0404447 10:-0.00866471 11:0.203197 12:-0.446873 13:-0.123856 14:-0.103176 15:-0.0527655 16:-0.078583 17:-0.546519 18:0.0551364 
0.05413882898432248 0 0.1297008245932208 1:0.121585 2:0.183963 3:0.847169 4:-0.112188 5:0.24499 6:-0.673447 7:-0.311105 8:-0.313562 9:0.603709 10:-0.0876016 11:0.116177 12:-0.396326 13:-0.235271 14:-0.221513 15:0.461876 16:0.0171226 17:-0.450438 18:0.135241 
0.1331854786468611 0 0.09859626335691174 1:0.246091 2:0.166974 3:0.387137 4:0.378128 5:0.180388 6:-0.628867 7:-0.354584 8:-0.461943 9:0.073653 10:-0.219764 11:-0.0642323 12:-0.0488459 13:-0.805869 14:0.859976 15:-0.51157 16:-0.274925 17:-0.26534 18:-0.624872 
6.718052205383811 0 2.510371105013075 1:0.201203 2:-0.164568 3:-0.0396817 4:0.337711 5:-0.286773 6:-0.360828 7:-0.271969 8:0.0879224 9:0.0351841 10:0.0337935 11:0.117506 12:-0.368575 13:-0.0568284 14:-0.184359 15:-0.0467091 16:-0.138037 17:-0.519069 18:0.135223 
0.1518251268602069 0 0.1173388328104491 1:0.293156 2:0.183317 3:0.292983 4:0.523388 5:0.0548423 6:-0.579506 7:-0.318151 8:-0.5343 9:0.0376384 10:-0.265848 11:0.0626185 12:0.0301658 13:-0.759606 14:0.696452 15:-0.443459 16:0.0717098 17:-0.429256 18:-0.562604 
0 0 8.002865659757694 1:0.000945684 2:-0.126324 3:-0.401093 4:0.41136 5:-0.399868 6:-0.308314 7:-0.30293 8:0.374767 9:-0.0395933 10:0.146655 11:-0.000268544 12:-0.27865 13:0.00809405 14:-0.0640296 15:-0.0977307 16:-0.0183617 17:-0.517206 18:0.295853 
0.1028727822001291 0 0.07674150182642084 1:-0.612953 2:0.695072 3:-0.315499 4:0.58303 5:0.393518 6:0.213182 7:-0.453863 8:0.641547 9:0.395417 10:0.184191 11:-0.453052 12:-0.113552 13:0.118147 14:0.0382796 15:0.562856 16:0.262642 17:-0.371893 18:0.528912 
0.2343258109604796 0 0.2276334493198411 1:-0.723994 2:0.779423 3:-0.313382 4:-0.0204019 5:0.113708 6:-0.276658 7:-0.374536 8:0.747572 9:0.369259 10:0.181562 11:-0.644287 12:-0.189639 13:-0.123426 14:0.222201 15:0.937805 16:0.372061 17:-0.38571 18:0.892972 
0 0 13.92499470755415 1:0.0369233 2:-0.207424 3:-0.208068 4:0.406319 5:-0.290982 6:-0.307755 7:-0.342757 8:0.18841 9:-0.177043 10:0.0675163 11:0.031679 12:-0.295892 13:-0.0262486 14:-0.214926 15:-0.0393762 16:-0.124843 17:-0.560652 18:0.209766 
0.1607580415889803 0 0.1407687494275134 1:-0.617624 2:0.629914 3:-0.220788 4:0.686589 5:0.393898 6:0.212906 7:-0.261437 8:0.231373 9:0.0395536 10:-0.374753 11:-0.412214 12:-0.104803 13:-0.225485 14:0.0913928 15:0.510729 16:0.53315 17:-0.533593 18:0.12024 
0 0 4.84642206887121 1:0.0455671 2:-0.156916 3:-0.0246253 4:0.40057 5:-0.140191 6:-0.371438 7:-0.310051 8:0.0589229 9:-0.0678021 10:0.0277638 11:0.0728922 12:-0.241949 13:-0.000482802 14:-0.189088 15:-0.0455594 16:-0.214551 17:-0.60187 18:0.232124 
0.1522992847163644 0 0.2329228935895535 1:-0.738121 2:0.872374 3:-0.120266 4:0.534391 5:0.503184 6:0.282452 7:-0.295141 8:-0.0101551 9:0.352144 10:-0.0561935 11:-0.253538 12:0.0562714 13:-0.0112596 14:0.128728 15:0.52029 16:0.162461 17:-0.620727 18:0.0997365 
0 1.153063410508977 0 1:-0.125837 2:-0.564855 3:0.174441 4:0.283158 5:-0.141172 6:-0.203227 7:-0.386724 8:-0.256887 9:-0.0443194 10:-0.161769 11:0.203248 12:0.0513409 13:-0.228141 14:-0.12784 15:0.120606 16:-0.431188 17:-0.700857 18:0.0316572 
0 0 0.5130491408423909 1:-0.0377091 2:-0.150367 3:0.0733703 4:0.186096 5:-0.184128 6:-0.57489 7:-0.335678 8:-0.0712466 9:0.0147666 10:-0.194447 11:0.204066 12:0.0379103 13:-0.0720179 14:-0.101065 15:-0.0106237 16:-0.221796 17:-0.693396 18:0.364103 
0 32 0 1:0.0641266 2:-0.128431 3:0.0603285 4:0.418627 5:-0.0622321 6:-0.409389 7:-0.290922 8:0.0227162 9:-0.0147993 10:0.0322248 11:0.0809683 12:-0.182684 13:-0.00953528 14:-0.151612 15:-0.051123 16:-0.211667 17:-0.588838 18:0.187632 
0.06598686910334042 0 0.0655308321075848 1:-0.640029 2:0.798922 3:-0.060966 4:0.453211 5:0.556524 6:-0.0169855 7:-0.0241416 8:0.630026 9:0.207328 10:0.0381404 11:-0.426766 12:-0.335485 13:-0.0748255 14:-0.0134532 15:0.768905 16:0.580619 17:-0.623533 18:0.223945 
0 3.08757400850256 0 1:0.113814 2:-0.104205 3:0.0918558 4:0.442533 5:-0.0396889 6:-0.419158 7:-0.284338 8:-0.00464697 9:0.000647173 10:0.00946328 11:0.0849132 12:-0.159265 13:-0.0454297 14:-0.114774 15:-0.0636251 16:-0.169493 17:-0.527645 18:0.13598 
0.09930719935711774 0 0.1921170073831569 1:0.285783 2:0.272042 3:0.233458 4:0.399669 5:0.11071 6:-0.796763 7:-0.27857 8:-0.437571 9:0.034102 10:-0.11746 11:0.0250141 12:0.148955 13:-0.728187 14:0.766713 15:-0.261162 16:-0.114852 17:-0.520546 18:-0.193749 
0.1173867960680108 0 0.08182369033823272 1:-0.43943 2:0.6499 3:-0.27994 4:0.560911 5:0.119645 6:0.0454263 7:-0.101277 8:0.813571 9:0.0920966 10:0.16312 11:-0.506792 12:-0.32723 13:-0.0423962 14:0.331828 15:1 16:0.465368 17:-0.576768 18:0.252524 
0.003860186122094263 0 0.003356684703693209 1:-0.44578 2:0.481693 3:-0.327078 4:0.576436 5:0.205496 6:0.219913 7:-0.157074 8:0.394318 9:0.203623 10:-0.023743 11:-0.438308 12:-0.0995502 13:-0.160044 14:-0.0788241 15:0.815563 16:0.114 17:-0.668245 18:0.207525 
0.1172279532785665 0 0.3652657027236565 1:-0.44578 2:0.481693 3:-0.327078 4:0.576436 5:0.205496 6:0.219913 7:-0.157074 8:0.394318 9:0.203623 10:-0.023743 11:-0.438308 12:-0.0995502 13:-0.160044 14:-0.0788241 15:0.815563 16:0.114 17:-0.668245 18:0.207525 
0 2.822611317199404 3.191845910748282 1:-0.0801817 2:-0.637216 3:0.110685 4:0.320875 5:-0.0920915 6:-0.222695 7:-0.347535 8:-0.126703 9:-0.0925988 10:-0.306017 11:0.271829 12:0.0491716 13:-0.24302 14:-0.306681 15:0.0522534 16:-0.288743 17:-0.734868 18:0.0546541 
0 2.771324652784104 0 1:-0.0760473 2:-0.0717824 3:0.260565 4:0.310015 5:-0.309655 6:-0.515616 7:-0.499583 8:-0.0638571 9:-0.0511848 10:-0.375929 11:0.181634 12:0.172089 13:-0.100577 14:-0.133455 15:-0.0180617 16:-0.225123 17:-0.688373 18:0.11814 
0.1352853486750939 0 0 1:-0.0393575 2:-0.205056 3:0.0820242 4:0.422703 5:-0.0253212 6:-0.506601 7:-0.460232 8:-0.20776 9:-0.0975438 10:-0.911794 11:-0.2481 12:0.0930381 13:-0.292032 14:-0.100178 15:-0.29173 16:-0.0873797 17:-0.653661 18:-0.0267532 
0.3083687523712055 0 0 1:-0.202789 2:-0.246521 3:0.0852875 4:0.454974 5:-0.128656 6:-0.38306 7:-0.633194 8:-0.0505269 9:-0.108949 10:-0.81916 11:-0.203406 12:0.0635952 13:-0.162645 14:-0.142199 15:0.0448392 16:-0.390336 17:-0.854387 18:-0.229693 
0.03112678013976466 0 0 1:-0.251736 2:-0.0995726 3:0.245061 4:0.297044 5:-0.205646 6:-0.521921 7:-0.69128 8:-0.0696708 9:-0.104227 10:-0.646428 11:0.271347 12:0.375633 13:-0.143977 14:0.0130944 15:0.0680784 16:-0.200381 17:-0.767799 18:0.137014 
0 24.89699293164904 0 1:0.277709 2:-0.104494 3:0.0529784 4:0.423016 5:-0.0138656 6:-0.558263 7:-0.279802 8:-0.0314104 9:-0.134006 10:-0.041767 11:0.0806469 12:-0.167397 13:-0.108702 14:-0.0826892 15:-0.115964 16:-0.121582 17:-0.538523 18:0.154993 
0 0.1891652021985546 0 1:0.0895733 2:-0.223468 3:-0.1064 4:0.177387 5:0.141923 6:-0.618457 7:-0.152833 8:-0.0433556 9:-0.00642769 10:0.0447503 11:0.291847 12:-0.347495 13:-0.105212 14:-0.234091 15:-0.121344 16:-0.102035 17:-0.539406 18:0.287005 
9.687612829788572 0 0 1:0.0716553 2:-0.261634 3:-0.173706 4:0.195703 5:-0.0518792 6:-0.5082 7:-0.215369 8:-0.0276768 9:0.0560624 10:-0.205205 11:-0.164204 12:-0.408268 13:-0.0614963 14:-0.349466 15:-0.042976 16:-0.150717 17:-0.441998 18:0.251814 
0 0 2.206040792586176 1:0.308619 2:-0.219258 3:-0.0415659 4:0.346914 5:-0.181466 6:-0.424422 7:-0.108605 8:0.00356779 9:0.0438607 10:-0.0254577 11:0.291873 12:-0.363383 13:-0.128932 14:-0.210606 15:-0.151965 16:-0.104163 17:-0.515779 18:0.189564 
9.539412789381604 0 0 1:0.310003 2:-0.23545 3:-0.116151 4:0.351448 5:-0.201051 6:-0.351592 7:-0.126673 8:0.0436094 9:0.0194979 10:-0.0535367 11:0.259145 12:-0.332946 13:-0.13177 14:-0.171603 15:-0.108931 16:-0.17807 17:-0.56463 18:0.227037 
2.197555181774004 0 0 1:0.176715 2:-0.295998 3:-0.195844 4:0.326826 5:-0.153066 6:-0.310116 7:-0.111177 8:0.0175004 9:-0.0703162 10:0.0354636 11:0.2475 12:-0.386257 13:-0.131098 14:-0.0760531 15:-0.0550604 16:-0.0960435 17:-0.572024 18:0.180345 
2.003584274103144 0 0 1:0.089254 2:-0.349918 3:-0.13345 4:0.1549 5:-0.0878892 6:-0.455452 7:-0.237808 8:-0.0377061 9:-0.0210612 10:-0.312708 11:-0.207248 12:-0.295831 13:-0.10474 14:-0.307878 15:0.0315158 16:-0.160366 17:-0.530367 18:0.218336 
6.345029719545622 3.235575190214343 5.117698961609787 1:0.0563098 2:-0.362709 3:-0.267881 4:0.202672 5:0.0247952 6:-0.375976 7:-0.19302 8:-0.0150409 9:-0.187554 10:-0.0347964 11:0.281402 12:-0.300609 13:-0.124522 14:-0.121581 15:-0.0541199 16:-0.0702073 17:-0.538384 18:0.265139 
0.9096774014242135 0 0 1:0.0552343 2:-0.465205 3:-0.277991 4:0.0878242 5:-0.0850495 6:-0.403212 7:-0.195936 8:-0.0284287 9:-0.159385 10:-0.3206 11:-0.167656 12:-0.458471 13:-0.198707 14:-0.416003 15:-0.0986414 16:-0.149292 17:-0.516122 18:0.228708 
8.280220401382916 0 0 1:0.0141343 2:-0.41618 3:-0.325526 4:0.13205 5:0.0891207 6:-0.404838 7:-0.141017 8:-0.00480549 9:-0.239484 10:-0.0129046 11:0.260321 12:-0.386622 13:-0.0838509 14:-0.253939 15:-0.157099 16:-0.0394114 17:-0.557306 18:0.314068 
4.94025058838103 0.8089669884726234 0 1:0.0294064 2:-0.504813 3:-0.455552 4:0.0612439 5:0.0582303 6:-0.424034 7:-0.283767 8:-0.0138608 9:-0.280216 10:0.0421806 11:0.26384 12:-0.437349 13:-0.215958 14:-0.203222 15:-0.0289355 16:-0.0579837 17:-0.672797 18:0.101789 
0.3897490202050398 0 0 1:0.0282939 2:-0.413553 3:-0.316993 4:0.0411241 5:0.039884 6:-0.403414 7:-0.24854 8:-0.113321 9:-0.117435 10:-0.203896 11:-0.197554 12:-0.454117 13:-0.0821501 14:-0.155846 15:-0.0321805 16:0.0193091 17:-0.526449 18:0.299688 
0.03114948967326666 0 0 1:0.0288576 2:-0.374109 3:-0.247048 4:0.0431991 5:0.212709 6:-0.429515 7:-0.284691 8:-0.0380588 9:-0.118977 10:-0.0329582 11:0.378838 12:-0.427478 13:-0.10841 14:-0.0377063 15:-0.0960533 16:-0.0776977 17:-0.597837 18:0.23184 
15.9028274082609 0.1935766916008753 0 1:-0.0562676 2:-0.447177 3:-0.410862 4:-0.00918272 5:0.0882916 6:-0.376733 7:-0.388224 8:-0.0162172 9:-0.130164 10:-0.289203 11:-0.0996162 12:-0.460924 13:-0.0427579 14:-0.151266 15:0.0212006 16:-0.135226 17:-0.543764 18:0.28528 
0 0.3195757802182725 0 1:0.233566 2:-0.128237 3:0.0305997 4:0.222382 5:-0.153754 6:-0.599183 7:-0.357522 8:-0.0977731 9:-0.0353009 10:-0.260148 11:-0.206408 12:-0.134013 13:-0.0816985 14:-0.0672823 15:-0.015748 16:-0.0933218 17:-0.441863 18:0.0732698 
0 0 0.5183726375845177 1:0.0803944 2:-0.348953 3:-0.159784 4:-0.0598442 5:0.234026 6:-0.593857 7:-0.503338 8:-0.00174824 9:-0.277533 10:-0.222136 11:0.369588 12:-0.148233 13:-0.165822 14:-0.143152 15:-0.144306 16:0.0248796 17:-0.582316 18:0.397676 
0 0 1.844528872305088 1:0.508944 2:-0.178452 3:0.0732562 4:0.213606 5:-0.124223 6:-0.442704 7:-0.399876 8:0.052003 9:-0.326301 10:0.0170584 11:0.162209 12:-0.265106 13:-0.230909 14:-0.150417 15:-0.109921 16:-0.0424561 17:-0.59427 18:0.222325 
0 0 1.040823949373926 1:0.590799 2:-0.235622 3:-0.00670552 4:0.256639 5:-0.196076 6:-0.423291 7:-0.399715 8:0.123944 9:-0.334335 10:-0.0220729 11:0.174579 12:-0.203168 13:-0.277118 14:-0.117347 15:-0.0858127 16:-0.00727328 17:-0.517008 18:0.298687 
0 0.6819833089271443 0 1:0.264171 2:-0.266263 3:0.0530991 4:0.143562 5:0.245417 6:-0.360101 7:-0.382785 8:-0.0594732 9:-0.0269177 10:-0.336551 11:-0.14565 12:-0.603016 13:-0.0392069 14:-0.170312 15:-0.262993 16:0.0619316 17:-0.652398 18:0.159197 
0.1486508460385845 0 0 1:0.40854 2:-0.220573 3:-0.0193593 4:0.0791656 5:-0.00851581 6:-0.61843 7:-0.175444 8:-0.0682212 9:-0.47851 10:0.787295 11:-0.12135 12:-0.118787 13:-0.274877 14:-0.356169 15:-0.0891413 16:-0.1822 17:-0.711165 18:0.0579166 
0 1.576835676846446 0 1:0.307569 2:-0.287978 3:-0.0592872 4:0.213168 5:0.183589 6:-0.571602 7:-0.210609 8:-0.0268671 9:-0.374914 10:0.371591 11:-0.443011 12:-0.174909 13:-0.203844 14:-0.500806 15:-0.173496 16:-0.0889426 17:-0.600896 18:0.309376 
0.7559523228558401 2.810949038827448 0.9406352956427469 1:0.185411 2:-0.258013 3:-0.00652713 4:0.241268 5:0.0490675 6:-0.609786 7:-0.198718 8:-0.0444384 9:-0.398836 10:0.440507 11:-0.400165 12:-0.330615 13:-0.241177 14:-0.548733 15:-0.0120854 16:-0.00258979 17:-0.504712 18:0.164186 
0 5.847628575786939 0.1125427777786659 1:-0.100879 2:-0.310833 3:0.0308091 4:0.217695 5:-0.038199 6:-0.279228 7:-0.365104 8:-0.0588204 9:-0.144157 10:-0.028105 11:0.189993 12:-0.560205 13:-0.0352486 14:-0.182437 15:-0.167349 16:-0.0718649 17:-0.63693 18:0.0863814 
0 0 3.8719317769946 1:-0.0769966 2:-0.276537 3:0.00797063 4:0.166156 5:-0.0537866 6:-0.37731 7:-0.383368 8:-0.0471658 9:-0.0763105 10:-0.323686 11:-0.0407186 12:-0.590299 13:-0.0930592 14:-0.164829 15:0.0533348 16:0.118487 17:-0.552734 18:0.113872 
0 11.65061242450489 11.43808719232084 1:0.263676 2:-0.173083 3:0.171702 4:0.406859 5:-0.0820951 6:-0.357028 7:-0.272052 8:-0.057792 9:-0.0878462 10:0.00784437 11:0.180064 12:-0.376112 13:-0.10013 14:-0.158321 15:-0.117442 16:-0.0984335 17:-0.535398 18:0.132769 
0 0 3.898810428132272 1:0.262676 2:-0.13167 3:0.17458 4:0.389395 5:-0.0564833 6:-0.39124 7:-0.241218 8:-0.0882681 9:-0.0330396 10:0.133513 11:0.143936 12:-0.304597 13:-0.131693 14:-0.0657052 15:-0.0651457 16:-0.101378 17:-0.551542 18:0.228119 
0 32 0 1:0.187525 2:-0.179506 3:0.163589 4:0.397919 5:-0.0754377 6:-0.400155 7:-0.261209 8:-0.0928902 9:-0.0652471 10:0.0575211 11:0.146332 12:-0.289152 13:-0.133491 14:-0.172433 15:-0.0879732 16:-0.173889 17:-0.540784 18:0.149499 
3.238712596953588 0 0 1:0.295068 2:-0.0794336 3:-0.0757008 4:0.370394 5:-0.104778 6:-0.516836 7:-0.348834 8:0.0506749 9:-0.212707 10:-0.0500803 11:0.158753 12:-0.255764 13:-0.154096 14:-0.114718 15:-0.0499681 16:-0.146694 17:-0.566014 18:0.256582 
0 32 2.559211125138102 1:0.136743 2:-0.217257 3:0.104935 4:0.387823 5:-0.0534112 6:-0.432959 7:-0.2768 8:-0.105054 9:-0.0428387 10:0.0229683 11:0.113489 12:-0.237394 13:-0.14853 14:-0.0609072 15:-0.0292166 16:-0.139762 17:-0.574147 18:0.160653 
0 1.617703668128532 0 1:0.0483251 2:-0.203505 3:0.0838038 4:0.192184 5:-0.109117 6:-0.52419 7:-0.355833 8:-0.117666 9:0.0275803 10:-0.161254 11:-0.192255 12:-0.113261 13:-0.15601 14:-0.149035 15:0.0579781 16:-0.105828 17:-0.436024 18:0.0694378 
0 32 0 1:0.176746 2:-0.171637 3:0.163513 4:0.375434 5:0.00254147 6:-0.447468 7:-0.260434 8:-0.102576 9:0.0232662 10:0.0314031 11:0.133616 12:-0.1576 13:-0.112261 14:-0.112103 15:-0.0702782 16:-0.171361 17:-0.529288 18:0.17615 
0 7.885921606207731 0 1:0.132306 2:-0.27146 3:0.0921453 4:0.168942 5:-0.1331 6:-0.566668 7:-0.3182 8:-0.127355 9:0.0189617 10:-0.217858 11:-0.218463 12:-0.128916 13:-0.140301 14:-0.141464 15:0.102645 16:-0.121464 17:-0.454882 18:0.0630123 
0 32 0 1:0.167099 2:-0.161949 3:0.146581 4:0.374554 5:-0.0178945 6:-0.454771 7:-0.236939 8:-0.0852325 9:0.0241397 10:0.0410202 11:0.122366 12:-0.151688 13:-0.113214 14:-0.133742 15:-0.0662977 16:-0.179909 17:-0.517336 18:0.191499 
0 32 0 1:0.212978 2:-0.210697 3:0.0869045 4:0.3836 5:-0.0675287 6:-0.473234 7:-0.250438 8:-0.0397643 9:0.000561525 10:0.00459113 11:0.124579 12:-0.145807 13:-0.135551 14:-0.143645 15:-0.0751743 16:-0.170059 17:-0.497474 18:0.213828 
0 32 0 1:0.248106 2:-0.146954 3:0.133928 4:0.3815 5:-0.0251404 6:-0.487496 7:-0.251918 8:-0.0348364 9:0.0438266 10:0.0380875 11:0.102104 12:-0.106151 13:-0.102876 14:-0.153576 15:-0.0386018 16:-0.157369 17:-0.469421 18:0.172298 
0 32 0 1:0.176217 2:-0.267025 3:0.0321927 4:0.217675 5:-0.197225 6:-0.510804 7:-0.278444 8:0.0141136 9:0.0235968 10:-0.196698 11:-0.180951 12:-0.180131 13:-0.0894994 14:-0.35251 15:-0.015768 16:-0.224907 17:-0.486472 18:0.149102 
0 32 0 1:0.246771 2:-0.138949 3:0.115973 4:0.386123 5:-0.0195383 6:-0.492316 7:-0.215778 8:-0.0406601 9:0.00604969 10:0.0207412 11:0.09264 12:-0.104656 13:-0.0969405 14:-0.15445 15:-0.0708869 16:-0.172419 17:-0.475126 18:0.21243 
0 13.21376062562645 0 1:0.240812 2:-0.134942 3:0.119555 4:0.396944 5:-0.0186302 6:-0.507861 7:-0.233803 8:-0.0473275 9:0.0408987 10:0.0659912 11:0.122838 12:-0.120329 13:-0.0940722 14:-0.142853 15:-0.0546298 16:-0.149326 17:-0.492518 18:0.181228 
0 0 0.6704532965670359 1:0.31116 2:-0.119237 3:0.113002 4:0.445188 5:-0.0741104 6:-0.473831 7:-0.21668 8:0.00703977 9:0.0279714 10:0.0807212 11:0.0907225 12:-0.202584 13:-0.0888408 14:-0.168581 15:-0.0577354 16:-0.198432 17:-0.510113 18:0.166973 
0 0 4.176407058044027 1:0.303949 2:-0.115334 3:0.111101 4:0.433144 5:-0.082021 6:-0.474258 7:-0.228152 8:-0.0189217 9:0.066219 10:0.101441 11:0.0993253 12:-0.189868 13:-0.0721922 14:-0.128286 15:-0.0728206 16:-0.173558 17:-0.509933 18:0.169294 
0 0 8.294167245315249 1:0.313335 2:-0.0973787 3:-0.0502326 4:0.308518 5:-0.0796395 6:-0.540819 7:-0.292084 8:0.0310211 9:-0.152559 10:0.018464 11:0.126637 12:-0.288764 13:-0.123151 14:-0.166631 15:-0.0679689 16:-0.123412 17:-0.559462 18:0.273891 
0.0675141275475336 0 0 1:0.351627 2:0.178607 3:0.466209 4:0.272141 5:0.128475 6:-0.688133 7:-0.188296 8:-0.435829 9:0.243946 10:0.0565738 11:-0.0882973 12:0.0986079 13:-0.420103 14:0.609543 15:-0.269684 16:-0.313205 17:-0.394575 18:-0.235131 
0 0.02055755637453658 0 1:0.350639 2:0.00427405 3:0.155887 4:0.3035 5:-0.0820829 6:-0.636257 7:-0.261442 8:-0.191937 9:0.015596 10:-0.164856 11:-0.163612 12:-0.0911651 13:-0.374719 14:0.276772 15:-0.386153 16:-0.546953 17:-0.376603 18:-0.176098 
0 0.434599162302146 0 1:0.350639 2:0.00427405 3:0.155887 4:0.3035 5:-0.0820829 6:-0.636257 7:-0.261442 8:-0.191937 9:0.015596 10:-0.164856 11:-0.163612 12:-0.0911651 13:-0.374719 14:0.276772 15:-0.386153 16:-0.546953 17:-0.376603 18:-0.176098 
4.506163385809398 0 0 1:0.24893 2:-0.174966 3:-0.0838908 4:0.214629 5:0.0375411 6:-0.566105 7:-0.245779 8:0.0379059 9:-0.0852339 10:-0.0241366 11:0.166815 12:-0.308937 13:-0.0930109 14:-0.249985 15:-0.0551484 16:-0.150572 17:-0.510652 18:0.283585 
1.182113600909809 5.320463192300058 0 1:0.170458 2:-0.269022 3:-0.127272 4:0.221655 5:-0.0425773 6:-0.552404 7:-0.350243 8:-0.0681717 9:-0.103945 10:-0.26628 11:-0.165346 12:-0.256527 13:-0.110319 14:-0.230719 15:0.0531138 16:-0.129982 17:-0.425449 18:0.208931 
11.36924806857465 0 0 1:0.124148 2:-0.216893 3:-0.181706 4:0.153332 5:0.12311 6:-0.591806 7:-0.201685 8:-0.0359415 9:-0.0715557 10:0.0207529 11:0.17812 12:-0.256137 13:-0.0617304 14:-0.183171 15:-0.0527906 16:-0.107677 17:-0.468173 18:0.326363 
0 7.364392349836461 0 1:0.0929696 2:-0.245477 3:-0.114682 4:0.125867 5:0.112364 6:-0.569304 7:-0.283697 8:-0.142136 9:-0.0631989 10:-0.147527 11:-0.175894 12:-0.250154 13:-0.0874357 14:-0.309394 15:0.00600582 16:-0.123192 17:-0.346396 18:0.175607 
5.960527390570412 0 0 1:0.0137986 2:-0.323908 3:-0.262211 4:0.118716 5:0.107664 6:-0.58627 7:-0.324411 8:-0.148769 9:-0.0903973 10:-0.10577 11:-0.185025 12:-0.199082 13:-0.140222 14:-0.108708 15:0.142945 16:-0.0801055 17:-0.286157 18:0.099699 
8.032018711570467 4.230433653564159 0 1:0.0567181 2:-0.287857 3:-0.241693 4:0.133636 5:0.166781 6:-0.632449 7:-0.215386 8:-0.038196 9:-0.0602107 10:0.106308 11:0.240749 12:-0.235391 13:-0.0964972 14:-0.19841 15:-0.0452357 16:-0.119815 17:-0.516026 18:0.342277 
0.1929989672845023 0 0.5441543466133353 1:0.455975 2:-0.992774 3:-0.3241 4:0.560101 5:-0.483987 6:-0.132521 7:-0.533585 8:-0.449633 9:-0.628569 10:-0.406975 11:0.173155 12:-0.0632592 13:-0.389342 14:0.453126 15:0.24669 16:-0.330881 17:-0.587181 18:-0.212061 
0 0.1263756508681522 0 1:0.351173 2:-0.490944 3:-0.0949979 4:0.197424 5:-0.35292 6:-0.0901372 7:-0.216128 8:-0.0355689 9:-0.225627 10:-0.154575 11:-0.0439796 12:-0.145702 13:-0.0934419 14:-0.325906 15:0.0661941 16:-0.234724 17:-0.458003 18:0.166057 
0.1499932070941336 0 0.1332902982317171 1:0.0362318 2:0.0806027 3:-0.917097 4:-0.921732 5:-0.0156368 6:-0.736265 7:0.0111267 8:0.101805 9:0.0917013 10:0.0298763 11:0.824329 12:0.955235 13:-0.374754 14:0.108262 15:0.196271 16:-0.310385 17:-0.572925 18:0.658748 
0.255555602545027 0 0.2224628928661721 1:0.125933 2:-0.179682 3:-0.484687 4:-0.931395 5:-0.0836504 6:-0.725501 7:0.367342 8:-0.152655 9:0.20848 10:-0.812345 11:0.486211 12:0.400104 13:-0.226126 14:-0.0782146 15:0.22984 16:-0.683472 17:-0.722011 18:0.794272 
0.1614768599512991 0 0.1465564370102025 1:-0.0637479 2:0.188551 3:-0.976984 4:-0.95526 5:0.0522554 6:-0.815437 7:-0.088895 8:-0.14767 9:0.0160041 10:-0.150165 11:0.782641 12:1 13:-0.581699 14:0.432 15:0.197032 16:-0.30524 17:-0.539393 18:0.402 
0.2716993113174206 0 0.1996681777114453 1:0.282518 2:0.105152 3:-0.614241 4:-0.998477 5:-0.035206 6:-0.981306 7:0.33526 8:0.064737 9:0.234394 10:-0.380054 11:0.481846 12:0.485269 13:-0.106035 14:-0.109064 15:-0.170291 16:-0.970681 17:-0.674966 18:-0.12607 
0.1730522797140281 0.2733362601542638 0.6903979974302299 1:-0.0822638 2:-0.484959 3:-0.150017 4:0.213528 5:-0.401755 6:-0.241222 7:-0.610983 8:-0.057652 9:-0.325366 10:0.451166 11:0.181504 12:-0.395354 13:-0.449642 14:-0.435916 15:0.412313 16:-0.243299 17:-0.801341 18:-0.398051 
0.240493920364166 0 0.2201566043321916 1:0.256072 2:-0.273974 3:0.487172 4:0.646325 5:0.562037 6:0.683037 7:0.0431879 8:-0.176298 9:-0.307105 10:0.00451949 11:0.319453 12:0.264345 13:0.0593599 14:-0.350071 15:-0.467141 16:-0.72879 17:-0.404646 18:-0.0661542 
0.1736059357466745 0 0.3040367292436931 1:-0.407573 2:0.148216 3:0.201075 4:-0.219507 5:-0.414884 6:0.299576 7:-0.653068 8:0.237265 9:-0.0308747 10:0.557569 11:0.693705 12:-0.0154713 13:0.219135 14:-0.728205 15:0.204804 16:-0.255919 17:-0.445915 18:0.052333 
0.04599324297193749 0 0.09489871408623435 1:-0.403726 2:0.396446 3:0.356159 4:-0.000790977 5:0.00204673 6:0.0873754 7:-0.686519 8:0.379915 9:-0.244396 10:0.48426 11:0.254436 12:-0.228925 13:0.275728 14:-0.226657 15:-0.162912 16:-0.568406 17:-0.376205 18:0.0872984 
0.005442968838906888 0 0 1:0.254698 2:-0.610795 3:0.477038 4:0.142213 5:-0.400791 6:-0.0561234 7:-0.281725 8:0.0170118 9:-0.580012 10:-0.0205856 11:0.387388 12:-0.0988639 13:-0.0317799 14:-0.426201 15:-0.493871 16:-0.65268 17:-0.415595 18:-0.338895 
0.2201181540260435 0 0.1732788471289924 1:0.490546 2:-0.669758 3:0.530934 4:-0.00639093 5:-0.45325 6:-0.108772 7:-0.272637 8:-0.425774 9:-0.796381 10:-0.420487 11:0.788556 12:-0.0632669 13:-0.103908 14:-0.344587 15:-0.173699 16:-0.844701 17:-0.631686 18:-0.0941284 
0.02078790402195978 0 0.07820124333232813 1:-0.816489 2:0.790518 3:0.221534 4:-0.485864 5:-0.0363004 6:0.502705 7:-0.37623 8:0.175853 9:-0.0659493 10:0.398306 11:0.736816 12:-0.0806032 13:0.0338642 14:-0.405814 15:0.0763858 16:-0.292413 17:-0.406037 18:0.200567 
0.03786650184131539 0 0.2920750694043127 1:-0.510997 2:0.390849 3:0.0918753 4:-0.269625 5:-0.275346 6:-0.146363 7:-0.72396 8:0.197389 9:-0.321036 10:0.343376 11:0.486883 12:-0.547733 13:0.160065 14:-0.0547213 15:0.200032 16:-0.524194 17:-0.434792 18:0.0964263 
0.538763641645803 0 0 1:0.390014 2:-0.328415 3:-0.182391 4:0.457503 5:0.107171 6:-0.0263311 7:-0.346415 8:0.276766 9:-0.182729 10:-0.0876579 11:-0.178212 12:-0.0624257 13:0.141115 14:-0.737115 15:0.157654 16:-0.465711 17:-0.344047 18:-0.160565 
0.2351955831909449 0 0.2972559394572175 1:0.344582 2:0.335541 3:-0.482562 4:-0.386609 5:-0.134989 6:0.194973 7:-0.287755 8:-0.136916 9:-0.534107 10:0.91099 11:0.427724 12:0.128421 13:-0.135483 14:-0.24439 15:-0.14268 16:-0.0821235 17:-0.0510234 18:0.426293 
0.3159571960979288 0 0.07528771048164802 1:0.467654 2:0.0313883 3:-0.258182 4:0.176677 5:0.0696335 6:0.143753 7:-0.0109457 8:0.108145 9:-0.587589 10:0.519595 11:-0.339665 12:-0.408008 13:0.370726 14:-0.193139 15:-0.331303 16:-0.525146 17:-0.0247761 18:0.421153 
0.07454799094345317 0 0.100335558057373 1:-0.787466 2:0.683056 3:0.238603 4:-0.500264 5:-0.0399087 6:0.645805 7:-0.144559 8:0.274599 9:-0.0112898 10:0.535257 11:0.541344 12:-0.336088 13:-0.0606685 14:-0.187421 15:0.321813 16:-0.32365 17:-0.517891 18:0.271063 
0.1182220570465973 0 0.1492706273704448 1:0.335381 2:-0.6776 3:0.411536 4:0.0670248 5:-0.340919 6:-0.0982735 7:-0.159158 8:-0.128514 9:-0.548063 10:0.133887 11:0.485533 12:-0.223956 13:-0.129406 14:0.0649697 15:-0.42892 16:-1 17:-0.49426 18:-0.303437 
0.1986479826241632 0 0.1950627906442371 1:0.228003 2:-0.531051 3:0.272998 4:0.157295 5:-0.181405 6:0.417878 7:-0.260394 8:-0.503086 9:-0.715667 10:0.322962 11:0.631926 12:-0.0576386 13:-0.108458 14:0.357275 15:-0.156627 16:-0.898803 17:-0.589084 18:-0.331123 
0.2698889366281876 0 0.2461733345069756 1:0.295959 2:-0.0534274 3:1 4:0.110709 5:0.318194 6:0.123154 7:-0.212244 8:-1 9:-0.045906 10:0.304731 11:0.501494 12:0.0598339 13:0.14454 14:-0.00417391 15:-0.376205 16:-0.860316 17:-0.55146 18:-0.64436 
0.139649187181129 0 0.1381585715288984 1:-0.768178 2:0.784849 3:0.405215 4:-0.543279 5:0.100892 6:0.532543 7:-0.329457 8:0.141086 9:-0.0262797 10:0.388459 11:0.581717 12:-0.28094 13:-0.10316 14:-0.364946 15:-0.117626 16:-0.901843 17:-0.343968 18:0.414939 
0.1620225797210892 0 0.1251381126398669 1:-0.499605 2:0.211563 3:0.184933 4:-0.315794 5:-0.307622 6:0.12471 7:-0.659595 8:-0.0931255 9:-0.368693 10:0.203301 11:0.29907 12:-0.634883 13:0.0620525 14:0.225462 15:0.228245 16:-0.95307 17:-0.511465 18:0.195649 
0.1074577732369127 0 0.09227965423813171 1:-0.772205 2:0.635503 3:0.291677 4:-0.443594 5:0.180769 6:0.840887 7:0.189579 8:-0.22031 9:-0.397263 10:-0.273483 11:0.158723 12:-0.0382172 13:0.220873 14:0.0165219 15:-0.401545 16:-0.586745 17:-0.383689 18:0.739972 
0.1384058532531161 0 0.1344699344116005 1:-0.389108 2:0.154052 3:0.304932 4:-0.0178186 5:0.329065 6:0.648438 7:0.280571 8:-0.364218 9:-0.70537 10:-0.909987 11:-0.198034 12:-0.201536 13:0.0632631 14:-0.297246 15:-0.466553 16:-0.335604 17:-0.745811 18:0.586664 
0.1291617691686589 0 0.1085590710438494 1:-0.838434 2:0.294033 3:0.399964 4:-0.294589 5:0.0155847 6:0.554106 7:-0.0512902 8:-0.0191029 9:-0.45575 10:0.280748 11:0.162127 12:-0.833018 13:-0.674269 14:0.0220454 15:-0.0973942 16:-0.573437 17:-0.609936 18:0.338921 
0.04577904214637497 0 0.04615367444713519 1:-0.650045 2:0.0228229 3:0.312345 4:0.12054 5:0.169309 6:0.556422 7:-0.135333 8:0.0158626 9:-0.444565 10:-0.013718 11:-0.318304 12:-0.932244 13:-0.652747 14:-0.288677 15:-0.245007 16:-0.514613 17:-0.638046 18:0.128015 
0.2321716676972443 0 0.2125567384129991 1:0.295122 2:0.0955893 3:-0.692481 4:-1 5:-0.103087 6:-0.0951957 7:0.396467 8:0.146789 9:0.485974 10:0.337571 11:0.233627 12:0.229152 13:-0.624688 14:0.543887 15:0.384706 16:-0.942388 17:-0.654168 18:-0.0460817 
0.1458804440594793 0 0.1461297077514964 1:0.590709 2:-0.354799 3:-0.487862 4:-0.949282 5:-0.175334 6:-0.452021 7:0.607792 8:-0.10477 9:0.17372 10:-0.444707 11:0.164153 12:0.430968 13:-0.234823 14:-0.0330763 15:-0.144878 16:-0.857081 17:-0.892461 18:-0.370546 
0.02748265172074688 0 0.007166746102363666 1:-0.609186 2:-0.100302 3:0.225797 4:-0.100135 5:-0.311199 6:0.301293 7:-0.212371 8:-0.291012 9:-0.763706 10:-0.392024 11:0.30554 12:-0.675403 13:-0.63549 14:-0.0486999 15:-0.252277 16:-0.0844019 17:-0.601285 18:0.252122 
0.1965464105613546 0 0.1609390413890969 1:-0.539898 2:-0.0637373 3:0.40177 4:0.139264 5:0.0791258 6:0.310915 7:-0.171098 8:-0.290626 9:-0.761889 10:-0.313515 11:-0.0925953 12:-0.974207 13:-0.993297 14:-0.393979 15:-0.558758 16:-0.212183 17:-0.512354 18:0.116484 
0.1932937634472178 0 0.1750437107396275 1:0.455537 2:-0.131212 3:-1 4:-0.720258 5:-0.534102 6:-0.387784 7:0.350989 8:0.0187436 9:0.262958 10:-0.1407 11:0.143726 12:0.126668 13:-0.796592 14:0.733085 15:0.310529 16:-0.722473 17:-0.849741 18:-0.2153 
0.1725809151062919 0 0.5993428186570419 1:0.221843 2:-0.764494 3:0.0750483 4:0.246886 5:-0.335021 6:-0.187265 7:-0.284027 8:0.164047 9:-0.588284 10:0.249156 11:0.25521 12:0.0414573 13:-0.131183 14:0.0349889 15:0.497241 16:-0.561788 17:-0.709994 18:-0.0388801 
0.1519003490166437 0 0.1506036936659832 1:0.766576 2:-0.492609 3:-0.46315 4:-0.150315 5:-0.15449 6:-0.23204 7:0.766352 8:0.140064 9:0.300011 10:-0.544564 11:0.176408 12:0.353162 13:-0.746089 14:-0.290928 15:-0.715532 16:-0.460203 17:-0.882724 18:-0.0359328 
0.1149949681791543 0 0.1050239214765862 1:0.669302 2:-0.528242 3:-0.496285 4:-0.033078 5:0.0752094 6:0.0352137 7:0.676193 8:-0.112362 9:0.297228 10:-0.573823 11:-0.260484 12:0.334346 13:-0.390049 14:-0.554856 15:-0.734804 16:-0.675897 17:-0.781896 18:-0.281787 
0.2871980970342978 0 0.2294642413720397 1:0.157901 2:0.0333025 3:-0.920396 4:-0.47899 5:0.600781 6:-0.226211 7:0.137955 8:0.281805 9:-0.435867 10:0.511906 11:-0.320501 12:0.0687824 13:-0.230352 14:0.453203 15:0.177127 16:-0.464404 17:-0.250192 18:-0.267956 
0.2502413593235807 0 0 1:0.370021 2:-0.10644 3:-0.447731 4:-0.360188 5:0.710674 6:-0.539553 7:0.0348257 8:-0.108851 9:-0.286823 10:0.0464015 11:-0.241967 12:0.116135 13:0.0285986 14:-0.501567 15:0.312043 16:0.083017 17:-0.377203 18:0.61621 
0.2410875433803043 0 0.2194690594207822 1:0.728308 2:0.240748 3:-0.504398 4:-0.460825 5:-0.449197 6:-0.0786567 7:0.27993 8:0.196717 9:0.378231 10:0.468135 11:0.216927 12:-0.0390239 13:-0.554185 14:-0.128366 15:0.107385 16:-0.0402238 17:0.888006 18:-0.871591 
0.1104447607254504 0 0.01915012330831183 1:0.722157 2:-0.0782847 3:-0.542792 4:-0.709599 5:-0.455478 6:-0.103024 7:0.435952 8:-0.0354971 9:0.405434 10:0.00307374 11:0.015705 12:-0.0341699 13:-0.121568 14:-0.389932 15:0.0875494 16:-0.164473 17:-0.631601 18:-0.44845 
0.1449217024811428 0 0.1272922104998927 1:0.458015 2:-0.108533 3:-0.976782 4:-0.70721 5:-0.441931 6:-0.249616 7:0.434929 8:0.0274297 9:0.388324 10:-0.260905 11:0.12966 12:0.20675 13:-0.435612 14:0.229306 15:0.320285 16:-0.385348 17:-0.991879 18:-0.340225 
0.1130496596952815 0 0.09309322830317464 1:0.592977 2:-0.0947985 3:-0.643162 4:-0.965089 5:-0.322298 6:-0.353461 7:0.441206 8:-0.068432 9:0.372438 10:-0.34212 11:0.197516 12:0.160123 13:-0.216352 14:-0.412994 15:0.127918 16:-0.525485 17:-1 18:-0.278475 
0.1564060735596329 0 0.1429563107979032 1:0.565687 2:-0.167266 3:-0.708833 4:-0.261901 5:0.0168194 6:0.00663765 7:0.701651 8:0.398847 9:0.422814 10:-0.290487 11:0.0820954 12:0.525464 13:-0.854064 14:0.0151247 15:-0.484303 16:-0.644208 17:-0.839731 18:0.112004 
0.109740544184259 0 0.09382492464796198 1:0.567225 2:-0.383058 3:-0.676315 4:-0.101443 5:0.205322 6:0.00467101 7:0.724801 8:-0.0431499 9:0.360053 10:-0.55571 11:-0.291999 12:0.507638 13:-0.448974 14:-0.52385 15:-0.561121 16:-0.585082 17:-0.780779 18:-0.487352 
0.1228572859576725 0 0.02444430412504447 1:0.644408 2:-0.704137 3:-0.191315 4:0.146162 5:-0.409145 6:0.31033 7:-0.108208 8:0.114531 9:-0.348413 10:0.173122 11:0.0578008 12:-0.312378 13:-0.0790595 14:-0.458383 15:0.0420629 16:0.135936 17:0.224716 18:-0.533519 
0.06508906261656296 0.4683666950508114 0.2403143646276769 1:0.32249 2:-0.271288 3:-0.299439 4:-0.199221 5:-0.0899125 6:-0.697686 7:-0.432944 8:0.614267 9:0.321014 10:-0.109953 11:0.194781 12:-0.167452 13:-0.465043 14:-0.384366 15:-0.144635 16:0.0661639 17:-0.327852 18:0.0297536 
0.9789807731086473 0 0 1:0.418585 2:-0.2195 3:-0.111712 4:-0.248928 5:-0.457527 6:-0.463677 7:-0.138788 8:0.507516 9:-0.461134 10:-0.0391667 11:-0.0240315 12:-0.478499 13:-0.27303 14:-0.0539328 15:0.147709 16:-0.349033 17:-0.460753 18:0.276795 
0 1.128267461108396 0 1:0.550908 2:-0.488495 3:-0.0217576 4:0.211181 5:-0.450995 6:-0.213668 7:-0.271277 8:0.0807285 9:-0.141564 10:-0.171997 11:-0.0396368 12:0.11877 13:-0.114721 14:-0.203334 15:-0.0366263 16:-0.312881 17:-0.497242 18:0.209309 
0.6314949460812224 0.09932730438114314 0.354935962626413 1:0.523059 2:-0.221072 3:-0.175682 4:-0.197368 5:-0.465636 6:-0.521528 7:-0.203943 8:0.17672 9:-0.328122 10:0.0347943 11:0.13834 12:-0.0942577 13:-0.148163 14:-0.636741 15:0.183056 16:-0.447241 17:-0.538303 18:0.0418411 
0 0 1.211879133267226 1:0.36894 2:-0.48643 3:-0.299548 4:0.504384 5:-0.64636 6:-0.101325 7:-0.35253 8:0.0367838 9:-0.419874 10:-0.127197 11:0.467886 12:0.0311601 13:-0.068222 14:-0.46364 15:-0.00496196 16:0.0807639 17:-0.513626 18:-0.435459 
0.16486690400064 0 0.3513445350243609 1:0.168349 2:-0.187258 3:0.256234 4:-0.379956 5:-0.206751 6:-0.455497 7:-0.200635 8:0.204499 9:-0.317852 10:-1 11:0.032402 12:-0.492611 13:-0.095569 14:-0.497227 15:0.107246 16:-0.410428 17:-0.44269 18:0.00282504 
0 2.237700850777203 0 1:0.226081 2:-0.538083 3:-0.0903117 4:0.102421 5:-0.309616 6:-0.0457482 7:-0.342144 8:0.0666521 9:-0.146452 10:-0.249243 11:0.0035102 12:-0.271023 13:0.00359815 14:-0.327152 15:-0.00606954 16:-0.260792 17:-0.545434 18:0.174634 
0.2738374232153543 0 0.2513050457089613 1:-0.680765 2:0.221373 3:-0.0884678 4:-0.0158684 5:0.00747195 6:0.675096 7:-0.385779 8:-0.343401 9:0.120375 10:-0.250324 11:-1 12:-0.0855895 13:0.534541 14:0.186554 15:0.14243 16:0.189101 17:-0.330227 18:0.608289 
0.3105649383220271 0 0.329815623636168 1:-0.411593 2:-0.332141 3:0.0427702 4:-0.0653903 5:-0.290718 6:0.290296 7:-0.0915135 8:-0.646181 9:-0.23858 10:-0.486309 11:-0.205436 12:-0.235844 13:0.614447 14:0.265192 15:0.0714962 16:0.0524133 17:-0.5501 18:-0.24191 
2.205353714197464 0 0 1:0.0427472 2:-0.315943 3:-0.162125 4:-0.208868 5:-0.142768 6:-0.280232 7:-0.204266 8:0.173978 9:-0.0711035 10:-0.235159 11:0.0425949 12:-0.436654 13:-0.215764 14:-0.0422704 15:0.152873 16:-0.281055 17:-0.572616 18:0.0786127 
0.2430903660321304 0 0.1713759460147887 1:0.456316 2:-0.564031 3:-0.0269531 4:-0.476939 5:-0.865299 6:-0.0472672 7:0.280957 8:-0.0994968 9:-0.144375 10:0.328215 11:-0.00727711 12:-0.246283 13:0.0651355 14:-0.448492 15:-0.0913828 16:0.0598819 17:0.139966 18:-0.165787 
0.1068812690134625 0 0 1:0.388886 2:-0.5822 3:-0.103874 4:0.034095 5:-0.337746 6:-0.250642 7:-0.0312179 8:-0.0638195 9:0.0470329 10:0.00561308 11:0.0338926 12:-0.36347 13:-0.120532 14:-0.552361 15:-0.186394 16:-0.220545 17:-0.549568 18:0.0714876 
0.2442650731883517 0.1689376617165902 0 1:-0.0150921 2:-0.245373 3:-0.127907 4:0.235141 5:0.00656317 6:-0.0450558 7:-0.461742 8:0.17036 9:0.479008 10:0.142218 11:0.112253 12:0.47439 13:0.474636 14:-0.238108 15:-0.414697 16:-0.553985 17:-0.299518 18:0.146298 
0.2258187776719906 0 0.2191117307017774 1:0.248713 2:-0.440945 3:0.0383363 4:0.413903 5:-0.16307 6:0.374877 7:-0.330804 8:-0.583812 9:-0.196543 10:0.173992 11:-0.0422365 12:0.444837 13:0.841272 14:0.0132642 15:-0.180993 16:-0.43019 17:-0.027078 18:-0.284751 
0 0.7126972558474268 0 1:0.528892 2:-0.481434 3:-0.131334 4:0.13576 5:-0.387942 6:-0.0511229 7:-0.243156 8:0.0922829 9:-0.0938851 10:0.0473534 11:-0.0533357 12:-0.154906 13:0.0552098 14:-0.272973 15:0.123562 16:-0.422857 17:-0.475545 18:-0.0132776 
0.2532114132271145 0 0.2524269859822068 1:0.502733 2:-0.639403 3:-0.276407 4:0.257153 5:-0.428173 6:0.279058 7:0.0627595 8:-0.265059 9:-0.514516 10:-0.278737 11:0.0963125 12:0.518138 13:1 14:0.371094 15:-0.0794607 16:-0.254575 17:-0.331589 18:-0.292201 
0 0 0.1679093821588841 1:-0.618661 2:0.243049 3:0.352994 4:-0.1333 5:-0.169966 6:0.213388 7:-0.212417 8:0.15623 9:-0.618204 10:0.0173191 11:0.39474 12:-0.737333 13:-0.586953 14:-0.332917 15:-0.102173 16:0.020264 17:-0.40139 18:0.0371796 
0.07543087198675343 0 0.02978687615452277 1:-0.272135 2:-0.238683 3:0.200809 4:-0.0439735 5:-0.468637 6:0.059893 7:-0.313985 8:-0.162468 9:-1 10:-0.363159 11:0.0977135 12:-0.907 13:-0.348914 14:0.044582 15:-0.238551 16:-0.0566436 17:-0.395628 18:0.219935 
0.05159467218430611 0 0.1026369870234276 1:-0.563768 2:-0.0358068 3:0.224391 4:-0.086754 5:-0.354262 6:0.301519 7:-0.222214 8:-0.158796 9:-0.754105 10:-0.317671 11:0.337429 12:-0.504186 13:-0.493633 14:-0.541316 15:-0.463857 16:-0.169339 17:-0.411149 18:-0.0732414 
0.07226008589367629 0 0.08374983277882973 1:-0.693003 2:0.433735 3:0.329146 4:-0.138858 5:-0.227324 6:0.252599 7:-0.337136 8:-0.0392202 9:-0.489655 10:0.374361 11:0.702142 12:-0.473913 13:-0.437991 14:-0.306377 15:-0.235483 16:-0.0821104 17:-0.434957 18:-0.0285495 
0.1014957848110391 0 0.06985568289339238 1:-0.435111 2:0.428119 3:0.274249 4:-0.0874765 5:-0.191851 6:-0.118436 7:-0.518079 8:0.250779 9:-0.575978 10:0.524783 11:0.232048 12:-1 13:-0.459795 14:0.033811 15:-0.101163 16:-0.368236 17:-0.290726 18:-0.00458808 
0 0 0.006513153834208603 1:-0.570592 2:0.18873 3:0.50884 4:-0.210582 5:-0.115861 6:0.229952 7:-0.155409 8:0.0243416 9:-0.571291 10:0.135304 11:0.423895 12:-0.598492 13:-0.535503 14:-0.572831 15:-0.426399 16:-0.285728 17:-0.47773 18:0.0406052 
0.1335392790952136 0 0.08083086578011861 1:-0.59571 2:0.0212623 3:0.256853 4:-0.228238 5:-0.445306 6:0.214853 7:-0.270136 8:-0.0307294 9:-0.782928 10:-0.121909 11:0.543969 12:-0.797321 13:-0.65459 14:-0.431473 15:-0.394284 16:-0.445419 17:-0.372125 18:0.248869 
0.09566058425406969 0 0.09829123588576617 1:-0.451229 2:0.258668 3:0.436899 4:-0.315305 5:-0.162362 6:-0.114296 7:-0.537581 8:0.0238209 9:-0.582615 10:0.168936 11:0.0607378 12:-0.842142 13:-0.417471 14:0.121802 15:0.113595 16:-0.576678 17:-0.337277 18:-0.129242 
0 0 0.0490834548677167 1:-0.615626 2:0.185895 3:0.246509 4:-0.121011 5:-0.257237 6:0.3152 7:-0.294166 8:0.094014 9:-0.575944 10:0.188405 11:0.518004 12:-0.394703 13:-0.349357 14:-0.382486 15:-0.208388 16:-0.3073 17:-0.464279 18:-0.00416337 
0.002585800378731364 0 0 1:-0.524502 2:0.163703 3:0.112308 4:-0.13902 5:-0.369512 6:0.514277 7:-0.621422 8:0.0253092 9:-0.255637 10:0.782626 11:0.522246 12:-0.23091 13:0.0111929 14:-0.453191 15:0.203078 16:-0.310181 17:-0.462043 18:-0.0496208 
0.001785602495035954 0 0 1:-0.310858 2:0.116929 3:0.205289 4:0.165897 5:-0.0996288 6:0.244452 7:-0.558794 8:0.137433 9:-0.381134 10:0.704365 11:-0.0592371 12:-0.745824 13:-0.51125 14:0.290168 15:0.0769073 16:-0.558359 17:-0.403831 18:0.329632 
0.3125564586039903 0 0.1375074767369379 1:0.0925325 2:-0.425837 3:-0.00192603 4:-0.249471 5:-0.245188 6:-0.852322 7:-0.224783 8:0.686153 9:0.503637 10:0.184404 11:0.417044 12:0.28662 13:-0.243363 14:-0.26532 15:0.00444908 16:-0.167322 17:-0.273729 18:0.813288 
0.05684932493320711 0 0.1132813528763403 1:-0.524502 2:0.163703 3:0.112308 4:-0.13902 5:-0.369512 6:0.514277 7:-0.621422 8:0.0253092 9:-0.255637 10:0.782626 11:0.522246 12:-0.23091 13:0.0111929 14:-0.453191 15:0.203078 16:-0.310181 17:-0.462043 18:-0.0496208 
0.05975890469657182 0 0.17773731067176 1:-0.310858 2:0.116929 3:0.205289 4:0.165897 5:-0.0996288 6:0.244452 7:-0.558794 8:0.137433 9:-0.381134 10:0.704365 11:-0.0592371 12:-0.745824 13:-0.51125 14:0.290168 15:0.0769073 16:-0.558359 17:-0.403831 18:0.329632 
0 0.3722210390115629 0 1:0.0411082 2:-0.265754 3:0.160254 4:-0.0180295 5:-0.208399 6:0.172682 7:-0.173132 8:-0.327184 9:0.124166 10:-0.0455171 11:-0.143649 12:-0.315347 13:0.0801004 14:-0.0531694 15:0.302809 16:-0.153905 17:-0.518716 18:-0.14963 
0.9478233133017873 0 0 1:0.287449 2:-0.62601 3:-0.329807 4:0.151611 5:-0.52453 6:-0.131282 7:-0.257993 8:-0.0979888 9:-0.0360638 10:0.0168919 11:0.112742 12:-0.41701 13:-0.190005 14:-0.143779 15:0.236089 16:-0.57065 17:-0.560611 18:-0.000661662 
0.2264699409328263 0 0.2067325089580346 1:0.400029 2:-0.26198 3:-0.66851 4:-0.0895798 5:0.207426 6:0.615752 7:0.56493 8:0.250353 9:0.62794 10:0.0308017 11:-0.0470577 12:0.350583 13:-0.661926 14:0.0369205 15:-0.452041 16:-0.747781 17:-0.864111 18:0.311333 
0.234880414171806 0 0.2137966314705518 1:0.436446 2:-0.337144 3:-0.37135 4:-0.220346 5:0.252176 6:0.500342 7:0.755177 8:-0.0655752 9:0.678095 10:-0.2221 11:-0.17565 12:0.437148 13:-0.203216 14:-0.31746 15:-0.15322 16:-0.304705 17:-0.896163 18:-0.677791 
1.065273726488234 0 0.04724426212154946 1:0.350393 2:-0.544648 3:-0.00728034 4:0.486858 5:-0.170796 6:-0.0462824 7:-0.208757 8:-0.00892281 9:-0.226091 10:-0.249536 11:-0.0620056 12:-0.182852 13:0.00127979 14:-0.398216 15:-0.10976 16:-0.27318 17:-0.592836 18:0.320909 
0.274300632575432 0 0.210743281686468 1:-0.00924357 2:-0.102726 3:-0.605226 4:-0.63773 5:-0.823104 6:-0.306644 7:-0.257758 8:0.247196 9:-0.247047 10:-0.214761 11:-0.037742 12:0.199192 13:-0.939336 14:0.493337 15:-0.467374 16:0.224653 17:-0.354454 18:-0.386628 
0 0 0.8742490319362367 1:0.111984 2:-0.407259 3:-0.459639 4:0.0905188 5:-0.807589 6:-0.14299 7:-0.301507 8:0.137187 9:-0.158311 10:-0.0630244 11:0.191349 12:-0.144444 13:-0.378402 14:-0.0758058 15:-0.072418 16:-0.0414887 17:-0.494344 18:0.234929 
0.2727718777927283 0 0.4769049479541514 1:-0.378865 2:0.0865793 3:-0.461481 4:-0.317424 5:-1 6:-0.0407834 7:-0.323214 8:0.291317 9:-0.193623 10:0.0522118 11:-0.187509 12:0.0980626 13:-0.552807 14:0.413411 15:-0.0620073 16:0.211936 17:-0.5156 18:0.0549058 
0.01048638743867967 0 0.3103063530801968 1:0.234939 2:-0.221634 3:0.44798 4:0.417822 5:-0.104425 6:-0.253091 7:-0.295979 8:-0.330524 9:0.157923 10:0.104921 11:-0.239327 12:-0.0142271 13:-0.465446 14:0.801107 15:-0.0405273 16:0.0521073 17:-0.562302 18:-0.0507203 
0.252831368457155 0 0.2384223217648496 1:-0.193382 2:-0.206036 3:-0.73514 4:-0.396372 5:0.782624 6:-0.280054 7:0.328343 8:-0.147477 9:-0.57507 10:-0.406962 11:0.0370869 12:0.423285 13:0.215934 14:0.403344 15:0.0216657 16:-0.895289 17:-0.516997 18:-0.165892 
0.507821087735673 0 0 1:-0.101748 2:-0.381879 3:-0.473567 4:-0.386555 5:0.562329 6:-0.348571 7:0.245542 8:0.0432154 9:-0.535333 10:-0.391482 11:-0.0471954 12:-0.0463082 13:-0.228288 14:-0.0326105 15:-0.0719559 16:-0.483844 17:-0.796331 18:0.357138 
0.2221312681841964 0 0.1826194186300654 1:0.142578 2:-0.0248139 3:-0.797455 4:-0.835891 5:0.325207 6:-0.385073 7:-0.136714 8:-0.0850883 9:-0.22554 10:0.16332 11:0.557392 12:0.93545 13:-0.310392 14:0.279781 15:-0.135471 16:-0.266379 17:-0.6 18:0.307738 
0.2661511052340634 0 0.2429145917918196 1:-0.173527 2:0.494261 3:-0.748562 4:-0.867574 5:0.93242 6:-0.367953 7:0.173871 8:0.554323 9:0.0223847 10:0.18774 11:-0.309877 12:0.206779 13:-0.0482464 14:0.315528 15:-0.482228 16:-0.641603 17:-0.422913 18:0.16265 
0.8480697311799801 0 0 1:-0.155981 2:-0.639674 3:0.0143041 4:0.361563 5:-0.00635897 6:0.0246795 7:-0.378964 8:0.0730656 9:0.168149 10:-0.520141 11:0.0308431 12:-0.493099 13:-0.130454 14:-0.265351 15:0.0558973 16:-0.21597 17:-0.527697 18:0.199142 
0.2789707649785785 0 0.1388629131971716 1:-0.0699948 2:-0.144129 3:-0.584107 4:-0.302928 5:0.685004 6:-0.431017 7:0.259922 8:-0.151358 9:0.0445671 10:-0.252 11:0.160915 12:0.464196 13:-0.368048 14:-0.0435464 15:0.127293 16:-0.721998 17:-0.510523 18:0.686832 
0.3310649076177481 0 0.2476517073590311 1:-0.372732 2:-0.504116 3:-0.84174 4:0.115657 5:0.189312 6:-0.0763475 7:-0.354739 8:-0.0639586 9:0.460771 10:-0.0967194 11:0.136882 12:0.330765 13:-1 14:0.272296 15:0.172713 16:-0.550036 17:-0.206365 18:0.0912205 
0 0.5484915099705687 1.476905250026354 1:0.202573 2:-0.634077 3:-0.049236 4:0.172013 5:-0.297261 6:-0.247934 7:-0.304528 8:0.0671071 9:-0.340869 10:-0.288272 11:0.157991 12:0.0313371 13:-0.156796 14:-0.494001 15:-0.065712 16:-0.0967838 17:-0.560164 18:0.109791 
0 0 0.06498014445399955 1:0.470765 2:-0.326899 3:-0.294633 4:0.0202763 5:-0.471027 6:0.164068 7:0.205192 8:-0.502021 9:-0.337978 10:0.0737661 11:0.0495398 12:0.410648 13:-0.504829 14:-0.179689 15:-0.140353 16:-0.187428 17:-0.128121 18:0.342493 
0.2599320112443696 0 0.2333675965593527 1:0.251844 2:-0.52492 3:-0.620748 4:0.0715113 5:-0.490594 6:0.410791 7:-0.128076 8:-0.580932 9:-0.0943857 10:0.276451 11:-0.177056 12:0.726255 13:-0.186172 14:0.201577 15:-0.148192 16:-0.931635 17:-0.216519 18:0.595446 
0.1899424418677882 0 0.1846267239054961 1:0.351242 2:-0.279192 3:-0.0299111 4:0.272863 5:0.0405543 6:0.480762 7:0.39658 8:-0.162905 9:-0.179774 10:-0.269816 11:-0.283205 12:0.209922 13:-0.414076 14:-1 15:-0.145448 16:0.253365 17:-0.375301 18:0.915866 
0.2126013727895569 0 0.209317903535503 1:0.487958 2:0.437103 3:-0.160456 4:-0.322879 5:0.0289758 6:0.191129 7:0.195357 8:-0.305535 9:-0.837939 10:0.114482 11:0.00520298 12:0.327475 13:0.0913279 14:0.0144483 15:-0.178208 16:-0.166938 17:-0.199842 18:0.780045 
0.2004846798374784 0 0 1:0.250911 2:0.037319 3:-0.165579 4:-0.15382 5:0.398431 6:0.0931226 7:0.0247592 8:-0.23202 9:-0.679201 10:-0.194883 11:-0.243085 12:0.0699457 13:0.0533072 14:-0.333765 15:0.314558 16:-0.110594 17:-0.359888 18:0.561496 
0.198695434523403 0 0.1940908003700214 1:-0.449695 2:0.584494 3:0.284557 4:-0.394933 5:0.0788202 6:0.571918 7:0.231034 8:-0.340256 9:-0.679439 10:-0.820715 11:0.474128 12:0.0983407 13:0.181199 14:-0.386985 15:-0.470151 16:-0.35439 17:-0.393029 18:0.57301 
0.1566420421725883 0 0.1482935258649957 1:-0.467939 2:0.429438 3:0.549607 4:0.0590499 5:0.401621 6:0.595672 7:0.291092 8:-0.527964 9:-0.572998 10:-0.478341 11:-0.269591 12:-0.560516 13:-0.302762 14:-0.369059 15:-0.618627 16:-0.074386 17:-0.519056 18:0.340271 
0.1848059879849397 0 0.04004276661112564 1:0.371634 2:-0.220693 3:-0.0993384 4:0.434219 5:0.089639 6:0.276136 7:0.199404 8:-0.568189 9:-0.813889 10:-0.326205 11:-0.16587 12:-0.140702 13:-0.232607 14:-0.0397056 15:-0.109512 16:-0.690055 17:-0.289347 18:0.620779 
0.2123832033072446 0 0.1516362421222073 1:0.177589 2:-0.251228 3:-0.387991 4:0.558882 5:0.214511 6:0.63302 7:0.264741 8:-0.394864 9:-0.65277 10:-0.369725 11:-0.487762 12:-0.473911 13:-0.272821 14:-0.106975 15:-0.149246 16:-0.509723 17:-0.215258 18:0.782992 
0.7350424747784479 1.097944468863485 0 1:0.181743 2:-0.548084 3:-0.00195711 4:0.212491 5:0.0756108 6:-0.164687 7:-0.219562 8:-0.15042 9:-0.0651032 10:-0.144538 11:-0.235058 12:-0.48991 13:-0.108738 14:-0.0156839 15:0.0751429 16:-0.105601 17:-0.554384 18:0.186526 
0 0.7696153811944465 0 1:0.0159791 2:-0.508565 3:0.170723 4:0.268702 5:0.0384867 6:-0.152157 7:-0.193105 8:-0.037758 9:0.0377437 10:-0.243041 11:0.118853 12:-0.522214 13:-0.274228 14:-0.477456 15:-0.203577 16:-0.139516 17:-0.553801 18:0.0131147 
0 0.2365687478277702 0.259010884516125 1:0.247478 2:-0.468794 3:0.0728241 4:0.189327 5:-0.434409 6:-0.144332 7:-0.237091 8:-0.0989888 9:-0.134592 10:-0.0758032 11:0.0208776 12:-0.336958 13:-0.22291 14:-0.218747 15:0.0467626 16:-0.166538 17:-0.467007 18:-0.000414421 
