svm_type c_svc
kernel_type rbf
gamma 2
nr_class 8
total_sv 3694
rho -0.322769 -0.911297 -0.514148 -0.434125 -0.194827 -0.236128 -1.3929 -0.545905 -0.368762 -0.0940277 0.0374381 0.129255 -0.745361 0.122432 0.525814 0.397237 0.577401 -0.816388 0.168591 0.221343 0.397473 -0.216687 0.00353927 0.17799 -1.07482 -0.00115654 -0.705975 -1.54828
label 1 3 2 5 4 7 6 8
probA -3.57973 -3.30473 -4.00898 -3.90599 -5.19024 -3.53908 -3.31082 -4.4651 -3.86206 -4.10974 -5.88181 -4.01721 -4.81876 -5.05129 -4.0915 -5.34041 -3.04471 -2.47248 -4.66878 -6.26574 -4.74284 -5.57366 -3.27639 -3.54421 -3.68417 -5.62004 -4.19934 -3.25183
probB 0.111544 -0.0903839 0.066055 0.0643235 -0.121288 0.0981875 -0.202219 0.106883 -0.137585 -0.144729 0.212866 -0.189575 -0.739889 0.151698 -0.0269756 -0.346152 0.00338183 -0.0596542 0.180513 -0.845217 -0.413144 -0.466259 0.0441219 -0.120358 -0.343951 -0.198698 -0.1895 -0.335092
nr_sv 602 366 341 308 540 397 605 535
SV
0.4240953844346435 0 0.1599473759374493 0.2341065218215835 0.2184495981044452 0 0 1:-0.532836 2:-0.470261 3:0.458676 4:0.444299 5:0.278791 6:-0.146385 7:-0.0446674 8:0.0616534 9:0.302813 10:-0.0455103 11:-0.01575 12:-0.0935623 13:-0.213362 14:-0.266817 15:0.454945 16:0.292862 17:0.631583 18:0.388622 
0.5907211417646321 0.07003218686101294 0.3551898440076242 0.6106522554279373 0.6694791280680896 0.6933006703729142 0 1:-0.796932 2:0.111034 3:0.603731 4:0.042205 5:0.0839657 6:-0.877948 7:-0.378105 8:-0.081171 9:0.0131446 10:-0.163291 11:0.150295 12:-0.101534 13:0.000949862 14:-0.934632 15:0.0702549 16:0.187349 17:0.480823 18:0.332686 
0 0 0 0.6201217789697362 0.4241813136885581 1.185695321360096 0.01308691799275925 1:-0.517123 2:0.0425225 3:0.355762 4:-0.353317 5:0.328285 6:-0.438879 7:-0.131917 8:-0.152926 9:-0.237082 10:-0.000731008 11:0.17561 12:0.0337635 13:-0.0905737 14:-0.0724492 15:-0.259127 16:0.0664873 17:0.599871 18:0.428096 
0 0 0 0 0 3.807663385338575 0 1:-0.491405 2:-0.152347 3:0.212016 4:-0.185027 5:0.272594 6:-0.118277 7:0.0835872 8:0.346022 9:0.497672 10:0.0700449 11:-0.0160855 12:-0.196781 13:-0.11404 14:-0.500469 15:-0.105663 16:0.17185 17:0.579618 18:0.255485 
0 1.48491515818888 0 0 0 0 7.279489889598596 1:-0.441359 2:-0.153642 3:0.147742 4:-0.10568 5:0.112239 6:-0.065896 7:0.134403 8:0.371997 9:0.444198 10:0.159305 11:-0.00698694 12:-0.167154 13:-0.097364 14:-0.488286 15:-0.0533058 16:0.192318 17:0.627819 18:0.344247 
0 0 0 4.725380099686292 0 0 5.493469653346459 1:-0.670953 2:-0.461359 3:0.107477 4:0.0146587 5:0.265971 6:-0.330132 7:0.203487 8:0.492845 9:0.319505 10:0.378678 11:0.0860812 12:-0.218886 13:0.0775458 14:-0.238324 15:-0.228444 16:0.163947 17:0.514444 18:0.0950323 
1.596291881534874 0 0.09227958683950525 1.862680119778452 0 0 0.09348901287622136 1:-0.645018 2:-0.43612 3:0.153465 4:0.0524938 5:0.208038 6:-0.327949 7:0.21653 8:0.442757 9:0.280453 10:0.369002 11:-0.00894202 12:0.0360278 13:0.193608 14:-0.4979 15:-0.0153686 16:0.191694 17:0.582339 18:0.217785 
0.6436339711490334 0 0 0.09805875744049287 0.236690260566319 0 0 1:-0.254575 2:-0.684251 3:-0.0672481 4:-0.266206 5:0.0704246 6:-0.685275 7:-0.0213355 8:0.294523 9:0.404285 10:-0.253372 11:0.193348 12:-0.821801 13:-0.138437 14:-0.380502 15:0.402679 16:0.135437 17:0.642597 18:0.429473 
0.3070313869903363 0 0.3850057265203389 0.1517066190074443 0.3369801038289759 0.7577020627709177 0 1:-0.181411 2:-0.654093 3:-0.264007 4:-0.630453 5:0.239552 6:-0.508637 7:0.139355 8:0.208476 9:0.310448 10:-0.280833 11:0.210189 12:-0.690133 13:0.445835 14:-0.145976 15:0.20389 16:-0.0160994 17:0.640657 18:0.571278 
0 0.1002476642406102 0 3.810082276341606 3.234233991334519 0 0.5295445030153558 1:-0.0727636 2:0.200729 3:0.490136 4:0.0357608 5:0.163962 6:0.0229029 7:0.0944322 8:0.516795 9:0.366766 10:0.203363 11:0.207171 12:-0.347672 13:0.0492176 14:-0.0943484 15:-0.0740806 16:0.122401 17:0.691236 18:0.265424 
2.527399382078567 0 0.8633984366754857 0 0.3055955941579803 1.372299993325315 2.982264897855128 1:-0.110492 2:0.222704 3:0.414859 4:-0.117989 5:0.253442 6:-0.00865382 7:0.101533 8:0.512953 9:0.462272 10:0.205509 11:0.193596 12:-0.282963 13:0.214374 14:-0.172531 15:-0.0956003 16:0.184573 17:0.678982 18:0.267867 
1.508971313483 0 0.5112357237318715 0.1345427979080575 0.2598906160761005 1.311631970825373 0 1:-0.440567 2:0.44866 3:0.163581 4:0.496139 5:0.287131 6:-0.367027 7:0.0119673 8:-0.088002 9:0.0840858 10:0.0305618 11:0.0935787 12:-0.607358 13:-0.169793 14:-0.366629 15:-0.444109 16:-0.145731 17:0.594352 18:0.48943 
0.06360758286438135 0 0.4433300213887272 0.4551418525646053 0.325701503069039 0.4697873694654984 0 1:-0.245675 2:0.37026 3:0.185825 4:0.663823 5:0.3828 6:-0.137068 7:0.0102692 8:-0.1015 9:0.00145716 10:-0.0739204 11:0.10069 12:-0.568574 13:0.290139 14:-0.464616 15:-0.288039 16:-0.114389 17:0.516932 18:0.516046 
0 0 0 0 0 8 8 1:-0.539964 2:0.030859 3:0.259193 4:-0.0833252 5:0.0521435 6:-0.202004 7:0.145367 8:0.428147 9:0.301045 10:0.172853 11:0.255703 12:-0.326164 13:0.0196578 14:-0.304314 15:-0.182488 16:0.103492 17:0.599476 18:0.247348 
4.114002837064791 0 0 0 0 4.907217204794675 8 1:-0.470885 2:-0.0275278 3:0.219856 4:-0.19701 5:0.296148 6:-0.0106909 7:0.207831 8:0.430617 9:0.309036 10:0.231737 11:0.202902 12:-0.248734 13:0.070474 14:-0.17917 15:-0.197785 16:0.177938 17:0.672467 18:0.212185 
2.806953693427012 0 0 0 0 1.10553538896182 0 1:-0.542805 2:-0.32271 3:-0.126358 4:-0.360795 5:-0.0648137 6:-0.470725 7:0.0880439 8:0.259102 9:0.652935 10:0.0686085 11:0.297612 12:-0.602167 13:0.129514 14:-0.307493 15:-0.565223 16:-0.0555636 17:0.664273 18:0.408182 
5.092201430286478 0.6901497441020041 0 0 0 1.302256630616047 0 1:-0.44817 2:-0.411103 3:-0.162808 4:-0.533166 5:0.337787 6:-0.227596 7:0.0164984 8:0.221375 9:0.750035 10:0.10054 11:0.255187 12:-0.530581 13:0.111991 14:-0.295615 15:-0.538899 16:-0.0327457 17:0.681259 18:0.332539 
0 0 0 0 0 0.1736927536326666 0 1:-0.240055 2:-0.0769567 3:0.189346 4:-0.0321788 5:0.296367 6:0.084572 7:-0.280181 8:0.205288 9:0.531496 10:0.115616 11:-0.049019 12:-0.304953 13:0.124539 14:-0.130067 15:-0.308931 16:0.244431 17:0.686419 18:0.244855 
0 0 0.5467168297329612 0 0 1.397386041873088 0.3214532366162796 1:-0.658573 2:-0.110367 3:0.140342 4:-0.177088 5:0.254504 6:-0.294334 7:-0.119319 8:0.350153 9:0.221636 10:0.127302 11:0.0479432 12:-0.33805 13:-0.0689155 14:0.114075 15:-0.228095 16:-0.00573727 17:0.679044 18:0.221471 
3.533405816626555 0 1.001459285053365 0 0 0.5305129409466181 0.5174974423693013 1:-0.50612 2:-0.189835 3:0.132597 4:0.0259965 5:0.127148 6:-0.14016 7:0.0458235 8:0.374762 9:0.094769 10:0.132673 11:0.0132252 12:-0.24951 13:0.0655259 14:0.011825 15:-0.0283311 16:0.032896 17:0.714199 18:0.0672421 
3.735395175651131 0 0 0 1.452998762782668 0 0 1:-0.76717 2:0.0704502 3:0.1289 4:-0.466991 5:0.169048 6:-0.607598 7:0.281894 8:0.748749 9:0.0884379 10:0.303478 11:0.308354 12:-0.490491 13:0.0425222 14:-0.101844 15:-0.280831 16:0.0100212 17:0.584224 18:0.305375 
7.676015961409793 1.371401522609777 2.019938281748854 1.490707306716141 0 2.808083380616437 4.931198861229548 1:-0.69362 2:0.0320774 3:0.116969 4:-0.336664 5:0.211218 6:-0.420013 7:0.259183 8:0.714094 9:0.0821889 10:0.406851 11:0.296943 12:-0.461283 13:0.0998767 14:-0.280665 15:-0.100808 16:0.106215 17:0.601584 18:0.271051 
3.181341285092061 0 3.105151095453741 5.138263048320215 0 0 0 1:-0.425696 2:0.166784 3:-0.0894491 4:-0.0763463 5:0.337454 6:-0.452954 7:0.21053 8:0.455292 9:0.196781 10:0.218616 11:0.00133652 12:-0.0823298 13:0.0673511 14:-0.558342 15:-0.129495 16:0.03163 17:0.611113 18:0.384488 
0 0 8 4.759992105379212 0 0.3174788621448814 0 1:-0.343378 2:0.151976 3:-0.119068 4:0.059474 5:0.186194 6:-0.345644 7:0.286476 8:0.42032 9:0.148913 10:0.254018 11:0.0370439 12:-0.0814314 13:-0.125161 14:-0.491963 15:-0.106138 16:0.0691225 17:0.573051 18:0.39702 
0 0.5138241398938452 0 0.4661023137799212 0 0 0 1:-0.619096 2:-0.339346 3:0.0568675 4:0.0261242 5:0.219414 6:-0.371705 7:0.319415 8:0.296179 9:0.405867 10:0.176887 11:0.306429 12:-0.118523 13:-0.102548 14:-0.549134 15:-0.0499986 16:0.184137 17:0.660018 18:0.308812 
0 1.022976337998877 0.04358475231354519 0.4052570034600942 0 2.480247712719152 1.196374766373964 1:-0.223228 2:0.0890206 3:0.0222925 4:-0.66999 5:0.216942 6:-0.261105 7:-0.268679 8:0.263518 9:0.492965 10:0.0643485 11:0.33455 12:-0.597771 13:0.0283219 14:-0.0598742 15:-0.225177 16:0.0927607 17:0.610145 18:0.296956 
0.9513682402714656 0 0.1220568361477283 0 0.1903188661353678 0 0 1:-0.28022 2:0.127546 3:0.0233173 4:-0.594966 5:0.0338959 6:-0.381192 7:-0.274579 8:0.242157 9:0.542353 10:0.067146 11:0.3004 12:-0.549493 13:0.347232 14:-0.125107 15:-0.191407 16:0.132649 17:0.62282 18:0.291344 
0.8630772658873356 0 0.7283783977800584 1.986846277988579 0 0.4892428461162758 0.1028013825344692 1:-0.414627 2:-0.228851 3:-0.0103144 4:0.127452 5:0.0580544 6:-0.203177 7:0.166197 8:-0.0365715 9:0.105124 10:0.228851 11:0.201301 12:-0.678226 13:0.296231 14:-0.113544 15:0.0211102 16:-0.0294258 17:0.699044 18:0.373895 
0 0 0 0.5486797650829498 0 0 0 1:-0.362967 2:-0.267143 3:0.0634596 4:0.0741111 5:0.418575 6:-0.0479647 7:0.0579326 8:-0.122093 9:0.197061 10:0.132061 11:0.179213 12:-0.65498 13:0.0730314 14:-0.0760219 15:0.154791 16:0.016383 17:0.683834 18:0.45997 
0.2434088096728365 0 0.006789340148515234 0 0.3783093343464282 0 0 1:-0.312744 2:0.20109 3:0.365638 4:0.299962 5:0.0794806 6:-0.23717 7:0.00631374 8:0.0541425 9:0.235764 10:0.406278 11:0.0763172 12:-0.311924 13:-0.279882 14:-0.641625 15:-0.912717 16:0.0399373 17:0.769348 18:0.328858 
0.8952075764933071 0 0.6072964273551267 1.152186260564162 0.4675724249497422 0 0 1:-0.339959 2:0.250855 3:0.390556 4:0.0686846 5:0.449137 6:-0.177948 7:0.0134843 8:0.101303 9:0.263722 10:0.374876 11:0.0898981 12:-0.190524 13:0.103663 14:-0.63945 15:-0.837926 16:0.0106342 17:0.794549 18:0.299284 
0 0 0 0 0 0.3352409870690214 0 1:0.0314352 2:-0.356477 3:-0.195442 4:-0.610216 5:0.191812 6:-0.187913 7:0.109287 8:-0.067051 9:0.104 10:0.510654 11:0.110825 12:0.232399 13:-0.209786 14:-0.383503 15:0.186724 16:0.174744 17:0.633681 18:0.405115 
0 0 0 0 0 0 0.1279009419513554 1:-0.0855127 2:-0.334604 3:-0.0774347 4:-0.489205 5:0.129369 6:-0.358016 7:0.12063 8:0.0837935 9:0.256539 10:0.4725 11:0.194066 12:0.142156 13:-0.0358633 14:-0.509694 15:0.300871 16:0.220366 17:0.572052 18:0.522752 
0 0 0 0 0 1.000144103898738 1.428812940100436 1:-0.486428 2:-0.657598 3:-0.0447893 4:-0.203769 5:0.2938 6:-0.520712 7:0.00374129 8:0.237109 9:0.0685772 10:0.14967 11:0.183666 12:-0.0833768 13:-0.0697073 14:-0.171263 15:-0.426793 16:0.0539292 17:0.570808 18:0.302721 
0 0 0.1053635430018643 0 0.6350605838980778 0 1.280441576690013 1:-0.40237 2:-0.770563 3:-0.00911003 4:-0.0369544 5:0.123239 6:-0.46703 7:0.103015 8:0.182279 9:0.172763 10:-0.00871487 11:0.178869 12:-0.189864 13:0.0721758 14:-0.261685 15:-0.17864 16:0.108176 17:0.630569 18:0.355381 
1.168113540361608 0.1268891785768104 0 0 0 1.306934247547321 0 1:-0.65138 2:-0.0573052 3:0.0784369 4:-0.250708 5:0.201649 6:-0.376274 7:0.143933 8:0.00175562 9:0.133633 10:0.394073 11:-0.318485 12:-0.40861 13:-0.0385446 14:-0.11597 15:0.666225 16:0.215585 17:0.589325 18:0.25258 
0.3467358928662106 0 0 0 0 0 0 1:-0.57957 2:-0.0809289 3:0.0672793 4:-0.254655 5:0.233669 6:-0.284298 7:0.235948 8:-0.0209993 9:0.0583166 10:0.380622 11:-0.25728 12:-0.447614 13:0.0236085 14:0.222571 15:0.447528 16:0.217334 17:0.593182 18:0.267521 
0 0 0 0 0 0.5690756133516937 0 1:-0.472743 2:-0.387497 3:0.235013 4:0.0020741 5:0.220201 6:-0.121385 7:0.35593 8:0.252874 9:0.306631 10:0.183399 11:0.1288 12:-0.211419 13:-0.0172481 14:0.090484 15:-0.101395 16:0.0222753 17:0.517978 18:0.318947 
0 0 0 0 0 0.4026145953526563 0 1:-0.774811 2:-0.491237 3:0.104233 4:-0.239164 5:0.232997 6:-0.578716 7:0.317291 8:0.322898 9:0.138629 10:0.244558 11:0.106761 12:0.274561 13:-0.352021 14:-0.291495 15:-0.298227 16:-0.105071 17:0.41504 18:0.246943 
3.040632256930424 0 0 0 0 0 0 1:-0.664123 2:-0.172773 3:0.0773771 4:-0.0502888 5:0.17957 6:-0.47199 7:0.46675 8:0.462184 9:0.410743 10:0.207009 11:0.0522625 12:-0.302302 13:0.235288 14:-0.0833484 15:0.183302 16:-6.5602e-05 17:0.671078 18:0.334027 
1.385934904474839 1.273677400958732 0 0.3798192486980735 1.009223369648639 0 0 1:-0.519706 2:-0.25624 3:0.0286375 4:-0.0638151 5:0.296787 6:-0.242801 7:0.532632 8:0.425296 9:0.415191 10:0.175345 11:0.0387505 12:-0.26158 13:0.298455 14:0.0759248 15:0.209658 16:0.0113763 17:0.632246 18:0.398968 
1.113073619322191 0 0.03875063986865527 0 0.1949532475419224 1.42278957058247 0 1:-0.804219 2:0.0679413 3:0.145775 4:-0.455205 5:0.253221 6:-0.547953 7:-0.0962351 8:-0.0809564 9:0.0792844 10:-0.0523369 11:0.289805 12:-0.130587 13:0.150802 14:0.273308 15:0.606354 16:0.208882 17:0.452153 18:0.31174 
0 0.003232047094932768 0 0 0 0.8447658049164507 0 1:-0.620971 2:-0.0597921 3:0.236062 4:-0.0392212 5:0.130237 6:-0.304466 7:-0.0620052 8:-0.115095 9:0.0256828 10:0.0207131 11:0.226339 12:-0.146966 13:0.0765542 14:0.0834134 15:0.851142 16:0.380976 17:0.488159 18:0.135642 
0 0 0 0 0 1.591979758211844 0 1:-0.325001 2:-0.301731 3:-0.13621 4:-0.46726 5:0.138918 6:-0.305348 7:-0.0818235 8:0.0687506 9:0.121054 10:-0.0616257 11:0.211284 12:-0.368504 13:-0.0669355 14:-0.310929 15:-0.20336 16:0.0354099 17:0.63846 18:0.257054 
0 0.1661437810229198 0 0.08710380835498398 0 0.9394196687861777 0 1:-0.162461 2:-0.614427 3:-0.170346 4:-0.146404 5:0.0765254 6:-0.155686 7:-0.269161 8:0.224476 9:0.0710817 10:-0.280681 11:0.239476 12:-0.262281 13:-0.227844 14:-0.144781 15:0.116986 16:0.299204 17:0.45794 18:0.580221 
0 0.3281875443780899 3.065179402816103 1.269833343495438 0.2492484012886438 0.1864716009970295 0 1:-0.250709 2:-0.469867 3:-0.345717 4:-0.179211 5:0.0946201 6:-0.430465 7:-0.0797738 8:0.410879 9:0.267906 10:0.488999 11:0.305207 12:-0.496545 13:-0.116944 14:-0.234315 15:-0.223082 16:0.252446 17:0.571648 18:0.391008 
0.3342212652720865 0 0 1.847202132389195 0 0 0 1:-0.20912 2:-0.437551 3:-0.343754 4:-0.204043 5:0.292885 6:-0.41062 7:-0.229081 8:0.311083 9:0.301643 10:0.417114 11:0.315843 12:-0.533927 13:-0.0150661 14:-0.268717 15:-0.263713 16:0.289695 17:0.508214 18:0.390183 
1.308909204415394 0 0 1.614946080357128 0 0 0 1:-0.313518 2:0.026547 3:0.258734 4:0.139155 5:0.289573 6:-0.410511 7:0.178568 8:0.563245 9:0.0412316 10:0.154814 11:0.210899 12:-0.232737 13:0.100348 14:-0.310074 15:0.0455847 16:0.139797 17:0.646326 18:0.410481 
6.081095103895664 0.112777808826287 2.773697720703106 8 0.3880806887050882 0 2.866633630230834 1:-0.204672 2:0.0985737 3:0.147442 4:0.126156 5:0.246606 6:-0.260918 7:0.145991 8:0.404096 9:0.0511806 10:0.227033 11:0.22514 12:-0.16541 13:-0.0415099 14:-0.339847 15:0.0965293 16:0.221492 17:0.583782 18:0.375713 
0 0 0.08690181605921049 0 0.1686361258348135 0.1150124604223824 0 1:-0.457546 2:0.158807 3:0.186846 4:-0.138765 5:0.00480054 6:-0.439346 7:-0.385289 8:0.395386 9:-0.041444 10:0.386762 11:0.126276 12:0.106635 13:0.365905 14:-0.139152 15:0.159921 16:0.04118 17:0.628877 18:0.428857 
0 1.173882293162352 0.05517890939871901 0.5379422442224135 0 1.055593811644187 0.06405860757684413 1:-0.476774 2:0.101864 3:0.310093 4:-0.146681 5:0.306556 6:-0.392932 7:-0.493664 8:0.389147 9:0.0989431 10:0.367491 11:0.102524 12:-0.0958316 13:-0.40153 14:-0.182759 15:0.0171709 16:0.245221 17:0.64647 18:0.286387 
1.919537144229012 0 0.8023168073820212 1.643730579207632 0.4165827023725542 1.045270260104531 0 1:-0.200312 2:0.213541 3:-0.182039 4:0.532257 5:0.202001 6:-0.245209 7:0.418205 8:0.144996 9:0.28102 10:0.162597 11:-0.0603463 12:-0.4098 13:-0.042697 14:-0.0654941 15:0.19332 16:0.335643 17:0.652346 18:0.242528 
4.568322119658091 0 1.737459284459149 2.953793992013913 1.769838035123942 0 0 1:-0.215517 2:0.255714 3:-0.18804 4:0.395488 5:0.367966 6:-0.215704 7:0.406785 8:0.138984 9:0.303151 10:0.103027 11:-0.0365739 12:-0.367199 13:0.271261 14:-0.121967 15:-0.08975 16:0.215122 17:0.638315 18:0.231226 
0 0 0 0 0 0.2867865009255221 6.568352193897153 1:-0.519808 2:-0.190312 3:0.00369648 4:-0.451431 5:0.193717 6:-0.200824 7:0.3588 8:0.431632 9:0.298447 10:0.237294 11:0.223201 12:-0.0474211 13:-0.0976459 14:-0.0494103 15:-0.118463 16:0.0828255 17:0.515732 18:0.365068 
0 5.415623061447918 0 0 0 3.306203435072073 5.61176051380478 1:-0.477841 2:-0.20451 3:0.0208726 4:-0.396809 5:0.238239 6:-0.0390815 7:0.312903 8:0.36765 9:0.335268 10:0.0354139 11:0.245124 12:-0.0619597 13:-0.0414457 14:-0.139236 15:-0.0812702 16:0.184266 17:0.546714 18:0.255895 
3.495280129666745 0 0 0 0 0.7296175116351679 0 1:-0.724887 2:0.191427 3:0.0557426 4:-0.266239 5:0.306308 6:-0.690567 7:0.139522 8:0.141725 9:0.305129 10:0.173495 11:0.309279 12:-0.483976 13:0.0126437 14:0.00298656 15:0.077779 16:0.115617 17:0.610224 18:0.273682 
0 0 0 0 0 1.894383506894762 0 1:-0.707939 2:0.089835 3:0.238349 4:-0.349052 5:0.240245 6:-0.514765 7:-0.118015 8:0.279304 9:0.4004 10:0.137246 11:0.227209 12:-0.18659 13:0.138272 14:-0.279293 15:0.0396696 16:0.130497 17:0.654655 18:0.2746 
0.430172750975169 0.0226609068086454 0.5314829329601193 0.5695569900364825 0.5227345088122379 0.1602887295644984 0.06182547436985547 1:0.178409 2:-0.569851 3:-0.686025 4:-0.213782 5:0.0727484 6:0.0259572 7:0.59151 8:0.238154 9:-0.0316708 10:0.663087 11:-0.0767992 12:-0.112027 13:0.19112 14:-0.0110427 15:-0.125235 16:0.368348 17:0.690761 18:0.340722 
0.8296999019140673 0 0.06607955657167701 0.8725109728024223 0.9276180295099724 0.3493658073225996 0 1:0.145464 2:-0.527519 3:-0.64261 4:-0.364851 5:0.216546 6:-0.00878041 7:0.459157 8:0.176447 9:0.0849303 10:0.455147 11:-0.0100301 12:-0.166824 13:0.524746 14:0.205194 15:-0.143011 16:0.315965 17:0.656158 18:0.457517 
1.140046476928058 0.1317200075558177 0.4177096850675541 1.776975554471391 0 0.8654071930802867 0 1:-0.699854 2:-0.0754498 3:0.320913 4:0.127534 5:0.0450262 6:-0.462248 7:0.0796039 8:0.558085 9:0.383528 10:0.339567 11:0.145285 12:-0.245574 13:0.00933812 14:-0.526574 15:0.133709 16:0.170115 17:0.678009 18:0.187675 
0 0.4750831658011291 0 0 0 0.4504957125229922 0 1:-0.612354 2:-0.0968035 3:0.273169 4:-0.111281 5:0.371941 6:-0.243941 7:0.0502082 8:0.463256 9:0.338387 10:0.219925 11:0.233273 12:-0.381469 13:0.411113 14:-0.064748 15:-0.0534826 16:0.0502503 17:0.64575 18:0.102593 
0 0 0 0 0 0 5.070711435155599 1:-0.447585 2:-0.209546 3:0.242778 4:-0.0142178 5:0.161797 6:-0.183133 7:0.451125 8:0.284827 9:0.271642 10:0.348239 11:0.149525 12:-0.487772 13:0.0112934 14:-0.312962 15:0.0125456 16:0.181906 17:0.654495 18:0.348472 
0 2.254237667781494 0 0 0 0.9101763784034418 1.984804899579405 1:-0.526998 2:-0.153201 3:0.12082 4:-0.278162 5:0.282648 6:-0.187526 7:0.450501 8:0.212691 9:0.315117 10:0.350844 11:0.160235 12:-0.430392 13:0.193903 14:-0.240611 15:-0.103026 16:0.133757 17:0.661756 18:0.382153 
0 0 0 0.1003674642531654 0.09581569577481394 0.4073833578650248 0 1:-0.922117 2:-0.345892 3:0.121802 4:0.149278 5:0.228146 6:-0.329274 7:-0.060226 8:0.197667 9:0.159752 10:-0.01962 11:0.217585 12:-0.329165 13:0.154412 14:-0.19216 15:0.0266614 16:-0.0804052 17:0.583791 18:-0.312819 
0.9862359416229772 0 0.03589437795274179 0 0 1.236191480332425 0 1:-0.788027 2:-0.458623 3:-0.0461239 4:0.0217594 5:0.287708 6:-0.230032 7:-0.0308261 8:0.178102 9:0.0506653 10:0.0259826 11:0.25138 12:-0.411988 13:-0.0309399 14:0.0438773 15:0.419559 16:0.108734 17:0.67632 18:-0.210288 
0.1753224430411822 0 0 0 0 0.7777819327194631 0 1:-0.389041 2:-0.71951 3:-0.470868 4:-0.0620678 5:-0.00359813 6:-0.289178 7:-0.191322 8:0.0231224 9:0.164055 10:0.408678 11:0.417598 12:-0.631869 13:-0.0822983 14:-0.217721 15:-0.128292 16:0.113673 17:0.703499 18:0.079665 
0.3661120568468614 0 0 0 0 1.182305661002662 0 1:-0.374719 2:-0.676848 3:-0.44172 4:-0.284976 5:0.348326 6:-0.177736 7:-0.367392 8:0.0727461 9:0.0604675 10:0.442929 11:0.353804 12:-0.423508 13:-0.321045 14:-0.210195 15:0.0770726 16:0.100624 17:0.6669 18:-0.0261964 
0.1458047085944023 0 0 0 0 0 0 1:-0.252405 2:-0.340732 3:-0.0623722 4:-0.489378 5:0.136033 6:-0.598869 7:-0.116334 8:0.389875 9:0.426303 10:0.403555 11:0.348521 12:-0.207988 13:0.0191212 14:-0.0695261 15:0.263777 16:0.105053 17:0.604849 18:0.459751 
0 0 0 0.8248219856875141 0.7581879406193025 0.7496814196821034 0 1:-0.156474 2:-0.351277 3:0.00412668 4:-0.409612 5:0.241597 6:-0.494025 7:-0.110685 8:0.38845 9:0.309491 10:0.309187 11:0.362199 12:-0.256671 13:-0.0177251 14:-0.245419 15:0.369302 16:0.258085 17:0.594689 18:0.287337 
0.5060320043157359 0 0 0 0.9044714754580047 0 0.726262809415405 1:-0.414213 2:-0.393804 3:0.142499 4:0.144354 5:0.186975 6:0.0641372 7:0.332278 8:0.431257 9:0.180166 10:0.33046 11:0.124189 12:-0.135785 13:0.195837 14:0.0385128 15:0.107516 16:0.125869 17:0.653663 18:0.292903 
5.208527630013498 1.885687863431991 0 0 0 0 3.019795682348736 1:-0.503777 2:-0.336249 3:0.041764 4:-0.10653 5:0.22645 6:-0.00965691 7:0.327449 8:0.339008 9:0.329568 10:0.405981 11:0.144739 12:-0.032895 13:0.357707 14:-0.0603407 15:0.0368923 16:0.110404 17:0.62623 18:0.423331 
0 0 0 0 0 1.020358675901289 0.3361115313033838 1:-0.459648 2:-0.573478 3:-0.010503 4:-0.19173 5:0.154325 6:-0.597006 7:0.172204 8:0.441666 9:0.0720266 10:0.257608 11:0.28403 12:-0.377491 13:-0.0848669 14:-0.481269 15:-0.0792922 16:0.200962 17:0.535095 18:0.261963 
0 0 0 0 0 0 1.264032673692449 1:-0.45336 2:-0.576247 3:0.00894558 4:-0.252253 5:0.352046 6:-0.512987 7:0.0635218 8:0.378221 9:0.0192541 10:0.157329 11:0.289187 12:-0.315975 13:0.141197 14:-0.409668 15:-0.0521801 16:0.159893 17:0.541239 18:0.345956 
0 0 0 0 0.02377909458695959 0.3383734976299959 0 1:-0.32915 2:-0.913824 3:-0.184752 4:0.0301936 5:0.161076 6:-0.340628 7:-0.0699542 8:0.302201 9:0.0516496 10:0.0632935 11:0.202135 12:-0.213899 13:-0.23958 14:-0.397847 15:0.17925 16:0.0058355 17:0.478842 18:0.215728 
0 0 0 0 0.2199177326845154 0 0 1:-0.367461 2:-0.934955 3:-0.193603 4:-0.114817 5:0.293119 6:-0.355981 7:-0.0836184 8:0.174328 9:0.304964 10:0.0764227 11:0.0672912 12:-0.141292 13:-0.162749 14:-0.379044 15:0.163508 16:0.174577 17:0.482471 18:0.190865 
0.8814683655117482 0 0.2726452831066976 0.811658314636717 0.6093532297135973 0.1166727668462806 0 1:-0.206923 2:-0.152778 3:-0.517984 4:0.182032 5:0.0674409 6:-0.632588 7:-0.284053 8:0.0598664 9:0.0923785 10:0.104509 11:-0.097204 12:-0.00263459 13:0.416991 14:-0.306666 15:0.0717702 16:0.173525 17:0.656203 18:0.265741 
0.4455972654131778 0 0 0.2576513953933933 0 0 0 1:-0.159878 2:-0.178508 3:-0.477954 4:-0.191598 5:0.431579 6:-0.481247 7:-0.361578 8:-0.00379145 9:0.0351099 10:0.195118 11:-0.03875 12:-0.142504 13:0.158041 14:-0.139077 15:-0.0732557 16:0.233237 17:0.61319 18:0.38218 
0.8099411522519944 0 0 0 0 0 0 1:-0.30578 2:-0.339096 3:-0.0918244 4:-0.420533 5:0.184097 6:-0.38839 7:0.00797143 8:0.395723 9:0.0165574 10:0.0929247 11:-0.203788 12:-0.390477 13:0.237714 14:-0.693871 15:0.321937 16:0.0524772 17:0.510466 18:0.375213 
2.220997006803056 0 0 0.00353336332931825 0 0.9017147629466811 0 1:-0.0728286 2:-0.36577 3:-0.425497 4:-0.225416 5:0.106469 6:-0.163954 7:-0.173938 8:-0.0492409 9:0.275617 10:0.63618 11:0.0745984 12:-0.290825 13:0.0872089 14:-0.130138 15:0.348589 16:0.179013 17:0.631565 18:0.103625 
0.5858967763949234 0 0.01909514117090976 0 0.3634965763716074 0.7586195651144849 0.4291218561030865 1:-0.108008 2:-0.557017 3:-0.503416 4:-0.283017 5:0.0733584 6:-0.203372 7:0.175705 8:0.116193 9:-0.0262868 10:0.649148 11:0.174784 12:-0.064557 13:0.159562 14:-0.0279535 15:-0.092675 16:0.101282 17:0.659009 18:0.455391 
0.9356238181575844 0 0 0.7377059217265209 0 0.3679723117627117 0 1:0.00173927 2:-0.650413 3:-0.539381 4:-0.377261 5:0.213978 6:-0.102621 7:0.319542 8:0.11574 9:0.0258926 10:0.66422 11:0.111722 12:-0.0205369 13:0.262662 14:-0.0443983 15:-0.120665 16:0.203928 17:0.608409 18:0.378311 
0 0 0 0.4660432045392069 0 0 0 1:-0.168028 2:-0.489905 3:-0.036337 4:-0.0629822 5:0.159538 6:-0.284656 7:-0.480412 8:0.307007 9:0.16908 10:0.0697046 11:0.159179 12:-0.489766 13:-0.137781 14:-0.343336 15:0.271934 16:0.199847 17:0.603422 18:0.378589 
0 0 0.4419398755378132 0 0.6407579933404371 0.1445068697111416 0 1:-0.407471 2:0.123734 3:0.102059 4:0.386094 5:0.196773 6:-0.0798014 7:0.453641 8:-0.527706 9:0.198211 10:0.180913 11:0.103116 12:-0.135609 13:0.333868 14:-0.640241 15:-0.150316 16:-0.00302091 17:0.630785 18:0.439038 
0.242380333674341 0 0.4898779225889 0.2316799016626897 1.93709547043524 0 0 1:-0.37376 2:0.0767722 3:0.0924058 4:0.368132 5:0.346659 6:-0.0115591 7:0.446247 8:-0.513089 9:0.203585 10:0.187304 11:0.0570599 12:-0.189677 13:-0.18188 14:-0.391071 15:-0.308378 16:-0.00776563 17:0.689096 18:0.287486 
0 0 0 8 0 1.135388402327821 2.17512807039646 1:-0.192112 2:-0.177355 3:0.260229 4:0.152667 5:0.144417 6:-0.122859 7:0.0390595 8:-0.0889552 9:0.0807233 10:0.406527 11:0.201823 12:-0.220663 13:0.215927 14:-0.225379 15:-0.0115565 16:0.214002 17:0.598472 18:0.393591 
0 0 0 3.952437267139563 1.305048774007878 0 0 1:-0.244624 2:-0.124985 3:0.213378 4:0.107874 5:0.239636 6:-0.231098 7:0.155112 8:-0.048765 9:0.235627 10:0.351466 11:0.131956 12:-0.301953 13:-0.0750333 14:-0.0646391 15:-0.396431 16:0.351703 17:0.653455 18:0.480649 
2.267470405748083 0 0 0.2640364437734571 0.0316659003102415 0 0 1:-0.404094 2:0.365147 3:-0.02517 4:-0.0988195 5:0.182879 6:-0.408793 7:0.359723 8:0.459464 9:0.157078 10:0.304022 11:-0.00131766 12:-0.121582 13:-0.278641 14:-0.172852 15:0.163 16:0.127372 17:0.658661 18:0.470019 
6.476012707452648 0 2.808666073175131 0 0 0 0 1:-0.396922 2:0.446443 3:-0.117758 4:0.0126623 5:0.355401 6:-0.353597 7:0.250452 8:0.431919 9:0.257852 10:0.20887 11:-0.0342916 12:0.00821616 13:-0.00896495 14:-0.241484 15:0.158462 16:0.122825 17:0.658205 18:0.219794 
0 0 0.3609564314685391 0 0 0 0 1:-0.666995 2:-0.302459 3:0.0520493 4:-0.0627432 5:0.16113 6:-0.542891 7:0.255749 8:0.166014 9:-0.0365227 10:0.369017 11:-0.0720821 12:-0.169221 13:-0.0418932 14:-0.298838 15:0.279507 16:0.0949675 17:0.804443 18:0.206096 
0 0.2489676661715989 0 0 0 0 0 1:-0.27311 2:-0.528719 3:-0.343819 4:-0.521412 5:0.369213 6:-0.0492704 7:0.122169 8:-0.0335201 9:0.0509167 10:0.260414 11:0.063003 12:-0.45524 13:-0.0679822 14:-0.116846 15:-0.0387566 16:0.0499314 17:0.643065 18:0.583563 
0.7953305836088488 0.2786603135907757 0 0 0 0 0.3823887785311276 1:-0.274115 2:-0.62731 3:-0.294861 4:-0.119649 5:0.00514316 6:-0.13257 7:0.323763 8:-0.0510252 9:0.211287 10:0.181697 11:0.0496573 12:-0.583258 13:0.338282 14:-0.240199 15:0.10164 16:0.072624 17:0.641314 18:0.543105 
0.2476387317710104 0 0.1131183633615732 0.4095493886616859 0 0.8929770713849865 0 1:-0.289852 2:-0.245507 3:-0.264243 4:-0.688633 5:0.31509 6:-0.475306 7:-0.128249 8:0.202019 9:0.255408 10:0.165455 11:0.197742 12:-0.437339 13:0.234358 14:-0.0906177 15:-0.370655 16:0.0178658 17:0.682111 18:0.449035 
0.6771901481076722 0 0 0.03181878336840875 0 0 0.05395300465763032 1:-0.00502977 2:-0.349241 3:-0.343266 4:-0.321217 5:-0.00337627 6:-0.186431 7:0.094445 8:0.1446 9:0.182994 10:0.381837 11:0.124605 12:-0.318352 13:-0.0130492 14:-0.242903 15:-0.045439 16:0.204161 17:0.65479 18:0.419001 
0.3693681865396961 0.05811600127769308 0 2.310374305864569 0.5227872927555469 0.8905019800907364 0.03596290127892762 1:-0.0815252 2:-0.32328 3:-0.113816 4:0.00576421 5:0.242593 6:-0.121673 7:0.111216 8:0.886381 9:-0.0377655 10:0.0681331 11:0.0178673 12:-0.502409 13:-0.384265 14:-0.43301 15:0.0979167 16:0.163521 17:0.509974 18:0.364086 
1.278009686698331 0.4931601489894775 2.408361415378811 3.696362089766459 2.883088421660831 0 0 1:-0.117877 2:-0.311743 3:-0.193548 4:-0.0894885 5:0.226935 6:-0.135585 7:0.18339 8:0.838134 9:0.0560689 10:0.114762 11:-0.039638 12:-0.356034 13:0.205399 14:-0.483319 15:0.163223 16:0.168907 17:0.514949 18:0.452018 
0 0 0 0.7012613323195906 0.1582197164266732 0.6265766096408354 0 1:-0.254489 2:-0.0700731 3:0.453714 4:0.235946 5:0.117912 6:-0.239556 7:0.128304 8:-0.286604 9:-0.0684629 10:0.525598 11:0.110826 12:-0.208342 13:0.0496692 14:-0.503674 15:-0.588352 16:-0.0940774 17:0.666016 18:0.314591 
0 0 0 0 0.1474416207022811 0 0 1:-0.305521 2:-0.106092 3:0.436429 4:0.0203363 5:0.356774 6:-0.266024 7:0.14032 8:-0.259756 9:0.0112137 10:0.493705 11:0.114468 12:-0.311131 13:0.0106035 14:-0.306114 15:-0.713468 16:0.0630704 17:0.653941 18:0.26724 
0 0 0 0 0 3.014774192785106 4.495428011469222 1:-0.273857 2:-0.245992 3:-0.0718661 4:-0.340533 5:0.013252 6:-0.25571 7:-0.0707508 8:0.384336 9:0.191402 10:0.0975818 11:-0.0830454 12:-0.409184 13:-0.00882105 14:-0.474505 15:-0.0898714 16:0.0990187 17:0.549494 18:0.440793 
1.684576440366489 0 0 0 0 5.183331086161766 0 1:-0.229342 2:-0.198369 3:0.287969 4:-0.0518194 5:0.262717 6:-0.21821 7:0.0980716 8:0.178361 9:0.451409 10:0.656081 11:0.0270004 12:-0.0435513 13:0.167777 14:-0.289892 15:-0.168377 16:0.0460325 17:0.656103 18:0.318575 
0 0 0 2.286095888261109 0 0 0 1:-0.265628 2:-0.134822 3:0.403319 4:0.134931 5:0.185842 6:-0.295735 7:-0.0881118 8:0.124575 9:0.512323 10:0.696337 11:0.012166 12:-0.063118 13:-0.0177565 14:-0.389276 15:-0.158761 16:0.176575 17:0.629644 18:0.306202 
0 0 0.7348938541263073 0.9771386661328179 0 1.690364373762071 0 1:-0.570287 2:-0.378493 3:0.0853809 4:-0.0163112 5:0.180748 6:-0.315534 7:0.225172 8:0.0854735 9:0.148101 10:0.170666 11:0.114473 12:-0.375312 13:0.354353 14:-0.544374 15:0.0665975 16:-0.0533496 17:0.689142 18:0.289547 
0.1776097731789844 0.01720190866311255 0 0 0 0.6902293601749466 0.2221913057986487 1:-0.31237 2:-0.775904 3:-0.475571 4:-0.378712 5:0.162025 6:-0.145426 7:0.436173 8:0.378235 9:-0.0890492 10:0.458351 11:0.233074 12:-0.419629 13:0.00237416 14:0.345449 15:-0.224171 16:0.0467896 17:0.66606 18:0.174703 
0 0.04263361889302472 0.1397661329011853 1.590224254739776 1.105350384120822 1.694645694808498 3.18442364876019 1:-0.33907 2:-0.828101 3:-0.295305 4:-0.153074 5:0.162319 6:-0.190808 7:0.527619 8:0.393693 9:0.0675967 10:0.330424 11:0.134417 12:-0.371999 13:-0.0233148 14:-0.251088 15:0.105677 16:0.343916 17:0.680722 18:0.181694 
0 0 0 3.863284470677783 0 0 1.391134339479608 1:-0.320467 2:0.0256713 3:0.138205 4:0.00504573 5:0.217245 6:-0.0479065 7:0.216733 8:0.0609149 9:0.410811 10:0.340413 11:0.177101 12:-0.255429 13:0.334661 14:-0.398141 15:-0.176115 16:0.0169425 17:0.659533 18:0.40372 
0.8723554896000191 0 0.2998152050938387 8 1.38437142016389 1.988047257031346 0 1:-0.216064 2:-0.00270477 3:0.0948809 4:0.109277 5:0.212095 6:0.067263 7:0.328627 8:0.060396 9:0.454946 10:0.423681 11:0.208226 12:-0.359634 13:0.290815 14:-0.369651 15:-0.187905 16:0.155574 17:0.598292 18:0.290883 
3.3033306040464 0 0.05949433995711158 1.302771042528643 0.8649935242078948 0.2321415477550998 0 1:-0.255911 2:0.0174264 3:-0.454647 4:-0.572545 5:0.301453 6:-0.614358 7:0.381013 8:0.641435 9:-0.0963011 10:0.206079 11:0.304648 12:-0.179393 13:0.246002 14:-0.34781 15:0.0284211 16:0.0931139 17:0.571342 18:0.294814 
3.035472030337054 0 0 0.2331806151628761 0.3059207686985558 0.04513793224709009 0 1:-0.351319 2:0.0315449 3:-0.444348 4:-0.590298 5:0.0826817 6:-0.796841 7:0.332729 8:0.658626 9:-0.0508624 10:0.374594 11:0.333244 12:-0.252253 13:-0.172575 14:-0.184577 15:0.163141 16:0.0706679 17:0.660525 18:0.322864 
0.1412036898408097 0 0 0.04991207298835858 1.050348599997126 0.4833915959222638 0 1:-0.405561 2:-0.0947291 3:0.0954944 4:-0.606831 5:-0.0431514 6:-1 7:0.552601 8:0.478218 9:-0.17735 10:0.213338 11:0.237713 12:-0.183343 13:0.315656 14:-0.459288 15:-0.104411 16:0.131063 17:0.639866 18:0.355837 
1.04677451018257 0 0 1.605523000749956 0.7441168905415654 0.252981128939567 0 1:-0.440811 2:-0.173545 3:0.182861 4:-0.584624 5:0.276175 6:-0.928999 7:0.432957 8:0.535802 9:-0.0385929 10:0.231469 11:0.26758 12:-0.226709 13:0.232877 14:-0.492083 15:-0.0600234 16:0.0931359 17:0.641706 18:0.349091 
0.7966477339636844 0 0 0 0 0 0 1:-0.678857 2:-0.338561 3:-0.0153289 4:-0.0278431 5:-0.0401041 6:-0.260394 7:0.293311 8:0.128534 9:0.294832 10:0.0338443 11:-0.0090978 12:-0.145631 13:-0.0322372 14:-0.290581 15:-0.216032 16:0.0566772 17:0.777784 18:0.10274 
0 0 0 0.2767555226080381 0.2689988272712024 2.238954757017047 0.6261947319940445 1:-0.652569 2:-0.447553 3:0.0383864 4:-0.24765 5:0.431472 6:-0.0578669 7:0.33021 8:0.0473613 9:0.302008 10:-0.224724 11:-0.0624488 12:-0.242252 13:0.229137 14:-0.268496 15:-0.446882 16:0.151446 17:0.6998 18:0.138801 
0.2152205365792099 0 0 1.384887147798736 0.8392749359472607 0.5154613018152078 0 1:-0.140335 2:0.179018 3:-0.144911 4:-0.572675 5:0.216088 6:-0.548926 7:0.000718615 8:0.42208 9:0.333521 10:0.136968 11:0.293772 12:-0.15471 13:-0.097854 14:-0.432703 15:-0.177193 16:0.200214 17:0.556642 18:0.320654 
0 0 0.08035025704487245 3.887899913970042 1.844877142545169 1.569794878295829 0 1:-0.108316 2:0.113655 3:-0.0730586 4:-0.397572 5:0.180772 6:-0.502516 7:0.0577995 8:0.432107 9:0.309884 10:0.0246099 11:0.265766 12:-0.161637 13:0.199986 14:-0.534634 15:-0.141243 16:0.244317 17:0.566108 18:0.36276 
0 0 0.2254554275821039 1.096067219036571 0 0.0660657582429903 1.083245842694632 1:-0.393408 2:-0.804696 3:0.0125545 4:-0.114214 5:0.343717 6:-0.4718 7:0.0546539 8:0.23531 9:-0.0641362 10:-0.0765955 11:0.311867 12:-0.39348 13:0.0211689 14:-0.323968 15:-0.147754 16:0.0508224 17:0.501424 18:0.282204 
1.182101159482199 0 0.4412100041329888 0.5605573246641844 1.326749854602082 0.2571998314276135 0 1:-0.360358 2:-0.833676 3:0.128611 4:0.131954 5:0.147357 6:-0.476797 7:0.110324 8:0.142866 9:0.0713143 10:-0.17737 11:0.263301 12:-0.442592 13:-0.0996993 14:-0.733868 15:0.029187 16:0.178525 17:0.583343 18:0.437042 
0 0 0.575324847410046 0 0 5.208190918584672 1.035439510933799 1:-0.345469 2:-0.286866 3:0.0942786 4:0.132445 5:0.160271 6:0.152331 7:0.000666343 8:0.443927 9:0.273769 10:0.356096 11:0.15433 12:-0.0621402 13:0.0101442 14:-0.35263 15:-0.451121 16:0.110114 17:0.718334 18:0.393395 
0.8375576539008569 0 0 1.697311725449014 0.5692501540489584 0.213565757920173 0 1:-0.33099 2:-0.242907 3:0.378337 4:0.457247 5:0.252957 6:0.183418 7:-0.0840922 8:0.404461 9:0.0422584 10:0.287732 11:0.132321 12:0.0423502 13:-0.0185973 14:-0.642905 15:-0.322381 16:0.10515 17:0.659057 18:0.248305 
0.8844687163524368 0 0.1510956599256929 0.4896845405974977 0.1700807191425671 0.710035560985409 0 1:-0.431502 2:-0.0253806 3:0.306373 4:0.00233259 5:0.118044 6:-0.227767 7:-0.159174 8:0.064672 9:0.282375 10:-0.0472873 11:0.29444 12:-0.509826 13:0.19707 14:0.0906937 15:0.888399 16:0.301115 17:0.519417 18:0.425173 
0.555767278773097 0 0 1.410722962114499 0 1.011832277272408 0 1:-0.358145 2:-0.0414242 3:0.322558 4:-0.0223753 5:0.312223 6:-0.0565828 7:-0.127131 8:0.0208876 9:0.178394 10:0.0280463 11:0.258124 12:-0.416738 13:0.113333 14:0.173066 15:0.801547 16:0.389101 17:0.569019 18:0.344031 
1.957931103246846 4.218103853045995 0 0 0 0.7353306621434065 1.421394157636078 1:-0.650596 2:-0.280073 3:0.160235 4:-0.0950397 5:0.193251 6:-0.27315 7:0.420449 8:0.547906 9:0.246042 10:0.224562 11:0.10449 12:-0.0522547 13:-0.12938 14:-0.492894 15:0.115568 16:0.133889 17:0.527316 18:0.188553 
0.6767003752290216 0.07985173346038893 0.301282507894309 0 0.3311937286977859 0 0 1:-0.6062 2:-0.460313 3:0.248618 4:0.296416 5:0.177967 6:-0.218188 7:-0.19563 8:-0.206401 9:0.186827 10:-0.20174 11:0.0927157 12:-0.0420573 13:0.134211 14:-0.039977 15:0.939269 16:0.391181 17:0.521494 18:0.392911 
0.03157910432045986 0.09947165822077464 0.09860857890572075 0.1682049614626935 0.2285470141178702 0 0 1:-0.569827 2:-0.463912 3:0.318552 4:0.265976 5:0.296962 6:-0.171573 7:-0.176896 8:-0.192599 9:0.239066 10:-0.235128 11:0.0935082 12:-0.101452 13:-0.190312 14:-0.0306889 15:0.893527 16:0.347847 17:0.597278 18:0.540696 
0 0 0 0 0 0.7907302616324867 0 1:-0.720222 2:-0.0243701 3:0.40153 4:-0.166417 5:0.0884978 6:-0.788924 7:-0.284987 8:-0.0861755 9:0.313491 10:0.0803273 11:0.171519 12:0.0752878 13:-0.00337904 14:-0.356774 15:0.312108 16:0.132998 17:0.475902 18:0.349526 
0 0.0836644263035556 0 0 0 0.9097350724869434 0 1:-0.517991 2:-0.08123 3:0.262169 4:-0.325681 5:0.288978 6:-0.435729 7:-0.198769 8:-0.129916 9:0.048128 10:0.117103 11:0.2215 12:0.164971 13:-0.318761 14:-0.0134985 15:0.333331 16:0.117072 17:0.580796 18:0.558563 
0 0 0 0.6108101557969835 0 2.478856351894805 0 1:-0.307948 2:-0.134192 3:0.365857 4:-0.0975469 5:0.257191 6:-0.0193069 7:0.174578 8:0.376823 9:0.440263 10:-0.0193584 11:0.033249 12:-0.203311 13:-0.161553 14:-0.486648 15:0.0332505 16:0.183547 17:0.578213 18:0.327841 
0 0 0 0 0 0.6711827871755522 8 1:-0.315543 2:-0.0431108 3:0.23642 4:-0.210377 5:0.120313 6:-0.0586944 7:0.249554 8:0.392755 9:0.369343 10:0.108934 11:0.120324 12:-0.19619 13:-0.179971 14:-0.276876 15:-0.0648513 16:0.0747429 17:0.641684 18:0.403709 
0 0 0 0 0 4.166049140224877 0 1:-0.689137 2:-0.462656 3:0.0748812 4:-0.0362408 5:0.289931 6:-0.300444 7:0.190338 8:0.493834 9:0.352004 10:0.334719 11:0.0868881 12:-0.237776 13:0.0835584 14:-0.202803 15:-0.268506 16:0.168813 17:0.503235 18:0.0975227 
3.532452611297367 0 0 0 0 0 0 1:-0.656904 2:-0.444181 3:0.0691904 4:0.0820394 5:0.181712 6:-0.234967 7:0.13386 8:0.39353 9:0.339676 10:0.35915 11:0.0951084 12:-0.150589 13:0.187719 14:-0.30345 15:-0.0831548 16:0.138194 17:0.53758 18:0.0738601 
0.2470856471571051 0 0 0 0.6767198511625051 0 0 1:-0.434956 2:-0.443658 3:-0.0028177 4:-0.440003 5:0.121604 6:-0.847455 7:-0.0920687 8:0.222774 9:0.314567 10:-0.196956 11:0.142116 12:-0.82322 13:-0.0935447 14:-0.209869 15:-0.0952381 16:0.122444 17:0.631908 18:0.356091 
0 0 0 0 0.2430676730314617 0 0 1:-0.2315 2:-0.520343 3:-0.263396 4:-0.645504 5:0.169756 6:-0.58815 7:0.076019 8:0.169688 9:0.26255 10:-0.163855 11:0.171325 12:-0.673132 13:0.410714 14:-0.0597513 15:0.0461561 16:0.0700482 17:0.641263 18:0.537662 
0.8552944703269336 1.428863392754614 0.3035046271958575 8 0 4.363603531956897 8 1:-0.175596 2:0.271491 3:0.375395 4:-0.114722 5:0.167432 6:-0.145115 7:0.0862216 8:0.431796 9:0.463375 10:0.349395 11:0.228235 12:-0.311603 13:0.0142746 14:-0.234705 15:-0.0354206 16:0.155871 17:0.690014 18:0.327092 
0.2811315630564939 0 0 0.1398247149950764 0 4.271103064079886 4.373984039757287 1:-0.188575 2:0.260745 3:0.381363 4:-0.177809 5:0.276346 6:-0.118106 7:0.0891988 8:0.455702 9:0.460347 10:0.319586 11:0.229821 12:-0.304471 13:0.218626 14:-0.225779 15:-0.0453254 16:0.160267 17:0.688559 18:0.281548 
0.5648626887924614 0 0.1620721236174845 0.2374847867290129 0 0.09313251065885136 0 1:-0.548211 2:0.110471 3:0.335174 4:0.209101 5:0.212446 6:-0.341149 7:-0.00619115 8:0.0301813 9:0.020942 10:0.0370021 11:0.135645 12:-0.561221 13:-0.259432 14:-0.46181 15:-0.396015 16:-0.0332268 17:0.672625 18:0.416624 
0 0 0.2872322555858433 1.530353670282735 0 0.4662298292834145 0.155836638855705 1:-0.400755 2:0.00726459 3:0.448499 4:0.390928 5:0.373163 6:-0.198224 7:-0.00340797 8:0.100393 9:0.00761959 10:-0.0648377 11:0.163623 12:-0.609231 13:0.0950725 14:-0.423912 15:-0.393255 16:-0.0877955 17:0.615049 18:0.439303 
0 0 0 0 0 2.402856574360318 0 1:-0.620691 2:-0.0280426 3:0.215624 4:-0.0811117 5:0.109284 6:-0.160066 7:0.128562 8:0.537323 9:0.270766 10:0.147005 11:0.166429 12:-0.284346 13:-0.0429435 14:-0.278376 15:-0.108335 16:0.00750343 17:0.465199 18:0.143623 
0 0.3768814638417865 0 0 0 0.9247044488797139 0 1:-0.713274 2:0.0850819 3:0.151658 4:-0.329585 5:0.266174 6:-0.23336 7:0.021084 8:0.472261 9:0.332291 10:0.185253 11:0.241302 12:-0.261733 13:0.135241 14:-0.188825 15:-0.123895 16:-0.0679133 17:0.520081 18:0.0905259 
0 0 0 0.1483059442875505 0 0.5051045246958273 0 1:-0.539433 2:-0.36727 3:-0.00168902 4:-0.284599 5:0.0998342 6:-0.544736 7:-0.181034 8:0.293981 9:0.709326 10:0.0138528 11:0.304044 12:-0.514578 13:0.0537436 14:-0.392406 15:-0.361858 16:-0.135145 17:0.657772 18:0.313472 
2.873267302361603 0.3484964386998324 1.413569572633245 0.5480418667995766 0.6059141150415586 1.568890651543866 1.744797474842841 1:-0.185371 2:-0.00391106 3:0.170671 4:0.0693182 5:0.242943 6:0.115773 7:-0.214365 8:0.281235 9:0.417856 10:0.0730737 11:0.00970627 12:-0.363612 13:0.173732 14:-0.0820867 15:-0.184028 16:0.221858 17:0.749788 18:0.194076 
0 0 0.6095745480998458 4.790384624076527 0.5408505693589457 0.8783432063372349 3.447609866255461 1:-0.189002 2:-0.0309953 3:0.171915 4:0.141405 5:0.166855 6:0.0917184 7:-0.121137 8:0.312412 9:0.460531 10:0.108058 11:-0.039301 12:-0.386975 13:0.0440977 14:-0.0388333 15:-0.264104 16:0.273149 17:0.686949 18:0.261579 
7.136693696124984 0 0 0 0 0 0 1:-0.61575 2:-0.0846267 3:0.128774 4:-0.172495 5:0.252332 6:-0.274996 7:-0.067401 8:0.288733 9:0.204236 10:0.111361 11:0.028542 12:-0.22957 13:0.0200574 14:-0.0323425 15:-0.100832 16:0.0108972 17:0.701919 18:0.117416 
0 0 0 0.3925787940480345 0 0.5170688127333574 1.581976624167645 1:-0.67844 2:0.00732308 3:0.186027 4:-0.525353 5:0.273335 6:-0.575023 7:0.344973 8:0.635594 9:0.114603 10:0.297281 11:0.341525 12:-0.266003 13:0.000218824 14:-0.272732 15:-0.1912 16:0.0337753 17:0.540196 18:0.370113 
0 0 0 0.2967195910199986 0 1.13170269215033 3.777792284733523 1:-0.64469 2:0.0130367 3:0.138357 4:-0.396147 5:0.164302 6:-0.486949 7:0.267189 8:0.539048 9:0.158363 10:0.401234 11:0.354182 12:-0.24703 13:0.159755 14:-0.118963 15:-0.116555 16:-0.0247291 17:0.570659 18:0.401496 
0 0 0 0 0 0.8939325336733981 0 1:-0.412753 2:0.220809 3:-0.120439 4:0.0306012 5:0.319954 6:-0.433268 7:0.248196 8:0.43936 9:0.304043 10:0.129418 11:0.0249295 12:-0.0293442 13:0.106729 14:-0.621311 15:-0.0502651 16:0.0371844 17:0.595964 18:0.399656 
5.72013991090038 0 0.5124128000855123 0 0.6812652975662519 1.089502911526647 0 1:-0.355717 2:0.21844 3:-0.117737 4:0.112625 5:0.202007 6:-0.373384 7:0.29185 8:0.440631 9:0.234414 10:0.169182 11:0.0403052 12:-0.087887 13:-0.173272 14:-0.476691 15:-0.116636 16:0.0725566 17:0.60926 18:0.367028 
2.722216590111453 2.442334219662044 1.262608361765395 1.349129843839642 0.2380991724361832 8 3.65599027904005 1:-0.185617 2:0.248186 3:0.174736 4:-0.372859 5:0.0470717 6:0.0670812 7:-0.0206694 8:0.278141 9:0.346896 10:0.194116 11:0.171067 12:-0.0214918 13:0.00824222 14:-0.340612 15:-0.209245 16:0.0590465 17:0.682715 18:0.257565 
0 0 1.133738452374874 3.194820068067135 2.381740543617833 3.529659041506223 5.590576603712098 1:-0.136007 2:0.212222 3:0.137111 4:-0.441103 5:0.200855 6:0.183188 7:0.0326712 8:0.280495 9:0.36847 10:0.191369 11:0.128005 12:0.0636692 13:0.0703301 14:-0.329233 15:-0.182918 16:0.0932719 17:0.660064 18:0.237922 
6.831324300643694 0 0 0.1803899084128613 0 0 0 1:-0.792028 2:-0.188539 3:0.148348 4:-0.013388 5:0.249129 6:-0.416695 7:0.240098 8:0.445723 9:0.484759 10:0.159231 11:0.100786 12:-0.209112 13:-0.0203194 14:-0.3297 15:-0.0943223 16:0.0394555 17:0.879616 18:0.141267 
0 0 0 0 0 3.082014979903099 0.5436187530344692 1:-0.304584 2:-0.0310669 3:0.0500696 4:-0.432937 5:0.125232 6:-0.356209 7:-0.350259 8:0.163347 9:0.365979 10:-0.0346573 11:0.232074 12:-0.504795 13:0.274064 14:-0.159385 15:-0.09501 16:0.10909 17:0.557744 18:0.33036 
0.1342820904633028 0 0 0.4595353589401057 0 0 0 1:-0.370695 2:-0.304327 3:-0.0307521 4:-0.202277 5:0.368241 6:-0.150919 7:0.340022 8:-0.128198 9:0.180241 10:0.338776 11:0.114987 12:-0.221938 13:0.0127432 14:-0.00169655 15:0.014566 16:0.01014 17:0.718077 18:0.407818 
0 0 0 1.117953698220127 0 0 0 1:-0.293798 2:0.0420106 3:0.338999 4:0.432191 5:0.0322269 6:-0.231135 7:0.058614 8:0.0830839 9:0.209872 10:0.313575 11:0.155708 12:-0.368265 13:-0.320654 14:-0.546074 15:-0.742638 16:0.0665267 17:0.744993 18:0.355021 
0.02231799158759806 0.707526811816286 0 0 0 1.429324761644297 0 1:-0.597149 2:-0.056095 3:0.282564 4:-0.318567 5:0.200898 6:-0.472654 7:0.247344 8:-0.0876031 9:0.30516 10:0.220122 11:0.172063 12:0.27366 13:-0.02666 14:-0.408674 15:0.662181 16:0.170047 17:0.598499 18:0.249865 
0.01923144461359944 0 0 0 0 0.8045916963163322 2.048747902332469 1:-0.557955 2:-0.487652 3:-0.081341 4:-0.318048 5:0.231478 6:-0.485143 7:0.0661188 8:0.338465 9:0.267246 10:0.0959512 11:0.0129157 12:-0.351717 13:-0.201129 14:-0.145873 15:-0.49911 16:0.10485 17:0.652572 18:0.12439 
0 0 2.747308569226336 0 0 0 0 1:-0.525163 2:-0.524981 3:-0.0272697 4:-0.179402 5:0.121122 6:-0.496086 7:0.0338502 8:0.350271 9:0.311593 10:-0.0406065 11:0.0375213 12:-0.335263 13:-0.0201154 14:-0.266691 15:-0.275407 16:0.0918738 17:0.669728 18:0.257636 
0.5794743539596533 0.5500726266527315 0.581092949714682 1.073824100739257 1.239073054106749 0.6555640060049579 0.4183549200378331 1:-0.197975 2:-0.5043 3:0.0197095 4:-0.350154 5:0.361776 6:-0.567363 7:-0.0462349 8:0.878292 9:0.235943 10:0.560955 11:-0.0482444 12:-0.360751 13:-0.387104 14:-0.289353 15:-0.567965 16:0.158076 17:0.680943 18:-0.0233041 
0.9562275504700615 0 0.711940132432364 2.228836417594523 1.702890044200253 1.121925542302003 1.471231417748669 1:-0.144673 2:-0.335907 3:-0.0282731 4:-0.286004 5:0.110712 6:-0.579822 7:0.0113711 8:0.775037 9:-0.0659502 10:0.624298 11:-0.0525225 12:-0.20632 13:0.297203 14:-0.380396 15:-0.59649 16:0.107007 17:0.676629 18:0.218689 
0 0 0 2.013629213275959 0 0 0 1:-0.406304 2:-0.263616 3:0.203243 4:0.192115 5:0.268895 6:-0.164814 7:0.27152 8:0.20128 9:0.394789 10:0.206198 11:0.0770219 12:-0.29824 13:0.122797 14:-0.028159 15:0.0491889 16:0.161222 17:0.539771 18:0.322562 
0.1353976328953393 0 0 0 0 0 0 1:-0.900359 2:-0.503672 3:0.124684 4:-0.149712 5:0.21168 6:-0.621601 7:0.200771 8:0.282677 9:0.237214 10:0.151159 11:0.0991069 12:0.166445 13:-0.387065 14:-0.255584 15:-0.268459 16:-0.069475 17:0.416917 18:0.190257 
0.9105035191756489 4.417106204323922 0.5963613205377093 0 0 0.9800211337198934 1.295854846311401 1:-0.526258 2:-0.373268 3:-0.24444 4:-0.18646 5:-0.0724421 6:0.036038 7:0.514926 8:0.286943 9:0.406514 10:0.118469 11:0.103675 12:-0.0517358 13:-0.0512838 14:-0.58298 15:0.12986 16:-0.0281929 17:0.70802 18:0.602031 
0.4148073887578494 1.015974627845604 0.6614848261832599 0.2576586630950083 0.4832711298540493 0.8521450721794788 0.5178809580516579 1:-0.554168 2:-0.489102 3:-0.212594 4:-0.289216 5:0.273423 6:0.135191 7:0.522164 8:0.248309 9:0.530437 10:-0.120248 11:0.0273628 12:0.145885 13:0.457837 14:-0.458822 15:0.163274 16:-0.0733335 17:0.699337 18:0.627991 
1.63848406204468 0 0 0 0 0 0 1:-0.383464 2:-0.151733 3:-0.159432 4:-0.794347 5:0.230221 6:-0.608042 7:-0.146102 8:0.346716 9:0.0389467 10:0.0918916 11:0.247684 12:-0.153464 13:-0.0197172 14:-0.120439 15:-0.079905 16:0.127936 17:0.588968 18:0.408524 
0.7867097077871252 0.7046245362734954 0.3290940031965743 0.01220903711246988 0.9027018078880715 0.0948721538915608 0.7552527157649316 1:-0.262081 2:0.101654 3:-0.178653 4:-0.42989 5:0.17571 6:-0.673921 7:0.252809 8:0.130063 9:0.426754 10:0.231749 11:0.244862 12:-0.666863 13:-0.0311346 14:-0.0453906 15:-0.336971 16:-0.0120196 17:0.609261 18:0.512061 
1.600415351089195 0 0.197341483212058 1.174271422085826 1.804052974364305 0.3644312746172058 0 1:-0.21388 2:0.0873648 3:-0.203656 4:-0.39408 5:0.221623 6:-0.582834 7:0.248528 8:0.0853041 9:0.52008 10:0.266438 11:0.203786 12:-0.538354 13:0.245233 14:-0.114788 15:-0.306958 16:0.105228 17:0.601859 18:0.410111 
0.8188455149512183 0 0 0 0 0 0 1:-0.594048 2:-0.26486 3:0.281531 4:0.176379 5:0.122006 6:-0.11389 7:0.224512 8:0.688104 9:0.166758 10:0.0195589 11:0.212194 12:-0.125504 13:-0.13437 14:-0.246476 15:0.0138165 16:0.131682 17:0.467509 18:0.271779 
0 0.1835785940459562 0.3665662957917812 0 0 0.599866379176403 0.0831138111672864 1:-0.574174 2:-0.221784 3:0.23175 4:-0.0383105 5:0.294785 6:-0.0637394 7:0.198872 8:0.593045 9:0.114977 10:0.0381566 11:0.286482 12:-0.149239 13:-0.00830715 14:-0.0495125 15:0.00943325 16:0.0572846 17:0.602406 18:0.428839 
0 0.1770460668756458 0 0 0 0 0 1:-0.483177 2:0.0919697 3:0.170436 4:-0.174475 5:0.243392 6:-0.436996 7:0.194294 8:0.528264 9:0.106824 10:0.193375 11:0.260653 12:-0.238943 13:-0.0118739 14:-0.484147 15:0.0206297 16:0.159318 17:0.634527 18:0.387841 
3.174197654787143 0 0.5996791121478902 3.302601817612856 0 0 1.778092303520497 1:-0.449556 2:0.117264 3:0.152869 4:-0.172675 5:0.234633 6:-0.403786 7:0.222015 8:0.46088 9:0.1319 10:0.200668 11:0.266082 12:-0.238633 13:0.0797703 14:-0.378282 15:-0.0307795 16:0.161765 17:0.646639 18:0.382014 
1.485493164764633 5.441246896531553 2.689045116421986 2.048629209146896 0 2.333837728782948 4.705444921776923 1:-0.397262 2:0.0769086 3:0.1762 4:-0.0612593 5:-0.00113659 6:-0.345308 7:-0.102568 8:0.534327 9:-0.146962 10:0.362267 11:0.0979312 12:-0.0534411 13:0.34106 14:-0.353059 15:0.0505805 16:0.185987 17:0.640428 18:0.360286 
0.8309326350086164 1.308370656538739 1.124534680299711 0.6976552394539753 0 3.451126855406287 2.752964272900088 1:-0.389985 2:0.207402 3:0.174731 4:-0.273834 5:0.249037 6:-0.38449 7:-0.232918 8:0.351591 9:-0.211839 10:0.0803432 11:0.123406 12:-0.284191 13:-0.227428 14:-0.552105 15:-0.300863 16:0.2617 17:0.627677 18:0.497355 
0.5838615153414738 0 0 0 0 1.033276676190897 0 1:-0.323579 2:-0.340905 3:0.233056 4:0.302833 5:0.121125 6:0.111066 7:0.0306194 8:0.0505312 9:0.200978 10:0.121606 11:0.0316246 12:-0.344028 13:0.121081 14:-0.066153 15:0.0733665 16:0.211075 17:0.569755 18:-0.0307255 
0.6459012209433826 0 0 1.820320020467365 0.2119833492628293 0.5180599732596475 0 1:-0.260507 2:-0.315791 3:0.280828 4:0.299806 5:0.322616 6:0.265952 7:0.0648606 8:0.0635467 9:0.112041 10:0.137167 11:0.0361893 12:-0.414222 13:0.0224669 14:-0.196001 15:-0.0437328 16:0.238376 17:0.624668 18:0.0555564 
4.49029678424773 0 0 0 0 0 0 1:-0.505856 2:-0.0584588 3:0.0216408 4:-0.372489 5:0.0123926 6:-0.166753 7:0.335152 8:0.33574 9:0.393276 10:0.157612 11:0.258374 12:-0.17036 13:0.0765164 14:-0.14398 15:-0.191007 16:0.147574 17:0.562086 18:0.300957 
3.70075150329015 3.786502608706514 0 0 0 0 0 1:-0.466272 2:-0.0693712 3:0.0427049 4:-0.49972 5:0.300138 6:-0.0226742 7:0.24873 8:0.237901 9:0.385589 10:0.0539818 11:0.249471 12:-0.173355 13:-0.071279 14:-0.110573 15:-0.0184463 16:0.172007 17:0.623822 18:0.339534 
2.889374963582716 0 0 0 0.6487946521622826 0 0 1:-0.757126 2:0.191321 3:0.0226405 4:-0.362148 5:0.214866 6:-0.715515 7:0.27751 8:0.293801 9:0.324219 10:0.328869 11:0.304156 12:-0.42733 13:0.209934 14:-0.0742158 15:-0.0941258 16:0.163524 17:0.69506 18:0.224945 
5.234480270213321 0 0 0 0 0 0 1:-0.708992 2:0.179752 3:0.056871 4:-0.286099 5:0.282655 6:-0.606838 7:0.248557 8:0.224161 9:0.320787 10:0.277019 11:0.271276 12:-0.350257 13:0.222742 14:-0.149062 15:-0.0169765 16:0.196261 17:0.674686 18:0.282787 
8 2.786585145413178 5.397678387166668 0 0 0 3.313894955781105 1:-0.540543 2:0.203897 3:0.0728976 4:-0.208003 5:0.148381 6:-0.162041 7:0.182695 8:0.40051 9:0.445044 10:0.349009 11:0.138908 12:-0.20802 13:0.159812 14:-0.331301 15:-0.161021 16:0.16681 17:0.670301 18:0.301196 
0.1470659292588615 0 0 0 0 0 0 1:-0.554693 2:0.230357 3:0.167739 4:-0.200399 5:0.25647 6:-0.186691 7:0.0522101 8:0.327468 9:0.492885 10:0.210689 11:0.120999 12:-0.222844 13:0.0221108 14:-0.43367 15:-0.133187 16:0.168974 17:0.64756 18:0.363645 
5.607472669137475 0 0 0.8507367080169206 0.150209342404914 0 0 1:-0.813667 2:0.15875 3:0.00125081 4:-0.452417 5:0.116167 6:-0.667162 7:0.489069 8:0.300792 9:0.30015 10:0.37766 11:0.1741 12:-0.214758 13:-0.024252 14:-0.256859 15:-0.314262 16:-0.03017 17:0.715548 18:0.315428 
1.282064291555365 0 0 0.808845730876477 0.4589457123219406 0 0 1:-0.807318 2:0.133319 3:0.00421606 4:-0.492969 5:0.310376 6:-0.570463 7:0.425291 8:0.189328 9:0.37944 10:0.256864 11:0.1849 12:-0.151245 13:0.347392 14:-0.271432 15:-0.222456 16:-0.042316 17:0.69559 18:0.313875 
2.271510818154883 0 1.1458819162128 1.526377640675783 0 0 0 1:-0.314535 2:-0.436041 3:-0.13135 4:-0.12012 5:0.00556918 6:-0.429561 7:-0.233235 8:0.424187 9:0.277686 10:0.217195 11:0.185845 12:-0.357027 13:0.0240838 14:-0.51331 15:0.174738 16:0.2186 17:0.696002 18:0.27242 
2.110543030975005 0 0.05482658134276178 0 0 0 0 1:-0.366772 2:-0.298614 3:-0.215941 4:-0.557887 5:0.295984 6:-0.483643 7:-0.358793 8:0.368356 9:0.217053 10:0.0918536 11:0.282873 12:-0.357637 13:0.25989 14:-0.217645 15:0.129186 16:0.247174 17:0.680321 18:0.306102 
3.143484209757002 0 0 0 0 0.8274344082146082 0 1:-0.615913 2:-0.116417 3:-0.0243193 4:-0.404333 5:0.144694 6:-0.183579 7:0.666738 8:-0.00674932 9:0.176039 10:0.227732 11:0.0412803 12:-0.266817 13:0.166223 14:-0.23702 15:0.0530596 16:0.172905 17:0.692775 18:0.274298 
0.3854934051088517 0.08385276370879788 0 0 0.2276952785845932 0 0 1:-0.672747 2:-0.114193 3:-0.0216026 4:-0.401699 5:0.148871 6:-0.225106 7:0.606096 8:-0.107165 9:0.222479 10:0.0580382 11:0.0675967 12:-0.293513 13:0.322343 14:-0.204293 15:-0.114031 16:0.104175 17:0.691237 18:0.408804 
1.190607916933164 0 0 0 0 0 0 1:-0.880816 2:-0.246468 3:0.0501987 4:-0.0916838 5:0.24579 6:-0.299003 7:0.0340154 8:0.208944 9:0.19389 10:0.0159854 11:0.118214 12:-0.13963 13:0.0119034 14:-0.292922 15:0.0159607 16:-0.0888815 17:0.624156 18:-0.127008 
0 0 0 0 0 0.3804575533101598 0 1:-0.810954 2:-0.322761 3:0.160686 4:0.145985 5:0.204601 6:-0.257102 7:0.0581294 8:0.190597 9:0.200357 10:0.0700523 11:0.151344 12:-0.386453 13:-0.000652387 14:-0.201226 15:-0.0865376 16:0.128636 17:0.663342 18:-0.0814644 
0 0 0 0 0 0 1.574021570948379 1:-0.449168 2:-0.318166 3:0.147316 4:0.189724 5:0.0558191 6:0.0244471 7:0.30296 8:0.461741 9:0.195284 10:0.415603 11:0.141955 12:-0.140512 13:0.0661923 14:0.0175763 15:0.0412232 16:0.137788 17:0.584032 18:0.247171 
0 0.260209516075264 0 0.9385946025216333 0.8198161639743053 0 0.8551351598382171 1:-0.245318 2:-0.543536 3:-0.137312 4:-0.142747 5:0.00244887 6:-0.425903 7:0.336347 8:0.28994 9:0.0664502 10:0.413283 11:0.269519 12:-0.469127 13:-0.120563 14:-0.489787 15:0.0658829 16:0.321463 17:0.637167 18:0.337763 
0.370927559463152 0 0 0 0 0 0 1:-0.346969 2:-0.463167 3:-0.159888 4:-0.562527 5:0.353146 6:-0.49186 7:0.219434 8:0.283711 9:0.0535855 10:0.252925 11:0.234546 12:-0.237919 13:0.209679 14:-0.358832 15:0.0421358 16:0.191516 17:0.613602 18:0.470095 
0 0 0 2.150354826961828 0 0.8478718379632729 4.302797853306768 1:-0.391844 2:-0.301176 3:0.209004 4:0.00888822 5:0.369592 6:-0.379739 7:0.138198 8:0.331742 9:0.343223 10:0.553357 11:0.100333 12:-0.138128 13:0.198051 14:-0.304796 15:-0.0256793 16:0.0185993 17:0.585399 18:0.500797 
0 0 0 0.6998335796000528 2.48647423855743 3.820168219126995 0.3248029281576708 1:-0.339609 2:-0.382276 3:0.269233 4:0.187989 5:0.171621 6:-0.436591 7:0.268155 8:0.398696 9:0.318718 10:0.483524 11:0.0555392 12:-0.152635 13:-0.0440424 14:-0.276926 15:0.0179611 16:0.0790676 17:0.585546 18:0.552773 
0 0 0 1.094332062304882 0 0 6.51105295533892 1:-0.434442 2:-0.327958 3:0.187763 4:-0.0312929 5:0.259989 6:-0.188057 7:0.384075 8:0.313252 9:0.173318 10:0.319045 11:0.0853951 12:-0.382931 13:0.0111756 14:-0.205419 15:-0.0297457 16:0.0500649 17:0.685224 18:0.372281 
0 0 0.9276156230385046 0.372391735577333 0.1879256031231125 0 0 1:-0.240913 2:-0.345826 3:-0.470121 4:0.0540038 5:0.0556739 6:-0.561242 7:-0.239831 8:0.0368144 9:0.00743394 10:0.0357445 11:-0.10954 12:-0.0833457 13:0.480505 14:-0.277332 15:-0.100507 16:0.0576451 17:0.676382 18:0.384855 
0 0 1.017378027780333 0.8970884460830297 1.348393106226109 0 0 1:-0.224174 2:-0.379631 3:-0.485219 4:-0.315194 5:0.424952 6:-0.470461 7:-0.118667 8:0.137363 9:0.0262735 10:0.153986 11:-0.103511 12:-0.160658 13:0.181837 14:0.0133545 15:-0.301775 16:0.164769 17:0.653898 18:0.470819 
0 0 0 0.04407953784310317 0.2142469856809446 0 0 1:-0.128381 2:-0.322527 3:-0.0844458 4:-0.524901 5:0.163657 6:-0.573372 7:0.133091 8:0.0430555 9:-0.110473 10:0.335343 11:0.195663 12:-0.241385 13:0.17551 14:-0.512105 15:0.161872 16:0.0725693 17:0.59365 18:0.231969 
0.5659464911399539 0 0 0 0.8786657019123495 0 0 1:-0.112121 2:-0.319549 3:-0.0683811 4:-0.575956 5:0.170394 6:-0.592683 7:0.245366 8:0.0983242 9:-0.129541 10:0.343533 11:0.192806 12:-0.290986 13:-0.0938542 14:-0.518358 15:0.0745145 16:0.140622 17:0.590927 18:0.243666 
1.955711094553658 0 0 0 0 1.495554170011878 0 1:-0.192799 2:-0.260906 3:-0.205906 4:-0.378225 5:0.227233 6:-0.373552 7:-0.109114 8:-0.001207 9:0.188364 10:0.614725 11:0.214775 12:-0.307579 13:0.0873434 14:-0.26738 15:0.0880433 16:0.126995 17:0.620417 18:0.203787 
2.210350875440225 0 1.391734738878381 0.1481833820285624 0 0.349338826877417 0 1:-0.345782 2:-0.393124 3:-0.760451 4:-0.135019 5:0.174624 6:-0.443078 7:0.289583 8:0.245734 9:0.138463 10:0.171681 11:0.308843 12:-0.429238 13:0.110557 14:-0.255862 15:-0.115076 16:0.0897988 17:0.6292 18:0.270216 
0.8146416593865365 0.4095726309064993 2.094340393679226 1.069547348942275 0.9382170034475412 0.7948067819316691 0.03569225634141626 1:-0.259822 2:-0.465281 3:-0.650314 4:0.0239237 5:0.354646 6:-0.299941 7:0.393115 8:0.288428 9:0.0154006 10:0.0195463 11:0.266833 12:-0.561722 13:-0.095887 14:-0.411003 15:-0.165613 16:0.161449 17:0.62526 18:0.0136739 
0 0 0 0 0 0.6162488400422386 0 1:-0.351367 2:-0.413898 3:-0.0841433 4:-0.247925 5:0.239316 6:-0.429963 7:-0.504934 8:0.349989 9:0.22428 10:0.0727681 11:0.231228 12:-0.40665 13:0.339591 14:-0.491176 15:0.304808 16:0.159951 17:0.557405 18:0.468187 
0.6176433756633861 0 0 0 0 1.947101135157454 0 1:-0.62999 2:0.296882 3:0.21551 4:-0.11336 5:0.103078 6:-0.690617 7:0.0312047 8:-0.0834904 9:0.365198 10:0.214209 11:0.139139 12:-0.481522 13:0.0573763 14:-0.208132 15:0.243255 16:0.161792 17:0.633029 18:0.294403 
0.4176447306277197 0 0 0.076413913413571 0 0 0 1:-0.513735 2:0.250251 3:0.275876 4:-0.0634108 5:0.383865 6:-0.446256 7:-0.00472352 8:-0.199836 9:0.344741 10:0.012125 11:0.0624123 12:-0.431208 13:0.334733 14:-0.20903 15:0.0184739 16:0.0222844 17:0.627756 18:0.420496 
1.863276835609536 0.9053752657966373 0 0.01351987523819683 0.650081885364228 0.1103774771893925 1.295851721829709 1:-0.495262 2:0.0318097 3:-0.132029 4:-0.377647 5:-0.00817759 6:-0.488612 7:0.501205 8:0.471045 9:-0.0693175 10:0.394064 11:0.0439074 12:-0.208475 13:-0.0564118 14:0.0293021 15:0.0642577 16:0.106997 17:0.646504 18:0.715833 
1.709704180368939 0.2854809120133651 0.7509513043961423 0.6267628395697519 0.4274815770524884 0 0 1:-0.389524 2:0.0576314 3:-0.232851 4:-0.537791 5:0.295679 6:-0.178075 7:0.430792 8:0.317309 9:-0.116216 10:0.389498 11:0.0319317 12:0.0585393 13:0.150277 14:0.21384 15:0.239628 16:0.0168844 17:0.704282 18:0.515402 
1.648951917022724 0 0.4576943211082166 0.5267587637142949 0 0 0 1:-0.77279 2:-0.0361807 3:0.0388523 4:-0.00552005 5:0.152946 6:-0.500396 7:0.193961 8:0.114995 9:-0.063679 10:0.477406 11:-0.0776272 12:-0.200476 13:0.0502272 14:-0.279218 15:-0.113963 16:-0.11354 17:0.796425 18:0.184727 
1.247504220174999 0 0.1353536031060346 0.4763350999595666 0.4212771564839669 0.7888060702467767 0 1:-0.764668 2:-0.0455648 3:-0.0261405 4:-0.171205 5:0.333171 6:-0.378579 7:0.158019 8:0.0817504 9:-0.19638 10:0.421679 11:-0.0220664 12:-0.0467015 13:0.280966 14:-0.12331 15:-0.171621 16:-0.215243 17:0.825726 18:-0.115295 
0.2335225962593661 0 0 1.301611310435309 1.382933658522038 0.1607007685311288 0 1:-0.0530952 2:-0.450398 3:-0.269356 4:-0.198661 5:0.360166 6:-0.129642 7:0.223995 8:-0.313697 9:0.325064 10:-0.014877 11:0.138937 12:-0.40234 13:-0.142291 14:-0.412135 15:-0.0126083 16:0.250878 17:0.572414 18:0.41783 
0.601124162737194 0 0 1.374456945896506 2.246827001229732 0 0 1:0.0058744 2:-0.483387 3:-0.234877 4:0.0328288 5:0.0345718 6:-0.227288 7:0.298186 8:-0.262894 9:0.413493 10:0.106635 11:0.161919 12:-0.316177 13:0.17063 14:-0.413808 15:0.117895 16:0.197625 17:0.577028 18:0.496664 
1.284965878920735 1.460527814903552 0.4994591855701246 1.164682140988628 0 1.107574281314277 0 1:0.0681045 2:-0.399781 3:-0.322163 4:-0.533579 5:0.299914 6:0.043132 7:0.103296 8:0.154274 9:0.17811 10:0.342756 11:0.10354 12:0.0795458 13:0.126587 14:-0.391215 15:-0.0512839 16:0.154859 17:0.643156 18:0.408628 
1.896099206559501 0.8172346478111679 0 5.981160791000471 2.772178493121828 3.53090500530055 2.198684966532237 1:0.108424 2:-0.407707 3:-0.274222 4:-0.274824 5:-0.00366089 6:-0.0791571 7:0.0648628 8:0.156852 9:0.369775 10:0.456198 11:0.124599 12:-0.102805 13:-0.0954474 14:-0.2353 15:-0.0321275 16:0.247446 17:0.590772 18:0.410112 
0 4.315255682392547 2.459306928567548 0 0 0.2416594228241138 0.6657046928529003 1:-0.235877 2:-0.236972 3:-0.15664 4:-0.207368 5:0.111131 6:-0.10727 7:-0.00727812 8:0.690636 9:0.0954727 10:0.205266 11:-0.0906097 12:-0.375846 13:-0.444087 14:-0.267143 15:0.197868 16:0.0988962 17:0.699666 18:0.403444 
2.453921123530728 3.67888999243045 4.194726069678739 0 0 0 5.186698404405874 1:-0.316082 2:-0.307636 3:-0.172369 4:-0.386835 5:0.190666 6:-0.199559 7:0.0868417 8:0.684527 9:0.232572 10:0.204154 11:-0.106605 12:-0.316388 13:0.0667691 14:-0.369833 15:0.110482 16:0.105836 17:0.645391 18:0.368443 
0 0 0 0 0 1.437851205675957 0 1:-0.4697 2:-0.291851 3:0.143352 4:0.158525 5:0.10745 6:-0.247509 7:-0.109579 8:-0.312287 9:0.00314627 10:0.418128 11:0.120436 12:-0.314848 13:0.00627253 14:-0.110328 15:0.349056 16:0.188713 17:0.634263 18:0.169367 
0.2297728967169346 0.2377684043280523 0 0.2458150128679617 0 3.380144675772567 0 1:-0.660609 2:0.131738 3:0.280287 4:-0.0936243 5:0.125912 6:-0.280168 7:-0.249435 8:-0.105204 9:0.31337 10:-0.0716839 11:0.0790802 12:-0.318495 13:0.191176 14:-0.18902 15:0.88118 16:0.183351 17:0.592962 18:0.262609 
0 0 0 0.4615533606044539 0.1965110807739524 0.6012083246979888 0 1:-0.588355 2:0.0804995 3:0.311103 4:-0.150755 5:0.183116 6:-0.301328 7:-0.113779 8:-0.145168 9:0.339116 10:-0.174943 11:-0.0222849 12:-0.225231 13:-0.269884 14:-0.0640413 15:0.874732 16:0.321113 17:0.6029 18:0.129276 
1.976147245926828 0 0.9669082153055579 1.932847007720448 0.6238182913922465 0.2329696846827111 0 1:-0.204305 2:0.55071 3:-0.194827 4:0.496674 5:0.445448 6:-0.387817 7:0.285901 8:0.255836 9:0.305031 10:0.480748 11:0.168923 12:-0.129048 13:-0.00478193 14:-0.14366 15:-0.107277 16:-0.0344155 17:0.507612 18:0.178514 
0 0 0.3303127368072609 0.2870664440493542 0.3709583232074294 0.3339149315036338 0 1:-0.172632 2:0.594722 3:-0.204354 4:0.661534 5:0.295592 6:-0.37772 7:0.200672 8:0.17673 9:0.298324 10:0.50457 11:0.148121 12:-0.0487796 13:-0.19663 14:-0.128322 15:-0.0283375 16:-0.0691841 17:0.512329 18:0.167105 
0.7426609190015263 0.6214292988215075 0 0.7621749703385939 0 1.93640947597446 0 1:-0.449608 2:-0.212396 3:0.0714059 4:0.195397 5:0.159689 6:-0.267352 7:0.147132 8:0.034716 9:0.190311 10:0.305098 11:0.287294 12:-0.416932 13:0.376687 14:-0.621385 15:0.15542 16:0.0748261 17:0.593595 18:0.212716 
2.854269031261074 0 0 3.274711381447989 0 0 0 1:-0.378876 2:-0.24998 3:0.00533553 4:0.0586409 5:0.327773 6:-0.120583 7:0.215611 8:-0.0215572 9:0.20305 10:0.370524 11:0.261118 12:-0.335134 13:0.0511448 14:-0.319245 15:0.116883 16:0.116194 17:0.592813 18:0.197799 
0 0 0 0.186021871743108 2.012863501074388 0 0 1:-0.377876 2:-0.853407 3:-0.363353 4:-0.281508 5:0.278699 6:-0.190185 7:0.418496 8:0.541967 9:-0.0152887 10:0.42203 11:0.172168 12:-0.414998 13:0.131086 14:0.172699 15:-0.139769 16:0.128769 17:0.551995 18:0.197916 
0 1.57388710833485 0.2946358474859431 0 0 1.603870325316524 0 1:-0.361618 2:-0.872037 3:-0.420066 4:-0.211824 5:0.0882435 6:-0.127359 7:0.546884 8:0.479184 9:0.0213652 10:0.39741 11:0.1512 12:-0.388951 13:-0.032773 14:-0.126904 15:-0.0857354 16:0.23702 17:0.517656 18:0.266168 
3.120015420577168 0 0 0.1860240590158874 0.2525480353510836 0 2.529874118200662 1:-0.356795 2:-0.326772 3:-0.0893164 4:-0.461865 5:0.258865 6:-0.618016 7:0.122859 8:0.351375 9:-0.00391251 10:0.326222 11:0.250193 12:-0.364336 13:0.240828 14:-0.3067 15:-0.217497 16:0.121428 17:0.65908 18:0.375147 
0.4713902989074155 0 0 0 0 0 0 1:-0.286926 2:-0.388273 3:-0.206615 4:-0.453563 5:0.206093 6:-0.511427 7:0.367463 8:0.348648 9:-0.0575216 10:0.33004 11:0.210302 12:-0.369685 13:-0.268677 14:-0.354451 15:-0.161596 16:0.192325 17:0.653438 18:0.358302 
0.2160650353999339 0.9875914338527685 0 0.7074223568443947 0.07759135358799533 1.349420795130159 0.1984571365772012 1:-0.247089 2:-0.389174 3:-0.051656 4:-0.267083 5:0.394383 6:-0.347992 7:-0.086858 8:0.562458 9:0.200769 10:0.0688223 11:0.311603 12:-0.446738 13:0.178123 14:-0.344844 15:0.397827 16:-0.113761 17:0.661418 18:0.323548 
1.775563313043301 0.8993525469931056 0 0.6223524332233192 0.2929746330402722 1.183238638373985 1.001667023519486 1:-0.258054 2:-0.367143 3:-0.157564 4:-0.194467 5:0.0338473 6:-0.387018 7:0.0934302 8:0.520546 9:0.100831 10:0.239058 11:0.317592 12:-0.472355 13:-0.245364 14:-0.161588 15:0.382357 16:-0.0212592 17:0.694378 18:0.257477 
0.4555093071724663 0 0.2656919331818973 0.5558214565083383 1.024789594426787 0.5501552355074134 0 1:-0.147756 2:0.0356326 3:0.263151 4:0.135268 5:0.0580442 6:-0.14111 7:0.83928 8:-0.105747 9:-0.202029 10:0.534981 11:0.141703 12:0.147155 13:-0.159887 14:0.180571 15:0.142635 16:0.120612 17:0.610558 18:0.381279 
0 0 0.01919881580504653 0.3195587477818337 0.7803611042312928 0 0 1:-0.220374 2:0.0607812 3:0.350314 4:0.0653698 5:0.430586 6:-0.100406 7:0.604375 8:-0.285548 9:-0.0435644 10:0.432659 11:0.166865 12:0.121185 13:0.202365 14:-0.0886657 15:0.263707 16:0.192451 17:0.564165 18:0.372603 
3.36421232704224 0.6248701655797029 3.046310407945764 0 0 2.237641898551714 0 1:-0.442326 2:-0.238052 3:-0.01823 4:0.0310529 5:-0.0335143 6:-0.182193 7:0.157306 8:0.238536 9:0.30109 10:0.198989 11:-0.072984 12:-0.205366 13:0.191767 14:-0.199483 15:-0.357277 16:0.134762 17:0.730151 18:0.281424 
1.307697461777871 0 0 0.3497552000283888 0 1.713033481457429 0 1:-0.45693 2:-0.198472 3:0.0200755 4:-0.136871 5:0.417242 6:-0.135215 7:0.0316648 8:0.217511 9:0.24907 10:-0.00925161 11:-0.0979301 12:-0.0380197 13:0.324645 14:-0.218263 15:-0.409586 16:-0.0115669 17:0.649093 18:0.195597 
0 0.3046292652623386 0 0 0 4.301915284013598 1.38905795232426 1:-0.282816 2:-0.134897 3:0.00283186 4:-0.53706 5:0.191415 6:-0.389297 7:-0.104947 8:0.624239 9:0.226234 10:0.0772228 11:0.169782 12:-0.364091 13:-0.13681 14:-0.375695 15:-0.115655 16:0.105117 17:0.605741 18:0.376686 
3.428982517678504 1.786080638531437 0 0 0 0 3.060706653623731 1:-0.32014 2:-0.104796 3:-0.0254547 4:-0.581527 5:0.153276 6:-0.371919 7:0.00361565 8:0.600434 9:0.18463 10:0.0168871 11:0.137632 12:-0.256602 13:0.254226 14:-0.463078 15:-0.0575787 16:0.146331 17:0.597459 18:0.392175 
0.386856497843669 0.03459163103340868 0.2991876737262428 0.3261923811514328 0.501863603012868 0.3785105346195128 0 1:-0.810532 2:0.0153584 3:0.00884283 4:-0.614231 5:0.317201 6:-0.54399 7:-0.154783 8:0.075185 9:-0.130693 10:-0.00840946 11:-0.363523 12:-0.457246 13:0.0200557 14:0.550446 15:0.51777 16:0.232603 17:0.327411 18:0.108172 
0.2286038324874987 0 0.1849874364827553 0.2663583962090491 0.3753378484160607 0.3548856579030963 0 1:-0.777768 2:0.00900897 3:0.0684519 4:-0.279248 5:-0.0144622 6:-0.593094 7:-0.0611451 8:0.0383544 9:-0.185563 10:0.110038 11:-0.338147 12:-0.482763 13:-0.0377792 14:0.241559 15:0.707647 16:0.27287 17:0.36931 18:-0.0430939 
5.790154683967523 0 3.281711660803049 7.233315139777264 0 8 6.96810366678361 1:-0.309312 2:-0.290766 3:0.0617269 4:0.0959877 5:0.161233 6:0.00419458 7:0.112711 8:0.459774 9:0.287042 10:0.378753 11:0.175295 12:-0.0993438 13:-0.0257355 14:-0.361034 15:-0.510701 16:0.125121 17:0.674862 18:0.247853 
0 0 0 0 0.08615399925398953 0 0 1:-0.311455 2:-0.284347 3:0.270116 4:0.215555 5:0.208673 6:-0.0167129 7:0.138002 8:0.354729 9:0.122541 10:0.210052 11:0.198627 12:-0.212776 13:-0.153095 14:-0.262611 15:-0.690315 16:0.137094 17:0.666845 18:0.253317 
0 0 0 1.513640133552764 0.2001358703942829 0 2.035495978054731 1:-0.0314087 2:-0.337603 3:0.00902938 4:-0.296149 5:0.167562 6:-0.205725 7:-0.0405608 8:0.404554 9:0.0971172 10:-0.105696 11:0.388971 12:-0.630821 13:0.0965519 14:-0.386282 15:0.0711479 16:0.155566 17:0.642729 18:0.445957 
0 3.900965529383063 0 8 3.370238603547921 3.807859024545074 6.378785623273244 1:-0.0357732 2:-0.320812 3:0.0295922 4:-0.342389 5:0.249664 6:-0.215672 7:0.0126145 8:0.439966 9:0.171451 10:0.131591 11:0.25357 12:-0.446939 13:-0.0237084 14:-0.545545 15:-0.0505067 16:0.293326 17:0.651511 18:0.362951 
2.385912429003234 8 4.120475921258813 0 0.1066274065014068 0 6.15050037078748 1:-0.486646 2:-0.163548 3:0.0248628 4:-0.111092 5:0.0952132 6:-0.0761644 7:0.303978 8:0.652575 9:0.191177 10:0.424877 11:0.0819475 12:-0.488245 13:0.0648755 14:-0.0549819 15:0.156185 16:-0.010292 17:0.601513 18:0.265287 
4.031448115341415 8 2.179465472712059 0.993190468023612 0.8839491761136815 5.034617612888161 1.434359600879256 1:-0.462967 2:-0.139375 3:-0.00960909 4:-0.145149 5:0.273321 6:0.0400551 7:0.159504 8:0.599771 9:0.317978 10:0.541258 11:0.15363 12:-0.508588 13:0.299772 14:-0.197345 15:0.319725 16:0.102316 17:0.594086 18:0.149403 
6.826602295094491 0 1.283282790035215 0 0 8 3.24325134707023 1:-0.321734 2:-0.50821 3:-0.0590571 4:-0.0359624 5:0.185964 6:-0.153255 7:-0.0408135 8:0.228596 9:0.330199 10:0.42284 11:0.0356882 12:-0.156242 13:-0.014735 14:-0.322613 15:-0.121002 16:0.259842 17:0.668135 18:0.330878 
0.7193298220375207 0.09786037387889038 0.5342805659088885 0.5664380571641732 0.802091920481616 0.7599457347000438 0 1:-0.448586 2:-0.36359 3:-0.616578 4:0.456497 5:0.702555 6:-0.244566 7:0.0579746 8:0.221985 9:0.456105 10:-0.626084 11:-0.463675 12:0.455605 13:-0.33433 14:-0.278396 15:-0.0750339 16:-0.0243481 17:0.852773 18:0.558837 
6.76428792217034 2.093762441616821 1.389037858140107 3.772660780217085 0.05965823757136332 4.541250055388602 1.003392715386094 1:-0.221483 2:-0.514818 3:-0.0405026 4:-0.222368 5:0.562597 6:0.0115738 7:-0.197908 8:0.201322 9:0.258174 10:0.193931 11:0.0651926 12:-0.231625 13:0.265456 14:-0.345325 15:-0.180175 16:0.256295 17:0.649994 18:0.421529 
1.17695840897231 2.682964218814731 0 0.7593577972647882 1.087213586478798 2.62700556023559 1.458174726052162 1:-0.331831 2:-0.589411 3:-0.283373 4:-0.205626 5:0.259619 6:0.0503046 7:0.0519943 8:0.360757 9:0.54541 10:0.402302 11:0.360791 12:-0.340977 13:0.0467782 14:-0.111517 15:-0.100316 16:0.178756 17:0.697519 18:0.136532 
2.965255493855128 1.801079772809876 2.596138262650159 0.9965560178110066 0 5.40846394541758 0.02591726563945384 1:-0.375216 2:-0.537748 3:-0.250719 4:-0.151698 5:0.280977 6:0.0425879 7:-0.0841655 8:0.378088 9:0.535337 10:0.454657 11:0.340604 12:-0.306739 13:-0.0482948 14:-0.134802 15:0.0312627 16:0.167477 17:0.679934 18:0.154341 
0 1.340874068511338 0 1.256897917246765 0.3074711805974885 7.50476163104791 7.251142407857533 1:-0.329647 2:-0.572995 3:-0.209223 4:-0.332394 5:0.262613 6:-0.0715462 7:0.083318 8:0.359824 9:0.538463 10:0.261044 11:0.180594 12:-0.147744 13:0.0952901 14:-0.145304 15:-0.169093 16:0.124734 17:0.576477 18:0.0798322 
0 0 0 5.839555353262512 7.139895996605103 7.592287104345529 1.974224225073469 1:-0.197405 2:-0.317046 3:0.0808089 4:-0.183615 5:0.158255 6:-0.345073 7:0.293726 8:0.221332 9:0.330837 10:0.300603 11:0.280401 12:-0.197065 13:0.0820577 14:-0.343828 15:-0.249894 16:0.116346 17:0.717872 18:0.26246 
0.4447781309705821 1.669746145589388 0 7.644979036563587 0 8 8 1:-0.276795 2:-0.314746 3:-0.00594626 4:-0.209398 5:0.160274 6:-0.299991 7:0.270128 8:0.282374 9:0.372728 10:0.339294 11:0.198524 12:-0.26226 13:0.0946267 14:-0.317114 15:-0.254692 16:0.128995 17:0.711068 18:0.298621 
6.180015071709988 8 0.2177320164256205 8 0 8 8 1:-0.313457 2:-0.313685 3:0.016567 4:-0.224578 5:0.198226 6:-0.255624 7:0.173932 8:0.374082 9:0.367853 10:0.334478 11:0.165828 12:-0.28347 13:0.162458 14:-0.292588 15:-0.201667 16:0.0738068 17:0.704507 18:0.337769 
0.07715861225859895 0 0 0.99723828789084 0 0 2.136421245020464 1:-0.0468275 2:-0.672694 3:-0.148744 4:0.0905874 5:0.240673 6:0.112719 7:0.0559459 8:0.18918 9:0.311199 10:0.417669 11:-0.00235817 12:-0.375772 13:0.334761 14:0.0474271 15:0.0141797 16:0.237986 17:0.689969 18:0.156873 
5.392727994590691 0 1.546571845727691 0 0.006708121582861094 1.501124955420655 0 1:-0.0573244 2:-0.6307 3:-0.220037 4:0.0358338 5:0.214723 6:0.101889 7:0.0945617 8:0.173432 9:0.356149 10:0.376397 11:0.05096 12:-0.479464 13:0.345784 14:0.122557 15:-0.052569 16:0.216034 17:0.707692 18:0.0982037 
0.6316292529872752 0.384092477778163 0.8991844494727231 1.530256242030443 2.005191302984858 0.02141505529974343 0.9945348695205142 1:-0.074982 2:-0.655192 3:-0.118323 4:0.142281 5:0.188126 6:0.11107 7:0.0685017 8:0.226093 9:0.308229 10:0.391881 11:-0.0405752 12:-0.442201 13:0.287544 14:-0.0461006 15:0.0377267 16:0.214927 17:0.683183 18:0.152961 
4.127080928925272 0 4.969344933130734 1.10865312290852 0 0 0 1:-0.607088 2:-0.53582 3:-0.11623 4:-0.000774565 5:0.28119 6:-0.244638 7:0.0583066 8:0.430018 9:0.417327 10:0.335974 11:0.0901795 12:-0.35908 13:0.166152 14:-0.174067 15:0.0607593 16:0.099544 17:0.782205 18:0.103555 
0 0 0 0 0 0.5982212275682012 0 1:-0.593338 2:-0.606603 3:-0.109187 4:0.0171366 5:0.260934 6:-0.230465 7:0.174932 8:0.245309 9:0.340584 10:0.18912 11:0.24657 12:-0.397507 13:0.0632173 14:-0.25906 15:-0.0423148 16:0.0545021 17:0.769526 18:0.218087 
0 0 0 0 0 0.7120405511428149 0 1:-0.583282 2:-0.598827 3:-0.0125715 4:0.0313449 5:0.266312 6:-0.274835 7:0.142885 8:0.337403 9:0.302829 10:0.260378 11:0.151314 12:-0.33167 13:0.120115 14:-0.175637 15:-0.0213444 16:0.0145632 17:0.718315 18:0.211029 
3.106827169431287 0 0 0 0 1.251928609988537 0 1:-0.423726 2:-0.6605 3:-0.0981971 4:0.145435 5:-0.0934792 6:-0.314935 7:0.217051 8:0.157824 9:0.405011 10:0.461776 11:0.340609 12:-0.205178 13:0.0440954 14:-0.25035 15:0.0140378 16:0.105116 17:0.702628 18:0.17772 
0 0 0 0.3870450391933424 0.5978555535958719 0 0 1:-0.471613 2:-0.751436 3:0.0170161 4:0.196474 5:0.0226885 6:-0.401672 7:0.181769 8:0.28951 9:0.442757 10:0.383687 11:0.297539 12:-0.0929186 13:0.0454473 14:-0.331973 15:0.0945311 16:0.120886 17:0.633141 18:0.246529 
0.4673877633898947 0 1.847655227699694 6.236729907412689 0 6.425560140764047 3.610740485659575 1:-0.0875367 2:-0.630906 3:-0.151522 4:-0.0216811 5:0.202481 6:-0.0215452 7:0.138734 8:0.106475 9:0.303696 10:0.374593 11:0.00595311 12:-0.496512 13:0.275646 14:-0.329261 15:-0.215017 16:0.138474 17:0.645021 18:0.273267 
4.383164297592355 0 0 0.5736758424266829 1.812965941367524 2.803911350984615 0.7985956529949285 1:-0.0365872 2:-0.635476 3:-0.118776 4:0.0934624 5:0.105331 6:-0.0206242 7:0.130993 8:0.0667841 9:0.319008 10:0.416703 11:-0.0139117 12:-0.407134 13:0.262531 14:-0.345665 15:-0.167951 16:0.158344 17:0.654198 18:0.303255 
0 0 0 0.6850357503837015 2.153418003814237 2.797568928524509 1.727955729997111 1:-0.133376 2:-0.59655 3:-0.0980443 4:-0.0124607 5:0.153985 6:-0.084264 7:0.212582 8:0.0695446 9:0.316482 10:0.348978 11:-0.00432485 12:-0.486584 13:0.240607 14:-0.323511 15:-0.236324 16:0.152222 17:0.659373 18:0.24989 
0 2.637666656380519 0 0 0.6766859651863146 0 0.1532049294628558 1:-0.449883 2:-0.572765 3:-0.0984753 4:-0.299554 5:0.394346 6:-0.16152 7:0.0763257 8:0.404843 9:0.413075 10:0.133804 11:-0.133587 12:-0.278653 13:-0.0368621 14:-0.0645446 15:-0.142726 16:0.181657 17:0.501028 18:0.278759 
0.7824924951333083 0 0 0 0 0 0 1:-0.598408 2:-0.442763 3:0.0496644 4:-0.0570797 5:0.0951607 6:-0.266429 7:0.345268 8:0.446844 9:0.27326 10:0.179597 11:-0.144129 12:-0.0813463 13:-0.187402 14:0.0653124 15:0.133851 16:0.11944 17:0.422443 18:0.201613 
0 0 0 0 0 1.511385281059929 2.710369719317914 1:-0.601286 2:-0.237498 3:0.0908784 4:-0.353667 5:0.40078 6:-0.220761 7:0.134691 8:0.412682 9:0.2478 10:0.0264371 11:-0.0392619 12:-0.275339 13:-0.184885 14:-0.0886603 15:-0.240009 16:0.0942722 17:0.517773 18:0.272808 
0.4327641117165358 0 0 0 0 0 0 1:-0.678073 2:-0.362781 3:0.15499 4:0.0325973 5:0.119378 6:-0.310335 7:0.177493 8:0.345599 9:0.395286 10:0.201051 11:-0.107295 12:-0.111551 13:-0.229287 14:-0.0435752 15:0.0103561 16:0.0498193 17:0.467052 18:0.184187 
0 5.404877256391631 0 1.143302020377655 0 5.45884977452675 8 1:-0.239136 2:0.130719 3:0.234006 4:-0.218781 5:0.0678867 6:-0.0826663 7:0.172231 8:0.377426 9:0.0803014 10:0.0965886 11:0.12196 12:-0.318592 13:-0.0773208 14:-0.498347 15:0.0758841 16:0.275984 17:0.638636 18:0.315793 
0 8 0.3470025012524516 0 0 3.717490061674803 8 1:-0.225096 2:0.163489 3:0.123501 4:-0.501252 5:0.301851 6:-0.0333343 7:0.203463 8:0.356615 9:0.0187787 10:0.100947 11:0.134965 12:-0.283021 13:-0.0461588 14:-0.408977 15:0.0367077 16:0.22609 17:0.638953 18:0.365306 
1.188337705944319 0.2383313978590081 1.937699130546362 0.5273233334527478 0 3.634236431861259 0.3279184807755964 1:-0.373057 2:-0.0455693 3:0.0250624 4:-0.487949 5:0.219396 6:-0.116804 7:0.547835 8:0.290919 9:-0.0876789 10:0.221818 11:0.214192 12:-0.262463 13:0.0601196 14:-0.538633 15:0.0686718 16:0.134452 17:0.657041 18:0.394512 
0 3.120929962059591 0 0 0 0 6.081951929877489 1:-0.366811 2:-0.0540744 3:0.0226386 4:-0.550634 5:0.298656 6:-0.1265 7:0.545766 8:0.299066 9:0.00982215 10:0.313599 11:0.183841 12:-0.237578 13:-0.181273 14:-0.382919 15:0.0737746 16:0.175097 17:0.631695 18:0.460584 
0 1.483007532967589 0 0.09994192007881227 0 0 8 1:-0.309658 2:0.00674281 3:0.0702277 4:-0.476253 5:0.258957 6:-0.0532448 7:0.453024 8:0.298818 9:-0.0413398 10:0.19765 11:0.204662 12:-0.284131 13:-0.0219579 14:-0.433694 15:0.101271 16:0.133435 17:0.658318 18:0.316305 
0 0 0 0.07110376799694795 0 0 0.1149670789542037 1:-0.33504 2:0.0575014 3:0.106072 4:-0.476971 5:0.237885 6:-0.162158 7:0.410169 8:0.360134 9:-0.0455124 10:0.279063 11:0.16713 12:-0.231279 13:-0.109164 14:-0.420428 15:0.116186 16:0.189219 17:0.643577 18:0.330378 
2.063045096841133 1.956082502478099 0 0 0 3.886031277479478 0 1:-0.295956 2:-0.291019 3:-0.0114434 4:-0.0447828 5:0.302075 6:0.130922 7:0.134681 8:0.14876 9:0.187356 10:0.379112 11:0.0384658 12:-0.493127 13:0.428774 14:-0.331957 15:0.112925 16:0.00810166 17:0.623742 18:0.304368 
0.3991499563827071 0.6183247720149775 0 0 0 2.276067651397517 0 1:-0.26525 2:-0.281461 3:-0.00437177 4:0.0913425 5:0.149122 6:0.133028 7:0.19769 8:0.151695 9:0.186937 10:0.471461 11:0.0367663 12:-0.555995 13:-0.45537 14:-0.355219 15:0.129441 16:0.129729 17:0.663152 18:0.210195 
0 8 0 0 0 0 0 1:-0.288988 2:-0.282111 3:-0.0425689 4:-0.157209 5:0.353475 6:0.102328 7:0.110252 8:0.183738 9:0.223456 10:0.491556 11:-0.0153436 12:-0.421186 13:0.254188 14:-0.318994 15:0.133998 16:0.0185235 17:0.626923 18:0.389659 
0 1.049818313779748 0 0 0 0.8919155619261306 0 1:-0.371381 2:-0.142908 3:-0.0933292 4:-0.380259 5:0.0831669 6:-0.290839 7:-0.243609 8:0.449374 9:0.404059 10:0.466281 11:-0.0920627 12:-0.428819 13:0.282199 14:-0.109892 15:0.217982 16:0.181599 17:0.425943 18:0.478515 
0 0.3469093726450288 0 0 0 1.40812064742923 0 1:-0.25333 2:-0.15027 3:-0.243679 4:-0.67288 5:0.333286 6:0.0135387 7:-0.0498699 8:0.311292 9:0.246595 10:0.257385 11:-0.117999 12:-0.437628 13:0.230691 14:-0.0435842 15:0.149664 16:0.00556589 17:0.456047 18:0.251826 
3.122053843754224 1.119684219579538 0 0 0.08854272518807742 0.03345190861583117 0 1:-0.255606 2:-0.176011 3:-0.257424 4:-0.48352 5:-0.00865264 6:-0.126661 7:0.0382912 8:0.370961 9:0.28473 10:0.356024 11:-0.0784587 12:-0.451575 13:0.0837133 14:-0.0559476 15:0.185925 16:-0.0209503 17:0.489726 18:0.266026 
0.675817970431838 0 0 0 0 0 0 1:-0.275187 2:-0.202336 3:-0.284706 4:-0.649782 5:0.100775 6:-0.266652 7:0.120093 8:0.630905 9:-0.0234083 10:0.171992 11:0.0153622 12:-0.278792 13:0.147084 14:-0.502843 15:-0.0897217 16:0.316144 17:0.621733 18:0.369791 
5.667564180563397 0 0 0 0 0 0 1:-0.266086 2:-0.241585 3:-0.222781 4:-0.578733 5:0.0975763 6:-0.316116 7:0.13075 8:0.44061 9:0.0293022 10:0.220281 11:0.0674035 12:-0.280275 13:0.206316 14:-0.568695 15:0.0210821 16:0.308345 17:0.594879 18:0.294085 
1.418097637828581 0 0 0 0 0 0 1:-0.252204 2:-0.278665 3:-0.253498 4:-0.649126 5:0.207603 6:-0.313809 7:0.136142 8:0.532111 9:0.0517159 10:0.244069 11:0.0587734 12:-0.309115 13:-0.170786 14:-0.395786 15:0.0630657 16:0.329879 17:0.656031 18:0.330314 
0 1.778423209403172 0 1.117465106416143 0 2.056824915084728 2.158014065940124 1:-0.235098 2:-0.310926 3:-0.165583 4:-0.441682 5:0.123482 6:-0.274717 7:0.0352164 8:0.409061 9:0.104807 10:0.228523 11:0.0373854 12:-0.259156 13:0.22374 14:-0.620006 15:0.0010086 16:0.286917 17:0.584596 18:0.30284 
1.263476075291852 0 0 0 0 0 0 1:-0.278372 2:-0.305029 3:-0.216436 4:-0.598475 5:0.190179 6:-0.345311 7:0.11332 8:0.546281 9:0.0399596 10:0.235126 11:0.0562759 12:-0.319439 13:-0.209152 14:-0.436907 15:-0.00560681 16:0.277637 17:0.652326 18:0.29053 
2.432026127193659 0 0.5048777836663532 0 0.0512819904174636 0 0 1:-0.0915287 2:-0.383739 3:-0.148868 4:-0.466002 5:0.412078 6:0.0928409 7:-0.0865985 8:0.409231 9:0.121257 10:0.359792 11:0.0681357 12:0.0520656 13:-0.0970043 14:-0.516263 15:-0.661849 16:-0.0415256 17:0.583218 18:0.263834 
0 0 0.2292969873879631 0.2825347765235178 0.5076601036227111 0.2396158058465286 0 1:-0.100714 2:-0.42254 3:-0.21198 4:-0.397142 5:0.1861 6:0.0496543 7:0.0653816 8:0.489499 9:0.0955193 10:0.342158 11:0.165529 12:-0.196957 13:-0.58879 14:-0.210002 15:-0.814935 16:0.0490516 17:0.677142 18:0.245078 
0.5445400614537945 0.5557123168940888 0 0 0 4.684220811148855 1.004861231850353 1:-0.158833 2:-0.276236 3:-0.0534035 4:-0.449944 5:0.377658 6:0.0459452 7:-0.0229873 8:0.393543 9:0.0930735 10:0.232519 11:0.10781 12:-0.0652172 13:-0.0101476 14:-0.572406 15:-0.659029 16:-0.0351346 17:0.529054 18:0.222789 
0 0.6366415713969681 0 1.487102398128844 0.1228339007853862 0 0 1:-0.0446052 2:-0.338527 3:-0.0892641 4:-0.491807 5:0.429951 6:0.146759 7:0.0199926 8:0.424851 9:0.0369917 10:0.205531 11:0.0602815 12:-0.00111097 13:-0.051028 14:-0.617838 15:-0.59517 16:0.0632462 17:0.513711 18:0.229796 
0 1.43047907616086 0 0.8818382916026832 0 1.646833447886759 0.05809505902049317 1:-0.124758 2:-0.314374 3:-0.127953 4:-0.416954 5:0.18605 6:0.00241821 7:0.129493 8:0.503445 9:0.0829153 10:0.358448 11:0.174539 12:-0.234829 13:-0.476605 14:-0.31305 15:-0.786254 16:0.0739347 17:0.692645 18:0.217476 
0 0 0 0.01820563349038099 0.1147095469902266 2.045696589128736 0 1:0.0782416 2:0.173816 3:-0.294147 4:-0.668349 5:0.0147485 6:-0.0527403 7:-0.322749 8:0.411012 9:0.085198 10:0.244343 11:0.241607 12:-0.310822 13:-0.0993918 14:-0.192167 15:0.265955 16:0.113515 17:0.610779 18:0.519815 
0 1.703014394880469 0.4150040431104805 0.5619439731444756 0.09985237987840068 2.172472462074693 2.685066535546616 1:0.0452176 2:0.140599 3:-0.129226 4:-0.627094 5:0.254416 6:-0.055114 7:-0.307827 8:0.330477 9:0.0491245 10:0.112695 11:0.125891 12:-0.162793 13:0.168656 14:-0.493115 15:0.160477 16:0.194727 17:0.606714 18:0.424164 
0 0.1966858871148336 0 0 0.09167933888864921 0 0 1:0.0833716 2:0.109978 3:-0.191823 4:-0.47942 5:0.00405712 6:-0.0748127 7:-0.365818 8:0.352133 9:0.141793 10:0.21688 11:0.127789 12:-0.0526021 13:-0.081895 14:-0.40835 15:0.284959 16:0.129961 17:0.598248 18:0.500705 
0 1.69799626005327 0.3098394158021296 1.056014653507437 0.935580595666356 1.1850554852649 1.680916985193396 1:0.0149374 2:0.283403 3:-0.107927 4:-0.676261 5:0.150302 6:0.0470927 7:0.137568 8:0.297315 9:0.0593226 10:0.078991 11:0.228449 12:-0.579125 13:-0.20186 14:-0.725762 15:0.0744069 16:0.211941 17:0.628555 18:0.278538 
0.4306583533119356 0 0 0 0.3438852898733977 0 0 1:0.0556378 2:0.249844 3:-0.206086 4:-0.755139 5:0.138138 6:-0.110896 7:-0.115793 8:0.344573 9:0.110663 10:0.0915069 11:0.240363 12:-0.514138 13:-0.0692775 14:-0.550308 15:0.260705 16:0.219535 17:0.599941 18:0.313748 
0 0 0.02826863117306838 0 0 0 0 1:-0.207641 2:-0.565897 3:-0.491915 4:-0.418634 5:-0.0266194 6:-0.16579 7:-0.0329516 8:0.28925 9:-0.021433 10:0.305523 11:-0.12764 12:-0.15575 13:0.0946516 14:-0.481706 15:0.11483 16:0.162548 17:0.587218 18:0.287444 
0 0 0.04412702942012369 0 0 0 0 1:-0.176942 2:-0.629023 3:-0.467833 4:-0.480852 5:0.229542 6:-0.0710143 7:-0.030958 8:0.389308 9:0.0846539 10:0.412866 11:-0.0437507 12:-0.247692 13:-0.0637541 14:-0.269741 15:0.0393696 16:0.24768 17:0.530281 18:0.275791 
0 0 0.6785499152463577 0 0 0 0 1:-0.268221 2:-0.524675 3:-0.360755 4:-0.380473 5:0.15189 6:-0.189647 7:-0.131865 8:0.431784 9:-0.0410805 10:0.362674 11:-0.0226624 12:-0.209494 13:0.0864288 14:-0.599813 15:0.202715 16:0.176236 17:0.556935 18:0.289286 
0 0 0 0.0656251945936783 0 0 0 1:-0.240949 2:-0.606905 3:-0.318556 4:-0.300284 5:0.148527 6:-0.242751 7:-0.122681 8:0.512488 9:0.121727 10:0.385582 11:-0.0300975 12:-0.357864 13:-0.138503 14:-0.433099 15:0.0544848 16:0.333606 17:0.416841 18:0.218948 
0.8392782934529059 0 0 0 0 0 0 1:-0.189112 2:-0.578383 3:-0.490018 4:-0.393154 5:0.0130585 6:-0.148809 7:-0.0328511 8:0.420735 9:-0.117587 10:0.419709 11:-0.0391099 12:-0.150638 13:-0.00826628 14:-0.575304 15:0.234413 16:0.202105 17:0.601197 18:0.290259 
0 0 0.03472127641041742 0 0 0 0 1:-0.283847 2:-0.631471 3:-0.423457 4:-0.458341 5:0.210809 6:-0.253947 7:-0.0601322 8:0.483532 9:0.120381 10:0.421342 11:-0.0192142 12:-0.299266 13:0.00297065 14:-0.397253 15:0.0732918 16:0.323334 17:0.489439 18:0.222384 
0 0 0 0 0 8 0 1:-0.376477 2:-0.00641799 3:0.124571 4:-0.274029 5:0.171008 6:-0.0569561 7:-0.0368304 8:0.294315 9:0.347561 10:0.208086 11:-0.0491682 12:-0.180244 13:0.0194733 14:-0.284202 15:0.0134102 16:0.111957 17:0.569197 18:0.231215 
0.6654368548483113 0.08558135685114977 0.4849139263631583 0.5624299828977741 0.8005737211471862 0.7631482786428955 0 1:-0.425031 2:-0.94124 3:-0.51862 4:0.0377573 5:0.183517 6:0.234333 7:0.558458 8:0.0475568 9:0.778207 10:0.453996 11:-0.209348 12:-0.8775 13:0.539942 14:0.454463 15:-0.746327 16:1 17:0.755473 18:-0.6278 
0 8 0 0 0 3.809005050466579 8 1:-0.375991 2:-0.044894 3:0.0649619 4:-0.382095 5:0.248828 6:-0.0643797 7:0.00293451 8:0.31783 9:0.29061 10:0.227263 11:-0.0297825 12:-0.147334 13:-0.0342074 14:-0.239256 15:0.0343131 16:0.0882177 17:0.588372 18:0.303313 
0.9409958961835175 0.3730814530251624 0.5165479229000242 1.0404153800377 0.757721497519445 0.6900808783096939 0 1:-0.448828 2:-0.285787 3:0.031716 4:-0.0850672 5:0.357542 6:-0.124842 7:-0.0472406 8:0.5468 9:0.391666 10:-0.0632075 11:-0.222159 12:-0.537785 13:-0.74719 14:-0.922126 15:-0.24314 16:0.445141 17:0.616168 18:0.208616 
0 0 0 0 0 0 1.435738049093149 1:-0.324562 2:-0.364366 3:0.0353759 4:-0.151845 5:0.283792 6:0.115056 7:0.203314 8:0.0445992 9:0.255371 10:0.0686755 11:0.10421 12:-0.329388 13:0.0188682 14:-0.416583 15:0.0650339 16:-0.0148767 17:0.63068 18:0.302452 
0 0.9347402870216516 0 0 0 5.045467244628165 7.996330753715411 1:-0.345759 2:-0.35484 3:0.00485968 4:-0.0755051 5:0.168312 6:0.053969 7:0.164185 8:0.0659208 9:0.221251 10:0.180276 11:0.161252 12:-0.47884 13:-0.0397846 14:-0.308651 15:0.0323015 16:0.00484417 17:0.637692 18:0.323905 
0 1.742327416939963 0 0 0 0 0 1:-0.369621 2:-0.302592 3:0.0241876 4:-0.122795 5:0.1762 6:0.000763011 7:0.11095 8:0.110349 9:0.215337 10:0.149967 11:0.109122 12:-0.377986 13:-0.168935 14:-0.219229 15:0.0802365 16:-0.00938169 17:0.632834 18:0.419919 
0 4.184536799287907 0 1.063258887984861 0 0.5199880132576903 3.139144598333231 1:-0.216994 2:-0.2584 3:0.100427 4:-0.24461 5:0.356568 6:0.0990225 7:0.0926181 8:0.0590016 9:0.275234 10:0.0582615 11:0.180657 12:-0.363618 13:0.0916834 14:-0.328511 15:0.189179 16:-0.0203336 17:0.622821 18:0.322068 
0.9602600336516869 6.926765887255719 0 0.7086712314892544 0 2.443148562702766 3.847928846315461 1:-0.242937 2:-0.278485 3:0.12016 4:0.010023 5:0.0831492 6:-0.00197692 7:0.0994853 8:0.145846 9:0.221198 10:0.126527 11:0.168459 12:-0.391401 13:0.100359 14:-0.385029 15:0.282565 16:-0.0372388 17:0.644934 18:0.334435 
0.4347379119776253 0 0.03814277772914742 0.5155755032855168 0.3033332143141166 0.5879731345806156 0 1:-0.0192219 2:-0.129716 3:-0.091748 4:-0.288554 5:0.139294 6:-0.0402717 7:-0.66291 8:-0.15489 9:0.415186 10:0.199233 11:0.0302592 12:-0.456592 13:0.0607519 14:-0.372978 15:-0.535108 16:0.153209 17:0.644187 18:0.458968 
0.4619878088776977 0 0 0.2381187478355689 0.04552536835756413 1.076717933874566 0 1:-0.0139573 2:-0.235709 3:-0.0185637 4:-0.102965 5:0.0890655 6:0.0348678 7:-0.702239 8:-0.158376 9:0.197106 10:0.107409 11:-0.0511507 12:-0.324469 13:-0.107942 14:-0.503214 15:-0.207132 16:0.127809 17:0.585192 18:0.520927 
0 0 0 0.09287140378854586 0.1333014729727539 0 0 1:-0.0232255 2:-0.176599 3:0.0106837 4:-0.160748 5:0.092666 6:-0.08394 7:-0.753417 8:-0.15274 9:0.158056 10:-0.00112446 11:0.0350278 12:-0.364135 13:-0.0872684 14:-0.498615 15:-0.111781 16:0.104513 17:0.614106 18:0.593338 
0 0.5101718640548962 0 0 0 0 0 1:-0.364107 2:-0.0347294 3:0.157916 4:-0.0611101 5:0.222208 6:0.0653519 7:0.31943 8:0.234861 9:0.357102 10:0.490036 11:-0.117742 12:-0.249445 13:0.13771 14:-0.2015 15:0.362621 16:-0.0829719 17:0.685386 18:0.351491 
0 0 0 0 0 4.250754797198192 0 1:-0.335701 2:0.051165 3:0.276537 4:-0.231479 5:0.32938 6:-0.212562 7:-0.046907 8:0.34402 9:0.450677 10:0.491789 11:0.0674001 12:-0.0426721 13:0.139285 14:-0.225886 15:0.111218 16:0.0623961 17:0.634804 18:0.305147 
1.593449928535809 0 0 0.4978638559011203 0 1.109016491931716 0 1:-0.29067 2:0.0702186 3:0.241144 4:-0.0844918 5:0.115614 6:-0.192989 7:-0.0526261 8:0.303258 9:0.451922 10:0.578492 11:0.0628172 12:0.0282046 13:0.127446 14:-0.171048 15:0.16541 16:0.00301549 17:0.655264 18:0.208672 
0.9997619656524197 6.35027590566707 0 0 0 8 8 1:-0.216149 2:-0.226352 3:-0.0338797 4:-0.0726558 5:0.244414 6:-0.12674 7:0.00589216 8:0.268023 9:0.127461 10:0.631134 11:0.106673 12:-0.342939 13:-0.0730496 14:-0.362485 15:-0.0768869 16:0.0680372 17:0.623111 18:0.410153 
0 3.061687845553652 0 0 0 5.336880688700099 2.351031020302637 1:-0.256529 2:-0.150686 3:-0.0448639 4:-0.204684 5:0.288204 6:-0.196492 7:0.0118497 8:0.199469 9:0.145299 10:0.554747 11:0.0973369 12:-0.315101 13:-0.407177 14:-0.237657 15:-0.176225 16:0.106237 17:0.638486 18:0.37667 
0 0.05203882936392161 0 6.987846045528771 0 8 8 1:-0.15697 2:-0.116776 3:0.020938 4:-0.0448046 5:0.125207 6:-0.159721 7:0.0373091 8:0.296129 9:0.126188 10:0.641095 11:0.0393024 12:-0.238197 13:-0.00660575 14:-0.497154 15:-0.00606633 16:0.0775834 17:0.597419 18:0.46999 
0 8 1.692234717480889 8 0 8 8 1:-0.165248 2:-0.151551 3:0.0228861 4:-0.136091 5:0.310108 6:-0.14033 7:-0.0766791 8:0.311944 9:0.186129 10:0.583926 11:0.0840006 12:-0.30894 13:-0.082387 14:-0.320437 15:-0.134895 16:0.0203097 17:0.621494 18:0.43318 
0 0 0 0 0.06930576676551539 1.713027645888496 0.05469498504808193 1:-0.255499 2:-0.268867 3:0.117674 4:-0.290333 5:0.352271 6:-0.250196 7:-0.252858 8:0.226494 9:0.225641 10:0.393494 11:0.218807 12:-0.114896 13:0.035004 14:0.237798 15:0.506948 16:-0.0589544 17:0.513054 18:0.433925 
0.2116070209844413 0.3135563627682501 0 0 0.01737016916921711 0.2985799528184811 0 1:-0.267934 2:-0.254378 3:0.174352 4:-0.0234799 5:0.120097 6:-0.182849 7:-0.0285805 8:0.269391 9:0.105949 10:0.519335 11:0.210879 12:-0.101437 13:-0.0497564 14:0.303219 15:0.599692 16:-0.0359038 17:0.548327 18:0.427723 
0.05688244004709683 0 0 0 0 3.342381152076114 0 1:-0.487213 2:-0.0762844 3:0.166031 4:-0.270458 5:0.415036 6:-0.0701817 7:-0.00903967 8:0.135008 9:0.2643 10:0.409117 11:0.329795 12:-0.119425 13:0.179628 14:0.137276 15:0.236862 16:-0.184472 17:0.605955 18:0.229552 
0 0 0 0.5301862386903348 0 0.1414452123723952 0 1:-0.403616 2:-0.202547 3:0.233749 4:0.129922 5:0.196689 6:-0.012544 7:0.000266581 8:0.175111 9:0.271937 10:0.462382 11:0.347449 12:-0.28321 13:-0.429878 14:0.0375938 15:0.451679 16:-0.0547623 17:0.612936 18:0.263006 
0.2906704457412277 0.2346193413238638 0 0.4505780354768725 0.726639820966929 0.1244605573785477 0 1:0.29885 2:-0.435691 3:-0.268371 4:-0.650459 5:0.305468 6:0.191552 7:0.0886936 8:0.503388 9:-0.00852216 10:0.0967104 11:0.159549 12:-0.383746 13:0.132607 14:-0.30238 15:0.390198 16:0.0170335 17:0.569255 18:0.284387 
0.5439502612799699 0.4118549073598721 0 1.900460644941259 0.2287911994912081 0.7875979687423904 0 1:0.0217588 2:-0.346224 3:-0.313579 4:-0.699633 5:0.235376 6:-0.0348924 7:0.175766 8:0.449809 9:0.186879 10:0.322188 11:0.155279 12:-0.444401 13:0.178118 14:-0.47495 15:0.224375 16:0.179138 17:0.571335 18:0.272955 
0 0.01087183976545913 0 2.530455779730827 0 0 1.141718168957025 1:-0.0217044 2:-0.346338 3:-0.161722 4:-0.593706 5:0.199328 6:-0.171911 7:0.172604 8:0.503725 9:0.18801 10:0.269442 11:0.143367 12:-0.454091 13:-0.404395 14:-0.443235 15:0.227315 16:0.185789 17:0.579312 18:0.405391 
0 0 0 2.340317075300587 1.952971979327052 2.485382538637001 0 1:0.0620642 2:-0.355967 3:-0.198794 4:-0.660053 5:0.220787 6:-0.11284 7:0.120238 8:0.562158 9:0.0614838 10:0.096223 11:0.195599 12:-0.494926 13:0.214804 14:-0.341543 15:0.155034 16:0.0188423 17:0.575395 18:0.316394 
0 0 0 1.349020357605472 0.762693855620507 0.8631089810216783 0 1:0.152533 2:-0.408118 3:-0.238277 4:-0.653315 5:0.197123 6:-0.0372744 7:0.20765 8:0.510868 9:0.0490489 10:0.187523 11:0.115968 12:-0.386504 13:-0.361107 14:-0.238335 15:0.246487 16:0.0707635 17:0.583747 18:0.39265 
0 0 0 0 0 1.730437034304553 1.910386379339623 1:-0.362767 2:-0.234725 3:0.0016568 4:-0.155163 5:0.0656658 6:-0.0499251 7:0.512115 8:0.151448 9:0.231744 10:0.479249 11:-0.0196815 12:0.0635362 13:0.17863 14:-0.507375 15:-0.0165412 16:0.143438 17:0.644645 18:0.521042 
0 0 0 0 0 0 0.9848367028303278 1:-0.318692 2:-0.234761 3:0.0025423 4:-0.282808 5:0.355073 6:0.0838619 7:0.428976 8:0.168308 9:0.202013 10:0.477264 11:0.0262977 12:-0.0154257 13:-0.30127 14:-0.287173 15:-0.0735402 16:0.0780316 17:0.669565 18:0.466202 
0 0 0 0 0 0.5080987172000899 4.957870446261353 1:-0.387705 2:-0.271567 3:0.058416 4:-0.0770581 5:0.110958 6:0.0533353 7:0.498236 8:0.139104 9:0.254737 10:0.395694 11:0.0109142 12:-0.135508 13:-0.0420364 14:-0.618225 15:0.0605643 16:0.199411 17:0.652502 18:0.411093 
0 1.646315422510265 0 0 0 2.801573969542656 7.492564538301602 1:-0.281213 2:-0.274842 3:0.0418648 4:-0.182035 5:0.343075 6:0.209445 7:0.414877 8:0.227789 9:0.150662 10:0.425763 11:0.0460478 12:-0.116129 13:-0.293366 14:-0.34277 15:0.00537844 16:0.115597 17:0.653721 18:0.483727 
0 0 0.7678905746176486 0.684479266532099 0.3298150490185818 3.688112426029218 0 1:-0.384682 2:-0.263097 3:-0.124929 4:-0.269585 5:-0.00864239 6:0.128602 7:0.75833 8:0.0709107 9:0.0859229 10:0.299068 11:0.0958343 12:0.0068001 13:-0.0138054 14:-0.640294 15:-0.119713 16:0.142469 17:0.683404 18:0.370401 
0 0.3577381314685724 0.1361463029145065 0.3013390740370213 0 1.770105099561436 0 1:-0.323107 2:-0.271384 3:-0.0541367 4:-0.422544 5:0.414847 6:0.218677 7:0.568122 8:0.122464 9:0.121827 10:0.369908 11:0.0771433 12:-0.0397645 13:-0.396534 14:-0.351946 15:-0.145273 16:0.172551 17:0.687479 18:0.458481 
0 0 0 0 0 3.32373864529377 0 1:-0.318135 2:-0.265045 3:-0.0778198 4:-0.36833 5:0.220313 6:0.133781 7:0.115507 8:-0.00192501 9:0.27264 10:0.124874 11:0.00666832 12:-0.118615 13:-0.0871443 14:-0.35432 15:-0.174966 16:-0.0433613 17:0.406317 18:0.26724 
0 0 0 0 0 1.70266916022805 0 1:-0.326438 2:-0.319853 3:-0.0802173 4:-0.363933 5:0.160466 6:0.0242245 7:0.163161 8:0.0636092 9:0.315299 10:0.15756 11:-0.0458385 12:-0.157853 13:-0.1769 14:-0.10074 15:-0.268964 16:-0.0284183 17:0.395455 18:0.313006 
0 5.916973099029082 0 0 0 3.026880367755548 0 1:-0.363506 2:-0.157496 3:-0.0768596 4:-0.380442 5:0.190763 6:0.143543 7:0.0695956 8:0.0922578 9:0.350896 10:0.113638 11:0.0381148 12:-0.201672 13:-0.0828251 14:-0.363895 15:-0.166707 16:0.0101985 17:0.48314 18:0.316361 
0 0 0 0 0 0 0.4288978635533144 1:-0.371932 2:-0.219167 3:-0.144125 4:-0.44813 5:0.189203 6:0.103149 7:0.144477 8:0.0808739 9:0.411524 10:0.148701 11:-0.047637 12:-0.213092 13:-0.361628 14:-0.238682 15:-0.18579 16:0.0521773 17:0.556007 18:0.397666 
0 0 0.1893383166799621 2.98086623643033 0.4151871471959139 1.79989292506193 0 1:0.140321 2:-0.158421 3:-0.302062 4:-0.608112 5:0.185211 6:-0.0290759 7:-0.278092 8:0.410852 9:0.38676 10:0.257488 11:0.148949 12:-0.267914 13:-0.0396145 14:-0.238133 15:-0.115849 16:0.131551 17:0.64724 18:0.523994 
0 0 0.7229962519548587 0.9239045478882981 0 0 0 1:0.118391 2:-0.123533 3:-0.418341 4:-0.539164 5:-0.0142125 6:-0.0616997 7:-0.320434 8:0.302145 9:0.413221 10:0.381494 11:0.16055 12:-0.203113 13:0.0784817 14:-0.271306 15:-0.00584249 16:0.149805 17:0.623164 18:0.386816 
0 2.84715485198342 0 0 0 0 1.273551404433794 1:-0.103858 2:-0.0711716 3:-0.228837 4:-0.660951 5:0.132018 6:-0.118916 7:0.0576244 8:0.363251 9:0.122315 10:0.276661 11:0.13522 12:-0.135365 13:0.0418667 14:-0.204885 15:0.166941 16:0.228485 17:0.628708 18:0.577891 
0 2.680661746703894 0 0 0.3061239255130733 2.880477511509715 3.06390173404695 1:-0.100775 2:-0.285563 3:-0.247689 4:-0.530838 5:0.100515 6:-0.12966 7:0.0140956 8:0.341953 9:0.316702 10:0.232165 11:0.0620221 12:-0.363469 13:-0.518281 14:-0.19068 15:-0.00441115 16:0.238397 17:0.670867 18:0.356809 
0 1.404988305998948 0 0 0 2.00985702405862 8 1:-0.293211 2:0.00278785 3:0.214543 4:-0.135045 5:0.231772 6:0.00363125 7:0.115035 8:0.283472 9:0.257657 10:0.498313 11:-0.0381963 12:-0.312848 13:0.179411 14:-0.300668 15:0.00573955 16:0.00374359 17:0.600278 18:0.438412 
0 8 0 0 0 0 8 1:-0.287144 2:-0.00707562 3:0.192161 4:-0.123779 5:0.231389 6:0.0241329 7:0.155728 8:0.337453 9:0.257108 10:0.504051 11:-0.0314655 12:-0.369214 13:0.0251218 14:-0.227627 15:-0.0357855 16:0.0658999 17:0.600795 18:0.410997 
0 0 0 0 0 0 2.942724217701053 1:-0.367302 2:0.0138487 3:0.14153 4:-0.273768 5:0.185556 6:-0.0464519 7:0.249167 8:0.221706 9:0.301165 10:0.610667 11:-0.062331 12:-0.105646 13:0.276144 14:-0.360993 15:-0.0122396 16:0.162305 17:0.595996 18:0.384207 
0 0 0 0 0 0.2804801318071282 0.3595470803543832 1:-0.0377665 2:-0.200046 3:-0.201922 4:-0.41439 5:0.138785 6:-0.119405 7:-0.0446079 8:-0.0777863 9:0.270042 10:0.38013 11:0.0626337 12:-0.599438 13:0.139083 14:-0.425606 15:0.252262 16:0.140589 17:0.600679 18:0.356683 
0 0 0 1.711289661958945 0.2793520581731978 0 0 1:0.0632593 2:-0.313337 3:-0.169293 4:-0.264251 5:0.196566 6:-0.119025 7:-0.198665 8:-0.0109812 9:0.309217 10:0.277674 11:0.0399693 12:-0.578596 13:0.0173913 14:-0.490761 15:0.317019 16:0.0834576 17:0.58886 18:0.359553 
0 0.1490626394397525 0 0 0 2.611720100323118 0 1:-0.0650185 2:-0.199678 3:-0.225119 4:-0.315193 5:0.0803502 6:-0.109267 7:-0.087724 8:-0.0366983 9:0.223442 10:0.309197 11:0.116817 12:-0.69917 13:0.0410788 14:-0.345665 15:0.211932 16:0.0995905 17:0.599352 18:0.29161 
0 0 0 0 0 4.480385220680643 0.3909009022174891 1:-0.431961 2:-0.418592 3:-0.00870908 4:-0.0302917 5:0.279118 6:-0.0781076 7:0.15298 8:0.4124 9:-0.139687 10:0.607145 11:0.0513615 12:-0.15455 13:-0.0774673 14:-0.329214 15:0.0960104 16:0.220589 17:0.313125 18:0.243823 
0 0.7762438329559365 0 0 0 0 0 1:-0.465622 2:-0.310197 3:-0.0516425 4:-0.0650988 5:0.278588 6:-0.128678 7:0.0650748 8:0.414127 9:-0.111019 10:0.727636 11:0.097765 12:-0.251958 13:-0.00170203 14:-0.295241 15:0.201876 16:0.310455 17:0.507744 18:0.339062 
0 0 0.2948907910010939 0 0 1.576266270329834 1.153625436607 1:-0.478297 2:-0.261261 3:-0.0584214 4:-0.109278 5:0.167784 6:-0.19761 7:0.0526602 8:0.468168 9:-0.0588101 10:0.648731 11:0.100976 12:-0.209775 13:-0.00878307 14:-0.366753 15:0.129975 16:0.16089 17:0.479567 18:0.242624 
0 1.108484800657723 0.5705377710055228 0 0 0.7526423564629987 0 1:-0.445023 2:-0.24954 3:-0.0871131 4:-0.198018 5:0.254736 6:-0.106309 7:0.0670345 8:0.47521 9:-0.140536 10:0.722873 11:0.126426 12:-0.230313 13:0.0136163 14:-0.3946 15:0.180858 16:0.233066 17:0.487447 18:0.297396 
0.2170515950187689 0 0 0 0 2.542033602539938 0 1:-0.145201 2:-0.101617 3:-0.266157 4:-0.518904 5:0.203721 6:0.00112464 7:-0.196122 8:0.13698 9:0.0542007 10:0.321492 11:0.0763601 12:-0.750262 13:-0.278814 14:-0.262997 15:-0.342141 16:0.0461769 17:0.641414 18:0.336244 
0 0 0 0 0 0.5680159717782776 0 1:-0.120575 2:-0.118791 3:-0.197212 4:-0.406962 5:0.141502 6:-0.0612256 7:-0.17805 8:0.184235 9:0.11262 10:0.383959 11:0.0254479 12:-0.731171 13:-0.226823 14:-0.429861 15:-0.408172 16:0.0668493 17:0.627896 18:0.442392 
0 0 0 0 0 0.1070667300176591 0 1:-0.0512679 2:-0.199891 3:-0.234153 4:-0.44297 5:0.164318 6:0.00522921 7:-0.268585 8:0.103361 9:-0.0298071 10:0.348144 11:-0.0110199 12:-0.515469 13:-0.230346 14:-0.245448 15:-0.165499 16:0.0641877 17:0.585398 18:0.398819 
0 0 0 0 0 0.2260870758368105 0 1:-0.105251 2:-0.186182 3:-0.136258 4:-0.35809 5:0.107178 6:-0.128306 7:-0.321016 8:0.163034 9:0.0994703 10:0.400898 11:-0.0247187 12:-0.524896 13:-0.0564507 14:-0.443325 15:-0.157186 16:0.164583 17:0.572228 18:0.479973 
0 1.547765390836302 0 0 0 0 0.8301840363406479 1:-0.222598 2:0.234138 3:0.148616 4:-0.388512 5:0.250784 6:0.203911 7:0.526096 8:0.355322 9:0.339587 10:0.43169 11:0.0332744 12:-0.326848 13:0.0750654 14:-0.291625 15:0.0729175 16:0.176058 17:0.542569 18:0.293381 
0 5.930076537906414 0 0.8880493771008429 0 0 7.415736171569108 1:-0.233439 2:0.2402 3:0.15134 4:-0.339512 5:0.164178 6:0.174451 7:0.496698 8:0.363644 9:0.357785 10:0.430127 11:0.0207302 12:-0.311211 13:0.143121 14:-0.320499 15:0.0468187 16:0.239838 17:0.562673 18:0.290135 
