svm_type c_svc
kernel_type rbf
gamma 2
nr_class 7
total_sv 1643
rho -0.0978835 -0.342689 -0.0996593 -0.384532 -0.85666 -0.300477 -0.266979 0.0952003 -0.13856 -0.595555 -0.303531 0.318392 -0.16269 -0.940814 -0.0235304 -0.287279 -1.08286 -0.299171 -0.173039 0.0419769 0.308407
label 1 3 2 5 4 7 6
probA -5.94579 -4.67991 -4.39975 -5.75312 -4.57663 -6.13565 -6.02248 -5.48751 -5.66236 -5.20012 -4.92276 -3.95674 -5.68253 -2.74366 -5.65397 -5.63396 -4.06125 -6.48132 -5.3646 -5.52026 -5.0555
probB 0.222204 -0.0229683 0.161773 0.565335 -0.273415 0.230076 0.337419 -0.140813 0.130743 -0.394389 0.234378 -0.0638951 0.532496 -0.0426896 -0.0479181 0.243535 -0.524904 0.630999 -0.0892314 -0.365692 -0.0818098
nr_sv 274 226 301 301 123 301 117
SV
0.7868743685060562 2.554027714382766 2.021265988247217 0.03872126758077556 0.648048347294316 0.4615857317833558 1:-0.603372 2:-0.64436 3:0.213399 4:0.521048 5:0.566946 6:-0.316178 7:-0.226377 8:-0.0742693 9:0.373425 10:-0.101402 11:-0.00469293 12:0.346258 13:-0.0926694 14:-0.0971706 15:0.239094 16:-0.157569 17:-0.390819 18:-0.283486 
0.04671429460434377 1.102739991404499 0 0.2224807260659878 0.0610608228995865 0.1564251941346713 1:-0.766467 2:-0.513946 3:0.353245 4:0.48879 5:0.171477 6:-0.309032 7:-0.518062 8:-0.177504 9:0.215479 10:-0.118342 11:0.0208678 12:0.23318 13:0.165743 14:-0.173656 15:0.0452479 16:-0.134619 17:-0.300407 18:-0.0847452 
0.8634656667865951 0 0.8940260931718723 0.2046101975702065 0 0.005300753062164682 1:-0.75465 2:-0.329837 3:0.46289 4:0.431091 5:0.586776 6:-0.44861 7:-0.29159 8:-0.148686 9:0.182398 10:0.180362 11:-0.0246435 12:0.284978 13:0.0437019 14:-0.0278881 15:0.243931 16:-0.0709272 17:-0.421546 18:-0.406778 
0 0 0 0.07262586114839364 0 0 1:-0.83193 2:-0.418096 3:0.438559 4:0.541931 5:0.55457 6:-0.429431 7:-0.202498 8:0.0555369 9:0.34624 10:-0.0776054 11:-0.0693616 12:0.160976 13:0.189476 14:-0.313848 15:0.0969221 16:-0.0633148 17:-0.416015 18:-0.250241 
2.151069916690969 1.275991906222885 5.057841111351015 0 3.49449121709666 0.4530739785412053 1:-0.355845 2:0.0537704 3:0.608806 4:0.249071 5:0.218868 6:-0.104251 7:-0.363029 8:-0.22084 9:0.0882739 10:0.288409 11:-0.198405 12:0.11286 13:-0.089874 14:0.391572 15:0.0454891 16:-0.305478 17:-0.493758 18:-0.293085 
0.5503084380921512 8.957248917214269 3.088252147110206 0.5213923254649145 8.117429027657272 0 1:-0.337958 2:0.0676971 3:0.50199 4:0.179685 5:0.559429 6:-0.160376 7:-0.352639 8:-0.210904 9:-0.0079034 10:0.185004 11:-0.196211 12:0.0632976 13:-0.111964 14:0.283515 15:0.0144264 16:-0.231587 17:-0.512568 18:-0.414109 
0 0.848650668254835 0 1.235625954058378 0 0 1:-0.506658 2:-0.144637 3:0.356703 4:0.152613 5:0.462041 6:-0.211192 7:-0.678099 8:-0.134095 9:-0.188505 10:0.0966381 11:-0.300184 12:-0.00808134 13:-0.288204 14:0.343272 15:-0.0237 16:-0.164083 17:-0.582908 18:-0.309693 
0 2.175136308621275 1.635199405610272 0 6.784426197182687 0 1:-0.500544 2:-0.159168 3:0.364962 4:0.174006 5:0.561924 6:-0.24389 7:-0.680539 8:-0.10313 9:-0.107425 10:-0.0450457 11:-0.326243 12:0.0537615 13:-0.0148288 14:0.259056 15:-0.0449418 16:-0.180836 17:-0.538805 18:-0.4849 
0 0.8548109245368478 1.03763959556556 0.5494997703073773 0.6575138856899895 0 1:-0.43655 2:-0.347646 3:0.354416 4:0.575109 5:0.433596 6:0.195657 7:-0.213318 8:0.0709084 9:0.096414 10:-0.185144 11:-0.263439 12:0.169251 13:-0.700747 14:0.0534357 15:-0.0219251 16:-0.0896687 17:-0.524589 18:-0.50767 
0 0.9232952234025259 1.158987942992609 0.1487882950882927 0 0 1:-0.408953 2:-0.33078 3:0.340544 4:0.584422 5:0.233088 6:0.302836 7:-0.289086 8:0.0751151 9:0.0798772 10:-0.156611 11:-0.397698 12:0.518787 13:0.0639255 14:0.321741 15:-0.047695 16:-0.198316 17:-0.515414 18:-0.142112 
0 2.099612160510786 0 0 0 0 1:-0.53275 2:-0.285137 3:0.351436 4:0.533173 5:0.406145 6:-0.0137895 7:-0.159013 8:0.0554453 9:0.0713691 10:-0.312946 11:-0.356048 12:0.197525 13:-0.436502 14:0.0559256 15:-0.042446 16:-0.0552815 17:-0.57519 18:-0.309613 
0 5.896011058695946 1.263638058168164 0 0 0 1:-0.428006 2:-0.344752 3:0.318453 4:0.538502 5:0.516924 6:0.116928 7:-0.203483 8:0.0526397 9:0.148243 10:-0.395989 11:-0.277406 12:0.202836 13:-0.50142 14:0.116507 15:-0.0667221 16:-0.0765208 17:-0.52525 18:-0.558423 
0.4755489363719217 0 0 0.2469202728011181 0 0.2660592698560497 1:-0.263629 2:-0.48507 3:-0.0617585 4:0.266154 5:0.220341 6:-0.38593 7:-0.0349531 8:0.213432 9:0.155269 10:0.570667 11:-0.451659 12:0.519878 13:-0.243018 14:0.201733 15:0.0252618 16:-0.227232 17:-0.558552 18:-0.273025 
0 0 0.4419175438594387 0 0 0 1:-0.250715 2:-0.468295 3:-0.0712447 4:0.265374 5:0.51642 6:-0.598784 7:-0.0014199 8:0.139506 9:0.153889 10:0.305642 11:-0.394222 12:0.316468 13:-0.360668 14:0.180429 15:-0.071005 16:-0.19169 17:-0.507194 18:-0.438246 
0 0 0.4753853183721277 0 0 0 1:-0.27339 2:-0.389733 3:-0.0563644 4:0.290163 5:0.42452 6:-0.54266 7:0.0873742 8:0.156845 9:0.136481 10:0.193522 11:-0.475683 12:0.324462 13:-0.035711 14:0.139554 15:0.078936 16:-0.14183 17:-0.572157 18:-0.446756 
0 0 0.8803598402697596 0 0 0 1:-0.236853 2:-0.435263 3:-0.164195 4:0.255701 5:0.477673 6:-0.449006 7:0.0123043 8:0.11153 9:0.14959 10:-0.0487999 11:-0.510787 12:0.275338 13:-0.0220379 14:0.0832533 15:-0.0194456 16:-0.172396 17:-0.564029 18:-0.247054 
0.0392687638020137 1.162021057914423 0.1233683746716667 0.04150217665394011 0.1069320703716206 0 1:-0.500738 2:-0.201053 3:0.179939 4:0.221557 5:0.258453 6:-0.513544 7:-0.0538003 8:-0.157262 9:0.560668 10:-0.388204 11:-0.263692 12:0.25634 13:-0.334132 14:-0.0734878 15:-0.0567208 16:-0.145425 17:-0.262469 18:-0.67135 
0 0.791092076605419 1.98325429235991 0.2897010892450476 0 0 1:-0.378743 2:-0.229351 3:0.0346788 4:0.10743 5:0.645984 6:-0.181739 7:-0.0992073 8:-0.109378 9:0.300716 10:-0.347624 11:-0.142404 12:0.377484 13:-0.348936 14:-0.199819 15:-0.107073 16:0.0179553 17:-0.325707 18:-0.201313 
0 0.1648903751368125 0.2007892765736551 0.09090559717308905 0.2683357590543887 0 1:-0.385068 2:-0.236726 3:-0.0452372 4:0.0432432 5:0.221218 6:-0.223929 7:-0.270616 8:-0.148882 9:0.392448 10:-0.327371 11:-0.253463 12:0.412143 13:-0.186515 14:-0.154993 15:-0.145595 16:0.00395788 17:-0.366211 18:-0.32442 
0 0 0 0 0 0.06658304087015432 1:-0.480018 2:-0.255907 3:0.0450629 4:0.13612 5:0.56173 6:-0.467937 7:-0.101147 8:-0.101562 9:0.375802 10:-0.491389 11:-0.179563 12:0.441065 13:-0.117461 14:-0.246404 15:-0.0603826 16:-0.0171756 17:-0.463454 18:-0.325973 
0 0 0 0 0.03787040377598597 0 1:-0.466071 2:-0.238678 3:0.0596205 4:0.157684 5:0.176772 6:-0.378836 7:-0.152936 8:-0.122723 9:0.387838 10:-0.465498 11:-0.307804 12:0.511423 13:0.0248253 14:0.0376185 15:-0.123213 16:-0.108208 17:-0.353543 18:-0.474314 
0 0 0 0.06925900850228159 0 0 1:-0.398247 2:-0.278366 3:-0.0903786 4:0.00593984 5:0.375481 6:-0.516083 7:-0.356128 8:-0.467916 9:0.128654 10:-0.0546248 11:-0.202813 12:0.19035 13:-0.299975 14:0.333137 15:0.149188 16:-0.276514 17:-0.504189 18:-0.374014 
0 0 0 0.147939128477928 0 0 1:-0.34754 2:-0.342768 3:-0.0537293 4:0.0883942 5:0.403031 6:-0.467891 7:-0.380276 8:-0.585862 9:0.0663449 10:0.0231626 11:-0.269736 12:0.305828 13:-0.136468 14:0.431382 15:0.107454 16:-0.288325 17:-0.483516 18:-0.367173 
0 0 0 0 0 0.07722616310649198 1:-0.374262 2:-0.35615 3:-0.0355472 4:0.103244 5:0.476177 6:-0.574718 7:-0.369357 8:-0.298528 9:0.126553 10:-0.0750563 11:-0.277363 12:0.265691 13:-0.0203009 14:0.305931 15:0.0152612 16:-0.307247 17:-0.519127 18:-0.282233 
1.627925548277898 1.63464141462144 3.742569637736144 0 2.977346244451501 0 1:-0.357651 2:-0.372112 3:0.0740405 4:0.198854 5:0.32325 6:-0.453241 7:-0.268411 8:-0.166649 9:0.174112 10:-0.0804001 11:-0.200188 12:0.101494 13:-0.414247 14:0.438358 15:0.144745 16:-0.263723 17:-0.455362 18:-0.289015 
0 0.4913186373378685 0 0 0 0.134470810409871 1:-0.213818 2:-0.460943 3:0.153652 4:0.359392 5:0.663429 6:-0.0240647 7:-0.0437123 8:-0.210678 9:0.145565 10:-0.29383 11:-0.23125 12:-0.162237 13:0.0107244 14:0.482054 15:0.523298 16:0.13168 17:-0.578788 18:-0.0636712 
0 0.01650671958135239 0 0.1268551414016632 0 0.4183770721126707 1:-0.227728 2:-0.493261 3:0.0292515 4:0.258793 5:0.409323 6:0.00829255 7:-0.219422 8:-0.305793 9:0.133509 10:-0.0460307 11:-0.425157 12:0.158245 13:0.464329 14:0.242782 15:0.582077 16:0.0281465 17:-0.679089 18:-0.124369 
0.1423296375514439 0.4016827033826198 3.980364928668433 0 0 0 1:-0.281386 2:-0.358099 3:0.274441 4:0.32688 5:0.618807 6:-0.0817293 7:-0.113179 8:-0.207349 9:0.100967 10:-0.0564918 11:-0.209484 12:-0.114067 13:-0.124574 14:0.474529 15:0.542908 16:0.127568 17:-0.503721 18:-0.127189 
1.302044287032943 0 1.937542139182867 0.1027222275543379 0 0.02668325580527553 1:-0.233053 2:-0.349853 3:0.206784 4:0.270751 5:0.358166 6:0.00932803 7:-0.283308 8:-0.356087 9:0.075222 10:-0.0878934 11:-0.474754 12:0.0360844 13:0.244202 14:0.448351 15:0.537387 16:0.0440367 17:-0.664951 18:-0.30703 
0.9944201615897055 0.5365968796177694 0 0.073579264540493 0 0.3604640830957244 1:-0.161237 2:-0.422054 3:0.234354 4:0.329798 5:0.695457 6:0.0543029 7:-0.112623 8:-0.270938 9:0.0418466 10:-0.137237 11:-0.148678 12:-0.104882 13:-0.092681 14:0.54327 15:0.52709 16:0.0475477 17:-0.461283 18:-0.112423 
0.9212716797739799 2.186841940956759 1.328331576486646 0 1.248845341502507 0 1:-0.24839 2:-0.390852 3:0.140118 4:0.236673 5:0.410315 6:-0.0571066 7:-0.298137 8:-0.325126 9:0.1209 10:-0.0389792 11:-0.431177 12:0.147357 13:0.337251 14:0.312437 15:0.565646 16:0.00385846 17:-0.684381 18:-0.145407 
0 0 0 0.1330774124119835 0 0 1:-0.0689054 2:0.0749141 3:0.0632872 4:-0.048169 5:0.522072 6:-0.308169 7:-0.0235931 8:-0.265818 9:0.274672 10:0.089413 11:-0.312969 12:-0.00385318 13:-0.211745 14:0.275214 15:-0.148659 16:-0.191339 17:-0.446021 18:-0.489015 
0 0 0.5204515336053884 0.1140886972998494 0 0 1:-0.00950305 2:0.111616 3:-0.0940444 4:-0.129078 5:0.320181 6:-0.227745 7:0.0428296 8:-0.249296 9:0.278143 10:0.0832328 11:-0.451876 12:-0.0217215 13:0.0806621 14:0.122333 15:-0.239452 16:-0.121181 17:-0.489311 18:-0.39801 
0.5033417459046512 2.262827484681325 1.640994936959309 0.4628937831746049 1.312732104514661 0.2745513551358006 1:-0.0416416 2:0.0717014 3:0.157708 4:0.0694568 5:0.548424 6:-0.265306 7:0.083797 8:-0.160004 9:0.159025 10:0.0591098 11:-0.193795 12:-0.124442 13:-0.251126 14:0.379394 15:-0.0651624 16:-0.191397 17:-0.474247 18:-0.425134 
0 0.281420253155872 0.3779231519302449 0.2849097077529286 0 0.1086014919939316 1:-0.00715475 2:0.058009 3:0.0348084 4:0.0275799 5:0.243133 6:-0.189851 7:0.0867442 8:-0.160163 9:0.304125 10:-0.0205983 11:-0.261658 12:-0.157409 13:0.0870922 14:0.391238 15:-0.183836 16:-0.150032 17:-0.470283 18:-0.446661 
1.007834075635352 1.873733952091962 1.198647800441401 0.6516168535822531 1.050647407755856 0.6001388326109901 1:-0.0776438 2:0.199527 3:0.189509 4:-0.0817828 5:0.476694 6:-0.0331281 7:-0.329193 8:-0.148476 9:0.10625 10:0.332003 11:-0.372162 12:0.333462 13:-0.139108 14:0.573258 15:-0.0586218 16:-0.205045 17:-0.450183 18:-0.272743 
0 0 0.3170960709915286 0.005302901980081463 0 0.6740489420144821 1:-0.0283192 2:0.17578 3:0.044721 4:-0.118986 5:0.470407 6:-0.309476 7:-0.149603 8:-0.14732 9:0.229878 10:0.297233 11:-0.380936 12:0.206602 13:-0.145399 14:0.393502 15:-0.182918 16:-0.213843 17:-0.420277 18:-0.162215 
0 1.219473883683144 0 0 0 0 1:-0.311293 2:-0.68233 3:-0.297119 4:0.262844 5:0.468678 6:-0.20574 7:-0.117707 8:-0.158132 9:0.140002 10:-0.455671 11:-0.280944 12:0.252016 13:-0.135007 14:0.176023 15:0.0750216 16:-0.19908 17:-0.389634 18:-0.295429 
0.2249553054492557 0 0 0 0 0 1:-0.375397 2:-0.652296 3:-0.122322 4:0.375399 5:0.30499 6:-0.408222 7:-0.093598 8:-0.244132 9:0.222551 10:-0.256287 11:-0.299995 12:0.340924 13:-0.127303 14:0.363161 15:0.14952 16:-0.254726 17:-0.213432 18:-0.224382 
0 0 0 0.3626456154380153 0 0.1045625875642602 1:-0.322617 2:-0.619533 3:-0.366246 4:0.176735 5:0.210496 6:-0.261016 7:-0.148644 8:-0.249804 9:-0.00824917 10:-0.442469 11:-0.284231 12:0.164216 13:-0.241865 14:0.515128 15:-0.0878511 16:-0.213226 17:-0.460692 18:-0.27751 
0 0 0 0 0 0.05624599907085374 1:-0.421935 2:-0.684977 3:-0.250038 4:0.296383 5:0.421561 6:-0.472468 7:-0.149624 8:-0.205945 9:0.210644 10:-0.36511 11:-0.3068 12:0.250901 13:-0.233319 14:0.287204 15:0.105643 16:-0.258591 17:-0.31493 18:-0.219662 
0 0 5.972470898707063 0 0 0 1:-0.5106 2:-0.0813845 3:0.490227 4:0.299658 5:0.342389 6:-0.136405 7:-0.159563 8:-0.0593941 9:0.367566 10:-0.0745129 11:-0.0861302 12:0.095882 13:-0.0855345 14:0.174857 15:0.0689329 16:-0.137581 17:-0.437046 18:-0.353016 
0.9023220866781816 0.6576756247232102 0.9001385622536282 0.615269162943256 0.1432202708444813 0.6993891255588571 1:-0.611046 2:-0.973771 3:-0.311834 4:0.627087 5:0.319645 6:0.540505 7:-0.591118 8:0.344257 9:0.650371 10:-0.527987 11:-0.240143 12:0.91256 13:-0.729625 14:-1 15:1 16:-1 17:-0.588212 18:1 
0 5.703092986070138 6.18316337009384 0 13.94857612564975 0 1:-0.510151 2:-0.126961 3:0.419893 4:0.27526 5:0.456691 6:-0.190943 7:-0.185385 8:-0.0878839 9:0.297905 10:-0.118892 11:-0.108666 12:0.069744 13:-0.0298451 14:0.147888 15:0.0162875 16:-0.112631 17:-0.470598 18:-0.438924 
0.989359630428595 0.6810390805265689 0.9475599708508016 0.6010268090067455 0.1649603312265525 0.6689727788112959 1:-0.595583 2:-0.347999 3:0.397936 4:0.642877 5:0.476417 6:-0.224087 7:-0.121554 8:-0.235988 9:0.407551 10:0.32136 11:0.0541768 12:0.890051 13:0.205717 14:1 15:0.352642 16:-0.387895 17:-0.365687 18:-0.520307 
0 1.981723112111096 0.07587346567715876 0 2.373730391964246 0 1:-0.491631 2:-0.4138 3:0.342105 4:0.454236 5:0.29043 6:0.117039 7:-0.269187 8:0.18637 9:0.0931418 10:0.217533 11:-0.298172 12:0.227178 13:-0.255342 14:0.119638 15:0.0194098 16:-0.0972459 17:-0.558149 18:-0.310532 
1.072479705160793 2.452763358286481 1.495815969683695 0 0.6715910454242739 0 1:-0.34546 2:-0.331539 3:0.492556 4:0.441966 5:0.538165 6:0.0966734 7:-0.186862 8:0.205121 9:0.133129 10:0.285429 11:-0.187678 12:0.0352093 13:-0.316691 14:0.121149 15:-0.102791 16:-0.0745744 17:-0.524594 18:-0.385708 
0.2563106460638597 4.096124028376051 1.54224408262016 0 1.199963761446663 0 1:-0.375974 2:-0.331276 3:0.470694 4:0.468913 5:0.165504 6:0.0768325 7:-0.247841 8:0.100462 9:0.142661 10:0.295245 11:-0.236354 12:0.0768723 13:-0.325082 14:0.191011 15:-0.151719 16:-0.0975443 17:-0.559391 18:-0.198485 
0.5256922527316034 0 0.5270126631907934 0.02789785199914806 0 0.1869206730460048 1:-0.119012 2:-0.156094 3:0.205748 4:0.264363 5:0.307283 6:-0.128072 7:0.431697 8:0.462928 9:0.430595 10:-0.0124499 11:-0.24336 12:0.273239 13:-0.232211 14:0.243862 15:0.487946 16:-0.113004 17:-0.607526 18:-0.43078 
0 0 0 0.2752798553836147 0 0 1:-0.205732 2:-0.232309 3:0.302758 4:0.386011 5:0.266033 6:-0.123167 7:0.548472 8:0.519247 9:0.36236 10:-0.08952 11:-0.110993 12:0.289741 13:-0.238825 14:0.36085 15:0.397854 16:-0.156464 17:-0.565295 18:-0.467942 
0.4675410095836136 0 0 0.1179829649457677 0 0.2661571700606538 1:-0.120172 2:-0.19588 3:0.318171 4:0.32425 5:0.203852 6:-0.188319 7:0.549955 8:0.396408 9:0.154437 10:0.240514 11:-0.135473 12:0.222908 13:-0.157394 14:0.466605 15:0.173682 16:-0.114897 17:-0.547168 18:-0.558034 
0.3236248673554437 0 0.4059642796332405 0 0 0.2247673883929195 1:-0.0980753 2:-0.258113 3:0.284813 4:0.376202 5:0.272844 6:-0.0457048 7:0.447184 8:0.506521 9:0.337795 10:-0.0340227 11:-0.0925712 12:0.326719 13:-0.211481 14:0.392145 15:0.366752 16:-0.294037 17:-0.547218 18:-0.430934 
0 0 0 0.0851094115099347 0 0 1:-0.446928 2:-0.0661797 3:0.515891 4:0.421449 5:0.357574 6:0.266929 7:-0.463285 8:-0.162441 9:0.190148 10:-0.56155 11:-0.150044 12:0.411632 13:0.163156 14:0.193941 15:-0.288415 16:-0.106475 17:-0.551711 18:-0.417591 
0 0 1.150087625613161 0 1.02603707104222 0 1:-0.460577 2:-0.0306803 3:0.706262 4:0.489154 5:0.473915 6:-0.357955 7:-0.211909 8:-0.0163207 9:0.445882 10:-0.28003 11:-0.229691 12:-0.244778 13:-0.0755919 14:0.137392 15:-0.0199271 16:-0.0981616 17:-0.539819 18:-0.308356 
0.1245563316226828 0 1.733532600174137 0 0 0.04511736808118341 1:-0.416566 2:0.00395915 3:0.629789 4:0.451066 5:0.212428 6:-0.230314 7:-0.231001 8:0.0072114 9:0.476317 10:-0.372643 11:-0.269806 12:-0.296647 13:0.000718222 14:0.0971279 15:-0.0660035 16:-0.0804902 17:-0.572862 18:-0.13577 
0 0 0.6517992126850464 0 0 0 1:-0.343576 2:-0.277903 3:0.293239 4:0.565384 5:0.353605 6:-0.157513 7:-0.193642 8:-0.0043272 9:0.0896251 10:-0.356466 11:-0.455097 12:0.109832 13:-0.135072 14:0.290594 15:0.108534 16:-0.0701884 17:-0.554774 18:-0.282641 
0 0.7994518413229844 0.38257386585336 0 0.08070738074346004 0 1:-0.38328 2:-0.21045 3:0.279656 4:0.485237 5:0.433614 6:-0.287272 7:-0.209029 8:0.0850069 9:0.0677066 10:-0.287955 11:-0.426422 12:0.221457 13:0.209584 14:0.239951 15:0.151289 16:-0.089869 17:-0.569273 18:-0.253 
0.5954678890087144 0 4.070747921226303 0 2.212383170992431 0.01927122538560541 1:-0.277179 2:-0.164734 3:0.343166 4:0.501101 5:0.218976 6:-0.150753 7:-0.256124 8:-0.0506029 9:0.124032 10:-0.453602 11:-0.376594 12:0.0619332 13:-0.163034 14:0.425731 15:0.0697818 16:-0.0884376 17:-0.515916 18:-0.420237 
2.478023376682097 7.801504997001506 19.48087159165852 0 15.05985315672293 0 1:-0.283952 2:-0.207659 3:0.373626 4:0.562115 5:0.438046 6:-0.214429 7:-0.128958 8:-0.0378247 9:0.168063 10:-0.335824 11:-0.399467 12:0.0883102 13:-0.0764376 14:0.258805 15:0.125305 16:-0.0165301 17:-0.562018 18:-0.352959 
0.3160076476698695 0.1528493139017417 0.9411771852043828 0 0 0.1606237039889034 1:-0.375926 2:-0.337728 3:0.480442 4:0.472911 5:0.498555 6:-0.477701 7:0.0322273 8:0.0839449 9:0.179065 10:-0.0825682 11:-0.351349 12:-0.305211 13:0.0414455 14:-0.310633 15:-0.352103 16:-0.0084093 17:-0.418434 18:-0.406364 
0.3646259009726307 1.21127517995201 1.052076282739375 0.08313834381836535 1.047617201233799 0.3345985160566007 1:-0.397089 2:-0.313931 3:0.523436 4:0.508182 5:0.185856 6:-0.230146 7:-0.169316 8:-0.0302624 9:0.0543127 10:-0.180425 11:-0.418498 12:-0.282343 13:0.14083 14:-0.346111 15:-0.415505 16:-0.0683525 17:-0.460716 18:-0.30003 
0 0 1.080900842586317 0.1076215460923139 0 0.01806192113936636 1:-0.630648 2:-0.167691 3:0.585249 4:0.471265 5:0.591092 6:-0.229853 7:-0.154592 8:0.149706 9:0.1441 10:0.0403608 11:-0.415233 12:-0.452923 13:-0.130142 14:-0.286368 15:-0.197296 16:0.0960428 17:-0.559798 18:-0.177937 
0.2764040763475232 0 0.3865595865568591 0 0 0 1:-0.550584 2:-0.268425 3:0.644474 4:0.652853 5:0.244272 6:0.0263668 7:-0.162383 8:0.116423 9:0.150842 10:0.193653 11:-0.54129 12:-0.149858 13:0.31377 14:-0.0102463 15:-0.319155 16:-0.0660623 17:-0.484396 18:-0.244953 
0.4507579267455624 0.2923738870472849 0.893048479578826 0.3681150173304699 0 0.3559631999545195 1:-0.443032 2:-0.49523 3:0.1099 4:0.300496 5:0.417097 6:-0.921806 7:0.172722 8:0.24021 9:0.328908 10:0.279356 11:-0.330105 12:-0.253192 13:-0.132248 14:0.00996476 15:-0.217462 16:0.113459 17:-0.518239 18:-0.355695 
0.4503659385263283 0.3407613249880536 0.08123049947767988 0.1464298989966862 0 0.1887074400646773 1:-0.354465 2:-0.625508 3:0.107715 4:0.44872 5:0.33278 6:-0.544782 7:0.154038 8:0.287068 9:0.272668 10:0.374415 11:-0.466055 12:0.163286 13:0.322677 14:0.182427 15:-0.211198 16:-0.129932 17:-0.43138 18:-0.447307 
1.161884392816454 0.4153163626443399 0.1012795167565017 0.3507155929913954 0 0.7352775426132689 1:0.21038 2:-0.505919 3:-0.0296643 4:0.129068 5:0.623655 6:0.145252 7:-0.189103 8:-0.369735 9:0.0647304 10:0.0429244 11:-0.270611 12:0.100097 13:-0.316799 14:0.0837298 15:-0.306184 16:-0.0725433 17:-0.425907 18:-0.251536 
0 0.8526515858878622 0.07745867027968639 0 0 0 1:-0.0860761 2:-0.421259 3:-0.090335 4:0.0664382 5:0.549766 6:-0.159962 7:-0.365397 8:-0.211496 9:0.265348 10:-0.145834 11:-0.388122 12:0.162723 13:-0.393277 14:0.229456 15:-0.120956 16:-0.178584 17:-0.416897 18:-0.182977 
2.865299964667638 1.613584855888114 2.203323498774949 0 3.383861220572402 0.4305770144504222 1:-0.130271 2:-0.421297 3:0.0878107 4:0.145454 5:0.456888 6:-0.313044 7:-0.392412 8:-0.23746 9:0.239091 10:0.0195693 11:-0.383997 12:0.35913 13:0.136964 14:0.371396 15:-0.158248 16:-0.185049 17:-0.412243 18:-0.381552 
2.990129878698184 0.7617387427879165 2.138504077287565 0 0.7138699292359862 0.8402822358974136 1:-0.0364872 2:-0.430153 3:0.0375956 4:0.08599 5:0.506616 6:-0.284262 7:-0.318936 8:-0.366089 9:0.158533 10:0.191102 11:-0.317107 12:0.166914 13:-0.392173 14:0.0687593 15:-0.121567 16:-0.0473652 17:-0.476239 18:-0.144207 
1.054608352351158 0 0 0 0 0.4182859462141659 1:0.0543065 2:-0.481016 3:-0.0191834 4:0.07995 5:0.487361 6:-0.123527 7:-0.371866 8:-0.322033 9:0.0987954 10:-0.0222485 11:-0.317667 12:0.329061 13:0.161147 14:0.143796 15:-0.229345 16:-0.0956037 17:-0.450559 18:-0.411438 
0.380505590968571 0.4388907488075536 1.478128677448091 0.03624833523876334 1.15495705093616 0.2656370581167209 1:-0.51237 2:-0.30612 3:0.312804 4:0.344246 5:0.204266 6:0.0576216 7:-0.655428 8:0.0927564 9:0.118676 10:-0.491412 11:-0.148244 12:-0.130218 13:-0.246215 14:0.340553 15:0.111945 16:-0.179195 17:-0.605357 18:-0.446138 
0 0 0.19879790603405 0 0 0 1:-0.464357 2:-0.322169 3:0.363976 4:0.436417 5:0.556476 6:0.128281 7:-0.507926 8:0.0690971 9:0.0359641 10:-0.428691 11:-0.227974 12:0.0117073 13:0.17568 14:0.25446 15:0.0598559 16:-0.0967708 17:-0.616135 18:-0.453035 
0 0 2.443044862701544 0 1.795742648437433 0 1:-0.541787 2:-0.343647 3:0.405185 4:0.424901 5:0.234224 6:0.198434 7:-0.602426 8:0.104812 9:0.117242 10:-0.268876 11:-0.189012 12:0.083035 13:-0.180493 14:0.490845 15:0.0682081 16:-0.23757 17:-0.553345 18:-0.315396 
0 0 0 0 0.8316237135800529 0 1:-0.426854 2:-0.359643 3:0.420379 4:0.494319 5:0.524441 6:0.313794 7:-0.455115 8:-0.0336931 9:0.00135512 10:-0.302669 11:-0.245521 12:0.0605623 13:0.0994321 14:0.310117 15:0.02458 16:-0.142494 17:-0.569806 18:-0.516884 
0.4912099883134735 0.8101221615530374 1.35136549577435 0.4656569889467511 0.8747792998252835 0.2554059235189438 1:-0.543804 2:-0.345638 3:0.144842 4:0.153748 5:0.188097 6:0.315778 7:-0.826921 8:0.0999157 9:-0.0779274 10:-0.200262 11:-0.19734 12:-0.05697 13:-0.173744 14:0.461375 15:0.157524 16:-0.182351 17:-0.64311 18:-0.212282 
0.3213936408734302 0.8727030299165326 1.929795158618742 0 0.5548541632902666 0 1:-0.472353 2:-0.372329 3:0.30407 4:0.339654 5:0.678127 6:0.278015 7:-0.580234 8:0.0734139 9:-0.0882772 10:-0.305249 11:-0.2322 12:0.0403223 13:0.190912 14:0.316894 15:0.117152 16:-0.173488 17:-0.616372 18:-0.552092 
0 0 1.851111856592834 0 0 0 1:-0.470716 2:-0.392162 3:0.215507 4:0.222367 5:0.364254 6:0.0231368 7:-0.282515 8:0.1813 9:0.211089 10:-0.139546 11:-0.0773945 12:0.210373 13:0.0850134 14:-0.0517691 15:0.260744 16:0.0641065 17:-0.327564 18:-0.334781 
0 3.809950093114105 3.72774234622701 0 0.84584512390238 0 1:-0.508495 2:-0.235757 3:0.244032 4:0.19939 5:0.421728 6:0.138028 7:-0.188165 8:0.139744 9:0.289885 10:0.043053 11:-0.127569 12:0.107507 13:-0.0730496 14:0.216276 15:0.181943 16:0.00070937 17:-0.38435 18:-0.370928 
0 0 0 0 0.6766094265389297 0 1:-0.520145 2:-0.297918 3:0.151056 4:0.163096 5:0.437217 6:0.0954932 7:-0.265902 8:0.179072 9:0.333086 10:-0.093709 11:-0.106008 12:0.319048 13:0.200206 14:0.153068 15:0.153111 16:-0.0488055 17:-0.471184 18:-0.415306 
0.339048043049818 0 0 0.06883805085271703 0 0.03196698618977925 1:-0.106398 2:-0.17601 3:0.00325332 4:0.01732 5:0.403402 6:-0.178321 7:-0.282475 8:-0.230141 9:0.149094 10:-0.107477 11:-0.30166 12:-0.0324317 13:-0.0524419 14:0.211956 15:-0.0575413 16:-0.294819 17:-0.475605 18:-0.580676 
0 0 0.9610350514446797 0 0 0 1:-0.145594 2:-0.29437 3:-0.0234319 4:0.10073 5:0.323532 6:-0.294049 7:-0.161996 8:-0.115151 9:0.418741 10:-0.0586899 11:-0.312612 12:0.15277 13:0.0680761 14:0.291674 15:0.0125715 16:-0.269492 17:-0.512213 18:-0.281239 
1.125022153613256 0 1.451663060221711 0.1284931931952237 0 0.5478912605823056 1:0.046807 2:-0.216302 3:-0.0812545 4:0.0949483 5:0.475761 6:-0.160321 7:0.0128406 8:-0.127372 9:0.533384 10:-0.0488732 11:-0.336917 12:0.0216923 13:0.016118 14:0.123926 15:0.0901064 16:-0.125355 17:-0.564489 18:-0.595999 
0.5165917476939182 0 0 0.3246470303860108 0 0.2685880170267393 1:0.0202438 2:-0.166188 3:-0.257645 4:0.00664955 5:0.249565 6:-0.137677 7:0.0149441 8:-0.00749698 9:0.586909 10:-0.19474 11:-0.404969 12:-0.0737241 13:-0.0468873 14:0.13801 15:0.0506426 16:-0.144419 17:-0.535248 18:-0.218522 
0 2.567529334813042 1.293196300355403 0 2.042821428625171 0 1:-0.214227 2:-0.14857 3:0.000799833 4:-0.011617 5:0.426448 6:-0.278823 7:-0.279843 8:-0.159277 9:0.19224 10:-0.144579 11:-0.292702 12:-0.0808175 13:-0.0454584 14:0.078692 15:-0.0956167 16:-0.232251 17:-0.537339 18:-0.543962 
0 2.029103841047089 0.05780544528101594 0 1.197130895817583 0 1:-0.218785 2:-0.348348 3:-0.0296293 4:0.103248 5:0.345203 6:-0.228977 7:-0.24322 8:-0.058865 9:0.364966 10:-0.0308052 11:-0.312065 12:0.406626 13:0.35929 14:0.164999 15:0.012954 16:-0.24117 17:-0.544487 18:-0.287903 
0 13.31146986956701 3.717987707756268 0 5.414558650011486 0 1:-0.417378 2:-0.0803562 3:0.598378 4:0.467478 5:0.368116 6:0.0458652 7:-0.310131 8:-0.131883 9:0.235792 10:-0.345803 11:-0.272882 12:0.225425 13:-0.15238 14:0.0986041 15:0.0542638 16:-0.0887927 17:-0.507274 18:-0.373791 
0 0 0.3654105561054076 0 0.8681989622228141 0 1:-0.144878 2:-0.242468 3:0.0599063 4:0.191999 5:0.348095 6:-0.163782 7:-0.155522 8:0.382653 9:0.213985 10:-0.240649 11:-0.357031 12:0.399468 13:-0.444947 14:0.184082 15:-0.134098 16:-0.180629 17:-0.466347 18:-0.35233 
0.2270537621059987 0 0 0 0 0.3014010316846644 1:-0.0379266 2:-0.343562 3:0.105965 4:0.376421 5:0.358794 6:-0.146708 7:-0.00541464 8:0.347143 9:0.264678 10:-0.0939371 11:-0.278182 12:0.425227 13:-0.353863 14:0.302404 15:-0.167515 16:-0.150125 17:-0.449237 18:-0.273765 
0 0.754846067955201 0.9667042299769606 0 0.4578841542600281 0 1:-0.175723 2:-0.235699 3:0.0221244 4:0.221589 5:0.262042 6:-0.132062 7:-0.113714 8:0.323256 9:0.182702 10:-0.0303782 11:-0.406455 12:0.467288 13:-0.375688 14:0.113346 15:-0.116477 16:-0.154505 17:-0.467882 18:-0.241838 
0.737897757793019 0 0 0.2787021750155294 0 0.3300550873962609 1:0.00795184 2:-0.30693 3:-0.150433 4:0.196872 5:0.478115 6:0.0177749 7:-0.0638781 8:0.400406 9:0.175921 10:-0.373608 11:-0.400228 12:0.511212 13:-0.0841508 14:0.00457842 15:-0.0741962 16:-0.20245 17:-0.491144 18:-0.47656 
0 0.8824449396772728 0 0 0 0 1:-0.657772 2:-0.405777 3:0.226486 4:0.503115 5:0.264702 6:-0.267797 7:-0.221913 8:-0.210061 9:-0.0992836 10:-0.442681 11:-0.439875 12:-0.0695179 13:-0.0984763 14:0.0550013 15:0.096602 16:-0.0578721 17:-0.242119 18:-0.0495251 
0.405809439090528 0.1456677733670618 2.281936377361668 0 0 0.1204974784809373 1:-0.584118 2:-0.485256 3:0.322866 4:0.620064 5:0.37336 6:-0.133932 7:-0.252422 8:-0.24769 9:-0.195365 10:-0.429574 11:-0.368593 12:-0.0287664 13:-0.150502 14:0.29348 15:0.122197 16:-0.141031 17:-0.11848 18:-0.421741 
0 1.599735672420663 0 0 0.4421542996215211 0 1:-0.615027 2:-0.374509 3:0.273369 4:0.594298 5:0.384747 6:-0.233558 7:-0.204038 8:-0.228732 9:-0.128184 10:-0.482246 11:-0.494376 12:-0.024637 13:-0.217687 14:0.265586 15:0.00535175 16:-0.279584 17:-0.334629 18:-0.368474 
0 2.17916320414265 2.104589760157078 0 1.482354869566354 0 1:-0.62742 2:-0.326492 3:0.241543 4:0.484672 5:0.276799 6:-0.322731 7:-0.242268 8:-0.276065 9:-0.0266925 10:-0.369125 11:-0.454574 12:-0.0377294 13:-0.171503 14:0.32277 15:0.0342744 16:-0.136042 17:-0.337984 18:-0.101325 
0 0.0990057105817136 0.5262242272816401 0.7462838799272223 0 0 1:-0.59093 2:-0.321631 3:0.222264 4:0.463671 5:0.404265 6:-0.244234 7:-0.217869 8:-0.317754 9:-0.113951 10:-0.472913 11:-0.521951 12:-0.0741353 13:-0.232925 14:0.362997 15:-0.0144719 16:-0.186976 17:-0.312365 18:-0.382718 
0 0.04379500014242123 0.3099335593935095 0 0 0 1:-0.258276 2:-0.156969 3:-0.0107467 4:0.118601 5:0.464247 6:-0.133466 7:0.0344812 8:0.0428317 9:0.0751513 10:-0.062172 11:-0.462407 12:0.646715 13:-0.0820777 14:0.149552 15:0.189409 16:-0.0143757 17:-0.561396 18:-0.336969 
0 0 2.692106310571732 0 0.7819860029008834 0 1:-0.231901 2:-0.16715 3:0.0668104 4:0.185023 5:0.355778 6:-0.161112 7:-0.0152635 8:0.0199325 9:0.15367 10:-0.148347 11:-0.434596 12:0.660483 13:-0.143259 14:0.314552 15:0.274486 16:-0.0201579 17:-0.56143 18:-0.380435 
0.2244424501441973 0 0 0 0 0.1285830049923415 1:-0.141109 2:-0.262006 3:0.077743 4:0.214671 5:0.238422 6:-0.174079 7:0.0871487 8:0.0100185 9:0.160531 10:-0.438867 11:-0.247394 12:0.374054 13:-0.195243 14:0.326313 15:0.201705 16:-0.15731 17:-0.501444 18:-0.714852 
0 0 0.263599295267582 0 0 0 1:-0.213224 2:-0.227246 3:0.129594 4:0.216273 5:0.287015 6:-0.257638 7:0.109437 8:0.0484956 9:0.160491 10:-0.279597 11:-0.343203 12:0.439473 13:-0.223884 14:0.351843 15:0.167818 16:-0.11808 17:-0.468376 18:-0.479265 
0 0 0.7650170959300275 0 2.771678729110393 0 1:-0.349163 2:0.131038 3:0.561325 4:0.223696 5:0.50578 6:0.297169 7:-0.64531 8:-0.179488 9:0.295387 10:-0.297327 11:-0.258359 12:0.134013 13:-0.161946 14:0.0827197 15:-0.0112434 16:-0.162774 17:-0.390951 18:-0.367353 
0 6.331447387552882 0.8956051790141728 0.3537867907278585 2.477219521580015 0 1:-0.360647 2:0.14296 3:0.550425 4:0.204091 5:0.398224 6:0.282728 7:-0.638181 8:-0.187106 9:0.341955 10:-0.293013 11:-0.246759 12:0.112193 13:-0.211285 14:0.104123 15:0.041489 16:-0.231981 17:-0.409489 18:-0.387167 
0 0 0 0.2607160634332119 1.725796181053016 0 1:-0.408713 2:0.196072 3:0.550624 4:0.12561 5:0.364265 6:0.108453 7:-0.69004 8:-0.170707 9:0.287393 10:-0.249841 11:-0.246794 12:0.0204255 13:-0.276491 14:0.0296791 15:0.129304 16:-0.219743 17:-0.43949 18:-0.315591 
1.014227113297145 0 0 0 0 0.5335609499766113 1:-0.338997 2:0.125104 3:0.584234 4:0.188109 5:0.499028 6:0.248664 7:-0.771529 8:-0.257487 9:0.250357 10:-0.339464 11:-0.205473 12:0.0818911 13:-0.141035 14:0.137413 15:0.0490901 16:-0.209515 17:-0.390188 18:-0.312678 
0 0.4029982149114229 0 0 0 0 1:-0.557338 2:-0.369124 3:0.543075 4:0.644674 5:0.48969 6:0.0710299 7:-0.506368 8:0.0347147 9:0.15205 10:-0.0369745 11:-0.305406 12:0.498658 13:0.149749 14:0.223245 15:-0.123912 16:-0.0772897 17:-0.59305 18:-0.503168 
0 9.303142241250676 3.072326769976356 0.4362127885617342 4.941819474091839 0 1:-0.665057 2:-0.18366 3:0.385276 4:0.416818 5:0.395116 6:-0.143181 7:-0.559348 8:0.0228631 9:0.269904 10:-0.0746861 11:-0.239842 12:0.432 13:-0.20555 14:0.214035 15:-0.033491 16:-0.0993445 17:-0.616894 18:-0.42929 
0 0 0 0 1.086522454314549 0 1:-0.650135 2:-0.194285 3:0.408563 4:0.451026 5:0.422204 6:-0.084332 7:-0.492774 8:0.0726516 9:0.287088 10:-0.0837089 11:-0.227375 12:0.465402 13:0.0503392 14:0.361047 15:-0.0885336 16:-0.102868 17:-0.630576 18:-0.242066 
0 0 0 0 2.326929261508619 0 1:-0.608218 2:-0.0413719 3:0.623764 4:0.320768 5:0.482806 6:-0.402059 7:-0.830778 8:-0.131569 9:0.197077 10:-0.0937705 11:-0.42407 12:0.21657 13:-0.00913116 14:0.0901385 15:0.0182216 16:0.000690574 17:-0.542608 18:-0.301979 
0.09687012440478578 0 1.721316683671937 0 0.7468256683996464 0 1:-0.558965 2:-0.0150699 3:0.637253 4:0.323923 5:0.415096 6:-0.300768 7:-0.867313 8:-0.140156 9:0.255812 10:-0.205579 11:-0.421884 12:0.228148 13:0.0486237 14:0.242626 15:-0.0196238 16:-0.0596586 17:-0.508222 18:-0.205437 
0.1071147009502852 0 0 0.1418851368906038 0 0 1:-0.260693 2:-0.423835 3:-0.4499 4:-0.0970361 5:0.257701 6:-0.171956 7:-0.0980615 8:-0.125725 9:0.170607 10:-0.352944 11:-0.33903 12:-0.0556231 13:-0.189697 14:-0.338911 15:0.0593335 16:-0.198127 17:-0.573319 18:-0.472664 
0.5227334955719729 0.1285140608703347 0.7333300167371949 0.4052137256357666 0 0.4624424901457343 1:-0.371981 2:-0.250501 3:-0.503613 4:-0.289453 5:0.166802 6:-0.44425 7:-0.0914037 8:-0.0201851 9:0.209621 10:-0.0582519 11:-0.205973 12:0.0760701 13:-0.585402 14:-0.425627 15:0.114727 16:-0.121753 17:-0.650185 18:-0.471432 
0.1230779045263801 0 0.1644017049239753 0.2044277288952132 0 0.1414456886427033 1:-0.451637 2:-0.412611 3:-0.248038 4:0.00416068 5:0.545775 6:-0.546364 7:-0.0275621 8:-0.029188 9:0.446029 10:-0.0796482 11:-0.189995 12:0.245355 13:-0.114628 14:-0.474067 15:0.14717 16:-0.161831 17:-0.561028 18:-0.603248 
0.08792500371426515 17.05154270421189 6.578585012852066 2.169964155982334 8.492462909508088 0 1:-0.449597 2:-0.349259 3:0.0889318 4:0.229477 5:0.47544 6:-0.099172 7:-0.249532 8:-0.351571 9:0.223891 10:-0.245238 11:-0.215602 12:-0.0936803 13:-0.122625 14:-0.038894 15:0.154942 16:-0.0336485 17:-0.570338 18:-0.192121 
0.503023338024311 0.3059598992657855 0.6153086637777098 0.6625703124415947 0 0.2729013202772839 1:-0.33239 2:-0.397074 3:-0.251654 4:0.0719436 5:0.487658 6:0.0916951 7:-0.203109 8:-0.159073 9:0.297434 10:-0.397206 11:-0.341978 12:0.176326 13:0.00395529 14:-0.0642477 15:0.415256 16:-0.0877231 17:-0.726377 18:-0.0332958 
0.2470552119002433 0.5949108042780552 0.7667945234218471 0.1783519836531692 0.1580480340739848 0.05383496372269699 1:-0.447763 2:-0.299137 3:0.185162 4:0.280459 5:0.156999 6:-0.622406 7:0.0343977 8:-0.0622335 9:0.570338 10:0.284241 11:-0.242395 12:0.472341 13:-0.158391 14:0.237529 15:-0.0286645 16:0.0562455 17:-0.564065 18:-0.433799 
0 1.835713490016946 1.533450234576399 0 0.1071319431147199 0 1:-0.632194 2:-0.0140687 3:0.636138 4:0.362784 5:0.167616 6:-0.342759 7:-0.427167 8:-0.163827 9:0.312184 10:0.0904308 11:-0.272772 12:0.242069 13:-0.101074 14:0.0844741 15:-0.0562204 16:-0.115414 17:-0.5027 18:-0.30697 
0 12.22224981445262 0 0 0 0 1:-0.549238 2:-0.0611362 3:0.654678 4:0.433837 5:0.549293 6:-0.202174 7:-0.353728 8:-0.189618 9:0.221927 10:0.00140641 11:-0.205147 12:0.107177 13:-0.238391 14:0.00453028 15:-0.0702369 16:-0.110614 17:-0.486796 18:-0.32523 
0 3.702877015187999 0.3900809002295048 0 1.670800489963195 0 1:-0.602774 2:-0.0601779 3:0.640972 4:0.411887 5:0.124783 6:-0.277026 7:-0.432104 8:-0.143419 9:0.298494 10:0.0711211 11:-0.290745 12:0.228314 13:-0.0778433 14:0.00478906 15:-0.0592853 16:-0.138052 17:-0.509774 18:-0.338863 
0 0.8406034820723877 3.354458701070717 0 5.848063779771292 0 1:-0.557057 2:-0.103195 3:0.608403 4:0.388334 5:0.579893 6:-0.291186 7:-0.499168 8:-0.264504 9:0.104947 10:0.0238843 11:-0.187292 12:0.190285 13:-0.254892 14:0.0374818 15:0.0169687 16:-0.135815 17:-0.521507 18:-0.346433 
0.4638863567600318 0 0.6449102213900357 0 1.024467289201436 0 1:-0.252976 2:0.0363669 3:0.604358 4:0.38126 5:0.363448 6:0.109289 7:-0.402547 8:0.0641912 9:0.0686888 10:-0.398394 11:-0.459385 12:0.392019 13:0.314885 14:0.170049 15:0.219288 16:-0.144373 17:-0.542187 18:-0.175645 
0.1618491258278615 0 0 0 0 0.03705276871286777 1:-0.229816 2:0.0155646 3:0.49186 4:0.324151 5:0.242283 6:0.24222 7:-0.343595 8:0.106454 9:-0.0637878 10:-0.569534 11:-0.389263 12:0.0679712 13:0.368786 14:0.3663 15:0.00952154 16:-0.0223754 17:-0.61783 18:-0.305887 
0.61857749189737 0.8502820160836956 0.9595897722382505 0.4670738048188264 0 0.5737402446156122 1:-0.1927 2:-0.0289535 3:0.533342 4:0.46192 5:0.65305 6:0.177451 7:-0.189796 8:0.0701927 9:-0.0355253 10:-1 11:-0.179421 12:-0.273361 13:-0.233609 14:0.417914 15:-0.0726605 16:0.0125736 17:-0.546488 18:-0.273854 
0.4036673088802795 0 0.07810559915948498 0.1498220096234151 0 0.3925122484551427 1:-0.259591 2:-0.0750252 3:0.467434 4:0.414692 5:0.283531 6:0.259748 7:-0.426548 8:0.0594155 9:0.0284859 10:-0.754305 11:-0.397037 12:0.276119 13:0.19495 14:0.337746 15:0.261185 16:-0.231799 17:-0.559123 18:-0.0295581 
0.1413019555403114 2.720803212427385 0 0 1.274747507108067 0.7065287693708577 1:-0.371367 2:-0.0558015 3:0.501903 4:0.544544 5:0.195025 6:-0.32298 7:-0.386826 8:-0.0863762 9:0.323769 10:-0.552993 11:-0.281773 12:0.389857 13:-0.0102368 14:0.143931 15:0.172589 16:-0.0413577 17:-0.576264 18:-0.320436 
0.3876029491570013 0 2.749476506285772 0 5.423880418154211 0 1:-0.301856 2:-0.142746 3:0.589886 4:0.555945 5:0.299296 6:-0.00283818 7:-0.194222 8:0.0481343 9:0.205224 10:-0.0812303 11:-0.205592 12:0.454316 13:0.00353588 14:0.254811 15:0.0408489 16:-0.110195 17:-0.605707 18:-0.404933 
0 0.1312129157034183 0 0 0 0 1:-0.28495 2:-0.134815 3:0.509728 4:0.563528 5:0.43349 6:-0.0808944 7:-0.186665 8:0.0518935 9:0.266679 10:-0.373178 11:-0.131755 12:0.160731 13:-0.278477 14:0.106117 15:-0.0198328 16:0.0296529 17:-0.615754 18:-0.507072 
0.3483602591095868 0.3612109298217959 0.6881243550639514 0.08255059219671751 0 0.1913212612892796 1:-0.309454 2:-0.0108481 3:0.676792 4:0.568242 5:0.922689 6:-0.0933126 7:0.229513 8:-0.142673 9:0.201475 10:-0.460277 11:-0.148354 12:0.364552 13:0.298317 14:0.154465 15:-0.022996 16:-0.0548506 17:-0.532727 18:-0.235526 
0.7069616043739805 2.628404229277292 1.365252031310207 0.3642223948081598 2.419769005596247 0.3938506338047865 1:-0.274815 2:-0.0234505 3:0.582955 4:0.51321 5:0.846462 6:-0.0330097 7:0.121867 8:-0.258177 9:0.147805 10:-0.578542 11:-0.240622 12:0.456091 13:0.41007 14:0.0733644 15:0.0939676 16:-0.117289 17:-0.56384 18:0.0182854 
0.4568026628875748 0 1.051230534309562 0.2887913061801889 0 0.3306057078414975 1:-0.553399 2:0.0367805 3:0.810868 4:0.653877 5:0.298166 6:0.283455 7:0.00516195 8:-0.358647 9:0.387285 10:0.0257911 11:-0.0760592 12:0.531412 13:-0.316327 14:0.0237809 15:-0.0247126 16:-0.137384 17:-0.431643 18:-0.274092 
0.2185101849821083 1.617263641949251 0.9746939508415015 0.164141508437737 0 0 1:-0.524548 2:0.0242819 3:0.750745 4:0.61499 5:0.305759 6:0.342465 7:-0.0492542 8:-0.390176 9:0.427392 10:-0.0571673 11:-0.131165 12:0.516249 13:-0.171221 14:0.0381944 15:-0.0169337 16:-0.153397 17:-0.415822 18:-0.407975 
0.6417139025474267 0.1851867611439402 0.8743663799410166 0.498448066811936 0 0.4218771598408537 1:-0.232098 2:-0.40403 3:-0.00662942 4:0.273452 5:0.286957 6:-0.248486 7:-0.187455 8:-0.660687 9:0.299908 10:0.0708903 11:-0.223839 12:1 13:-0.374635 14:0.351556 15:-0.143311 16:-0.178481 17:-0.33341 18:-0.308076 
0 0 0.2466034465222849 0.05070125778052634 0 0 1:-0.304328 2:-0.312772 3:-0.129248 4:0.137209 5:0.46101 6:-0.415238 7:-0.182135 8:-0.637947 9:0.285468 10:-0.176871 11:-0.295395 12:0.781646 13:-0.3398 14:0.215688 15:-0.0475474 16:-0.194561 17:-0.370322 18:-0.331865 
0 0 0.06869856154442405 0 0 0 1:-0.712637 2:-0.00800709 3:0.687949 4:0.558326 5:0.257263 6:0.0177721 7:0.00834366 8:-0.00226699 9:0.346837 10:0.00670546 11:-0.139489 12:0.360712 13:-0.329565 14:0.193054 15:-0.0775221 16:-0.218859 17:-0.395756 18:-0.0894706 
0 0.8794797585664972 0 0 0 0 1:-0.604442 2:-0.112957 3:0.713019 4:0.629664 5:0.36026 6:0.221079 7:-0.109059 8:-0.216056 9:0.29173 10:-0.158033 11:-0.169304 12:0.419168 13:-0.246305 14:-0.0246691 15:0.0382222 16:-0.131124 17:-0.419985 18:-0.294213 
0.08784461317547165 0 0.2991899691070853 0 0 0 1:-0.12621 2:-0.242287 3:0.23513 4:0.278633 5:0.25724 6:-0.38771 7:0.27655 8:-0.0170464 9:0.493265 10:0.135499 11:-0.327355 12:0.278152 13:0.112984 14:0.194744 15:-0.115328 16:-0.00788692 17:-0.459995 18:-0.525005 
0.2198710631163055 0.03472399669846341 0.6025869791320242 0.01316166227204558 0 0.2427589748578975 1:-0.151155 2:-0.267265 3:0.176968 4:0.247807 5:0.583237 6:-0.445481 7:0.284427 8:0.0559726 9:0.459123 10:0.181077 11:-0.281045 12:0.440539 13:0.335026 14:0.228999 15:-0.204888 16:-0.107978 17:-0.423832 18:-0.437024 
0 0 1.000892726832075 0.02800822814922404 0 0.09042691099511653 1:-0.224846 2:-0.223421 3:0.0215573 4:0.0930104 5:0.0717707 6:-0.599535 7:-0.0099036 8:-0.0805917 9:0.573447 10:-0.169109 11:-0.414913 12:0.215001 13:0.0947935 14:0.0438185 15:-0.0043241 16:0.0325683 17:-0.516101 18:-0.568774 
0 0 0 0.1036077450015367 0 0.1859410631076652 1:-0.154116 2:-0.320097 3:-0.0318215 4:0.0552855 5:0.586335 6:-0.453786 7:-0.164579 8:-0.0307324 9:0.392391 10:-0.33404 11:-0.382848 12:0.263054 13:0.389035 14:0.220877 15:-0.189036 16:-0.104128 17:-0.434484 18:-0.687649 
0 0 0 0.1382424587691264 0 0 1:-0.564231 2:0.132343 3:0.29607 4:0.308731 5:0.5266 6:-0.240648 7:-0.445325 8:0.044335 9:0.162149 10:-0.543404 11:-0.315542 12:0.629273 13:-0.106009 14:0.138464 15:-0.0573387 16:0.101068 17:-0.388343 18:-0.331684 
0.1138655403752393 0 0 0 0 0.1617498806803133 1:-0.507466 2:0.239994 3:0.495026 4:0.183693 5:0.42275 6:-0.205497 7:-0.459409 8:-0.114334 9:0.405639 10:-0.610114 11:-0.226712 12:0.664329 13:-0.322807 14:0.11834 15:-0.0290766 16:-0.0610045 17:-0.452901 18:-0.387905 
0 1.008760075767835 0 0 0 0 1:-0.448019 2:0.235398 3:0.442818 4:0.187094 5:0.353925 6:-0.198763 7:-0.459711 8:-0.0374894 9:0.348345 10:-0.650083 11:-0.325588 12:0.579234 13:-0.232279 14:0.0852779 15:-0.0521828 16:-0.00710964 17:-0.451615 18:-0.397681 
0 0.7792956742082784 2.27623248855577 0 0.7022384749426754 0 1:-0.463697 2:0.213752 3:0.447497 4:0.180187 5:0.508177 6:-0.225981 7:-0.407985 8:-0.04744 9:0.355595 10:-0.593316 11:-0.376609 12:0.594229 13:-0.190294 14:0.0588144 15:-0.0334789 16:0.0113149 17:-0.479682 18:-0.263838 
0 0 0 0 0 0.3388501352258818 1:-0.0511354 2:-0.481769 3:-0.0647944 4:0.0370744 5:0.264868 6:-0.547313 7:-0.174777 8:0.0836304 9:0.069519 10:-0.0118278 11:-0.198969 12:-0.0832783 13:-0.513586 14:0.331416 15:-0.121963 16:-0.0456438 17:-0.484149 18:-0.324417 
0.6904062380288691 0 0.1395839594390224 0.3396418756259651 0 0 1:-0.180592 2:-0.610126 3:-0.0847576 4:0.270253 5:0.315346 6:-0.442742 7:0.0290278 8:0.0254147 9:0.137932 10:0.168301 11:-0.398453 12:-0.351921 13:-0.560272 14:0.340043 15:-0.180817 16:-0.044865 17:-0.43827 18:-0.469018 
0 0 0.003286897652020929 0 0 0 1:-0.18282 2:-0.602804 3:-0.199255 4:0.149197 5:0.286481 6:-0.453103 7:-0.0587647 8:-0.0271911 9:0.109167 10:0.300925 11:-0.546436 12:-0.0953399 13:-0.0180396 14:0.404273 15:-0.227434 16:-0.0340404 17:-0.459944 18:-0.346376 
0 0 0.2875927250336381 0 0 0 1:-0.500604 2:-0.0852867 3:0.540032 4:0.280265 5:0.48487 6:-0.176967 7:-0.270754 8:0.300268 9:0.405401 10:-0.246994 11:-0.242331 12:0.00113057 13:-0.0244507 14:0.0774451 15:-0.0158275 16:-0.0871594 17:-0.487338 18:-0.369282 
0 0 5.605681327557193 0 0 0 1:-0.487836 2:-0.0465052 3:0.521049 4:0.229535 5:0.425698 6:-0.239933 7:-0.278354 8:0.235413 9:0.468854 10:-0.258288 11:-0.23107 12:-0.0463518 13:-0.0632251 14:0.0881451 15:0.0238288 16:-0.0642887 17:-0.513857 18:-0.340223 
0 0 2.543748063933531 0 0 0 1:-0.514654 2:-0.011754 3:0.414374 4:0.148079 5:0.370029 6:-0.266756 7:-0.305742 8:0.25521 9:0.515335 10:-0.279768 11:-0.352198 12:-0.063711 13:0.0871867 14:-0.169431 15:0.0234926 16:-0.0259438 17:-0.591858 18:-0.266203 
0 0 0.6960934274114633 0 0 0 1:-0.475947 2:-0.05687 3:0.500638 4:0.233358 5:0.382636 6:-0.184813 7:-0.283418 8:0.269549 9:0.506878 10:-0.296281 11:-0.255598 12:-0.000247432 13:0.019919 14:0.0802764 15:0.00655329 16:-0.13863 17:-0.481895 18:-0.296605 
0 0 0 0.2210631047881325 0 0 1:-0.815159 2:-0.0984954 3:0.388123 4:0.234405 5:0.461651 6:0.0364238 7:-0.289552 8:0.0915619 9:0.249586 10:0.0703742 11:-0.0521372 12:-0.00326117 13:-0.0793024 14:-0.247502 15:-0.131612 16:-0.157343 17:-0.343656 18:-0.272725 
0 0 0 0.203221411712821 0 0 1:-0.795949 2:-0.179237 3:0.458086 4:0.322288 5:0.526474 6:0.0360544 7:-0.32573 8:0.155154 9:0.289191 10:-0.00172149 11:-0.144772 12:0.226249 13:0.40108 14:-0.218222 15:-0.0558628 16:-0.170803 17:-0.386525 18:-0.549747 
0.3279800066266953 0.3864094349175374 0.3549065821653211 0.310418220599565 0 0.3415708223812189 1:-0.888541 2:0.058966 3:0.481074 4:0.379808 5:0.361052 6:0.156572 7:-0.00644434 8:0.239766 9:0.19322 10:-0.00315934 11:-0.045331 12:-0.18372 13:-0.622406 14:-0.0379004 15:-0.50383 16:-0.158165 17:-0.421685 18:-0.324589 
0 0 0.2986448530132245 0.2533320958421693 0 0.04455791301417594 1:-0.880505 2:-0.0330191 3:0.381344 4:0.349267 5:0.418178 6:0.160759 7:-0.0578162 8:0.250508 9:0.22392 10:0.0514979 11:-0.202676 12:0.232805 13:0.206831 14:-0.222319 15:-0.536833 16:-0.229085 17:-0.423957 18:-0.273887 
0 0 1.710602483338294 0 0 0.03651425458930366 1:-0.805482 2:-0.0794047 3:0.472135 4:0.288157 5:0.427404 6:0.200892 7:-0.138165 8:0.47326 9:0.200777 10:0.309461 11:-0.0605362 12:-0.117599 13:-0.079186 14:-0.217174 15:-0.269351 16:-0.151268 17:-0.336742 18:-0.167297 
0.7257729786989676 0.975979296245988 2.025354486958793 0.5227293443101495 0.02262071763574444 0.6052570791970663 1:-0.875834 2:0.148101 3:0.450206 4:0.0189681 5:0.0943328 6:0.103862 7:-0.405573 8:0.2325 9:-0.310652 10:0.476317 11:-0.0749386 12:0.143704 13:0.507783 14:0.262855 15:-0.38817 16:-0.25501 17:-0.313554 18:0.0341064 
0 0 3.1588163250621 0 0 0 1:-0.466053 2:-0.00479691 3:0.482088 4:0.0886186 5:0.4094 6:-0.547597 7:-0.427352 8:0.10338 9:0.0907047 10:-0.0287745 11:-0.204951 12:-0.0408893 13:-0.135831 14:0.0867146 15:0.0529103 16:-0.152635 17:-0.47819 18:-0.2501 
0.4961853802117921 1.346064289125061 6.310174084669677 0 7.081515181215449 0.9354762131853833 1:-0.456854 2:-0.0326882 3:0.44114 4:0.0936579 5:0.395843 6:-0.54032 7:-0.510512 8:0.0195199 9:0.0563394 10:-0.0917364 11:-0.274557 12:0.0495846 13:-0.0366818 14:0.0985927 15:0.0684974 16:-0.205186 17:-0.571466 18:-0.231386 
1.103292559313109 0 12.8020383312189 0 1.944742725462426 0.1445758582159237 1:-0.407894 2:0.210134 3:0.490721 4:0.0890991 5:0.341998 6:-0.472863 7:-0.273148 8:0.0696897 9:0.252939 10:0.0435902 11:-0.337692 12:-0.110869 13:-0.124939 14:0.0715047 15:0.046686 16:-0.22049 17:-0.539551 18:-0.212451 
0 6.139879315165137 5.013505984697 0 9.507494354665701 0 1:-0.428358 2:0.161875 3:0.47898 4:0.0555445 5:0.452493 6:-0.510034 7:-0.283883 8:-0.0244644 9:0.21945 10:-0.0089367 11:-0.300148 12:-0.106383 13:-0.0891444 14:0.0798153 15:0.039764 16:-0.219026 17:-0.549132 18:-0.257338 
0.2814583072274208 0.02492236348969287 1.710216008454294 0.07687068126070445 0 0.2864587097392197 1:-0.489621 2:-0.532675 3:-0.189776 4:-0.0636959 5:0.24147 6:-0.454031 7:-0.548702 8:-0.0731242 9:0.334066 10:0.556585 11:-0.196046 12:0.04273 13:-0.123329 14:0.141121 15:0.0342597 16:-0.0683584 17:-0.401732 18:-0.482715 
0.3614847431361356 0.8296617176744602 3.100013325402132 0.07764751961500774 0.7164564893928175 0.01286771259728921 1:-0.488933 2:-0.610459 3:-0.144832 4:0.0524375 5:0.60928 6:-0.492117 7:-0.508849 8:-0.0777511 9:0.451024 10:0.410769 11:-0.24105 12:-0.0649698 13:-0.191843 14:0.00714167 15:-0.0142876 16:-0.0388118 17:-0.430368 18:-0.344376 
0.9069566555745111 0.6566330424143931 0.8977536513235458 0.6157505130830775 0.1520895019930187 0.7023219935617888 1:0.197548 2:0.719798 3:0.432835 4:-0.452419 5:0.120865 6:0.34704 7:-0.376132 8:0.458752 9:-0.0883238 10:0.531575 11:-0.509352 12:-0.371135 13:-0.702106 14:-0.463629 15:0.295241 16:-0.648473 17:-0.251056 18:-0.238939 
0.901822129025329 0.6568321120407236 0.9000013914735938 0.6172168860474371 0.1431449125149369 0.6990973759018909 1:0.606272 2:0.765243 3:-0.39639 4:-1 5:-0.422194 6:1 7:-0.298024 8:0.13098 9:-0.0753208 10:0.257145 11:-0.81309 12:-1 13:0.149487 14:-0.278244 15:0.54571 16:-0.164133 17:-0.767723 18:-0.905382 
0.05772569045890984 0.6909382184345344 0.4867200691572393 0 0.4058572855992444 0.04595282576873042 1:-0.40555 2:-0.734629 3:-0.250314 4:0.0760542 5:0.656461 6:-0.102215 7:-0.479562 8:0.0584648 9:0.254727 10:0.25964 11:-0.17925 12:-0.0243158 13:0.134855 14:-0.0576956 15:0.0415362 16:-0.014934 17:-0.404903 18:-0.633035 
0.2439479598886401 2.88254392941476 1.326447591569428 0.2716838736641909 0.598520627704435 0.1704833602629571 1:-0.444236 2:-0.747413 3:-0.243091 4:0.139075 5:0.350714 6:-0.114333 7:-0.504652 8:0.0977022 9:0.482973 10:0.0860972 11:-0.300653 12:0.0226947 13:0.357552 14:0.214791 15:-0.0512534 16:-0.0316735 17:-0.523149 18:-0.399421 
0 0 0 0 1.504872843406566 0 1:-0.649793 2:-0.190034 3:0.372025 4:0.274466 5:0.499206 6:0.162443 7:-0.345328 8:0.0145659 9:0.510554 10:0.0515546 11:-0.0731644 12:-0.0486591 13:-0.0679435 14:-0.0427057 15:0.109893 16:-0.0756945 17:-0.404331 18:-0.194625 
0.02531113743810851 0 0 0 0 0 1:-0.628933 2:-0.181423 3:0.349483 4:0.229911 5:0.38905 6:0.13385 7:-0.363986 8:-0.0332411 9:0.514282 10:0.067271 11:-0.128384 12:0.0510895 13:0.129226 14:-0.257664 15:0.146526 16:-0.0859224 17:-0.45413 18:-0.300109 
0 0 0.7855673501591672 0 0 0 1:-0.714176 2:-0.13138 3:0.4244 4:0.224946 5:0.410754 6:-0.0253327 7:-0.375984 8:-0.0282947 9:0.410369 10:0.178706 11:-0.131356 12:-0.00619521 13:0.093109 14:-0.277092 15:0.213181 16:-0.0127932 17:-0.423507 18:-0.339794 
0 0 0 0.4339134861514853 0.003985131378193249 0 1:-0.678598 2:-0.142735 3:0.386741 4:0.236978 5:0.407036 6:0.0593304 7:-0.385792 8:-0.0395915 9:0.475675 10:0.0389109 11:-0.202998 12:0.0964973 13:0.298073 14:-0.146581 15:0.10475 16:-0.103907 17:-0.487781 18:-0.392382 
0 2.93011041986906 0 0.7178929702608375 0.09065809532670933 0 1:-0.571064 2:-0.0992469 3:0.436837 4:0.417362 5:0.627179 6:0.364718 7:-0.477337 8:0.0788879 9:0.290034 10:0.13839 11:-0.176824 12:-0.0412159 13:-0.236806 14:0.0380463 15:-0.0952564 16:-0.0299196 17:-0.584207 18:-0.373634 
0 5.808276412548627 0 0.1308770264572681 0.1474927210141268 0 1:-0.577482 2:-0.0688261 3:0.45034 4:0.474181 5:0.271848 6:0.278942 7:-0.556629 8:-0.00741808 9:0.357169 10:0.0649979 11:-0.241998 12:0.0110544 13:-0.0535719 14:0.194965 15:-0.143009 16:-0.0240716 17:-0.542156 18:-0.245066 
0.05898930974686942 0 0.05940747666847807 0.2935385649856118 0 0.2438175159942159 1:-0.307459 2:-0.656312 3:-0.320671 4:0.117864 5:0.543875 6:-0.175236 7:-0.636111 8:-0.364209 9:0.262326 10:0.481623 11:-0.138414 12:0.208645 13:-0.460855 14:0.0275893 15:-0.326207 16:-0.103715 17:-0.429024 18:-0.549944 
0.2983100086081064 0.2643112113149113 0.1608541424060371 0.2393630469795406 0 0.4267483802877165 1:-0.252303 2:-0.653059 3:-0.269093 4:0.26768 5:0.306096 6:-0.0902676 7:-0.598338 8:-0.309939 9:0.428413 10:0.359333 11:-0.201461 12:0.491303 13:0.137091 14:0.215548 15:-0.376882 16:-0.154238 17:-0.415331 18:-0.530439 
0.7220035300540586 0.8185887780464887 0.1089342086700606 0.3008950501784677 0.3617954525119249 0 1:-0.168637 2:-0.68128 3:-0.173037 4:0.248387 5:0.623767 6:0.0177253 7:-0.556358 8:-0.378846 9:0.286068 10:0.298844 11:-0.160072 12:0.223522 13:-0.194845 14:0.142272 15:-0.332744 16:-0.139271 17:-0.399767 18:-0.553353 
0.4276693498783832 0 0.6542387506266468 0.2779159502817291 0 0 1:-0.27335 2:-0.53826 3:-0.255851 4:0.139384 5:0.319418 6:-0.234065 7:-0.607722 8:-0.316506 9:0.370192 10:0.167233 11:-0.307751 12:0.219588 13:0.0221973 14:0.0985051 15:-0.321584 16:-0.0622564 17:-0.486759 18:-0.341405 
0.7655333327634526 0.3468360030415943 0.5055941362913197 0.5925199182664084 0 0.6647039302393661 1:-0.036872 2:-0.42859 3:-0.144783 4:0.257914 5:0.367206 6:0.166781 7:-0.409445 8:0.344874 9:0.0800262 10:-0.0474585 11:-0.156929 12:-0.123469 13:-0.362549 14:0.312598 15:-0.150276 16:-0.342941 17:-0.800354 18:-0.452803 
0 1.06569892694828 0 0 1.150708785601863 0 1:-0.128748 2:-0.531004 3:-0.0339331 4:0.15996 5:0.422421 6:0.179375 7:-0.293208 8:0.22302 9:0.10674 10:0.110261 11:-0.239324 12:0.128937 13:-0.124545 14:0.276055 15:-0.0707278 16:-0.222675 17:-0.470507 18:-0.506193 
1.333427057662641 2.224057124041546 1.382311220845916 0 0.9295410084562544 0.4236099880967211 1:-0.0656843 2:-0.487755 3:0.0202448 4:0.101777 5:0.364946 6:-0.110779 7:-0.327146 8:0.186184 9:0.0534915 10:-0.164612 11:-0.212923 12:-0.139531 13:-0.263237 14:0.344666 15:-0.0522842 16:-0.0587576 17:-0.39998 18:-0.139086 
0.2078800565267017 0 0.3920290025962751 0 0 0 1:-0.0535808 2:-0.529141 3:-0.0796104 4:0.0167961 5:0.509144 6:0.0366373 7:-0.370819 8:0.190298 9:0.0170699 10:0.0653724 11:-0.26806 12:0.0858932 13:0.132638 14:0.131044 15:0.0173652 16:-0.141527 17:-0.451439 18:-0.454433 
0.2571869642510518 0.1178171637027406 0.1866457238632908 0 0 0 1:-0.00085875 2:-0.537809 3:-0.0716679 4:0.164878 5:0.39739 6:0.344486 7:-0.288371 8:0.18053 9:-0.00470102 10:-0.252808 11:-0.286219 12:-0.114668 13:-0.317031 14:0.432893 15:-0.12017 16:-0.213461 17:-0.466148 18:-0.343892 
0 0.07886996140577791 0.2081875206061932 0 0 0 1:-0.128445 2:-0.46588 3:0.054521 4:0.195626 5:0.379401 6:0.0792253 7:-0.236178 8:0.22295 9:0.0824199 10:0.0350343 11:-0.307136 12:0.0446752 13:-0.168476 14:0.533923 15:-0.06058 16:-0.287838 17:-0.442057 18:-0.449337 
0 0 2.510571484545644 0 0.2894734087991352 0 1:-0.457544 2:-0.213795 3:0.0810664 4:0.11045 5:0.51334 6:-0.77824 7:-0.176632 8:-0.339763 9:0.302579 10:-0.0535735 11:-0.315112 12:0.378457 13:0.023276 14:0.352354 15:-0.0503075 16:-0.0378687 17:-0.504233 18:-0.498422 
0 2.618442930045187 3.859298101247036 0 1.32009886533282 0 1:-0.428676 2:-0.299138 3:0.0545817 4:0.168116 5:0.378373 6:-0.544941 7:-0.177525 8:-0.245022 9:0.427166 10:-0.0406609 11:-0.277116 12:0.454765 13:-0.0940592 14:0.319256 15:0.116067 16:-0.0857621 17:-0.560086 18:-0.0695509 
0 0 0 0.04173630746559708 0 0.3110148669576697 1:-0.494823 2:-0.203525 3:0.0423458 4:0.102269 5:0.509258 6:-0.842277 7:-0.089886 8:-0.362131 9:0.361878 10:-0.162107 11:-0.181745 12:0.356672 13:-0.0262755 14:0.288615 15:-0.0296801 16:0.0037534 17:-0.554563 18:-0.584069 
0 0 0 0.162058845978933 0 0 1:-0.478982 2:-0.266036 3:0.0493521 4:0.138084 5:0.318979 6:-0.598406 7:-0.102716 8:-0.298058 9:0.526213 10:-0.0998904 11:-0.201733 12:0.453845 13:0.152126 14:0.268166 15:0.073823 16:-0.0233047 17:-0.58388 18:-0.159515 
0 0 0.6673136721758796 0 0 0 1:-0.409182 2:-0.253563 3:0.021142 4:0.111783 5:0.391783 6:-0.487692 7:-0.290597 8:-0.304492 9:0.286438 10:0.0134987 11:-0.336979 12:0.594585 13:-0.206155 14:0.315024 15:-0.0803151 16:-0.0418036 17:-0.499944 18:-0.490081 
0 0 0.1625306199998396 0.09643614101408107 0 0.02858698708388788 1:-0.467258 2:-0.287774 3:0.0955493 4:0.207251 5:0.445659 6:-0.636821 7:-0.0974876 8:-0.133229 9:0.605452 10:0.103617 11:-0.284505 12:0.669477 13:-0.171777 14:0.228341 15:0.0522555 16:-0.0598925 17:-0.488876 18:-0.227176 
0 1.312155860714229 0 0 1.648537028372073 0 1:-0.678723 2:-0.0373891 3:0.394872 4:0.495369 5:0.390252 6:-0.0724312 7:-0.246794 8:0.0970819 9:0.223851 10:-0.0587655 11:-0.284769 12:0.0419455 13:-0.0078851 14:0.516362 15:-0.0561704 16:-0.179425 17:-0.679019 18:-0.123655 
0 7.222578362115021 0.9372446917561063 1.62353795331905 0.8518950531013388 0 1:-0.61379 2:-0.0332737 3:0.37843 4:0.533276 5:0.321811 6:0.0384256 7:-0.272242 8:0.0649846 9:0.209499 10:0.0693367 11:-0.267233 12:-0.0554624 13:-0.211495 14:0.472273 15:0.0204476 16:-0.180905 17:-0.678898 18:-0.0415383 
0 1.257944015327457 0 0.2498967719314454 0 0 1:-0.674552 2:-0.115127 3:0.532039 4:0.477589 5:0.188924 6:-0.143722 7:-0.229661 8:-0.075491 9:0.371356 10:0.0942279 11:-0.206353 12:-0.0690066 13:-0.0912188 14:0.309647 15:0.122198 16:-0.134546 17:-0.675028 18:-0.447513 
0 0 0 0.2285240611428777 0 0 1:-0.59383 2:-0.166422 3:0.562558 4:0.668194 5:0.476305 6:0.0696963 7:-0.108912 8:-0.13261 9:0.233478 10:0.0256914 11:-0.205214 12:-0.171175 13:-0.0624095 14:0.344282 15:0.0921101 16:-0.121118 17:-0.642184 18:-0.407378 
0 0 0 0 0 0.1620710187868876 1:-0.313488 2:0.214556 3:0.879826 4:0.443005 5:0.261121 6:0.195806 7:-0.293102 8:-0.0320912 9:0.59404 10:-0.529196 11:-0.14047 12:0.268439 13:-0.209558 14:0.0356938 15:-0.0052946 16:-0.0864631 17:-0.392813 18:-0.480754 
0.352603096463478 0 2.960112488397254 0 1.291977640532884 0.0158465226173374 1:-0.312728 2:0.222663 3:0.789149 4:0.318958 5:0.312746 6:0.0676907 7:-0.433468 8:-0.160821 9:0.588466 10:-0.447322 11:-0.183684 12:0.349356 13:-0.189241 14:0.278376 15:0.00499032 16:-0.112894 17:-0.414749 18:-0.427926 
0 0.6157675768121214 1.581739411597799 0.09235207977030825 1.972609408014616 0 1:-0.545976 2:0.128721 3:0.563732 4:0.274831 5:0.34759 6:-0.29836 7:-0.31365 8:-0.243561 9:0.253985 10:-0.395978 11:-0.151154 12:-0.0751242 13:-0.107966 14:0.372097 15:0.0759998 16:-0.127624 17:-0.58758 18:-0.347133 
0 4.032113407442007 1.323770816424789 0.4594421740334809 2.731693883560486 0 1:-0.527832 2:0.130892 3:0.421286 4:0.216681 5:0.393352 6:-0.220533 7:-0.354955 8:-0.32174 9:0.107625 10:-0.362527 11:-0.274003 12:0.206338 13:0.26495 14:0.269575 15:0.0888825 16:-0.153513 17:-0.621167 18:-0.367394 
0.4082737664645607 0.9314493043605856 0.8136329317350729 0.3129390490343531 0 0.2741450560314092 1:-0.675551 2:-0.458765 3:-0.0176722 4:0.186688 5:0.264817 6:-0.60266 7:-0.685601 8:-0.392069 9:0.154146 10:0.115211 11:-0.381675 12:0.443058 13:-0.070993 14:0.207897 15:0.0752069 16:-0.171792 17:-0.498021 18:-0.201275 
0 1.163098744048458 0 0.02621843815857493 0.9730142496231398 0 1:-0.679174 2:-0.551942 3:0.0292248 4:0.289006 5:0.507879 6:-0.57616 7:-0.589525 8:-0.34092 9:0.165078 10:0.0909552 11:-0.2837 12:0.405796 13:-0.200869 14:0.12282 15:0.0885416 16:-0.112453 17:-0.445601 18:-0.145444 
0 1.574976687040697 0 1.359362207148056 0 0 1:-0.818917 2:0.0165874 3:0.555935 4:0.417307 5:0.320053 6:0.0281432 7:-0.31388 8:-0.151283 9:0.361504 10:-0.0108096 11:-0.193718 12:0.137828 13:0.0554052 14:0.100692 15:-0.353602 16:-0.266321 17:-0.426983 18:-0.0993173 
0.2336469328599894 0.1707037101845969 0.2535072303248989 0.4685001443782886 0 0.2578238521399335 1:-0.779429 2:-0.0311795 3:0.476188 4:0.449666 5:0.412201 6:0.372977 7:-0.313406 8:-0.147981 9:0.451402 10:-0.347666 11:-0.232997 12:0.054133 13:0.0520801 14:-0.128768 15:-0.148475 16:-0.0767311 17:-0.475455 18:0.311717 
0.3093994832981323 0.143279904606423 0.173741106000076 0.464283961797151 0 0.1783391264440763 1:-0.338966 2:-0.485159 3:-0.49791 4:0.0637924 5:0.0615874 6:-0.307857 7:-0.028054 8:0.036588 9:0.732988 10:-0.0848348 11:-0.63872 12:0.413867 13:-0.221209 14:0.0236986 15:0.205732 16:-0.0855461 17:-0.614353 18:-0.022613 
0.7052885526153875 0.5939856184078992 0.6872595814859624 0.6698587155545033 0 0.5284575046073164 1:-0.219708 2:-0.808168 3:-0.534587 4:0.265904 5:0.398488 6:-0.352835 7:0.0867718 8:-0.020047 9:1 10:-0.0879756 11:-0.570658 12:0.570529 13:-0.155075 14:-0.140534 15:0.411225 16:0.07124 17:-0.62927 18:-0.299506 
0.3443419472900933 0.3321315450093207 0.1882671380898031 0.2309788127448623 0 0.2788866319482318 1:-0.389706 2:0.0504411 3:0.761879 4:0.614168 5:0.309583 6:0.326326 7:0.0381865 8:-0.467522 9:0.349352 10:-0.719868 11:0.0170422 12:-0.00467245 13:0.114976 14:-0.00486884 15:-0.00673418 16:-0.239167 17:-0.488581 18:-0.308434 
0.2213560612155331 0.5946779853171562 0.2858755878147788 0.2277034947426954 0 0.1731690164337808 1:-0.471439 2:0.0944653 3:0.631477 4:0.413851 5:0.282946 6:0.194983 7:-0.103839 8:-0.397958 9:0.299141 10:-0.797979 11:0.00367856 12:0.0895356 13:0.242091 14:-0.196487 15:0.0916063 16:-0.237945 17:-0.55083 18:-0.316237 
0.3930939896371054 0 0.08773228311748527 0.5675712156212293 0 0.3415371352996566 1:-0.457925 2:-0.558927 3:-0.110467 4:0.241287 5:0.368822 6:-0.685633 7:-0.179958 8:-0.230395 9:0.580997 10:-0.170125 11:-0.133431 12:0.231586 13:-0.62451 14:-0.0543412 15:-0.193224 16:-0.165154 17:-0.404169 18:-0.592933 
0 0 0.4833498805898626 0.2695993426008699 0 0 1:-0.257239 2:-0.401569 3:-0.255149 4:0.0365668 5:0.405158 6:-0.33095 7:-0.207852 8:-0.393975 9:0.204767 10:0.181611 11:-0.323678 12:0.620142 13:0.244263 14:-0.0685268 15:-0.215731 16:-0.124337 17:-0.548166 18:-0.1925 
0 3.096562622864592 0.09864827468756278 0.4798690391193319 2.441846571029062 0 1:-0.611681 2:0.179688 3:0.470366 4:0.307456 5:0.522078 6:-0.32236 7:-0.387394 8:-0.234151 9:0.277382 10:-0.404188 11:-0.340704 12:0.282978 13:-0.47687 14:-0.0175614 15:-0.118822 16:-0.104948 17:-0.483503 18:-0.402592 
0 1.911046511524878 0.8871436895981427 0.6334092897920091 2.171161011152735 0 1:-0.576931 2:0.232992 3:0.469606 4:0.314161 5:0.248008 6:-0.247994 7:-0.382661 8:-0.207139 9:0.236104 10:-0.102118 11:-0.415847 12:0.44052 13:-0.0362924 14:0.0428136 15:-0.173587 16:-0.0879083 17:-0.438416 18:-0.345031 
0 5.303468423422617 0 0.5204401565834073 0.4572765076338981 0 1:-0.534754 2:0.151238 3:0.491358 4:0.459619 5:0.451118 6:-0.145616 7:-0.410789 8:-0.170753 9:0.262188 10:-0.433333 11:-0.343068 12:0.231544 13:-0.454933 14:0.0227579 15:-0.192826 16:-0.191874 17:-0.431848 18:-0.432372 
0 1.519527114942778 0.8395921898202972 0 0.7349982472976383 0 1:-0.50496 2:-0.0599036 3:0.63571 4:0.497131 5:0.571938 6:-0.211875 7:-0.0853955 8:0.380042 9:0.282129 10:-0.010204 11:-0.217288 12:0.200715 13:-0.561249 14:0.194232 15:-0.182672 16:-0.00352243 17:-0.471437 18:-0.485821 
0 1.238664194463576 1.694030595392264 0 2.117394992276842 0 1:-0.562328 2:-0.00794264 3:0.597977 4:0.393978 5:0.292532 6:-0.31638 7:-0.2689 8:0.369729 9:0.270839 10:0.18428 11:-0.392849 12:0.520942 13:-0.0543788 14:0.149613 15:-0.150782 16:0.00574048 17:-0.506438 18:-0.204238 
0.2623647195960702 0 0 0.098924479713903 0 0.4667375470789858 1:-0.602418 2:-0.0995873 3:0.546981 4:0.363167 5:0.199419 6:-0.389159 7:-0.25472 8:0.358643 9:0.340682 10:0.321885 11:-0.280283 12:0.661312 13:-0.0230813 14:0.00214165 15:-0.200918 16:0.0523702 17:-0.563443 18:-0.318831 
0.3073308475218379 0 0.1783520746850669 0.1331361056900938 0 0.2598894699933291 1:-0.602296 2:-0.134217 3:0.587191 4:0.459866 5:0.516193 6:-0.403695 7:-0.0548269 8:0.534712 9:0.217678 10:0.20833 11:-0.136721 12:0.210321 13:-0.598037 14:0.065878 15:-0.274129 16:-0.015488 17:-0.520424 18:-0.487855 
0 0 0.2292847862759223 0.02000799699556491 0 0 1:-0.662774 2:-0.117192 3:0.508047 4:0.392037 5:0.157232 6:-0.39705 7:-0.243531 8:0.534794 9:0.278514 10:0.267164 11:-0.296784 12:0.540087 13:-0.111264 14:0.0863603 15:-0.20304 16:-0.05435 17:-0.550905 18:-0.109561 
0 0.004676325563327182 0 0 0 0 1:-0.281282 2:-0.5921 3:-0.135885 4:0.226621 5:0.402547 6:-0.025734 7:-0.0891034 8:0.167737 9:0.104335 10:-0.184903 11:-0.336322 12:0.328236 13:0.132838 14:0.171907 15:0.175855 16:0.0512515 17:-0.522556 18:-0.482809 
0.3466236799119772 0 0.2417238894388597 0 0 0 1:-0.273445 2:-0.564535 3:-0.155955 4:0.318145 5:0.605669 6:0.0220647 7:0.0432365 8:0.233269 9:0.213396 10:-0.276333 11:-0.575121 12:0.380582 13:-0.127092 14:0.147351 15:0.291418 16:-0.0163713 17:-0.509265 18:-0.557141 
0 2.523823891050579 0.5084353454782481 0.5506860125203499 0 0 1:-0.297517 2:-0.486628 3:-0.156739 4:0.344929 5:0.498996 6:0.0353194 7:-0.0641596 8:-0.0827856 9:0.0985642 10:-0.319225 11:-0.605319 12:0.339662 13:0.0447516 14:0.381221 15:0.200484 16:-0.0412283 17:-0.525654 18:-0.420846 
0 1.153292472498677 0.341609275088559 0.3875986023735064 0 0 1:-0.328637 2:-0.459777 3:-0.0577538 4:0.447874 5:0.492926 6:-0.00897781 7:0.0523826 8:0.0687568 9:0.249469 10:-0.0696683 11:-0.57432 12:0.460096 13:-0.00353778 14:0.366633 15:0.190621 16:-0.187725 17:-0.421958 18:-0.54553 
0 3.966126116794871 0 0 0 0 1:-0.623808 2:-0.27886 3:0.33023 4:0.336629 5:0.445085 6:-0.136055 7:-0.276464 8:0.0550044 9:0.183632 10:0.0673357 11:-0.248557 12:0.337245 13:0.0101028 14:0.0596524 15:0.0459175 16:-0.0825059 17:-0.406341 18:-0.455276 
0 0 2.786569649844268 0 7.148919391731416 0 1:-0.591618 2:-0.204634 3:0.375205 4:0.279506 5:0.361796 6:-0.271245 7:-0.278029 8:-0.032395 9:0.154621 10:0.126647 11:-0.214998 12:0.391866 13:0.0516669 14:-0.0125969 15:0.0655031 16:-0.0345723 17:-0.44624 18:-0.36807 
0 0 0 0 0 0.02379158566731951 1:-0.861399 2:-0.212663 3:0.460866 4:0.298838 5:0.39268 6:-0.634424 7:-0.215909 8:0.352639 9:0.321026 10:0.193935 11:-0.0244035 12:0.383217 13:0.0727471 14:0.187828 15:0.0497741 16:0.0202384 17:-0.449654 18:-0.301742 
0 0 0.08568614424428463 0 0 0 1:-0.572468 2:-0.498885 3:0.42044 4:0.545571 5:0.420705 6:-0.220073 7:-0.246831 8:0.0810452 9:0.0539936 10:-0.195174 11:-0.0742488 12:-0.0731251 13:0.0417087 14:0.295337 15:-0.0140336 16:-0.00725431 17:-0.376043 18:-0.40791 
0.4489562378455466 0 0.763518914099874 0 0.06453709569560953 0 1:-0.605287 2:-0.5609 3:0.511089 4:0.602138 5:0.327355 6:-0.331005 7:-0.279923 8:0.035286 9:0.168318 10:-0.13894 11:-0.0893684 12:0.184795 13:0.515004 14:0.212335 15:0.0877522 16:-0.125317 17:-0.373525 18:-0.403912 
0 0 1.29606463524354 0 0.2554897012471821 0 1:-0.638869 2:-0.497749 3:0.46956 4:0.543375 5:0.264241 6:-0.517413 7:-0.322527 8:0.0226399 9:0.111174 10:-0.119062 11:-0.174897 12:0.0250028 13:0.33844 14:0.0957952 15:0.136118 16:-0.0499037 17:-0.412693 18:-0.248965 
0.2840272959194268 0.1931199316612445 0.4799520016641333 0 0.8037506752291116 0.2914098860890427 1:-0.566858 2:-0.481616 3:0.491668 4:0.577735 5:0.32604 6:-0.449477 7:-0.257427 8:-0.0241692 9:0.0895453 10:-0.387485 11:-0.0863909 12:-0.338316 13:0.0884522 14:0.156978 15:0.0354805 16:0.0402953 17:-0.344765 18:-0.473319 
0.3765284043347104 0.4768167224993855 0 0.01172963873119582 0 0.40173505871775 1:-0.671859 2:-0.474923 3:0.526163 4:0.55181 5:0.308039 6:-0.604249 7:-0.289748 8:0.0632515 9:0.188623 10:-0.293754 11:-0.12831 12:-0.0268025 13:0.469567 14:0.266569 15:0.12114 16:-0.0797907 17:-0.38631 18:-0.358173 
4.522480245001792 4.08791242475271 2.669186427212731 0 7.19608228697245 0.6536908865362189 1:-0.221178 2:-0.231184 3:0.571059 4:0.486031 5:0.453165 6:-0.181852 7:-0.321746 8:-0.116889 9:-0.165987 10:-0.096501 11:-0.276019 12:0.264802 13:-0.331841 14:0.172897 15:0.0884656 16:-0.0588986 17:-0.591552 18:-0.264435 
0.9952772065870097 0.5669375244226987 0 0 1.267590193780005 0.8740168163568864 1:-0.231292 2:-0.242278 3:0.545933 4:0.521525 5:0.347154 6:-0.303188 7:-0.421885 8:-0.197437 9:-0.239114 10:-0.33773 11:-0.368868 12:0.371585 13:-0.017717 14:0.225775 15:0.0679234 16:-0.0159694 17:-0.605831 18:-0.460944 
0 0 0.01939791773719865 0 0 0 1:-0.404022 2:-0.357048 3:0.522948 4:0.571611 5:0.490867 6:-0.268243 7:-0.378737 8:0.0384494 9:-0.084617 10:-0.0409403 11:-0.26506 12:0.29425 13:-0.307695 14:0.29263 15:0.0719276 16:-0.00718475 17:-0.63801 18:-0.222413 
1.142748400707397 0 1.26438036970243 0 0 0.472761107234861 1:-0.360109 2:-0.448387 3:0.556735 4:0.663808 5:0.254527 6:-0.170419 7:-0.510284 8:-0.0466244 9:-0.0934936 10:0.11066 11:-0.26253 12:0.576308 13:-0.0214401 14:0.366541 15:0.0478449 16:-0.0380888 17:-0.621652 18:-0.24548 
0 0 0 0 1.325572802886219 0.1636005942201926 1:-0.24282 2:-0.245106 3:0.608997 4:0.518976 5:0.394541 6:-0.216265 7:-0.415613 8:0.0504755 9:-0.0592052 10:-0.208659 11:-0.308452 12:0.300686 13:-0.248506 14:0.225284 15:-0.039248 16:-0.0127183 17:-0.560283 18:-0.0995702 
0 0 0 0 2.125817288372884 0.2297325668359532 1:-0.323991 2:-0.22143 3:0.544889 4:0.470665 5:0.373026 6:-0.381355 7:-0.525426 8:0.101543 9:-0.0441577 10:-0.365966 11:-0.39899 12:0.497207 13:0.0799911 14:0.38191 15:0.0433171 16:-0.0568856 17:-0.546527 18:-0.38665 
0 0 0.06279425257063997 0 0.2282546912275763 0 1:-0.449781 2:0.24572 3:0.695211 4:0.359389 5:0.36944 6:-0.203292 7:0.06477 8:0.157721 9:0.100533 10:0.118134 11:-0.277192 12:0.199161 13:-0.212028 14:0.0825343 15:-0.234458 16:-0.116647 17:-0.449424 18:-0.397513 
0 0 3.618932218995778 0 0.6044949553992504 0 1:-0.48198 2:0.211943 3:0.641807 4:0.36495 5:0.450581 6:-0.370706 7:-0.0361757 8:0.153931 9:0.192029 10:-0.150098 11:-0.32392 12:0.255384 13:-0.216677 14:-0.0796499 15:-0.173477 16:-0.0666178 17:-0.451724 18:-0.294867 
0 0 0 0 1.35189760478058 0 1:-0.43404 2:0.177193 3:0.66069 4:0.415395 5:0.283579 6:-0.221124 7:-0.0899193 8:0.153633 9:0.162697 10:-0.161245 11:-0.307948 12:0.342262 13:-0.0882176 14:-0.0434084 15:-0.111372 16:-0.0951059 17:-0.473737 18:-0.24182 
0.1512318059751375 0.7002331518462154 0.5130017731800445 0 0 0.05978184637210426 1:-0.4735 2:0.319981 3:0.720626 4:0.332936 5:0.372952 6:-0.315272 7:0.158808 8:0.268379 9:0.165638 10:0.143329 11:-0.245319 12:0.155147 13:-0.241719 14:0.11759 15:-0.245138 16:-0.0891863 17:-0.459093 18:-0.381533 
0 0 0.683141921053889 0 0 0 1:-0.781359 2:-0.203903 3:0.480673 4:0.512172 5:0.345366 6:-0.33474 7:-0.0671685 8:-0.0466707 9:0.187354 10:-0.0370444 11:-0.377276 12:-0.0764155 13:0.256589 14:0.102719 15:-0.00512809 16:-0.139386 17:-0.359633 18:-0.19111 
0 1.837413258441169 0 0.1856953896820608 0.06039782887184432 0 1:-0.757451 2:-0.199039 3:0.386297 4:0.471363 5:0.457582 6:-0.391083 7:-0.164723 8:-0.233762 9:0.198024 10:-0.418191 11:-0.32309 12:-0.246221 13:-0.0987326 14:0.00393155 15:0.016639 16:-0.0547158 17:-0.508421 18:-0.26943 
0.9649900677404952 0.5008330190462517 0.9912936146683667 0.6002801481322464 0 0.5414335188109564 1:-0.436193 2:-0.540613 3:-0.0264784 4:0.280834 5:0.327553 6:-0.473274 7:-0.322127 8:-0.424902 9:0.252667 10:-0.200459 11:-0.321663 12:-0.236232 13:-0.537365 14:0.424913 15:0.497232 16:0.128074 17:-0.472323 18:-0.332609 
0 0.6342799802553295 0.6750621134964588 0 0 0 1:-0.461467 2:-0.554625 3:-0.0851484 4:0.239358 5:0.439374 6:-0.659973 7:-0.143046 8:-0.336584 9:0.279723 10:-0.0574379 11:-0.315258 12:-0.0813071 13:-0.0142266 14:0.230147 15:0.308702 16:0.0511045 17:-0.372512 18:-0.290251 
0.5689247086875451 0.1246410669393968 0.3837823504626245 0.2714515001277583 0 0.4414065816182002 1:-0.736635 2:-0.393389 3:0.483263 4:0.575267 5:0.66322 6:0.482903 7:-0.0601359 8:0.57364 9:0.205614 10:-0.058741 11:0.0511276 12:-0.177617 13:0.36762 14:-0.0340957 15:-0.173627 16:-0.146893 17:-0.420996 18:-0.462643 
0.09389467509172629 0 0 0 0 0.1492249028506847 1:-0.813458 2:-0.411176 3:0.572427 4:0.658064 5:0.0999962 6:0.263575 7:-0.241336 8:0.478747 9:0.413499 10:-0.0232984 11:-0.0726115 12:-0.152275 13:0.00982494 14:0.0272793 15:-0.107594 16:-0.152679 17:-0.47745 18:-0.029683 
0 0 0 0.04168272755527827 0 0 1:-0.915365 2:-0.255667 3:0.384564 4:0.471062 5:0.583486 6:0.131911 7:-0.185375 8:0.113722 9:0.315757 10:0.208169 11:-0.224784 12:-0.148749 13:0.115073 14:-0.00127484 15:-0.156969 16:-0.06791 17:-0.491237 18:-0.298705 
0 0.9434927076090777 0 0 0 0 1:-0.953965 2:-0.241255 3:0.451463 4:0.534424 5:0.22385 6:-0.0439243 7:-0.269028 8:0.173026 9:0.47079 10:0.207296 11:-0.329048 12:-0.14486 13:-0.25789 14:-0.0367852 15:-0.100168 16:-0.0539081 17:-0.486138 18:-0.138468 
0.150661941788565 0 0 0 0 0.09609778296975673 1:-0.835987 2:-0.338142 3:0.373768 4:0.492684 5:0.448652 6:0.458247 7:-0.17377 8:0.497475 9:0.297234 10:0.0765386 11:-0.116022 12:-0.31106 13:0.122386 14:-0.0540059 15:-0.0911216 16:-0.145429 17:-0.389859 18:-0.0431864 
0.02305493040919737 0 0 0 0 0.03893155128503232 1:-0.835792 2:-0.374432 3:0.420666 4:0.558024 5:0.433993 6:0.236492 7:-0.289207 8:0.462197 9:0.356583 10:-0.107734 11:-0.280498 12:-0.286941 13:-0.260092 14:-0.24492 15:-0.0678516 16:-0.105612 17:-0.407886 18:-0.365809 
0 2.893701917470045 1.880684886389517 0 0 0 1:-0.750683 2:-0.507185 3:0.385499 4:0.581448 5:0.422402 6:0.135074 7:-0.447799 8:-0.180766 9:0.254058 10:0.140846 11:-0.264292 12:-0.0722204 13:-0.0421818 14:0.0254121 15:0.127582 16:-0.0434928 17:-0.394565 18:-0.202948 
0 1.003340196018144 0.7711170803548282 0 0 0 1:-0.791917 2:-0.505123 3:0.357692 4:0.532602 5:0.638354 6:0.17297 7:-0.462331 8:-0.00566982 9:0.210218 10:0.191419 11:-0.32651 12:0.142458 13:0.182798 14:0.161407 15:0.14389 16:-0.116036 17:-0.328891 18:-0.333643 
0.2073554215740288 0 0 0 0 0 1:-0.719103 2:-0.579476 3:0.390045 4:0.63532 5:0.464223 6:0.350275 7:-0.433716 8:-0.0984782 9:0.20593 10:0.108698 11:-0.154729 12:-0.123776 13:0.0386618 14:0.0509979 15:0.0574192 16:-0.071158 17:-0.334112 18:-0.183015 
0.7815007282296078 0.3735935495238298 0 0.3486092947819189 0.7963658260636426 0.288964726244165 1:-0.726727 2:-0.630688 3:0.278826 4:0.521282 5:0.618946 6:0.332124 7:-0.607732 8:-0.0710241 9:0.194547 10:0.083715 11:-0.298093 12:0.124263 13:0.276739 14:-0.125558 15:0.144541 16:-0.119736 17:-0.410427 18:-0.39781 
0.1940204728638162 2.285754304455028 2.777050402085442 0.3707374607029225 0.7681271095102988 0.006711959505262507 1:-0.988236 2:-0.428885 3:0.298054 4:0.421831 5:0.406291 6:-0.246274 7:-0.518048 8:-0.023506 9:0.289051 10:0.252059 11:-0.222776 12:-0.155913 13:-0.119844 14:0.0756444 15:0.203182 16:0.0300492 17:-0.438773 18:-0.018591 
0 1.936582284520558 2.034033658139277 0.4504466332204251 3.414559984818012 0 1:-0.854871 2:-0.547854 3:0.215972 4:0.41562 5:0.650434 6:0.0042409 7:-0.61207 8:-0.117904 9:0.175045 10:0.127856 11:-0.313297 12:0.0101258 13:0.168791 14:-0.106022 15:0.213679 16:-0.0581794 17:-0.432151 18:-0.449754 
0 7.754250115716327 0 0 0 0 1:-0.559181 2:-0.121705 3:0.441465 4:0.422004 5:0.398588 6:-0.0957297 7:-0.226164 8:-0.0471823 9:0.116763 10:-0.1613 11:-0.35579 12:0.138555 13:-0.146925 14:0.0234075 15:-0.0649918 16:-0.0124839 17:-0.595536 18:-0.273952 
0 3.912687895255387 2.292166952627662 1.917183951385067 6.151281220272305 0 1:-0.490654 2:-0.0975312 3:0.374073 4:0.350009 5:0.398969 6:0.0166933 7:-0.290051 8:-0.201711 9:0.0259949 10:-0.114186 11:-0.356708 12:0.336698 13:0.0296309 14:0.0872925 15:-0.128359 16:-0.068289 17:-0.554245 18:-0.221674 
0 7.399179399391663 0 0 0 0 1:-0.489056 2:-0.126998 3:0.431919 4:0.450466 5:0.347395 6:-0.0176559 7:-0.284588 8:-0.168758 9:0.0643263 10:-0.0903382 11:-0.347801 12:0.346851 13:-0.0362733 14:0.0437381 15:-0.128258 16:-0.0274314 17:-0.583432 18:-0.205474 
0 0 0 0.08094949392274367 0.3235505845387258 0 1:-0.322556 2:-0.759882 3:-0.2229 4:0.25314 5:0.351382 6:-0.136704 7:-0.441609 8:0.39988 9:0.277771 10:-0.260554 11:-0.26709 12:0.248441 13:-0.252899 14:0.320937 15:-0.118645 16:-0.225955 17:-0.544254 18:-0.375484 
0 0.5546735599099285 0.4265666026211095 0 0 0 1:-0.344405 2:-0.830307 3:-0.143964 4:0.416846 5:0.379593 6:-0.0342892 7:-0.307998 8:0.315822 9:0.0105672 10:-0.121735 11:-0.378431 12:0.114174 13:-0.368106 14:0.296716 15:-0.0107315 16:-0.170577 17:-0.493533 18:-0.312652 
0.6228163903869972 0 0.167167873581874 0 0.7250341096244511 0.2254373189734177 1:-0.224651 2:-0.746208 3:-0.0208514 4:0.402411 5:0.291926 6:0.0326528 7:-0.354944 8:0.343167 9:0.0549923 10:-0.247643 11:-0.270028 12:0.176645 13:-0.311949 14:0.497706 15:-0.0533408 16:-0.255689 17:-0.521742 18:-0.292578 
0 0.8405164480285718 0.848668312807753 0 1.226164597785396 0 1:-0.332592 2:-0.725993 3:0.0314901 4:0.387991 5:0.363569 6:-0.209263 7:-0.389948 8:0.378123 9:0.0745709 10:-0.0748083 11:-0.277744 12:0.238264 13:-0.073979 14:0.453651 15:-0.118302 16:-0.163964 17:-0.547277 18:-0.439128 
0 0 0 0 0 0.2377277645669564 1:-0.441767 2:-0.0771117 3:0.63248 4:0.471474 5:0.305908 6:-0.259841 7:-0.379876 8:-0.156226 9:0.153096 10:-0.574321 11:-0.216202 12:-0.16324 13:-0.00550435 14:0.211757 15:0.0114838 16:-0.214906 17:-0.610933 18:-0.320883 
0 0.9146047257119534 0 0 2.040402395927113 0 1:-0.375428 2:-0.0503634 3:0.639351 4:0.470925 5:0.32156 6:-0.184814 7:-0.324577 8:-0.140039 9:0.20584 10:-0.521315 11:-0.227843 12:-0.161529 13:0.0362818 14:0.120692 15:-0.02881 16:-0.154517 17:-0.615464 18:-0.403875 
0 0 0 0.00320186818004461 0 0 1:-0.44106 2:0.016933 3:0.537298 4:0.577357 5:0.334487 6:-0.175292 7:-0.298526 8:-0.096752 9:0.262579 10:-0.584784 11:-0.212022 12:-0.209757 13:0.00433085 14:0.284129 15:-0.0261155 16:-0.194254 17:-0.527102 18:-0.31433 
0.1346717100691072 0 0.845723882712807 0 0 0 1:-0.0919511 2:-0.316477 3:0.0577438 4:0.278943 5:0.523288 6:-0.495131 7:0.141507 8:-0.149611 9:0.0932462 10:0.10908 11:-0.262675 12:0.0381004 13:-0.173805 14:0.371354 15:-0.0897656 16:-0.129954 17:-0.604722 18:-0.266743 
0.6183937366343629 0 0 0 0 0.2458214432368715 1:-0.0638272 2:-0.306828 3:0.0444607 4:0.31031 5:0.192348 6:-0.492517 7:0.0994051 8:-0.15169 9:0.132817 10:0.040121 11:-0.276254 12:0.0527835 13:-0.0324728 14:0.481725 15:-0.154145 16:-0.117183 17:-0.508391 18:-0.516687 
0 4.568434365010914 1.717962194337253 0.8431041064917218 1.330196120041262 0 1:-0.339043 2:-0.141022 3:0.0489441 4:0.119004 5:0.346064 6:-0.275879 7:-0.215057 8:-0.312913 9:0.050934 10:-0.469782 11:-0.251156 12:0.33992 13:-0.300841 14:0.228195 15:0.164897 16:-0.0403811 17:-0.620601 18:-0.57119 
0 0 0.3165446601474853 0 0.2926467049936583 0 1:-0.324962 2:-0.136871 3:0.0843902 4:0.167577 5:0.354883 6:-0.251608 7:-0.172131 8:-0.411677 9:-0.0139311 10:-0.478466 11:-0.3121 12:0.37911 13:-0.124001 14:0.322283 15:0.148746 16:-0.130276 17:-0.567712 18:-0.46572 
0.2655863564795778 0 0.5472936053534999 0.112875151944019 0 0.1798140223177159 1:-0.69681 2:0.130896 3:0.436525 4:0.295547 5:0.324293 6:-0.297262 7:0.246759 8:0.238324 9:0.122331 10:-0.290945 11:-0.202833 12:0.135956 13:-0.0903105 14:-0.408795 15:-0.348943 16:-0.137514 17:-0.506982 18:-0.235114 
0 0 0.01968976777270179 0 0 0 1:-0.638327 2:0.123877 3:0.524584 4:0.360176 5:0.256897 6:-0.169695 7:0.221583 8:0.316462 9:0.171041 10:-0.301001 11:-0.130766 12:0.13802 13:-0.221477 14:-0.192774 15:-0.455514 16:-0.265222 17:-0.420504 18:-0.365937 
0 1.738339315816007 0.4576009534904997 0 5.337384343804088 0 1:-0.49492 2:-0.148722 3:0.642635 4:0.460363 5:0.432098 6:-0.0692057 7:-0.55454 8:-0.0836094 9:0.258114 10:-0.0798821 11:-0.316332 12:-0.251236 13:-0.193169 14:0.0173105 15:-0.00896854 16:-0.0437792 17:-0.616273 18:-0.146228 
1.538158937413036 0 0.2469770054201647 0 2.063756084625239 0.2110477601021558 1:-0.422169 2:-0.179342 3:0.744962 4:0.607312 5:0.157452 6:0.0896116 7:-0.508085 8:-0.0445785 9:0.299736 10:0.0751387 11:-0.329075 12:-0.00383663 13:0.0945118 14:0.0365378 15:0.0222372 16:-0.127715 17:-0.5832 18:-0.373871 
0 0 1.443308086695447 0 0 0 1:-0.521945 2:-0.227525 3:0.587011 4:0.626303 5:0.231875 6:0.0653296 7:-0.263331 8:-0.253761 9:0.160984 10:-0.231319 11:-0.372948 12:-0.184907 13:-0.104635 14:0.354994 15:0.0362622 16:-0.215067 17:-0.483371 18:-0.258289 
0 0 1.427678506093542 0 0.365497866257571 0 1:-0.530995 2:-0.219936 3:0.616878 4:0.661939 5:0.308654 6:0.0232543 7:-0.143602 8:-0.144625 9:0.243212 10:-0.176762 11:-0.371154 12:-0.259337 13:-0.0630532 14:0.327502 15:0.00840607 16:-0.140336 17:-0.508331 18:-0.481642 
0 2.172581243389004 2.211406394874192 0 0 0 1:-0.692237 2:-0.207651 3:0.484362 4:0.553851 5:0.323059 6:-0.173986 7:-0.244635 8:-0.136227 9:0.183055 10:-0.107433 11:-0.450974 12:-0.26623 13:-0.295139 14:0.110793 15:0.118595 16:-0.0616199 17:-0.430712 18:-0.0986503 
0 0.4166616238891755 0.03444173215863383 0 0 0 1:-0.621837 2:-0.280608 3:0.554948 4:0.633377 5:0.294951 6:-0.0120144 7:-0.255058 8:-0.10788 9:0.273766 10:-0.191678 11:-0.398889 12:-0.223347 13:-0.135552 14:0.25473 15:0.0160994 16:-0.143139 17:-0.403484 18:-0.374818 
0.2849076215216643 1.811670815956685 0.04821276173925551 0 3.591603685737684 0 1:-0.526714 2:-0.277473 3:0.635753 4:0.693775 5:0.293574 6:0.0191861 7:-0.220302 8:-0.222743 9:0.184013 10:-0.0878975 11:-0.367819 12:-0.196306 13:-0.193713 14:0.319874 15:0.00666198 16:-0.174113 17:-0.483252 18:-0.30533 
0 1.631521218801103 0 0 0 0 1:-0.547005 2:-0.265388 3:0.726892 4:0.754021 5:0.22711 6:-0.00722935 7:-0.136272 8:-0.132029 9:0.270041 10:0.0246555 11:-0.40192 12:-0.163765 13:-0.110255 14:0.151521 15:-0.00343479 16:-0.117487 17:-0.512138 18:-0.432641 
-0.5375283238508103 0 0 0.1458521983634243 0 0.7883360873346714 1:-0.329183 2:-0.549336 3:0.696601 4:0.762586 5:0.315929 6:-0.404808 7:-0.134568 8:-0.174995 9:0.0697922 10:0.331155 11:-0.161074 12:0.446213 13:-0.0149983 14:0.464064 15:0.16548 16:-0.203143 17:-0.393978 18:-0.628327 
-0.004732154621396241 0 0 0 0 0 1:-0.375916 2:-0.452976 3:0.560701 4:0.592907 5:0.278991 6:-0.417095 7:-0.153831 8:-0.136348 9:0.0820391 10:0.0278761 11:-0.12497 12:0.116178 13:-0.171705 14:0.281575 15:0.231724 16:-0.0575649 17:-0.533943 18:-0.420446 
-0.05138584399876837 0 0 0.1884919762721225 0 0.1329322481142309 1:-0.384401 2:-0.453489 3:0.617905 4:0.607467 5:0.412935 6:-0.576729 7:-0.0842419 8:-0.156564 9:-0.121256 10:0.372354 11:-0.148592 12:0.370636 13:-0.0217227 14:0.312869 15:0.218441 16:-0.0746324 17:-0.479478 18:-0.579604 
-1.997345119474174 0.5804808000643203 1.309223388316375 0.4431843009415287 1.183460467134239 0 1:-0.508924 2:-0.344209 3:0.472445 4:0.454317 5:0.228097 6:-0.682354 7:-0.133953 8:-0.0191283 9:0.0219368 10:0.000176621 11:-0.126571 12:0.0907464 13:-0.360183 14:0.331365 15:0.318647 16:-0.100219 17:-0.542366 18:-0.310777 
-1.147314822152169 0.7042919980161029 1.18822415170538 0 0.9723638389452597 0.1200335639219449 1:-0.350854 2:-0.300675 3:0.507587 4:0.424074 5:0.470848 6:-0.344321 7:-0.141767 8:-0.0919212 9:0.166297 10:0.197688 11:-0.170855 12:0.349856 13:0.182879 14:0.160458 15:0.340783 16:-0.118643 17:-0.627885 18:-0.410095 
-0 0.7232871946124381 0 0 1.793094958916397 0 1:-0.109689 2:0.0227396 3:0.364117 4:0.38333 5:0.42444 6:-0.538237 7:-0.245183 8:-0.266623 9:0.163285 10:0.0156095 11:-0.319607 12:-0.131924 13:-0.0879549 14:0.345549 15:0.0221453 16:-0.11095 17:-0.470654 18:-0.402254 
-0.5577009581570367 0.7089904372170619 0.9168265254857368 0 0 0.06962315470566903 1:-0.157992 2:-0.0680486 3:0.380864 4:0.325898 5:0.58974 6:-0.607995 7:-0.230164 8:-0.217599 9:0.0928197 10:-0.0836676 11:-0.27533 12:-0.107107 13:-0.264892 14:0.38702 15:0.117419 16:-0.217869 17:-0.50556 18:-0.187202 
-0 0.7220045985740914 0 0 0 0.2289576562206679 1:-0.0987832 2:-0.0734754 3:0.345271 4:0.323532 5:0.255964 6:-0.536843 7:-0.383469 8:-0.271393 9:0.10647 10:0.0244734 11:-0.462548 12:0.162655 13:0.229234 14:0.35864 15:0.122004 16:-0.240285 17:-0.429592 18:-0.226065 
-0 0 0 0.2560067711953047 0 0 1:0.094012 2:-0.128466 3:-0.0221152 4:0.376384 5:0.407879 6:-0.324941 7:-0.325556 8:-0.532236 9:0.184235 10:-0.089505 11:-0.393972 12:-0.205094 13:-0.118774 14:0.284431 15:-0.138849 16:-0.136447 17:-0.37381 18:-0.554046 
-0.2688077047925323 0 0 0 0 0 1:0.0527702 2:-0.474159 3:-0.096485 4:0.168788 5:0.182816 6:-0.0794349 7:-0.48485 8:-0.201415 9:0.535553 10:-0.116288 11:-0.551795 12:0.306007 13:-0.178176 14:0.222431 15:0.142265 16:-0.204504 17:-0.449075 18:-0.335509 
-0 0 0 0 0 5.309700993038488 1:0.344311 2:-0.405401 3:0.889794 4:0.689146 5:0.350972 6:0.0428191 7:-0.397841 8:-0.423104 9:0.138337 10:0.160977 11:-0.229161 12:0.23873 13:-0.140468 14:0.0196164 15:0.00153675 16:0.135862 17:-0.481241 18:-0.204624 
-0 0 0 0 0.0902838939046475 2.619017041017318 1:0.256999 2:-0.351124 3:0.843389 4:0.620947 5:0.208734 6:-0.124471 7:-0.409548 8:-0.377958 9:0.181365 10:0.30517 11:-0.261543 12:0.209415 13:-0.186884 14:-0.0865415 15:-0.0696323 16:0.172642 17:-0.522958 18:-0.45726 
-0 0 0.5042106022785774 0 0 0 1:0.300222 2:-0.30691 3:0.695984 4:0.504226 5:0.454568 6:-0.271277 7:-0.286774 8:-0.240559 9:0.283086 10:0.00634594 11:-0.361447 12:0.0999083 13:-0.148522 14:0.106907 15:0.123681 16:0.168612 17:-0.455853 18:0.00933557 
-0 0 0 0 0 0.5156760662822298 1:0.289163 2:-0.298018 3:0.615283 4:0.404997 5:0.204091 6:-0.32472 7:-0.376111 8:-0.282109 9:0.360687 10:0.0561876 11:-0.426175 12:0.0512294 13:-0.03036 14:0.114801 15:-0.0762664 16:0.222302 17:-0.470061 18:-0.30916 
-0 0 0 0 0 1.294123046565611 1:0.409688 2:-0.276062 3:0.597047 4:0.487717 5:0.504496 6:-0.108893 7:-0.284301 8:-0.279702 9:0.39658 10:-0.0133748 11:-0.349371 12:-0.00586377 13:-0.190748 14:0.104507 15:-0.0520997 16:0.186955 17:-0.470426 18:0.0179145 
-0 0.1608165654791377 0.1748337327925769 0 0.5658386161813599 0.1150522373575585 1:-0.0796365 2:-0.35562 3:0.501631 4:0.50156 5:0.516878 6:-0.249621 7:-0.0638422 8:-0.25143 9:0.238086 10:0.753977 11:-0.165366 12:0.146792 13:-0.318496 14:-0.265995 15:-0.0491711 16:-0.125176 17:-0.540915 18:-0.334217 
-0 0 0 0 1.306737429491455 0.2929376888621257 1:-0.0236764 2:-0.265573 3:0.253501 4:0.334127 5:0.345396 6:-0.233592 7:-0.229676 8:-0.321573 9:0.313388 10:0.432498 11:-0.324628 12:0.168286 13:0.271694 14:-0.0219479 15:-0.133156 16:-0.148931 17:-0.501817 18:-0.30871 
-0 0 0 0 0.3083877006687096 0 1:-0.0460853 2:-0.499793 3:0.608247 4:0.710435 5:0.571125 6:-0.0194864 7:0.016075 8:-0.285305 9:0.164018 10:0.461588 11:-0.118377 12:0.0924481 13:-0.163681 14:-0.0950082 15:-0.0715393 16:-0.141225 17:-0.470852 18:-0.291802 
-0 0.3135272218497909 0 0.1593760021015137 0.06232060006450053 0.03668449140108694 1:-0.0852676 2:-0.428228 3:0.608505 4:0.656023 5:0.313018 6:-0.152676 7:-0.132905 8:-0.353937 9:0.138386 10:0.591057 11:-0.338222 12:0.364585 13:0.402395 14:-0.0434561 15:-0.0236893 16:-0.0877492 17:-0.505042 18:-0.3595 
-0 0.1012999778974897 0 0 0 0 1:0.11597 2:0.272314 3:0.597535 4:0.286172 5:0.383517 6:0.344576 7:-0.354976 8:-0.25752 9:0.0964311 10:0.397693 11:-0.322598 12:0.208716 13:0.0198168 14:0.185336 15:0.0266847 16:-0.173136 17:-0.468814 18:-0.241741 
-0 1.336441212897453 0 0 1.736765662367568 0 1:0.111358 2:0.265182 3:0.541504 4:0.270309 5:0.448876 6:0.270296 7:-0.330268 8:-0.266102 9:0.120245 10:0.29136 11:-0.295193 12:0.0669932 13:-0.238908 14:0.145899 15:0.0096701 16:-0.129619 17:-0.489577 18:-0.24173 
-0 0 0 0 0 1.99615560989435 1:0.249853 2:0.274172 3:0.54801 4:0.225375 5:0.529267 6:0.369333 7:-0.256345 8:-0.21361 9:0.0334418 10:0.378972 11:-0.232395 12:0.105804 13:-0.172448 14:0.0525192 15:0.0427456 16:-0.0802319 17:-0.532854 18:-0.182859 
-0 0 0.07530700129967936 0.1101358020100278 0 0.6673120555704914 1:0.262 2:0.300874 3:0.497555 4:0.184656 5:0.415061 6:0.303185 7:-0.238324 8:-0.281135 9:0.0813671 10:0.55335 11:-0.302872 12:0.193088 13:0.274554 14:0.0786261 15:0.0197362 16:-0.0682797 17:-0.547488 18:-0.159871 
-0.7387648245650068 0.1144223312750113 0.3372232777878022 0.3733048632666831 0.1994864840564848 0.3763905151812464 1:0.17817 2:0.453521 3:0.614568 4:0.18201 5:0.170966 6:0.260193 7:-0.358875 8:-0.18207 9:0.165618 10:0.540917 11:-0.32358 12:0.125627 13:0.0995671 14:0.301556 15:-0.00698148 16:-0.152435 17:-0.475152 18:-0.382799 
-0.3173224355997395 0.9681714853000185 0.7808790800855548 0.3192858178559159 0.6540901631668574 0 1:0.159146 2:0.466601 3:0.587462 4:0.168787 5:0.601784 6:0.159689 7:-0.24148 8:-0.166736 9:0.0547312 10:0.578028 11:-0.258605 12:0.0891469 13:-0.00726112 14:0.113501 15:0.0805297 16:-0.0615917 17:-0.521079 18:-0.228197 
-1.688562620632698 0.2541133836725752 0.2217550527237138 0 1.820547842665187 3.359162051361479 1:-0.201767 2:-0.479806 3:0.325377 4:0.460784 5:0.324164 6:-0.291748 7:-0.323478 8:-0.203022 9:0.147779 10:-0.411815 11:-0.195983 12:0.173449 13:-0.219792 14:0.41437 15:0.0667834 16:-0.237392 17:-0.459947 18:-0.401881 
-1.091244212620971 0.7270733883882401 1.092571720149895 0.8594260613194631 0.3947534036502539 0.6958082937470739 1:0.752475 2:-0.592036 3:0.0167263 4:0.734603 5:0.322356 6:0.759413 7:-0.396853 8:0.137597 9:-0.30623 10:-0.104194 11:-0.584317 12:0.386274 13:0.18106 14:-0.68492 15:0.963983 16:-0.465632 17:-0.564253 18:-0.773872 
-0 0 0 0 1.574835827085567 0 1:-0.124454 2:-0.546872 3:0.254604 4:0.44378 5:0.346302 6:-0.213087 7:-0.319853 8:-0.255056 9:0.0994743 10:-0.420978 11:-0.217521 12:0.177476 13:-0.170241 14:0.327715 15:0.0337236 16:-0.168639 17:-0.485484 18:-0.439952 
-0.7058269618945362 1.775264835169494 4.205535813575325 0 3.295529021049736 0 1:-0.21076 2:-0.52803 3:0.288626 4:0.474873 5:0.341871 6:-0.302231 7:-0.359067 8:-0.182313 9:0.219794 10:-0.360332 11:-0.276002 12:0.25333 13:-0.0404187 14:0.426219 15:0.0430519 16:-0.206692 17:-0.486041 18:-0.178039 
-0 0 0 0 0 2.708818358657512 1:0.0221373 2:-0.225331 3:0.23649 4:0.339894 5:0.241889 6:-0.516373 7:-0.352075 8:-0.285073 9:0.234181 10:0.240628 11:-0.163569 12:0.113599 13:-0.0863443 14:0.341909 15:-0.0954621 16:-0.201223 17:-0.529961 18:-0.392102 
-0 0 0 0 0 7.004120708241951 1:0.119425 2:-0.284064 3:0.217883 4:0.446751 5:0.434333 6:-0.386682 7:-0.339805 8:-0.302848 9:0.22508 10:0.279051 11:-0.138451 12:0.177671 13:-0.236913 14:0.132323 15:0.0164771 16:-0.297325 17:-0.514482 18:-0.17652 
-0 0 0 0 0.1094176557512607 0 1:0.0978343 2:-0.235297 3:0.439179 4:0.42721 5:0.660774 6:0.118886 7:-0.174278 8:0.0134348 9:0.157518 10:0.240307 11:-0.356831 12:-0.0988241 13:-0.425047 14:0.331906 15:0.064437 16:-0.113434 17:-0.489256 18:-0.227986 
-0 0 0 0 0 1.601625257312184 1:0.297597 2:-0.316323 3:0.221547 4:0.273401 5:0.497096 6:0.0240925 7:-0.132495 8:-0.133338 9:0.431934 10:0.478157 11:-0.319027 12:-0.0670592 13:-0.353566 14:0.130351 15:-0.0564024 16:-0.0547472 17:-0.487385 18:-0.204288 
-0.4491785562029817 0.3751063987258304 0.3232419636761348 0.4682735598395155 0.156866440614467 0.3784002807218051 1:-0.0861098 2:-0.0471593 3:1 4:0.596239 5:0.357295 6:0.198008 7:-0.0140952 8:-0.0194511 9:-0.328949 10:0.373909 11:-0.145286 12:0.384755 13:-0.141826 14:0.25601 15:0.706781 16:-0.0139492 17:-0.653498 18:-0.447535 
-0.7562004378510054 0.1312747641501712 0.3954637846662494 0.2813291222997965 0 0.1338853568070827 1:-0.171646 2:0.0710782 3:0.937652 4:0.509871 5:0.170869 6:0.207086 7:-0.15465 8:0.0231197 9:-0.239344 10:0.128766 11:-0.145451 12:0.133938 13:-0.287092 14:0.3157 15:0.696998 16:-0.0554069 17:-0.651081 18:-0.269116 
-0 0 0.5630103002989153 0 0 0 1:-0.118451 2:-0.0371197 3:0.676519 4:0.331157 5:0.332067 6:-0.134339 7:-0.060633 8:-0.0177182 9:-0.198359 10:0.275109 11:-0.21815 12:0.191882 13:-0.122534 14:-0.141651 15:0.33811 16:-0.102037 17:-0.577774 18:-0.342651 
-0.08449314623930947 0 0.1862469383683777 0.004921531728672107 0 0 1:0.02121 2:-0.146457 3:0.766538 4:0.473861 5:0.20764 6:0.0925021 7:-0.0663703 8:-0.0872827 9:-0.128314 10:0.373354 11:-0.106317 12:0.113714 13:-0.517965 14:-0.0936629 15:0.436632 16:-0.0816726 17:-0.606354 18:-0.194967 
-0.4518050650896481 2.805616684332611 3.63841689476714 0 2.859532715940311 0 1:-0.0649624 2:-0.189402 3:0.311709 4:0.492825 5:0.420567 6:0.0492506 7:-0.215667 8:-0.456986 9:0.41446 10:-0.316921 11:-0.252539 12:0.231527 13:-0.267212 14:0.13958 15:-0.142717 16:-0.104609 17:-0.468942 18:-0.317646 
-0.5222520795029686 1.092876771095699 0 0.08597386530861871 1.318088076262632 0 1:-0.0734292 2:-0.175871 3:0.22295 4:0.465811 5:0.287291 6:0.0371255 7:-0.288221 8:-0.452267 9:0.346409 10:-0.0946488 11:-0.273518 12:0.391395 13:0.00963843 14:0.185656 15:-0.204913 16:-0.0558794 17:-0.447872 18:-0.379839 
-0 1.030754652133319 0.1519780453843547 2.37165394187428 0 0 1:-0.132961 2:-0.110388 3:0.0425307 4:0.686164 5:0.290398 6:-0.0982106 7:-0.459251 8:-0.251689 9:0.280056 10:-0.142973 11:-0.314482 12:0.157759 13:-0.326907 14:0.178624 15:-0.114438 16:-0.0873233 17:-0.438405 18:-0.269075 
-0 0 0 1.952326590556485 0.3049924767942681 0 1:-0.109625 2:-0.21268 3:0.122342 4:0.614092 5:0.397971 6:0.0646108 7:-0.381026 8:-0.323191 9:0.374844 10:-0.305509 11:-0.256209 12:0.297889 13:-0.124022 14:0.172816 15:-0.177624 16:-0.0927316 17:-0.430195 18:-0.371583 
-0.08349347688400059 2.608758805010021 1.122020782082199 0.01210770630460943 2.125450034343971 0 1:-0.176438 2:-0.219373 3:0.215389 4:0.703154 5:0.273607 6:-0.0133548 7:-0.382102 8:-0.299397 9:0.245095 10:-0.0479384 11:-0.254984 12:0.433486 13:-0.172107 14:0.101541 15:-0.111718 16:-0.0649321 17:-0.454548 18:-0.435747 
-0 0 2.060987759665553 0 0 0.6779602262070966 1:0.130289 2:-0.0378778 3:0.443979 4:0.487922 5:0.242873 6:-0.172322 7:-0.38881 8:-0.111411 9:0.293846 10:-0.216986 11:-0.291394 12:-0.326658 13:-0.111522 14:0.344251 15:0.148784 16:-0.0514871 17:-0.518328 18:-0.380106 
-0.1472290753446246 0 0 0.1068724463936959 0 0 1:0.43554 2:-0.310133 3:0.46922 4:0.366897 5:0.547893 6:0.151408 7:-0.105753 8:-0.268863 9:0.218046 10:0.388673 11:-0.416275 12:-0.0847374 13:-0.194431 14:-0.27496 15:0.0832075 16:0.0633295 17:-0.475139 18:0.0269656 
-0 0 0 0 0 0.3103619705134765 1:0.414013 2:-0.276101 3:0.314855 4:0.242324 5:0.326534 6:0.16681 7:-0.208458 8:-0.234997 9:0.312669 10:0.202907 11:-0.499932 12:0.0278755 13:0.3101 14:-0.0351583 15:-0.0624647 16:0.00907093 17:-0.492805 18:-0.10041 
-0.652803908325892 0.276021159630311 1.355891436662605 0.1919751782837461 0.4344051053269642 0.2627751558010528 1:-0.0136514 2:-0.0640205 3:0.304882 4:0.0330365 5:0.625423 6:-0.441843 7:-0.12466 8:-0.0113418 9:0.487193 10:0.164833 11:-0.392566 12:-0.298679 13:-0.288721 14:0.0339713 15:0.289397 16:-0.0231283 17:-0.540523 18:0.0609926 
-0.7686035940546407 0.4339793697393129 1.089778539508417 0.5087383461987347 0.02779923029050411 0.4964779109095928 1:-0.0195948 2:-0.0846347 3:0.42068 4:0.0963445 5:0.321014 6:-0.722578 7:-0.19712 8:-0.222901 9:0.516228 10:0.662607 11:-0.439393 12:0.0214261 13:0.185965 14:-0.0936248 15:0.120429 16:0.0611561 17:-0.609855 18:-0.0588929 
-0 0 0.3116651351071975 0 0 0 1:0.127441 2:-0.243396 3:0.313161 4:0.190799 5:0.606923 6:-0.266341 7:-0.16702 8:-0.0350214 9:0.401631 10:0.143387 11:-0.441961 12:-0.133117 13:-0.430648 14:-0.160429 15:0.230857 16:0.0355798 17:-0.478151 18:-0.020095 
-0 1.036568594700114 1.411730897639169 0 1.358700770707429 0 1:-0.0225917 2:-0.182849 3:0.471629 4:0.556945 5:0.352116 6:0.147109 7:-0.298062 8:0.0176214 9:0.519955 10:-0.011266 11:-0.325867 12:-0.0343626 13:-0.632105 14:0.187121 15:0.070411 16:-0.100136 17:-0.479911 18:-0.131852 
-0 0 0 0 0.05089719489813165 0 1:0.0937121 2:-0.234605 3:0.493212 4:0.560674 5:0.322122 6:0.257779 7:-0.349861 8:-0.0719681 9:0.449859 10:0.00536249 11:-0.463427 12:0.338472 13:0.081911 14:0.180427 15:0.0304393 16:-0.163104 17:-0.41199 18:-0.671525 
-0 0 0 0.03796609419837703 0 0 1:0.256046 2:-0.529023 3:0.11346 4:0.459551 5:0.258364 6:0.313036 7:-0.156989 8:-0.313538 9:0.276245 10:0.574391 11:-0.275972 12:0.207646 13:-0.250505 14:0.351908 15:0.130686 16:-0.109545 17:-0.532596 18:-0.490589 
-0.3567621873799899 0.1129831555573541 0.08801632960258882 0.1594463218898234 0 0 1:0.00336249 2:-0.561573 3:0.151186 4:0.409407 5:0.523834 6:0.0182498 7:-0.120279 8:-0.157864 9:0.149288 10:0.397953 11:-0.244992 12:0.22138 13:-0.500847 14:-0.0435408 15:0.27902 16:-0.0531363 17:-0.663896 18:-0.33315 
-0 0 0.3733755774729018 0 0 0 1:-0.0241096 2:-0.414696 3:0.338459 4:0.526558 5:0.480759 6:0.0569814 7:-0.056695 8:-0.224514 9:0.177607 10:0.0704167 11:-0.240972 12:0.112375 13:-0.14335 14:0.388887 15:0.137348 16:-0.071155 17:-0.614665 18:-0.427569 
-0 0 3.076675049453726 0 0 0 1:-0.0579073 2:-0.389485 3:0.251892 4:0.419616 5:0.336881 6:-0.0561165 7:-0.121748 8:-0.220182 9:0.245269 10:-0.0290288 11:-0.275621 12:0.135427 13:-0.163095 14:0.219531 15:0.275613 16:-0.122212 17:-0.625145 18:-0.463681 
-0.4987156899387276 0 1.232198505853216 0 0 0 1:0.0165412 2:0.0255548 3:0.58605 4:0.390174 5:0.607577 6:0.189006 7:-0.204388 8:-0.275007 9:-0.0152935 10:-0.12061 11:-0.212834 12:-0.109265 13:-0.189159 14:0.364633 15:0.370256 16:-0.13704 17:-0.570165 18:-0.448311 
-0 0 0.1407177210844313 0 0 0 1:-0.0243746 2:0.0166464 3:0.412682 4:0.260042 5:0.274377 6:0.0500586 7:-0.407537 8:-0.332241 9:0.117449 10:0.108706 11:-0.414804 12:0.0745901 13:-0.0484666 14:-0.124518 15:0.511131 16:-0.0400016 17:-0.668727 18:-0.148528 
-0 0.4830541848340335 0.5594435028277995 0 0.5760543409904334 0 1:0.0554731 2:0.0176904 3:0.353314 4:0.28922 5:0.482445 6:0.0349987 7:-0.256878 8:-0.435511 9:0.367076 10:0.00737288 11:-0.240661 12:-0.0905426 13:-0.305861 14:0.292416 15:0.096891 16:-0.0873134 17:-0.521274 18:-0.502673 
-0 0.5956400318695795 1.723928427364035 0 1.759794012420208 0 1:0.0203338 2:0.0198256 3:0.345715 4:0.270675 5:0.317633 6:0.0258835 7:-0.278103 8:-0.361697 9:0.270129 10:0.159886 11:-0.299722 12:0.217462 13:0.139899 14:0.207043 15:0.201964 16:-0.036005 17:-0.624114 18:-0.306943 
-0 0 0 0.01587033829050096 0 0 1:0.26447 2:-0.431544 3:0.479687 4:0.821743 5:0.179318 6:-0.0269928 7:-0.171452 8:-0.325427 9:0.0501019 10:0.381905 11:-0.32474 12:0.165454 13:-0.539856 14:-0.163617 15:0.162219 16:-0.0207595 17:-0.482795 18:-0.485335 
-0 0 0 0 0 0.1772682899255228 1:0.148616 2:0.110186 3:0.468882 4:0.208524 5:0.396972 6:-0.0632174 7:-0.141346 8:-0.217497 9:0.183699 10:0.257781 11:-0.230693 12:-0.0512846 13:-0.470594 14:0.275834 15:0.0992106 16:-0.141709 17:-0.429988 18:-0.203343 
-0 0 0 0 0 0.08648254306777388 1:0.241789 2:0.070008 3:0.477859 4:0.233882 5:0.368381 6:0.08806 7:-0.160116 8:-0.210386 9:0.241664 10:0.209168 11:-0.391701 12:0.135667 13:0.0466041 14:0.608324 15:-0.128462 16:-0.269098 17:-0.322466 18:-0.365574 
-0 0 0 0 1.93510518052201 0 1:-0.153081 2:-0.45931 3:0.422463 4:0.565648 5:0.356139 6:-0.0224125 7:-0.345314 8:-0.266413 9:0.124907 10:0.0231853 11:-0.320303 12:0.121192 13:-0.0974584 14:0.101964 15:-0.0388592 16:-0.171428 17:-0.492473 18:-0.439249 
-0 2.92586002133568 0 0 2.114720597363479 0 1:-0.214487 2:-0.44019 3:0.338289 4:0.456124 5:0.360668 6:-0.193353 7:-0.399024 8:-0.236563 9:0.100993 10:0.132547 11:-0.374453 12:0.110328 13:-0.22159 14:-0.0571273 15:0.0960737 16:-0.127336 17:-0.534438 18:-0.235349 
-0 0 0 0 0.2391236331228673 0.08110646082919566 1:-0.0354742 2:-0.16804 3:0.594609 4:0.385795 5:0.457659 6:-0.213478 7:-0.400567 8:-0.330871 9:-0.0182836 10:0.041737 11:-0.27546 12:0.308291 13:-0.194006 14:0.170677 15:-0.136218 16:-0.184626 17:-0.358943 18:-0.240109 
-0 0 0 0 0 1.074075700987817 1:0.0460558 2:-0.213521 3:0.725609 4:0.505625 5:0.343968 6:-0.154331 7:-0.419918 8:-0.485845 9:-0.146442 10:0.228243 11:-0.254205 12:0.391011 13:-0.23425 14:-0.0296544 15:-0.134433 16:-0.102869 17:-0.415512 18:-0.301697 
-1.600010391221877 1.326701443501647 2.195817200226797 0 1.181676608210255 1.516792965071481 1:0.0172047 2:0.114876 3:0.45512 4:0.132072 5:0.480816 6:-0.31375 7:-0.411684 8:-0.387552 9:-0.0065127 10:0.133922 11:-0.330665 12:0.261816 13:-0.215689 14:0.165513 15:-0.0734826 16:-0.10534 17:-0.449739 18:-0.132247 
-0.6974127802345629 1.664208581478176 0.1119731143454132 0 1.474961695455039 0 1:-0.0810763 2:-0.174099 3:0.732688 4:0.479237 5:0.340112 6:-0.204969 7:-0.277552 8:-0.395466 9:-0.0904826 10:0.270368 11:-0.258551 12:0.537993 13:-0.206781 14:0.089888 15:-0.109806 16:-0.137235 17:-0.409574 18:-0.297781 
-0.7703817451711118 0 0.4432345709546139 0.06047694543212948 0 0 1:-0.14643 2:-0.170678 3:0.775361 4:0.579754 5:0.419576 6:-0.332198 7:-0.297771 8:-0.478326 9:-0.0805342 10:0.205711 11:-0.238779 12:0.456401 13:-0.416645 14:0.115307 15:-0.0745228 16:-0.159242 17:-0.405992 18:-0.32108 
-0 0 0 0 0.3116135008905929 0.1489146563039916 1:0.150689 2:-0.178747 3:0.505164 4:0.312723 5:0.456456 6:0.417278 7:-0.443508 8:-0.369688 9:0.145231 10:-0.176489 11:-0.157173 12:0.258537 13:-0.236257 14:0.0567099 15:0.0263126 16:-0.167328 17:-0.400909 18:-0.428589 
-0.0587237104989234 0 0 0 0 1.506097245095367 1:0.173558 2:-0.151961 3:0.366128 4:0.239996 5:0.340877 6:0.454671 7:-0.471294 8:-0.353503 9:0.25355 10:-0.217605 11:-0.149852 12:0.116064 13:-0.341744 14:0.22715 15:-0.0521895 16:-0.211783 17:-0.383369 18:-0.375733 
-0.8844357524794337 0.5122499453703231 1.728329813843407 0 1.498233103710878 0 1:0.034921 2:-0.111854 3:0.428956 4:0.191065 5:0.450007 6:0.195071 7:-0.465059 8:-0.336283 9:0.18354 10:-0.144418 11:-0.205645 12:0.328262 13:-0.130767 14:0.324934 15:0.0852358 16:-0.139359 17:-0.453206 18:-0.339347 
-0 0.2768429013001275 0.6924356404751144 0 0.281752815678486 1.717463749356328 1:0.0636899 2:-0.166794 3:0.485172 4:0.203696 5:0.415333 6:0.169418 7:-0.455961 8:-0.441603 9:0.169047 10:0.233779 11:-0.181548 12:0.360776 13:-0.223576 14:-0.102252 15:0.147095 16:-0.0364365 17:-0.53757 18:-0.168528 
-0 0 0 0 0 1.226153502134773 1:0.0495493 2:-0.141558 3:0.540049 4:0.281787 5:0.343133 6:0.163799 7:-0.440577 8:-0.366997 9:0.143692 10:0.0304534 11:-0.133896 12:0.285047 13:-0.267625 14:0.213567 15:0.0649035 16:-0.197066 17:-0.3938 18:-0.358275 
-0 0 4.025621407826771 0 0 0 1:-0.0483377 2:-0.187091 3:0.37819 4:0.60564 5:0.352909 6:-0.185591 7:-0.314925 8:-0.156587 9:0.166875 10:0.0816866 11:-0.471416 12:0.222843 13:-0.202521 14:0.204687 15:0.130051 16:-0.00559481 17:-0.533206 18:-0.491914 
-0.2270451384741904 0.2720183895840239 0 0.3481465932918232 0 0 1:0.16519 2:-0.371278 3:0.359376 4:0.56931 5:0.269427 6:-0.291321 7:-0.020903 8:-0.298423 9:0.834111 10:-0.407088 11:-0.384015 12:-0.148009 13:-0.100435 14:-0.150473 15:0.107805 16:-0.153193 17:-0.432584 18:-0.336938 
-0 0 0 0 0.5239338368446359 1.390741206644066 1:0.217329 2:-0.335123 3:0.451634 4:0.592437 5:0.310757 6:-0.36413 7:-0.0394152 8:-0.239522 9:0.751564 10:-0.34118 11:-0.341825 12:-0.214923 13:-0.0808772 14:-0.0432028 15:-0.0253162 16:-0.0549998 17:-0.450222 18:-0.219219 
-0.3049012164287353 0 0.1668254514010238 0.1544886878622141 0 0 1:0.242518 2:-0.300927 3:0.372589 4:0.524511 5:0.290591 6:-0.391248 7:-0.0229649 8:-0.279024 9:0.794916 10:-0.331402 11:-0.438156 12:-0.157061 13:0.154239 14:-0.0432516 15:-0.0380942 16:-0.0941372 17:-0.428519 18:-0.134042 
-0 0 0 0.1338824503857789 0 0.2200282146744225 1:-0.26745 2:-0.412278 3:0.454278 4:0.405074 5:0.525171 6:-0.258625 7:-0.409505 8:-0.408108 9:0.00886198 10:0.212558 11:-0.237744 12:0.310024 13:0.198891 14:-0.217242 15:0.369241 16:-0.0850836 17:-0.600365 18:-0.499833 
-0 0 0.4071460731011524 0 0 0 1:-0.271104 2:-0.399513 3:0.412493 4:0.370617 5:0.210383 6:-0.0274641 7:-0.437369 8:-0.302602 9:0.00519276 10:-0.0591972 11:-0.137632 12:0.0365146 13:-0.153706 14:0.095403 15:0.413465 16:-0.126827 17:-0.495718 18:-0.176789 
-0.6250040261510933 0 0.06867192580479871 0.525792321877846 0 0.6201817211029711 1:-0.213213 2:-0.331077 3:0.332695 4:0.33567 5:0.535781 6:-0.0143741 7:-0.314028 8:-0.18738 9:-0.0509979 10:-0.204932 11:-0.276606 12:0.132149 13:0.368401 14:-0.0385719 15:0.391822 16:-0.144114 17:-0.615797 18:-0.538434 
-1.057170360022529 0.4109108716327985 2.139994859575625 0 2.103502347975772 0 1:-0.294518 2:-0.36361 3:0.367223 4:0.35109 5:0.1795 6:-0.0854286 7:-0.409804 8:-0.364658 9:0.0578702 10:-0.103105 11:-0.182928 12:0.00403441 13:0.00481848 14:0.177465 15:0.292328 16:-0.115591 17:-0.550542 18:-0.31999 
